nep4 4 Ag Al C N 
cutoff 9 6 155 54
n_max 10 8
basis_size 10 8
l_max 4 2 0
ANN 50 0
  6.6157341e-02
 -3.4799475e-02
  1.6323398e+00
 -1.5917611e+00
  6.3639514e-02
 -1.0880577e-01
  3.5124082e-02
  1.3058101e+00
 -2.3673709e-01
 -2.6966730e-01
  3.5327532e+00
 -1.3694601e-01
  7.1212023e-02
  1.6879469e-01
 -1.7618400e+00
  2.8132431e-02
  8.2701527e-02
 -7.0370567e-01
 -4.8605502e-02
  2.4934689e-02
  3.3171672e-01
  3.0046552e-02
 -2.1073794e-01
  2.1729310e-01
 -2.9243073e-01
  1.3442799e-01
  2.4439827e-01
  1.7014338e-01
 -2.3382302e-01
  1.6709080e-02
 -3.0571675e-01
  1.9384636e-01
 -9.4325282e-02
  2.6613799e-01
  2.6917230e-02
 -4.0906024e-01
 -4.3605853e-02
 -7.5597470e-03
  5.7352304e-02
  5.6295818e-01
 -1.5223615e-01
 -1.9469517e-01
 -1.2646074e+00
 -5.5392253e-01
 -3.0910950e-02
  1.4155971e-02
 -1.2821628e-02
  6.4912379e-02
  7.9066381e-02
 -3.7307177e-02
 -2.0629302e-01
  1.3786264e-01
 -1.8269783e-02
 -9.9797444e-03
 -6.8583727e-02
 -1.5902828e-02
  3.4298220e-01
  5.9103549e-02
  7.4930832e-02
  1.2401097e-01
  6.2839520e-01
  2.0465426e-02
  2.5300270e-01
 -4.9741726e-02
 -4.6405539e-01
  6.1840128e-02
  9.9892789e-01
 -1.0328134e-01
  2.2856317e-01
 -2.3704162e-01
 -8.2237676e-02
 -2.6255918e+00
 -2.9478529e-01
  3.8116613e-01
  4.9974704e-03
 -1.1923371e-01
  3.2041183e-01
 -3.6472881e-01
 -1.0184292e+00
 -9.5815498e-01
 -6.3994575e-01
  1.5798878e-02
  8.4913105e-02
 -6.2667787e-01
 -5.4797578e-01
 -1.6133026e+00
 -5.8168697e-01
 -9.4529911e-04
  7.2228795e-01
  5.1123466e-02
 -1.9578101e-01
  1.2137002e-01
 -5.5144295e-02
 -9.7533487e-02
 -7.1065286e-03
 -5.8146375e-01
 -7.9433978e-01
 -9.2998391e-01
 -4.0397158e+00
  1.6016565e-02
  3.9752360e-02
 -3.4787586e-01
 -5.0083369e-01
  3.8390467e-01
  9.9340566e-02
 -1.4663766e-01
  5.9940007e-02
  8.8182636e-02
 -4.2096600e-01
 -1.3197595e-01
  1.9985244e-01
  2.5156179e-02
  1.7506183e+00
  2.0380254e-01
 -7.9589754e-02
 -1.3658355e-01
  7.3406734e-02
  2.3910349e-02
  8.7802187e-02
 -2.2986321e+00
  2.8709941e-02
 -2.6065388e-01
  7.7652872e-01
  2.3482172e+00
 -2.1739724e-01
 -3.3257535e-01
 -4.4156855e-01
 -2.1264893e-01
 -2.9016456e-01
 -6.2787205e-02
  3.2769364e-01
  2.9274138e-02
 -1.5456705e-01
 -1.6948881e-02
  4.9707982e-01
 -2.9359750e-02
  3.5950193e-01
  9.4899490e-02
 -1.6916996e+00
 -1.1644216e-02
  1.5258464e-01
  3.7003364e-02
 -2.7386474e-03
  4.8220786e-01
 -2.1969847e-01
  7.1613930e-02
 -3.6297023e-02
 -4.8899919e-02
 -6.4337075e-02
 -1.5204318e-01
 -4.6704881e-02
 -7.6069221e-02
  7.5318843e-02
  8.2191288e-02
  2.5114775e+00
 -2.1566732e-01
  2.6710086e-02
 -1.7946517e-02
 -5.1153712e-02
 -6.4122510e-01
  6.3136429e-02
  3.8044032e-01
  2.1871060e-01
 -2.9406008e-01
  1.5200396e-02
  3.2707143e-01
 -1.0228280e-01
  4.6336120e-01
  3.5997659e-03
  2.4971116e-01
  2.4173519e-01
 -8.6677663e-02
  3.3526400e-01
  2.2455533e+00
 -7.7427410e-02
  1.8766086e-01
  2.0309443e+00
  3.2752458e-02
 -5.2483734e-03
 -1.1609346e-01
 -1.0212553e-01
 -2.8784493e-01
 -1.3004292e-02
  1.2112857e+00
 -1.0206821e-01
  8.5283956e-03
 -1.5210368e-01
  5.9749797e-02
  3.7496120e-01
 -5.9810083e-02
  3.7958464e-01
  1.0674881e-03
  8.2511745e-02
 -6.7678735e-02
 -8.2694605e-02
  2.9415664e-01
  2.7574664e-01
  1.9660002e-01
 -3.0092869e-02
 -2.1294619e-01
 -1.4968233e-02
  8.3557203e-02
  1.4476845e-02
 -1.1109697e-02
 -1.0620940e-01
 -3.9859101e-02
  1.8294431e-01
 -6.0176462e-02
  1.4841391e-02
  1.9060022e-01
 -1.1118682e-03
  3.1911530e-02
  8.9657342e-01
 -2.7858784e-02
 -1.4297160e-02
  4.6692599e-02
 -4.3077998e-02
 -2.3006263e+00
  1.0833763e-01
 -1.5504840e-01
  2.9085881e-01
 -3.9438702e-02
  2.7066019e-01
  3.9709279e-01
 -4.3981305e-01
 -7.1716636e-02
 -1.0702135e-01
 -1.6865672e-01
  1.9063176e-01
  2.9630117e-02
  2.4353068e+00
 -1.1018453e-02
 -1.5501620e-01
  2.2144524e-02
 -2.3478739e+00
 -4.6773535e-01
 -2.1010895e+00
 -4.2519492e-01
 -7.2217309e-01
 -3.6785465e-03
  1.5124711e-01
 -1.2898415e-01
  1.8446568e-01
  5.2743042e-03
  3.2622564e-01
 -4.1579451e-02
  4.5889754e-02
 -1.8696023e-02
  8.0875084e-02
 -9.4914176e-02
  9.6408561e-02
 -2.0703790e-01
  6.6984226e-03
 -3.5491183e-02
  1.2214821e-02
  3.3553731e-01
  2.0285246e-01
  1.2160468e-02
  1.1364093e-01
  1.4280340e-01
 -2.7656981e-01
 -9.7716898e-02
  1.2549577e+00
  1.3540331e-02
  1.9246468e-01
  2.6262684e+00
 -4.9470730e-02
 -5.3483583e-02
  1.2959647e-01
  9.5796390e-03
 -1.0333827e-01
  1.9451306e+00
 -2.6162222e-01
 -3.5835630e-01
 -5.0517572e-03
 -2.5597623e-01
 -1.7810553e-01
 -7.5800799e-02
  1.9952849e-02
 -4.5627385e-02
 -1.0535802e+00
 -1.0534263e+00
  5.2928811e-01
  5.0110664e-02
 -2.0176241e+00
 -2.4410028e+00
 -1.3723563e+00
  1.9995897e+00
  8.3842498e-01
  6.2464035e-01
 -1.7271233e+00
 -3.0250075e-01
 -6.1667782e-01
 -1.6813561e+00
 -4.7601841e-02
  2.9120130e-02
 -2.7865314e-01
 -1.4338143e-01
  4.4818595e-01
 -1.9601963e-01
 -2.3860972e-02
 -2.7743888e-01
 -7.3538983e-01
 -4.4122013e-01
 -2.2653524e-02
  9.6512243e-02
 -9.9816263e-01
 -1.1288688e-01
 -6.4275819e-01
  1.2780544e+00
  4.2755574e-02
 -2.2192154e+00
  1.2042847e-01
 -6.6494930e-01
 -4.6142787e-01
 -5.6966889e-01
  5.2754804e-02
  1.1119133e+00
 -7.6165974e-02
  1.6844140e-02
 -2.3468432e-01
  8.6335860e-02
  1.2278263e-01
  1.1036185e-01
 -9.9654095e-03
 -1.7250991e-01
  1.2613183e-01
 -2.7252227e-01
 -3.5528940e-01
 -4.0698987e-01
 -1.4395049e-01
 -5.9759639e-02
  8.5028954e-02
 -1.8769647e-01
  8.2086259e-01
  2.0611912e-01
  4.8357755e-01
 -6.0354203e-01
  3.7253972e-02
  2.4411687e-01
  3.2867092e-01
  7.0143946e-02
 -5.6642551e-02
 -9.4803914e-02
  8.6100417e-01
 -1.2609528e+00
 -8.2659805e-01
 -2.1410380e-02
 -2.0078327e-01
 -4.1272256e-01
 -3.6855504e-02
 -3.0325955e-01
  5.8290929e-02
 -8.4266716e-01
  3.5879162e-01
 -6.5154898e-01
 -2.1344814e+00
  5.0095218e-01
  1.7863393e-01
  8.6183172e-01
 -1.6133277e-01
 -5.3734607e-01
  1.6109648e-01
  1.8371528e+00
 -3.3267487e-02
 -1.8484569e-01
  1.2861976e-01
 -2.1273960e-01
 -2.2549585e-01
  2.8704858e-01
 -1.3611113e+00
 -6.8371043e-02
  8.5757554e-01
  2.6220560e-01
 -3.8180012e-01
  2.1141157e+00
  2.6309285e-01
  2.2346351e-02
 -3.8706824e-02
 -5.9368443e-01
  3.3654401e-01
  2.6658468e-02
 -2.5734329e-01
  5.3032435e-02
 -1.0808233e-01
 -3.1285149e-01
  2.2234605e-01
 -4.9213186e-01
  2.6429710e-01
  6.7009664e-01
 -5.7027805e-01
  3.8324177e-01
 -1.1726630e-01
 -1.3978373e-01
 -2.2978941e-01
 -2.7696171e-01
 -1.1947303e-01
  2.6331657e-01
  1.6573036e-01
  6.2720889e-01
 -1.1960609e-01
 -1.0127779e-01
 -5.6324370e-02
  9.3177669e-03
  2.4826275e-01
  1.0176610e-01
  5.0854081e-01
 -2.9327205e-01
  2.8371644e-01
  9.4844773e-02
 -8.5706990e-03
 -1.8971562e-02
 -3.6398926e-01
 -1.2571360e+00
  3.5362780e-02
  1.7212147e-01
  1.5657721e+00
  4.6249412e-02
 -1.2450677e-01
 -1.0212556e-01
 -1.0224345e-01
  3.7022486e-01
 -1.3389865e-01
 -7.6978467e-03
  2.7417502e-01
  8.5369602e-02
  1.4363541e-01
  2.2994608e-01
 -5.4135742e-03
  4.9858149e-02
 -2.2706719e-01
 -3.2921892e-03
 -6.9193274e-02
 -3.6191422e-02
  5.1404517e-02
 -4.0057558e-01
  2.2845848e+00
 -1.4155091e-01
  2.5079265e-02
 -2.1707463e-01
 -7.0612334e-02
  4.2651451e-01
  7.9955392e-02
  1.0929812e+00
  1.2090166e-01
 -1.9347176e-01
  2.6968986e-01
  2.2176385e-01
 -1.2082081e+00
  6.2561500e-01
 -1.2191950e-02
 -5.1959908e-01
 -1.0000543e-02
  2.5200871e-01
 -5.6534678e-02
  4.3781227e-01
 -3.1944145e-02
 -1.1343302e-01
 -6.5245345e-02
 -3.1527284e-01
 -8.0521107e-01
 -1.0765226e-01
  2.5376875e-02
  6.2842262e-01
 -1.1607631e-01
 -3.6935338e-01
  1.2693161e-01
 -1.6886990e-01
 -4.7536630e-02
 -1.8372133e-02
  4.5576024e-01
 -2.5311040e-02
  7.3152500e-01
 -2.2122605e-02
  2.0715814e-02
 -6.6101599e-01
  6.2475908e-01
 -1.6809535e-01
  3.8352911e-03
  2.5267127e-01
  4.7495082e-01
  1.0050311e-01
  6.0026068e-02
  2.7120680e-01
 -2.3263623e-01
 -2.9351631e-01
  8.0293342e-02
 -2.4788232e-01
  4.5866580e-03
 -2.8231984e-01
  8.4931515e-02
  4.3501016e-01
 -1.3604103e-01
 -3.4237313e-01
  8.6618230e-02
  8.6211145e-02
 -1.0074370e-02
  2.4467851e-01
 -1.3295043e+00
 -6.7181565e-02
 -2.1894645e-02
 -4.0853986e-01
  1.9816500e-01
 -1.7655596e-01
  1.4097697e+00
 -4.9693084e-01
 -1.4773363e-01
 -1.1846499e+00
 -5.7292354e-01
 -1.4177867e+00
 -5.5177998e-02
 -4.1856742e-01
 -1.4048904e+00
  1.4202328e-01
  6.5822625e-01
 -1.2988302e+00
  7.6957598e-02
 -1.0433403e+00
 -5.8219677e-01
  1.4696178e-01
 -3.6953010e-02
  4.8921031e-01
 -1.1279058e+00
 -5.2480721e-01
 -6.1913395e-01
  3.6334547e-01
 -1.7336628e-01
 -5.7586175e-01
  3.6673352e-01
 -2.0086811e+00
 -1.3965807e+00
 -2.8410697e-01
 -8.6043179e-01
 -3.3680141e-02
 -8.9062321e-01
 -3.9042052e-02
 -4.1159055e-01
  3.3598569e-01
 -1.1828505e+00
 -3.6789158e-01
 -2.4218707e+00
 -4.7030708e-01
 -6.6396248e-01
  7.2598773e-01
 -1.8813429e-02
 -1.0594042e-01
  1.3346680e-01
 -1.2784344e-01
 -1.1175860e-01
 -3.2557026e-01
  3.8685840e-01
  2.0967517e+00
  1.1928740e-01
  4.3086669e-01
  6.7780226e-01
 -8.3720207e-02
 -3.1758231e-01
 -3.3788136e-01
  4.2958793e-01
  1.1138646e-01
 -7.4032402e-01
 -1.4749178e+00
 -9.5614535e-01
  3.9282027e-01
  5.6583333e-01
 -1.5037830e-01
 -1.8468966e+00
 -1.7868458e-01
  8.8440883e-01
 -2.1359315e+00
 -1.2432662e+00
  7.9355621e-01
 -1.8098247e-01
  1.5870546e+00
  2.0520012e-01
 -4.8107740e-02
  3.1336360e-02
 -7.4318491e-02
 -3.4737113e-01
  5.0697248e-02
  4.9811935e-01
 -2.1079783e+00
  1.4214586e+00
  3.0724702e+00
 -1.0490187e-01
  5.8577914e-02
  6.9501832e-02
 -1.0195504e+00
  3.9561382e-01
  1.4612420e+00
 -8.1116581e-01
  1.5303776e+00
  1.7414612e+00
 -4.4391897e-01
 -2.9438329e-01
  3.6043081e-01
  1.1076131e+00
 -1.2813530e+00
  2.2679539e+00
  2.1192439e-01
 -1.3150260e+00
  7.5714326e-01
 -3.2825181e-01
  3.3256054e-01
  5.1521075e-01
 -2.1557845e-01
  2.5918083e+00
  1.5901908e-01
  1.9137047e-01
 -1.0824125e-01
  8.5929662e-02
  9.4953902e-02
 -3.4426898e-02
 -1.0230058e-01
  2.1801455e+00
  3.8722318e-03
 -3.9898241e-01
  5.6931470e-02
 -1.1658957e-01
  1.2600666e-01
 -5.4460573e-01
 -8.0701137e-01
  3.6902061e-01
  4.4422886e-01
  3.9102298e-01
  6.2308140e-02
  2.2300503e-01
  2.9647130e-01
  5.1152287e-03
 -1.9025493e-02
 -4.1548819e-03
  7.2399616e-02
 -2.0834666e-02
  1.3753651e-01
 -7.6635636e-02
  1.8013284e+00
 -2.1456707e-02
 -3.6910650e-01
 -2.6531665e+00
 -9.2342801e-02
 -4.9498177e-01
 -1.2649170e-01
  3.4865841e-01
  1.0229035e-01
  1.2746613e-01
 -8.3011342e-03
 -1.3685478e-01
  1.6126648e-01
 -2.3431206e-01
  1.8587287e-01
  4.2330232e-02
  1.3134979e-01
 -1.7166574e-02
  3.9540353e-01
  1.1234613e-01
 -3.0148765e-01
 -1.4573476e-02
 -1.5009451e-01
 -2.1939240e+00
 -8.6737052e-02
  1.1821716e-01
  3.7664939e-02
 -1.8876213e-01
  1.9470975e-01
 -1.9955727e-01
  9.1108114e-01
 -2.2928332e-01
 -1.5534979e-02
  4.0766183e-01
  1.2584089e-01
 -3.6364952e-01
 -1.9371019e-01
 -1.5631957e+00
 -2.5101107e-01
  3.3560151e-01
 -5.6056172e-01
  2.5386024e-01
  2.1894585e-01
  1.4746920e+00
  1.7242258e+00
 -4.1893501e-02
 -1.2732881e-01
 -1.9128180e+00
 -2.0321913e+00
  1.0058131e+00
  2.6001806e+00
 -1.0338702e+00
  2.6193693e-01
 -8.4147614e-01
 -1.3110331e-01
  2.3820646e+00
 -8.4685379e-01
 -7.1117836e-01
  8.1639826e-02
  2.3001745e+00
 -2.2632470e+00
 -2.4634672e-02
  2.7059674e-01
  1.9732044e+00
  5.3143490e-02
 -2.6811435e+00
  4.3547025e+00
  2.2065580e+00
 -3.4098381e-01
 -9.8081899e-01
 -2.9653120e-01
  2.9002364e+00
 -4.3826437e-01
 -1.1526868e-01
 -2.8425756e+00
 -6.8493813e-02
  4.5350332e+00
  9.1705644e-01
 -3.4355714e+00
 -1.1121647e-01
  4.6274023e+00
 -6.4064473e-02
  9.6159518e-01
 -1.0709608e+00
  3.5709831e-01
 -1.0088748e-01
 -9.4151413e-01
  2.8371221e-01
 -4.3291953e-01
  6.4451143e-02
  1.1240675e-01
 -7.1464139e-01
 -3.7512997e-01
  8.6644158e-04
 -2.9816207e-01
 -4.6671468e-01
 -1.9074805e-01
 -1.3169117e-02
 -2.2222888e-02
  2.4588592e-01
  2.3952272e-02
  6.3071096e-01
  1.6237531e-02
  1.3087383e-01
 -2.5266543e-01
 -1.0793919e-02
  1.1515053e-01
  5.7752140e-02
 -5.2650519e-02
 -4.1428638e-01
 -4.8909646e-01
  1.2509363e+00
  2.9964232e-01
 -1.5638003e-01
  1.8520142e-01
 -1.2133304e-02
 -1.7153731e-01
 -1.5049641e-01
  1.3709749e-01
  1.8055439e-02
  5.3953286e-02
  7.4536428e-02
 -1.2314530e-01
 -1.6340482e-01
  4.9633303e-01
 -8.8747334e-01
 -8.8926844e-02
 -2.5348542e-02
 -5.4504354e-02
  1.1635930e-01
  2.2249236e+00
  8.8289566e-02
 -5.5309039e-02
 -2.0803635e-01
 -2.1219754e+00
  1.5993258e-01
 -5.7031452e-03
 -2.2442706e+00
 -1.0371169e-01
  4.2768169e-02
 -9.7646430e-02
 -4.9250171e-01
  1.7678333e-02
  1.0071318e-01
 -1.2505312e-01
 -1.5894298e-02
 -6.1355118e-02
 -4.3440141e-02
  3.5872665e-01
  7.7039975e-01
 -5.9645909e-01
  2.8641114e-01
  8.9124769e-01
  3.2762784e-01
  1.5627705e+00
 -6.0468012e-01
  1.0586119e+00
  3.7854340e-02
  2.1491251e+00
 -2.2298014e+00
  1.7353067e-01
 -8.4028477e-03
  1.8621863e+00
  4.6155229e-01
  1.8480960e-01
  1.3602494e-01
 -3.6649981e-01
  7.0401184e-02
 -2.8765327e-01
  3.5755057e-02
 -2.0405555e-01
 -7.2772056e-02
 -5.8266785e-02
  2.4193680e-02
  1.9468717e-02
 -3.2757223e-01
  1.2903492e-01
 -1.9560896e-02
  3.5030268e-02
 -7.5863463e-01
 -4.6471322e-01
 -3.0137332e-02
 -4.1885421e-02
 -6.8245035e-01
 -1.3846700e-02
 -4.6359134e-01
 -1.4185462e+00
  1.9030111e-01
 -9.8453635e-01
 -1.3607463e-01
  2.2298898e-01
  6.8785222e-03
  1.0037945e-01
 -1.2867796e-02
 -1.6474275e-01
 -8.7721628e-01
 -1.7432974e-01
 -9.7072536e-01
 -1.2524797e-01
  7.8314835e-01
 -2.4157062e+00
  3.7163556e-02
 -1.7847037e-01
 -7.0564437e-01
  1.6585091e-02
  1.0639419e-01
 -1.8728884e+00
  1.4383245e-01
 -1.8355647e-01
  2.9007310e-02
 -3.1889111e-02
 -2.0583515e-01
  6.7480224e-01
  1.3085975e-01
 -4.7360680e-01
 -4.6371840e-02
 -1.1085781e-01
 -1.2429585e+00
 -3.2959428e-01
  2.9197743e-03
  1.0790643e-01
  2.8704677e-02
 -1.5787213e-01
  1.3615402e+00
  4.4514227e-01
 -3.4516625e-02
 -1.6286978e-01
  8.9918956e-02
 -7.3048919e-02
  1.0624489e+00
  9.8870203e-02
 -9.2818335e-02
  1.5164313e+00
 -2.8214428e-01
  1.4209096e-01
  1.6197167e-01
  1.0287882e+00
  1.4504527e-01
  1.1919534e-01
 -3.5917473e-01
  5.8455519e-02
  3.2386222e-01
 -8.7539896e-02
 -1.3291302e-02
 -2.0902610e-01
  2.9142052e-01
 -9.0539670e-03
  1.3989055e-01
  3.0502903e-01
 -4.9359729e-03
  7.8033251e-03
  3.2283440e-02
  2.9549617e-01
  7.7071920e-02
 -6.7475158e-01
  6.9189757e-02
 -2.5549692e-01
 -1.6195765e-01
 -4.8830506e-01
  1.8043883e-01
  2.5926355e-01
  2.1336240e-01
  2.5676661e+00
 -2.4342580e+00
  5.9959155e-02
 -1.2534556e-01
  2.9298432e+00
  2.0457546e-01
  9.5816394e-03
 -1.2967676e-02
  1.0040044e-02
  1.4317435e-01
 -9.2389837e-02
  1.6480982e-01
  1.1298335e-01
  4.5414045e-01
 -1.5238330e-01
 -3.7722841e-02
 -9.8154746e-02
  3.5126370e-01
 -3.0154163e-01
 -5.7044703e-01
 -2.0278430e+00
 -1.4234614e-01
 -1.1459351e-01
  2.8252053e-01
  4.1917152e+00
 -6.2824339e-02
 -5.6886051e-02
 -4.8010278e-02
 -2.6820973e-01
  1.9536322e+00
 -9.0802336e-01
 -1.9989488e-01
  1.4169787e+00
  2.1282487e-01
  2.3465129e-02
  2.8981036e-01
 -8.7782204e-02
  2.1771882e-01
 -9.6299089e-02
  2.3980911e-01
 -3.7509200e-01
  1.3153234e-01
 -2.3357656e-02
  2.1414052e-01
  1.3551211e+00
 -2.6553014e-01
  2.6161337e-01
 -6.1691172e-02
  2.9982403e-01
  3.0973686e-02
 -1.7731409e-01
  1.0635100e-01
  2.0495944e+00
  1.5961461e-01
  1.8891254e-01
 -5.3321254e-01
  8.7969370e-02
 -1.2377895e-01
  1.6822948e-01
 -8.7222469e-01
  2.2230855e-01
  8.2987346e-02
 -4.0605497e-02
 -3.2043755e-01
  1.6523508e+00
  1.7280543e-01
 -4.8778427e-01
 -1.1384943e-01
 -2.6977766e-01
  1.7810740e-01
 -5.0556022e-01
  1.7099191e-01
  9.7716600e-04
  1.6395235e-02
  7.7004045e-02
  1.4611246e-02
  1.1610112e+00
 -1.0005500e-01
  8.4798727e-03
  8.3354324e-02
  3.4292606e-01
 -1.1407561e-02
  1.7888348e-01
  4.6039436e-02
 -1.1759038e-01
  9.0622725e-03
  3.9530553e-02
 -5.4119661e-02
  5.1758879e-01
 -2.0882611e-01
 -4.3775934e-01
 -2.8199822e-01
 -7.4550524e-02
 -2.3887354e-01
  8.8522837e-02
 -2.0589854e-01
  1.2157090e-01
 -6.0197644e-02
 -1.9802162e-01
 -8.3651543e-02
 -7.4634098e-02
 -7.0283450e-02
  1.3859269e-01
  1.4280574e+00
  2.2585461e-01
 -1.9668843e+00
  4.8414323e-02
 -9.7909555e-02
  5.3541329e-02
 -3.4561760e+00
  2.4392308e-01
  2.0188205e-02
 -6.5331519e-01
 -1.8650530e-01
  1.6305168e-01
  1.6770078e-01
 -7.1197711e-02
  4.2895358e-02
 -9.3079489e-01
 -6.5165669e-02
  1.8569571e-01
 -1.6892120e-01
 -4.1592881e-02
  3.2817729e-02
 -4.0097050e-02
 -6.9974586e-02
  1.5796695e+00
 -1.9324379e+00
  2.4111076e-01
 -1.2271425e+00
  7.3003899e-03
 -7.9546469e-01
  1.1000551e-01
  1.0710996e-01
 -1.6733101e-01
  1.1509409e-01
 -5.9146810e-01
 -4.8038340e-03
  2.8914905e-01
 -1.0785651e-01
  2.0774487e-01
 -1.4019423e-02
 -8.9362450e-02
  7.2880059e-02
  2.5285542e-01
  7.7400967e-02
 -9.6665798e-03
 -1.0578626e-01
 -7.6052725e-02
  3.5047504e-01
  8.6630695e-03
  1.6041230e-01
 -2.3510303e-01
  1.2746172e-01
 -3.3223239e-01
  9.5630717e-01
 -1.4953430e-02
  2.7481800e-02
  5.2393854e-02
  2.1384853e-01
 -4.1947386e-01
  4.6134853e-01
  2.6055509e-01
  4.1163415e-01
 -9.1533765e-02
 -1.8268895e+00
  2.2458035e-01
 -1.0611378e-01
  3.0812584e-03
  7.6307341e-02
 -1.8471418e-02
 -8.1995972e-02
 -6.0383731e-01
 -7.6083392e-02
 -1.3695423e-01
 -6.2294457e-02
  1.7666670e-02
 -1.4816310e-01
 -3.0078474e-02
  2.1960817e-01
 -2.7502510e-01
  1.6409357e-01
 -6.8064952e-01
  2.1464754e-02
  4.9111417e-01
 -3.0993402e-01
  1.7117514e-01
  2.2990918e-02
 -5.2362627e-01
  5.9417132e-02
 -1.1156348e-01
 -4.5336332e-02
  3.9123893e-01
 -1.1986322e-03
 -1.4699474e-01
 -2.9147804e-01
  9.3905145e-01
 -4.6888221e-02
 -1.7814523e-01
  2.1988587e-01
  1.6657788e-01
  2.4044682e-01
 -1.6760262e-02
 -1.1109009e+00
  1.2874199e-01
 -1.9727807e-01
 -1.1104332e-01
  4.2747423e-02
  6.5759873e-01
  8.7074585e-02
  9.7880000e-01
 -2.2892869e-01
  1.5382485e-01
  1.3127121e-01
  9.9774599e-02
  3.0637115e-01
  4.4811789e-02
 -7.5342521e-02
 -6.2614083e-02
 -1.0101812e-01
 -2.8221568e-02
  3.6980444e-01
 -3.3874577e-01
 -2.5987904e+00
 -2.6335484e-01
  1.4947095e+00
  4.0776333e-01
 -9.6609211e-01
 -1.0182318e-02
  3.4888986e-01
  2.3202817e+00
  5.2074991e-02
 -1.5382187e+00
 -2.5026741e+00
 -6.0046367e-02
  1.4256595e-01
 -8.1080496e-01
  9.0197295e-01
 -1.5153377e+00
 -9.1587430e-01
  1.3311812e-01
 -8.7845212e-01
  7.5299524e-02
 -1.0484294e+00
 -2.0988555e-01
 -8.7378836e-01
  3.8769123e-01
 -6.8346903e-02
  2.1512757e-01
 -4.4628403e-01
  1.0913597e+00
 -2.4024902e-01
 -8.2884932e-01
  1.9618112e+00
 -1.3726075e+00
 -8.2792920e-01
 -1.3541348e-01
  6.8150008e-01
 -8.4534615e-01
  1.5166374e+00
 -7.1825422e-02
 -8.0296695e-01
 -4.5799557e-02
 -1.6663482e+00
 -5.8369744e-01
 -1.7954987e-01
  1.0121653e+00
  1.3160077e-01
 -1.3317258e+00
 -9.9817090e-02
 -1.2965076e-01
 -2.9693618e-01
 -6.1048184e-02
 -1.8584307e+00
  5.9701152e-02
  4.2021319e-01
  5.8324140e-02
  7.0356917e-01
 -1.0806040e-01
  1.2103173e+00
  5.9105698e-03
 -8.9085490e-01
 -8.1081443e-02
 -8.3522640e-02
 -1.9301200e-01
 -7.8006279e-01
 -1.8968955e+00
  2.0339663e+00
  4.6737945e-01
  6.6279835e-01
  2.1988726e-01
  1.1560384e-02
  1.9340388e-01
  3.5802954e-01
 -4.1135591e-01
  1.2737739e-01
  2.4228452e-01
  1.1805634e-01
 -2.1458289e-01
  9.9605900e-01
 -6.1664274e-03
 -3.6756605e-01
 -1.9404764e-01
  9.4130002e-02
  8.6985779e-01
 -4.1837633e-01
 -2.1659450e-01
 -4.3191627e-01
  3.9929664e-01
 -1.2047376e-01
  1.8189104e-01
 -8.3972193e-02
  1.8376414e-01
  5.2010095e-01
 -3.4487385e-02
  2.2085004e-01
  3.2109492e+00
 -3.9134404e-01
 -7.3904610e-01
  1.3636443e-01
  3.5343572e-01
  1.1580500e-01
 -4.3194216e-02
 -5.3616935e-01
  1.4591311e-01
  1.7192693e-01
  1.3671283e-01
  4.9458191e-02
  9.0387601e-01
 -1.4936814e-01
 -1.1537754e-01
  7.9413250e-02
 -4.1631564e-02
  2.0498213e-01
 -2.9553254e+00
  8.1570876e-01
 -3.4813210e-01
  1.0212243e+00
 -2.9502075e+00
  9.6127707e-01
 -3.4696740e-01
 -1.1520220e-01
 -1.1532174e+00
  1.6980569e-01
  3.0968300e-01
  2.5153716e+00
 -4.9263591e-01
  4.5482859e-01
  1.4527401e+00
 -6.9026744e-01
  3.0737765e+00
  4.6011761e-01
  3.2649252e+00
 -1.2666888e+00
 -1.6711444e-01
  5.0801717e-02
 -3.7066582e-01
  3.5705882e-01
 -2.0799050e+00
  4.2225161e+00
 -3.3330953e-01
  3.9948175e+00
  2.7401574e+00
 -2.8861627e-01
 -2.6591675e+00
  1.0005289e+00
  3.5802969e-01
 -2.5614607e+00
  1.5303543e+00
 -2.7587001e+00
  3.6700346e+00
  4.0055852e+00
  8.0324285e-02
 -1.4159846e+00
  1.0928952e-01
 -3.3553255e-01
 -1.2457631e+00
  9.7839397e-01
 -1.4362980e+00
  4.4718738e+00
  2.1737406e+00
 -6.3587293e-02
  7.6325870e-01
 -4.0991426e-01
  1.5842441e+00
 -1.2404874e-01
 -3.4066603e-01
  9.5286392e-02
  7.3502791e-01
  2.8411269e-01
  3.3689106e-01
 -2.0603824e+00
  6.4012706e-01
  4.3135718e-01
  5.3076392e-01
 -1.2421923e+00
 -9.2166834e-02
 -2.2672141e-01
  9.1351700e-01
 -1.3460523e-02
  3.0496585e-01
 -1.0212203e+00
  5.1768082e-01
  6.0005212e-01
 -5.9712702e-01
 -1.0059653e-01
  7.3861140e-01
 -4.8234451e-01
  1.3676913e-01
  2.2022182e-01
  9.5658296e-01
  7.5961316e-01
  2.4173836e-01
 -2.3252858e-01
 -2.0502143e-02
  2.9509416e-02
  1.8667994e-03
 -1.1278300e-01
 -1.2557915e-01
  1.0273131e-01
  3.3134127e-01
 -8.3823448e-01
  2.9819885e-01
 -6.9479775e-01
  3.5428956e-01
  6.0469586e-01
 -1.9048706e+00
  6.4674206e-02
  1.8939395e-01
 -1.6999265e+00
  5.9653574e-01
  4.1448101e-01
  4.5099163e-01
  4.0268451e-01
  7.9440778e-01
  2.8336522e-01
 -3.3799630e-01
  1.7271389e-01
 -2.7544850e-01
  8.7932676e-02
 -9.4228911e-01
  5.9589016e-01
  2.1356697e-01
 -2.2506757e-01
  3.0244421e-02
  3.8287759e-02
 -1.2280381e-01
  9.3769962e-01
  2.2230105e+00
 -7.3849320e-01
 -2.1508645e-01
  6.0849469e-02
 -7.9292172e-01
 -7.9021081e-03
  2.5084719e-01
 -1.7078950e+00
  5.3489941e-01
 -7.9865450e-01
  4.3488106e-01
 -1.7121276e-01
 -8.5627532e-01
 -3.9031476e-01
  1.0859574e+00
 -4.1639161e-01
 -1.7899566e+00
  7.9343393e-02
  2.1989726e-01
  7.5022445e+00
  7.6832108e-02
  1.1144644e+00
 -8.4563893e-01
 -1.6708498e-01
 -6.8619514e-01
 -1.7867205e-01
 -7.5527795e-02
 -7.3262125e-02
  1.6384430e-01
 -7.3448193e-01
  2.1520308e-01
  2.6825560e-02
 -1.6902992e-01
  7.0178201e-03
  6.1158407e-02
 -2.3378730e-01
  2.9460505e-01
  4.5055741e-01
  1.2257792e+00
  4.5547774e-01
  8.2415208e-02
 -1.7534547e-02
 -5.8095378e-01
  2.1817702e-01
 -1.6644100e-02
 -1.8461274e-02
 -2.2424777e-01
 -3.6993104e-01
 -1.1422855e-01
  2.3675472e-02
  5.5815339e-01
  3.8548017e-01
 -8.2370363e-02
  2.4373892e-01
 -6.9640197e-02
  1.4749849e+00
 -8.8308759e-02
  4.4492044e-02
  1.1149844e-01
  5.7762551e-01
 -2.3138519e-01
  1.0819525e+00
 -3.1841731e-01
  1.3016093e-01
 -1.5268067e-01
 -6.4303994e-02
  1.9878941e-02
 -1.8266214e-01
 -4.8197687e-01
  8.1088364e-02
  9.3324073e-02
  2.6315141e-01
 -1.9355552e-01
 -1.1214272e-02
 -2.6347336e-01
  1.3781842e+00
 -3.1709179e-01
 -1.7875490e-01
 -3.5636938e-01
  2.4380539e-01
 -4.6633843e-02
 -6.3319355e-01
 -4.3407407e-01
  7.6274616e-01
  3.6444506e-01
 -7.8337520e-01
  8.0084808e-02
  6.1120741e-02
 -1.8482110e-03
  1.5783538e-01
 -5.5303359e-01
  1.6511519e-01
 -2.5047809e-02
 -2.5271651e-01
 -9.3147516e-02
  2.6068142e-01
  8.6980043e-03
 -2.2958782e-01
 -5.2090980e-02
 -1.9110057e-01
 -1.6488381e-02
 -1.4791289e-01
  8.8879518e-02
  1.1060747e-02
  5.4835159e-01
  2.8770101e-01
 -3.8177200e-02
 -1.7313801e-01
 -4.9875078e-01
  2.7611506e-01
  3.7896798e-03
 -1.4871475e-01
  1.3438113e+00
 -1.5800555e+00
  2.0054281e-01
 -2.4119113e-01
  1.6180912e-01
  8.6405623e-01
  8.6808407e-01
 -2.4073383e-01
  4.9216509e-01
 -3.4570625e-01
 -9.0429580e-01
 -3.8752326e-01
 -4.1088983e-02
 -3.9548431e-02
  3.3482140e-01
 -8.5313636e-01
  2.4916962e-01
 -9.9433623e-02
 -5.2502841e-01
  1.7307606e-02
 -1.4665869e-01
  4.9273241e-01
 -1.6340004e+00
 -1.6303340e-01
 -3.6631411e-01
  2.4183610e-02
  3.6759865e-01
  6.9685435e-01
  1.4507815e+00
 -8.1130698e-02
 -7.3050094e-01
  1.0103028e+00
 -8.1817830e-01
  6.9930321e-01
 -1.0888484e+00
  9.5131969e-01
 -7.3008293e-01
 -4.2833477e-02
 -5.6763864e-01
 -7.4690741e-01
 -7.2527045e-01
  3.5330907e-01
 -1.1244969e+00
 -1.5408637e-01
  8.7707423e-02
  1.8579083e-02
  5.2863527e-02
 -8.7270014e-02
  2.0140207e-01
  1.0750124e+00
 -6.3274883e-02
  8.8748842e-01
  1.9038005e+00
 -1.0304286e+00
 -5.6532466e-01
 -5.4058206e-01
 -2.1609709e-02
 -1.9775593e-01
  6.2689090e-01
  2.4468240e-01
 -5.1118219e-01
  2.4790901e-01
  8.1255627e-01
  4.1015521e-01
  3.6045048e-01
  2.2746217e-01
  1.2096418e-01
  1.2141363e-01
 -6.2422950e-02
 -1.8320127e-01
  4.1523173e-02
 -7.7360354e-02
 -9.9206097e-02
  3.3342585e-02
  1.0927261e-01
  6.4563021e-02
  2.1791618e-01
  4.2226058e-01
 -2.6446727e-01
 -2.8774828e-02
 -1.3324420e-01
 -3.2694776e-02
  2.7127740e-01
 -4.4263566e-01
 -2.2280771e-02
 -3.1161528e-02
  4.2613834e-01
 -1.7399031e+00
  8.2200274e-02
 -1.1958180e-01
 -5.1119649e-01
  4.2501044e-02
  3.0221239e-02
 -4.4709966e-01
  2.0760217e-01
 -4.1699573e-01
 -3.3116937e-01
 -1.1506590e-02
 -3.8306037e-01
  2.0644814e-01
 -2.1829966e-01
  3.6589918e-01
  6.8723507e-02
 -2.4477731e-02
 -2.0051329e-01
  1.3358061e+00
  2.2174354e-01
  5.3770643e-01
  2.6439244e-01
  2.9552957e-02
 -1.0794175e-01
  3.8533461e-01
 -1.3128798e-01
 -2.2830366e-01
  2.7520213e-01
 -2.4091092e-01
 -9.6916959e-02
  9.6679971e-02
 -3.4737496e+00
 -4.5924577e-01
  1.2035755e-01
  7.8119761e-03
  6.8796977e-02
 -1.8851732e-01
  1.5023842e-01
 -2.5104049e-01
 -1.2931296e-01
  9.7182229e-02
  7.0699709e-03
 -1.5814888e-01
  1.3572651e-01
  1.0341702e-01
 -2.4485927e+00
 -5.8970958e-01
 -2.9387968e-02
 -2.7819034e-02
  1.6073650e-02
  1.3273315e-01
 -6.0453609e-02
 -8.5719086e-02
  2.3058686e+00
  2.2002090e-02
  5.6664580e-01
 -6.6323018e-01
  9.1315702e-02
 -4.3651376e-02
 -6.6949445e-01
 -4.3236423e-02
 -5.1573381e-02
 -5.2901107e-01
 -2.6404326e+00
 -3.8172573e-02
  1.4386496e-01
  9.6933767e-02
  1.9592135e-01
  2.0322874e-01
 -5.5419285e-02
 -2.1529131e-01
  5.7361805e-01
  5.7602578e-01
 -1.9684698e-02
 -1.5123799e-01
 -6.4427477e-01
  5.0101972e-01
 -2.0279384e-01
  3.2260545e-02
  3.2294270e-01
  5.5918097e-01
 -1.7920719e-01
  1.4243342e+00
  1.5227988e+00
 -3.3345515e-01
 -8.8732606e-01
  5.0220138e-01
  2.7563795e-01
  4.0351731e-01
 -4.5832595e-01
  3.4315825e-01
 -3.2733593e-04
 -4.3812624e-01
  1.2283468e+00
  2.9207820e-01
  1.7747623e-01
 -5.5088055e-01
 -6.6888535e-01
  7.8176886e-02
  1.2844004e-02
  8.2568869e-02
 -2.1857557e+00
 -8.9066595e-01
 -1.7096918e+00
  1.1526570e+00
 -2.1269785e-02
  2.4599535e-02
  3.7145507e-01
  2.1257865e+00
  4.3045890e-01
 -1.0221583e+00
  9.5525451e-02
 -3.3793747e-01
  1.9531502e+00
 -6.0036594e-01
 -3.3970106e-01
  2.2096246e-01
 -1.4249145e+00
 -1.4889092e+00
 -1.1291852e+00
 -1.4251000e-01
 -1.0757110e+00
  8.4066428e-02
  5.7369971e-01
 -4.5385820e-01
 -1.4125463e+00
  9.0955985e-01
 -1.9031622e+00
  9.0947235e-01
  1.1369824e-01
  8.3883226e-02
  1.3976374e-01
 -1.9525552e-01
  6.1241239e-02
 -8.6395994e-02
 -8.0855536e-01
  2.1284509e+00
  3.1552999e+00
 -1.9600551e-01
 -1.0614512e-01
 -1.6971337e-02
  1.6061969e+00
  1.5683721e+00
 -2.6494160e+00
 -1.2528285e+00
  2.1132277e-01
  1.0836616e+00
 -1.9383590e-01
  1.8683581e-01
  2.0957876e-02
  2.5057515e-02
  1.0830689e-01
  4.4829164e-02
  1.4451473e+00
 -1.0025592e-01
 -4.5506620e-01
 -8.0140370e-01
  1.8281450e+00
 -4.7044539e-01
 -1.9061518e+00
 -8.7491179e-01
  6.8393457e-01
 -2.3558570e-02
 -1.1678530e-01
 -5.1374108e-01
 -1.6887507e+00
  1.4604503e+00
  6.3234538e-02
 -1.4404353e+00
  5.0346452e-01
 -1.3233403e+00
  7.7005610e-02
  1.0571083e+00
 -4.7823527e-01
 -1.5874128e+00
  1.5499970e+00
 -1.9526640e-01
 -6.9681394e-01
  2.7961671e-01
  9.1733947e-02
 -1.0433830e-01
  2.9928151e-01
 -2.0180621e+00
 -2.1875598e-01
 -1.6823296e-01
  1.0776801e+00
 -5.0877041e-01
  2.9948229e-02
 -1.2390041e-01
  4.5269477e-01
  1.6341652e-01
 -4.4525853e-01
 -1.8475509e-04
 -3.6654797e-01
  2.9126605e-01
  7.1677619e-01
 -2.0704220e-01
  2.5629437e-02
 -7.4378586e-01
 -8.1275493e-01
 -9.0573385e-02
  1.9158299e-01
  5.7802284e-01
  3.7998661e-01
 -5.3225368e-01
 -7.0134245e-02
 -1.5705154e+00
  6.3966072e-01
 -5.9773773e-02
  2.7504769e-01
  2.1274798e+00
  6.1822587e-01
  6.5269834e-01
 -1.7346220e-01
 -8.2666796e-01
  1.3975547e-01
  5.3485817e-01
 -2.2469427e-01
  1.5645541e+00
  8.6783737e-01
  1.4581182e+00
 -2.2723842e-01
  5.8538318e-01
 -4.1816211e-01
  2.2879546e+00
 -6.1931584e-02
  9.4201274e-02
 -2.4666849e-01
  5.2585626e-01
 -1.0650941e+00
  5.2285361e-01
  4.2678989e-02
 -1.8051713e+00
  1.1471579e+00
  1.3390650e+00
  1.0666502e-01
  2.3616739e-01
 -2.4701047e-01
 -6.0059670e-03
  4.4593889e-02
  9.1469467e-02
 -2.4689713e-02
 -1.2066705e+00
  6.2091041e-02
 -1.1898164e-02
 -9.0751082e-02
  4.1359293e-01
 -2.8567356e-01
  3.2967654e-01
 -2.8832400e-01
  5.0025988e-02
 -9.0592287e-02
 -4.8478898e-01
 -7.3423743e-02
 -1.7846645e-01
  2.6838057e+00
  2.8218141e-02
 -1.2049891e-01
 -8.4731542e-02
 -1.7307638e-01
  2.5325572e-01
  4.1277166e-02
 -5.7391828e-01
 -1.3833433e-01
 -8.9728884e-02
  1.1979428e-02
 -1.2445281e-02
 -1.3281262e-01
  2.3678726e-01
 -1.5576342e-01
 -5.3615477e-02
 -1.7905438e-01
  2.4025433e-01
 -2.6451689e-01
  4.0549878e-02
  4.5869511e-01
  1.2542258e-01
 -1.0456632e+00
 -9.1712400e-02
 -1.4524297e-01
 -1.9767576e-01
 -1.3347799e-01
  5.6504760e-02
  6.7011259e-02
  1.9732556e-01
 -3.0434394e-02
  1.3826898e-01
 -1.0025284e-02
 -2.7596746e-02
 -2.3251234e-01
 -2.9195735e-01
 -8.5379463e-01
 -3.9342293e-01
  3.3065524e-02
 -1.7568859e-01
  3.1463005e-02
 -6.4373446e-01
  4.7560230e-01
  1.0714611e-01
 -3.4578793e-02
 -1.8458390e-01
 -1.1072751e-01
 -2.2781052e-02
  7.8750784e-03
  1.0600147e-01
 -9.1852212e-01
 -1.0724297e+00
  8.0993813e-01
  6.0492732e-02
  7.0538171e-02
 -5.6252068e-01
  8.3659440e-01
  4.8558444e-01
  7.2392237e-01
 -1.2188202e+00
 -2.3881762e-01
 -2.9069817e-01
  5.3370976e-01
 -1.1175429e+00
  9.8415278e-02
  1.8069096e-01
 -2.3814654e+00
  7.5957972e-01
 -1.0590656e+00
  3.0322719e-01
  4.8845258e-01
  2.8924575e-01
  1.4863806e+00
  5.4264361e-01
  1.3500506e+00
  4.8444754e-01
 -9.1841310e-01
 -1.6292169e+00
 -1.0310380e-02
 -3.3163059e-01
  2.0306560e-01
 -6.8632364e-01
  4.8269219e+00
  1.5975842e+00
 -6.2047052e-01
 -2.3225527e-01
 -3.4403670e-01
  9.1900468e-01
  5.7573915e-02
 -3.0290425e-01
  3.2093719e-01
  4.3502711e-02
 -7.4613132e-02
 -3.7068087e-01
  7.6466247e-02
 -1.0217577e+00
  4.8839253e-01
 -2.1913520e-01
 -2.2625608e+00
  2.1841876e-01
 -2.5989488e-02
  3.0442226e-01
 -2.2058837e-01
  1.1190876e+00
  3.5151873e-02
  2.1738591e+00
 -2.8024380e+00
 -1.8060141e+00
  8.7965995e-02
  1.9366542e-02
  5.2905780e-01
 -1.8285964e-01
  1.4725479e+00
 -1.4628838e+00
 -1.0588001e+00
 -1.8357338e+00
  9.5035033e-03
  3.1782073e-01
 -1.3277476e-01
 -4.2260505e-02
 -5.9350193e-01
 -6.8698037e-01
  1.3113959e+00
 -1.6027598e-01
 -6.2760268e-03
  2.5758022e-01
 -6.0960144e-01
 -2.4256453e-02
 -7.6128471e-01
 -6.1230056e-02
 -1.5738979e-01
 -1.0146143e-01
 -3.1417504e-01
 -3.2580194e-01
  5.5280067e-03
  1.3120840e+00
  1.7674217e+00
 -7.0555758e-01
  4.6610668e-02
 -6.1979908e-01
 -3.5283476e-01
 -3.3143768e-01
  1.4091846e+00
 -4.4178620e-01
 -1.6274059e+00
  6.7346865e-01
 -2.1167535e-01
 -5.1099066e-02
 -9.1895899e-03
  1.5493354e-01
 -1.6877972e-01
 -2.6670703e-01
  1.3951305e+00
  1.2283859e-02
  1.5654938e-01
 -6.9279134e-01
  2.7079210e-01
 -4.2169880e-02
  1.4537824e-02
  1.1982542e-01
  3.9004797e-01
  1.0957382e+00
  1.8238726e-01
 -1.3808636e-02
  2.7251065e-02
 -3.3080488e-01
  2.9472267e-02
 -6.9460198e-02
  2.2473598e-01
  2.2706995e-02
 -4.6440802e+00
  7.9195613e-01
 -4.1380525e-02
  1.5007520e-01
 -3.5194192e-02
  7.2826937e-02
  1.9712113e-01
  2.9012701e-01
  5.3422078e-02
  3.2061439e-02
 -8.2383538e-03
  4.3244612e-01
  1.6766148e-02
  6.5078564e-02
  2.1757205e-01
  8.9857958e-02
 -1.5085894e-02
 -4.9968608e-02
 -3.9702478e-01
 -1.9290632e-01
  3.8665739e-01
  1.1152393e-01
 -3.8417071e-02
  2.7215627e-01
  7.3961042e-02
 -4.0524724e-01
 -2.0142408e-01
 -1.0043387e-01
  1.0840409e-02
  4.0711891e-02
 -2.5823019e-02
  7.0671536e-02
  3.3379558e-02
 -1.6663434e-03
 -4.6143331e-02
 -9.5691711e-01
 -1.0786673e-01
 -5.8637619e-02
  4.0760543e-03
  8.7937312e-03
 -1.3256596e-01
  3.8393450e-01
 -1.0570036e-01
  3.9522696e-01
 -1.8430535e-01
  6.8379128e-01
 -2.1940261e-01
  1.1189913e+00
 -1.4830595e+00
  1.5243126e-01
  7.2267091e-01
 -2.8703943e-01
 -1.5896596e-01
  5.4352684e-03
  2.0954147e-01
  1.0579989e+00
  1.3823005e+00
  1.5908233e+00
 -1.7439230e-01
 -4.5080987e-01
 -3.9262095e-01
 -2.5062710e-01
  4.5003567e-02
 -1.4826792e-01
 -6.0448651e-03
 -5.6060411e-02
  9.6631551e-01
  1.0206022e-01
 -6.4646327e-01
  4.7806612e-01
  4.9192759e-01
 -1.0026825e-02
  9.4543830e-02
 -1.3047481e+00
  1.3634076e+00
  4.3441719e-01
 -4.1117687e-02
  5.6859744e-01
 -2.3305884e-01
  2.4388137e-01
  1.2268467e-01
 -1.6013771e-01
 -6.9241379e-03
 -3.4962308e-02
  1.9013437e-02
  1.2456930e-01
  2.2770678e-01
  1.4647456e-02
 -3.9815450e-01
 -1.8265225e-01
  5.2817278e-02
  2.7730677e-01
 -2.2822765e-01
  3.5911015e-01
 -2.5537375e-01
  3.7093401e-01
 -2.6858330e-01
  7.7863932e-02
 -4.1078135e-01
 -4.3646690e-01
 -1.3396913e-01
 -3.1900499e-02
  4.1937542e-01
 -9.5455134e-01
 -1.3065073e+00
 -1.1714846e+00
  2.7639437e-01
 -2.5465015e-01
 -3.7410223e-01
 -6.4454806e-01
  1.1398283e-01
 -9.7688429e-02
 -6.0266072e-01
 -1.4527868e-01
 -1.6804855e-02
 -1.8812098e-02
  6.4579660e-01
  9.7032100e-01
  1.6835643e-01
 -3.5884061e-01
  1.2683301e-01
 -1.3304913e-01
  9.4816363e-01
  7.7778541e-02
  1.7335908e-01
 -1.4140286e-01
 -1.2261608e+00
 -5.3701937e-02
 -9.6844810e-01
 -8.2983780e-01
  4.5135164e-01
  7.4223608e-01
 -2.6424369e-01
 -1.5707181e-01
  4.0838289e+00
 -9.6892595e-01
  2.9292667e-01
 -7.6794237e-01
 -8.6818480e-01
  1.2958692e+00
 -5.3490472e-01
 -1.8953151e-01
 -1.1379895e+00
  2.0976953e-01
  1.6136403e-01
  2.3619074e-01
 -5.8585990e-02
  2.4881672e-02
 -2.3436170e+00
  3.1307638e-01
  1.3880666e-01
 -3.7351351e-02
 -1.2663621e-01
 -1.1278190e-02
 -8.5526314e-03
 -2.8891262e-01
 -1.1704704e+00
 -5.9543848e-02
  4.6440158e-02
 -2.8852689e-01
 -1.4196236e-01
 -2.8627807e-01
  2.3329923e-01
 -5.0589269e-01
 -4.6900845e-01
  9.6120858e-01
 -5.5601925e-01
 -9.0854820e-03
 -2.8277872e+00
 -9.7887702e-02
 -3.6731794e-01
 -1.1267493e+00
  1.1121798e-01
 -3.0133608e-01
 -8.8724965e-01
  4.2000338e-01
 -8.3045088e-02
  3.3399770e-01
 -9.5407572e-03
 -1.3058110e-01
 -2.6351826e-02
  5.1779413e-01
  7.8047925e-01
  1.6315758e-01
  2.2467157e-01
  2.5677714e-01
  1.6841038e-01
 -7.9075539e-01
 -2.5483271e-01
 -7.1760111e-02
 -6.2004858e-01
  5.0428754e-01
 -7.5971186e-02
  1.4781126e-01
 -1.2496801e-01
  1.6229963e-02
 -1.3732710e-01
  3.0580649e-01
 -2.7325327e-02
  2.8057235e-01
 -1.2792650e-01
  8.2144858e-03
 -3.0351704e-01
 -1.8892778e-01
  8.4050164e-02
 -2.4059348e-01
 -1.7322617e+00
  3.4936544e-01
 -5.2884094e-02
  2.4830858e-01
 -1.2455305e-01
 -9.0246826e-01
 -4.8119918e-01
  3.5905752e-02
 -5.4765347e-02
  4.1788808e-01
  6.5303719e-01
  1.4740121e-02
 -6.6555887e-01
  2.0438300e-01
 -1.7389914e-01
  4.8755765e-02
  7.1153510e-01
  2.6343411e-01
  2.8056848e-01
  1.2590773e-02
 -5.5790909e-02
  5.9439784e-01
 -2.2109275e-01
  1.1742575e-02
  5.3650718e-02
  5.2792001e-01
  1.2202486e-01
 -4.8653790e-01
  3.2539377e+00
 -8.0784164e-02
 -1.1318262e+00
  2.8463021e-01
  8.3328611e-01
  3.7952158e-01
 -2.8691590e-01
  5.2493680e-01
  1.4372377e-01
 -1.7004371e-01
 -4.1691479e-01
 -6.9257838e-01
 -4.3946516e-02
  2.4027956e-01
  7.4864633e-02
  2.1941486e-01
  1.7007615e-01
 -4.6889913e-01
 -1.2622823e-01
  3.5342348e-01
 -4.2170426e-01
 -2.1338042e-02
 -4.6238631e-02
  1.8126640e-01
  2.8858966e-01
  1.5393092e-01
  3.8951640e+00
 -6.3078605e-02
  2.8251716e-01
 -6.3030109e-02
 -3.6170044e+00
  2.2275731e-01
 -3.4780675e-01
 -4.5972207e-01
 -1.9338815e-01
  1.3900509e-01
  7.2351389e-02
 -4.6474224e-01
  7.9813555e-02
  2.8874023e-02
 -1.1224902e+00
  2.0756648e-01
 -2.4529812e+00
 -1.4679937e-02
  7.5705719e-01
 -2.5366282e-01
  3.0714226e-01
  2.5309637e-02
 -1.9234468e+00
 -1.7665752e+00
 -2.6402564e+00
  7.3222530e-01
 -2.8927848e-02
 -2.5218832e-01
 -3.0369276e-02
  9.1802847e-01
 -3.4827599e-01
 -1.8028702e-01
  5.1438069e-01
 -7.5461227e-01
  2.5433732e-02
  3.7255790e-02
 -6.5856993e-01
  4.3481883e-01
  3.3474374e-01
  6.9065303e-01
  1.9877276e+00
 -4.1005883e-01
  6.0497832e-01
  1.4670616e+00
  9.5129661e-02
 -6.5130398e-02
 -5.5522630e-03
 -8.9339942e-02
  1.5998252e-02
 -1.3317369e-01
  2.6332431e+00
 -6.1260515e-01
  2.5231040e-01
  3.6999395e+00
 -2.9273140e-01
  2.1780090e-01
 -8.6152174e-02
  3.9098495e-01
  1.3807467e-01
  1.3029432e-01
  2.4820580e-01
  6.5793687e-01
  1.8592788e-01
 -1.1082537e-01
  1.0644556e-01
 -2.9766604e-01
 -4.8289932e-02
  2.0006058e-01
  1.4050540e-01
 -9.3490446e-01
  3.0400258e-01
  7.2681114e-02
 -7.3426127e-01
 -4.9000941e-02
  1.2219658e-01
  9.6757835e-01
  1.0019071e+00
 -7.2771645e-01
 -1.0884756e-01
  1.8971254e-01
 -1.4635183e-01
  5.8625262e-02
 -1.4797281e+00
 -1.3839933e-01
  2.3188987e-01
  2.8847665e-01
 -3.0020041e+00
  1.5795035e+00
 -1.5481098e-01
 -5.4127928e-02
  2.2814238e-01
  8.6419128e-02
 -1.7987432e-01
 -1.9640334e-01
 -9.1299936e-02
 -6.8617314e-02
  3.0161309e-01
 -1.4441182e-01
 -1.6813667e+00
  1.0193252e-01
 -1.3095613e-01
  1.0591254e+00
 -1.9302064e-01
  3.9687848e+00
  1.0294593e-01
  1.2816957e-01
 -1.1229148e+00
 -5.4782251e-04
 -4.2768592e-01
 -1.9777342e+00
 -6.9121397e-01
  1.7161378e-01
  5.0396096e-02
 -3.6800486e-01
 -7.5206108e-02
  5.1183965e-02
  7.2551720e-02
 -3.5649717e-02
  1.1752812e-01
  3.6618207e-02
 -3.1103873e-01
  3.8965622e-01
 -5.5694574e-01
  1.6891268e-01
 -8.3408445e-02
 -4.8391396e-01
  1.6456231e-01
 -4.8661942e+00
 -3.0378190e-01
  4.5830548e-02
 -3.8058987e-01
  4.2647388e-02
  3.1411323e-01
 -2.4798860e-01
 -1.1501668e-01
 -6.3105993e-02
  3.9993164e-01
 -3.5033107e-02
 -2.6160765e-01
 -1.3001171e-01
 -5.7500270e-03
 -2.6796520e-01
  3.6661500e-01
 -2.4193709e-01
 -4.9029607e-01
  2.0081456e-01
  1.4344968e-01
  1.9485531e-02
  4.4757493e-02
 -8.4456146e-02
 -6.3886307e-02
  9.4626583e-03
  2.2772297e-01
 -2.9015210e-01
  3.5023105e-01
  6.6050911e-01
 -2.5889593e-01
  3.3638533e-02
  1.8109177e-01
 -5.7924323e-02
  3.5229105e-01
 -1.7017900e+00
  1.8446257e-02
 -7.2270013e-02
 -7.7663530e-03
  8.3752930e-02
 -3.6998671e-01
  1.1697182e-02
  2.0686314e-01
  1.4672735e-01
  1.4443663e-01
 -1.6630429e-01
  4.9849963e-01
  1.2642339e-01
  6.2346287e-02
  3.1122687e-01
 -1.2621232e+00
 -5.5538554e-02
 -1.3722722e-01
 -2.0879524e+00
 -9.5851079e-02
 -3.7477642e-02
 -5.1394772e-02
 -1.5688077e-02
  4.1276070e-01
  2.5909534e-01
  1.2134411e+00
  5.4775368e-02
 -1.1437571e+00
 -1.5641626e+00
 -8.1609833e-01
 -6.9853705e-01
 -2.7291387e-01
 -1.3255539e+00
  2.9450533e-01
  7.8616887e-01
  2.2920324e-01
 -1.1819515e+00
 -1.4699762e+00
 -1.7235984e-01
 -7.3156261e-01
 -1.8037405e+00
  1.8916022e+00
 -6.4877272e-03
  2.2633365e-01
 -2.0803148e-01
 -2.4024606e+00
 -9.0115428e-02
 -6.3469422e-01
  5.5970732e-02
  1.4257032e-01
  5.5597499e-02
  5.7091281e-02
 -7.8228921e-01
  7.2633572e-02
 -8.6676240e-01
  1.6759347e+00
  8.1904773e-03
 -3.2255429e-01
 -3.5643983e-01
  7.9637654e-02
 -1.8280490e-01
 -3.7016754e+00
 -2.2747663e-01
  2.0961239e+00
  2.2020434e-01
 -1.2407432e-01
  5.1254916e-01
 -1.3985447e+00
  2.7144131e-01
 -2.7814445e-01
 -4.2917784e-03
 -1.1883698e-01
  1.2008469e+00
  3.0008620e-01
  1.8000582e-01
 -1.6730675e-01
  7.2730523e-01
  3.6126238e-01
  1.0606782e+00
 -2.5056174e-01
 -1.2858858e+00
 -5.2702129e-01
  6.7026502e-01
 -1.0282156e+00
 -7.7951197e-03
 -1.4906683e+00
 -5.1718491e-01
  6.5843964e-01
 -7.0687942e-02
 -1.0115730e+00
  6.0308814e-01
 -5.4442242e-02
  2.6477892e+00
  2.9807377e-01
  8.0492944e-01
  7.1373928e-01
 -7.4331176e-01
 -1.9545357e+00
 -3.2974728e-03
  4.5662782e-01
  1.0084796e+00
 -8.6313814e-01
 -2.5615865e-02
 -4.8711729e-01
 -2.7068253e+00
  1.5609003e+00
 -3.5257426e-01
  1.8168336e-01
  1.0025358e+00
 -6.3466334e-01
 -4.5189325e-02
  2.9387513e-01
  5.5188459e-01
  1.8353442e+00
 -2.2026365e+00
  1.4026644e+00
  9.6875042e-01
 -4.3656352e-01
 -1.8219765e-01
  3.8970189e+00
 -1.0093915e+00
 -1.6436328e-01
  1.1788081e-01
  3.3896795e-01
  1.8227786e+00
  8.1078380e-01
 -8.6822920e-02
  3.0292591e-01
 -2.2013423e+00
 -3.5950679e-02
  5.7693744e-01
 -2.1413450e-01
  1.6986055e-02
 -5.6328900e-02
 -1.5041018e-01
 -2.1313034e-02
  1.0934673e-02
  4.7175148e-01
 -2.4143381e-01
  2.8470248e-01
 -1.9422568e-01
 -4.0569521e-02
  7.0136607e-02
  1.7262235e-01
  1.4145713e+00
 -1.3751978e-01
 -8.9038059e-02
 -3.0600867e+00
  3.9115415e+00
 -4.5797613e-01
  3.0215710e-01
 -2.5380364e-01
 -9.9289827e-02
  4.3411863e-01
  1.1744764e-01
 -2.8429987e-02
  9.6235061e-01
  1.5982459e-01
  1.8459119e-02
  1.4757819e-01
 -1.6555740e-02
 -6.6747837e-02
 -2.7768967e-01
 -1.4830981e-01
  6.6397518e-02
 -5.1055416e-02
  3.3292177e-01
  4.8303780e-01
 -2.4995305e-01
 -2.6094183e-01
 -9.3974166e-02
 -6.1414587e-01
 -4.0895817e-01
  2.3201974e-02
  3.3465717e-02
  7.2059602e-02
 -4.9812007e-01
  1.4647245e-01
  8.8138849e-02
  6.5433428e-02
  1.3368075e-01
  1.7188297e-01
 -1.3647753e-01
  4.0614348e-02
 -3.0165860e-02
  3.0877694e-01
  1.6704234e+00
  1.4140919e-01
 -4.8332810e-02
 -3.0342692e-01
  4.2905548e-01
  3.9653063e-01
  9.5189855e-02
  4.5331955e-02
 -2.5143248e-01
 -8.7114173e-01
  3.6453757e-01
 -7.5535476e-02
 -1.3094591e-01
  1.4786226e-01
  3.7243184e-02
 -5.6781359e-02
  1.3569984e-01
  2.5434440e-01
  1.5523039e-01
 -3.7663925e-02
 -5.5696434e-01
  3.2592848e-01
  7.1453504e-02
 -1.4680897e-01
 -9.7105525e-02
 -6.1433311e-03
 -9.0067826e-02
 -1.2578074e+00
  2.3361361e-02
  8.8374831e-02
  2.7455317e-02
 -1.6303347e-01
 -2.3679568e-01
  2.5244987e-01
 -5.7058074e-02
  1.6517700e-01
 -2.3456724e-01
  4.3022570e-01
  3.4855002e-01
  7.2086021e-02
  8.7608986e-02
  7.0535573e-03
 -1.5452927e-02
 -3.9848868e-02
 -1.4706555e-01
 -4.3717468e-01
  2.2443609e-01
  1.1256220e+00
  2.4266244e-01
 -2.4658084e-01
  2.0595872e-01
 -6.7106858e-03
  4.5256132e-01
 -2.1203546e-01
  9.0737259e-03
  2.9745358e-01
 -2.4912289e-01
  4.8215708e-01
  4.2072329e-01
  9.9229887e-02
  8.7713379e-01
  6.9084829e-01
 -3.0777428e-01
 -4.3275481e-01
 -1.3193485e-01
 -1.7506009e-01
 -1.1778709e+00
  4.9912617e-01
 -1.3598863e+00
 -2.9628408e+00
  8.7756403e-02
 -3.0155972e-01
  8.6678702e-01
  1.1907090e+00
  1.0050404e+00
  7.9189867e-02
 -7.7503115e-01
 -7.9073139e-02
  7.9676133e-01
  4.7952402e-01
  3.9199304e-02
 -2.5878971e+00
 -2.3339726e-01
  4.8349842e-01
 -1.0789498e-01
  6.8957949e-01
 -1.2951407e+00
  1.9162649e-02
  2.1841490e+00
 -1.4615422e-01
 -2.0448042e-01
 -3.8690561e-01
  1.5821685e-01
 -6.2092356e-02
 -1.9164620e-01
 -1.3867655e+00
 -9.0274699e-02
 -2.7725399e-01
  1.3814728e+00
  1.8056552e-01
 -6.8138874e-01
  1.3918544e-01
  1.3635555e-01
  8.4455602e-02
  8.3516471e-02
  3.6964592e-01
 -6.5710731e-02
 -3.3437362e-01
 -1.7212528e-01
 -2.0075124e-03
  1.2573748e+00
 -4.4169202e-02
  4.0666766e+00
 -7.6825232e-03
  1.0776335e-01
  1.0025546e-01
  1.5736728e+00
  1.4444661e+00
  2.1811311e-01
  1.3831590e-01
 -2.4577367e-01
  1.6740516e-02
  6.0824130e-02
  3.8339746e-01
  1.0264679e-01
  7.6348430e-01
 -3.4721930e-02
  1.6190931e-02
 -5.8011070e-02
  3.3786636e-02
  1.0248766e+00
  6.2005842e-01
  1.6020218e-01
  2.5528738e-01
  1.7679982e-01
  3.5891172e-01
  1.8817236e-01
  6.9077373e-02
  1.6458966e-01
 -4.5576610e-02
 -7.4573189e-02
 -1.4124496e-01
  1.8847103e-01
  4.5042732e-01
  1.4477867e-01
  3.3042397e-02
  2.5950620e-01
  1.3271037e-01
 -5.9833687e-02
  2.8789219e-01
  2.3736365e-01
  8.3989817e-01
 -1.4799180e+00
 -6.1074041e-02
 -1.3012305e-01
 -1.2926385e-02
  5.1113488e-03
  9.1040023e-02
  2.2837734e-03
  1.5773809e-01
 -3.5630569e-01
  2.0582363e-01
 -5.6975741e-02
  2.4095986e-02
  3.9785311e-02
  2.1312507e-02
  8.4929960e-04
 -3.1458679e-01
  4.2350274e-01
 -5.0450414e-01
 -1.3346579e+00
 -3.4085393e-01
 -1.7865598e-01
 -3.8599354e-01
  3.9841416e-01
 -8.8451989e-02
 -1.4773031e-01
  1.8126804e+00
 -1.0136924e-01
  8.6702249e-04
 -3.4098282e-01
 -1.2805873e-01
 -2.9524004e-01
 -7.0510581e-02
 -7.0356075e-03
 -1.4372580e-01
 -1.8997679e-02
  1.9683681e-01
 -3.3441275e-02
  4.4650398e-02
 -3.8578521e-02
 -5.5955946e-02
  1.8841119e-02
  4.5040959e-01
 -1.4434808e-01
 -3.4200436e-01
  6.6527560e-02
 -3.7385279e-01
  1.2131247e-03
 -1.7180027e+00
 -2.9251367e-01
  3.6115028e-02
 -2.4212246e-01
 -7.4970551e-02
  9.0592548e-02
  2.0650363e-01
  1.4736325e-01
 -1.0846300e-01
  2.4856651e-01
 -7.6722091e-01
 -1.7331637e-02
 -7.0478067e-02
 -5.6704045e-03
 -1.5534649e+00
 -3.8876745e-01
  5.2179722e-04
 -2.7066836e-01
  1.2807833e-01
 -6.1111373e-01
 -5.7639088e-03
 -1.7304926e+00
  2.7194124e-01
 -1.0354764e-01
 -9.4894119e-02
  2.1482272e+00
 -1.8744392e+00
  5.9484035e-01
  6.5972954e-02
 -2.7484043e-02
 -8.0955952e-01
 -7.8758663e-03
  1.5672131e-01
 -1.9455992e+00
 -9.1594547e-01
  6.1785821e-02
 -3.3957160e-01
 -2.6696509e-01
  3.0181715e+00
 -1.9595003e+00
  1.1247469e-01
  1.0892928e-01
 -4.5720715e-02
  6.6463478e-02
 -1.0415149e-01
 -2.1414309e+00
 -2.4737357e-01
 -3.4727892e-01
  5.9663308e-01
 -1.6401306e+00
 -2.7512479e-01
  1.3312802e+00
 -1.0429988e+00
 -6.6287553e-01
 -1.2259252e-01
 -3.5121548e+00
  2.9130950e+00
 -8.0100112e-02
 -1.8579625e+00
 -4.6221418e+00
 -5.4092441e-02
  2.4994573e-01
  3.1246622e+00
 -1.6102135e-01
  1.4970046e-01
  7.7467662e-01
  6.7329067e-03
 -2.8105485e-01
 -1.1303253e+00
 -9.9225825e-01
  9.4117001e-02
  3.1844222e-03
 -3.0707002e-01
  2.0227665e-01
  8.8577569e-01
  3.0610541e-01
 -1.4367998e-01
 -1.6964246e-02
 -2.3770955e-01
 -6.7209855e-02
 -9.0464735e-01
 -1.2325337e-01
 -1.3063832e-02
 -2.4042594e+00
 -2.8611585e-01
 -3.0013326e-01
 -3.0269559e-02
  2.6750430e-01
  2.2872315e-01
 -8.1491917e-02
  5.0786720e-03
 -3.6829063e-01
  2.0176524e-01
  7.7773784e-03
  9.6292086e-02
 -1.6561649e+00
  2.3683321e-01
  5.1677012e-01
 -6.2875140e-01
 -1.9067565e-01
 -1.3938999e-01
 -4.0081086e+00
  1.7142688e-01
  1.5596667e-02
  1.0169295e+00
 -1.3851544e+00
  6.1900961e-01
  3.4135216e-01
  1.8366250e+00
  1.0915335e-01
 -2.4263032e-01
 -3.7435126e-01
 -1.4800826e-01
  3.4800746e-02
 -2.8006104e-01
  1.2650207e-01
 -9.8435983e-02
 -2.2761870e-02
 -3.3927175e-01
  2.1312259e-01
  6.1029114e-02
  5.9547645e-01
  2.9556888e-01
  7.7773102e-02
  9.1572225e-02
 -1.1724625e-01
 -1.1544842e-01
  1.0226975e-01
  3.9286658e-01
  3.8970571e-02
  2.1047791e-02
  1.1343049e-02
  4.9475003e-02
  5.6243110e-01
  6.7852449e-01
  2.3824334e+00
 -8.8860750e-02
  2.3355089e-02
 -1.0279558e-01
  8.8352442e-02
  1.4350624e-01
  2.3920577e-02
  5.8927543e-02
  5.7763826e-02
  2.0151520e-01
  4.3440390e-02
 -1.6063228e-01
  1.2404613e-01
 -2.9136444e-02
  1.7771719e-01
 -1.9269893e-01
  1.0827951e-01
 -3.6177513e-01
 -8.5285686e-02
  9.1583453e-02
  1.2868768e-02
  7.1444765e-02
  3.0080006e-01
 -4.0841076e-01
  5.9528094e-02
  9.6720673e-02
  1.1802606e-01
  7.1665354e-02
 -1.5067216e-02
  1.3123453e-02
 -1.7053117e-01
  4.0031886e-01
 -2.0344744e-02
 -1.2256379e-01
  1.2991346e-01
 -1.5843536e-01
 -8.1976593e-02
 -6.2881194e-02
 -3.2189186e-03
  4.3154579e-02
  1.6632043e-02
  3.2901821e-01
 -8.3317989e-01
 -1.2961467e-01
 -8.7112468e-01
 -1.5525875e+00
 -5.2333641e-01
 -1.6738425e+00
 -2.7705817e+00
  1.3839239e+00
 -2.2956593e-01
  2.9112079e+00
  1.7124563e+00
 -8.4310740e-01
 -1.7262125e-01
  5.5072960e-02
  1.3544289e+00
 -3.4011722e-01
 -3.6993939e-01
  4.2972592e-01
 -1.0641326e-01
  3.3273375e-01
  1.3811055e+00
  3.2963327e-01
 -3.6957943e+00
 -7.0009130e-01
 -9.6386736e-03
  1.7832287e-01
  2.5868248e-02
  1.3339522e-01
  3.3561373e-03
  3.5220056e-04
  1.4933834e-02
  5.0632459e-01
  2.4237011e-01
  2.2377278e-01
 -5.7651460e-01
  9.9572289e-01
  2.6032528e-01
 -6.0563052e-01
 -4.2139694e-02
  1.4700748e-01
  7.7032435e-01
 -6.8312037e-01
 -8.0329567e-02
  1.8264723e-01
  2.4420574e-01
 -1.6185457e-01
 -1.5411183e-01
 -2.4579957e-02
 -5.1579148e-01
  5.2643150e-02
 -2.5087473e-01
  1.3995338e-03
  2.7426396e-02
 -1.5192087e-02
  2.7136567e+00
 -8.1191540e-02
 -3.1942911e+00
  1.0934690e-01
  5.3565260e-02
 -6.5304190e-02
  5.0770479e-01
  3.3076242e-01
  2.2034290e-01
 -2.7287573e-01
 -2.1187797e-01
  1.3948508e-01
  2.6926417e+00
  7.7768914e-02
 -4.7742179e-01
  3.2113190e+00
  9.6030161e-02
  9.2335570e-01
  1.0240103e+00
  1.0790990e-01
 -9.3632467e-02
 -2.0695677e+00
 -2.0948765e-01
 -2.3075235e-01
  4.6291810e-01
  6.5734679e-01
 -6.2707044e-02
  1.5357442e-01
  6.3323587e-02
 -1.4383024e-01
 -2.1905314e-02
  2.4280291e+00
  1.3393570e+00
 -7.2674954e-01
  4.5991447e-02
  1.4156069e+00
  5.7055384e-01
  2.3988640e+00
 -2.4573100e-01
 -1.2125361e-01
  9.9321449e-01
 -4.7153792e-01
  2.7374763e+00
  7.9730861e-02
 -5.7185835e-01
  1.3567553e-01
 -1.2441016e-01
 -1.1503518e-01
 -2.5823769e-01
  6.8427122e-01
 -7.8740403e-02
 -4.3585205e-01
  8.1858650e-02
 -2.2736491e-01
  1.8580070e+00
 -6.2073037e-02
 -1.0405584e-01
  1.1199604e-02
  1.2501009e+00
 -1.4309417e-02
 -1.8952844e-01
 -2.8206509e-01
  9.6230030e-01
  7.2513610e-02
  7.5564317e-02
  3.9600831e-01
  5.0636548e-01
  3.5608631e-01
  8.9228012e-02
 -1.0799791e-02
 -1.0254470e-02
 -1.4663380e-01
 -1.6388945e-01
 -7.4226260e-03
  1.8129849e-01
  1.0431574e-01
  1.6627373e-01
  1.0975908e+00
 -5.1164371e-01
 -6.6181123e-02
 -3.2689178e-01
 -7.4901365e-02
  3.1004053e-01
 -8.9997305e-03
  1.0381260e-01
 -7.3112029e-01
 -5.7854168e-02
  3.5182431e-03
 -8.9449964e-02
  8.6512519e-03
  4.4755682e-02
 -8.5965049e-01
 -7.2339095e-02
  3.4710041e-01
  5.6106984e-03
 -3.3989626e-01
 -4.7329256e-01
 -1.4044979e-01
  3.3818889e-02
  2.7252910e-01
 -2.8078783e-01
 -1.3005285e-01
  3.2719281e-01
 -1.2039617e-01
 -2.0765944e-01
  1.8289800e-01
 -9.7964752e-01
 -3.0314291e-01
  6.1552459e-04
  1.0562310e-01
  1.6704316e+00
  2.5914007e-01
 -6.6528618e-02
  1.6957544e-02
 -1.2216179e+00
  3.6677245e-02
 -1.0616033e-01
 -8.8831939e-02
  4.3481991e-02
  2.5011761e+00
 -2.3925713e-01
  4.0531009e-01
 -9.3190092e-01
 -4.7826048e-02
  2.6015270e-01
 -2.4224670e-01
 -1.9519390e-01
 -6.2558985e-01
  8.6361423e-02
  1.7086565e-01
 -5.1507896e-01
  5.9525013e-01
 -5.6663800e-02
  7.2824829e-03
  4.3906178e-02
 -9.7954132e-02
  6.0610229e-01
  2.1763097e-01
  1.9177532e-01
 -2.8727642e-01
  1.7219113e-01
 -3.2078895e-01
 -5.4228868e-02
  1.6200345e-02
  2.5781302e-02
 -2.0806396e+00
  1.1043007e-01
 -1.3064152e-01
 -8.5708490e-03
 -2.2531718e-02
 -2.1684549e+00
  1.0778905e-01
  3.9128676e-01
  1.3640998e-01
 -2.2392036e-01
 -2.3938847e-01
 -1.1186035e+00
  3.8260169e-02
 -7.3880398e-01
 -5.3148005e-02
 -1.6053145e-01
  3.2110717e+00
 -4.1246268e-01
  1.3814667e-01
 -7.3575020e-01
 -6.2151801e-02
 -1.1260314e-01
 -5.9495962e-01
 -2.3533052e-01
  6.3234210e-02
  3.6651948e-01
 -1.7320290e-01
 -4.4889235e-01
  3.5675354e-02
  1.8605317e+00
  2.0134681e-01
 -2.0727445e-01
  1.0201150e-01
  8.0187231e-02
 -5.2722611e-02
 -3.5191163e-02
 -1.9114359e-01
 -8.2981598e-01
  1.3988360e-02
 -1.4587401e-01
 -7.4511640e-02
  1.3778646e-01
 -9.9824451e-02
  1.0834187e-01
 -2.5815836e-01
  1.1992268e-01
 -8.7756561e-03
 -1.4087826e-01
  5.2786255e-01
  1.7585464e-01
  1.4987922e-01
  3.4346116e-01
 -1.3117231e-01
 -7.9191580e-02
 -1.0190922e-01
 -4.4021085e-02
 -1.1097122e-01
 -1.0538319e-01
 -2.4529234e-01
  1.2672666e-01
  1.8400732e-01
 -9.7976595e-02
  1.3835788e-02
  2.2593053e-01
 -2.1672352e-01
 -9.5603697e-02
  1.1680742e-01
 -1.3122055e-01
 -6.2772252e-02
 -2.5518537e-01
 -3.4958810e-02
  2.6089457e-01
  2.7327541e-02
  2.6321796e-01
  1.7108897e-02
 -9.8500568e-03
  6.4789093e-01
  1.2701146e-01
 -3.8816059e-01
  1.5447333e-01
 -7.2360680e-02
 -8.4025598e-01
  6.4078763e-02
  3.4911636e-02
 -2.9805338e-01
 -3.8051391e-01
  2.3722148e+00
  5.5163836e-01
 -5.9937221e-01
 -3.2992628e+00
  1.0144254e+00
  1.6791465e+00
 -6.2219304e-01
  9.7108513e-01
  1.3013431e-02
 -9.9458522e-01
  9.7208917e-02
 -4.6204895e-02
  2.0861906e-01
 -1.4482222e-02
 -1.3811224e+00
 -4.2911097e-02
 -1.1741959e-01
  3.6300159e-01
 -5.6581205e-01
 -1.8921475e-01
 -6.2807620e-01
 -2.1700990e-01
  2.0397613e-02
 -7.9923278e-01
  6.8798631e-01
 -1.3632633e-02
  2.9894617e-01
  7.4993342e-02
 -1.6530429e-01
 -4.7971632e-02
  1.3575065e+00
  1.9374038e+00
 -2.9211041e-01
  3.4594941e+00
  3.0283123e-01
 -4.1415304e-01
  5.4267561e-01
 -1.6942737e-01
  6.7648023e-01
 -4.9332017e-01
 -3.7288132e-01
  1.6828957e-01
  5.4399655e-03
 -2.3137892e-02
 -2.3749107e-01
  3.3694825e-01
 -3.3154339e-02
 -5.9879359e-02
 -1.0634620e-01
  5.2689593e-02
  5.1688660e-02
  1.1828206e+00
  9.4448394e-01
 -1.6756184e-01
 -2.4433160e-01
 -1.4383321e+00
  1.0360547e+00
 -5.5982429e-01
  1.6551638e-01
 -1.5422979e-01
 -5.1448667e-01
  1.6354027e+00
 -1.5566263e+00
 -2.1093154e+00
  7.0219606e-02
 -3.2512262e-02
 -2.1630793e+00
  6.0964370e-01
 -1.4121660e+00
  2.5820008e-01
  6.5074086e-01
  2.8329346e-01
  2.1226683e-01
  2.3328981e+00
  1.0850290e+00
 -1.1680129e+00
  2.1181202e+00
 -2.8610343e-02
  3.1235129e-01
  1.4244648e+00
 -4.2771518e-01
  1.3562696e+00
 -3.4821075e-01
  1.9541795e+00
 -1.2533127e+00
  3.2797635e+00
  8.6297214e-02
  5.5266893e-01
  2.1289210e+00
 -1.9424633e+00
  1.7905989e+00
 -1.2619896e+00
  2.0655677e-01
 -4.9304873e-02
  2.7833464e+00
  2.4039119e-01
  9.2082307e-02
  4.2818698e-01
  1.5384947e-01
  1.3547093e-01
 -1.4198933e+00
 -1.2207824e-01
  3.4136391e-01
 -1.3348614e-01
 -9.0872593e-02
 -3.1962156e-01
  7.2913550e-02
  2.6843169e-01
  1.7275183e+00
  7.4293315e-01
 -4.8655793e-02
 -5.7280791e-01
  6.5495476e-02
 -3.8856769e-01
 -8.0761379e-01
 -1.6668698e+00
 -1.5849908e-01
 -3.1009269e-01
 -1.9325633e+00
 -6.1269640e-03
 -1.8338113e-01
  7.7261806e-01
  5.0136372e-02
 -6.6166818e-02
  1.3806470e-01
  2.7659051e-02
  1.5187521e-01
 -8.1919897e-01
  1.9940150e-01
 -2.9543388e-01
 -2.4599084e-01
  1.6790672e-01
  1.6436315e-01
 -1.3802072e-01
 -4.0313330e-01
  9.7223185e-02
 -2.5021942e+00
  3.9627622e-03
 -2.1494880e-01
 -1.5276611e-01
 -1.8317223e-01
 -1.7684978e-02
  5.5056684e-02
  1.3773687e-01
 -6.1935410e-02
  9.9139385e-02
  4.3731305e-01
  1.6492879e-02
 -1.1709374e-02
 -4.6594647e-01
 -2.1077774e-01
  2.0435983e-01
 -4.8577723e-01
  2.1344025e-01
  1.3654420e+00
  9.0594530e-02
 -9.1714919e-02
  6.6087566e-02
 -9.5521331e-02
 -1.7248804e-02
 -8.5483491e-01
 -2.8502089e-01
 -1.4971004e-01
  3.9415354e-01
 -4.2925954e-01
  5.5998802e-02
 -2.7178163e-02
  7.2032288e-02
  1.2878571e-01
  5.0982628e-02
 -1.6900851e-01
  1.2397789e-01
  9.9338740e-02
  1.8069434e-01
  4.0611897e-02
 -8.2225122e-02
  5.7347101e-01
 -3.1878004e+00
  1.6687883e-01
 -4.5694601e-02
  1.7391901e-01
  3.9592674e-01
  3.9040268e-04
  8.4701896e-02
 -1.0409839e-01
 -3.4158784e-01
 -2.7682811e-01
 -7.7190563e-02
 -3.9013188e-02
  1.3121355e-01
  4.5436272e-01
  6.5091528e-02
 -5.1520508e-02
 -1.6210754e-01
 -4.6868134e-02
 -2.0477460e-01
  8.0411416e-01
  1.6418025e-01
 -1.8187235e-01
  2.7081755e-03
  1.5344970e-01
  8.4939368e-02
  2.6565155e-01
 -7.9897538e-02
  2.1676332e-01
 -3.2143372e-01
 -2.9082248e-01
  2.8858447e-01
 -1.2767604e-01
  3.0913070e-01
 -3.1819243e-02
  9.8799713e-02
 -9.8097861e-02
  4.4397285e-04
  2.7577933e-02
  8.3757248e-03
 -3.0648932e-01
  1.4672522e-01
  2.7006363e-02
 -8.2523495e-02
  1.8264109e-02
 -1.8344151e+00
 -1.9211382e+00
 -4.7022590e-01
 -2.3082179e-01
  8.1635541e-01
 -9.0162903e-02
 -2.3715713e+00
 -4.7182256e-01
  1.7457725e-01
 -2.5033382e-01
  1.5579883e-02
  3.1092191e-01
  4.8093453e-01
  7.1992606e-02
 -3.6521930e-01
 -1.6074465e-01
 -3.0863283e+00
 -4.2174786e-02
  3.0223894e-01
  1.4673924e-01
  2.2842440e-01
 -1.6169192e-01
  1.8541175e-01
 -8.7713611e-01
 -1.4072293e+00
 -5.5040711e-01
  1.2816545e-01
  5.2325612e-01
  2.9079590e-02
  8.0741592e-02
 -2.4600828e-02
  7.0078701e-02
  7.5122811e-02
 -9.4425380e-02
 -5.2296484e-01
 -1.1545199e-01
  4.6539328e-01
 -8.7115979e-01
 -1.1676031e-01
  3.2302639e-01
 -3.7394479e-01
 -2.2114111e-02
  2.9172556e-02
 -2.6658359e-01
 -3.3378694e-02
  2.9748909e-02
 -1.4731777e+00
 -1.9065796e-01
 -2.5926515e-01
  1.8361105e-01
 -5.1651904e-03
  2.7549824e-01
  3.6403403e-01
 -2.5624788e-01
  7.4428290e-01
 -1.6408260e-01
 -1.3061023e+00
 -1.4738833e+00
 -2.7704756e+00
 -1.1855420e+00
  3.1687243e+00
 -2.0264177e+00
 -4.9654320e-01
  4.3009768e+00
 -1.9564757e+00
  7.9924428e-01
 -3.3280036e-01
  9.6695930e-01
  1.0266913e+00
 -5.5549584e-02
 -3.9860234e-01
  7.6255345e-01
 -1.0421391e+00
 -1.1470826e+00
 -1.4090978e+00
 -4.4488144e-01
  2.0364107e-01
  6.7149341e-01
  4.2784429e-01
  1.2189214e+00
  1.7172475e+00
  7.8416556e-02
 -1.5570760e+00
 -2.2904887e+00
 -2.9294777e-01
  2.9351738e-01
  6.2400407e-01
  1.7158866e+00
 -1.0202115e+00
  2.0678430e+00
  7.5846541e-01
  3.1220939e-02
 -2.4484859e+00
 -1.1284312e+00
 -2.7397945e+00
 -5.8367056e-01
  2.5274965e-01
 -3.9418925e-02
  1.2165093e+00
  3.5276529e-01
  8.6131489e-01
 -5.5652994e-01
 -2.3764963e+00
 -1.4579315e-01
 -1.2910162e-01
 -2.6308730e-01
 -6.2683117e-01
 -5.0541788e-02
 -1.3784949e-01
 -2.0672910e-01
  6.7864841e-01
  3.0914173e-01
  2.1560909e-01
 -5.3060975e-02
  7.6550597e-01
  1.5213756e-01
  2.1261410e-01
  3.7132863e-02
  1.7173927e-01
  1.8568651e-01
  3.9688773e-02
  9.8492539e-01
  2.3619235e-01
 -8.9509797e-01
 -1.7497357e+00
 -2.6769310e-01
  5.2380085e-01
 -7.6753609e-02
  4.4738793e-01
 -1.3651952e-01
 -6.2346805e-02
 -1.4966967e+00
  4.8862051e-02
  2.2040448e+00
  1.7603089e-01
  5.4608196e-01
 -7.1591532e-01
 -1.3968345e+00
 -5.3139788e-01
  1.3751693e-01
 -2.5664693e-01
 -3.0581248e-01
  4.7970244e-01
  1.1991098e-02
  8.8172096e-01
  6.8470943e-03
 -5.4352927e-01
 -2.5794066e-02
  6.8121868e-01
 -1.0545470e+00
 -3.8144630e-01
 -2.9654738e-01
  3.1460956e-01
  2.6883872e-02
 -1.0207673e-01
 -1.3033149e-01
 -2.5109836e-01
  1.8276639e-01
 -4.6144387e-01
  7.6451141e-01
  1.5543932e-01
 -6.5730289e-02
 -1.8980545e-01
  2.7200809e-01
 -4.3987530e-01
 -2.9430466e+00
 -4.2425874e-01
 -1.2925041e-01
 -9.7652562e-02
 -1.6412622e-01
 -2.7785206e-01
  4.0233997e-01
 -2.6181719e-01
 -2.7558419e-01
 -1.1252365e-01
  1.0312011e-01
  3.8796294e-01
 -1.5204234e-01
 -8.6209190e-01
  1.0020164e+00
  1.8840128e-01
  1.0161450e-01
  6.1122084e-01
  1.4241638e-02
  6.8620837e-01
  2.8998420e-01
 -2.0400992e-01
  3.0680311e-01
  3.7232801e-02
  6.9260275e-01
  7.1380168e-01
  4.1571231e+00
 -2.7819222e-01
 -1.2441623e-01
 -1.0344604e+00
 -4.8840275e-01
  1.4844383e-02
  2.7377209e-01
  2.7433711e-01
 -4.1305763e-01
  1.4704953e+00
 -1.4161265e+00
 -1.3728632e+00
 -3.1311253e-01
  5.3263533e-01
 -7.5062186e-01
 -1.2625253e-01
 -3.0848041e-01
 -2.3088489e-02
 -8.5425031e-01
 -1.1578454e-01
 -7.3975217e-01
 -8.0275351e-01
  1.5861034e+00
  3.3482489e-01
  2.8979298e-01
  2.5077978e-01
  3.5582254e+00
 -6.8037853e-02
  2.3403479e-01
 -4.2463500e-02
 -5.2246082e-01
 -1.9167161e-01
  1.5320646e+00
  1.0079735e-01
 -2.5751743e-01
 -9.9247080e-01
  3.2956794e-01
 -1.3971032e-01
  9.5708966e-01
  2.2925951e-02
 -1.7112368e+00
 -1.6239095e+00
 -8.3255905e-01
 -6.1653697e-01
  6.6341436e-01
  1.2966016e-01
 -1.2520571e-01
  2.0375000e-01
 -9.0937912e-01
  1.3325053e-01
 -4.2318669e-01
 -9.5132299e-02
  4.4119295e-02
 -1.3036254e-01
  2.1722493e-01
 -1.2669972e-01
  2.3591635e-01
  2.2836687e-01
 -4.0482438e-01
  1.8796140e+00
  9.4126217e-02
 -2.1180257e-01
 -9.1870323e-02
  3.5413995e-01
 -1.2637402e+00
  9.9138522e-01
 -2.3289288e-03
  3.8276933e-04
  7.5496781e-01
  2.0996736e-01
  1.8931508e-01
 -3.7582237e-01
 -3.4736031e-01
  2.2353251e-01
  9.3091846e-01
 -6.5832973e-01
 -2.1664304e-01
  2.4692033e-01
 -1.1354498e+00
  1.0438343e-01
 -5.1394641e-02
 -5.5066034e-02
 -2.7170944e-01
  1.6606656e-01
 -4.0858716e-02
  3.0014828e-02
 -2.7505690e-01
  1.6151828e-01
  1.3047235e-01
  1.4863527e-01
 -2.7483661e-02
  1.3425262e+00
 -6.7605752e-01
  5.7180285e-01
  1.8549603e-01
  1.4390844e+00
  1.5365226e+00
  1.9940872e+00
  1.1340041e+00
  3.1238922e-01
 -1.4237502e-01
  1.0977311e+00
 -7.1633571e-01
  6.8243754e-01
  7.8634948e-01
  2.2546489e+00
  1.3802233e+00
 -1.7216477e+00
  1.4553736e-01
  5.0367270e-02
 -3.3003300e-01
 -1.3142559e-01
  3.3777789e-03
  5.4083771e-01
  6.4986184e-02
 -2.2501594e-01
  4.6058360e-01
  1.1752840e-01
 -1.4522353e+00
 -2.5426948e-02
 -1.1960855e+00
  8.4692791e-02
  3.1163251e-01
 -6.2477720e-01
 -8.2002543e-02
 -7.3281211e-01
  2.7468893e-01
 -5.6062925e-01
 -4.4390332e-02
 -1.8155321e-01
 -1.5214872e-01
 -2.0919295e-01
 -9.3124926e-02
 -1.4143914e-01
 -4.1863406e-01
 -9.8076075e-02
  2.7837741e-01
 -5.5846632e-02
  8.7291650e-02
  7.3932064e-01
  1.2671767e-01
 -1.5183870e-01
 -1.0844758e-02
  1.2122183e+00
 -1.0874898e+00
  1.3887144e-02
 -4.9311028e+00
 -7.0896298e-02
 -1.5717251e-02
  1.6523378e+00
 -2.2451551e-01
  6.8388663e-02
  9.1708362e-01
  1.0331821e+00
  3.8481671e-01
 -1.5675093e-01
  1.8440515e-01
 -1.6894374e-02
 -2.4687330e-01
 -1.6866286e-01
 -1.2909219e-01
  6.9635279e-02
  4.9863750e-01
 -8.2583070e-02
 -1.6247282e+00
  3.4357559e-02
 -2.3135424e-01
 -1.1398843e-01
 -1.3584006e-01
  4.5960657e-02
  9.8253769e-01
  7.6039650e-02
 -2.9349823e-02
 -1.3227993e-01
 -1.2727965e-02
 -9.9189782e-01
  3.2612535e-01
  9.6529889e-01
  3.3519244e-01
  1.6605167e-01
  1.5291102e-01
  5.8567371e-02
 -6.1366700e-02
  3.7024102e-01
 -2.6428515e-01
 -2.2241370e-01
 -3.1274024e-01
  7.6666579e-02
 -1.0919792e-01
 -2.2850741e-01
  5.6643623e-01
  2.8629529e-01
 -2.6183027e-01
 -7.2932832e-02
 -4.2153075e-02
  5.1334137e-01
 -9.0125602e-01
 -1.5767255e-01
  3.1768376e-01
  3.0452423e-02
 -1.6664545e-01
  3.1623879e-01
 -2.9460791e-01
 -1.2784064e+00
 -4.9663225e-01
 -2.6329715e+00
  2.6114255e-01
 -4.6438098e-02
  2.8597369e+00
 -7.8053512e-02
 -5.6941178e-02
  1.6458093e-01
  7.9992592e-02
 -2.5862572e-01
  1.7943409e-01
 -3.5327829e-03
  7.1496181e-02
  3.6331484e-01
  2.2981886e-02
  9.6178703e-02
  2.1345508e-01
  1.4602900e-01
  1.2064032e-01
 -9.6305005e-02
  2.9777797e-02
  1.6839644e-02
 -1.0397772e-01
  2.3686139e-01
 -1.2463437e+00
  9.9818185e-02
  1.3793010e-02
  7.0659682e-02
  8.0279768e-02
  2.0356259e-01
 -7.1411383e-01
  3.3061704e-01
  4.6401817e-02
  1.0279862e-02
 -3.6674462e-02
 -4.3593705e-02
  1.5129024e+00
 -4.9426228e-02
  7.4812584e-02
 -5.8957692e-02
  6.1921533e-03
 -7.0257477e-02
  1.2107170e-01
 -7.5677253e-02
  1.2617448e-02
  1.0175423e-01
  2.4392484e-02
 -2.6118320e-01
  4.1618850e-02
  5.8019314e-02
  6.6144556e-02
  1.0868036e-01
 -5.5001438e-02
 -2.6373059e-02
  1.3662273e+00
  1.1857631e+00
  7.4975371e-01
  3.8221359e-01
  5.4733533e-01
  7.3262590e-01
 -4.1308455e-02
  1.8428558e+00
 -6.2786736e-02
  1.4363216e+00
  5.5882680e-01
 -7.3566362e-02
  3.5098326e-01
  1.4951358e+00
  2.2389919e-02
  2.5487971e-01
  4.3002062e-02
 -1.3522628e-01
 -2.6406598e-01
  8.0784207e-04
 -5.5416298e-01
  2.1197684e-01
 -4.3140318e-02
  3.7837114e+00
  1.3317782e-01
  1.0136148e-01
 -4.1566710e-03
 -2.5742499e-02
  2.6071674e-01
  8.2971044e-02
 -5.1176167e-01
  9.3898647e-02
 -8.1650831e-02
 -4.5581660e-01
 -1.2459087e+00
 -1.8147186e+00
  2.1419756e-01
 -4.9880648e-01
  6.1421824e-01
 -1.5507405e-01
  1.6629474e-01
  3.2562366e+00
 -1.2766209e-01
 -4.4189155e-01
 -5.5324602e-01
 -2.9064542e-01
 -2.6459271e-01
 -7.2629601e-01
  7.3479958e-02
 -3.4367648e-01
 -7.5497764e-01
  2.3389852e-01
 -1.8065099e-01
  2.4259700e-01
  2.0525426e-01
  1.7195838e-02
 -2.8999394e-01
  9.1791935e-02
 -7.2991568e-01
  1.7482371e+00
 -6.8079537e-01
  6.4960438e-01
  2.0801574e-01
 -7.0697117e-01
 -2.8190628e-01
 -3.9273858e-01
 -2.6645613e+00
 -1.2884073e+00
  3.4494278e-01
 -6.8358548e-02
  1.5822257e-01
 -1.4189845e+00
  2.9973960e-01
 -3.4108568e-02
  2.6682460e-01
  1.5969911e+00
  5.7040058e-02
 -6.4231378e-01
  9.9592842e-02
 -1.9015772e+00
  2.3671696e-01
  5.4372239e-01
 -9.8097825e-01
 -7.0348620e-01
  4.8477557e-02
  8.7754443e-02
  1.0404681e-01
 -1.8538078e+00
 -6.8876988e-01
 -1.5070154e-02
  5.9166282e-02
 -1.0306859e+00
 -2.1225978e-01
 -4.8659135e-02
 -8.8146174e-01
 -8.8025063e-02
 -1.2803515e+00
 -1.1939117e-01
  5.1071618e-02
 -7.8926355e-02
 -4.9070495e-01
  1.5327965e-01
 -5.0147146e-01
  1.5899925e-02
 -5.0707293e-01
  6.6463339e-01
  5.3062527e-03
  6.6662349e-02
  4.0253401e-02
 -3.1856403e-01
 -9.4229385e-02
  1.7961614e-01
  3.3420682e-01
  1.2464265e+00
  1.2163885e+00
 -1.6175629e+00
 -1.8382153e-01
 -6.9511378e-01
 -1.1641569e+00
  1.3312124e+00
 -1.4314903e+00
  4.2416498e-01
  1.6672466e+00
 -2.1727409e+00
  2.0638746e-01
  9.6889448e-01
 -1.3973124e-01
 -9.5706338e-01
 -7.2094703e-01
  2.3464909e-01
  4.8176162e-02
  1.9028772e-01
 -2.3546040e-01
  9.0780705e-02
 -5.0626885e-02
 -1.7304627e-03
  4.5548406e-01
 -8.3566263e-02
 -1.5664430e+00
 -9.9540852e-02
 -1.9646194e+00
 -3.8233291e-02
 -3.7989008e-01
  4.1640526e-01
  4.3119973e-01
 -7.3304790e-01
 -2.3257962e-01
 -3.9867956e-02
 -5.1583245e-02
 -2.5706717e-01
  4.5365155e-01
  4.0967962e-01
  9.3926266e-02
  2.5645071e-01
  1.4814731e-01
  1.5196221e-01
  1.2616899e-02
  1.0632181e-01
  7.4306834e-01
 -3.2841077e-01
 -6.7930900e-02
 -5.1053327e-01
  3.9963248e-01
 -8.5934795e-02
 -1.5475293e-01
 -2.1291211e-01
  5.9804708e-02
 -7.2732192e-01
  2.4291801e-01
 -1.6745384e-01
 -3.5819483e-01
 -6.8357247e-01
  4.6423742e-01
  4.8122026e-02
  4.4190735e-01
 -1.5480182e+00
  8.6687557e-02
 -1.7511744e+00
 -1.1779130e+00
  1.5871315e+00
  8.5436836e-02
 -9.6923374e-03
 -2.7659428e-01
  7.8428960e-01
 -3.6169823e-02
  6.0856253e-02
  1.5485096e-01
  2.5437484e+00
 -2.3826217e-02
  8.5131049e-01
 -3.1979287e-01
 -7.1131611e-01
 -1.1532397e-01
 -6.1436480e-01
 -1.4821154e+00
  1.0240106e-01
 -1.2722776e-02
 -4.3976372e-01
  1.5904725e-01
 -2.6774377e-01
 -9.1199648e-01
 -6.5391624e-01
  1.8044705e+00
 -6.3949472e-01
  1.1943115e+00
 -6.2192030e-02
  5.8369410e-01
  1.0626659e+00
 -3.0643925e-01
  3.4353271e-01
  2.8086741e-02
 -1.0190234e+00
 -2.1313517e-01
  9.8128676e-02
  1.4068873e-02
 -5.5527705e-01
  5.5727673e-01
  2.1044947e-02
 -8.6585924e-02
  6.7767096e-01
  1.1349063e-01
  8.2516819e-01
  1.0263655e-01
  1.6261351e-01
  7.0034599e-01
  1.0785263e+00
  2.8147876e-01
  2.0832883e-01
  2.3844258e-01
  3.1001454e-02
  6.2645960e-01
  1.7219901e-02
 -2.8716644e-02
  5.2415371e-01
  3.1220736e-02
 -8.9148931e-02
  4.5338623e-02
  2.6317626e-01
 -1.6610518e-01
 -3.1529155e-01
 -2.3126308e-02
  1.1562582e-01
 -2.6262411e-01
 -1.6934441e-02
  3.4779344e-02
  3.1424713e-01
  1.0797275e-01
 -1.6148907e-01
  2.6117596e-01
 -1.2115844e-01
  8.7024614e-02
  1.0690526e-01
  6.1098251e-02
  5.5447686e-02
 -2.2403373e-01
 -7.2920471e-01
  2.0726627e-01
  1.2527922e-01
 -2.3022349e-01
  1.0921398e+00
 -9.1224767e-02
 -1.7018929e-01
 -1.0492949e+00
 -3.4869045e-02
 -4.3272208e-02
 -7.0150822e-01
 -3.2140955e-04
 -1.1680035e-01
  2.1307764e+00
 -5.3993013e-02
  1.7270721e-01
  1.3426878e-01
 -3.8337117e-01
 -4.3886417e-01
  4.1626146e-01
 -1.2627880e-01
 -1.1355644e-01
 -4.0405352e-02
  8.2307100e-02
  4.8272312e-01
 -2.0964897e-01
  1.7638886e-02
  4.7196090e-01
  7.5593829e-02
 -6.0715443e-01
 -1.4102804e-02
 -1.8415403e-01
  6.9672960e-01
 -1.8536213e-01
 -1.8770899e+00
 -1.1440673e+00
  1.2736624e-01
 -3.0546652e-02
  8.9906849e-02
  4.9995515e-02
  2.3789155e-01
  6.4988506e-01
  7.3769346e-02
 -7.5137657e-01
  4.5306537e-01
 -1.1171394e-02
 -4.2465639e-01
 -1.2125655e-01
 -1.3237987e-01
  3.1926848e-02
 -7.0156723e-01
  2.9814396e-02
 -3.3418439e-02
  1.1358643e-01
 -1.7681800e-02
  1.1160285e-01
  2.8013793e-01
 -2.1551433e-01
 -7.7609651e-02
 -1.7624688e+00
 -5.2370794e-02
 -2.6369745e-01
  4.8395325e-03
 -2.2504632e+00
  4.4189868e-03
 -2.1897413e-01
 -1.3636357e-01
  1.3465749e-01
  4.1756782e-01
 -1.7563671e-02
 -2.4794906e-01
  1.0846296e-01
 -5.9697524e-02
 -1.0997982e-01
 -8.8452540e-02
  3.1853097e-03
  4.2382562e-01
  3.1476796e-02
  1.1828043e-01
 -6.3073510e-01
  2.8446361e-01
  8.8531636e-02
 -4.1640058e+00
 -3.5211822e-01
  7.8347552e-01
  1.2045995e-01
 -1.6652097e-01
  1.8998429e+00
  2.1997962e-02
 -2.3073299e-01
 -1.6996784e+00
  8.4075496e-02
 -1.2575126e-01
 -5.0123243e+00
  2.6189154e-01
  4.4810057e-02
  6.6499031e-01
 -2.7941389e-02
  1.0618629e-01
  9.3648589e-01
 -9.8672718e-02
  1.4493004e-02
 -1.6305351e-01
  1.1491510e-01
  1.4747418e+00
 -3.7067690e-01
 -4.0648422e-01
  8.6144932e-02
 -3.4418684e-01
  1.2850435e-01
 -1.9988576e-02
 -9.8046988e-01
  1.7138349e-02
 -2.4725698e-01
  1.5491754e-01
 -3.5117030e-01
 -3.9675996e-02
  2.2309391e-02
 -2.2017160e-01
 -3.6480729e-02
 -1.0157737e-01
  5.5309847e-02
 -5.8293682e-02
 -2.8947991e-01
 -8.0598518e-02
 -6.5474540e-02
  1.6677368e-01
  2.3033228e-02
  2.1044558e-02
  1.1138600e+00
 -1.0212354e-02
 -5.4901406e-02
  3.4783937e-02
  5.8909804e-01
  1.0256068e-02
 -4.0902164e-02
 -8.8886574e-02
  4.1947189e-01
 -1.8234328e+00
 -6.3313556e-01
 -2.0778177e+00
  3.4260807e+00
 -5.7852519e-01
 -4.2046876e+00
  2.2744721e-01
 -5.2974777e+00
  2.1493480e-01
 -1.5869009e+00
 -4.8949963e-01
 -2.2857397e+00
  1.2838782e+00
  6.7470805e-03
  2.3543431e-01
 -7.4118219e-02
 -3.8118425e-01
 -1.0056566e+00
  8.3860666e-01
  3.6732858e-01
  2.9766595e-03
 -4.1089755e-02
 -9.8311752e-01
 -8.1514701e-02
 -1.8095227e-01
  1.0043950e-01
  3.6674008e-02
  3.1768634e+00
  2.4081428e+00
  1.3027422e-01
 -6.1648375e-01
  5.0192422e-01
 -6.6330808e-01
 -4.3714786e-01
 -2.6516187e-01
 -2.3981647e-01
  2.4253640e+00
 -2.2180438e+00
  1.5784375e-01
  2.3843239e-01
  5.4841721e-01
 -1.4462255e-01
  1.2140926e-02
  1.3623774e-01
 -3.2088798e-01
 -1.0666841e+00
  6.7195833e-02
 -7.1958780e-02
 -1.5297465e-02
 -8.0561593e-02
  3.4723537e+00
 -1.5575960e-01
  2.0745948e-01
  2.1772248e-01
  1.0916023e+00
  5.0500646e-02
  8.0929451e-02
 -2.0352484e-01
  2.0589393e-01
 -3.8634577e-01
 -1.6388883e-01
  1.2201821e+00
 -8.0715513e-01
  2.1413874e-02
  9.2724466e-01
 -1.9007068e-02
 -2.1401875e+00
 -4.4116050e-01
  2.1397159e+00
  1.8479811e+00
  2.9365459e-02
  6.1031985e-01
 -8.1997313e-02
 -3.9578906e-01
 -4.3458086e-01
 -8.6658500e-02
  4.3880112e-02
 -8.9975014e-02
  1.6693465e+00
 -1.1927663e+00
  3.1604379e-01
 -4.8182821e-01
  9.8189777e-01
 -5.3624600e-01
  6.8264544e-02
 -3.3305830e-01
  8.3219178e-02
  1.1259006e+00
 -1.3171867e-01
  3.9840043e-01
  1.6148655e+00
 -7.9670864e-01
 -1.9719424e+00
  2.2018085e+00
  3.2742950e-01
 -2.3549536e-01
  3.6625490e-01
  4.9559650e-01
  3.3122477e-01
 -1.0399956e+00
 -2.2587442e-01
 -2.5937575e-01
 -1.4993989e-02
  1.1995928e-01
 -2.2794688e-01
 -6.0981375e-01
 -1.9128575e+00
  1.6979350e-01
  2.4559965e-02
 -6.9882505e-02
  5.8693703e-02
  2.6527841e-02
  3.5325199e-01
  1.3617351e+00
  1.4674425e+00
 -2.4831898e+00
  2.1395744e-01
  1.1451496e+00
  4.3629882e-01
  1.1081492e+00
  1.1269836e+00
  1.2970009e+00
 -1.0464139e+00
 -1.9428895e-01
  1.0129410e+00
  1.8673587e-01
  2.0361437e-01
  2.3401055e+00
 -5.4984599e-01
 -3.1784287e-01
 -7.3472762e-01
 -8.9244866e-01
 -1.3511705e+00
  2.7339919e+00
 -3.6607531e-01
 -1.8542176e-02
  1.3926064e+00
  4.5546955e-01
  2.4533873e+00
 -4.2405200e-01
 -6.8140596e-01
 -2.2481837e+00
  1.1309258e+00
  6.0778648e-01
  8.7037450e-01
  1.2768089e+00
  1.0832115e+00
  1.2631767e+00
 -1.0089438e+00
 -4.5553026e-01
 -5.9252387e-01
  5.3589508e-02
  1.0333804e+00
  1.9726025e-01
  1.2966653e+00
 -2.5411949e-01
  8.2456934e-01
 -1.0130974e+00
  6.5413737e-01
 -2.3685029e+00
  1.9080792e-01
  1.3673119e-01
 -1.6859537e-01
  1.7963788e-01
  7.7996762e-03
 -2.5872111e-01
  3.1791523e-01
 -7.5903273e-01
  3.5265091e-01
  1.4172001e-04
 -3.3598083e-01
 -1.1307487e-01
 -1.6757084e-01
  9.6230377e-03
 -2.4302724e-01
  3.3757249e-01
 -2.2101992e-01
  2.1442319e-01
  1.9618128e-01
  7.7245429e-02
  1.9145320e-01
  2.3858854e-01
  7.4622953e-01
  5.0163129e-03
  1.4639682e-01
  3.7481899e+00
 -3.6485478e-01
 -6.0034320e-02
  1.6137731e-01
  1.4766760e+00
  1.2485396e-01
  3.2570738e-01
  1.3571718e+00
  4.1660577e-01
 -3.6900023e-01
  1.7892346e-01
  3.5515107e-02
 -2.5583819e-01
 -1.6627147e+00
 -2.6207857e-02
  1.8031389e-01
 -6.3225977e-02
 -1.2478336e+00
 -2.9769260e-01
 -1.1515744e-01
 -2.0665507e-01
  3.5619076e-02
 -1.8449673e-01
  1.1486844e-01
 -6.2853187e-02
  4.1521859e-01
 -1.9815220e-02
  2.7389416e-01
  1.7700328e-01
 -4.1537178e-01
  8.2653381e-02
  4.0883329e-02
  3.7500910e-02
  3.7550485e-01
  8.1399471e-02
 -2.5326874e-02
  3.2121241e-02
  5.6952345e-01
 -2.0347342e-01
 -3.9637941e-01
 -2.7122747e-02
  1.4571150e-01
 -2.2641701e-01
  5.5272344e-02
  8.4004454e-02
  4.5278456e-02
  8.3238351e-01
 -1.8657906e-01
 -1.6264372e-01
  2.8934939e-02
  1.4391520e+00
  1.2763132e-01
 -1.5699396e-01
  2.8591853e-02
 -2.1073388e-01
  6.3986674e-02
  1.5274566e-01
  1.2582998e-01
  4.0864068e-01
  3.8372528e-02
  1.8553229e-02
 -2.5790794e+00
 -3.3220779e-02
 -7.5294867e-02
  6.4576278e-03
  2.2849800e-01
  1.0539697e-01
  4.3899789e-02
  9.5207608e-01
  8.7743312e-02
  6.0366910e-02
  3.1991446e-01
 -1.8146802e-01
 -4.8900284e-02
 -1.1748479e-01
  1.8113622e-02
 -2.3190190e-01
  2.9766666e-02
 -6.6787928e-02
  3.0849910e-01
 -2.0857294e+00
 -2.0029089e-01
 -6.4561345e-02
 -4.0591273e-02
  3.6828794e-02
  7.9925187e-02
 -3.2963108e-02
 -5.8367217e-01
 -2.1696346e-01
  2.8648326e-01
  1.2363951e-01
  3.7076375e-01
 -1.9219305e-02
 -1.7093979e-01
  2.7986120e-02
  1.1260352e+00
 -6.1908478e-01
  5.3583628e-01
  2.5301643e-02
  7.1031815e-01
 -3.4017260e+00
  4.8656258e-01
  1.0302670e-01
 -2.9228342e+00
 -2.1207423e+00
 -1.5137249e+00
  2.6673684e-01
 -3.6885881e-01
  5.4506309e-02
 -6.4383245e-01
 -1.2023224e-01
 -8.9547354e-01
  4.2327702e-01
  3.3615321e-01
 -5.2551800e-01
 -4.0468898e-02
 -1.2264413e+00
 -3.7506166e-01
 -1.2981524e-01
 -2.7856416e-01
  1.8953092e-02
 -2.8433558e-01
 -2.7397436e-01
 -4.9220023e-01
  8.8849463e-02
  1.6027815e+00
  5.5515438e-01
 -2.0175362e+00
 -7.2748965e-01
 -1.0437541e+00
 -8.3318377e-01
 -2.0790037e-02
  8.1610072e-01
  1.2102816e-03
  1.2810671e+00
  1.2378465e+00
 -1.3300304e-02
 -2.4108900e-02
 -1.0230680e-01
  2.2742736e+00
 -3.6319685e-01
 -2.1003151e-01
 -2.7152404e-01
 -1.9219822e-04
  2.2160746e-01
  3.2404256e-01
  8.7618607e-04
  1.3862783e-01
  2.1869849e-02
 -7.3367059e-01
 -1.5123922e+00
  1.5888798e-01
  4.4948190e-01
 -1.4392638e+00
  6.4162925e-02
  1.3475576e-01
 -2.7422866e-01
  3.0014727e-01
  4.6183598e-01
  8.4096581e-01
  9.0253991e-01
  1.2091263e-02
  6.2955640e-02
 -9.3261695e-01
 -4.4974667e-01
 -5.6903064e-02
  1.3452762e-01
 -6.8138003e-01
  5.7056916e-01
 -3.6353794e-01
  6.1260712e-01
 -3.6244376e+00
 -9.3074761e-02
 -1.8696888e-01
  2.1228388e-01
  1.9405304e-02
  3.1150639e-01
 -5.8816973e-02
  1.6629722e+00
  9.7905122e-02
 -2.9965937e-01
 -1.7808299e+00
  7.5860918e-02
  4.6556190e-01
  1.8711326e-01
 -7.7997869e-01
  1.3285824e+00
  1.1800640e+00
 -1.3444911e-01
 -1.5834878e-01
  2.9956082e-01
  5.8584101e-02
 -1.3240503e-01
  3.7246215e-01
  1.3854326e+00
  9.9214363e-01
  3.0088153e-01
 -1.9006857e-01
 -2.6732469e-01
 -1.0502445e-02
 -2.9393911e-02
 -1.7162283e-01
 -8.4907740e-02
  3.5222816e-01
  1.7145835e-01
 -1.4072002e-01
  5.5234686e-02
 -1.1529168e-01
 -4.5878798e-02
 -2.8333086e-01
  1.8105598e-01
 -1.6910608e-01
  7.2396770e-02
 -4.4342026e-01
  4.0890923e-01
 -1.9638109e-01
 -1.9172870e-01
  4.2480645e-01
 -3.6836047e-02
  7.6170405e-03
  1.7618613e-02
  7.1484819e-02
 -3.0319729e-01
 -1.0235857e-01
  6.9165891e-01
 -3.3237930e-02
 -1.0995992e-01
 -3.9309058e-02
 -7.9865718e-01
 -7.2582942e-01
 -1.4677286e-01
  3.3633523e-02
 -1.0201614e+00
 -6.9279686e-02
 -1.5136644e-01
  1.0368460e-01
  2.5665407e+00
  1.5953663e-01
 -1.4829934e-01
 -2.9642904e-01
  2.2737190e-02
  8.2673118e-02
  1.0479439e+00
 -9.5266476e-02
 -2.6650185e-02
 -8.3178312e-02
 -1.5572698e-01
 -8.6632803e-02
 -2.9926339e-01
  1.7314680e-01
 -2.3651084e-01
 -3.7988663e-01
  3.6296400e-01
  3.1753808e-02
  1.0217644e-01
  3.9493179e-01
 -3.2513920e-02
  1.1285217e-02
 -3.1212252e-03
 -1.7972001e-01
 -6.2161576e-02
 -2.3223300e-02
  4.5800626e-02
  6.2772684e-02
  2.2266620e-01
 -7.6407403e-02
  4.8527144e-02
  6.1755776e-01
  8.4768003e-01
 -7.5894517e-01
  1.9567246e+00
  3.3087972e-01
  2.1709754e+00
 -1.7710721e-01
 -3.3775315e-02
  3.7715295e-01
  3.6225036e-01
  2.1281299e-01
  6.9443744e-01
 -1.7700711e-02
  1.0823688e-01
  1.3270976e-01
 -7.8475177e-02
  3.4624594e-01
 -5.9163618e-01
 -2.2622709e-01
  1.2369558e+00
 -5.5621868e-01
  2.4822033e-03
  1.6732840e-01
 -3.0744072e-02
  4.0274099e-01
  2.1567000e-01
  3.2882997e-01
 -5.3236175e-02
 -5.8369690e-01
 -1.9613262e-01
  3.8283601e-01
  9.2258178e-02
  7.3607290e-01
  1.5977399e-01
 -1.6589510e+00
 -5.0451428e-01
  5.2558236e-02
 -6.6034049e-02
  1.1764629e+00
 -1.1235324e-01
  1.7968747e-01
  3.5107508e-01
  1.0649358e-01
 -1.5587908e-01
  8.5142350e-01
  1.2812763e-01
 -1.1576841e-01
 -2.0756091e-01
 -3.7150070e-02
 -2.6081559e-01
  4.2448679e-01
  2.1603854e-01
 -3.7815592e-01
  1.2794109e-01
 -2.4101990e-01
  5.9243206e-02
  2.2686586e-01
 -4.3811277e-02
  3.8302800e-01
 -1.1459543e-02
  1.4128580e+00
  1.9536433e-01
  1.7170398e-02
 -9.3389504e-02
  8.5166201e-02
  1.6266966e-01
  9.2457145e-02
 -7.6887734e-02
 -1.5739861e-01
 -1.3176022e-01
  7.2720714e-02
  5.7204414e-02
  6.8924075e-01
 -1.5261635e-01
 -1.4878425e-02
 -8.1594184e-02
 -3.7434858e-01
 -1.5638506e-01
 -2.6211795e-01
  7.5661406e-02
 -4.6412781e-02
  1.5265665e+00
  1.4500448e-01
 -1.1332923e-01
  6.7533821e-02
 -1.3631341e-02
  2.5229985e-01
 -1.1990011e-01
  2.8508005e-01
 -4.9774504e-01
  1.7244822e-01
 -6.9833167e-02
 -3.8479976e-03
  1.6318887e+00
 -3.1984311e-01
 -6.7107409e-01
  2.9668284e-03
 -2.1176895e-01
 -1.0278281e-01
 -1.4330098e-01
  2.1824116e-02
 -9.7947054e-02
  1.2962887e-01
 -4.4285011e-01
 -6.7520398e-01
 -6.2827878e-02
  1.2105263e-02
 -3.0892989e-01
 -1.0270340e+00
  9.7679573e-01
  1.2200654e-01
  2.5430068e-01
 -3.6923863e-02
  1.6498908e+00
  6.5628153e-01
 -1.0617291e+00
 -6.7678988e-02
  3.9675024e-01
  3.5943852e-03
  9.5069818e-02
  1.0753249e-01
  1.3414941e+00
 -1.6747857e+00
  5.2982146e-01
  1.9759384e+00
  5.6824577e-01
  4.6260157e-01
 -4.6290287e-01
  2.3308553e-01
 -1.6498348e-01
  1.0401667e-01
 -8.7946644e-03
  5.4027128e-01
  3.2649827e-01
 -1.3545330e-01
  5.1312709e-01
 -2.1166083e-01
 -5.3912735e-01
 -1.9196995e+00
  3.9298791e-01
 -1.7442510e-01
 -5.8528282e-02
  1.9652848e+00
 -1.6578129e-01
 -6.7959917e-01
  2.0132510e-01
  2.3749217e-01
  1.0279697e+00
 -8.7134570e-02
 -3.7374392e-02
  1.1357046e+00
  9.5387703e-01
  3.2181375e-02
  1.2140244e-01
  2.8299618e-01
 -7.3660679e-02
 -1.2915673e-03
  7.0663355e-03
  2.2520018e-01
 -5.4690715e-02
  9.1950655e-01
 -9.0496860e-02
 -1.9567743e-01
  1.0677274e-01
 -2.7879423e-01
 -2.1207478e+00
 -6.5581212e-03
  1.5698310e-02
 -6.5976501e-02
  2.1851793e-01
 -2.0954707e-01
 -1.6129740e-03
 -6.7271662e-01
  2.2088779e-02
 -4.1926077e-01
  4.7349635e-01
  2.4453911e-01
 -2.3835509e+00
 -2.3278052e-01
 -6.6901939e-03
  1.3868526e-02
 -2.9476348e-01
 -2.1350802e-01
 -9.3362910e-01
  4.8196813e-01
 -1.6360793e-01
  3.7132993e-02
 -1.0024548e+00
  8.1227481e-01
  7.8842878e-01
 -1.7183474e-01
  7.9657573e-01
 -5.2772009e-01
  7.9686737e-01
  4.6960509e-01
  9.1456383e-02
  7.5801206e-01
  3.5486457e-01
 -4.5146880e-01
  7.6056600e-01
  1.4423863e+00
  9.0701497e-01
  1.8121740e-01
 -4.2590445e-01
 -5.4046261e-01
 -2.4534066e-01
 -1.5636256e-01
  1.0105056e-02
 -7.6989301e-02
  4.6224874e-02
 -2.3560120e-01
 -1.2407502e-01
 -1.8787944e-01
 -6.5934979e-03
 -9.5923664e-05
  1.6111304e+00
  5.8549210e-02
 -3.5966456e-01
 -3.4162596e-01
 -2.8576840e-02
  1.5466048e-01
 -4.9604782e-01
 -2.1897683e-02
  8.1400967e-01
 -1.2179486e+00
  1.8834900e+00
  5.9338678e-03
 -7.5792867e-01
  3.0045313e-01
  8.1525147e-01
  7.5115615e-01
 -3.1960306e-01
  1.3158874e-01
 -1.4930218e-01
  2.1309765e-02
 -3.3498389e-01
  6.5804672e-01
  1.2153941e+00
  1.7959590e-01
  5.3066969e-01
 -2.0454524e+00
  1.0440384e-02
 -2.4533067e+00
  6.1420220e-01
  1.1471220e+00
  9.2812395e-01
  5.6194645e-01
 -8.2467145e-01
 -2.2155542e-02
 -1.7016780e+00
  8.6111242e-01
 -4.5577770e-01
  2.3058884e-01
 -7.4646926e-01
  4.1472290e-02
  2.6119985e-02
  9.3507719e-01
 -6.1291206e-01
 -2.9315430e-01
 -1.0535356e-01
 -1.3145982e-01
  3.1990519e-01
  1.2972717e-01
  5.7741508e+00
  2.3782615e-01
  2.0424369e-01
 -3.8784242e-01
  1.8486744e-01
  9.9715337e-02
 -6.5844446e-02
 -1.5771812e-02
  6.5467292e-01
  1.3779348e-01
 -3.5493002e+00
  1.0292033e+00
 -3.3455607e-02
 -6.1106962e-01
  3.5644311e-01
  9.9220794e-01
  1.7981428e-01
 -4.0678805e-01
  1.1727849e-02
 -9.7529173e-02
 -4.2682353e-01
  3.7031498e-02
  9.1365680e-02
 -1.4530483e-01
  4.1299447e-01
 -2.6574647e-01
 -5.4053150e-02
 -6.3950062e-01
  3.3721894e-01
  1.5143203e-02
 -7.9815492e-02
  3.0731680e-02
 -2.5722387e-01
  1.5548538e-01
 -2.6776275e-01
 -2.9785600e-01
 -2.1637078e-01
 -2.2102860e-01
  3.3122692e-01
 -3.3500198e-01
 -2.1841030e-01
 -1.5396656e-01
  1.1525886e+00
  6.8465933e-02
 -1.6576672e-02
 -1.7985392e-02
  9.3395311e-01
 -2.1023114e-01
 -9.5782569e-03
  1.0436995e-01
 -2.2024539e-01
  2.4558713e-01
 -4.5718744e-02
 -1.7272222e-01
 -1.2058455e-01
 -3.5883719e-01
  1.8562436e-01
 -3.8379222e-02
 -1.5062088e-02
  1.4996244e-01
 -5.9942687e-01
  7.9931147e-02
 -5.1226955e-02
  2.5527777e-02
  3.6557501e-03
 -1.2101701e-01
 -6.9606140e-02
  1.6382855e-01
 -3.2073259e-01
  3.9489314e-01
  2.2198487e-02
 -1.1449994e+00
 -1.2304576e-01
 -4.4641122e-02
 -5.8548562e-02
  1.1605340e-01
  2.6259628e-01
  3.7129922e-03
 -1.0113242e-01
  2.3375146e-01
  4.4065412e-02
 -2.8332254e-01
  1.7391194e-01
 -3.0806714e-01
 -7.4300073e-02
  1.9879369e-02
 -2.1389127e-01
  2.0282678e-01
 -1.8356633e-01
 -3.1381074e-01
  1.7946335e-02
  3.3444765e-01
 -5.6793392e-02
 -1.4931190e-01
  7.6709531e-02
 -4.6328411e-01
  1.3999790e-02
  1.0424658e-01
  6.1156750e-02
  1.2385304e+00
 -3.2361788e-01
  5.6462359e-01
  2.1891508e-01
  7.0587456e-02
 -2.6637163e-02
 -5.1250439e+00
 -1.8467599e-01
 -1.4667639e-01
  1.0669044e-01
  3.9465800e-02
 -3.4476459e-01
 -1.3551094e-01
  1.0464991e-01
  3.9287663e-01
 -6.4476259e-02
 -1.7690857e-01
 -5.8739748e-02
 -9.9243872e-02
 -3.7778741e-01
 -1.5234388e+00
 -1.6603386e-02
 -2.2413865e-01
 -1.2866712e-01
  1.6309692e-01
  2.6195687e-01
  4.3720779e-01
  2.8683934e-02
 -3.0901524e-01
  2.4812384e-02
  3.3198504e+00
  9.6570790e-01
  1.7680523e-01
  1.2287770e-01
 -9.2913580e-01
 -1.6513233e-01
  1.9874707e-01
  1.6430461e-01
  3.2942433e-02
 -4.7973529e-01
 -3.1925604e-01
  1.1165325e-01
  8.8997245e-02
  5.6006942e-02
  2.1374249e-01
  3.7844595e-01
  1.9875941e-01
  3.4688383e-01
 -7.1019843e-02
 -4.3162707e-02
 -1.2255748e-01
 -2.0939088e-01
 -6.4530492e-01
 -2.5495347e-01
  2.6615519e-02
  4.8310075e-02
 -1.3784251e-01
 -1.8133949e-01
  5.4248351e-01
  2.1313121e+00
 -1.1044262e-01
  8.0909461e-01
  9.1600560e-02
  6.7402199e-02
  3.3345189e+00
 -2.7818075e-01
  1.9334668e-01
  3.4721762e-01
 -1.4928795e-01
 -4.0474523e-02
  5.0912267e-01
 -4.4612262e-02
 -2.5569119e-02
 -1.6971512e-02
  5.5307591e-01
 -9.0267754e-01
 -1.2562914e-01
 -8.2337812e-02
 -4.4530702e+00
 -5.6004405e-01
  9.5405370e-02
  9.8873675e-02
 -2.3765849e-02
 -2.0130204e-01
 -4.4254985e-02
  3.0094185e+00
 -2.9904971e-01
  3.7663665e-02
  1.0039775e-01
  1.0395546e-01
  4.3144721e-01
  1.6669658e-01
  1.9448183e-01
 -3.7659258e-01
  2.0860591e+00
  6.1687414e-02
 -2.7610254e+00
  4.4884160e-01
  2.6750056e-02
  4.6596128e-02
  1.6669188e-02
  1.1055615e+00
 -3.9138526e-01
  6.3938415e-01
  7.3277831e-02
 -1.3990788e-02
  8.5815623e-02
  2.6790345e-01
  1.0762841e-01
  3.0641031e-01
 -2.2148204e-01
  1.1165308e-02
 -5.4976832e-02
 -9.3836889e-02
  1.6387081e-01
 -1.4730494e-01
 -5.2950576e-02
 -2.2781072e-02
  5.3755569e-01
  8.5150890e-02
  9.3249433e-02
 -5.0599277e-01
  1.9827923e-01
  3.3452219e-01
 -2.1276091e-01
 -1.3501600e-02
 -2.1236536e-01
  1.6446961e-02
  5.9982680e-02
  1.0453942e-01
  1.0528504e-01
 -6.6651806e-02
  1.8943100e-01
 -5.9742942e-02
  4.4069622e-02
  6.7240405e-01
 -3.6161321e-03
 -1.3408107e-01
 -3.0819646e-01
  3.9103564e-02
 -1.5194463e-02
  2.2725856e+00
 -2.0089500e+00
  1.4811289e+00
 -8.6157247e-02
 -2.2462935e+00
  8.8972300e-01
 -9.7381122e-02
 -7.6879457e-02
 -2.9202449e+00
  2.6439241e-01
  1.7031416e-01
 -8.7030262e-02
 -8.5001186e-02
  1.4314537e-01
 -9.8785758e-02
 -4.8993129e-02
  1.8295777e+00
 -6.2341999e-02
 -9.7580254e-02
 -1.1329752e-01
 -4.6389014e-02
 -2.8224749e-02
  1.1835579e-01
  1.8146138e-01
  2.8680298e-02
 -6.4999276e-01
  8.6760581e-02
 -1.0925887e-01
 -1.7606383e-02
 -1.0373886e-01
 -1.2934515e-01
 -2.2908010e-02
 -8.1561929e-01
 -9.8849678e-01
  7.0866838e-02
 -1.4185120e-01
  2.2686704e-01
  5.8474970e-01
 -1.6455379e-01
 -9.9750131e-02
 -1.2965338e-01
 -2.2368005e-01
  5.0878927e-02
 -2.1953286e-01
 -1.8614492e-01
 -2.3185825e-02
 -3.7310997e-01
 -1.1568061e-01
  1.0405166e-01
 -1.1384509e-02
 -1.8318664e-02
  5.2592170e-01
 -6.6950560e-01
  1.3766433e-01
  4.9502831e-02
  2.4771431e-02
 -1.9899516e-01
  2.0492722e-01
 -1.3661522e-01
 -2.0895743e-01
  9.5798500e-02
  3.6369581e-02
 -2.7845466e-01
  5.1385909e-02
 -1.2448348e-01
 -1.5743917e-01
  1.8808333e-02
 -8.6775474e-02
 -8.0258712e-02
 -1.8056524e-01
 -4.5520574e-02
 -7.8963512e-01
  9.9576965e-02
 -6.6625988e-01
  3.4657816e-04
 -1.4676404e-01
  1.4621511e-01
 -2.8346241e-02
 -2.6187262e-01
 -1.9839282e-01
  1.0739716e-01
  7.1061864e-03
 -1.1613497e+00
 -7.3893768e-01
 -4.6255869e-01
  2.8745106e-01
  1.0870598e-01
 -1.2328618e-01
  7.0659108e-02
 -5.3167697e-02
 -1.6880108e-01
 -4.0521929e-01
  3.1192595e-01
 -4.9746551e-02
  8.9373793e-03
 -5.4133701e-01
 -1.9619362e-01
  1.2494804e-01
 -6.3646424e-01
 -2.8279588e-01
  6.0776733e-03
 -7.7869020e-02
  2.3453492e-01
  4.3544739e-01
 -9.0937376e-01
 -8.3760142e-02
  3.5591166e-02
 -4.2307153e-02
  1.2512445e-01
 -5.2803373e-01
  9.4554859e-01
 -1.6994385e+00
 -1.7322505e+00
 -1.2307227e+00
 -2.8072314e+00
  2.1720295e+00
  2.5875005e-01
 -3.5776215e+00
 -9.9311656e-01
 -1.9677217e+00
  2.5283870e-01
 -9.1692775e-02
 -1.2962329e+00
 -3.7284669e-01
  2.3124537e-01
 -1.9459702e-01
  4.2336273e-01
  1.6246004e+00
  1.2028573e+00
  5.1893944e-01
 -7.2936690e-01
 -5.2110344e-01
 -2.6196381e-01
  3.6336297e-01
  3.3219513e-01
 -1.2656212e+00
  2.9933915e-01
  3.3460300e+00
 -3.1805158e-01
 -7.4423152e-01
 -7.9945302e-01
  5.9219873e-01
  4.7080882e-02
 -6.8997568e-01
  1.1499774e-01
 -5.9880608e-01
  5.0942346e-02
 -1.0799769e+00
  3.6289424e-01
 -1.0435839e+00
  1.0355023e+00
 -8.2763118e-01
 -5.9807266e-04
  1.5852921e-01
  5.9896058e-01
  9.2929292e-01
 -6.8324894e-02
 -5.3732779e-02
  1.7141692e-01
 -5.5960882e-01
  1.7961198e-01
 -5.0587243e-01
  8.8900790e-02
 -3.4941822e-01
  3.1227100e-01
 -4.8489952e-01
 -3.3961732e-02
  2.7305624e-02
  2.5512120e-01
 -2.5225800e-01
 -2.7172893e-02
 -6.2380422e-02
  2.3795766e-01
 -3.8896826e-01
  7.9838119e-02
 -1.7130534e-01
  1.6009998e-01
 -1.2535462e-01
 -3.6215162e-01
  1.3556559e-01
  8.2975440e-02
 -7.0887871e-02
  4.9188115e-02
  4.6893686e-01
  1.4316710e+00
  8.4195407e-03
  1.4825359e-01
 -1.5092143e-01
  3.4814058e-03
  2.1347389e-01
 -1.1921210e+00
 -2.2904842e-01
  4.8496939e-02
 -8.2798190e-02
 -8.2671724e-02
 -8.4302068e-02
  3.1527305e-01
 -1.0497906e-02
  6.5069743e-02
  6.8031400e-01
  6.3462287e-02
  6.8696506e-02
  7.9615507e-03
 -1.3533048e-01
 -6.4820051e-02
 -7.6031797e-02
 -1.0933840e+00
  1.0399226e-01
 -1.6692899e-02
 -1.2098636e-01
  2.0618387e-01
 -5.9477467e-02
  2.4597418e-01
 -1.0557317e+00
 -1.9990075e-01
 -4.0876418e-01
 -1.3941227e-01
  3.5378575e-01
  2.3611923e-01
 -1.1739592e-01
  9.1656134e-02
 -1.5991756e-01
 -2.3128466e-01
  2.3112426e-02
  5.5430017e-02
 -5.1957056e-02
 -2.1119463e-01
 -1.2183272e-01
 -3.0858035e+00
  3.4564760e-02
 -2.5523415e+00
  1.0318818e-01
 -7.0496790e-02
  1.6552146e-01
 -5.9775688e-02
 -8.4008295e-03
  2.7341826e-02
  1.6457366e-02
  1.3415788e-01
 -1.3129917e-01
  5.9721369e-02
 -2.1208630e+00
  3.2028146e-02
 -2.5209439e-01
  8.1022188e-02
 -6.3187875e-02
  7.6464531e-03
  6.6824162e-01
  4.2107689e-01
  3.9390585e-01
 -8.4498948e-01
  2.9487678e-01
  2.4553202e-01
  5.8232781e-02
 -3.6748657e-01
 -1.6709387e-02
 -5.0573605e-01
  8.9741164e-01
  2.3519273e-01
  1.1794749e-01
  7.0605391e-01
 -1.4128207e-01
  5.5671696e-02
 -2.0174202e-02
  1.7091675e-01
 -1.1702528e-01
 -2.4067171e-02
  3.9050490e-02
 -2.0753808e-01
  6.3435793e-01
  1.0550964e-01
  1.6395144e-01
 -1.1214217e+00
  3.3519349e-01
  8.6400814e-02
 -1.1825405e-01
  1.8509085e-01
  1.2289093e+00
 -1.5081025e-03
 -8.3583696e-03
 -4.0647668e-01
  4.8506314e-01
 -8.1608713e-01
  2.3093925e+00
 -1.3807410e-01
 -1.7556810e-01
 -9.4351463e-02
  5.1501411e-01
 -1.9897223e-02
 -6.3965986e-03
  2.1272166e-02
  4.1565071e-03
  2.6572627e-01
 -7.5675435e-02
 -2.3894118e-01
  8.0930752e-01
 -2.6051053e-01
 -3.0254143e-01
 -1.2054767e-02
  9.4824359e-02
  1.3659540e-01
  1.3249920e-01
 -7.6244816e-02
  1.0881437e-01
  1.0713533e-01
 -9.5368885e-02
  1.7242211e-01
 -2.8022209e-02
 -1.1597461e-01
 -1.3987961e-02
 -3.8295269e-02
  1.9031941e-03
  1.4174803e+00
  6.7217872e-02
  5.4640329e-01
 -2.5454649e-01
  1.0313403e-02
  8.7362155e-02
  1.6026238e-01
  8.3500616e-02
  1.1575374e-02
  5.0657666e-01
 -1.1312902e-01
 -3.0862403e-01
  2.4849240e-01
 -4.2197606e-01
 -7.0605747e-02
 -1.1270256e-01
  1.7115340e-01
 -1.1413766e-02
  5.5378284e-03
 -2.1385036e-01
 -1.9835889e-01
  1.4506701e-01
 -1.9999710e-01
  8.4510857e-01
 -4.0120688e-01
 -2.8561852e+00
 -1.0249128e+00
 -1.3651373e+00
  3.9561716e-01
  6.9717252e-01
 -1.5097593e-03
  5.4621673e-01
 -3.1445593e-01
  1.5075052e-01
 -4.8967842e-02
  5.5684733e-01
  8.2652383e-02
  1.0536132e-01
 -2.1938818e-02
  2.8513236e-02
  4.7828931e-02
 -6.1598010e-02
 -1.1127166e-01
 -3.2878155e-01
  7.2025217e-02
 -9.3793273e-02
 -6.9280021e-02
  1.0491215e+00
  6.5108210e-01
 -2.0682275e-01
  1.6511297e+00
 -2.1551143e-01
 -1.6737709e-02
  6.5439366e-02
  9.9790215e-01
  2.0851394e-02
  3.1091294e-01
  4.8730046e-02
 -1.6080795e-01
  4.4196755e-01
  7.3898435e-02
  5.8999453e-02
 -2.7063137e-01
 -1.0175480e-01
  3.9799251e-02
  1.0870422e-02
  1.0092384e-01
 -3.0464748e-01
 -2.0140098e-02
  3.1210151e-01
  1.1338665e-01
 -6.9252566e-02
  2.0043269e-01
 -9.6521728e-02
  3.9034083e-02
  5.4177750e-02
 -8.6021274e-02
 -4.5302886e-01
  3.4289777e-02
 -4.6358162e-01
  2.6504841e-01
 -1.0772905e+00
 -1.9417188e+00
  1.6562556e-01
 -4.9955907e-01
 -1.9639730e+00
 -6.8324143e-01
  5.2285415e-01
  9.4190705e-01
 -9.7332262e-02
 -5.7608176e-02
 -5.0571537e-01
  2.2719185e+00
  1.3112575e-01
 -1.7398493e-01
 -2.2973992e-01
  1.1374395e-01
 -5.2642232e-01
  1.6068587e-01
  7.3941365e-02
 -4.8594158e-02
 -4.6179954e-02
  2.1829911e-01
  3.2812676e-01
  4.5699778e-01
  3.6130123e-02
  7.7250250e-02
  5.0418504e-02
  2.5221400e-03
  2.6485044e-01
  1.1090592e-01
  1.2803671e-02
  1.2773193e-01
 -2.4835233e-01
 -5.4495782e-04
 -3.5204077e-01
  3.0458209e-01
 -2.2067416e-01
  5.6971010e-02
 -2.4052352e-01
  5.8754403e-02
  1.1505397e-02
 -5.6972262e-02
 -7.5578767e-01
  9.0506449e-02
 -2.9067308e-01
  1.5858658e-01
 -2.5470309e-02
 -1.0802673e-01
 -2.4131455e-01
  6.5542310e-02
  2.4334015e-02
 -2.8034855e-02
  1.2633026e-01
 -3.5077935e-01
  1.9964166e+00
  7.0300169e-02
  1.0945986e-01
  5.0187236e-01
  1.0718364e+00
 -1.8998866e-01
  4.6335432e-01
  3.8282946e-02
 -2.3351669e+00
 -2.7303305e+00
  3.9103222e-01
 -3.1749021e-02
 -1.8893527e+00
 -1.1209447e-01
 -7.4096978e-01
 -2.7721125e-01
  8.6476558e-01
 -6.7493695e-01
 -7.9200923e-01
 -2.6575067e+00
 -7.4513145e-02
  2.0049384e-01
  1.2989253e+00
  3.8932660e+00
 -4.7671932e-01
 -1.3618026e+00
 -9.9117216e-03
 -2.4047084e-01
 -1.6135037e+00
 -2.7093130e-01
  5.9679213e+00
 -6.2953115e-01
 -3.4723213e-01
  5.3314978e-01
 -1.4453322e-01
 -6.9424343e-01
 -5.8188748e-01
 -2.7997763e+00
  2.5357678e+00
  4.0446796e-02
  3.1714174e-01
  6.8577163e-02
 -7.1970254e-01
 -8.9632340e-02
  1.7142250e-01
 -2.4817266e-01
 -7.6533711e-01
  4.2673245e-01
  9.2152152e-03
 -1.4483930e-01
  2.6406327e-01
 -2.5666180e-01
 -1.3585767e-01
 -5.7480678e-02
 -6.5963310e-01
  4.2656651e-01
  4.5880713e-02
 -2.0871243e-01
 -2.1806755e+00
  4.3904436e-01
 -5.1998848e-01
 -4.1638112e-01
  4.4987479e-01
 -5.6421244e-01
  6.1336964e-01
  1.6084660e-02
 -2.9738238e-01
  6.6651720e-01
 -1.5365362e+00
  5.4981261e-01
 -1.3183483e-01
  3.1657746e-01
  1.7389335e-01
 -1.8038669e+00
  1.8050165e+00
  8.4790504e-01
  2.6486030e-01
  9.2164248e-02
 -2.4410148e-01
 -9.4531411e-01
 -1.3307915e-02
  2.8189585e-01
 -6.4388400e-01
 -3.1309202e-01
 -3.4130767e-01
  3.8463616e-01
 -1.5862179e-01
  1.1536715e-01
  1.5584791e-01
  4.3926030e-02
 -2.2950515e-01
 -6.9579400e-02
  5.6967306e-01
  4.2153593e-02
  1.1574356e-02
  1.3185958e+00
  1.6682594e-01
 -2.1355380e-01
  1.2259926e+00
 -1.0611683e+00
 -1.1975138e+00
  1.0012797e+00
 -8.6410630e-01
  1.9723537e+00
 -5.9822881e-01
  2.0705569e-01
 -7.2591585e-01
 -1.3623327e+00
  3.8120937e-02
  1.0191889e+00
 -7.4878508e-01
  5.6824321e-01
 -1.1994481e+00
  1.7637923e+00
  1.9489478e-01
 -4.7140732e+00
  4.7779810e-03
  5.7059443e-01
  1.5237612e-01
 -2.6901837e-02
  1.9565313e+00
  3.0456221e-02
  6.7294645e-01
  4.9059442e-01
  2.9437344e+00
 -6.5210910e+00
  4.3076739e-02
 -1.3603398e+00
  6.4604543e-02
 -1.2873310e+00
  1.4341727e-02
 -4.8217077e-02
  1.1140586e-01
  1.3191569e-02
  1.9744460e-01
 -6.0327840e-01
  5.6329377e-02
  2.8807744e-01
  3.6636641e+00
 -8.2350247e-02
 -4.4976145e-02
  1.0666797e-01
 -1.3652689e+00
 -5.5958837e-01
 -3.2439372e-01
  2.4391143e-01
  6.4766956e-03
 -1.8635853e-01
  1.1597218e-01
 -8.2080388e-01
  5.1756546e-02
 -6.1602902e-02
  2.0892570e-02
  4.6439506e-02
  1.1526911e+00
  2.8357673e+00
 -1.5996656e+00
  2.8769793e-02
 -1.6250454e+00
 -9.8916304e-01
  1.1597961e+00
 -7.1948522e-01
 -1.4547054e+00
  2.4957013e+00
 -1.0459278e-01
 -2.4527879e-02
  7.6484728e-01
 -4.8967588e-01
  5.8030587e-01
 -1.7998462e+00
 -1.4320395e+00
 -4.4568162e+00
  6.2627710e-02
  1.0426621e+00
 -8.9778036e-02
  6.6531748e-02
 -1.5062593e-02
  1.0129801e-01
 -2.8091308e-01
  1.1746775e-01
  5.1179320e-01
 -1.5142454e-01
  4.6246145e-02
 -3.5383277e-02
 -1.4257535e-01
 -2.6642017e+00
  2.8126365e-01
  5.6418560e-02
 -1.4703010e+00
 -5.6737453e-01
  2.0482470e-01
  5.4800496e-02
  1.0078690e-01
 -2.0309256e-01
  1.0609947e+00
  1.6440807e-01
 -9.9774754e-01
 -4.7349936e-01
 -2.2593488e-01
  5.1586952e-02
  4.6472415e-02
 -3.6913499e-01
  3.2162252e-01
  6.4798951e-02
 -1.1551566e-02
  1.0936447e-01
 -8.2461064e-04
 -2.9707500e-01
 -6.9750801e-02
  6.3875563e-02
  3.3695954e-01
 -8.1655771e-01
 -1.7587879e-01
 -2.3954153e-01
  5.5390581e-02
 -4.4289601e-01
 -3.7309453e-02
  6.6676390e-01
  2.5426161e-01
  6.4147398e-02
 -1.9868480e-01
 -7.6503485e-02
 -3.0260882e-01
  2.1401326e-01
 -3.2075194e-01
  3.3358842e-02
 -1.1546790e-01
  5.8369291e-01
 -6.3738003e-03
  1.0430321e+00
  2.9965636e-01
 -4.8588964e-01
 -1.3953315e-02
  2.2373499e-01
 -9.8742574e-02
 -3.3549833e-01
 -4.3322876e-02
  7.4938886e-02
 -1.7696567e+00
 -2.8518030e-01
 -2.4091424e-02
  1.5450203e-01
 -1.2561166e+00
 -6.4102083e-02
 -3.2278505e-01
 -1.3573177e-01
  1.6255517e-01
  3.6239058e-01
 -2.2909740e-01
  3.2699430e-01
  1.0241937e-01
  6.5901570e-02
  5.8097817e-02
  1.7335209e-01
  1.6144627e-01
 -2.5469750e-01
 -6.0755974e-01
  4.1897780e-01
 -7.7371353e-01
 -4.3304995e-02
  3.5423152e-02
 -2.5115822e-02
  5.0361459e-03
 -7.6683745e-02
  4.0741075e-02
  5.7502627e-01
 -2.0245120e-01
  4.6105091e-02
  2.7620334e-02
  3.8322565e-01
  4.5996420e-02
  2.9137743e-01
  7.7846155e-02
  1.9270296e-01
  9.0404713e-01
 -7.0804276e-02
  2.4189952e-01
 -3.0870444e-01
 -1.5326765e-02
 -5.6478709e-02
 -2.7907050e-01
  9.0777893e-03
  4.3444023e-02
  5.3807702e-02
  2.4296635e-01
 -1.5146659e-01
 -1.3938391e-01
  9.8497258e-04
 -9.7987682e-02
  1.8868008e-01
 -5.9879577e-01
  9.9980980e-02
  1.1940955e-01
  2.7294686e-01
 -2.9191256e-02
 -1.3608801e+00
 -2.4004799e-04
  1.0454633e-01
 -2.0600615e-01
  4.0753850e-01
 -5.9050381e-02
 -2.2001444e-01
 -7.9968106e-03
  1.9952817e-01
 -2.2636627e-01
 -4.5089674e-01
 -6.7021883e-01
  1.0807063e-01
  1.5636240e-01
 -3.6923233e-01
  1.0356494e-01
 -1.4619535e-01
  1.3072310e-01
 -1.2913626e-01
 -9.8360255e-02
 -9.9794596e-02
 -3.6662468e-01
  1.8835826e-01
  1.8661076e-01
  4.6544296e-01
  3.2352112e-02
  7.8385979e-02
 -4.4534561e-01
  8.8738024e-01
  5.8674079e-01
 -1.6482002e+00
  2.3308448e-01
 -7.8496677e-01
 -3.9466023e-01
  3.2043833e-02
  6.6998106e-01
  1.6118037e+00
  1.0320293e+00
 -2.9346159e+00
  2.7323174e+00
 -3.0319452e+00
 -8.8379520e-01
 -7.9140294e-01
  1.2016662e+00
  3.2577243e+00
  3.7922901e-01
  4.3422785e-01
  9.8715061e-01
  9.2406327e-01
 -4.0798792e-01
 -3.3880357e-02
 -1.6457957e+00
  3.5225090e-01
  3.5514922e+00
 -4.8524261e-01
  1.7635448e+00
  1.0968411e+00
  5.9806752e-01
 -5.3282714e-01
 -1.3316230e+00
  5.3807793e+00
  3.3632344e-01
 -2.2635956e+00
 -2.2080665e+00
  1.7528741e+00
 -1.7997150e+00
  7.9162516e-02
  1.6160446e+00
  4.1869473e-01
  2.5186541e+00
  2.1479228e+00
 -1.7252778e+00
 -2.8112975e-01
  1.9046572e-01
  2.0427199e-01
  8.4415030e-01
  1.2261191e-01
 -5.6803457e-02
  3.2032919e-01
  1.3183637e-01
 -1.7667333e+00
  5.9804630e-01
 -8.3774962e-02
  2.1976380e+00
 -7.7210450e-01
  1.3664054e+00
 -1.8032175e+00
 -3.9498669e-01
  1.2200852e-01
  2.6186413e-01
 -1.1700000e+00
 -2.8433290e-01
  7.3396885e-01
 -3.3614567e-01
 -1.5213095e+00
  3.2495531e-01
 -1.3034153e+00
  5.7442218e-01
 -1.8134228e+00
  2.1302285e+00
  2.8667300e+00
 -2.8890150e+00
  1.5812419e-01
  6.2090194e-01
 -6.4887762e-01
 -2.1065542e-01
 -2.4061924e-02
  3.0892017e+00
  9.1713041e-02
 -2.7442589e+00
 -1.1953815e-02
  6.1742759e-01
 -1.8518618e+00
  2.0846330e-01
 -2.7898130e+00
 -2.4045639e-01
 -1.0157068e+00
  1.7575257e-02
 -4.3095646e+00
  2.8375392e+00
  7.6884705e-01
 -2.1077755e-01
 -1.0440373e-01
  1.8332630e+00
 -4.6211314e-01
  1.0773343e+00
  1.4635383e-01
 -1.9505142e+00
  1.4690933e-01
 -5.8054429e-02
 -1.3370830e-01
  7.5140908e-02
  2.4006978e-02
  4.1868560e-02
  1.1056443e-01
  5.0768010e-02
  1.4577429e-02
  3.6102090e-02
 -3.3982933e-01
 -7.8698504e-01
 -9.0275221e-02
 -1.0489796e+00
 -4.4483432e-01
  5.3853709e-01
 -6.2611812e-01
 -1.0783333e+00
 -2.2465959e-01
  9.0267408e-01
 -6.7141521e-01
 -4.6308020e-01
  6.2693274e-01
 -9.4744146e-02
 -8.3926821e-01
  8.7769890e-01
 -1.0883368e+00
 -1.7156012e+00
  1.5462756e+00
  2.8630194e-01
  1.4899210e+00
  1.1228906e-01
  1.4381827e-02
  2.7288604e+00
  2.3100244e-01
 -1.8408281e-01
 -2.1110223e-01
 -2.3640944e-01
  3.8023716e-01
 -9.0915151e-02
  2.7899438e-01
  1.9485507e-02
 -9.7378320e-01
  2.6198933e-01
 -4.3921057e-02
 -3.0281479e+00
  6.6402912e-01
 -1.0636149e-01
  2.5466084e-01
  8.7744451e-01
 -2.9816774e-01
  3.6395335e-01
  1.0939921e+00
 -9.8732792e-02
 -5.6395257e-01
  9.3312740e-02
  3.3689484e-01
 -2.6162422e-01
 -6.4035498e-02
 -9.4071671e-02
 -1.0129287e+00
 -1.2045303e-02
  2.3526306e-01
 -2.5722739e-01
 -2.9322749e-01
  4.8101559e-01
 -1.5853831e-01
 -4.5522654e-01
  6.8369105e-02
 -8.0385722e-02
  2.9054778e-02
 -7.1484482e-01
 -1.1455107e+00
 -1.4290057e+00
  3.9464092e-01
  1.1632507e-02
 -4.7624722e-01
 -1.7018904e-01
  7.0248745e-02
  2.8652000e-01
 -1.8134674e-02
  4.4471554e-02
 -6.9164611e-02
 -3.0923352e-01
 -9.2342883e-02
 -2.2685967e-02
 -2.3697819e-01
  1.3689804e+00
 -6.3583575e-02
  8.8152665e-01
  1.4107448e-01
  1.1411771e-01
  2.1784298e-01
  2.9304435e+00
 -1.5393005e-01
  1.6080463e-02
  1.4331833e-01
 -1.3244824e-02
  7.0391661e-01
 -4.6815023e-02
  6.3704709e-03
  1.8791717e-01
 -1.3628968e-02
 -3.8573298e-01
 -1.0562721e+00
  8.1016660e-02
 -7.5461373e-02
  1.2637797e-01
 -1.1566494e-01
  1.3297388e-01
  1.8535525e-01
 -2.3500477e-01
  6.2218942e-02
 -1.9010073e-01
 -1.2851557e+00
 -4.5740947e-02
 -1.4830136e-01
 -2.3740269e-03
 -1.5879965e-01
