nep4 4 Ag B C N 
cutoff 8.5 5.5 161 52
n_max 10 8
basis_size 10 8
l_max 4 2 0
ANN 50 0
 -2.3715144e-01
 -3.9286304e-02
  1.2143931e-02
 -8.1779188e-01
  4.9917769e-01
 -7.3515880e-01
 -1.4258430e-02
 -3.9037350e-01
  5.6809562e-01
  1.6342134e+00
 -2.8500488e+00
 -1.9562495e-01
 -8.8455133e-02
 -1.8882051e-01
 -5.4508817e-01
 -1.8990552e-01
  9.5333233e-02
 -6.1784118e-01
 -1.0496759e+00
  3.6607761e-02
  6.8186298e-02
  1.3400675e-01
  1.2128896e-01
 -1.2159433e+00
  1.1323746e+00
 -2.1852300e-01
 -3.0238706e-01
 -2.7232534e-01
  3.7763801e+00
  3.3913070e-01
 -1.5228054e-03
 -8.4065229e-01
  5.3296745e-01
  1.0085492e+00
 -7.0662934e-01
  1.1181285e+00
  3.0851102e-01
 -3.6830479e-01
 -6.1068249e-01
  9.9041581e-02
 -3.1941074e-01
  1.2687886e-01
  1.2305769e+00
  1.4194816e-01
  3.1488231e-01
  3.2921004e-01
  9.9547589e-01
 -6.5175588e-03
 -4.5281476e-01
 -1.6180634e-01
  1.3747206e-01
  4.7564960e-01
 -1.8065982e-01
  3.8957876e-01
 -5.5691624e-01
  4.3817914e-01
 -8.9904264e-02
  4.1963190e-01
 -1.2236908e-01
  3.4658051e-01
 -1.0540956e-01
  9.4869621e-02
 -6.2165207e-01
  1.4705430e-01
  1.2142067e-01
  2.4299756e-02
 -2.5926736e-01
 -2.9710671e-01
 -1.7396772e-01
 -8.8707253e-02
 -1.7947806e-01
  2.3912361e-03
 -6.4277351e-01
 -6.0801089e-01
  2.8166455e-01
 -3.1030452e-01
 -4.8055556e-01
 -2.8934962e-01
  4.8233372e-01
  1.2158682e+00
 -1.6680983e-01
  2.9382704e-02
 -7.1215105e-01
 -2.8298371e+00
 -1.1941167e+00
  6.0683718e+00
  5.1416606e-01
  1.2570310e-01
  3.7027694e-02
 -8.9417440e-01
  5.5045390e-01
  1.1485450e-01
  6.1518151e-01
  3.8159615e-01
  9.1411151e-02
 -2.5573185e-01
 -1.4691918e+00
  3.9007956e-01
  4.4657156e-01
  4.7150722e-01
  4.8591366e-01
 -5.4261148e-02
 -2.0936236e-01
  1.7487090e-02
 -3.8085166e-01
 -5.3980684e-01
  1.4098267e-01
  2.7035874e-01
  2.9286784e-01
 -1.7962903e-01
  3.4002361e-01
  6.7844439e-01
 -4.2463642e-01
 -1.3219564e-01
 -3.5496101e-02
  3.0863664e-01
  2.8177750e-01
  2.1233369e-01
  2.8127268e-01
  4.1408396e-01
  2.6376924e-02
  3.6097255e-01
 -1.3980396e-01
 -3.5995534e-01
 -4.8741889e-01
  4.0250522e-01
  5.2447522e-01
 -2.5289437e-01
 -7.7706939e-01
  2.2645688e-01
 -3.4243715e-01
  8.3729014e-02
  4.2902578e-02
 -6.8920708e-01
 -5.3446881e-02
  2.1159175e-01
  2.7266747e-01
 -1.2350202e-01
  8.3040911e-01
 -7.8339644e-02
  5.8741800e-02
  4.1698582e-02
 -5.7579417e-02
  2.1926452e-01
 -2.5278568e-01
  1.9144712e-01
 -1.4182761e-01
 -2.5381514e-01
 -3.1264919e-01
  1.6577449e-01
  3.3395886e-01
  1.6600944e-02
  3.9901730e-01
 -3.6014536e-01
  6.0569656e-01
 -4.5586683e-02
 -5.8722460e-01
  5.0414568e-01
  1.2931433e-01
  2.4150464e-01
  6.1347924e-02
  3.9854559e-01
 -8.1847914e-02
 -7.1845859e-02
  7.6260276e-02
 -3.7090499e-02
  3.2311559e-01
  2.0961739e-02
 -2.0242158e-01
 -2.1854582e-01
 -2.4278393e-01
 -1.1773229e-01
  2.4896085e-01
  3.2186899e-01
 -7.6497488e-02
 -9.4111025e-02
  1.2551615e-01
  2.1433152e-01
 -3.4081846e-01
  4.2257553e-01
 -2.3299303e+00
 -6.4325756e-01
  6.7817169e-01
  3.0365902e-01
  6.2922281e-01
 -7.6221496e-01
  3.5499725e-02
  1.6715369e-01
 -4.3586481e-01
 -1.2176939e-01
  1.1139159e-02
 -7.3882677e-02
 -4.9842473e-02
  1.6534980e-01
 -1.6442493e-02
 -4.0457431e-02
 -6.5943283e-01
 -1.0082324e-01
  1.1126983e+00
 -4.6188474e-02
 -4.3395284e-01
  1.0226998e-01
 -5.6716919e-01
  4.4802777e-02
  5.7433270e-02
  9.6416816e-02
  2.3150210e-01
  8.3500463e-01
 -2.2150996e-01
 -1.1090064e-01
  2.0164643e-01
 -3.2091624e-01
  7.9708919e-02
  9.3602248e-02
 -5.1184911e-01
 -1.6967811e-01
  2.9850286e-01
 -4.6590197e-01
  6.7022480e-02
 -2.4142160e-01
  3.4924370e-01
  4.3507308e-02
 -1.7849414e-01
  1.9330588e-01
  6.2294871e-01
 -1.1998256e+00
 -6.6368979e-01
 -4.4375557e-01
  2.0986392e+00
  2.6207382e-03
 -2.7918367e+00
 -3.8699226e+00
  1.6578594e-01
  7.6028891e-02
 -2.4885166e+00
 -7.2343343e-01
 -3.4029397e-01
  7.6648831e-01
  6.1248533e-02
 -9.3022659e-02
  5.8289778e-01
 -2.3239002e-01
 -1.3121262e-01
  6.8602942e-02
 -3.4725279e-01
  3.2360237e-02
 -5.2456635e-01
 -2.2865024e-01
 -1.7355675e-02
  2.8906345e-01
 -1.9147544e+00
 -2.3040417e-01
 -1.9281063e+00
  5.0404775e-01
 -7.6590024e-02
  1.0391260e-01
  1.1588196e-02
  8.8836521e-01
  4.0778495e-02
 -9.4692123e-01
 -1.2928989e+00
 -3.3464270e+00
 -4.0363569e-02
  8.9526284e-01
 -6.4252329e-01
 -1.9826575e-03
 -4.1935003e-01
 -6.6658568e-01
  1.4101492e+00
 -1.3621849e-01
 -1.3040224e+00
 -5.8800697e-01
 -2.8214055e-01
 -2.6623004e-03
  5.2591648e-02
  2.8304961e-01
 -2.9243979e-01
  2.4901109e+00
 -1.6500980e-01
 -1.1724937e+00
  3.2735392e-01
 -9.2711443e-01
  3.6481944e-01
 -1.7416880e-01
 -4.7148529e-01
 -2.6715323e-01
  6.7210042e-01
 -1.1415264e-01
 -3.8877306e+00
  3.2697938e-02
 -5.8031106e-01
  2.9579380e-01
  1.0553571e-01
  6.8160720e-02
 -3.3927792e-01
 -6.3598908e-02
  3.3531404e-01
 -5.2180362e-01
  1.5011350e-02
  4.9012065e-01
 -5.6312889e-01
 -2.7588516e-01
 -4.4850281e-01
  2.1145150e-01
  2.1992218e+00
 -1.8409853e-01
 -1.5284412e-01
 -4.8495114e-01
 -2.6967520e-01
  8.5806645e-02
  3.9899594e-01
 -1.8711621e-02
 -6.1858813e-03
  4.1455764e-01
 -1.3766575e+00
  2.9003276e-02
  2.2397878e+00
 -2.8227025e-01
  2.4798080e-01
  1.0680233e-01
 -4.1090599e-01
 -4.7306895e-01
  1.3860151e-01
  2.6290432e-01
 -5.1871240e-02
 -2.3206936e-02
  3.3442888e-01
  4.8619619e-01
  5.5337176e-02
 -5.4327551e-02
  1.9765212e-01
  6.4399046e-01
  3.0045134e-01
  1.0502704e-01
  4.9405462e-01
 -1.4349906e-01
 -8.0372143e-01
 -4.7720674e-01
 -8.3938068e-01
  7.1224791e-01
  1.2588987e-01
  1.7038220e+00
 -8.4422296e-01
 -1.3545245e+00
  1.2280306e+00
  9.3186462e-01
 -1.7241268e-01
 -1.8653899e+00
 -2.1459123e-01
  1.4736930e-01
 -3.7344053e-01
  2.3605320e+00
  1.4902663e-01
 -1.1967146e+00
  7.2546351e-01
  2.3219307e-01
 -9.9183261e-01
 -3.5744646e+00
  2.0068944e-01
 -4.0253347e-01
 -8.7797475e-01
 -1.5067577e+00
  3.3675010e+00
 -6.7318279e-01
  6.2954211e-01
 -2.8818934e+00
 -3.4637529e-01
  3.9638655e+00
 -1.7576172e+00
 -3.1538334e-02
 -4.1890070e-02
  1.6346885e+00
 -1.2324194e-01
  1.5794891e+00
 -2.4169981e+00
  2.1059088e-01
  2.4899223e-01
  5.3398460e-02
  3.3135223e-01
  1.3901509e+00
 -1.4249177e+00
  5.0292265e-01
 -2.6437804e-01
  9.3380243e-01
 -6.4048633e-02
 -3.9557227e-01
 -4.6153119e-01
 -7.2709835e-01
  1.6480392e-01
 -4.6578193e-01
 -8.1987095e-01
 -3.4952071e-01
 -3.3102851e-02
 -1.6477679e-01
  1.8465605e-01
  3.5840869e-01
  1.9373947e+00
  1.4854777e-01
 -5.9251055e-02
  8.6464837e-02
 -1.3673471e-01
  1.2846906e-01
  1.6942574e-01
 -1.9993993e-02
 -2.5002170e-01
 -1.9861361e-02
  4.7050777e-01
 -3.9584138e-03
  3.6706790e-01
 -3.6174759e-01
 -6.8048841e-01
 -5.9270889e-02
  5.9680307e-01
 -8.6686157e-02
 -1.0498426e-01
 -3.4935083e-02
  2.5151369e-01
 -2.4025491e-01
 -3.7723336e-02
  1.1273944e-01
 -1.3981864e+00
 -1.7851433e+00
 -2.3171829e-01
 -9.2397824e-02
 -5.5129099e-01
 -2.9399151e-01
  1.3024887e+00
 -1.4126199e-01
 -3.7702229e-02
 -2.7785107e-01
 -5.6184489e-02
  1.2995213e-01
  1.8048041e-01
 -4.6815509e-01
  1.0975401e+00
  1.7284755e-01
 -3.5763234e-01
 -3.5592902e-02
  1.7818530e-01
  2.8974444e-01
  2.9708493e-01
  1.5022092e-01
  1.9097310e-02
  2.3880142e-01
  2.8348036e-02
  2.3715684e-01
  8.4879920e-02
  3.3517349e-01
  7.0633423e-01
 -4.3856382e-01
  5.9609568e-01
 -1.1163909e+00
  1.8240442e+00
 -8.5354549e-01
 -2.6588467e-01
 -4.6561936e-01
  1.8265973e-01
 -1.2349981e+00
  6.6068739e-01
 -8.9839333e-01
 -4.2035094e-01
  2.1275642e+00
  1.2708594e-01
  1.4297839e+00
  7.2363921e-02
 -1.1714204e-01
 -3.6915913e-01
 -9.3250930e-01
  4.2138717e-01
 -9.3186550e-02
  1.0462356e+00
 -5.4984057e-01
 -3.0048630e+00
 -1.0017345e-01
 -7.8872156e-01
 -7.4277438e-02
  1.0541426e-01
  8.4074342e-01
  3.9397631e-04
  1.6008164e-01
 -1.3171474e+00
 -1.5101863e+00
 -1.6669960e-01
  9.0607262e-01
 -6.2518835e-01
 -1.2661313e-01
 -4.2477152e-01
  3.6112833e-01
 -1.2037252e+00
  5.7222021e-01
  3.7501058e-01
  5.3883690e-01
  2.3127525e-01
  4.2054867e-03
 -2.6041508e+00
 -7.4994624e-02
  5.6636095e-01
  3.6614805e-02
  9.8983787e-02
  4.2087328e-01
 -6.6282868e-01
 -2.1427837e-01
  4.6888400e-02
 -5.6679785e-01
 -7.0168026e-02
  5.7765549e-01
 -1.9761097e-02
 -8.4696817e-01
 -1.0935680e-01
 -2.4072193e-01
 -3.1983638e-01
  1.8551703e-01
 -2.3513153e-02
  1.9466400e-01
 -2.0458598e-01
  3.0255079e-01
  5.8256350e-03
 -7.3474869e-02
 -1.7415863e-01
 -1.4221430e-01
  8.0640769e-01
 -2.5660172e-01
  5.9106517e-01
  1.0457879e+00
  7.1765399e-03
 -6.9287241e-01
  1.7054090e-02
  1.4884606e-01
  5.5966580e-01
  1.1667720e+00
  2.2372713e+00
 -2.4292374e-01
  1.6864607e-02
 -1.5080538e-01
  2.2859418e+00
  7.6451018e-02
  4.6767277e-01
 -5.4911952e-02
 -1.8664388e-01
 -1.6326647e-01
  5.0651705e-01
 -2.5778139e-01
 -5.9783079e-02
  8.2752757e-02
 -2.9024988e-01
 -1.6255701e-01
  2.1782619e-01
 -4.9035314e-01
  1.0264856e-01
  5.2507404e-02
  1.4883988e-01
  3.0534083e-01
 -2.0800386e-02
 -3.7680179e-01
  1.1859886e-01
 -3.2512191e-01
  9.9704450e-01
 -1.2055695e+00
  3.6798239e-01
  1.6630673e-01
  2.0147048e-01
  2.6630348e-01
 -4.1739312e-01
  2.3877567e-01
 -1.9697165e-02
 -2.4243388e-01
 -4.0436262e-01
  6.9647074e-01
  1.3441051e+00
 -1.0623422e-01
 -6.2322587e-01
  7.4006975e-02
  2.1871522e-02
 -2.2546333e-01
 -1.3744827e-02
 -1.4104007e-01
  2.5963983e-01
  1.1057942e-01
 -4.7627024e-02
 -1.4800693e-01
 -1.7232113e-02
 -4.4592863e-01
  3.1948168e-02
  4.7038856e-01
  2.2973263e+00
 -9.7120196e-02
 -8.8285434e-01
 -5.7906109e-01
  1.7291970e+00
  2.0803632e-01
 -1.3619885e-01
  2.5827846e-02
  7.5496547e-02
 -5.2123785e-01
  1.6785738e+00
  3.3243343e-03
 -1.3088283e-01
 -2.0706777e-01
  7.6066709e-01
 -1.6863880e-01
 -8.3205495e-03
  3.6787513e-01
  9.7969107e-02
  5.5060619e-01
  1.0917704e+00
 -2.4272718e-01
  2.2450443e-01
 -3.2269779e-01
 -3.9849546e-02
 -5.1652968e-02
 -1.8534492e-01
  1.4125095e-01
  1.8322264e-01
  9.7374558e-02
 -4.5111890e+00
  1.5732576e-01
 -4.9143678e-01
 -2.0606865e-01
  1.5470245e-01
  3.8353699e-01
  3.0525565e-01
  2.5218099e-01
 -1.3732299e-01
  1.0982407e+00
 -3.4953792e-02
 -2.2350537e-02
 -2.1397941e-01
  2.4904358e-01
  9.9900961e-02
  2.8770738e+00
 -3.8670469e-02
  1.2322119e+00
 -1.3607091e-01
  1.1220943e-01
  4.4765750e-01
 -9.3390293e-02
 -2.5835171e-01
 -3.8234788e-01
  7.9089779e-01
 -2.3435052e-01
  3.8259663e-02
  1.2768576e-01
 -2.6076126e-01
 -1.8651959e-01
  1.3317947e-01
  8.5299188e-01
  7.9406284e-02
  8.6040205e-01
 -7.9594719e-01
 -1.7426317e+00
  4.3906423e-01
 -5.4027426e-01
  2.1630748e-01
  4.5281917e-01
 -7.3052637e-02
 -1.5999213e-01
 -2.3401874e-01
  8.2827397e-02
  3.1548228e-02
 -1.7578034e-02
 -3.0432576e-03
  2.1011239e-01
  1.4185853e+00
 -1.6789101e-02
  3.0909702e-02
  4.1990954e-01
  2.2176370e-02
  1.9608343e-01
 -3.5167912e-01
  3.2778168e-01
 -1.8411379e-01
 -2.0813653e-01
 -4.6662036e-01
  9.1923624e-02
 -3.0867326e-01
 -3.4552866e-01
  1.7118336e-01
 -3.7412375e-01
  2.8441021e-01
  5.8035545e-02
  1.8643486e-01
  3.2814446e-01
 -3.8461870e-01
  2.2342642e-01
 -2.5787267e-01
  1.3933662e-01
 -5.3592277e-01
  1.2209570e-01
 -2.9210901e-01
  1.1394598e+00
 -2.3863557e-01
  2.7922657e-01
  3.7157303e-01
 -6.5180337e-01
  6.9936711e-01
 -8.7055182e-01
  2.8687099e-01
 -3.8503915e-01
 -1.7590679e+00
 -7.9796106e-01
  3.9451054e-01
  5.8169764e-01
  1.1204002e+00
  1.3569432e-01
 -9.0147927e-02
 -1.1051941e+00
 -8.8479948e-01
  1.8400775e+00
  1.2863414e+00
  1.1230196e+00
  1.4981963e-01
 -1.1192287e+00
  8.0771543e-02
  7.7933297e-02
 -3.4098521e-01
  3.7441123e-01
  3.4627411e-01
 -2.3360139e-02
 -6.9213140e-01
  7.8378409e-02
  5.7553247e-02
 -1.1944845e-01
 -1.8941481e+00
 -2.5281379e-01
  2.5138316e-01
  1.8186456e-01
  1.6777838e-02
  9.2870241e-01
  1.2642576e-01
  4.5847031e-01
 -2.3760189e-01
 -8.3232158e-01
 -6.6721642e-01
  4.5741928e-01
  1.7750643e+00
  9.8853779e-01
 -1.7067923e-01
  1.1918347e+00
 -9.6589053e-01
  6.4494753e-01
 -1.5581347e-01
  8.3206069e-01
  4.5474952e-01
 -2.7534466e+00
  2.7509713e-01
  5.7337053e-02
 -5.4023010e-01
 -1.5178351e+00
 -2.5800528e-02
 -1.5911070e-01
  5.2358764e-01
 -1.2474132e-01
 -8.7306030e-02
 -3.0762288e-01
  1.1807321e+00
  5.7698268e-01
 -6.1914802e-02
  4.0847760e-01
 -5.5655438e-01
 -3.8018698e-01
 -1.5472807e-02
 -1.4322025e+00
  3.3166608e-01
 -8.6140329e-01
 -3.0057317e-01
 -2.1616597e+00
 -8.0780667e-01
 -8.5782063e-01
 -4.3604826e-03
 -6.8234611e-01
 -2.2185503e-01
  9.4082421e-01
  6.8721779e-02
  6.9460198e-02
 -1.2277863e+00
  1.2914118e+00
 -7.4967407e-02
  1.5587616e-01
 -7.9687864e-02
  6.0235268e-01
 -2.7425545e-01
  2.0378356e-01
  4.9818543e-01
  1.8994053e-01
  1.5001455e-01
 -6.6995275e-01
  5.7086694e-01
 -2.2076626e+00
  5.2683610e-01
 -1.0922142e+00
  8.0182202e-02
  5.0069845e-01
  1.1304798e-01
 -1.1912011e+00
  7.3964760e-02
  1.0615058e+00
  2.1955852e-01
 -4.1346660e-01
 -3.1806943e-01
  2.5990286e-01
 -4.0878752e-01
 -4.3162271e-01
  3.0912903e-01
 -2.5300765e-01
  7.4281138e-01
 -1.7827250e+00
  2.7164194e-01
 -1.8549603e+00
 -8.0092713e-02
 -1.6630250e+00
  1.0068656e-01
 -1.4322584e+00
  1.6533533e+00
  1.8006003e+00
 -1.1071745e+00
 -1.0656049e+00
 -2.2231262e+00
 -6.0160291e-01
 -1.9967117e+00
 -1.5400109e-01
  1.8737587e-01
  2.0993080e+00
  5.8142447e-01
 -5.3794909e-01
 -1.5306240e+00
 -3.5289836e-01
  6.9337326e-01
  2.2114384e-01
 -1.0410569e+00
  1.4171164e+00
  3.4627688e-01
  2.7768595e+00
 -1.8154048e+00
 -8.6202301e-02
  1.6184536e-01
 -1.9011758e-02
 -5.3660649e-01
  8.1777260e-02
 -3.8934401e-01
 -4.7440079e-01
 -8.6925459e-01
  4.5128729e-02
  4.2398629e-01
 -2.6205531e-01
 -2.4477233e-01
  8.5856730e-01
 -4.3342474e-01
 -2.4324594e-02
  3.7856382e-01
  7.8182811e-01
  6.4135478e-03
 -1.5291637e-01
  7.7012099e-02
 -1.7740671e-01
  5.8499712e-01
 -2.1025389e-01
  3.9450064e-01
  5.8976937e-02
 -5.9269255e-01
  5.8844733e-01
  3.6684024e-01
  1.3803189e-02
  1.5340020e-01
  8.6101755e-02
 -2.1153251e-02
 -3.8590965e-01
  4.8451554e-02
  5.5215907e-01
 -5.2868161e-02
  1.0183171e-01
  4.2054832e-01
 -1.0425296e-01
  9.3662918e-02
 -5.8220185e-02
 -1.8949096e-01
 -7.9278481e-01
 -5.1346362e-01
  6.4744204e-01
  1.4429451e-03
 -6.9963956e-01
  1.0100409e-01
 -1.3868056e-01
  5.2484304e-01
 -5.6233089e-03
  1.3844011e+00
 -2.7092990e-01
 -7.9828665e-02
  2.8765833e-01
  2.4784841e-01
 -1.3966088e-01
  3.4111270e-01
 -1.5027063e-01
  3.2900384e-01
 -9.1344088e-02
 -1.8882427e-01
  3.0585825e-01
 -5.8416270e-02
  5.3399533e-01
 -2.9581335e-01
  2.8311208e-01
  3.9525259e-01
  5.4427452e-02
 -1.3846666e-01
  2.9195787e-02
  8.4637672e-02
  2.3274966e-02
 -1.6513164e+00
  1.0498497e-01
  6.0213585e-03
 -3.3857927e-01
 -4.6408415e-01
  6.0957044e-01
  1.8997882e-01
  7.1754344e-02
  1.2599798e-01
  3.9125316e-02
  3.0590174e-01
  2.2654811e-01
 -3.5808420e+00
 -4.4385079e-02
 -6.5812379e-02
  4.1506189e-01
  2.0700450e+00
 -1.4148391e+00
 -1.3568017e-01
 -2.1042636e-01
  4.2928952e-01
  3.3197425e-02
  4.7454786e-02
  3.3796214e-02
 -4.0527601e-02
  2.9524308e-01
 -3.8975602e-01
  3.5669985e-01
  1.1556207e-01
  6.5269852e-01
  1.5608236e-02
 -1.0216795e-01
  4.1979080e-01
  9.1305846e-01
  2.5504375e-01
  7.0114291e-01
  6.6745847e-02
  2.6842546e-01
  8.6950183e-02
 -2.3764734e-01
  1.9953394e+00
  9.0941660e-02
  4.7490679e-02
 -5.0915636e-02
  6.7115657e-02
  1.7154115e-01
  2.7290156e-01
 -2.0005485e-01
 -9.6608353e-01
 -1.2297738e-01
  4.2903635e-01
 -4.3327674e-01
  2.5866506e-01
 -6.0613826e-02
  2.1152010e-03
 -4.4804242e-01
  1.0230256e+00
  4.8883891e-01
  1.3824184e-01
 -9.5331109e-01
 -4.8072305e-02
 -4.9663633e-01
 -1.5763311e-01
  2.4600536e-01
 -9.5435299e-02
  8.5940582e-01
  5.0201774e-01
  5.2643880e-02
 -1.8279554e-01
 -4.6532951e-02
 -3.5834363e-01
  5.1525492e-02
 -1.0712829e-01
 -1.2445403e-01
  2.2996520e-01
 -3.4180123e-02
 -3.8053456e-01
  3.6770311e-01
 -8.1107616e-03
  4.7453236e-02
  4.2621392e-01
 -2.6961547e-01
 -4.5032412e-01
  3.1925436e-02
 -3.6682913e-01
 -4.4007920e-02
 -1.7465955e-02
  4.9658576e-01
 -3.5856739e-01
  5.1239592e-01
 -4.3911251e-01
 -9.7403955e-01
 -5.9103668e-01
 -6.9278739e-02
  9.4863921e-02
  2.1930695e-01
  1.7023822e-02
  7.0390677e-01
  8.2794636e-01
 -3.6814198e-01
  6.6917449e-02
  3.9489180e-02
 -1.7646131e-01
  5.5947938e+00
  4.9638659e-01
  8.2145758e-02
  2.6055562e+00
 -4.2449766e-01
  4.3038094e-01
 -6.5735027e-02
  8.6664003e-01
  3.5414341e-01
  4.0464783e-01
 -8.3028293e-01
  2.0010631e-01
 -9.6472824e-01
 -8.6913812e-01
 -2.8690323e-01
 -4.1973006e-02
  3.5704154e-01
  6.5186732e-02
  2.9170824e-02
 -1.6554691e-01
  3.2345462e+00
 -3.2945180e+00
  2.9077357e-01
 -2.9166573e-01
  3.3962551e-01
 -2.3922127e-02
  3.8925543e-02
  5.0361741e-01
  4.3936613e-01
 -3.3062497e-01
 -7.1476465e-01
  6.7397475e-01
 -7.7131540e-02
  4.7669041e-01
 -1.6797021e-01
 -1.9103075e+00
  8.4274419e-02
 -4.6831933e-01
  2.9409501e-01
  2.1222387e-02
  5.5129457e-01
 -1.9476088e+00
  1.2553188e-01
  5.0107211e-01
  5.1166959e-02
 -5.6382321e-02
  7.9541689e-01
  1.9523953e+00
 -1.0673375e-01
  2.0097278e-01
 -6.6577119e-01
 -1.0041829e-01
 -9.5336795e-02
  2.1210150e-01
 -1.4681447e-01
 -1.4213439e+00
  1.4794329e+00
 -7.3456997e-01
  9.1491133e-01
  1.0000929e-01
  6.0215846e-02
  3.9960784e-01
  6.9629163e-01
  4.9699387e-01
 -2.3394199e-02
 -5.4206693e-01
  2.5697118e-01
 -6.6401929e-01
 -2.7250661e-02
 -5.4111779e-01
 -9.9912453e-01
 -6.1964013e-02
  9.3071729e-02
  1.0494322e-01
 -1.3696023e+00
  3.2363963e-01
 -9.2759359e-01
  2.5814194e-02
  1.3463934e-01
 -4.2742327e-02
  6.8399221e-02
 -4.2308412e-02
 -2.4276417e-02
  1.9010468e-01
  3.6152276e-01
  1.3724095e-02
 -6.0825795e-02
 -5.0090544e-02
 -1.1064194e-01
 -1.5723282e-01
  8.4089361e-02
  2.0525124e+00
 -1.6491799e-01
  1.1972312e-01
  4.9262723e-01
  5.8131856e-01
 -2.5043210e-01
  3.1581581e-01
 -1.3270305e-01
  9.3393409e-01
 -2.3940417e-01
 -1.1252153e-01
  1.4409898e-01
 -1.5133676e-01
  1.1651077e-01
 -3.3398795e-01
 -4.1223969e-02
  1.0624939e-01
  1.1694793e-01
 -1.3658762e-01
 -5.8456630e-01
  6.5973556e-01
  9.7455777e-02
  6.3934201e-01
  1.8857511e+00
 -7.0993525e-01
 -6.3167614e-01
 -5.8446759e-01
  5.1342499e-01
  3.1141344e-01
  9.5905721e-01
  1.2741610e+00
 -1.9698144e-01
 -3.1526496e+00
 -4.0113306e-01
 -9.0712406e-02
  9.6623950e-02
 -1.9044491e+00
 -5.5904180e-01
  5.2553859e-02
  1.4526892e-01
 -2.3221975e-02
 -4.7874711e-03
  8.2585156e-01
 -8.4426290e-01
 -2.5325891e-01
 -2.3011786e-01
  1.0077127e+00
 -3.2427035e-02
  9.4453491e-02
  5.0531942e-01
  1.6485587e-02
 -1.3356742e-01
  3.5595176e-01
 -3.1651473e-01
  1.9161214e-01
 -5.2988160e-02
 -2.9276973e-01
 -2.5393388e-01
  6.0021017e-02
  1.9312081e-01
  1.7255194e-01
  1.5397999e-01
  3.3229322e+00
  5.0379175e-01
  3.6229935e-01
 -4.4897012e-02
 -1.2766747e-01
  4.8065412e-01
 -2.6815182e-01
 -1.7898570e-01
  3.1511895e-02
  2.3897551e-01
 -2.8279522e-01
  3.8998432e-02
  1.8737528e-02
  9.7891617e-01
 -2.7139332e+00
  2.0484945e-01
 -4.9324147e-02
  2.8707716e-01
  2.5535062e-01
  4.2574826e-01
  1.1678537e-01
  1.5619900e+00
 -1.9843388e+00
 -1.3677698e-01
 -4.7852799e-02
 -8.0856569e-02
  2.4772628e-01
 -4.5932490e-01
  4.8465446e-02
  1.5541817e-01
 -2.5926115e-02
 -7.2011572e-01
 -1.9166203e-01
  1.3192943e+00
 -8.6727008e-02
 -2.1181096e-01
 -1.6093372e-01
 -4.4309986e-01
 -1.4378102e-01
  6.3377827e-02
  2.5946486e-01
  3.4424692e-01
  4.3128181e-01
 -1.2551051e-01
 -2.6979169e-01
  7.5519401e-01
 -2.3899153e-02
 -1.2555873e-01
 -1.7106671e-02
  1.8937206e-01
 -1.7772965e-01
 -1.2902841e-01
  3.7101486e-01
  1.4373702e-01
 -2.3099372e-01
  5.1667881e-01
  2.5529088e-02
  3.5868257e-01
 -4.4327307e-02
  1.3407022e-01
 -6.0279757e-01
 -1.7971601e-01
  1.7301185e-01
  2.2201009e-01
 -9.5997363e-02
 -1.6641247e-01
  2.8802907e-01
  6.8752891e-01
  9.8826462e-01
  3.0893490e-02
 -3.1167918e-01
  2.2980048e-01
 -1.3133551e-01
  2.0481212e-02
  1.2750387e+00
 -4.7433171e-02
  2.8600028e-01
 -2.3598717e-01
  6.9663072e-01
 -3.6191961e-01
 -2.9362446e-01
 -1.2645222e-01
  8.5969754e-02
 -1.6633698e-01
 -3.3644044e-01
 -4.0482175e-02
 -4.4662353e-01
  6.7923224e-01
 -8.1465162e-02
  6.9138080e-01
  7.4814789e-02
  3.2022884e-01
  9.5743865e-01
  3.0393714e-01
 -2.0674948e-02
  6.8135345e-01
 -2.7747297e-01
  6.1230041e-02
 -1.7320903e-02
 -2.1835221e-01
 -4.1864809e-01
  7.3520914e-02
 -5.8898228e-01
 -2.1509968e-02
  1.7961787e-01
  1.5800041e-01
  8.7722950e-03
 -1.8912181e-02
 -4.0157107e-01
 -7.8623182e-01
 -8.5584116e-01
 -8.9574075e-01
 -2.2978525e-01
  4.5571565e-03
 -1.1315697e-02
 -9.6105129e-02
 -5.1107489e-02
 -1.0953600e-01
 -1.2830624e-01
 -2.1613342e-01
 -3.1056741e-01
  2.1058016e-01
  1.1257287e-01
  1.6754182e-01
 -1.1202608e+00
  3.2200450e-01
 -3.2469213e-01
 -9.5868075e-01
 -3.4626433e-01
 -1.3001558e+00
  1.3698598e+00
  3.6076891e-01
 -1.5084249e+00
 -2.6683204e+00
  8.9599866e-01
 -3.5386795e-01
 -1.5936266e+00
 -8.4228821e-02
  7.4566650e-01
 -1.7731592e-01
 -1.8463111e+00
 -1.0181382e+00
 -1.0121813e+00
  1.6825612e+00
  5.9738588e-01
  1.3490200e+00
  4.6959152e-03
  2.2882749e-01
 -6.2167060e-01
 -7.6374567e-01
  2.2321272e+00
 -2.6707822e-01
 -3.2261434e+00
 -2.0556109e+00
  1.0483277e+00
 -1.9259438e-01
 -1.5647213e+00
  1.9075564e+00
  1.2431147e+00
  1.1800207e+00
 -2.5650922e-02
 -2.1028721e+00
 -2.6447576e-01
  2.3844180e+00
  1.8815553e-01
  3.2962057e-01
  1.8341126e+00
 -5.6491679e-01
  2.5376430e-01
  2.8334132e-03
  6.8318605e-01
  3.3533826e-01
  2.3155272e+00
 -1.2067840e+00
  3.6942616e-01
 -6.0600722e-01
 -3.5322303e-01
 -4.1519630e-01
 -4.3878508e-01
  1.0054426e+00
 -6.6074449e-01
 -8.7244436e-02
 -2.8255025e-01
  1.2101793e-03
 -5.7996446e-01
  1.2621778e-01
  5.5868037e-02
 -1.9966432e+00
  1.1573483e-01
  1.8101235e-01
  1.2642273e-01
 -1.1673599e+00
 -4.9340647e-01
  3.9049101e-01
 -1.5973584e-01
  6.1231291e-01
 -6.2711769e-01
  5.3776449e-01
  3.6493552e-01
  7.6307404e-01
 -1.0164361e+00
  1.7899267e-01
  2.9573032e-01
  6.3139594e-01
 -9.5386803e-02
 -2.4086933e-01
 -1.1359546e-01
  2.5942389e-02
 -2.1092489e-01
  1.5375839e-01
  3.8207215e-01
 -2.8023002e-01
 -2.9787141e-01
  1.2377892e+00
  3.7200707e-01
 -3.1039709e-01
  9.5508240e-02
 -2.1173324e-02
 -2.4499375e-01
 -1.9771256e-01
  4.8872051e-01
  2.8576238e+00
  5.5975670e-01
  3.7102875e-01
  1.3477014e+00
 -5.7960421e-01
  3.6763132e-02
  2.7511844e-01
 -2.3874332e-01
 -1.5295658e-01
  1.3393794e-01
 -3.2349658e-01
 -5.7169557e-01
  3.1786704e-01
 -2.0647356e-02
  9.8849265e-03
  6.7302205e-02
  9.1657107e-04
 -3.7409477e-02
 -3.5734817e-01
 -1.1061280e-01
 -1.7871349e-01
  2.6292078e+00
  2.0356810e-01
  1.6945958e-01
 -2.4505566e-01
  2.7713125e+00
 -1.0364625e+00
  6.5592855e-02
  6.1076678e-02
 -3.3086538e+00
  7.3214024e-02
 -8.9565270e-02
 -6.9463842e-02
 -9.9710815e-02
 -3.4231567e-01
 -4.3689501e-01
 -3.2043821e-01
  1.4863513e-01
  6.2579550e-02
 -3.6089021e-01
 -1.9722795e-01
 -1.0359454e+00
  2.4156918e-01
  4.3273950e-01
  1.2092368e-01
 -8.2741266e-01
 -1.4479299e-02
  1.0995657e-01
  6.8296534e-01
  2.8820693e-01
  2.6375178e-01
 -2.0103016e-01
  5.3892106e-01
 -6.1445236e-02
 -8.6240435e-01
  2.4159524e-01
  1.7405392e-01
 -5.4648840e-01
 -9.4706726e-01
  5.3289783e-01
 -1.1458042e-01
 -3.2638153e-01
 -4.0987051e-01
 -2.1820882e-01
 -1.7464741e-01
  7.6801509e-02
 -5.5767560e-01
 -1.3890113e-01
 -5.3861779e-01
 -1.4617802e-02
  1.6908555e-01
 -7.8460282e-01
 -4.8144400e-02
  5.7305142e-02
 -8.8218831e-02
  1.7224534e-01
 -1.5922503e+00
  5.0089908e-01
  2.0464568e+00
  2.2501122e-02
 -1.9326290e-01
  4.7466077e-02
  3.0826634e-01
  4.8405480e-01
 -3.8876095e-01
 -1.0124848e-01
  2.4913284e-01
  1.2473714e-01
  8.4540886e-01
 -9.2615688e-01
 -1.1160301e-02
 -4.1079137e-01
 -3.0426249e-01
  1.5468243e-02
  1.0580325e-01
 -1.3057072e-01
 -3.8809708e-01
  8.3709663e-01
  1.9798410e-01
  5.6869936e-01
 -1.4972994e-01
  4.7940591e-01
 -8.0210954e-01
 -2.2404949e-01
  4.6994865e-01
 -6.0009623e-01
  7.6623268e-02
 -7.5438529e-01
 -7.5606912e-01
  3.9792043e-01
  1.3995896e-01
  1.7688996e+00
 -1.1889917e-01
  1.1176356e-02
  1.4384349e-01
 -5.0870651e-01
 -1.7913465e-01
 -6.6923505e-01
 -1.0282126e-01
  1.1363524e-02
 -8.0888283e-01
  3.5044201e-02
 -4.2105457e-01
 -6.6349667e-01
 -2.2451689e-02
  1.2293710e+00
 -6.1561704e-02
  1.2929389e-02
 -6.4458653e-02
  4.8461094e-01
  3.5667464e-01
  5.3285879e-01
 -2.2848609e-01
 -2.4901965e-01
  2.1825092e-02
 -4.8416551e-02
 -2.3359117e-01
  4.4616598e-01
 -4.0272266e-01
  4.2434245e-01
  9.2301562e-02
 -3.6671679e-02
  1.7653491e-01
  2.5479075e-02
  1.3468799e-01
 -9.3144380e-02
 -1.2427904e-01
 -2.9834685e-01
  5.9838283e-01
  5.0428355e-01
  1.6379268e-01
  1.1520015e-01
 -8.3191943e-01
  2.9841980e-01
  6.1665215e-03
 -3.0031449e-01
  1.6012955e-01
  3.1937575e-01
 -2.0795682e-01
  2.7376643e-01
 -5.2354977e-02
 -5.6714476e-03
 -4.1355845e-01
 -3.3608356e-01
 -4.8121762e-01
 -6.8702651e-03
 -2.6553890e-01
 -7.8441896e-02
  1.5697308e-01
 -1.9434549e-01
 -1.5537290e-01
 -9.1013575e-01
  2.2337033e-01
 -5.6875241e-01
 -1.8569380e-01
  2.2858720e-01
 -1.1084449e-01
  2.1822479e-01
 -7.8885019e-01
 -9.8447464e-02
  2.4084752e-02
  6.1214614e-01
  2.6805893e-01
  2.6631626e-01
 -1.0748467e+00
  3.8914233e-01
 -1.6363168e-01
  7.6279588e-02
  4.8610979e-01
  1.2825409e-01
 -8.9793819e-01
 -1.5453768e-01
  2.1232294e-02
  5.8137727e-01
 -2.4162897e-01
 -4.2762473e-01
 -4.1271154e-02
  9.5638788e-01
  1.5054871e-01
  3.9703414e-01
 -1.4479603e-01
 -8.5431136e-02
  6.7130202e-01
 -6.0287613e-01
 -1.3462702e+00
  2.8412188e-03
  1.9816077e-01
 -1.5825783e-01
 -9.8903084e-01
  2.9093915e-01
  1.2665813e+00
 -2.7969044e-01
 -9.6081632e-01
  1.1863030e-01
 -1.6403106e+00
 -9.9267863e-02
 -3.7531456e-01
 -2.9863298e-01
 -5.6136942e-01
 -2.9680848e-01
 -9.8411369e-01
  3.7871966e-01
 -5.2538216e-01
 -2.1255331e-03
 -9.1432473e-03
 -1.6742101e-01
 -5.2817464e-01
 -2.6472476e-01
  4.0420908e-01
  3.0116925e-02
  5.1280137e-02
  1.7806754e-02
  3.4869596e-01
 -2.7902918e+00
  1.2815988e-01
  1.5829875e-01
 -6.5752745e-02
  1.0089815e+00
  5.3812313e-01
 -2.8462213e-01
 -3.5061438e-02
  1.6059311e-01
  1.4476143e+00
 -1.8438572e-01
  4.6904129e-01
  2.8213388e-01
 -5.6067415e-02
  6.2596518e-01
 -1.8084712e-01
 -9.6190941e-01
 -6.8179041e-01
  2.4140297e-02
 -9.0091473e-01
  1.5260868e+00
  7.9165494e-01
  1.7702057e+00
  2.8372949e-02
  4.4369221e-02
 -2.7721491e-01
  7.7791983e-01
 -2.3968926e-01
 -1.6753392e-01
  6.1590511e-01
  3.1877074e-01
  1.2573583e-01
 -5.3621262e-01
 -2.9872810e-02
 -9.9786296e-03
  1.5402660e-01
 -3.7601078e-01
 -1.1732423e+00
  8.0560885e-02
 -1.4580852e-01
 -8.0123022e-02
  1.9291102e+00
  1.1945440e-01
 -1.7244494e-02
  3.7146819e-01
  3.9902723e+00
  2.2377887e-01
 -2.5872812e-01
  2.2419186e-01
 -4.1771051e-01
  1.6005028e+00
  8.2517043e-03
 -6.4950638e-02
 -5.2300370e-01
 -2.1789390e-01
  2.9008526e-01
  2.2810912e-01
  1.2811436e-01
  1.3544124e-01
  8.4611066e-02
 -1.1368450e-01
  1.6050424e-01
 -3.6157295e-01
 -1.5209835e+00
 -4.6331933e-01
 -4.1491202e-01
 -2.0618534e-02
  1.6299672e-01
  7.3040113e-02
  3.7014040e-01
  1.8618850e-01
 -1.5000442e-02
  1.2856864e+00
  2.4544322e-01
 -5.1257268e-02
  3.7921637e-01
  9.4109261e-03
 -3.3835509e-01
 -1.9695758e+00
 -3.8689443e-01
  1.2359688e-01
 -1.4818662e-01
  5.7451075e-01
 -1.1264803e+00
  1.9256157e-01
  1.7706999e-01
  2.0624799e-01
  1.0183927e+00
 -4.7546816e-01
 -4.5483425e-01
  7.2819477e-01
 -1.0151166e-01
  1.6824231e-01
  3.6120109e-02
  1.5887165e-01
  9.9024959e-02
 -1.2128774e-01
  8.1541181e-02
 -1.4260150e-01
  3.3417395e-01
  5.3376466e-02
  5.7890213e-01
 -5.9870683e-02
  2.1474543e-01
 -1.4866341e-02
  5.5465396e-02
 -1.8167320e-01
  2.1886580e+00
 -1.9774047e-01
  2.1376272e-01
 -2.0033726e-02
  4.4655461e-02
  3.1823520e-02
  1.3223138e-01
 -1.1184261e-01
  2.8252152e-01
 -3.7150510e-02
  5.2743673e-01
 -9.1988333e-02
  5.6101215e-01
 -8.3724207e-01
  8.0369949e-02
 -4.1740385e-01
 -1.9780833e-01
  2.4327150e-01
  2.9518369e-01
 -1.0611993e+00
 -1.0893534e+00
  2.4176560e-01
  2.8725064e+00
 -3.2470163e-02
  5.5702353e-01
  7.2944947e-02
 -1.6502837e-02
  1.8040532e-02
  3.9420915e-01
  6.4772189e-01
 -1.9445415e-01
 -1.5755226e-01
 -7.4604496e-02
  2.3256067e-02
 -1.1818346e-01
 -1.5797688e-01
  1.6382554e-01
  4.5687526e-01
  1.4068168e-01
 -2.9362661e-01
 -2.6413134e-01
  4.5086569e-01
  2.1686292e+00
  9.4873652e-02
 -3.0752972e-01
 -5.9864050e-01
  1.4710276e-02
 -3.4482193e-01
 -7.6553978e-02
  1.9325817e-01
  1.3009639e-01
 -4.5992136e-02
 -4.1129190e-01
  1.0274069e+00
 -6.8982460e-02
 -2.9922587e-01
 -2.3685080e-01
  5.5786562e-01
  1.7417442e-02
  9.4488552e-03
 -1.1288091e-01
  2.8139707e-01
  4.1612488e-01
 -6.5501191e-02
  2.9830527e-01
  1.6084011e-01
  4.1608714e-02
 -5.2974933e-01
 -1.7854522e-01
  5.1899451e-01
 -9.8640457e-02
  3.1364369e-01
  2.5576070e-01
 -5.5957544e-01
 -5.6172216e-01
 -3.1454420e-01
 -1.1499993e+00
 -1.9262794e+00
 -1.9387590e+00
 -6.5522499e-02
 -1.1395249e-01
 -1.5298438e-01
 -5.4419968e-02
 -3.9716922e-02
 -1.6355466e+00
  4.9206081e-01
  1.4660840e+00
  1.6062554e+00
  5.2265823e-01
  1.0718364e-02
  8.4667510e-01
  5.9111837e-02
 -2.8383672e-01
  6.8025434e-01
  1.8201135e+00
  1.1964734e+00
  4.1136439e-03
 -1.7623831e-01
  1.1922443e-01
  1.0589039e+00
  1.2909573e-01
 -1.6692460e+00
  4.0852468e-02
 -1.1978674e-01
  1.6716812e+00
  1.6858579e-01
  8.5879904e-01
 -5.6854469e-01
 -8.0558702e-02
  3.6265898e-02
  4.9015766e-01
 -8.5392785e-01
 -6.1117053e-02
  3.3988836e-01
  6.4870501e-01
  1.5652465e+00
 -9.9791780e-02
 -9.4657578e-03
  1.6820851e-01
  4.4070089e-01
  2.0398997e-01
  4.5326564e-02
  1.1839464e+00
 -2.0616151e-01
 -8.6299971e-02
 -1.6163045e-01
  5.1936251e-01
  1.1023980e-01
 -3.7088640e-02
 -1.0450152e-01
 -6.2689108e-01
  7.9854928e-02
  1.1045270e-01
  3.8864177e-01
 -1.6473607e+00
 -7.4477367e-02
 -1.9035481e-01
  1.8000476e-02
 -1.7611052e-01
 -2.6467636e-01
 -3.0801061e-01
 -4.3228045e-03
  1.7738990e-01
 -2.1200061e-01
 -2.8736420e+00
 -2.6272759e+00
  1.4855604e-01
 -1.0911497e-01
 -1.5139924e-01
  2.3532607e-01
 -9.0305559e-02
  1.3080353e-01
  2.9358494e-01
 -6.1854714e-01
 -9.5558804e-01
 -1.8567713e-01
  1.6958824e-01
 -4.1728067e-01
  3.7856492e-01
 -1.4876595e-01
  1.6881406e-02
  1.9001785e-01
 -3.1378701e-01
  3.4072634e-02
 -2.7912633e-02
  1.8414645e-01
  1.7880085e+00
 -3.1861849e+00
  1.2764664e-01
 -1.0904551e-01
 -2.4022417e+00
 -4.0313438e-01
 -1.0718892e-01
  2.9422812e-02
 -1.9012366e-03
  9.9131581e-04
 -1.2263827e-01
 -1.8355572e-01
  7.0881985e-02
 -1.9453037e-01
  1.2111360e-01
  3.2199252e-01
  3.3598650e-01
  8.7472755e-01
 -1.8104474e-01
 -6.6501938e-02
  1.0712320e-01
  1.3300511e-01
 -1.3363688e-01
 -1.7626123e-01
  2.8491202e-01
  4.2643523e-01
  6.5724249e-03
 -7.5698835e-01
 -3.2795483e-01
 -1.9490715e-02
 -1.6395351e-01
 -7.9125553e-02
 -6.1874086e-01
  2.6658168e-01
 -4.3063882e-01
  4.6305202e-02
 -1.1715470e-01
  1.7723328e-01
  8.6546147e-01
  3.7296462e+00
  3.8728201e-01
  3.7516078e-01
 -1.8927515e+00
 -4.3926716e-01
  5.8843428e-01
  3.5725064e+00
  1.3751341e-01
 -1.6348299e+00
 -3.8119861e-01
  8.7196696e-01
  4.6354848e-01
  4.2314091e-01
 -5.1127754e-02
 -3.0518767e-01
 -8.0346331e-02
 -6.7962006e-02
  2.8644547e-02
  1.3984939e-01
  3.6066529e-01
  6.8162209e-01
 -2.6122990e-01
  9.6289657e-02
 -2.6889217e-01
 -1.2680249e-01
 -2.7580309e-01
 -3.7597302e-01
 -1.5767056e+00
 -1.8479642e-01
 -2.2606522e-01
  1.8358411e+00
 -1.7225306e-02
  9.5198172e-01
  6.3580585e-01
 -1.2727304e-01
 -2.3204598e+00
 -5.1833785e-01
 -2.7159557e-01
  6.5658146e-01
  2.6883432e-01
  1.0574215e-01
 -5.2813888e-01
  1.1367333e+00
  7.0269346e-01
  2.1971673e-01
 -1.0321359e-02
  6.4280719e-02
 -2.6768482e-01
  1.9723703e-01
  3.9892280e-03
  9.5634677e-02
  6.2734950e-01
  1.2192979e+00
 -8.0209866e-02
  3.2423991e-01
  8.4121600e-02
 -2.2682790e-01
  7.4107960e-02
  9.2210180e-01
  4.2515585e-01
 -1.8138114e-02
  1.5138738e-01
 -1.8128064e-01
  1.8285586e-01
 -8.9484197e-01
  3.0300042e-01
 -4.2023439e-02
 -2.2177874e-01
  1.7311372e-02
  6.3496101e-01
  5.9993923e-01
 -1.4349915e-01
  4.1409768e-02
  8.7929320e-01
 -2.1074058e-01
  6.9415122e-01
  2.2192076e-01
 -4.1029325e-01
  2.6104417e-01
 -5.2908521e-02
  2.8800568e-01
  3.0710956e-01
 -8.4805101e-01
 -1.0959923e-02
  2.2556630e-01
 -9.9663436e-01
 -1.3954577e-01
  3.5023111e-01
 -4.3440202e-01
  2.0475198e-01
 -1.1236212e-01
  1.7324303e-01
  5.5152899e-01
  2.0823590e-01
 -1.8460119e-01
  8.7839782e-02
  3.8656551e-01
 -2.2868467e-02
 -1.2256905e-02
  2.9978322e-02
 -2.9186955e-01
 -6.6180724e-01
  3.6545619e-02
 -1.9810487e-01
  2.2321172e-02
 -9.3037210e-02
 -3.3150443e-01
 -2.9778865e-01
 -4.2894682e-01
  1.7368015e-04
 -1.6338924e-01
 -2.9408893e-01
  3.5159770e-01
 -4.9104097e-01
  1.5918301e-01
  6.6205323e-02
  5.4072529e-01
 -6.4642943e-02
  6.5851234e-02
  1.1225185e-01
 -2.2119254e-01
  3.1866334e-02
 -1.2326506e-01
  3.8383957e-02
  1.9399512e+00
  1.2914827e-01
 -9.2800669e-02
  2.3292449e-01
  2.3585123e-01
  1.9000584e+00
  2.5729737e-01
 -4.6871349e-02
 -4.6640765e-02
 -8.4898788e-03
  9.3877226e-02
 -2.1293858e-02
 -2.5177443e-01
  7.1211532e-02
  8.4517010e-02
 -1.7383100e-01
 -6.9069974e-02
 -3.0768827e-02
  1.4761965e+00
  7.8503385e-02
  8.0171043e-01
  4.8316613e-01
 -2.1322779e-02
  1.4740182e+00
 -5.7954699e-01
 -6.6473559e-02
  5.7907921e-01
 -2.6002846e+00
  5.9587419e-01
  6.1833818e-02
 -5.6178886e-02
 -7.9683959e-02
  1.2217934e-01
  6.8546641e-01
  1.1149148e-02
  1.4081267e-03
 -6.3393623e-02
  2.4952753e-01
  5.4201400e-01
 -5.9469309e-02
  2.5495753e-01
 -2.3332588e-01
  2.8875992e-01
 -2.7850151e-01
 -3.5323250e-01
 -4.7902209e-01
  5.6631386e-01
  1.4532499e-02
  3.2672060e-01
 -1.9081874e-01
  2.6509091e-02
  1.5627968e-01
  5.4527152e-01
  3.0813861e-01
  6.0265388e-02
 -3.7596360e-01
 -4.6176195e+00
  6.7917758e-01
 -5.2193776e-02
  1.1460984e-01
 -3.7477754e-02
  4.6099061e-01
 -8.7387070e-02
 -2.3044139e-01
  1.7226875e+00
  5.1560140e-01
  1.2172461e-02
 -7.1034193e-01
  4.8437947e-01
  4.8587069e-02
 -2.4497227e-01
 -7.6299548e-01
 -1.4141628e-01
  6.2356281e-01
  9.3992823e-01
  2.1463062e-01
  9.6035367e-01
 -3.5427240e-01
 -1.3769414e+00
 -3.8700873e-01
 -5.8170396e-01
 -1.1192087e+00
  1.2932079e+00
 -1.0553388e-01
 -1.1225811e+00
  4.5842600e-01
 -1.3115003e+00
 -1.7399587e-02
  2.3487026e-02
 -1.4868473e-01
  5.0049388e-01
  2.2996616e-01
 -2.6285881e-01
 -8.0672607e-02
 -2.3684492e-02
  1.0901204e-02
 -1.9556062e-01
 -1.5626755e-01
  1.4262281e-01
  5.6699187e-01
 -4.2153305e-01
 -2.8479806e-01
 -2.2110976e-03
 -4.1281658e-01
  2.2835279e-01
 -2.2059472e-01
 -1.8196231e-01
  9.5089436e-02
 -6.8282276e-02
 -9.8400787e-02
  2.6843035e-01
  5.8909547e-01
  5.4386850e-03
  9.0520966e-01
 -2.8785273e-01
 -5.1544666e-01
 -2.9052275e-01
 -4.4063461e-01
 -5.3963766e-02
 -3.8962162e-01
  1.5684679e-01
 -2.3282713e-01
 -2.9659134e-01
  1.4983951e-01
  1.9710836e+00
 -9.8737992e-02
  7.2787857e-01
 -1.6765216e-01
  9.0490751e-02
 -2.3383503e-01
  6.6476718e-02
 -1.0546853e-01
  1.2799977e-01
  4.7177845e-01
  1.5366496e-02
 -2.2799557e-01
 -1.3830761e+00
  3.6150116e-01
  2.7691141e-01
 -2.2506446e-01
 -2.3841731e-01
  3.7537917e-01
 -3.0790108e-01
  4.0718820e-02
  1.7336586e-01
 -2.9203472e-01
  3.4935039e-01
 -2.8857633e-02
  1.5702834e+00
  1.5716328e-01
  2.0081897e-01
 -4.0710740e-02
  2.3219565e-02
  3.1983587e-01
 -3.4323197e-02
 -5.3867031e-02
 -2.0146999e-01
 -2.5890553e-01
 -4.0494483e-02
 -3.8042322e-01
  8.2616168e-01
  1.1527364e-01
 -3.1661695e-01
  9.7684555e-02
  5.5988133e-01
  3.2842841e+00
  2.0679621e-01
 -4.5822614e-01
  4.1735598e-01
 -2.6383936e-01
  2.7083537e-01
 -4.4306830e-01
 -1.7453538e-01
  6.9556929e-02
  7.1934070e-03
  2.4753399e-01
 -3.7589449e-01
 -3.0319118e-01
 -2.5755686e-01
 -1.0304894e+00
  9.5619708e-02
 -4.2164785e-01
 -5.5345154e-01
 -2.8154343e-01
 -3.2031760e-01
  4.8556337e-01
 -5.0272703e-01
 -2.0531681e-01
  8.1667513e-01
 -2.4381168e-01
 -8.3585244e-01
  1.5165918e-01
  3.2319015e-01
  3.0043345e-02
  1.2217037e-01
 -4.0324473e-01
 -9.9085402e-01
  1.0954267e-01
  8.3294354e-02
 -7.1910664e-02
 -1.8487126e-01
 -5.2467602e-01
  4.7775286e-01
 -2.5425705e-01
 -7.3510101e-03
 -7.7964249e-03
 -9.0081707e-02
  2.4068922e-01
  6.1744505e-01
 -4.2560378e-01
  6.1529839e-01
 -9.0141661e-02
 -6.8360960e-01
 -3.0185071e-01
  7.6138753e-01
 -1.8482012e+00
 -4.2559841e-01
  1.4871241e-01
 -1.4519615e-01
  4.2353985e-01
  5.1072091e-01
  4.6427530e-01
  1.8820199e-01
  2.6643357e-01
  4.4326887e-02
 -1.3875890e-01
  5.0451380e-01
 -4.7404803e-02
  1.9955535e-01
 -3.1337935e-01
  6.1200134e-02
  6.7228071e-02
  1.1959368e-01
 -5.7213746e-02
 -3.1211418e-01
  9.4045177e-02
  1.3514687e-01
 -5.4390740e-01
  2.0258082e-01
 -4.0377319e-01
  1.5635023e-02
  1.1385515e-01
  8.4230833e-02
 -4.5833532e-02
  1.9734581e+00
 -1.6846941e-01
  3.1040350e-01
 -3.4196239e-02
 -8.0772132e-02
 -1.5670516e-02
 -2.7275968e-01
 -7.0718080e-01
 -2.5960001e-01
  1.9938779e+00
 -4.0771931e-02
 -9.6161351e-02
 -2.9922393e-01
 -1.1061214e-01
  6.7654334e-02
  1.8460184e-01
  3.1042168e-01
 -3.9403012e-01
  1.7200407e-01
  1.1888813e+00
  1.5742636e-01
 -4.3538439e-01
  1.2598693e+00
  1.4990221e-01
  1.0853802e-01
  1.5580629e-01
 -2.4399988e-01
 -4.2342594e-01
  2.4050107e-02
  2.9820660e-01
  7.7077901e-01
 -3.5825691e-01
  5.9316677e-01
  2.1413884e-01
 -1.1631209e-01
  1.2834443e-01
 -8.2604447e-03
  3.5205722e-01
 -1.7135908e-01
 -6.6470578e-02
  8.2858138e-02
  2.3939550e-01
 -1.7064989e-01
 -5.1809824e-01
  7.4651532e-02
  8.3627857e-02
  8.9834148e-01
  1.3220509e+00
 -5.8793426e-01
 -2.9063305e-01
  7.4622504e-02
  3.4001839e-01
 -1.6812059e-01
 -1.6007423e-01
  5.4293375e-02
 -2.1727651e-01
 -4.4314265e-01
  3.8395740e-02
 -4.7326070e-01
 -8.1638228e-03
  6.6155630e-01
 -4.4095230e-01
 -1.0851293e-01
 -2.7630013e-01
  6.6653836e-01
  1.4133227e+00
 -1.1242427e+00
  1.6103217e-01
  3.3120701e+00
  2.6315495e-01
 -5.8816987e-01
 -2.0391627e-01
 -9.4823611e-01
  1.3926581e+00
  5.8329618e-01
 -1.1756968e-01
  2.0675515e-01
  2.8428847e-01
 -2.5353247e-01
  1.7611043e-01
 -2.8153759e-01
  3.2972118e-01
 -3.2599133e-01
 -5.5418745e-02
  1.0370497e-01
 -1.8952315e-01
  6.9278049e-01
 -3.1125870e-01
 -4.0186131e-01
 -4.2188951e-01
  1.8056630e-01
  1.5251483e-01
  1.4288482e-01
  2.0990415e-01
  2.2502308e-01
 -5.6675199e-02
 -1.9126487e-01
 -3.5979733e-01
  2.3876679e-01
  1.3250414e-01
  4.5696491e-01
  3.1257761e-01
  3.1382105e-01
 -5.1021982e-02
  3.0858779e-01
  7.9863761e-03
  2.3803232e-02
 -8.6150602e-02
 -1.5955696e-01
 -6.8111941e-02
  4.0133946e-02
 -1.1934756e-01
 -1.6735368e+00
  2.1215950e-01
 -5.1619250e-01
  2.1949017e+00
 -2.0544644e-01
  6.6872329e-01
 -3.3169729e-01
 -6.9880486e-01
  1.2631040e+00
  5.4065522e-02
  7.3814869e-01
 -1.1612283e-01
 -1.5855536e-02
  1.2996464e+00
 -6.2306635e-02
 -2.6551511e+00
  3.5065576e-01
 -2.0324793e+00
 -8.4177196e-02
 -5.2875268e-01
 -1.6122340e-01
 -5.4482168e-01
  4.1361105e-02
 -5.2044475e-01
  4.0337643e-01
 -1.4283551e+00
  2.9240191e-02
 -4.2027738e-02
  7.4238276e-01
 -3.8300496e-02
 -2.3063900e+00
 -2.6088694e-01
  1.3256562e+00
 -4.7286874e-01
 -9.1244653e-02
  6.7581737e-01
  5.9104037e-02
 -9.2923260e-01
  1.3237424e-02
  4.4948509e-01
  5.6158543e-02
  5.4016806e-02
  4.2528283e-02
  2.2570901e-01
  2.1713912e+00
 -2.8542426e-01
  3.9596271e-02
  5.0568920e-01
  5.9199065e-01
 -3.2062840e-01
  3.0499997e-02
  8.5770905e-01
  4.4528285e-01
  9.6546215e-01
 -8.0147579e-02
 -9.6111351e-01
 -5.0364900e-01
  1.5627889e-01
  3.1615260e-01
 -1.2645447e+00
 -3.7768933e-01
 -5.8551881e-02
  2.4906323e+00
 -1.9471419e+00
 -4.8368502e-02
  2.4022636e-01
 -5.0121933e-01
 -6.0274851e-01
  1.4313840e-02
  6.7920499e-02
  3.3542704e-02
 -2.4424098e-02
 -3.0904922e-01
  4.3558306e-01
 -1.7901493e-02
  2.4664669e-01
 -1.2499233e-01
 -8.2111157e-02
 -4.6578431e-01
 -2.6854545e-01
  4.1068494e-01
  7.3088998e-01
  2.3301933e-02
  2.3299730e-01
 -4.4771507e-02
 -2.5460708e-01
 -3.2739133e-01
  3.7314084e-01
 -4.6939036e-01
  9.3208039e-03
 -3.9567032e-01
 -1.4342721e+00
  1.0456739e-01
  3.6406550e-01
 -3.0891309e-02
 -1.9881225e-01
 -1.9422862e-01
  1.0330408e-01
  1.0441094e-01
 -8.2681336e-02
 -1.0344797e-01
 -5.1630217e-01
 -4.7679868e-02
  1.3643550e-02
 -8.9683264e-01
  1.9974979e-02
  1.5471233e-01
 -6.1564356e-02
 -8.3704460e-01
  8.9569271e-02
 -1.0244721e-01
  1.5342461e-01
  1.1249550e-01
 -4.0075806e-01
  1.9371071e-01
  2.6425165e-01
  2.1471226e-01
 -1.5550828e-01
  4.0026215e-01
 -1.8294749e-01
 -9.2288241e-02
 -1.0814062e-01
 -1.4870083e-01
  4.0013307e-01
 -1.6527529e-01
  3.0590066e-01
 -2.2385775e-01
 -1.9138049e-01
  7.8939371e-02
 -2.3020975e-01
  1.0818287e-01
 -4.2906916e-01
  1.6486548e-01
  4.6228626e-01
 -2.6587199e-02
  2.0417577e-01
 -5.7994074e-01
 -3.6624163e-02
 -3.7934965e-01
  2.2618236e-01
  2.8871962e-01
  5.0459903e-01
  1.5413688e+00
 -1.8018076e-01
 -8.7582856e-02
  7.9161674e-02
  1.6543204e-01
 -1.5897706e-02
  5.3569889e-01
  1.3215415e-01
 -1.2553892e-01
  9.1181122e-02
 -2.0596056e-01
 -1.3299730e-02
 -3.4830564e-01
 -1.0547328e-01
 -3.1603806e-02
 -3.6293657e+00
  2.4079049e-01
 -4.1998941e-01
 -7.8647479e-02
  5.4764646e-01
 -6.7299359e-02
 -7.5052816e-01
  5.1405627e-01
 -1.7519161e-01
 -8.7975323e-02
  2.8592410e+00
  7.4506176e-01
  4.1436973e-01
 -3.0168024e-01
 -1.2866583e-01
  4.5066655e-01
 -2.0466334e-01
 -1.8864197e-01
 -7.9071552e-01
  1.1821357e+00
  7.6744282e-01
 -1.0826051e+00
  3.9548954e-01
  4.2577910e-01
  1.3770662e-01
 -2.3131592e-02
  2.6668660e-02
 -1.3164721e-01
  2.3086038e+00
  1.1571223e-01
  9.1803715e-02
  2.3460168e-01
 -5.0195146e-02
 -1.5179376e-02
  6.3501932e-02
 -2.0856233e-01
  2.2457744e-01
 -1.8615662e+00
  4.7424808e-01
 -7.1902871e-02
 -5.1635507e-02
 -5.9817672e-01
  3.3512694e-01
  9.8116852e-02
  4.9853194e-01
 -3.9665708e-01
  4.9444357e-01
  1.9771333e-01
 -2.1715067e-01
 -4.1283499e-02
 -2.4105872e-01
 -1.0925879e-01
 -5.0404944e+00
 -1.7013302e-01
  2.4162228e-01
 -7.2535533e-01
 -1.0267585e-01
  3.2729253e-01
 -6.1912811e-01
  2.3507485e-01
 -1.3989429e-01
 -5.6015838e-02
  1.4719893e-01
  2.0960203e-01
 -1.3889706e-01
  1.9924319e-01
 -4.1774463e-02
 -2.3653392e-01
  9.2854880e-02
  1.3135059e-02
  1.7044282e-01
  3.2832760e-01
  1.0570624e-01
  4.3635286e-02
 -5.3978510e-02
  3.4853574e-02
  1.1519532e+00
  2.5311163e-01
  2.6154178e-01
  1.0748786e-01
 -3.8578030e-01
 -1.2732239e-02
  5.0474364e-01
 -7.5282645e-01
 -2.9450324e-01
  4.2571224e-02
  4.4659370e-01
 -1.9303600e-01
  5.6076724e-02
  2.1521833e+00
 -3.0139675e-02
  6.3624197e-01
  1.0163988e-01
  2.0251865e+00
  7.3128268e-02
  2.1664092e-01
  4.8513460e-01
  8.1685431e-02
 -1.4206560e-01
  1.0866946e+00
  8.1174946e-01
  5.6026638e-02
  9.7136177e-02
  3.1092169e-02
  1.4597076e-01
  2.1057670e-01
  1.5505548e-01
  6.9545142e-02
  2.3662154e-01
 -2.9158223e+00
  6.1141092e-01
 -7.6807819e-02
 -1.8290447e-02
 -5.2568136e-04
  1.1891162e-01
 -1.6233798e-02
 -9.3243539e-01
 -2.8675961e-01
 -8.0710426e-03
  1.1441370e+00
 -1.3591275e-01
 -1.7652324e-01
 -1.8378246e-01
 -4.2755508e-01
  3.4096214e-01
 -6.5372616e-02
  5.5615421e-02
 -2.3125394e-01
 -3.7971348e-01
 -6.7010385e-01
  3.5526398e-01
  7.6362926e-01
 -4.4936484e-01
 -2.4649362e-01
  6.9481940e-03
 -1.5876746e-01
  1.1455052e-01
 -8.2189566e-01
 -2.3565812e-02
  5.1013058e-01
  2.9673614e-02
 -6.8121105e-01
  1.0925265e-01
 -5.0417048e-01
  2.7136600e-02
  1.9122905e-01
  1.7872576e-01
 -3.5702586e-01
  4.2356655e-02
 -3.2666534e-01
  3.2331410e-01
  8.6392388e-02
 -7.2536372e-02
 -6.0258472e-01
 -1.6638322e-01
 -6.0390508e-01
  2.0614363e-01
  2.9687028e-02
  1.1586453e-01
 -4.6187562e-01
  1.7428225e-02
  2.0562769e-01
  5.5852717e-01
 -1.3001925e-01
  9.8008201e-02
  1.1882928e-02
 -3.3715466e-01
  5.8527006e-04
  1.2847848e-01
  3.1516734e-01
 -1.8774163e-02
  3.7040859e-01
 -2.1354437e-01
  1.0002868e-01
  6.3821656e-01
  3.4591228e-02
 -5.1122200e-02
 -3.9419311e-01
 -1.4309159e-01
 -9.6718895e-01
  2.4776265e-01
 -2.7114251e-01
  5.0685549e-01
 -5.1571822e-01
 -2.4855058e-01
 -6.6357702e-03
  3.2078144e-01
  2.8250217e-01
  1.6524412e-01
 -6.3386047e-01
 -3.5431519e-01
  1.1552075e-03
 -5.7141745e-01
 -2.5423455e-01
 -3.2481547e-02
 -8.0909950e-01
 -7.3374406e-02
  8.0042750e-01
 -3.6211649e-01
 -7.8579120e-02
  1.1548098e+00
 -7.4913919e-01
 -1.7243870e-01
  6.3554138e-02
  3.8362923e-01
 -2.5698170e-01
  1.9286540e-01
 -1.6281667e-01
  2.2407751e-01
  5.3875035e-01
  4.7662839e-01
 -5.0078973e-02
 -2.3387989e-01
  2.1552073e-02
 -8.7068290e-01
 -5.1450861e-01
 -9.0153283e-01
 -1.8318310e-01
  1.6433464e-01
 -3.4564495e+00
  1.3132441e-01
 -2.0525862e-01
  3.1518646e-02
 -1.0072716e-02
 -3.1174231e-01
  6.7055231e-01
 -1.3791426e-01
  4.5262104e-01
 -2.8814755e-02
  2.1396598e-01
 -3.0722016e-01
  3.6409995e-01
 -8.0248289e-02
 -7.9915635e-02
  1.1598445e-01
 -7.4357671e-01
  1.1202177e-01
 -1.6191587e+00
 -2.4938105e-02
 -5.5010682e-01
  1.1801521e+00
 -8.5125440e-01
 -1.6198716e-01
  1.2899537e+00
 -3.7200875e+00
  3.6373165e+00
 -6.7163892e+00
 -2.4073689e+00
 -1.2950200e-01
  7.4706107e-01
  4.8659287e-02
  8.5210419e-01
 -1.4855073e-01
  1.3341664e-01
  5.1291236e-03
 -4.6666384e-01
  4.7049847e-02
  9.5537096e-02
 -1.5526057e+00
  9.0475880e-02
 -3.1740022e-01
 -3.4861034e-01
  2.5505800e-02
  2.7648506e+00
  8.9633912e-02
  1.4165090e+00
 -8.2024086e-01
  2.5860405e+00
 -1.2134803e-01
  8.0501415e-02
  1.0243579e-01
 -5.5180001e-01
 -5.4423577e-01
 -8.0776811e-01
 -2.9627672e-01
 -3.4503075e-01
 -3.5482067e-01
 -3.1551465e-01
  1.5297823e+00
  4.6610472e-01
  2.1811387e-01
 -5.5025276e-02
  6.4771277e-01
  4.0276882e-01
 -5.4429889e-01
 -1.7009626e-01
  2.3574066e-01
  4.7126509e-02
 -3.9791208e-02
  5.4421914e-01
  1.0232833e-01
 -2.3673797e-01
 -1.7878944e-01
 -3.2609310e+00
  2.9974401e-01
 -1.1087688e-02
  9.6206522e-01
  1.5512817e-01
 -1.4466880e-01
  2.5411165e+00
 -1.1847777e-01
 -1.7926300e-01
  4.9695544e-02
  1.3556382e-02
 -3.7837437e-01
 -1.5554287e-01
 -1.2068329e+00
 -4.5870949e-02
  1.7199111e-01
  1.0191888e+00
 -4.6519545e-01
 -3.0739269e-01
  3.9933971e-01
  8.0366917e-02
 -1.9982556e-02
 -2.2594029e-02
  8.2026727e-02
 -1.2501895e-01
  1.4869939e-01
  3.3766136e-02
 -9.0561606e-02
 -1.2615018e-02
 -7.9308383e-02
 -5.0720971e-02
 -6.6763401e-02
  2.1039279e-02
  2.3304783e-02
  1.0685933e-01
 -1.4350246e-01
  3.8931450e-01
  6.2047709e-02
 -1.3728370e-01
  1.5175668e+00
 -2.3489617e-02
 -5.4000175e-01
 -3.7120357e-02
 -5.6138515e-01
 -8.7768592e-02
 -3.9668612e-02
  1.3012284e+00
  3.6935564e-02
  1.2121864e-01
  8.0349110e-02
  1.1915323e+00
  5.0605929e-01
  6.4398617e-02
  2.2488184e-01
 -8.2827307e-02
  1.1222954e-01
  1.1596480e-01
 -8.6280787e-03
 -1.2175876e+00
 -6.2248208e-02
 -2.2784203e-01
 -1.0467776e-01
  1.0001818e+00
 -1.7910591e-01
  3.5086966e-01
 -1.6179805e-01
 -4.1202685e-01
 -2.2080871e-01
 -1.0834537e-02
  4.4822890e-01
 -3.2727700e-01
 -7.2001018e-02
 -4.1140977e-01
  4.5181200e-02
 -2.5963309e-01
 -6.9070406e-02
 -4.2913234e-01
 -3.9832541e-01
 -7.6986440e-02
  3.8582906e-01
 -6.6891067e-02
 -3.6753285e-01
 -7.0807278e-02
  3.5980555e-01
 -8.3085904e-03
  5.9193289e-01
 -6.2099344e-01
  1.8727870e-01
  1.0107986e-01
 -6.2235075e-01
  2.6193202e+00
  5.0152200e-01
  6.2614018e-01
 -1.2611303e+00
  2.0947641e-01
  1.6194546e-03
 -1.3632731e-01
 -2.5724572e-01
  1.4953907e-01
  3.8469893e-01
 -6.1341751e-01
  2.1260351e-01
 -3.4876248e-01
  1.0075112e-01
  1.9888845e-01
 -3.9414948e-01
 -1.7904755e+00
  7.1199644e-01
  2.3182893e+00
  4.8123312e-01
  1.6543472e-01
  9.5740102e-02
 -8.8142119e-02
  7.9737252e-01
  3.1413713e-03
  6.0897980e-02
 -1.9248219e-01
  1.8618399e+00
  9.3195587e-03
 -2.0970637e-01
 -3.3209896e-01
  5.8879155e-01
 -3.1032573e-02
 -2.9820156e-01
 -6.7285675e-01
 -2.6996762e-01
  7.5371794e-02
  3.1866440e-01
  3.8749003e-01
 -4.5207154e-02
 -1.6897887e-01
  8.9545436e-02
  1.0642629e-01
 -1.0114875e+00
  8.2087710e-02
  2.2183493e-01
  2.7464727e-01
 -3.1583112e-01
 -7.9907715e-01
  1.8475220e-01
 -9.5908046e-01
  5.4587126e-01
 -7.8975387e-02
 -1.3424006e-01
 -4.0249741e-01
 -2.0177427e-01
 -6.6083357e-02
  7.6621163e-01
 -1.1268346e-01
  1.6837907e-01
 -4.3884441e-01
 -1.8628983e-01
 -5.9092808e-01
  5.4744001e-02
  1.1410682e+00
 -7.7528134e-02
 -4.1792270e-02
  6.5709412e-01
  2.6233211e+00
 -3.7626546e-02
 -9.7094357e-01
 -4.4303378e-01
  4.0301949e-02
  3.2764614e-01
 -2.8801429e-01
  1.9117981e-01
 -2.6068633e+00
 -2.5040254e-01
  1.0692590e-03
  5.1683486e-01
  1.4593500e-01
 -3.1316277e-02
 -6.7317806e-02
 -1.1666493e-02
 -7.1039595e-02
 -4.9516894e-02
  2.4868222e-01
 -7.5026971e-01
  2.7660114e-01
  1.9715400e-01
  5.1777399e-01
  3.9915854e-01
 -1.5937020e-01
 -1.4728406e-01
  1.9608954e-01
  9.5145069e-02
 -1.5984391e-01
 -1.2489145e-01
  6.3225278e-04
 -6.7922644e-02
 -1.2151557e-01
  2.9172197e-01
  8.0030926e-02
  1.6081411e-01
  5.1565641e-01
 -2.7429840e-01
 -1.5577261e-01
  6.2814319e-01
  1.1143695e-01
  3.2598087e-01
  4.1942531e-01
 -5.5936158e-02
 -1.5019456e-01
  1.3819058e-01
  1.0556241e+00
  1.9944513e-02
  3.2472286e-01
  4.1064522e-01
  3.8452494e-01
  2.2371615e-01
  4.2330697e-01
  3.1171685e-01
 -4.3694225e-01
  3.7984017e-02
  1.6119087e-01
 -1.4259733e+00
  4.2250622e-02
  4.8393729e-01
 -1.1033311e-01
  2.4389663e-01
  4.4067076e-01
  1.8788323e-01
  2.2083946e-01
  1.0663082e-01
  3.8933095e-01
 -1.9414207e-01
  2.3042978e-01
 -1.3936217e-01
  8.3994478e-02
 -5.0232202e-01
  4.3852180e-01
 -3.5948083e-01
  2.0965229e-01
  2.0815679e-01
  1.9324291e-01
  1.2485453e+00
 -1.5123895e-01
 -5.3180414e-01
 -2.5859475e+00
 -1.3948865e-02
  1.4850621e-01
 -4.0627331e-01
  8.9059792e-02
 -5.4139026e-02
 -4.1986430e-01
 -1.1394704e-02
 -1.1870518e-01
 -2.2312322e-01
  8.0808890e-01
  9.1552936e-02
  7.1558937e-02
  3.4969252e-01
  2.1359945e-02
  2.4987976e-01
 -1.3135873e-01
  2.7834135e-01
 -1.3178259e-01
  6.4983130e-03
  1.1090928e-01
 -1.9142261e-01
 -4.0305859e-01
  2.7155647e-01
 -4.4380051e-01
 -7.7772908e-02
 -2.2224997e-01
  2.1542022e-02
  1.2314481e-01
  6.4152360e-01
 -4.1534948e-01
 -2.0863554e+00
  4.3003801e-01
  8.0276988e-02
  1.6769655e-01
 -3.2836594e-02
 -1.4424059e-01
  3.2654247e-01
  8.4903248e-02
 -4.3921858e-02
  1.9414595e-01
  2.3533896e-01
  4.9074540e-01
  3.6220763e-02
 -1.5668247e+00
 -4.8405194e-01
  1.2330582e-01
  1.2770185e-01
 -6.4292455e-01
 -2.3576120e-02
 -3.3841053e-01
  1.3624351e+00
 -1.3409142e-01
  6.1360055e-01
 -1.7758067e-01
 -5.2898383e-01
  1.7987616e-01
  3.5974801e-01
  4.3095472e-01
  8.0927083e-04
 -2.2469708e-01
 -3.4799841e-01
  8.6143091e-02
  1.5964021e-01
  3.9820272e-02
  3.3351574e-02
  4.6968451e-01
  1.3103406e-01
 -1.1794911e-01
  8.2028113e-02
  1.9655280e-01
 -3.7315488e-02
 -7.4420959e-02
  3.5355562e-01
  6.5636396e-02
 -1.7791435e-02
 -1.3552709e-01
  1.0443377e-01
  4.0661788e-01
  1.2506479e-01
  2.1220508e-01
  1.3901690e-01
  2.5575498e-01
 -2.1608639e-01
 -1.7260175e+00
  9.2259216e-01
  2.3178132e+00
  7.1009201e-01
  2.2768377e-01
 -1.0881920e-01
  4.5204979e-01
 -3.5103449e-01
 -7.2872609e-02
  3.8167992e-01
 -1.1226961e-01
  1.1259320e-02
 -2.6530012e-01
 -3.4410399e-03
  4.4619724e-01
  1.0081877e-01
  3.5634875e-01
  1.4494751e-02
  4.8841350e-02
  3.5162503e-01
  1.1260806e+00
  2.5120303e-01
 -3.4142584e-02
  1.7770375e-01
 -5.7799542e-01
  4.6913522e-01
 -1.9904751e-01
 -1.3292288e-02
 -9.2986353e-02
  6.4932770e-01
  8.9796819e-02
 -6.6833295e-02
 -7.7081889e-01
  5.8460504e-01
  1.7630149e+00
 -1.1385294e-01
 -7.8913886e-03
  3.6612266e-01
  5.0709748e-01
 -4.3053368e-01
 -5.2767712e-01
 -1.4232583e-01
 -1.2849861e-01
 -3.3430681e-01
 -6.4063235e-03
 -1.3681488e-01
 -6.9618195e-01
 -2.2524136e-01
 -1.3413051e-01
 -1.6667372e+00
  1.7497836e-01
  1.4061894e-01
  5.2282256e-01
 -5.9063238e-01
  1.9120966e-01
 -5.3525931e-01
  2.7150419e-02
  1.3872392e-01
  2.3946314e-01
 -1.5143026e-01
  1.9662710e-01
 -4.3672379e-02
  3.2074320e-01
  2.9223055e-01
 -1.0026743e-01
 -3.5931230e+00
 -7.0200086e-02
  1.1783174e-01
 -3.9143509e-01
  5.1234382e-01
 -1.7966676e-01
  5.8219796e-01
 -3.8062412e-02
 -8.0909900e-02
  7.2754914e-01
  1.8877611e+00
  5.7845693e-02
 -2.8872094e-01
  2.1773452e-01
  1.2306879e-01
  7.4166387e-01
  5.5775154e-02
  7.4389622e-02
 -3.6418191e-01
 -5.3393102e-01
  1.6049460e-01
  2.9522362e-01
 -2.9263502e-01
 -1.3422823e-01
 -2.8603029e-01
 -2.1602931e+00
 -1.8710758e-01
 -4.2212966e-01
  3.9436355e-02
 -1.1681584e-01
  5.9498924e-01
  4.0060139e-01
  3.8947949e-01
  1.9137992e-01
 -2.3824765e-01
 -3.0476266e-01
  8.7986358e-02
 -3.3783117e-01
 -4.6350554e-02
  1.0999488e+00
  2.3265332e-01
 -2.1288295e-01
 -3.6194101e-02
 -1.5008084e-01
 -1.4353663e-01
  2.5759044e-01
  3.8462120e-01
  5.7685184e-01
 -8.0747930e-03
 -1.0997449e+00
 -1.2113448e+00
  5.1573921e-02
  4.5921528e-01
  5.9175515e-01
 -1.0681358e-01
 -1.1735376e+00
  1.8398480e-01
  1.1792043e+00
 -3.6826745e-02
 -5.7756126e-01
 -3.8611500e+00
 -2.0317128e+00
 -9.2348814e-02
  6.4256513e-01
 -3.9763689e-01
  6.3102894e-02
 -1.6886571e-01
 -1.1626190e+00
 -2.8470729e-03
 -6.8330072e-02
 -1.8040203e+00
  1.2122821e+00
 -3.2098722e+00
  2.7668107e-01
  3.1854644e-01
 -1.0815259e+00
 -2.0525746e+00
  5.2125138e-01
  1.4946258e+00
  1.8664829e+00
 -2.7477634e+00
  2.0544031e+00
  2.9656160e-01
  3.6271253e-01
 -1.8226483e+00
 -9.8111969e-01
  2.9023370e-01
  7.6252639e-01
  1.8242621e+00
 -5.2603751e-01
 -5.0362045e-01
 -9.2030847e-01
  6.7403209e-01
 -7.3104858e-01
  5.6790018e-01
 -1.0706401e-02
  2.1328843e+00
  1.3661228e+00
 -4.9117824e-01
 -1.0560715e+00
 -1.4101128e-01
  5.2313977e-01
  6.8844420e-01
 -6.6234517e-01
  3.1571090e-02
 -1.1460066e+00
  1.7735943e-01
 -3.2397041e-01
 -3.1929396e-02
  6.6445673e-01
  7.0577425e-01
  1.4308640e-01
 -2.4456550e-01
 -3.2291517e-01
  1.9032010e-01
  2.9125858e-02
  1.4712763e+00
 -2.7153823e-01
 -9.9614933e-02
 -3.1696635e-01
  3.7786618e-01
 -5.3111863e-01
 -2.5234133e-01
  9.9075693e-01
 -5.7731795e-01
  1.3487871e-01
 -1.2304774e-01
 -1.6138455e-01
 -6.8662721e-01
 -5.3558733e-02
  1.7251287e-01
 -1.8204930e-01
  2.7936665e-04
  5.0087285e-01
  3.1699175e-01
  1.2453319e-01
  8.8330761e-02
  3.5321078e-01
  5.0780135e-01
  4.8942387e-01
 -2.4525160e-02
 -9.6042359e-01
 -2.5371644e-01
 -6.5581843e-02
 -1.0428119e-01
 -4.8965991e-02
 -8.6075491e-01
 -2.0822042e-01
  6.6201878e-01
  4.1316267e-02
 -2.1590835e-01
 -3.7760353e-01
  1.9015546e-01
  1.9617261e-02
 -1.3888772e-01
 -2.9163069e-01
 -3.6478186e-01
 -2.3994544e-01
 -2.9869807e-01
 -4.5692727e-02
  3.1171513e-01
 -3.4448168e-01
  2.4008408e-01
  1.5583133e-02
  4.3214232e-01
  4.4810766e-01
  1.5663289e-01
 -3.1267438e-02
 -3.0869511e-01
  1.4799197e-01
 -9.9113369e-03
  2.6865268e-01
 -4.2348582e-02
  9.5444578e-01
 -1.4217252e-01
 -1.0402175e-01
 -1.6187869e-01
  4.4002652e-02
 -3.2519621e-01
 -3.9857468e-01
 -6.7808717e-02
 -2.5185954e-02
  5.4823067e-02
  5.8173692e-01
  6.8369312e-03
 -2.0410930e-01
 -2.2567150e-01
 -8.2454056e-02
  1.2641120e-01
 -4.2545435e-01
  8.0991253e-02
 -4.2591718e-01
  1.8531585e-01
  2.7633303e-01
 -9.3234217e-01
  1.3002986e-03
  2.0175056e-01
 -3.2792559e-01
 -1.4261043e-01
 -1.7870482e-02
 -6.6066228e-02
  5.8422063e-02
  1.8957693e-02
  4.4076405e-02
  9.7581849e-02
  3.7734148e-01
  2.2776896e-01
 -4.7990575e-02
 -7.7677883e-02
 -7.3700063e-02
  3.2532012e-01
 -4.2935159e-02
 -1.4514388e+00
  2.6635629e-01
  4.0927508e-01
  2.1982364e-01
  5.6966567e-01
  4.7570124e-02
 -5.7102770e-01
  2.6491722e-01
  5.0784510e-01
  1.5106226e+00
 -2.9490318e+00
  2.1319075e-03
 -1.4815921e+00
  2.2234030e+00
 -2.4674706e-01
 -8.7334633e-02
  5.0515777e-01
 -7.0898801e-02
  8.2591042e-02
  3.1202897e-02
  1.8124707e-01
  4.3998477e-01
 -1.2617940e-01
  3.1888619e-01
  3.5813582e-01
 -1.6478519e-01
 -1.5577127e-01
  2.4421251e-01
 -1.8370037e-01
  1.8352458e-01
 -5.1233828e-01
  4.9279603e-01
 -6.9337219e-01
 -9.3156964e-02
 -5.0165111e-01
 -1.2264615e+00
 -2.0497086e-02
 -1.6947962e-01
 -3.7580854e-01
  1.1843284e-02
 -1.8303160e-01
  6.3259959e-01
  4.2000689e-02
  1.8259794e-01
 -1.4189003e+00
  8.2084881e-03
 -2.6689021e-02
  1.7429842e-02
 -1.6359576e+00
  6.4879283e-02
 -2.5171065e-01
  3.8541159e-01
 -3.4752801e-01
  2.3544665e-01
  3.0037412e-01
 -4.6335563e-01
 -2.2225374e-02
 -7.2723687e-02
 -8.2141513e-01
 -2.4819107e+00
  9.3109027e-02
  5.3457379e-01
 -1.3767728e-01
 -2.8541594e+00
  1.1830927e+00
  1.4777336e+00
 -1.6359148e+00
 -9.1953546e-01
 -8.4174722e-01
  5.2220196e-01
 -3.8788609e-02
  1.7975162e-01
 -7.5879775e-02
 -6.8500853e-01
 -6.9298333e-01
  6.3385886e-01
 -3.2181139e-03
  9.6357621e-02
 -3.2953776e-02
  1.1377783e-01
 -3.2829261e-01
 -7.2719015e-02
  1.5112644e-01
 -2.3375802e-02
  1.6645478e+00
  2.8130394e-01
 -5.8681667e-01
  9.1901612e-01
  1.4964519e-01
 -4.2352937e-02
 -9.2611082e-02
 -3.9433506e-01
  1.5589948e+00
  1.5973266e+00
 -1.5206237e-01
 -7.8182167e-01
  8.8391885e-02
 -4.0627921e-01
 -1.8486896e+00
 -1.9504013e+00
 -7.0116602e-02
 -1.9637629e-01
  6.3422777e-02
  1.7182392e+00
 -1.1621672e-01
  2.2765669e-01
 -1.9108705e-01
 -3.8030800e-01
 -1.9461159e+00
  6.7036414e-01
  2.5225958e-01
  1.2820998e-01
  2.3076512e-01
  5.2769125e-02
 -5.3442819e-03
  4.7532845e-01
  2.2866603e-02
  1.0945484e-02
  7.7552468e-01
  7.0401318e-02
 -1.5383641e-01
  3.2558684e+00
 -5.3519051e-04
  2.4406108e-01
 -4.2195997e-01
  1.9576062e-01
  1.0456797e+00
  1.2597761e-01
 -3.7142992e-01
 -7.5805157e-01
 -1.6936533e-01
 -1.4380994e-01
  6.0887551e-01
 -2.3729897e-01
  2.6324704e-01
 -1.9945239e-01
 -1.3128954e-01
 -5.8925148e-02
  6.8145860e-03
  3.9501774e-01
  5.6139104e-02
  2.9802403e+00
 -4.3612945e-01
 -6.6075402e-01
  1.5162623e-02
  7.1760006e-02
 -2.5980225e-01
  2.7159792e-01
  1.7872724e-01
 -5.0016260e-01
  5.6164374e-04
 -2.6055453e-02
  1.9725703e-02
  6.3319558e-01
 -3.7540812e-02
  5.1297724e-01
 -1.6685551e+00
  7.6954639e-01
  8.5973054e-02
  3.5384241e-01
 -2.7438453e-01
  2.2762553e-03
  1.4086361e-01
 -1.5115709e+00
  6.1976928e-02
  5.5723482e-01
 -1.2973417e-01
 -3.6981378e-02
 -6.0783780e-01
 -6.1554557e-01
  1.5757534e-01
  9.2865109e-01
 -3.9143747e-01
  3.2083453e-03
  9.0033628e-02
 -8.7399566e-01
 -1.6339714e-02
 -3.6784317e-02
  5.3461831e-02
  1.7794639e-01
  9.2284590e-02
  3.6024576e-01
  6.6489714e-01
 -4.0942577e-01
 -2.5432423e-01
 -4.6499321e-01
 -2.7335835e+00
  4.6305865e-02
  1.4707448e-01
  2.0636809e+00
  1.5266208e-01
 -1.0906165e-02
  1.2480156e-02
 -1.1671780e+00
  5.2804941e-01
  4.0625438e-02
 -1.4398704e-01
  9.1300890e-02
  1.0066041e+00
 -2.4912964e-01
 -1.3169315e+00
  4.4284073e-01
  3.7071091e-01
  5.3793341e-01
 -2.5688402e-02
  1.0376889e-01
 -4.8266307e-01
  8.7600881e-03
 -2.8781821e-03
 -5.8555841e-03
 -2.9100558e-01
  2.9743528e-01
 -1.8569663e-01
 -6.6433209e-01
 -6.9638163e-02
  2.4869476e-01
  9.7843014e-02
 -5.7619137e-01
 -7.0154771e-02
 -2.4644458e-01
 -4.1668829e-02
  1.7470115e-01
  2.5898275e-01
 -4.2631274e-01
 -1.1206426e-01
  2.5712404e-01
  4.1350201e-02
 -1.2838824e+00
 -2.7121639e-02
 -4.6382222e-01
  7.7266830e-01
  6.7303658e-01
 -4.1436663e-01
 -1.1628211e+00
  9.9334225e-02
  8.4420489e-03
 -8.3440149e-01
 -2.2204039e+00
 -1.2250105e-01
 -3.8641840e-01
 -4.3660510e-01
  3.9618243e-02
  1.5148466e-02
 -4.8709344e-02
  8.9642368e-02
 -1.5135682e-01
 -2.1515191e+00
 -6.4298578e-02
  4.3349274e-02
 -1.4198579e-01
 -9.2093132e-02
 -3.8083667e-01
 -1.7159650e-01
 -3.1777365e+00
  4.8248652e-01
  2.9249743e-02
 -2.1792719e-02
 -3.7004787e-01
 -1.0427928e+00
 -1.3984700e+00
 -4.8134324e-01
 -4.7234720e-01
  4.6262846e+00
 -2.7123538e-01
  4.5203796e-01
  1.2201741e-01
 -4.4522136e-02
  6.7521408e-02
  1.6095458e-01
 -1.1873742e-01
  3.9650694e-01
 -8.9429691e-02
  4.8970947e-01
  1.0632755e-01
  2.9553047e-01
  4.9384215e-01
  1.1662249e-01
  5.4401225e-01
  5.9551787e-01
 -1.6352611e+00
  2.5562695e-01
 -1.3854727e-01
 -3.0078900e-01
  6.2664533e-01
 -5.5946243e-01
  1.0359639e-01
  3.3347502e-02
  3.9845330e-01
  3.2530737e-01
  3.0025157e-01
  7.3494792e-02
 -3.3796412e-01
 -4.3287385e-01
  4.4264331e-01
 -1.3365418e-01
  1.0857428e+00
  1.6111720e-01
 -2.2896123e-01
  7.7415234e-01
  1.3817510e-01
 -9.7322181e-02
 -1.9663577e-01
 -5.0793791e-01
  4.4544306e-02
  3.9167142e-01
  1.5979484e-01
  1.6978040e-01
  1.9295853e+00
 -4.3958393e-01
 -6.3783087e-02
 -1.0229379e-01
  3.9839413e-02
 -1.7549525e-01
 -4.6511015e-01
  1.7952876e-01
 -4.1993973e-01
  1.1831298e-01
 -6.7090857e-01
 -1.0337982e+00
  2.2853614e-04
 -5.4501235e-01
 -1.2915979e-01
  7.3644578e-02
  5.6847119e-01
 -8.7831032e-01
  6.9888723e-03
 -1.9283774e-01
 -6.8162768e-03
 -4.7776824e-01
  3.8160479e-01
  5.9314016e-02
  2.9466534e-01
  1.3633664e-01
 -6.6905238e-02
  6.5038234e-02
  5.5348236e-02
  2.9275823e-01
  9.9569045e-02
 -3.0215645e-01
 -1.3953326e-02
 -4.6365666e-01
  2.8893963e-01
 -6.8458736e-02
 -9.8850977e-01
  7.3530719e-02
 -8.5295635e-01
 -3.1575817e-01
 -7.5212903e-03
 -1.0708995e-01
  2.7780309e-02
  2.0499234e-01
 -1.7538695e+00
  2.9673785e-01
 -8.7667987e-02
  8.2519174e-02
 -1.8594775e-01
 -4.6716502e-01
  3.5750532e-01
  3.7800260e-02
  2.0488562e-01
  4.7313136e-01
 -1.1716291e-01
 -2.4316497e-01
  6.5352455e-02
 -1.9373927e-01
 -2.0299496e-01
 -3.5634995e-01
  3.7375990e-01
 -9.7563803e-01
  6.2015660e-02
 -1.8951468e-01
  4.6630226e-02
  6.3300192e-02
 -5.4636937e-01
 -2.8833287e-02
  1.3433385e-01
 -8.5072950e-02
  7.1384788e-02
  3.4820229e-01
 -1.2882952e-01
  5.2683294e-01
 -1.6582868e-01
  2.2180775e-01
  1.2424075e-01
 -4.3897506e-02
 -1.1152813e-01
 -2.0377821e-01
 -1.0386074e-01
  1.6801818e-01
  3.2288641e-01
  1.6135561e-01
 -1.2936346e-01
  1.8151519e-01
  1.9805260e-01
 -3.5133734e-01
  9.8275796e-02
  2.9573283e-01
 -3.4070870e-01
  6.8342373e-02
  1.7890959e+00
 -3.4199762e-01
  2.3158472e+00
  3.0202115e-01
 -1.8897069e-01
  7.4495965e-01
  2.4874008e-01
  5.0864911e-01
 -6.0897935e-03
  1.8410453e-01
  3.2763737e-01
  1.8375739e-01
 -2.1210364e-01
  2.2545010e-01
  2.4657162e-01
  1.4414708e-01
 -8.6114526e-01
  9.4018318e-02
 -1.2615296e-01
  3.0310869e-01
 -4.2976049e-01
  4.2810723e-01
  1.5632564e-01
  4.0677216e-02
  2.4151146e-01
 -1.1801682e-01
  2.5161719e-01
 -1.0092703e-01
 -2.7032682e-01
 -1.2160935e-01
 -2.7661219e-01
  9.8913379e-02
 -2.9967901e-01
  4.3816537e-02
  6.2431431e-01
 -2.0548332e-01
 -1.9395843e-01
  1.6702338e-01
 -1.8155828e-01
 -7.2092034e-02
 -6.9124597e-01
  3.3605471e-01
 -9.9535950e-02
 -1.4062203e+00
 -5.1307130e-01
 -1.2947661e-01
  1.8426414e-01
  4.7019526e-02
  2.2510096e-01
  4.9707896e-01
 -4.0820993e-02
  2.6940182e-01
 -9.4415285e-02
 -1.2242277e+00
  5.2467432e-02
 -2.1237867e-01
  7.1179968e-01
 -2.0489757e-01
  4.2316812e-01
 -2.9545072e-01
  5.6483513e-01
  8.0912703e-01
  7.1656388e-01
  1.2434139e-01
  1.3669559e-01
 -2.1233834e-01
  5.0800908e-01
  5.0011218e-02
  2.5501263e-01
 -2.1763988e-01
  2.0530963e-01
  5.8943313e-01
  1.4512439e+00
 -1.8885101e-01
  6.6418356e-01
 -3.3641174e-01
 -5.1840109e-01
  5.7230240e-01
  2.6287669e-01
  7.0691442e-01
  1.9293550e+00
  9.6045268e-01
 -1.7792463e-01
  8.3534068e-01
  8.4417127e-02
 -1.3277856e-02
 -3.2426994e-03
 -3.9936292e-01
 -3.9112940e-01
  2.6342232e+00
  1.0915940e-01
 -1.2823613e+00
 -1.2474929e-01
 -3.6945388e-01
  3.1350186e-01
 -6.0276415e-02
 -2.2712451e-01
 -1.8649600e-01
  3.7932909e-01
 -8.7050563e-03
 -1.5165600e-01
 -1.2356126e-01
  4.7065759e-01
  2.6141775e-01
 -4.2524997e-02
 -5.8230013e-01
  2.4169115e-02
 -5.8742940e-01
 -1.1040364e-01
 -6.6840440e-02
 -2.5174744e-02
 -2.9099956e-02
  1.2548660e-01
 -5.2228099e-01
 -2.9789896e+00
  3.1095948e-03
 -1.9768718e-01
 -2.1691607e-01
  2.1660416e+00
 -4.2567587e-01
  1.9865900e-01
  1.7851188e+00
 -4.2805146e-02
  6.5220696e-01
  1.0179204e-01
 -7.1263480e-01
  2.9220529e-02
  4.2584941e-01
 -6.0976148e-01
 -6.3153781e-02
 -2.5051545e-02
  3.3796558e-01
 -1.9723363e-01
  7.3932007e-02
  4.3815267e-03
 -7.1150653e-02
 -4.1156372e-01
 -1.4865895e-01
 -4.0806764e-01
  7.1891260e-01
  7.3070884e-01
  4.3482292e-01
  2.0216966e-01
  6.2746391e-02
 -4.9857687e-02
  3.9612398e-01
 -2.2397685e-01
  5.9305531e-01
 -5.3189343e-01
  3.1566143e-01
 -1.7903079e-01
  1.2112712e-01
 -1.8104215e-01
  4.0191889e-01
 -3.3811149e-01
  4.4549201e-02
  9.2960171e-02
  1.5998496e-01
 -6.7597449e-01
  3.9716914e-01
 -7.8868949e-01
  4.7248818e-02
  3.0477726e-01
  9.9954233e-02
 -8.8623822e-02
  2.5450635e-01
  7.0599332e-02
  7.5635985e-02
 -2.3610188e-01
  5.8905482e-02
 -4.4997673e+00
 -8.3587103e-02
  2.8147307e-01
  1.8984157e-01
 -3.4374094e-01
  8.8725366e-02
 -6.8992622e-02
 -6.5463650e-01
 -4.0457916e-01
 -2.4951646e-01
 -6.3850150e-02
 -3.7839764e-01
 -1.9993512e-01
 -1.5893240e-01
  3.1011981e-01
 -1.7993996e-01
  2.6505911e-01
  1.5498117e-01
  4.6235073e-01
  2.8808191e-01
  1.8773270e-01
  7.1963322e-01
 -1.3776588e-01
  1.5175913e-01
  8.3407037e-02
  4.8472192e-03
  2.2681594e+00
  2.9498321e-01
 -2.9482269e-01
 -7.8138970e-02
  9.3789950e-02
  4.5402867e-01
  6.7388751e-02
  2.5758069e+00
 -9.7899705e-02
  7.0055760e-02
  1.6850030e-01
 -1.4827368e-01
 -1.3943964e-01
 -5.8660037e-03
 -3.1730080e-01
  1.2755400e-02
 -2.2307305e-02
 -4.0464458e-01
 -1.5403607e-01
  4.6952167e-01
 -6.1599895e-02
  4.9926094e-03
  1.0033657e-01
  1.7284608e+00
  8.4719312e-01
 -1.9556218e-01
 -6.3560612e-02
  1.9010849e-03
  6.0124797e-01
 -6.7019112e-02
 -9.3465543e-01
  6.0848147e-01
 -1.4866492e-01
 -4.5758814e-01
  6.9305319e-01
  5.6069440e-01
  2.1866402e-02
  3.3214498e+00
 -3.7376034e-01
 -2.0593953e-01
 -6.1763249e-02
  1.4292222e-02
 -4.2295054e-01
  9.5429353e-02
 -8.7110347e-01
 -7.2202343e-01
 -1.9455816e+00
 -1.7960426e-01
 -3.1766880e-03
 -1.2313363e-01
 -9.9405281e-02
 -2.7006966e-01
  3.4315026e-01
  3.7237099e-01
 -3.0538541e-01
  8.7000638e-02
  1.6357185e-01
  4.6506595e-02
  3.1748332e-02
  1.8418866e-01
 -5.4023647e-01
 -2.5975809e-01
  1.6060085e+00
  1.0631286e-01
 -1.5534176e-02
  4.7849235e-01
 -3.2108626e-01
 -4.1798502e-01
 -5.4578197e-01
  3.6799914e-01
 -2.8504543e+00
  2.2552504e-01
 -1.1727762e-01
 -1.8629842e-01
 -7.9471272e-01
  4.5255601e-02
 -2.7681693e-01
 -1.7042388e-01
  1.3720076e-01
  7.1951769e-02
 -1.6197034e+00
 -7.4003834e-01
 -2.2237428e-01
  8.0091774e-02
 -1.0505877e-01
  6.0884809e-01
  4.1041574e-01
 -6.1430091e-01
 -3.1133246e-01
 -3.8956457e-01
 -8.9013100e-01
 -4.9550876e-01
 -5.7064527e-01
 -3.0325258e-02
 -1.6935711e-01
  4.8955582e-02
 -1.9966998e+00
 -8.8651246e-01
  2.9098076e-01
  2.7229580e-01
 -1.1414473e+00
 -1.4911756e-01
 -2.5623560e-01
  4.6800427e-02
  1.6656204e-01
  2.0430512e+00
  1.0511089e-01
  5.3040450e-03
  4.7337916e-01
 -1.3351208e-01
  2.5598913e-01
 -1.2596922e+00
 -9.5719361e-01
  3.4339514e-02
 -3.6524388e-01
  8.2532436e-01
  1.4332564e-01
  1.6321489e+00
 -2.1770532e-01
 -1.3751619e-01
 -3.0192146e-02
 -2.6440987e-01
  9.4338828e-01
  5.8368665e-01
  6.4867902e-01
 -3.0666497e-01
 -1.1994689e-01
  3.0167919e-01
 -5.1736623e-02
 -1.0328188e+00
 -4.0485129e-01
 -7.6214641e-01
  1.3903080e-01
  1.4453691e+00
  1.0701424e-02
 -1.0977625e-01
  6.5919578e-02
  7.0595242e-02
  1.3875884e-01
 -6.5020651e-02
  2.9958275e-01
  2.0840849e-01
  2.2205368e-01
 -3.5472730e-01
 -3.1852543e-01
 -1.1424816e-01
  2.1741538e-01
  4.4008583e-02
  1.8955940e-01
  1.1643657e-02
 -2.1093178e-01
  1.3065796e-01
  9.7677574e-02
 -4.8109326e-01
  3.0411875e-01
  1.5926148e-01
  6.6818699e-02
 -1.1663854e-01
 -7.1269196e-01
 -3.2463497e-01
 -4.8471487e-01
 -1.6738313e-01
  8.5302806e-03
 -5.9777360e-02
  1.8892474e-01
  2.0375425e-01
 -3.3126134e-01
  1.6198461e-01
 -5.2971300e-02
  6.7747235e-01
 -1.3329919e-01
  2.0369671e-01
  1.5967785e+00
  2.7020354e-02
 -1.2482433e+00
 -1.9062282e-01
  3.8219092e+00
  1.4030647e-02
 -2.5866777e-01
 -1.6124706e-01
 -1.8285891e+00
  1.7625600e-02
  5.3167329e-03
 -7.7665567e-01
  5.2757744e-02
  5.4123425e-01
  2.4314614e-01
  6.6806394e-01
 -3.2655752e-01
 -7.0699900e-02
  2.2650693e-02
  3.1829664e-01
  1.5359439e-01
  2.9249454e-01
  4.1058069e-01
  4.9320236e-01
  2.9135192e-02
  9.3407951e-02
 -5.7611191e-01
 -9.3672544e-02
 -2.0857845e-01
 -1.7134916e+00
 -7.0937030e-02
 -4.2836231e-01
 -3.3857003e-02
  6.7636147e-02
 -1.9392298e-01
 -2.8547049e-01
 -3.7048399e-01
 -4.2292747e-01
  3.9293969e-01
  2.9200169e-01
 -2.5483069e-01
  3.6023179e-01
  7.7426821e-01
 -2.2175388e-01
 -4.0176934e-01
 -6.2451601e-02
 -1.7297468e-01
  1.4023282e-01
 -1.7221011e-03
  5.7499856e-03
 -1.0884957e+00
 -3.6075911e-01
 -3.4763774e-01
  5.2980024e-01
  4.8242636e-02
  3.3823195e-01
 -6.7808372e-01
 -1.7903368e-01
 -1.5783076e-01
  2.2573962e-03
  4.1714672e-02
  2.3525586e-02
 -5.3662086e-01
  2.5735489e-01
  2.9286256e-01
  1.9480544e-01
  3.8570985e-01
  3.0920413e-01
  1.5333439e-01
 -8.7355711e-02
 -3.1125748e-01
 -2.7485433e-01
 -5.6917715e-01
  1.5508726e-01
  1.5460870e+00
 -6.1606478e-02
 -5.4239476e-01
 -5.3026032e-01
  3.8124487e-01
  4.0644999e-03
 -3.5912022e-01
  1.1341825e-01
 -5.0993788e-01
 -3.3950169e+00
 -2.5179062e+00
  2.8509656e-01
  2.2003698e-01
 -6.2931651e-01
  2.2865699e-01
  2.9102743e-01
  2.1011624e-01
  2.5605640e-01
  5.0738800e-01
 -8.3585128e-02
 -1.3710366e-01
 -1.1326314e+00
 -1.4687217e+00
  5.9098288e-02
 -9.4504021e-02
  8.3397782e-01
 -5.6273758e-02
  6.1367977e-01
 -2.6188940e-02
  1.3062023e-01
 -5.3952947e-02
 -4.1587572e+00
 -9.6070290e-02
 -5.5354065e-01
 -2.1099477e-01
 -1.4727670e-01
  1.4239319e-01
 -5.4529595e-01
  1.4413759e-01
  5.1526606e-01
  2.3987636e-01
 -1.7005420e-01
 -2.2908460e-01
 -7.7461457e-01
 -1.3613988e-01
 -4.1266489e-01
 -3.0934876e-01
  7.5817156e-01
  2.4667849e-01
 -2.8973928e-01
 -6.9750440e-01
  1.7826568e-01
  6.4341837e-01
 -5.0283891e-01
 -1.7503378e-01
  1.3647739e-02
  1.9502904e-01
  1.8708721e-01
 -4.7084793e-02
 -1.0454197e+00
 -2.1138397e-01
  5.3234197e-02
  1.6671519e+00
  1.4197707e+00
 -1.3907851e+00
  7.5411730e-02
  5.0456905e-01
 -3.7229621e-01
 -3.1945276e-01
  2.3684975e-02
 -4.8989806e-01
  4.7742936e-01
  3.2693470e-01
 -1.5149647e+00
 -7.5778520e-01
 -2.3528796e-01
  1.2428648e+00
  4.4176927e-01
  4.2622814e-01
 -4.1139707e-01
 -6.3110292e-01
 -1.7008398e-01
  1.0270543e-01
 -6.9125319e-01
 -1.1176995e+00
 -1.1543364e-02
  5.5095637e-01
  7.1386635e-01
 -3.4758277e+00
  1.3500605e+00
  1.1629480e+00
  4.1925046e-01
 -2.7013436e-01
 -1.6406669e-01
 -2.0761000e-01
  1.1053883e+00
  7.1487480e-01
  5.6805015e-01
  6.1378098e-01
  3.0528309e+00
 -5.1156878e-01
 -1.7553134e-01
  1.0811454e+00
 -3.1996849e-01
  9.4784059e-02
  4.9559016e-02
  3.2953623e-01
  7.7215266e-01
  1.8026011e-01
  1.1939597e-01
 -5.4823369e-01
  8.2399952e-01
 -3.1709909e-01
  2.1956727e-02
 -2.8981652e+00
 -7.0615566e-01
 -1.0470041e-01
 -1.4439712e-01
 -7.5462437e-01
 -1.6925505e-01
 -4.0036300e-01
  5.3875972e-02
  2.3300676e+00
 -1.0049471e-01
  1.4015099e-01
 -6.7473441e-01
  3.5148054e-01
 -2.1998501e-01
  2.0036536e-01
  8.9440614e-02
 -2.8624156e-01
 -2.1654843e-01
  7.0135319e-01
  1.5884436e+00
 -6.6601686e-02
  6.7801374e-01
  2.8882277e+00
  8.8936609e-01
 -1.4539412e-01
  2.1799579e-01
  9.8501247e-01
 -3.1587282e-01
 -2.5853088e-01
 -1.7874067e-01
 -2.0266457e+00
 -1.9763260e+00
 -2.2753946e-01
 -5.2948326e-01
 -2.1884055e+00
  9.7626485e-02
 -1.5512002e-02
 -6.2700337e-01
  4.6679702e+00
 -2.3453474e-01
  6.2259895e-01
  1.1378510e+00
 -3.2844186e-02
 -3.9362794e-01
 -7.1104169e-01
 -1.2402575e-01
  2.7689999e-01
  5.4772604e-01
  3.4585583e-01
 -3.6695253e-02
 -2.3656051e-01
  5.0151193e-01
 -9.3115523e-02
 -1.8605073e-01
 -1.1485889e-01
  9.8494077e-03
 -1.9574086e-01
  1.3355934e-02
 -5.0016397e-01
 -2.0317940e-01
  4.6206665e-01
  1.3360275e-01
  3.8412550e-01
  1.2278016e-01
  3.2707378e-01
 -1.1646358e+00
  1.5944263e-01
 -1.6345052e+00
  3.6454707e-02
 -1.9053359e-01
  5.1150288e-02
  7.5528435e-02
  1.0866050e-01
  5.2310660e-02
 -9.6891828e-02
  7.4623651e-03
  6.3290812e-02
 -5.6292556e-02
 -8.9828577e-03
 -1.0023604e-01
 -1.5857242e-01
  3.4640051e-02
  8.6191706e-03
  4.5180777e-01
 -7.0070016e-01
 -1.6822122e+00
  2.2358812e-01
  2.4422758e+00
  2.8527980e+00
 -3.3400118e-01
  3.1480885e-01
  2.1860680e-01
 -3.3723861e-01
 -5.4804170e-01
 -4.3821216e-02
 -1.0148569e-01
 -7.8230783e-02
  5.7273644e-01
  1.2219840e-01
  5.8980830e-02
 -3.0206001e-01
 -1.0785344e-02
  1.6138483e-02
  2.2350095e-01
  1.2524123e+00
  1.2053511e-01
  1.6598357e-03
  8.3765996e-01
 -1.2334975e+00
 -3.7496284e-01
 -5.7629228e-01
 -3.0754778e-01
  1.3710020e-01
 -1.0992866e+00
 -4.6355098e-01
 -1.3835862e-01
 -1.3221390e+00
  1.3474900e-01
  2.7233014e+00
 -3.0947974e-01
 -4.1550424e-02
  2.2405975e-01
 -2.7874582e+00
  5.9463143e-01
  1.2363601e-01
 -1.4462401e-01
 -6.5772943e-02
 -7.6715535e-01
  8.8449910e-02
  1.9429134e-01
  3.7001899e-01
 -1.9608970e-01
 -2.3440309e-01
 -1.3717743e+00
 -5.9876774e-02
 -2.2116543e-01
  1.2167992e-01
 -1.8721788e+00
  8.6839892e-02
  6.1786616e-01
 -3.2585035e-03
  3.5750428e-01
 -4.4547454e-02
 -4.8859182e-01
 -2.4643037e-01
 -4.8656541e-01
 -1.9355440e-01
  7.8777355e-01
  2.7243398e-02
 -2.6633006e-01
  5.2828652e-01
  3.0562419e-01
  3.3389327e-01
 -2.3439236e-02
 -6.5696752e-01
  2.6854789e-01
  3.7917578e+00
 -1.3775888e-01
 -1.2549012e-03
  2.0130163e-02
  1.2153810e-01
 -2.4696091e-01
 -9.3138121e-02
 -9.2540637e-02
 -2.2814494e-01
  7.5103617e-01
  3.8851649e-01
  5.6668800e-01
  9.1138959e-01
  2.7842805e-01
 -8.7496310e-01
 -2.2036824e+00
  1.6277285e-01
 -1.3242338e+00
  7.7488154e-01
 -8.3070654e-01
 -1.2580270e+00
 -4.0513828e-01
  3.1965637e-01
 -2.9161364e-02
 -2.8781536e-01
 -2.7929235e-01
 -1.3503616e+00
 -3.9357546e-01
 -4.3627676e-02
 -5.9751194e-02
 -1.7455363e-01
 -7.5969100e-01
  2.2832195e-01
  7.0116150e-01
  2.0597674e-01
  6.5874672e-01
 -3.4265989e-01
  2.3827608e+00
  1.1819633e-02
  1.2829049e-01
 -4.9970934e-01
 -4.8152831e-01
  4.9342193e-02
  5.0004333e-01
  1.7120728e+00
  3.9804891e-01
 -1.3871964e+00
 -1.0219124e-01
  1.8137349e-01
  3.0877116e-01
  4.4883841e-01
 -1.0244806e+00
  4.1940268e-02
 -3.4602918e-02
 -8.3743937e-02
 -5.8796579e-01
  1.2780377e-01
  8.8747144e-01
  8.2667554e-03
  9.2992485e-02
 -3.7486792e-01
 -6.4944440e-01
  3.4413701e-01
 -1.8250456e-01
 -1.7287761e+00
  7.6942402e-01
  3.3020610e-01
 -3.8856006e-01
  1.0891651e+00
  4.8483554e-01
 -1.9713418e-01
 -1.5086069e+00
  3.3356467e-01
  7.1868628e-02
  2.3183370e-01
  1.2153468e-01
  8.0930583e-02
  3.9428630e-01
  3.7833494e-01
  1.6262225e+00
  2.4612449e-01
  1.0825650e-01
  2.2570440e-01
  7.6598659e-02
  2.8072366e-01
  3.5776269e-01
 -8.8381755e-01
  1.9563799e-01
  1.8049785e-01
 -1.9947824e+00
  9.1413714e-02
  5.5655789e-01
  3.7595612e-01
  5.0782424e-01
  1.4625850e-01
 -2.2937279e-02
  1.3847157e+00
 -1.8594228e-01
 -1.7565645e-01
 -6.8729514e-01
 -1.6834933e-01
  4.0191710e-02
 -1.1134993e-01
 -5.0784218e-01
  1.7459133e-01
  1.1259134e+00
  5.9217796e-02
  2.2118124e-01
 -2.9357275e-02
 -4.8497927e-01
 -7.3797166e-02
  2.5723711e-01
  1.4231823e-01
 -4.6561229e-01
 -4.8211504e-02
  8.5660875e-01
 -7.2370052e-02
  7.8434963e-03
 -5.3075612e-01
 -1.0633476e+00
  9.4553143e-01
 -4.0816888e-02
 -1.5466197e-01
 -2.0707196e-02
 -2.1672420e-01
  2.2186972e-01
 -6.8838882e-01
 -1.0014939e+00
 -1.0437953e+00
  3.2114375e-01
  1.4850199e-01
 -2.5106040e-01
 -1.0977374e+00
 -1.0150514e+00
 -4.3464169e-01
  1.2882380e-01
  1.6042998e+00
  3.0116966e+00
  7.7121997e-01
  2.4172258e-02
  5.2260989e-01
 -6.5858889e-01
  1.3325474e-01
  3.8144597e-01
  1.5119754e+00
  3.8723585e-01
  3.1589267e-01
 -2.8156856e-01
 -3.4553182e-01
 -1.1540997e+00
  1.5363960e-01
  2.0313284e-01
  2.1667069e-01
  1.3032862e+00
  2.7737765e+00
 -3.3897135e-01
 -1.5005225e-01
  3.5033038e-01
 -2.8040789e-02
 -3.9884765e-02
 -5.6803143e-01
 -2.0046337e-01
  1.9417111e+00
  7.0806539e-01
  1.1038260e-01
  8.2293081e-01
  4.4833991e-01
 -3.4553126e-01
 -1.0886860e+00
 -4.3818048e-01
 -3.6233202e-01
  8.6736447e-01
  1.8913251e-01
  1.7116562e-01
  3.1389099e-02
 -8.7453209e-02
  5.1944768e-01
  5.4839447e-02
 -1.3474381e-01
 -2.8493874e-02
  6.6796094e-02
  1.0350118e+00
  9.6968943e-01
  1.6692063e-01
  5.2524316e-01
  1.5022012e+00
  6.6981322e-01
 -7.1231717e-01
 -1.1756612e-01
  1.6205497e+00
  4.4900542e-01
  9.5692933e-02
  2.9606760e-01
  3.4495595e-01
 -3.6891788e-02
  4.5311484e-03
  7.3860243e-02
 -3.9300835e-01
  3.7050448e-02
 -3.6142245e-01
 -3.8701120e-01
  7.8529723e-02
  2.5325900e-01
  1.1714539e-01
  1.0038213e-01
  1.8032832e-01
  7.4902803e-02
 -2.8066188e-01
 -2.2605850e-01
 -5.5162871e-01
  9.6883588e-02
 -1.2517235e-01
  6.0740665e-02
 -2.7428737e-01
 -5.7563126e-01
  4.2889428e-01
  1.6650482e-01
 -2.8481376e-01
 -3.0489480e-01
 -2.2917671e-02
 -1.4086047e-01
 -1.6633304e-02
  1.4759269e-01
  4.1389388e-01
 -1.7611990e-02
 -2.1762638e+00
  7.3041640e-02
 -3.4706840e-01
  2.9565513e-01
  2.0539881e-01
 -2.4505672e-01
  1.6900143e-01
  5.2073282e-01
 -5.9885871e-02
 -2.5970405e-01
  5.7050920e-01
  1.2379776e-01
  2.6574373e-01
 -6.5613873e-02
 -2.3878525e-01
  1.9875633e-02
 -3.5995778e-01
 -4.2117703e-01
 -9.3730825e-01
 -5.7278279e-02
 -3.2712851e-02
  2.1116755e+00
 -3.1085825e-01
 -1.3532618e-01
  1.7705466e-01
  5.8685100e-01
  2.4473970e-01
 -1.5612428e-01
 -2.0320435e-01
  1.3878098e+00
  4.1335604e-01
 -3.1114709e-01
 -3.4312174e-01
  3.2055110e-01
 -2.8695184e-01
 -2.1433678e+00
  2.1318831e-01
 -2.5258911e-01
  7.5956994e-01
 -4.8482549e-01
 -2.4901528e-02
  7.9402342e-02
 -2.1890520e-01
 -1.6418664e-01
  4.9599547e-02
  2.9755542e-01
  3.2562914e-01
  1.9667605e-01
  1.0914256e-01
 -1.0046684e-01
 -4.6437526e-01
 -2.9652068e-02
 -1.2758309e-01
  5.1387335e-04
 -1.4516082e-01
 -1.8116969e-01
 -6.2815166e-01
 -2.9307270e-01
  2.8509516e-01
 -5.3295515e-02
 -2.2186127e+00
 -2.5203317e-01
 -7.3559403e-02
 -9.0491787e-02
 -3.0483505e-01
  8.8786304e-02
  1.3358256e-01
 -1.3698196e-01
  5.8135068e-01
  1.2959389e-01
  4.1293976e-01
  9.3442306e-04
  5.4914135e-01
  1.3459582e+00
 -1.9713632e+00
  1.4261693e-01
 -4.3733352e-01
  3.3075836e-01
 -6.7599691e-02
  2.3296148e-02
  1.3178096e-02
  9.9085979e-02
  5.3419203e-01
 -1.6087969e-01
  9.0508007e-02
 -6.4904802e-02
  1.2439999e-01
 -3.8462818e-01
  1.8566135e-01
 -3.9959922e-01
  1.1067202e-01
 -2.9816704e-03
  5.1306326e-02
  9.7857118e-02
  1.5946718e-01
  3.6502996e-01
 -1.9283114e-01
  3.2402954e-01
  1.2323439e+00
 -2.1995960e-01
  2.5747020e-02
 -5.8162853e-02
  1.6695627e+00
 -1.0089638e-01
 -2.0672365e-01
 -5.6366926e-01
  3.2142556e-01
 -2.9168827e-02
  2.3320802e-01
 -1.3020812e-01
  4.7880927e-01
  1.0042838e-01
 -3.5416165e-01
 -1.7471166e-01
  2.5938541e-01
 -2.1504703e-01
 -4.6938905e-01
 -1.0360369e-01
  1.2160445e-01
  3.6257216e-01
 -9.4266757e-02
 -2.9963402e-03
  9.4988428e-02
  7.1123548e-02
  2.7848084e-02
 -5.3484780e-03
  1.3528546e+00
 -6.7392856e-02
 -6.0950053e-01
 -5.1234114e-01
 -4.5047992e-01
 -1.7301106e-01
 -3.2039174e-01
 -4.4340407e-03
  1.1546034e-01
 -3.3193907e-01
 -2.5918859e-01
 -1.4559370e-01
 -3.1415066e-01
 -1.0305321e+00
 -2.8009284e+00
 -2.7428508e-01
  3.1431055e-01
  2.7327636e-01
  3.5017867e-02
 -1.3131367e-01
  2.2776833e+00
 -4.6601483e-01
  3.2931592e+00
 -5.1438948e-04
  2.0684232e-01
  1.7036275e+00
  3.1357247e-01
  2.4254555e-01
 -6.5018481e-01
  4.5407653e-02
 -3.1644124e-01
 -5.5494928e-01
  1.0865133e+00
  6.6922814e-01
  2.3681062e-01
 -4.6315804e-01
 -7.9735726e-02
 -5.5704725e-01
  6.3733898e-02
  2.3130466e-01
  4.1505117e-02
  1.0913371e-01
 -2.1747325e-01
 -1.1001516e-02
 -8.1032768e-02
  8.3859420e-01
  1.3516726e+00
  5.8083332e-01
 -1.1404911e+00
 -4.5909035e-01
  1.2685315e-01
 -3.4729105e-01
 -1.0900874e+00
  4.0041971e-01
 -4.5497678e-02
 -6.7863755e-02
 -4.6045643e-01
  1.2193248e-01
 -3.4363067e-01
 -4.8171890e-01
 -1.5338184e-01
 -1.2077553e+00
 -9.3517005e-01
  7.2560638e-01
 -1.3262992e-01
 -6.4868629e-02
  2.6081300e-01
 -6.1512984e-02
  1.5765954e-02
  7.6674283e-02
  1.7044540e-01
  2.9864085e-01
  1.1600696e-02
 -5.6973174e-02
  3.2689461e-01
  4.0060371e-02
 -2.6669806e-02
  1.8246076e-01
  2.6068391e-02
 -2.2466540e-02
 -2.8107294e-01
 -1.2899016e+00
  6.1004688e-03
  3.7048307e-01
  8.9610808e-02
 -3.6717836e-02
 -2.9501599e-01
 -4.6130955e-01
 -1.1871990e-01
  3.5638582e-02
 -1.1708944e-02
 -7.4390829e-02
  1.2458924e-01
 -3.6017972e-01
 -6.5815276e-01
 -2.9671592e-01
  3.3838066e-01
 -1.5362844e-01
  7.8671113e-02
  5.1006179e-02
  4.2282045e-01
  4.0563866e-02
  6.1152693e-02
  2.7694142e-01
 -8.9008279e-02
  4.3419257e-02
 -1.0875258e-01
  8.0365494e-02
  3.2994155e-02
  1.4809778e-02
  5.4082292e-01
  4.2664155e-01
 -5.6935006e-01
  2.3080869e-01
  6.0577339e-01
  3.2586190e-01
 -1.6705027e+00
  6.5694965e-02
  1.7939104e-01
  1.0785096e-01
 -1.1790066e-01
  1.2035889e-01
 -2.1463895e-02
  8.4154594e-01
 -2.2657773e+00
 -3.3041421e-02
  1.6751537e-01
 -1.5455619e-01
 -3.4676614e-01
  8.6995929e-02
 -7.0318051e-02
  2.5250491e-01
 -1.6746829e-01
 -2.2050942e-01
 -2.5047725e-01
  2.1033560e-01
 -2.1839413e-01
 -3.1730852e-01
 -4.0128076e-01
 -2.1688826e-01
  1.6770150e-01
 -1.6811801e-01
 -6.5502457e-02
 -3.5026222e-01
 -3.6266083e-01
  9.0399887e-03
  6.5019943e-02
  2.8174430e-01
  5.1361166e-02
  1.1556388e-01
 -5.8831479e-02
 -1.2902547e-01
 -2.1704836e-02
  6.1680502e-01
 -1.1782302e-01
  5.9320130e-03
  5.7783723e-01
  8.2281500e-02
 -1.0254274e-01
  1.1240941e+00
  3.0300859e-02
 -1.1713595e+00
  7.7456839e-02
 -7.2244205e-02
  3.5829249e-01
 -1.1900609e+00
 -1.0891000e+00
  1.1071177e+00
  1.5985686e+00
 -3.8553217e-01
 -1.4345974e-01
  7.1648097e-01
 -5.7326097e-02
  1.3469372e+00
  4.6954882e-01
  3.7322855e-01
  1.1244818e+00
  2.0920369e-01
 -1.2665051e-02
 -5.8884668e-01
 -3.2343544e-02
  1.8957226e-01
  6.2383819e-01
 -3.7712052e-01
 -3.3761267e-02
  1.5730677e+00
  1.2825763e+00
 -3.9159212e-01
  4.8305637e-01
  3.8473982e-01
 -5.1296496e-01
  3.9804938e-01
 -1.0775775e+00
  1.9752477e-01
 -8.9220278e-02
 -4.8455082e-02
  2.6586372e-01
 -3.6252308e-01
  1.2887754e+00
 -1.3686844e+00
 -1.2559694e+00
  2.5392234e-01
 -6.0080034e-01
  8.1900872e-02
  4.1070965e-01
  4.5323482e-01
 -1.8590198e+00
  1.1016998e+00
 -8.4598148e-01
 -5.1469300e-02
 -4.1487712e-01
  1.4720996e-01
 -2.0368597e-01
 -1.2835859e-01
  3.0219910e-01
 -9.3461752e-02
  2.1582416e-01
 -2.0115528e-02
  5.5825863e-02
 -2.3494305e-01
  6.1133560e-02
 -4.7078054e-02
 -1.2812316e+00
  1.5442297e-01
 -1.8327585e+00
 -6.9492018e-01
  8.0214989e-01
  2.4841896e-01
 -4.0499142e-01
  4.7238138e-01
 -1.3450835e+00
  1.2225833e+00
  8.7146074e-01
  2.9534811e-01
 -1.4480808e+00
  9.4941884e-01
 -1.0831521e-01
 -2.1081507e+00
 -7.3662841e-01
 -2.1497573e-01
 -2.4355613e-01
  1.2205106e+00
  3.1261649e+00
 -6.1167568e-01
 -2.8922040e+00
 -1.5489078e+00
  3.2885430e+00
  9.3276903e-02
 -2.5199943e+00
 -1.9251527e-01
 -7.9465069e-02
  7.3808995e-03
  4.0593550e-01
 -4.8691005e-01
 -6.7429256e-01
 -3.1289055e+00
  1.8541147e-01
 -7.9658988e-04
  2.5634282e+00
 -8.4686778e-02
 -1.8823295e+00
  2.0072658e+00
  4.4802600e-01
 -4.8013687e-01
 -1.3709204e-01
 -2.0763004e+00
 -8.5729879e-01
  2.9835084e-01
 -1.1701661e-01
 -1.6725639e-01
  9.4267346e-02
 -1.1515431e-02
  4.4675976e-01
  2.5662923e+00
 -5.4320943e-01
 -3.1219980e-01
  3.8011351e-01
  3.4535165e+00
  1.0862998e+00
 -1.4048032e-01
  4.0108678e-01
 -3.8410890e-01
  2.3870590e-01
  1.0516585e+00
 -1.3233379e+00
 -2.1763577e-01
 -3.2593422e-02
 -3.2642025e-01
 -6.2721945e-02
  2.2689973e-01
 -9.0349704e-02
  6.6671401e-01
 -4.8180559e-01
 -2.0993975e-01
 -4.1549084e-01
 -2.1464162e-02
  1.4230982e-02
 -1.0001146e-01
 -7.1421713e-02
 -7.4776310e-01
 -2.2516955e-02
  4.0258548e-01
 -6.6831097e-02
 -8.6272974e-03
 -1.6524476e-01
 -3.8590157e-01
  1.0876103e-01
 -2.6514369e-01
 -1.7208599e+00
  5.2627343e-01
 -1.9913997e-01
  4.1956067e-02
 -1.8551193e-01
  3.6541599e-01
  2.7026811e-01
  1.5465288e+00
 -1.2322063e-02
 -1.5073192e-01
  5.4380971e-01
 -3.4346357e-01
 -1.3549757e-01
  4.2359203e-02
 -7.9919539e-02
  1.8076693e-01
  1.3745183e-01
 -2.4292865e-01
 -2.5280166e-01
 -1.5436174e-01
 -2.1947844e-02
 -1.1131824e-01
 -1.9631194e-01
  2.4190970e-01
  7.5845398e-02
 -1.0852841e+00
  2.6343352e-01
  4.6855342e-01
 -1.9170083e-02
  1.8123314e-01
  3.6873046e-02
  6.7260522e-01
 -2.0258990e-01
  2.7211258e-02
 -6.2102377e-02
  8.6099857e-01
  2.9193390e-02
  6.2553817e-01
 -1.0393035e-01
 -2.2348158e-02
 -6.5947926e-01
  1.2614992e-02
  2.7253267e-01
  5.4773506e-02
  2.9531717e-01
  4.3603349e-01
  4.7434744e-01
 -1.1311150e-01
 -5.4082274e-01
 -9.5251404e-02
  5.0176126e-01
  9.0508208e-02
 -1.4416376e-01
 -5.4627191e-02
 -3.2696202e-01
  1.4927565e-01
  3.5658279e-01
  4.4985929e-01
 -3.4176490e-01
 -8.0657750e-03
  5.4584426e-01
  2.1870805e-02
 -4.9283452e-02
  2.8277862e-01
  3.2420259e-02
 -8.3132967e-02
 -1.7959427e-02
 -2.0053683e-01
 -3.5331714e-01
  7.8643095e-01
  1.2686594e+00
  3.6355326e-01
  1.2579930e-01
 -7.2737589e-02
 -9.3394578e-01
 -2.6046547e-01
  6.1062269e-02
  1.4604592e-01
 -1.9946277e+00
  5.9436768e-02
 -3.1014514e-01
  9.6065813e-01
  1.9826919e+00
  1.3730469e-01
  4.2383224e-01
  5.0749028e-01
 -9.9161752e-02
 -2.8478088e-02
 -2.0119288e+00
  7.4590456e-01
 -1.4848357e-01
  2.3910189e-02
 -3.3203667e-01
 -2.4240226e-01
 -2.5322315e-01
 -1.0736575e+00
 -5.8168168e+00
 -1.8721011e+00
  2.5563753e-01
 -1.2706028e+00
 -1.4034398e-02
  1.7248417e-01
  8.9843601e-02
  8.3564806e-01
 -3.9868268e-01
 -1.2589273e+00
 -3.6233100e-01
 -5.1391002e-02
 -4.9455285e-01
 -9.6978396e-01
  5.9149340e-02
  3.9065313e-01
  6.6260564e-01
  1.9496282e+00
 -4.8603505e-01
  4.0473273e-01
  2.0707312e-01
 -3.6842838e-02
  2.0606761e-01
 -8.3098406e-01
  1.0680221e+00
  4.2210451e-01
  6.4027220e-02
 -1.1571138e+00
 -4.1001010e-01
  4.9745256e-01
 -2.1693280e-01
  9.2007488e-01
  4.5619315e-01
 -7.4917805e-01
 -4.9255380e-01
  2.1944246e-01
 -2.0402601e-01
  2.7257033e-02
  4.6935698e-01
 -4.3290172e-02
 -7.7053523e-01
 -1.0407074e-01
 -8.4610242e-01
 -2.1587825e-01
  1.4996238e-01
 -3.2588217e-01
 -1.5071316e-01
  1.4533525e+00
  2.7407336e-01
 -1.0935567e-01
  1.0407177e-01
  8.0532181e-01
  5.4784763e-01
 -1.3036536e-01
  4.3166316e-01
 -1.3205452e-02
 -1.8438362e-01
 -2.2034946e-01
 -4.8931058e-02
  2.6127078e-02
  9.9464357e-01
  3.9200246e-01
  1.3980980e-01
 -4.5257008e-01
 -3.8119474e-01
 -1.7028743e-01
  2.4900733e-01
  3.5420910e-02
 -1.5969799e-01
 -4.4796456e-02
 -3.9870329e-03
 -5.0667280e-01
 -2.0853348e-01
  1.8788673e-01
 -1.5856066e-01
 -2.6106274e-01
  1.3105447e+00
  1.1323056e-01
 -9.5435560e-02
  8.1682199e-01
  2.4840663e-01
  1.2563723e-01
 -6.0174990e-01
  3.9336342e-01
  2.7507612e-01
  2.6465872e-02
 -1.6111080e-01
  7.3636100e-02
 -2.2526090e-01
 -2.5962374e-01
  5.8368605e-01
 -3.2722038e-01
 -3.5029611e-01
 -1.7188269e-01
 -3.5847589e-01
 -6.1808564e-02
 -3.1417487e+00
 -1.5146174e-01
 -9.6029706e-02
 -3.2750741e-01
 -3.7006918e-01
  3.3856210e-01
  2.9137783e+00
  7.3188752e-01
  3.2823634e-01
  8.7609750e-01
  2.0185277e-01
 -6.2585510e-02
  9.4091028e-02
 -4.0784515e-02
  4.9115960e-03
 -1.6163635e-01
  2.9712957e-01
  4.1658767e-02
  5.8212835e-01
  9.3348093e-02
  3.7388512e-01
  4.9034712e-01
 -6.4123049e-02
  2.4431236e-01
 -2.9070646e-01
  5.4979973e-02
  4.5897201e-02
 -6.6631669e-03
  3.5082176e-01
 -6.4150816e-01
 -1.7690346e-01
 -9.1194190e-02
 -4.4960937e-01
  3.6993304e-01
 -7.6342869e-01
 -1.6497736e-01
  3.1028616e-01
  8.5388087e-02
 -4.2856175e-02
  7.5342871e-02
 -1.1332545e-01
 -3.2995707e-01
 -1.5372542e-01
 -4.4014312e-02
  3.4711668e-03
  3.6020944e-01
  7.1108526e-01
 -2.1698391e+00
  2.1172267e-01
 -1.4956191e-01
  2.1369122e-01
  4.4628408e-02
  1.3454747e-01
 -3.1207988e-01
  2.0403410e-01
  1.9203424e-01
  8.7645397e-02
 -2.5511128e-01
 -5.6055301e-01
  2.1951482e-01
  4.7004285e-01
  7.1874477e-02
  4.1759247e-01
  4.7897458e-01
  3.3454311e+00
 -5.5699933e-01
 -1.7493051e-02
 -1.2984382e-01
  1.8624777e+00
  4.1347384e-02
 -7.1211499e-01
  1.8880765e-01
  9.0247229e-02
 -4.2374168e-02
  2.6864406e-01
  5.8721548e-01
  2.4895590e-02
 -5.0047502e-02
 -3.5328263e-01
  5.5937213e-01
 -1.6900067e-01
 -3.2202712e-01
  1.1474343e-01
  3.1439266e-01
  3.1989339e-01
  9.9991588e-03
  7.9304695e-02
  2.0862225e-01
  1.2983555e-01
  7.2252756e-01
  1.2969901e-01
 -4.2123348e-01
  1.6221318e-01
  3.3674575e-02
  1.6598853e-01
 -2.3945020e-01
 -5.8612596e-02
  2.5967675e-01
  1.3526556e+00
  1.2301492e-01
  3.8403895e-01
  1.1851904e-03
  2.7035874e-01
 -4.3767806e-02
  4.7213498e-01
  5.4079115e-02
 -2.7622935e-01
 -1.6258508e-01
 -3.5408333e-01
  1.7943364e-01
 -4.5259503e-01
 -6.7573398e-02
 -7.2282203e-02
 -1.1925970e+00
  1.8315893e-01
 -1.5454471e-01
  1.4108229e-01
 -6.7771390e-02
 -3.5229415e-01
 -3.1651002e-01
  3.5108015e-01
  8.7767297e-01
  3.9202332e-01
  4.3636587e-02
  3.2647574e-01
  9.0850778e-02
  2.0865801e-01
 -6.7633718e-02
  6.8422288e-02
  5.7693541e-01
  1.5772185e-01
  1.4930116e-01
 -2.6626898e-02
 -1.4980335e+00
  1.5837045e-02
  2.3724814e-01
 -6.5052944e-01
  4.7849628e-01
  1.3903525e+00
  1.7696488e-01
  6.1645097e-01
  2.0758119e-01
  4.4328636e-01
 -5.7052666e-01
 -1.2240440e+00
 -7.5117832e-01
  2.0457922e-01
  8.8227683e-01
 -2.1801896e-02
 -1.7523772e-01
  5.5668557e-01
  1.5348418e-01
 -8.9353241e-02
  3.0143514e-01
 -1.7888635e-01
  1.2932013e-01
  1.3967380e-01
 -1.0229697e-01
  5.6227291e-01
  9.5197849e-02
  6.9309704e-02
  3.6194536e-01
  1.5033582e-01
 -6.5451123e-02
 -1.1939843e-01
  6.3338840e-01
 -8.9485043e-01
  1.7859167e-01
 -2.6731718e-01
  3.1352844e-02
 -3.2601959e-01
  9.6020624e-02
 -1.9916083e-01
 -3.9947100e-02
  1.7741682e-04
  7.4072146e-01
  1.7789778e-01
  2.4024734e-02
 -8.6771005e-01
  4.5487773e-02
  8.0796741e-02
  3.3078346e-01
 -1.7071438e+00
  4.0542844e-01
 -5.2719992e-01
  1.3346753e-01
 -3.9483178e-02
  4.2334337e-02
 -3.3237368e-02
  1.2405206e-01
 -3.2740481e-02
 -1.5183845e-01
  2.3009922e-02
 -1.7577347e-01
 -7.0709996e-02
 -3.4704901e-02
 -3.0388516e-01
 -6.0058180e-03
 -9.6703447e-02
 -6.0731739e-01
  3.5563629e+00
 -1.4337977e+00
 -6.9191732e-04
 -1.3808519e-01
  2.3128402e-01
  7.1959388e-01
  1.5906464e+00
 -1.6222225e-01
 -3.5658188e-02
 -1.9865158e-01
 -4.0317908e-01
  7.6660931e-01
 -5.2454346e-01
  6.0709929e-01
  1.9027187e-02
 -5.9896970e-01
  1.9013530e+00
  1.9714282e-01
 -5.7619464e-01
 -3.5034548e-02
 -8.4348194e-02
 -5.7915663e-03
  1.1496594e+00
  5.4544117e-02
 -3.5807830e-01
 -2.2342128e-01
 -6.1115693e-02
 -5.4328889e-01
 -8.2344204e-02
 -1.6111216e-02
 -1.7730264e-02
 -4.4483498e-01
  1.0969962e-01
 -3.3422478e-02
  1.0011114e-01
  4.4917428e-01
 -1.1474051e-01
  1.7611186e-01
 -7.1199822e-01
 -6.8566106e-02
 -2.2973441e-01
  4.2427108e-02
  1.3568926e-01
  3.3382788e-01
 -3.9441630e-02
  5.6346309e-01
 -2.9728198e-02
  7.5532034e-02
  4.9356866e-01
 -3.8380481e-02
  5.4485876e-02
 -3.1488705e-01
  1.3691957e-01
 -5.1226026e-01
 -2.8732553e-01
 -2.7241749e-01
 -5.1724738e-01
 -2.4910708e-01
 -4.5288503e-01
 -4.8933747e-01
  5.6505516e-02
 -4.7332177e-01
  2.6878223e-01
  3.6219239e-01
  9.5397364e-03
  4.0441570e-01
  1.1282692e+00
  7.9673596e-02
  2.0013365e-01
  3.1249976e-01
 -5.3397238e-02
  3.0210248e-01
 -5.6651928e-02
  5.2477521e-01
  1.2599568e-01
  4.8021924e-01
 -1.9833335e-01
  1.9989883e+00
  3.2543004e-01
 -8.3696924e-02
 -3.1435820e-01
 -5.1096544e-02
 -2.4143094e-02
 -6.5870956e-03
 -3.5137507e-01
  7.2955543e-01
  8.1304270e-01
 -3.7845156e-01
  1.3723707e+00
  1.6024080e-01
  4.3482259e-02
  1.8799320e-01
  3.2013498e-02
  1.2036821e-01
  1.5395594e-01
  4.5903277e-02
  4.7674123e-02
  6.2198544e-01
 -5.6571353e-02
 -3.1396064e-01
  1.5964396e-01
 -5.2100068e-01
 -5.6189984e-01
 -7.5392145e-01
  8.4164482e-01
 -6.1239343e-02
  1.6511565e-01
  6.4492583e-01
 -1.7499439e+00
  8.1348729e-01
  1.3627504e-01
 -7.5527227e-01
  4.2741492e-01
  1.1941724e+00
 -2.9064242e-02
 -1.8891299e-01
  2.2307660e-01
  4.0201849e-01
  3.2015151e-01
  2.5641137e-01
 -8.7844729e-01
 -3.1492970e+00
 -2.2967170e-01
 -5.3875482e-01
 -2.1129982e-01
  2.5541279e+00
  1.4455132e-01
 -1.6886574e-01
  1.1211869e+00
 -5.8655158e-02
 -5.0457585e-01
 -3.5644504e-01
 -1.9410660e-02
  4.9177811e-01
  2.1230131e-02
  3.5088295e-01
 -1.8340460e+00
 -1.0292411e-01
 -1.2583597e-01
 -3.2852495e-01
  1.9409832e-02
  2.6832986e-01
  5.6655809e-02
 -3.6395758e-01
  1.3286714e-01
  3.8751028e-02
  2.4884082e-02
  1.8623302e-02
  3.3917892e-01
  3.1087664e-01
  1.2778850e-02
  3.4769484e-01
 -1.2701569e-02
  1.9885634e-01
 -1.9405695e-02
  2.1243567e-02
 -6.0977641e-02
  5.3752869e-01
  1.2584053e+00
  2.3575610e-02
 -1.1218341e-02
 -4.4914126e-01
  5.4898906e-02
  3.6435133e-01
 -3.4682861e-01
 -2.5829988e-02
  1.9308608e-02
 -5.3666014e-02
  1.0581768e-01
  2.2383442e-02
  2.0472555e+00
  2.2455615e-01
 -1.5348099e+00
  7.0944345e-01
  1.7827831e-01
  2.1529678e-01
 -8.2416296e-01
  9.4149314e-02
 -1.9087899e+00
 -1.1250018e-02
 -6.2459717e-03
  5.1466602e-01
  1.4970207e-01
  8.2690530e-02
 -1.1255188e+00
  4.8533833e-01
 -3.3255896e-01
  1.5833557e-01
 -7.4903436e-02
 -6.6340119e-01
  1.2932645e-01
  3.0826280e-01
 -7.4915901e-02
  5.4067422e-02
 -1.1098053e-01
  5.9736852e-02
  2.5485000e-01
 -8.9066380e-01
 -3.7001088e-02
  8.5549307e-01
  7.5779057e-01
  1.9380543e-02
  9.2235959e-01
  5.9988528e-01
  1.8460584e-01
 -1.6111644e-01
 -8.7523989e-02
 -1.9850565e-02
 -3.8675331e-02
 -1.3223197e-01
  5.6803089e-02
  9.6776807e-01
  1.7688534e-01
  5.2180495e-02
 -2.7095813e-01
  8.1902750e-02
 -2.6292634e-01
 -1.1786658e+00
 -2.5769028e-01
  4.6021450e-01
  9.0372729e-01
  2.6922772e-02
  3.6222991e-02
  3.8121436e-02
 -5.3139377e-01
  1.1744051e-01
 -2.4051182e-01
 -9.8477811e-02
  1.4960977e-01
 -5.2147645e-01
  2.4441484e-01
 -7.8033425e-02
 -1.4708645e+00
  4.5861614e-01
  2.7426991e-01
 -5.1413190e-01
  8.2808338e-02
 -5.3347802e-01
 -2.2852153e-01
 -1.1859266e-01
 -2.8800595e-01
 -5.3524458e-01
  6.8533963e-01
  2.8933230e-01
 -4.3593335e-01
  8.2574956e-02
  1.0661669e+00
 -1.0750853e+00
 -2.1174622e+00
 -5.0391829e-01
  3.0054269e+00
  2.6404530e-01
 -5.3541297e-01
 -2.8831890e-01
  4.0927482e-01
 -9.9879704e-02
 -3.7259230e-01
  2.5060779e-01
 -3.6303169e-01
  4.0794441e-01
 -1.5491411e-01
 -2.0098817e-01
  6.8881547e-01
  9.0898305e-01
  2.0792893e-01
 -3.7730593e-02
 -9.0384245e-01
  2.5729117e-01
 -1.6456203e-01
 -9.4234802e-02
 -7.8704393e-01
  2.9900539e-01
 -6.2928480e-01
  1.4737472e-01
 -2.0682761e-01
 -2.0523216e-01
  1.0039722e+00
  1.4803243e-01
  1.6833155e-01
  4.2465482e-02
  4.8704189e-01
  4.1393962e+00
  2.7248093e-01
 -2.7923392e-02
 -5.1445884e-01
  1.0709377e-01
  2.1195270e-01
 -2.1954252e-01
  1.4993529e-01
  3.5136789e-01
  5.1321626e-01
 -4.4027680e-01
 -3.2330275e-02
 -8.9378031e-03
  2.7728477e-01
 -1.8629996e-02
 -2.0316511e-03
  4.1650134e-01
  7.4167222e-02
 -1.4786273e-01
 -8.8037270e-01
  8.7258697e-01
  2.6694715e+00
  4.0736055e-01
  7.7591473e-01
 -5.4236371e-02
  2.2990523e-01
 -3.3718461e-01
  1.2673372e-01
  3.5692599e-01
  2.5286314e-01
  1.1275519e-01
  4.3626055e-01
  2.0366292e-02
  7.5106077e-02
 -7.8301743e-02
 -1.8960297e-01
 -2.6758331e-01
 -5.3009468e-01
 -3.2571092e-01
 -2.8496232e-02
 -1.8633847e-01
  1.3741173e-02
  5.2568089e-02
  2.2412398e-01
 -1.6675638e-01
  6.5397128e-02
  1.1892628e-01
  7.4324101e-02
  5.9761342e-02
 -3.0462220e-02
 -2.2124615e-01
 -3.8373235e-01
  1.3941563e+00
  2.0959097e-01
 -2.2181115e-01
  2.1057528e-01
  2.2889437e-01
 -1.5168676e+00
 -4.8045674e-01
  1.0988122e-01
  1.5624822e+00
  1.3085039e-01
 -9.2389241e-02
  2.8222805e-01
 -8.7607151e-01
  3.4041431e-02
 -3.6106849e-01
 -1.1574312e-01
  7.6200950e-01
 -2.8519366e+00
  5.8988035e-01
 -9.1927499e-01
 -2.8340077e+00
 -1.4057558e+00
  5.1861763e-02
 -2.6581103e-01
 -1.8061513e-01
 -1.3330911e+00
  5.4304355e-01
 -1.2327516e+00
 -1.2264230e+00
 -1.3937427e-02
  6.6882432e-02
  3.6075577e-01
  3.6618200e-01
  4.6182966e-01
 -6.4152437e-01
 -2.4492918e-01
 -1.0200565e+00
  4.5518345e-01
 -2.6701254e-01
  8.5359151e-03
 -4.3218023e-01
  6.8298817e-01
  2.7322628e-02
 -4.4575214e-02
  9.8754591e-01
 -7.4066526e-01
 -1.6707848e-01
 -2.5143883e-01
 -3.0875742e-01
 -6.3449150e-01
  2.5278139e+00
 -4.0021956e-02
  7.8369188e-01
  6.4977908e-01
  1.0817433e-01
  3.0889776e-01
 -8.6225253e-01
 -8.0869235e-03
 -2.6986492e-01
  1.9820236e+00
  9.0278804e-02
  4.0267780e-02
  4.3935934e-01
  1.1047231e+00
 -1.4394675e-01
 -3.5777503e-01
  9.0114772e-01
  8.5086666e-02
 -7.2113857e-02
  3.5418286e+00
 -2.8689957e-01
 -1.3326423e-01
  1.5755329e-01
  5.4411612e-02
  4.9473152e-01
  4.0782681e-01
  3.3079299e-01
  8.2518047e-01
 -4.7651055e-01
  2.7282304e-01
  8.0734533e-01
  2.1270504e+00
  1.0840439e+00
  3.4140086e-01
  2.1646692e-01
  7.1727407e-01
 -3.3568195e-01
  3.6027664e-01
 -4.3604997e-01
 -8.2133271e-02
 -2.7766100e-01
 -2.6426503e-01
 -1.2941281e-01
  2.8602036e-02
 -1.5388992e-02
 -1.5647908e-01
 -5.6188101e-01
  8.8165244e-03
 -5.2477944e-01
  1.1177668e-02
  1.6993359e-01
  3.0410686e-01
 -3.2724112e-01
 -6.6790491e-02
  6.4788055e-01
  3.6804795e-01
  1.8764754e-01
  7.6345265e-01
  1.5637584e-01
  2.6758972e-01
 -1.8693848e-01
 -1.1606368e-01
  1.7585665e-01
  5.2798513e-02
  2.2674623e-01
  1.1773241e-01
 -2.0128129e-01
  1.4763854e+00
 -1.5099595e+00
 -8.4577835e-01
 -8.2075655e-02
  3.3484453e-01
 -4.7918066e-01
  1.9123204e-01
  1.6992633e-01
 -1.6786712e-01
 -1.0462487e-01
 -9.0874726e-01
  3.0248566e+00
  1.6820438e+00
 -3.8989534e+00
  4.7947907e-01
 -1.5314882e+00
  7.2454268e-01
  4.4136577e+00
 -1.2445174e+00
  4.2107269e-01
  6.2195188e-01
  2.5838139e+00
  3.2029483e+00
  1.5238889e+00
 -7.6109058e-01
 -7.5104654e-01
  1.4488193e+00
  1.1889001e+00
 -2.3638593e-01
  4.3141742e+00
 -1.1466008e-01
 -1.1123061e-01
  1.7412437e+00
  1.5310751e+00
  1.4616875e-01
 -9.8977694e-03
 -6.6146439e-01
 -1.7070407e+00
  5.0385261e-01
  8.4414417e-01
 -8.2272314e-02
  6.0269091e-02
 -3.5303125e-01
 -4.9211097e-01
  4.4254318e-01
  5.1612053e-02
 -8.0078244e-01
 -5.1706396e-02
  4.3262962e-01
 -3.2884810e+00
 -2.5467518e-01
  6.3298905e-01
  4.2162073e-01
  1.7980528e+00
  4.5925234e-02
 -1.9008482e-01
  7.7860348e-02
 -3.5699707e-01
  6.4662211e-02
 -1.3041079e-01
 -3.4652543e-01
 -4.3628094e-01
  1.8761845e-01
 -7.4219801e-02
  2.6796526e-01
 -1.2911245e-01
 -4.4498231e-02
  3.2769024e-01
 -7.8772616e-01
  4.3186140e-03
  3.3745389e-02
 -1.8425289e-01
 -5.2186972e-01
  2.4938716e-02
 -9.9800432e-01
 -3.9749208e-01
  6.7478287e-01
  1.7310848e-02
  8.1444643e-02
  1.8078953e-01
 -3.5186268e-02
  2.2313735e-02
 -7.7276364e-02
  4.0715289e-01
  7.2914451e-01
  2.0410681e-01
 -6.2130225e-01
 -1.9196597e-01
 -4.7660340e-02
 -2.2538500e+00
 -8.8711262e-02
 -5.6448197e-01
 -2.6366666e-01
 -5.7999909e-01
 -2.6939979e-01
 -2.9247057e-01
  3.1983227e-01
  2.9347569e-01
  6.0574263e-01
 -3.0517092e-02
  5.4155033e-02
 -3.9938581e-01
  2.5616128e-02
  4.9840868e-02
  7.3321119e-02
 -2.9239476e-01
  4.5067161e-02
  6.5896529e-01
 -3.2886259e-02
  3.4481785e-01
 -7.8791219e-01
  2.9055130e-01
 -9.1962099e-02
  4.9195237e-02
 -2.6398641e-01
 -7.9549976e-02
 -3.6321652e-01
 -1.2480133e-01
 -2.7345568e-01
  5.1011646e-01
 -4.3590624e-02
  7.6168686e-01
 -3.6790669e-01
 -4.1253334e-03
  1.0185867e-01
  3.3973661e-01
  1.2415837e-01
  1.5344575e-01
  7.1881878e-01
 -1.7769621e-01
 -2.1204361e-01
  1.0937240e+00
  1.3405617e+00
  1.4275680e-01
  1.1575511e-01
 -2.5135541e-01
  1.0413802e+00
  3.5688558e-01
  8.3681709e-01
  2.4054354e-01
  4.0353820e-01
  1.0283334e+00
 -5.0576073e-01
 -2.5862759e-02
 -7.1085021e-03
 -5.2240384e-01
  9.1959536e-02
  1.7627944e-01
 -1.2138439e+00
 -6.6132806e-02
  3.5221420e-02
  2.0658377e-01
 -1.6851442e-01
 -3.6632746e-01
  1.3993506e-01
 -1.5501477e-01
 -1.4725365e-01
 -1.1736327e-01
 -8.2071674e-01
 -2.5576958e-01
 -1.1441879e-02
  7.1255624e-01
  1.1849266e-01
 -2.8144237e-01
  2.7347082e-01
  6.4434558e-01
 -7.2895777e-01
  3.0825001e-01
  2.6310548e-01
  2.4822052e-01
  1.4908099e-01
 -4.0863740e-01
  4.0577356e-02
 -1.5830117e-01
  4.5574737e-01
