nep4 4 Ag Ga C N 
cutoff 9 6 153 52
n_max 10 8
basis_size 10 8
l_max 4 2 0
ANN 50 0
 -1.1506575e+00
  3.0745399e-01
 -1.4470442e-01
 -1.1806384e+00
 -8.0172181e-02
 -2.6986313e-01
 -3.0955535e-01
 -2.7693042e-01
 -5.9439093e-01
 -1.8895467e-01
  8.6112815e-01
 -1.6845317e-03
  1.9818920e+00
  1.5988098e+00
 -1.5968997e+00
 -3.2503288e+00
  5.7395741e-02
  1.0147194e+00
 -1.5882297e-01
 -2.4515770e-01
  2.2998469e+00
 -8.7341321e-01
  1.1726639e+00
  5.8134246e-01
 -8.6969689e-02
 -4.5961313e-02
 -3.3705890e-02
  1.0531710e+00
  2.7490398e-01
 -5.0674540e-01
  2.4783289e+00
  2.7443627e-01
  1.9448452e-01
  9.9920338e-01
  1.1782912e+00
 -3.3070800e+00
 -3.4173611e-01
  1.5712347e+00
  5.2995867e-01
  3.4455218e+00
  1.0844747e-03
 -1.2961237e-01
 -7.4572200e-01
  1.2515044e+00
  1.5774715e-01
  8.4494211e-02
  5.1293518e-02
 -1.0501208e-01
 -6.5374672e-02
 -5.7080275e-01
 -3.1481075e-01
  4.2581350e-02
  9.3001105e-02
  1.9656191e+00
 -2.3043607e-01
 -2.0595618e-01
  6.8623811e-01
  2.7257091e-01
 -2.8733870e-01
 -2.8377678e-03
  4.2394463e-02
 -5.9940165e-01
  2.5525989e-02
  1.3837934e+00
  1.1234143e+00
  1.5164472e+00
 -2.2624573e-01
 -2.5172976e-01
 -3.9145172e-01
  1.5653957e-02
 -7.3210403e-02
 -7.6761961e-02
 -1.8695265e-01
 -2.8485093e-01
 -5.6712985e-02
 -4.1302478e-01
  4.6957451e-01
 -4.4702205e-01
 -4.2676666e-01
 -4.0996194e-02
 -4.3212213e-02
 -3.5834941e-01
 -2.9856792e-01
  7.1568377e-02
 -4.2115706e-01
  5.7533658e-01
 -4.5194265e-02
 -9.2256339e-03
 -9.0108022e-02
  1.5613216e-01
 -7.3486900e-01
 -3.3311599e-01
 -1.2522975e-02
 -1.9213504e+00
 -3.2568911e-01
 -2.8509456e-01
  2.3360634e-02
 -3.1082782e-01
  2.2124532e-01
 -7.6903224e-01
  5.3407073e-01
 -9.7059738e-03
  1.0305134e-02
 -7.1908212e-01
 -4.8612875e-01
 -2.5526931e+00
  1.8070108e-01
  2.9698905e-01
  8.7889701e-02
  1.0318104e-01
 -2.7113691e-02
  4.5832153e-02
 -3.7591368e-01
  5.6044573e-01
 -3.8041558e-02
  1.0775620e+00
  3.9720204e-02
  1.2261013e+00
 -3.7875000e-01
  5.2499794e-03
 -6.2210673e-01
  3.7882544e-02
 -1.7847420e+00
 -3.0880809e-01
 -2.1152113e-01
  6.6228765e-01
  5.1270401e-01
  2.8039720e-02
  2.5025518e+00
  1.0893998e-01
  4.9038462e-02
  1.3080163e-01
 -6.6733050e-01
 -1.5118122e-01
 -5.8445737e-02
  4.0885890e-01
 -2.4749801e-01
  4.0259108e-01
 -3.1325066e-01
 -6.4506537e-01
  2.0323530e-01
  4.2271104e-01
  7.9187793e-01
  2.2543393e-01
  2.8443637e-01
 -2.0756640e+00
 -3.5070837e-02
 -8.3399981e-01
  1.9505222e-01
 -3.4134588e-01
 -4.6670896e-01
  2.3313774e-01
  1.3706686e+00
  2.1614178e-01
  2.5291576e-03
  2.5923969e-02
  4.0759292e-01
 -2.5943062e-01
  3.8376362e-03
 -1.5662273e+00
  1.0155537e-01
 -3.2279137e-01
  3.3057347e-01
 -2.8028521e-01
  2.0507023e-01
 -2.8726524e-01
 -6.9992252e-02
 -2.3252943e-01
 -2.3761518e-01
 -3.6522780e-02
 -6.9340289e-02
 -4.9885821e-02
 -1.2298563e-01
  7.7593249e-01
  3.2530963e-01
 -2.3707716e+00
  1.3166007e-01
 -5.7914960e-01
 -1.8283906e+00
  1.9538082e+00
 -4.4320144e-02
 -1.8933313e-01
  6.8134196e-02
 -9.9961698e-02
 -1.2065899e-01
  1.3127942e-01
 -1.4308600e-01
 -2.4604045e-01
  1.1838759e-01
  3.5606381e-01
  3.0415145e-01
  5.4527115e-02
 -1.2717777e-01
  3.1439478e+00
 -4.6772680e-01
  4.7831219e-02
 -7.6242471e-01
  4.1612172e-01
  5.0421041e-02
  1.7595820e-01
 -3.3915421e-01
 -4.9243930e-01
  7.0827827e-03
  1.0291541e+00
 -7.2430208e-02
  9.6782434e-01
  2.1703333e-01
  1.2905408e-02
 -3.2253963e-01
 -6.3394032e-02
  1.0961293e-01
  7.5159484e-01
  1.2149273e-02
 -6.5301657e-01
 -2.8769249e-01
 -4.8414397e-01
 -4.6632826e-01
  3.3823635e-02
  2.4339421e-01
 -1.1369044e-01
  4.3699916e-02
 -4.0966132e-01
 -2.3235343e-03
 -1.0475332e-01
 -2.2265553e-01
  3.2586724e-01
  1.6305110e-01
  1.9057430e-01
  6.1695522e-01
  8.8440597e-02
  9.2090487e-02
 -1.2533648e-01
  1.4019489e-02
  4.1390963e-02
 -3.9038411e-01
 -1.6602439e-01
 -2.9614839e-01
 -1.4999245e-01
 -6.3504344e-01
  1.0166391e+00
 -2.8638956e-01
 -3.4307620e-01
  8.2886249e-02
 -1.6267696e-01
  6.4644617e-01
  3.6503854e-01
 -4.5642436e-02
  1.2068553e-01
  1.6007027e-01
 -9.2118718e-02
  1.0890411e-01
 -2.8095710e-01
  1.0381764e+00
 -5.8845788e-02
 -1.0890948e+00
  2.4490219e-01
  1.0889266e-01
  2.1050031e-01
 -1.4684595e+00
  2.4261037e-01
  9.6591182e-02
 -7.8870952e-02
  2.5588508e+00
  1.4399751e-01
 -5.7824038e-02
  3.1059766e-01
 -3.2939312e-01
 -1.7122267e+00
  6.0972637e-01
  3.7363729e-01
 -6.0226917e-02
 -1.5976635e-01
  3.6651421e-01
  1.2228617e-01
  9.6934944e-01
 -1.9489883e+00
  2.8921090e-04
  3.8072026e-01
 -5.0673622e-01
 -2.9157352e-01
 -4.7128507e-01
  5.8996540e-01
 -3.4937960e-01
 -1.4784908e-01
 -6.1838377e-01
 -1.2116960e+00
  1.5451750e+00
 -9.5133774e-02
 -6.8170452e-01
  2.7847776e-01
  6.0631412e-01
  1.0843512e-01
  1.1013578e-01
 -3.4635416e-01
  1.4762953e-01
 -1.2223227e-01
  8.5207516e-01
 -2.0095450e-01
 -3.3836573e-02
 -7.1144062e-01
  5.2560729e-01
 -5.7110667e-01
  2.6960665e-01
 -8.5990262e-01
 -2.8209686e-01
  7.4086535e-01
 -1.4618156e-02
  2.2886445e-01
 -2.0170288e+00
  4.2482592e-02
  4.1630685e-02
 -7.3695624e-01
  1.7819911e-02
 -4.0884602e-01
 -7.1581095e-01
  3.9179954e-01
  1.9573067e-01
  7.0837992e-01
  2.0204708e-01
 -2.1581907e-02
 -5.6288415e-01
 -2.5882840e-01
  3.2245535e-01
 -2.8108141e-01
 -8.7045804e-02
 -1.3132408e-01
  3.2592226e-02
  1.6802134e-01
 -1.7693068e-01
 -4.8334859e-02
 -2.2759817e+00
 -9.9627537e-01
 -2.8279164e-01
  1.0523666e-01
  4.0783864e-01
  5.9459859e-01
  2.1390483e-02
  5.9225759e-03
 -1.1743678e+00
 -4.2022425e-01
  3.1564970e-02
  3.6316797e-01
 -2.0679772e-01
  1.3831536e+00
 -6.4935434e-01
 -6.8727970e-01
  1.0553952e-01
 -4.9245097e-02
 -6.7740858e-01
  1.0043733e+00
 -1.7656362e+00
  2.5842643e-01
  1.5320418e+00
 -6.2974882e-01
 -3.1056669e-01
  1.8631369e-01
 -9.3174314e-01
  2.7561156e-02
 -9.5254278e-01
 -1.4152093e-01
 -4.5956251e-01
 -9.3388802e-01
  6.9459313e-01
  8.9791574e-02
 -5.0722126e-02
  9.0744531e-01
  4.6123964e-01
 -1.4820567e-01
 -3.9932343e-01
 -1.8778589e-01
 -7.2760195e-01
  9.3166256e-01
  8.8015300e-01
 -2.6085722e-01
  2.3517612e-01
 -1.4042790e+00
  3.2212790e-02
 -6.3574833e-01
 -4.9836186e-01
 -1.8305387e-01
 -3.9760578e-01
  1.0709970e+00
 -6.2440413e-01
  3.3588061e-01
  1.2769760e-01
  7.3685594e-02
 -5.5044994e-02
  8.8171385e-02
  1.3191020e-01
 -9.9710949e-02
  2.2896886e-01
  2.2179560e-01
 -1.6838232e+00
  2.7213925e-01
 -1.0287555e+00
 -9.5224962e-02
 -1.0377563e+00
 -4.7771987e-01
 -2.7546191e-01
  4.3807611e-01
  1.0762697e-01
 -1.1679354e+00
 -1.4295946e+00
 -5.4210198e-01
 -4.0842152e-01
  2.5067676e-02
 -6.9297457e-01
 -1.7344920e-03
  3.5104492e-01
 -6.6266578e-01
  4.7198159e-01
 -3.9242080e-01
 -1.3170655e+00
 -6.4483732e-01
  4.7452521e-01
  1.1423473e+00
 -5.2084458e-01
 -7.5942777e-02
 -5.9247345e-01
 -2.4177065e-01
  5.0251096e-02
 -4.3921735e-02
  1.0384314e+00
 -2.9776232e-02
  4.2347571e-01
  2.7264091e-01
  4.3595031e-01
  7.6705152e-01
  4.8752865e-01
  5.3587502e-01
 -1.3756517e+00
  1.3782893e+00
 -6.1594442e-02
 -1.1605187e-01
 -8.9330107e-01
  7.8365773e-01
  2.0681879e-02
  6.7548444e-03
  1.9363043e-01
 -1.1789390e-01
  9.4322108e-02
  9.8233931e-02
 -1.0648163e-01
  7.1860766e-01
  6.2508714e-01
  1.0661559e+00
  1.1831467e+00
  2.0032361e-01
  5.3358506e-02
  3.8243949e-01
 -4.9961972e+00
 -7.0415324e-01
  1.6699974e-01
 -3.4567199e+00
 -6.3136309e-01
  2.4041198e-02
  1.7664991e-01
 -2.2542450e+00
 -1.4035406e+00
  4.6755243e-02
 -1.8173552e-01
 -3.9950767e-01
 -2.6476151e-01
 -6.5010101e-02
 -2.6961333e-01
 -5.4681790e-01
 -3.7303284e-01
  3.7943837e-01
  1.2346590e-01
 -4.5560858e-01
 -2.5519894e-02
 -2.2121821e-01
 -4.6155024e-02
 -6.9161999e-01
 -1.2335910e-01
 -1.0609656e-01
 -3.5725322e-02
 -3.2942057e-02
  1.7705847e-01
  8.9174099e-02
  8.9678250e-02
 -1.1835445e-01
 -6.6740694e-03
  6.5863438e-02
  1.7372914e-01
  4.4728559e-01
 -7.1766876e-02
  8.4693305e-02
 -5.8312193e-02
  3.2977298e-02
  5.3669459e-01
 -2.9637778e-01
 -6.3727401e-02
  2.8406281e-02
  9.4994761e-02
  2.0001903e-01
 -6.4985402e-02
  3.0803321e-02
 -1.9237624e+00
  8.2694255e-03
 -3.9498600e-01
  1.2190070e+00
 -3.2769015e-01
 -3.7607208e-01
  1.2424605e+00
  1.4222195e+00
 -5.4802310e-01
 -8.1630152e-01
 -1.5705490e+00
  2.3710422e-01
  1.9705275e+00
 -3.3442307e-02
  1.5925653e+00
 -2.9534176e-01
 -3.1203959e-02
 -8.6675972e-01
 -1.2824662e+00
 -1.1782578e+00
  2.6496923e+00
 -1.4695516e+00
 -1.2784083e-01
 -3.4371672e+00
  5.0374115e-01
 -2.3035608e-01
  2.9474056e+00
 -2.2147651e+00
  5.4267395e-01
  8.7830800e-01
 -2.3133295e+00
  1.6698960e-02
  2.2208796e+00
  4.6395999e-01
 -7.4155307e-01
  9.2971605e-01
 -1.4602453e+00
 -2.2321798e-02
 -3.4159232e-02
  5.8374101e-01
 -1.0996799e+00
 -3.0993331e-02
 -3.6496723e-01
 -6.2015063e-01
 -8.8540085e-02
  7.9334062e-01
 -6.2502211e-01
 -5.5332042e-02
  1.7694770e-01
  1.8464515e-01
 -3.7589242e+00
 -1.7892275e-02
 -2.8329036e-01
  1.4385000e+00
 -2.3894699e-02
 -1.0959209e-01
 -3.6518580e-01
  4.0118504e-01
 -4.6857798e-01
  2.5607949e-01
 -2.5392601e-01
  3.8390565e-01
 -4.0208776e-02
  1.5537096e+00
  1.4686023e-01
  4.9163446e+00
 -3.9627332e-02
  1.5822585e-01
 -1.1567680e-01
 -7.9852276e-02
  2.8265905e-01
  7.8876986e-04
 -2.7518404e+00
 -4.9852185e-02
  1.6136581e+00
  9.2439556e-01
  1.7858094e-01
  1.0036355e-01
  6.2915608e-02
  2.3501126e-01
  7.8738660e-02
  2.3092590e-01
  2.0233014e-01
  1.7134180e-02
 -1.6012217e-01
  2.2176941e-01
 -2.0419008e-01
 -8.7794793e-01
 -1.3839601e-01
  8.8675015e-02
 -6.9519773e-02
 -2.7451742e-01
 -2.2983636e-01
 -1.1964058e+00
 -2.8428819e+00
 -7.5716786e-03
 -9.7049214e-02
  1.8797245e-02
  1.0671522e-02
  2.1380784e-03
 -2.4358046e-01
  4.2572889e-01
  7.8850704e-01
 -7.7383792e-01
  1.6634162e-01
 -8.6278841e-02
  2.5530497e-02
 -2.4387546e-01
  3.3116615e-01
  1.7568493e-01
 -9.1276884e-02
  3.3882529e-02
  1.3939860e-01
  8.0019586e-02
  2.5398406e-01
 -4.7533557e-01
  2.9435956e-01
 -1.1989684e+00
  2.0457573e+00
 -1.2429985e+00
 -8.1292786e-02
 -7.4056506e-01
  1.2906033e-02
  2.1264301e-01
  1.2965852e+00
  5.6281678e-02
  8.0221504e-01
  3.4467894e-01
 -2.8993571e-01
 -4.5873687e-02
 -1.8474399e-01
 -9.6881934e-02
  1.9266602e+00
  7.1345575e-02
  1.3052272e-02
 -5.7282126e-01
 -3.3722904e-02
  7.4404031e-01
  9.9663955e-01
 -3.3746165e-01
  8.4191221e-01
  5.0869942e-01
 -1.6152336e-01
 -7.0676488e-01
 -4.1038412e-01
 -5.1953197e-01
 -3.5447988e-01
  6.3471901e-01
  2.2438687e-01
 -4.4365692e-01
  4.1100112e-01
  3.5982829e-01
 -1.7782797e-01
 -4.8352295e-01
 -8.9952409e-01
  7.9475239e-02
  5.6196876e-02
 -7.4010271e-01
  3.3627525e-01
  2.5802059e-02
 -1.3566020e-01
  7.1377940e-02
  7.1755898e-01
 -8.7939247e-02
 -9.4908170e-02
  3.0509281e+00
  5.9479624e-01
 -9.2163438e-01
 -2.1732374e-01
  2.2052902e-01
 -2.0237897e-01
 -4.6482193e-01
 -4.8089126e-01
  1.9194210e-01
  5.0009913e+00
 -2.0315268e+00
 -1.3054389e+00
 -8.0155045e-01
  9.3095601e-01
  4.4172710e-01
  2.0736904e+00
 -1.3572643e+00
  5.3342384e-01
 -4.2457595e-01
 -2.4877250e+00
 -5.9735060e-01
 -1.1064947e-01
 -1.3735059e-01
 -1.0718867e+00
  5.0049756e-02
 -3.2130143e-01
 -2.2831767e+00
 -8.1694946e-03
  2.5153077e-01
 -8.1504270e-02
 -3.1506622e-01
 -5.4325008e-01
 -4.4371119e-01
  6.9333947e-01
 -2.8707221e-01
 -3.6598167e-01
 -1.3579665e-01
 -1.4745572e-01
  9.6877605e-01
 -1.1433144e+00
  4.7431149e-02
 -8.5823059e-01
  2.2855639e-01
 -1.0689247e+00
 -3.7133524e+00
 -3.8669541e-01
 -1.0149360e+00
  1.2020451e+00
  2.3210845e+00
 -9.5285171e-01
 -1.7249961e-01
  5.0044131e-01
  4.9182081e-01
 -1.9808276e+00
  2.8978067e-02
  1.7149609e-02
 -9.3357098e-01
 -1.0558172e-02
  1.6626680e-01
 -9.2139798e-01
 -3.6168374e-02
  1.2172630e-01
 -4.5037661e-02
 -5.1206306e-02
  2.3269936e-01
  1.0027000e+00
 -2.4101832e+00
  2.8320488e-01
 -1.5988097e+00
  1.1013890e-01
 -5.8578338e-02
 -2.3402959e-01
  3.3807389e-02
 -7.5462982e-03
  1.2902297e-01
  8.6401278e-01
 -8.9631963e-01
  1.3923498e+00
 -1.5677825e-02
  1.1596844e-02
 -3.1356737e-01
 -5.9949565e-01
 -2.4165241e-01
 -1.9143968e+00
  1.0793182e+00
  1.6321827e-01
  5.7861346e-01
 -1.1806839e+00
  7.0466256e-01
 -1.5278652e+00
  4.4994980e-01
  1.5119797e+00
 -6.9094129e-02
 -1.0281813e+00
 -7.0812285e-02
 -1.2955920e-02
 -2.0187066e+00
  2.2232877e-01
 -7.0436229e-04
  1.9695602e-01
  3.7424058e-01
 -7.9410928e-01
 -8.7668878e-01
  7.0141292e-01
  1.3837644e-01
  6.2238371e-01
 -2.4584270e+00
 -4.5260763e-01
  1.0756662e+00
  1.3066115e+00
  2.7026188e-01
  1.7141104e-02
 -2.2865051e-02
  1.0183419e+00
  5.0974309e-01
 -9.8854125e-01
 -5.6568563e-02
  2.1660115e-01
 -1.1020390e-01
 -2.1357446e+00
  8.3845139e-01
 -3.1449330e-01
 -5.6820579e-02
 -2.2868042e+00
 -2.1855946e-01
  2.2603273e+00
  7.7163172e-01
 -7.1244873e-02
 -7.2893017e-04
 -1.8742597e+00
 -2.4997440e-01
 -1.8727896e+00
 -1.8013196e-01
 -6.7757912e-02
  1.4284123e-01
  5.9499323e-01
  1.3397223e+00
 -2.2292598e-01
 -4.6727851e-01
 -6.8172194e-02
  7.0381081e-01
 -5.1904655e-01
 -4.9963933e-01
 -2.9878454e+00
  5.2027013e-02
 -2.5179848e-01
  4.6221295e-01
  2.9142758e-01
  1.9131686e-01
 -1.4411023e+00
  3.8671253e+00
 -1.9960774e-01
  2.9681852e-01
 -1.7531744e-01
 -8.1802899e-01
 -2.8248778e-01
  1.5883407e-01
 -1.0484233e-01
 -1.8059856e-01
  1.0081069e+00
 -1.9687021e-01
 -6.9085127e-01
 -2.6189859e+00
  6.2576783e-01
  3.1171381e-01
 -4.4097114e+00
 -3.0683517e-01
 -3.4584181e+00
  2.4981432e-01
  1.7310558e-01
  7.5809650e-02
  1.8164979e-01
 -1.7274906e-01
 -4.6940848e-01
 -8.9540891e-02
 -4.9651399e-02
 -1.8981519e-01
  1.0500227e+00
  1.2445264e-02
  1.8346736e-01
  1.4861500e+00
  8.9041013e-01
  6.9808537e-01
 -3.7589368e-01
  1.7003940e+00
  3.4509054e-01
 -6.2258545e-02
  7.3605645e-01
 -4.8194507e-01
  1.2286476e-01
 -9.4034320e-01
  1.8627029e-02
 -2.0632637e+00
  2.6570109e-01
  1.0958257e+00
 -7.1548522e-02
 -2.6890287e-01
 -2.1234612e-01
  4.4701976e-01
  4.0735197e-01
 -1.3771054e-01
  4.8343399e-01
  1.2277564e+00
 -1.6762936e+00
 -6.9883054e-01
 -1.4457703e+00
 -3.2990226e-01
  1.1115136e-01
  5.9831661e-01
  6.3861138e-01
  9.9333978e-01
 -2.3944810e-01
  9.5618770e-02
 -1.1367760e-01
 -2.9694812e-02
  1.4818698e-01
  1.4318901e-01
  2.3616077e-01
 -1.9816151e-02
 -3.4504548e-02
 -3.2412842e-01
  9.8367721e-01
  9.3134291e-02
  7.5989997e-01
  4.1132870e-01
 -1.0970967e-02
 -8.1388019e-02
  1.1877471e-01
  4.0268588e-01
 -1.5964961e-01
 -1.0533720e-01
 -2.9282388e-01
  2.9406871e-03
  2.0312032e-01
  2.1217866e-02
 -4.2849842e-02
 -1.4531499e-01
 -1.5786048e+00
 -6.2881619e-01
 -4.2117375e-01
 -4.7103491e-01
 -5.7709724e-01
 -2.2348773e+00
 -1.0454343e-01
 -1.2151655e-03
  4.2546764e-01
  2.6595356e+00
 -3.6582866e-01
 -1.2406819e-01
  3.8125235e-01
  2.3988421e-01
  6.7288533e-02
 -3.7841159e-01
  3.9656499e-01
 -2.6877487e-01
  3.9286952e-02
 -2.2106916e-01
 -1.8008579e-02
 -3.4497845e-01
 -2.8271204e-01
 -1.6460308e-01
 -2.1120416e-02
 -2.0504639e-02
 -7.0096695e-01
 -4.5164526e-01
 -5.4545220e-02
 -5.6266766e-02
  1.3376127e-02
  1.1923344e-01
 -1.8470809e-01
 -1.6705021e+00
  1.0535816e-01
  7.4507959e-02
 -8.0032623e-01
  9.6163934e-01
 -8.4076673e-02
  2.2955107e-02
  3.1518966e-01
  1.1616281e-01
  4.5536435e-01
 -3.5376146e-02
 -8.1364267e-02
 -6.0673110e-02
 -9.9591017e-01
 -5.6099471e-02
  3.8230953e-01
 -1.8532519e-03
  3.8789459e-02
 -1.4899546e-01
 -4.4200234e-02
  2.4557075e-01
 -1.6522033e+00
 -1.0908937e+00
  6.1682109e-02
  3.2721829e-01
  3.6455208e-01
  2.0673847e-02
  4.6031979e-01
  1.4058172e+00
  1.4434466e-01
 -7.8532630e-01
 -4.4856691e-01
 -3.5377166e-01
 -3.6338646e-02
 -9.6506178e-03
 -5.5168051e-01
  1.6420765e+00
 -3.3027714e-01
 -1.2377155e+00
 -7.9959661e-01
  3.5568759e-01
 -2.0922077e-01
  6.8027000e-03
  8.8161528e-02
  1.1810993e+00
  2.3510192e-01
  1.2879349e-01
 -1.1003266e-01
 -1.5432149e+00
  6.3861030e-01
  7.7741593e-01
 -1.5969206e+00
 -8.6536652e-01
  7.4173051e-01
  6.4828521e-01
 -5.6762872e-03
  7.6077491e-01
 -1.2047604e+00
  3.4330007e-01
  8.2533568e-01
 -9.0850574e-01
  6.8107796e-01
 -4.1768529e-02
  1.6601275e+00
 -3.6576137e-01
 -1.0613400e+00
  7.4744278e-01
  8.6790079e-01
 -8.1584167e-01
 -1.4631100e-01
 -4.9608779e-01
 -2.7167192e-01
  1.3405435e-01
  4.2654836e-01
  5.5352312e-01
 -3.6457795e-01
  1.7768970e-02
  1.5273230e-01
 -3.6317948e-01
 -1.6756745e-01
 -8.1984204e-01
  5.9924620e-01
 -1.3156589e+00
 -1.9292104e-01
  6.0443950e-01
 -6.0217065e-01
 -2.6993981e-02
  1.0591110e+00
 -4.3190178e-01
  3.4404140e-02
 -3.3285458e-02
  3.7048724e-01
 -1.0139422e-01
  2.7572000e-01
  2.7509990e-01
 -2.7299127e-01
 -1.2092441e-01
 -2.1462442e-02
 -1.3551547e-02
  2.3570529e-01
  4.4628578e-01
 -3.3807900e+00
  1.5559085e-01
 -7.1276747e-02
  2.1733081e-01
 -2.0090103e-01
 -1.3234828e-01
  1.3944444e-01
  2.5756863e-01
  1.0236491e-02
  1.1666793e+00
  4.9701288e-01
 -1.0033888e+00
  6.3828245e-02
  3.4967691e-01
 -1.0756468e-03
 -6.0936213e-01
  2.3814940e-01
 -1.4757521e-02
  7.8585744e-01
 -9.9142596e-02
  1.5666416e-01
 -3.7115101e-02
 -1.6883787e-02
  2.6776632e-02
 -3.9781138e-01
  2.5979039e-01
  1.4293203e-01
  1.6831435e-01
 -1.7070581e-01
  2.8757766e-01
 -3.3290139e-01
 -3.5587290e-01
 -4.5545697e-02
  2.9921797e-01
 -7.2112799e-01
 -6.8493336e-02
 -5.6235727e-02
 -3.7307972e-01
 -4.2688534e-01
  4.0824274e-03
 -2.4500771e-01
  6.8434572e-01
 -3.9054451e+00
  1.4839795e-02
  9.8210782e-02
 -1.3021672e-01
 -2.9936409e-01
 -5.4122503e-03
  2.8201881e-01
 -1.3316996e-01
  1.2403411e-01
  2.9547647e-01
 -2.4175639e-01
  1.7403213e-02
  3.7830949e-01
  5.7549659e-02
 -3.8846374e-01
  2.8567066e-02
 -2.4633842e-02
 -1.6333459e-01
  5.3719795e-01
  3.9580930e-02
 -9.3010449e-01
  9.7902700e-02
 -9.7252771e-02
  1.0816487e-01
 -8.6872373e-03
 -1.2847197e-01
  3.4599002e-02
  1.2301512e+00
 -1.1420896e-01
 -5.8098238e-02
 -1.8147510e-01
  1.0337633e+00
  4.0575999e-01
  1.4733297e-02
  2.7168474e-01
  2.6395304e-02
 -9.3388073e-02
  1.4536731e-01
 -7.4348301e-02
  1.6962656e-01
 -1.1662791e+00
  1.2479984e-01
  8.2162672e-01
  3.3723867e-01
  1.9932356e-01
 -1.4900575e+00
 -1.5102719e-01
  3.4308857e-01
 -3.8589454e-01
 -1.2126622e+00
  1.8874034e+00
 -3.7925956e-01
  1.7189307e+00
  9.3315113e-01
 -1.9516274e-01
  1.1698804e+00
 -1.3156362e-01
 -1.0333496e-01
 -1.8131696e-01
  3.3462828e-01
  4.3474048e-02
  1.3720934e+00
 -6.4126328e-02
 -3.7727859e+00
  1.4222069e+00
 -2.3219097e-01
 -1.8745744e+00
  7.4388355e-01
 -3.5535985e-01
  3.0175903e-01
 -4.0463123e-01
  8.0400467e-02
 -1.2969632e-01
 -8.8924527e-02
  7.1052112e-02
 -5.1623321e-01
 -4.6316724e-02
  2.9800561e-01
 -2.8073689e-01
 -3.7541538e-01
 -1.6288817e+00
 -3.8655037e-03
 -1.2161692e+00
  2.2919679e-01
  2.9445255e-01
  2.4310925e+00
  8.2151932e-01
  4.1721843e-02
 -8.2362145e-02
 -3.4883463e-01
 -5.6040213e-03
 -7.1119424e-04
 -8.8590972e-02
  6.7139864e-02
  4.3882626e-01
 -8.0834186e-01
 -8.0786176e-02
 -9.3659811e-02
  5.6511074e-01
 -4.3563244e-01
  7.1800447e-01
 -2.2760012e+00
  5.2050358e-01
  2.7552199e-01
  1.6562763e+00
  2.0093772e-01
  2.6304600e-01
 -6.2218916e-01
  9.6797508e-01
  4.1302243e-01
  1.6337754e+00
  8.2311833e-01
  2.4740444e-01
 -6.6667661e-02
  1.6207073e+00
 -7.8619528e-01
 -1.4573460e+00
  8.7737584e-01
 -8.4738600e-01
  3.1288689e-01
  1.4754689e+00
 -1.8767355e-01
 -1.8712434e-01
  1.5339162e+00
  1.2034490e-01
 -1.0389569e+00
 -3.8427911e+00
 -1.2167228e+00
  2.0283331e-01
  2.7615883e+00
 -4.2679760e-01
 -2.1148891e+00
  2.0696747e+00
  7.2022796e-01
  2.0302656e+00
 -4.9269233e+00
 -1.6518515e+00
 -4.3378249e-01
  1.9339513e+00
 -1.7988472e+00
 -1.4597492e+00
 -3.7345281e-01
 -1.4271083e+00
 -9.6939379e-01
 -4.3641755e-01
 -3.6325994e-01
  7.8437161e-01
  1.2676644e+00
 -2.6422593e-01
  6.0262138e-01
 -3.3707505e-01
  1.3441351e-01
  1.7307621e-01
  1.1193906e+00
 -1.9229179e-02
 -6.6721663e-02
 -9.7427112e-01
  3.6330542e-01
 -1.1302995e-02
  2.5104332e-01
 -3.0043763e-01
  4.4157749e-01
 -3.3241266e-01
  2.5037614e-01
  6.0108489e-01
 -5.0709218e-01
 -2.6361829e-01
 -7.8223184e-02
  7.1352132e-02
  3.8149083e-01
 -3.8152868e-01
 -9.0666041e-02
  3.3159485e-01
  1.9699819e-01
 -7.2396770e-02
 -5.2936964e-02
 -6.7426145e-02
  3.7210003e-01
  7.6725602e-01
 -2.3282996e-01
  2.4580818e-01
 -4.1467133e-01
  2.5017539e-01
  1.7061287e+00
 -4.2505026e-02
 -2.5680262e-01
  5.7268417e-01
  9.0422377e-02
 -2.2719283e-01
 -5.1183015e-01
 -2.7566144e-01
 -1.2070683e+00
 -4.6399394e-01
  5.2343324e-02
  1.1009077e-01
  1.9691262e-01
  2.2319289e-01
 -4.6604902e-02
  6.8757758e-02
 -1.6329911e+00
  1.2568687e-01
  1.4446564e-01
 -3.2384995e-01
 -1.0682464e+00
 -4.3015784e-01
  2.0631579e-01
 -1.7759873e+00
  2.4540164e-01
 -2.3270065e-01
  9.7540778e-01
 -1.5690973e-01
 -1.0477710e-01
 -1.6449630e+00
  1.6679165e+00
  7.1462774e-01
  2.8209298e+00
 -2.3071578e+00
  7.1128750e-01
  1.8643905e-01
 -3.7352395e-01
  1.0760373e+00
 -1.3933309e+00
  2.8622082e-02
 -3.7677917e-01
 -8.5877962e-02
  3.2304700e-02
 -2.8729072e-01
 -1.3406817e+00
 -5.8151942e-01
  3.4311369e-01
  3.2950577e-01
  6.5416324e-01
 -2.0603728e+00
  1.1660726e+00
 -4.1355783e-01
 -6.1197287e-01
  6.3938755e-01
  6.6611177e-01
  2.4610239e-03
  6.2319058e-01
 -1.7659559e+00
 -1.3145814e+00
  3.7542060e-01
 -1.2581590e-01
 -5.9890881e-02
 -1.0284675e+00
  2.5619200e-01
 -2.8774798e-02
 -1.9941276e-01
  7.1611309e-01
 -2.3912364e-01
  1.4242308e-01
 -1.0975837e+00
  5.8099490e-01
  3.0330687e-03
  2.1545850e-01
  2.5899234e+00
 -2.0506258e-01
  1.5655386e-01
  1.6763282e-01
 -2.8373194e-01
  1.6253449e-01
 -7.5680584e-01
  5.9245485e-01
  2.9167682e-01
 -8.9925423e-02
  1.0971431e+00
 -1.0318397e-01
  1.9806568e-01
 -3.6473414e-01
 -1.3233107e-01
  3.1179169e-01
  2.2264203e-01
 -1.7102300e+00
  4.3462371e-03
  3.1438735e-01
  1.6394196e+00
 -3.4145329e-02
  8.2657441e-02
 -7.7857837e-02
  2.8176016e-01
  2.5793764e-01
 -4.1537590e-02
 -3.5197735e-02
 -9.7160771e-02
 -1.1739425e-01
  8.2624704e-02
  1.1499247e-01
 -9.0923589e-01
  1.3425303e-01
  1.4103676e+00
 -1.7156072e-01
  7.5997448e-01
 -4.4238967e-01
 -1.0039444e+00
 -2.8571050e+00
  1.0011883e-01
 -7.7059396e-02
  6.2058229e-02
  6.8857896e-01
 -1.0759053e-02
  1.2247070e+00
  3.3468926e-01
 -5.0153673e-01
 -4.5620695e-02
  3.1152064e-01
 -5.4712224e-01
  5.0050670e-01
  1.0953569e-01
 -1.3122676e-01
  4.4271517e-01
 -4.1237064e-02
 -4.5748773e-01
 -2.6498970e-01
  2.5772342e-01
 -2.0121132e-01
  8.0248125e-02
 -2.8975841e-01
 -4.9759526e-02
  1.7036153e-01
 -1.0135680e-01
  1.5063193e-01
 -2.9213068e-01
 -9.6328866e-01
 -5.6714374e-01
 -4.8307639e-02
 -5.2528501e-01
  2.7047360e-01
 -1.2481086e+00
 -1.2077743e+00
  7.2307163e-01
 -1.4552633e+00
  3.4965536e-01
  9.4949007e-01
 -1.8711143e+00
  7.4308419e-01
  6.8393719e-01
 -8.0233669e-01
 -1.6955578e+00
  1.6638564e-01
 -1.3412441e+00
 -9.0049726e-01
 -1.2532388e+00
  9.0577650e-01
  6.1250091e-01
  9.7051251e-01
  1.6537555e-01
 -1.0715855e+00
 -1.8905380e+00
 -2.2837462e+00
 -9.9155056e-01
 -2.2485185e+00
  2.6215571e-01
  9.9464118e-02
  5.2889597e-01
 -2.0120050e-01
 -1.3147367e+00
 -2.5624087e+00
 -1.7470309e-01
 -1.6013047e-01
 -2.5183113e+00
  1.1503228e+00
 -1.7174101e-01
  3.9954939e-01
 -6.6213650e-01
 -1.5340728e-01
 -1.4611989e+00
 -1.0533795e+00
  6.2248014e-02
 -8.1517911e-01
  1.1001348e+00
  1.7810716e-01
  7.1158969e-01
  6.6721934e-01
 -2.1389438e-01
  3.6514830e-02
  1.4333284e+00
  2.2194496e-01
  9.9691254e-01
  1.8798634e-01
  1.7511930e-01
 -5.1231784e-01
  1.1813143e-01
 -2.4411922e+00
  4.6799406e-02
  2.1878362e+00
 -1.2016369e+00
 -2.7320105e-01
  7.2339266e-03
  4.5867026e-02
 -3.8149178e-01
 -2.1273109e-01
  1.3809307e+00
  6.2113523e-01
  2.1424748e-01
  6.4438865e-02
  3.2837963e-01
 -6.1155181e-02
 -1.6610868e-01
 -1.6604178e-01
  2.0616576e-01
 -5.3126323e-01
 -5.1324940e-01
  3.9019268e-02
 -3.6048266e-01
 -6.3820064e-02
 -6.1881904e-02
  1.7423327e-01
  1.7479768e-01
  9.0692914e-01
  2.7019170e-01
  1.5238765e-01
  7.0156418e-02
 -1.7441381e+00
  3.9646155e-01
  3.1957909e-01
 -1.4453886e-01
 -7.4392371e-02
 -3.6067477e-01
 -1.8789718e-01
 -2.2705512e-02
  1.0230745e-01
  3.9490908e-01
 -1.0863788e-01
 -2.6100537e-01
  1.0397548e-01
 -2.7281094e-01
 -4.9746454e-01
 -2.0479345e-01
 -1.7855557e-02
 -2.8005171e-01
 -1.1390469e-01
 -2.1781999e-01
  1.3932556e-01
  6.7485124e-01
  3.5759962e-01
  5.1570505e-02
 -2.7396601e-01
  3.9931566e-02
  3.3658803e-01
 -2.9352358e-02
 -3.0687854e-02
 -1.6526232e-02
  6.2733963e-02
  8.0564582e-01
  3.0462351e-01
 -1.8231902e+00
  5.7536805e-01
 -7.8808069e-02
  2.2356959e-02
  3.6006299e-01
  9.8518781e-02
 -1.5986916e-01
 -7.1757627e-01
  9.9958003e-02
  2.8360438e-02
  4.9317631e-01
 -1.3058531e-01
 -1.1556426e-01
 -5.9268934e-01
 -1.6881201e-01
  1.4537027e-01
  4.0448165e-01
  3.9934874e-02
 -2.6790822e-01
 -9.1413431e-02
 -1.2303279e-01
 -7.9203181e-02
 -5.5199575e-01
 -3.2719567e-01
  9.7860172e-02
 -1.6441551e-01
 -2.0393495e-02
  1.4243870e+00
 -4.5808935e-01
 -1.4025587e-01
  9.7279984e-01
 -4.1839778e-01
  5.1343195e-02
  3.4586400e-02
  8.0343562e-01
  5.9341162e-01
  2.0625995e-01
  6.4878673e-03
  7.1929765e-01
 -2.1214193e-02
 -9.1378939e-01
 -8.7087592e-03
 -9.3765501e-03
  2.1581917e-01
 -3.4690213e-01
  5.0213051e-01
  1.9356552e-01
  1.1799047e+00
 -2.4252281e-01
 -3.1848967e-02
  1.1771081e-01
 -1.6384654e-01
  5.6638815e-02
 -3.4581959e-01
 -1.3050238e-02
  9.1344677e-02
  2.9740295e-01
 -2.7520451e-01
 -3.6627162e-01
  8.2626796e-01
  4.8427004e-01
  1.3609110e+00
 -2.0424039e+00
 -2.5140905e-01
  5.1957447e-02
 -1.5277559e+00
 -2.1820307e-02
 -2.0477404e-01
 -4.0481355e-02
  1.9268538e-01
  1.2063272e-02
  2.5770438e-01
 -3.8533907e-02
  2.1016086e-02
 -3.5940805e-03
 -1.5308020e+00
  6.3476413e-02
 -1.8665247e+00
 -5.8348668e-01
  8.7630808e-02
 -7.2887337e-01
  2.0671200e-02
 -3.3975863e-01
 -2.4694477e-01
  7.7258217e-01
 -1.6464038e+00
  1.9742861e+00
 -5.7507735e-02
  3.8419160e-01
 -4.3493375e-01
 -2.0930778e-02
  9.1624185e-02
 -1.9740076e-01
 -1.8307769e+00
 -2.9695949e-01
  1.2804683e+00
  2.0988688e-01
 -1.4703732e-02
 -8.7670547e-01
  6.0973239e-01
 -4.3145582e-01
 -9.2886046e-02
  1.3248840e-01
 -4.2866950e+00
  7.4790961e-01
 -2.1524471e-01
 -8.1248485e-02
  3.7506878e-01
 -3.8976517e-01
 -2.9668593e-01
 -5.7435050e+00
 -1.2375824e-02
  2.8074938e-01
  4.8691288e-01
  1.5267318e-01
 -8.5821700e-01
  3.1625685e-01
  5.3131962e-01
 -1.6808373e-01
  8.2141988e-02
  1.0030223e-01
  1.8165985e+00
  5.3603426e-02
  3.9374735e-02
 -5.5848781e-02
 -2.9050806e-01
 -1.1872641e-01
  2.4490365e-01
 -4.4146651e-01
  7.7831291e-02
 -1.8162380e-01
 -8.0362916e-02
  1.3012330e-01
 -7.7592653e-01
  3.1282139e-01
  2.6998684e-01
  2.0291694e-02
  4.9767509e-02
  4.0346766e+00
  7.3487103e-01
  1.2242946e-01
 -7.6395470e-01
  2.5179120e-02
  6.9204760e-03
  4.5834575e-02
  1.5599751e-01
 -3.5634455e-01
  3.1280280e-03
  7.0661269e-02
  1.3528867e-01
  8.1566416e-02
  2.7874503e-01
 -1.2709631e+00
 -3.7271663e-04
 -3.9158715e-03
  8.7568238e-02
  9.1580369e-02
  1.5403198e-01
 -7.9381689e-02
 -8.2465476e-01
  8.1998855e-01
  1.0977918e-01
 -4.4867274e-01
  6.0182530e-01
 -2.3247035e-01
  5.1346716e-02
  3.4520739e-01
  1.9317611e-01
 -5.7109392e-01
 -3.7723292e-02
  1.5552333e-01
  4.1174725e-01
 -1.3294251e-01
  4.1563547e-01
  1.3534257e+00
  9.2140704e-02
  2.3540433e-01
 -1.0278500e-01
  3.9127401e-01
 -1.6185451e-01
 -6.2831976e-02
  8.0839533e-01
  3.0764470e-01
 -1.3179312e+00
  1.2389871e-02
 -4.1415583e-02
  2.5643998e-01
 -3.6314189e-01
  3.2069895e-01
 -2.4930034e-03
 -1.1385448e-01
 -1.3127230e-01
  2.9862951e-02
  8.8118255e-02
 -2.8214428e-01
  2.1233362e-01
  1.1074498e+00
  3.6601877e-01
  5.1918018e-01
 -3.1755910e+00
 -6.4089164e-02
  2.2632597e-01
  2.3758392e-01
  4.5808282e-01
 -1.1888269e-01
 -1.5786710e-01
  6.1168343e-01
 -6.8830848e-01
  1.1732440e-01
 -1.2090084e-02
 -6.5351419e-02
 -1.5675010e-01
 -3.4429842e-01
 -5.9094060e-02
 -1.9086136e-01
  1.4195567e+00
  1.1642557e-01
 -6.6115373e-01
  1.5051468e-01
  2.1281984e-01
 -3.3408493e-01
  9.7612940e-02
  8.3097264e-02
 -3.1449947e-01
  8.3835080e-02
  1.1755785e-01
  7.8275549e-01
 -1.1362298e+00
 -3.5118163e-02
 -9.4629675e-02
 -2.4670726e-01
  2.4055153e-01
  2.3488186e-01
  6.6720475e-03
  2.0483959e+00
  2.1141706e-01
  3.3918925e-02
 -1.9096829e-02
 -2.8755270e-02
 -1.6254879e+00
 -2.0893372e-03
  1.5023527e-01
  3.0597717e-01
 -5.5191591e-02
  9.8696247e-02
  7.5286264e-03
  3.4775144e-01
 -2.3076446e-01
  2.1968380e-01
  1.4073065e-01
  6.6743964e-01
 -3.6595523e-01
  1.5452355e-01
  6.1121005e-01
  2.1987762e-01
 -2.0546202e-01
 -4.4268467e-02
  2.0463467e-01
 -2.1595576e-01
 -3.5031876e-01
 -3.5339358e-01
 -3.2061589e-01
  8.2864463e-02
 -1.4202360e-03
  9.9013165e-02
  2.1185291e-01
  2.7020714e+00
 -4.0403393e-01
 -2.3823069e-01
 -3.1268850e-01
  6.1773628e-01
 -1.3582626e-01
 -1.1211477e-01
  6.7322180e-02
 -5.9920430e-01
 -1.0837575e+00
  1.8550560e-01
 -1.4509178e+00
 -4.2414567e-01
  2.0573075e+00
 -7.9439282e-01
 -1.6944413e+00
 -5.3645658e-01
  3.9945292e-01
  1.0248369e-01
  1.8149593e-01
  3.4270370e-01
 -1.6338339e-02
  1.0717293e+00
 -2.6324502e-01
 -1.6967499e-01
 -1.7333327e-02
  4.0625420e-01
  8.9540757e-02
 -1.2198847e-01
 -6.0262427e-02
 -1.8088440e+00
 -2.6997412e-02
  7.4176828e-04
 -2.1514696e-01
  7.4682486e-01
  1.0628996e-01
  4.1560152e-01
 -8.0403757e-01
 -1.8687189e-01
 -2.0657733e-01
 -3.9503494e-01
  1.6021505e-02
 -2.3307256e-01
 -4.2234677e-01
  9.1233082e-02
  1.9144807e-02
 -4.2955838e-02
 -3.2184035e-01
 -7.6840955e-01
 -5.2588218e-01
  1.5174645e-01
 -3.5225287e-01
 -2.0644873e-01
 -8.9579299e-02
  4.4936740e-01
  1.0544541e-01
  2.5842316e-02
  3.4568611e-01
 -4.1916886e-01
 -1.4344721e-01
  3.4625041e-01
  3.0947629e-01
  1.1688077e-01
  1.6256101e-01
 -2.6304147e-01
  3.3567217e-01
  2.8737387e-01
 -3.8252842e-02
 -3.1908220e-01
 -4.2763934e-01
  3.0388303e+00
 -5.2771133e-01
  1.1474495e-01
 -3.4872100e-02
 -3.0527213e-01
 -1.9235660e-01
  4.3896157e-01
 -1.9896728e-01
  1.4238547e-01
  2.9026586e-01
  3.6421285e-03
 -9.3159370e-02
 -8.8741049e-02
 -1.8483398e-02
 -1.8647738e-01
  1.9842835e-01
  2.1440475e-01
  8.4055483e-02
  2.5715118e-02
  1.8217711e-01
 -1.3040891e-01
 -5.9067566e-02
  7.5093374e-02
  7.0996279e-01
 -2.5651726e-01
 -2.6126364e-01
  7.2062075e-02
 -9.3048185e-02
 -2.0482418e-01
 -1.2052630e+00
  1.4569670e-01
  9.2442006e-02
  8.8345736e-02
 -8.7175839e-02
  1.5184115e-02
 -1.4100130e-01
  7.7657652e-01
 -4.0607131e-01
  5.4661069e-02
 -1.7683303e-01
  1.6005951e-01
  3.3421767e-01
  9.6906655e-02
  1.9906394e-01
  7.7592748e-01
 -6.2161475e-01
  6.0807997e-01
  1.2306929e-01
  5.4409850e-01
  1.4793038e+00
  5.7435077e-01
 -1.8250567e-01
  5.9782062e-02
  6.4068890e-01
  5.5441701e-01
 -2.3103158e+00
  1.1861183e-01
  6.0175371e-01
 -1.2259975e-01
  1.7196359e-01
  1.6148393e-01
 -3.3948803e-01
  5.4061204e-01
 -6.6469789e-01
  1.7416835e-01
 -1.4408050e-02
 -2.3651282e-01
  1.0379791e-01
 -3.7772381e-01
 -6.3640106e-01
 -2.0426713e-01
  6.0655600e-01
  2.2590473e+00
 -5.0129402e-02
  9.1661178e-02
 -1.4488225e+00
  6.4453036e-02
 -3.0773624e-03
 -8.7407865e-02
 -8.4108666e-02
  2.8480968e-02
 -6.9883548e-02
  1.7641427e-01
 -1.9310097e-01
  5.1320142e-01
  1.4443615e-01
 -2.9475895e-01
  7.6690370e-01
  1.9339734e-01
  1.6189381e-01
  5.7476729e-01
  2.5869489e-01
 -7.5293261e-01
 -5.9232438e-01
  1.8023691e-01
 -1.4508261e-01
 -2.3729698e-01
 -6.5594673e-01
 -1.0060418e-01
 -2.4697106e-01
  3.4181878e-01
 -1.3055810e-02
 -1.1634961e+00
  5.6060660e-01
  1.5414532e-01
 -2.6913059e-01
  2.9918492e-02
  5.1023055e-02
  7.0698619e-01
  2.2955112e-01
  4.0498754e-01
 -4.0264246e-01
 -2.5226638e-01
 -2.0421589e-02
 -4.4425916e-02
  6.8927246e-01
  1.1634287e-02
 -2.5404307e-01
 -4.5539081e-02
 -1.7133647e-01
  9.3488447e-02
  3.8581643e-02
  4.1794008e-01
  2.0607333e-01
  1.6119106e-01
  4.1709059e-01
 -1.2108531e+00
 -5.8520403e-02
 -1.8781763e-01
  8.9598596e-02
  4.0071049e-01
  7.3450863e-02
  2.0700984e-01
 -6.4175510e-01
  1.7955461e-01
 -5.3302205e-01
  4.5458689e-01
 -5.3860527e-01
  4.7799730e-01
  2.8147557e-01
 -7.8771698e-01
 -3.4611747e-03
  9.2326236e-01
  8.4566844e-01
  8.9651161e-01
  3.1343225e-02
 -8.1310427e-01
 -6.9316849e-02
  5.2201159e-02
 -3.2213446e-02
 -5.6140464e-02
  2.1840191e-02
  3.1138435e-02
 -8.4104782e-01
  1.1783651e-01
  4.6915439e-01
 -5.3044330e-02
  3.0633530e-01
  9.7198141e-01
 -1.0084619e-01
  2.4966866e-02
 -1.8865325e+00
 -2.2632277e+00
 -3.2432530e-02
 -1.0522333e-01
  5.9708565e-01
 -1.7362376e+00
 -4.9488699e-01
 -3.4441569e-01
 -2.2851352e-01
  6.8122381e-01
 -2.0258245e+00
 -6.5885395e-01
  6.6596545e-02
  1.6949359e-01
 -1.0098871e-01
 -3.0702025e-01
 -5.4771525e-01
 -2.4300792e+00
  1.8465968e-02
 -4.1057846e-01
 -9.5225716e-01
  3.8479668e-01
 -1.0569204e-02
  9.0064770e-01
  7.0881464e-02
 -2.4005891e-01
 -1.4069854e-01
 -7.5436868e-03
  9.5615081e-02
 -9.7449534e-02
 -8.1928752e-02
 -3.8152810e-02
  2.5861888e+00
  6.2040221e-02
 -2.0636182e+00
 -2.6589241e-03
  1.7725389e-01
 -2.8504005e-01
  3.1013671e-02
 -1.9793458e-01
  1.0079793e-01
  4.8682380e-02
  1.7090955e-01
  2.4895948e-01
  7.1076441e-01
  7.3722875e-01
 -2.5429766e+00
 -6.0502452e-01
  5.8890945e-01
 -1.8130927e-01
  1.0993159e+00
  1.7736766e+00
  7.9686299e-02
  1.3199528e+00
  3.6090282e-01
 -7.5352468e-02
  4.0892285e-01
 -1.0073510e+00
  2.6895639e-01
  1.0782334e+00
 -1.3663317e-01
  6.6853929e-01
 -3.2064235e-01
 -3.7165426e-02
  2.8505093e-01
 -8.6301649e-01
  4.7273698e-01
  6.5630919e-01
  1.5355730e-03
  5.1866122e-02
 -2.0038769e-02
  8.1531063e-04
  2.5856486e-01
 -6.2199529e-02
 -1.7030571e-01
 -1.6853836e+00
 -5.6578422e-01
  1.0101291e+00
 -8.2308352e-02
  8.5929644e-01
 -1.3228805e-01
  1.1407052e-01
 -2.8821811e-01
 -8.5265601e-01
 -2.9198325e+00
  1.8205274e+00
  2.2577313e-01
 -4.0332317e-01
  1.0522383e-01
  1.5170722e-01
  1.4792153e-02
  8.3692050e-01
  5.4694688e-01
 -4.9454674e-01
  6.9639303e-02
  4.0039918e-01
 -4.5235398e-01
  6.0325213e-02
  5.7525176e-01
 -7.4651110e-01
 -1.0453517e+00
 -1.1644682e-01
  1.4062583e-01
 -3.0577910e-01
  1.8984021e+00
  1.7329186e-01
 -1.3575196e-01
  2.5833642e+00
  6.4480650e-01
  2.0534534e+00
 -1.4329557e+00
 -2.3581438e-02
 -1.0050405e+00
 -6.5068489e-01
 -3.6793491e-01
  5.0652575e-01
  1.2777534e-01
 -5.2361900e-01
 -7.7897590e-01
 -4.3825129e-01
  4.7013110e-01
 -1.4670961e-02
  5.2058810e-01
  3.0394697e-01
  7.2141206e-01
  1.6048536e-01
 -3.9473841e+00
 -1.8683316e-01
  8.2847834e-01
  1.3131714e+00
 -6.6533738e-01
 -2.5552708e-01
 -2.1182968e-01
 -9.2899732e-02
 -2.4822626e-02
 -1.0510597e+00
  2.0643599e-02
  2.4976754e-01
  7.3551702e-01
  4.9758536e-01
 -4.9668282e-01
  1.7299342e-01
  1.6693258e-01
 -7.0463657e-01
 -3.9781135e-02
 -9.0338421e-01
 -4.3641219e-01
  2.9384956e-01
 -2.3709095e-01
 -2.9693376e-03
  7.7524543e-02
 -5.7168566e-02
 -8.8595711e-02
 -3.5829037e-01
 -4.8077527e-01
 -7.8689152e-01
 -4.2156570e-02
  1.3811981e-02
  3.0383039e-01
 -2.0924574e-01
  2.6868874e-01
  3.6330071e-01
  4.8020914e-01
  8.3795711e-03
  1.0160802e-01
 -1.4206734e-01
 -1.2467650e-01
 -1.4819962e-01
 -1.3615204e-01
  6.4643345e+00
 -7.4549532e-01
 -6.5993464e-01
 -7.9399753e-01
 -3.2495070e-01
 -5.4919261e-02
  9.9409714e-02
 -4.2093331e-03
  7.4696565e-01
  5.8282696e-02
 -2.1311411e-01
 -3.3364999e-01
 -4.0416070e-03
 -4.7027579e-01
  8.9938249e-03
 -2.4161099e-01
 -2.1268797e-01
 -2.1529227e-02
  3.9964229e-01
 -1.7655330e-02
  1.2911655e-01
  2.7642009e-01
  1.3111991e-01
 -2.7114448e-01
 -2.4301369e-02
 -1.9395213e+00
 -2.4872474e-01
  4.5379016e-01
 -1.7709355e-01
 -1.6176714e-01
 -2.5570026e-01
 -1.9586213e-01
 -1.1972586e+00
 -4.8757541e-01
 -1.5709795e-02
 -4.4160444e-01
 -5.0576830e-01
 -2.2379427e+00
  2.0674640e-01
 -2.7427396e-01
 -4.3375883e-01
 -6.3628562e-02
  3.4820851e-02
  1.3126522e-01
  2.0183393e-01
 -2.6271662e-01
  6.6848412e-02
 -1.6256865e-02
  1.3478552e-01
  5.0869573e-02
  1.3633506e-01
 -6.5827578e-01
 -3.6926311e-01
 -5.2000028e-01
  1.8264019e-01
 -7.4983579e-01
  6.8450063e-01
  1.0028128e-02
  2.1175522e-01
  7.8151089e-01
 -2.7392250e-01
  2.0213258e-01
  4.3803636e-02
  3.4257492e-01
 -2.3027022e-01
  5.5551994e-01
  4.2122278e-01
  3.7131517e-03
  4.3537691e-02
 -1.1898433e-01
 -3.2876874e-03
  6.0097985e-03
 -5.7428658e-01
  7.3850267e-02
 -9.2025444e-02
  2.4788463e-02
 -2.4479625e-01
  1.8460007e-01
 -9.3385242e-03
 -5.1789507e-02
  8.3000474e-02
 -1.3171124e-01
 -1.2229124e+00
 -2.0368751e-02
  6.6474311e-02
 -4.9134427e-01
 -1.7888515e-01
 -6.1203432e-01
 -2.2114579e-01
  4.6911709e-02
  1.9063531e-01
 -2.0646740e-01
  2.4739939e-01
  5.0479710e-01
  6.4489752e-01
  8.2642496e-01
 -1.9152601e-01
  5.4508839e-02
  2.7412402e-02
  2.4458924e-01
  5.3333241e-02
 -6.7968100e-01
  3.1235567e-01
  4.5817488e-01
 -3.8677594e-01
  3.3072317e-01
 -9.5230334e-02
 -7.3690230e-01
 -2.0713910e-01
 -1.2192551e-01
  2.3434712e-01
  8.4692597e-01
  7.3680151e-01
 -1.9222025e+00
  1.8917019e+00
 -1.0929640e-01
 -6.6834527e-01
 -6.9741768e-01
  3.3763745e-03
  3.3270523e-02
 -1.0361913e-01
 -7.7699882e-01
  7.1243100e-02
 -1.8712293e-01
  2.2076203e-01
  3.6142658e-02
  3.6384919e-01
 -5.6124091e-02
  4.7297654e-01
 -4.2496614e-02
  2.1253723e-01
  3.3282290e+00
 -5.3747274e-02
  3.1812266e-01
 -3.3908862e-01
  2.4001560e-01
 -1.4043464e-03
 -7.9562388e-02
 -8.0538511e-02
  1.5079862e-01
 -4.7434635e+00
 -8.3965504e-01
  1.9015579e-02
 -9.0363532e-01
  2.6833946e-02
  1.0265066e-01
  1.0531194e-01
  1.1446875e-01
 -1.1157352e-01
  1.7097372e-01
  1.1519197e-01
 -1.1107176e-01
 -2.1450110e-01
 -4.5628417e-02
  2.9232042e+00
  4.4964969e-01
 -1.5647516e-01
 -2.0568433e+00
 -1.1559796e-01
  1.5723912e-01
 -2.3730308e-01
 -2.8917539e-01
 -3.3414266e-01
  1.6414332e-01
  1.3429238e-01
  1.2405866e+00
 -7.2978240e-01
 -4.4251883e-01
 -6.7261261e-01
 -1.6626100e-01
  1.1420928e+00
 -4.9311498e-01
 -3.0340275e-01
 -4.4904676e-01
  3.4529617e-01
 -1.1575280e+00
  9.4045568e-01
  1.6309615e+00
 -3.3078045e-01
 -2.6816866e-01
  3.5325088e-02
 -6.9913119e-01
 -7.1600920e-01
  9.0650475e-01
 -1.2351720e-01
 -2.1971756e-01
  1.5968784e+00
  5.0291374e-02
  9.2700815e-01
 -4.1380979e-02
 -6.3392937e-01
  6.9259572e-01
 -1.1990473e-01
 -1.4279468e+00
  5.6368876e-01
  1.4463853e+00
  1.2779909e+00
  2.5290091e+00
 -4.8766202e-01
  3.6117533e-01
 -1.5748075e+00
 -1.2790023e+00
 -3.5236254e-02
  4.1058004e-01
  4.3860781e-01
  6.8351191e-01
 -7.7294111e-02
 -8.1494516e-03
  4.6860817e-01
 -3.4011891e-01
 -1.5741947e+00
  2.0273195e-01
  4.5621821e-01
 -4.5053840e-02
 -2.5918722e-01
 -4.0843257e-01
 -1.8820406e+00
  6.6290790e-01
  1.8998744e-01
 -1.0098471e-01
 -1.3382272e-01
 -7.0047522e-01
  3.9940321e-01
 -2.4761213e-01
 -2.2780115e-02
  9.5178086e-01
 -7.8355886e-02
  5.6975361e-02
  5.2005762e-01
 -6.8416543e-02
 -1.7148590e+00
  2.1484646e-01
  9.5894910e-02
 -1.6416042e-01
 -2.7661830e-01
 -8.3506763e-02
 -6.6096640e-01
  1.1468795e-01
 -1.0961197e-01
 -3.6162868e-01
  1.7363871e+00
  6.9182709e-02
  7.7312434e-01
  1.9402103e-01
  6.8463230e-01
  3.0659300e-01
 -5.9229443e-03
  5.8122262e-02
 -2.1983103e-01
 -2.2041193e-01
  3.2210369e-02
 -1.6651025e+00
 -6.8738079e-01
  2.6439337e-02
  5.3397696e-02
  4.2562328e-02
 -2.5935483e-01
  2.1713676e-01
  5.8438456e-01
 -3.5162041e-01
 -1.1222113e-01
 -9.5245419e-03
  3.5081845e-02
  4.3529835e-02
  8.2376376e-02
 -2.2057119e-01
  6.1034685e-01
 -1.8504341e-01
 -1.1898023e-01
 -2.3251731e-02
  6.5405532e-03
  7.6242164e-02
  1.6312016e-02
  5.4405642e-01
  2.1307799e-01
 -1.3203682e+00
 -7.6566356e-01
 -6.2958710e-02
 -4.6326521e-01
 -1.0271727e+00
  6.3809824e-01
 -7.2777873e-01
 -3.3521226e-01
  8.3164483e-01
 -1.2768500e-01
  7.2176534e-01
  7.3171318e-01
 -7.9575664e-01
 -1.1945882e-01
 -6.6717410e-01
  2.4303320e-01
 -4.2421049e-01
 -3.7275991e-01
  9.3412459e-01
 -3.7354228e-01
  6.6265106e-01
  1.4630902e-01
 -9.7134686e-01
  8.9282054e-01
  6.2553346e-01
  9.8021448e-01
  5.3542435e-01
 -6.0440612e-01
 -3.8611543e-01
 -7.6627329e-02
 -5.8689064e-01
  1.7910097e+00
  7.2268355e-01
  1.6615850e-01
  2.5334293e-01
 -9.6627957e-01
  5.6955111e-01
 -1.4589843e+00
 -5.5653054e-01
 -9.8122931e-01
  1.0995635e-01
  5.3571105e-01
 -1.0025847e+00
 -2.9473603e-02
 -1.2980595e-01
  4.0196553e-01
 -1.1209134e+00
 -5.2741194e-01
  1.4984161e+00
 -4.1605124e-01
  1.6702142e-01
  1.0807329e-01
 -1.8910311e+00
  1.0338648e-01
 -4.9945381e-02
 -3.7028241e-01
  1.4529356e+00
 -2.3142220e-01
  2.2468152e+00
  1.0114783e+00
  4.9015746e-01
  1.3023458e+00
  4.4451681e-01
 -8.8290435e-01
  1.1330435e+00
 -1.2437469e+00
 -3.6790853e+00
 -3.3316058e-01
 -1.0983869e-01
 -9.9533337e-01
  1.9327588e+00
 -1.2131337e+00
  3.6958787e+00
  7.4279296e-01
 -1.0313467e-01
  8.2550891e-02
  8.9804381e-01
 -1.5723325e+00
 -1.3203325e+00
  1.1416923e+00
  4.8566490e-01
 -2.7981501e+00
  1.5122209e+00
  2.5779793e-01
  1.4317130e+00
  2.6675621e-01
 -4.3926244e+00
 -2.3428977e+00
  7.4802302e-02
  7.0094544e-01
  1.3806203e-01
  1.4723865e+00
  2.1760821e+00
  1.0501293e+00
  5.2209342e-01
 -2.4405739e+00
 -4.3734327e-02
  1.1734412e+00
  1.2885736e+00
  1.1000155e+00
 -3.0971298e-03
 -1.6490938e-01
  1.4758034e+00
 -2.1604145e-01
 -4.8252541e-01
  4.6928486e-01
  8.0765939e-01
  1.0170970e+00
  1.6195668e-02
 -2.5906146e-01
 -1.3587919e-02
 -3.8573168e-02
 -2.1287172e-01
 -7.4520208e-02
  1.8240754e-01
 -1.3860962e-01
  1.9283135e-01
  1.2813314e+00
 -1.5166091e+00
 -9.9479437e-01
  2.3692882e-01
 -2.3477051e-01
 -3.2124999e-01
 -1.6350676e+00
  4.0728220e-01
 -7.2905406e-02
 -4.0928170e-02
  9.0134770e-02
  4.8444974e-01
 -1.9467393e-01
 -3.6226131e-02
 -1.9809948e-01
  1.5736502e-01
 -4.4536671e-01
  8.4396547e-01
 -4.3718457e-01
 -1.2081273e-01
 -6.7307085e-01
 -1.6200629e+00
 -1.4808056e-01
 -1.3399921e-01
  2.3867664e-01
 -2.2087102e-01
 -3.8101822e-01
  2.7935378e-02
 -4.6111499e-03
  3.8836397e-02
  9.4337606e-01
  9.0877974e-01
  1.3719667e-01
  2.6729634e-02
 -3.5368389e-01
 -3.4233293e-01
  4.0754393e-01
  8.9743298e-01
 -7.9724896e-01
  8.3524263e-01
 -2.0697036e-01
 -3.2614086e-02
 -1.3520689e-01
  3.4561706e-01
  8.2671744e-01
  1.7395253e-01
  1.0429113e-01
  2.3198504e+00
  1.0281764e-01
  8.2167697e-01
 -2.4134442e-01
 -1.9946167e-02
  8.2438193e-02
  2.4427161e+00
  3.0589610e-01
 -5.5884713e-01
  1.1273839e-01
 -5.4055226e-01
  9.8787360e-03
 -7.9892403e-01
 -1.2263656e+00
  8.5730952e-01
 -1.8238312e-01
  3.3266199e-01
 -4.5940602e-01
 -9.7019106e-02
 -9.0900868e-02
 -1.9576389e-01
  8.2506269e-02
 -7.1430355e-03
 -1.1904459e+00
 -3.0273846e-01
  4.7414783e-01
 -1.7027705e+00
 -1.8409546e-01
 -4.5968160e-01
  2.2708154e-01
 -7.6424623e-01
  8.0695146e-01
  2.6512438e-01
 -1.3775352e-01
  2.6482069e-01
  3.0934992e-01
  9.8969348e-02
  3.7334718e-02
 -6.8342887e-02
  9.1429539e-03
 -4.4440496e-01
  1.1283002e-01
 -1.2065736e-01
 -1.4729033e-01
  1.0363042e-01
  3.5314283e-01
 -4.5574376e-01
  1.2030982e+00
  1.0349602e-01
 -8.9588001e-02
 -2.5493121e-01
  1.0552038e-01
 -1.9667733e-01
 -4.9558081e-02
  3.3132136e-01
 -4.7458801e-02
  5.5737127e-02
  1.2884291e-01
  2.3129399e-01
 -8.6933839e-01
 -2.3365176e-01
 -1.8581297e-01
 -1.3355385e-01
  4.0987292e-01
  2.1697277e-02
  2.1176039e-01
  2.0861981e+00
  7.3587459e-01
 -1.8743785e-01
  5.3665859e-01
  2.5831047e-01
 -6.3949716e-01
  9.7092003e-02
  1.5121783e-01
 -4.5717329e-01
  2.8624329e-01
  3.9848793e-01
  7.2455317e-02
  3.3706659e-01
  1.9050770e-01
  3.8642410e-02
 -2.1464184e-01
 -3.6270730e-02
  3.5928316e-02
 -8.5641587e-01
 -8.3013726e-03
  8.7611228e-02
 -7.2562195e-02
 -1.0957600e+00
 -4.4827040e-02
 -6.2536049e-01
  7.6304130e-02
  3.3957008e-01
  2.9667991e-01
 -3.4155887e-01
  4.5662690e-03
 -2.3693240e+00
  5.1120251e-01
 -3.3191580e-01
  7.7825463e-01
 -3.8022101e-01
  8.1038654e-02
 -9.1303647e-01
  8.0581330e-02
  4.2770170e-02
 -6.9042213e-02
  3.7190136e-02
  5.7047224e-03
 -3.3921525e-01
 -1.3594781e-01
 -1.9893355e+00
 -8.2955517e-02
 -2.7034697e-01
  5.5192251e-02
  4.2874551e-01
 -1.6179292e-01
 -2.1035016e-01
 -1.1688516e+00
  2.2867039e-01
  4.3008346e-02
 -7.7633471e-03
  3.6699798e-02
 -5.4554397e-01
 -8.3648419e-01
  1.3397606e-01
 -1.0317763e+00
 -2.9153168e-01
 -9.0574855e-01
  1.3568394e-01
  1.8568934e+00
 -4.7040105e-01
  5.3424400e-01
  1.0087255e-01
  7.4826583e-02
 -1.4493222e+00
  2.1731089e-01
 -7.7597970e-01
 -5.5258751e-01
  4.1648710e-01
  6.4529425e-01
  2.6942015e-01
  1.4246073e-01
 -6.6012084e-03
  8.8539320e-01
  4.6228971e-02
 -6.1053985e-01
  4.3558214e-02
  7.4465084e-01
  2.9752080e+00
  3.0862284e-01
 -2.0982699e-02
  1.5400095e-01
  3.2384726e-01
 -1.2637570e-02
  5.9757572e-02
 -1.2627577e+00
  3.2693812e-01
  4.7320351e-02
 -6.2455526e-03
  6.9072396e-01
 -4.8919764e-01
  3.5290489e-01
 -1.6429553e-02
 -3.7518266e-01
  4.0090397e-01
  3.3961812e-01
  6.1919987e-01
 -1.1105461e-01
 -2.1793194e-01
 -8.2781091e-02
 -4.4731891e-01
 -1.5792637e-01
  1.6475976e+00
  9.7035921e-01
 -1.0833963e+00
 -3.4531593e-01
 -6.0634893e-01
 -6.0285324e-01
 -1.0138749e+00
  1.1680489e+00
  1.4723057e-01
  1.6293681e-01
  4.5595586e-01
 -5.3245049e-02
  1.1347173e+00
 -5.0252891e-01
 -3.0819023e-01
  1.5995946e+00
 -7.9019582e-01
 -1.2558470e+00
 -4.2474371e-01
 -1.7781124e-01
  9.5915265e-02
  8.4620911e-01
  1.4395181e+00
  1.1730400e+00
  3.4579542e-01
  4.6782437e-01
 -1.6227983e+00
  2.2467929e-01
 -4.0762268e-02
 -1.5324025e+00
  1.5537800e-01
 -6.2657905e-01
 -2.8681421e-01
  7.3971528e-01
  8.3922908e-02
 -2.3937224e-01
 -2.7019806e-02
  1.2161291e+00
 -9.1129804e-01
 -1.1201234e-01
 -2.9173365e-01
  1.1582217e-01
  2.8677136e-01
  2.2332027e+00
  5.3297722e-01
 -9.5058906e-01
 -1.3759525e+00
  9.2421943e-01
 -6.5537167e-01
  2.5488862e-01
  1.3126347e+00
 -1.2543996e-01
 -1.4039223e-01
 -1.4642143e-01
 -3.2198617e-01
 -4.7403653e-03
 -1.4793768e+00
 -1.9478118e-01
  1.3532631e+00
 -3.4186459e-01
 -1.3220079e-01
 -2.2603508e-02
  2.7081451e-01
 -7.9831518e-02
 -4.4085601e-01
 -2.2282808e+00
  8.4478480e-01
 -3.1345088e+00
 -4.7118253e-01
 -1.7941586e-03
  2.7628787e-02
  1.1450773e-01
  3.4792477e-01
  3.5320189e+00
  4.5557559e-01
  9.0191692e-02
 -1.0674254e+00
 -4.8387405e-03
  3.4343100e-01
  1.2537327e+00
  6.4699389e-02
 -8.1549704e-02
  4.1489373e-03
 -6.9130540e-02
 -1.3242880e-01
 -7.5950727e-02
 -3.9415151e-02
  1.6814430e-01
  7.5786680e-01
 -9.8790330e-01
 -4.3905895e-02
  1.2631939e-01
 -6.0920041e-02
 -2.9686782e-01
 -1.3026494e-01
  2.4309555e-01
  3.9085472e-01
 -5.0142056e-01
  2.1485256e-01
 -1.1487589e-01
  8.9768422e-01
  4.4596109e-01
 -1.2513962e-01
  7.1211427e-01
  8.7727112e-01
 -2.7071068e-01
  2.1839826e-01
  6.5032095e-01
  9.0453559e-01
 -4.1204196e-01
 -1.9794090e+00
  4.6443513e-01
 -7.5258262e-02
  3.5136786e-01
 -1.6465193e-01
 -2.2142677e-01
  3.1702131e-01
  1.6793157e-01
  1.1779543e-01
 -1.7053097e-02
  2.2514200e-01
 -6.2634265e-01
  2.3673890e+00
 -9.5100299e-02
  1.6446711e-03
 -6.9214031e-02
  1.0441000e+00
  5.2964915e-02
 -8.0043447e-01
 -9.5874906e-02
 -9.3308933e-02
  3.3265333e+00
 -1.2361252e-01
  2.3453429e-01
  7.6368046e-01
 -6.5592460e-02
 -5.7334889e-02
  1.4681147e-01
 -1.3424660e+00
 -3.4929249e-01
 -7.2650149e-02
 -2.2350346e-01
 -7.7548605e-01
  2.5541800e-01
 -4.2244610e-01
  4.2479664e-01
  1.1875639e+00
 -3.9081845e-01
  9.2102513e-02
  1.6339500e-01
 -8.6205170e-02
  5.1858928e-02
 -2.0399945e-02
 -9.7382843e-02
  3.5528818e-01
  5.3025678e-02
 -2.2578686e-01
 -4.5381755e-01
 -1.2980722e-01
 -4.3147582e-01
  6.6492128e-01
 -7.7619630e-01
  7.6977685e-02
 -3.0018780e-01
  8.6225182e-02
  3.3205605e-01
 -2.6466129e-02
 -3.9443746e-01
 -6.0148883e-01
 -6.7669648e-01
 -2.8888246e-01
 -1.4377474e+00
 -6.6737592e-01
  3.0569309e-02
 -6.0381204e-01
 -1.5068564e-02
  2.1454835e-01
 -4.3328501e-02
 -2.5058240e-01
  6.1601661e-02
 -7.7427340e-01
 -3.4825303e-02
 -3.6477819e-01
 -7.5203389e-01
 -7.8396088e-01
  3.2971263e-01
  2.8444982e-01
 -4.2456070e-01
 -1.5384887e-01
  4.3310800e-01
  6.0052447e-02
 -2.7097172e-01
 -5.5405205e-01
  3.8769674e-02
  7.7310264e-02
 -2.8581288e-02
 -5.0579224e-02
 -3.1685123e-01
  2.7410709e-03
 -3.5511696e-01
  8.2177423e-02
 -4.8052657e-01
 -8.2422805e-01
  5.7897729e-01
  8.1533414e-01
  1.9278374e-02
 -4.1408214e-01
  2.0726614e+00
  8.6076975e-01
 -4.9010046e-02
 -1.5233392e-02
 -2.0445955e-01
  3.7834540e-01
 -2.5603691e-01
  1.8436822e+00
  3.7381601e-01
  4.5811880e-02
  1.9194017e-01
  2.0586836e+00
  6.8501663e-01
 -1.9286114e-01
  1.3093972e-01
  1.3037977e-01
 -3.3302072e-01
  2.3756948e-01
 -4.7205967e-01
 -1.9843714e-01
  6.9008574e-02
 -1.0753008e-02
 -2.3298725e-01
  2.6076898e-01
  1.1323600e-01
 -1.4008568e-01
 -4.2661971e-01
  3.1951684e-01
  5.4242840e-04
  8.7053633e-01
  1.5930378e-01
  6.6442572e-02
 -1.5480462e-01
  3.7469587e-01
 -1.5887839e+00
 -6.0055673e-02
 -4.5023665e-01
  2.2428270e-04
  1.8348335e-01
  3.5117332e-02
 -1.7566072e+00
  3.3407497e-01
 -7.9391316e-02
  1.4810272e-01
 -8.8442951e-02
  4.1483408e-03
 -1.7069225e-01
 -2.0106784e-01
 -8.0776744e-02
 -2.1949653e-01
  1.9503301e-01
  7.0209318e-01
  1.3053975e-01
  3.3452156e-01
 -1.1983922e+00
  2.2674574e-01
 -1.8019288e+00
  1.2867981e-01
 -3.0612034e-01
  6.2107193e-01
 -2.1076922e-01
 -1.0670040e-01
 -3.0795470e-01
  1.4897384e-01
  1.3054610e+00
 -3.3053708e-01
  1.0437376e+00
  7.3381740e-01
 -3.0208336e-02
 -7.7292937e-01
 -1.3669719e+00
  1.2247055e+00
 -1.0179492e+00
  2.4247593e-01
 -3.4680867e-01
 -1.5034028e+00
 -5.8579449e-02
 -1.5751579e+00
  2.1095197e-01
 -8.4716655e-02
 -8.6219683e-03
 -2.6514986e-01
  2.3315078e-01
  5.4704815e-01
  1.0473752e+00
  4.4493532e-01
 -1.2090981e+00
 -5.2164197e-01
 -2.5696141e-01
 -1.9363214e-01
  1.2784353e+00
 -6.2848079e-01
  1.1575184e+00
  2.2556461e-01
 -8.7141073e-01
 -2.1097100e+00
  1.3912680e+00
  6.3931030e-01
 -5.1306862e-01
  1.0110903e+00
  3.7499848e-01
  9.1548271e-02
  8.7386385e-02
 -1.0265757e+00
 -1.5170493e+00
  2.4402109e-01
  1.0383462e+00
  4.8359346e-01
  3.4637442e-01
  1.1525647e-01
  5.1247239e-01
 -1.1838808e+00
 -6.3429922e-01
 -9.8042929e-01
 -7.3055047e-01
  3.3977064e-01
 -5.3504580e-01
 -1.9393255e-01
  8.7467156e-02
 -1.1169984e+00
 -4.4055590e-01
 -6.5919870e-01
  1.5025496e+00
  1.5925170e+00
  1.3862859e+00
  3.0812931e-01
  8.4690702e-01
 -4.7633198e-01
 -1.7458141e+00
 -9.4527525e-01
  3.7490468e-02
 -3.3167548e-02
  3.4939438e-01
 -7.5891829e-01
 -7.4271224e-02
  3.5972342e-02
  1.5606803e-01
  2.0242368e-01
 -4.9538782e-01
  3.5682120e+00
 -1.9078174e+00
 -5.0084513e-01
  2.7997628e-01
  7.6737398e-01
  2.5244528e-02
 -4.1327015e-01
  2.6810164e+00
 -3.6708644e-01
  1.3683256e+00
  5.8373526e-02
  1.9183521e-01
 -3.4291232e-01
 -5.0468039e-02
  1.7835985e-01
  7.0115620e-01
 -4.7385331e-02
 -9.3125910e-01
 -1.6994680e+00
 -1.5028949e-01
 -9.7298390e-01
  2.3633309e-01
  9.3983270e-02
  8.7256098e-01
  7.1867049e-02
  3.5264620e-01
  5.5421132e-01
  8.8536993e-02
 -6.6880763e-02
  8.9998730e-03
 -3.3484539e-01
 -2.2577111e-01
  2.5436133e-01
 -1.3311799e+00
 -5.6645030e-01
  1.6325819e-01
 -1.1736841e+00
  4.9244359e-02
 -1.2104385e+00
  1.4325421e+00
 -1.1819686e+00
  8.2647361e-02
 -1.3124720e+00
  1.1729804e+00
 -5.3930235e-01
 -3.4247097e-01
  3.8350897e-04
  9.1371441e-01
  1.1825403e+00
  2.3069216e-01
 -1.3997000e+00
  2.4003344e-02
  1.0424969e-01
 -1.3309462e-01
  3.7448621e-01
  5.6456607e-03
  3.3827189e-02
  8.6571205e-01
  1.2041584e-01
 -8.3091551e-01
  9.7711764e-02
 -5.3179953e-02
  2.1555123e-01
 -5.1263982e-01
  9.1890872e-01
  7.8788400e-01
  1.1991013e+00
  5.2032810e-01
 -4.5195371e-01
 -9.1174698e-01
  6.5294409e-01
  1.5606890e+00
 -1.7354423e-02
  2.3286283e-01
 -7.7673489e-01
 -2.8495708e-01
  1.7153993e+00
  2.8063810e-01
 -6.6305548e-01
 -4.2512071e-01
 -2.2644074e-01
 -5.8048928e-01
  1.4981325e-01
 -1.0442135e+00
 -1.4887211e+00
  4.4367164e-01
 -1.4515446e-02
 -9.4025701e-01
 -1.7138381e-01
 -6.2789935e-01
  6.3126117e-02
  1.4635129e-01
  1.0795852e+00
 -1.1756693e-01
  2.2111087e-01
  7.3802781e-01
 -8.8721722e-01
 -4.4102585e-01
  1.5053503e-01
  4.6560466e-01
 -1.4891957e-01
  4.5610061e-01
  2.6751906e-02
  1.7481524e-01
 -4.0419087e-01
  1.1736592e-01
  5.7607311e-01
 -2.2394295e-01
 -1.2408621e-01
 -1.5916976e-01
  2.5322810e-01
  6.5663004e-01
 -1.9398344e-01
 -2.7610645e-02
  2.8402790e-02
 -8.2394612e-01
  8.6041942e-02
 -9.4798142e-01
 -1.3343875e-01
  4.7031436e-02
  8.0692041e-01
  3.7438311e-03
  6.7043668e-01
 -5.3098327e-01
  1.9159374e-01
  5.5574292e-01
 -6.2492555e-01
 -5.8556825e-01
 -5.1139545e-01
  4.6556172e-01
  1.6606924e-01
 -9.9936023e-02
 -1.2656738e+00
  1.6061312e-02
 -3.1859627e-01
 -5.8868563e-01
 -6.5470570e-01
  5.7072509e-02
 -3.7331805e-02
  1.1263158e+00
 -2.6346657e-01
 -6.2920529e-01
  4.2439431e-01
  6.3338661e-01
 -2.3500288e+00
 -5.2703582e-02
 -2.3737006e-01
 -4.8331705e-01
  7.6537025e-01
 -1.5923345e-01
 -1.3460633e-01
 -2.3937423e-02
  6.0909277e-01
 -5.2395666e-01
  1.9832505e-02
  3.5741982e+00
  8.0819361e-02
  1.0041647e-01
 -5.4385722e-01
 -1.3000298e-01
  3.0688736e-01
 -1.2074312e-01
  2.2501935e-01
 -1.3600942e+00
 -2.4842037e-01
 -1.2768492e-02
 -3.8716066e-01
  8.3057031e-02
 -1.1763101e-01
  2.2882271e-04
 -1.9787213e-01
  6.6625975e-02
 -3.1842378e-01
  5.4017998e-02
  4.9386138e-01
  7.4049540e-02
  7.0238292e-01
  1.3804549e-01
 -4.6444535e-02
  2.2335494e-01
 -2.1718915e-01
 -2.4259323e-01
  3.4705672e-02
 -1.9886842e-01
 -2.7268890e-01
 -1.2403452e-01
 -1.5040521e-01
  3.4822602e-02
 -1.8827957e-01
  8.8600805e-03
  6.3362464e-02
 -9.3421854e-02
  1.1550754e-01
 -5.2598696e-03
 -1.0733985e-01
 -2.5431085e-01
 -7.2193736e-01
 -2.3993707e+00
  6.0166635e-02
 -5.3739631e-01
  7.3595911e-02
  5.1089430e-01
 -3.9865792e+00
  1.9446258e-02
  2.4214900e-01
 -5.5358604e-02
 -1.5194649e-01
 -4.6849579e-02
 -1.7492594e-01
  9.3778938e-02
  8.5825801e-02
  4.5318758e-01
 -1.2203397e+00
 -1.1621726e+00
 -3.6673784e-02
 -8.3811052e-02
 -2.3454468e-01
  1.4936401e-01
 -1.1396495e-01
  1.3290298e-01
  4.4651620e-02
 -6.2295234e-01
  2.1803987e-01
 -7.6148915e-01
 -3.4628955e-01
 -3.0799139e-01
 -3.9994028e-01
  9.9345380e-01
  6.9909847e-01
 -2.9098516e-02
  2.3492886e-01
 -1.5323138e+00
  1.6470449e-01
  3.8544335e-03
 -3.8197896e-01
  2.4270277e-01
 -1.6218438e+00
  9.4417743e-02
  1.9240010e-01
  2.8137118e-01
  4.3538952e-01
  1.2990972e-01
 -2.0014658e+00
  2.3852418e-01
  3.1420189e-01
 -8.6701983e-01
  1.5122129e-01
 -1.6184002e-02
 -3.7321031e-01
 -1.8453959e-02
 -3.8357487e-01
  1.2007785e-01
  4.7366753e-02
 -6.0440961e-02
 -2.3730719e-01
 -2.3089932e-01
 -3.0524155e-01
 -3.4866217e-01
 -7.7045065e-01
 -5.1963466e-01
 -4.1728493e-02
  1.6305765e-02
  9.5111169e-02
  4.4521105e-01
  9.9930517e-02
  1.1026323e+00
  6.6397983e-01
 -1.5612036e-01
  8.3254926e-02
  2.0528607e-01
  5.8477920e-02
  3.2654405e-01
  5.0487626e-01
 -5.0322074e-02
  1.7106552e-02
  3.1026798e-01
 -2.6987433e-01
  4.0814430e-01
  1.1192568e-01
  5.4878209e-02
 -4.6685457e-01
  5.8090914e-02
 -4.7271928e-01
 -5.3512111e-02
 -2.1537602e+00
  6.3060182e-01
 -2.0659374e-01
 -1.4506610e-01
 -4.9457791e-01
 -7.0494696e-02
 -2.1841662e-02
 -1.1306427e+00
 -2.1811388e-02
 -5.0113160e-02
  7.4416637e-02
 -2.3474406e-01
  1.3295584e+00
  4.7508746e-01
  1.0470467e-01
 -1.1652996e-01
  4.5051721e-01
  3.5280503e-02
 -1.9179645e-01
 -7.5964116e-02
 -1.5433979e-01
 -1.1126237e-01
 -6.1745781e-01
 -3.7494630e-01
  2.1199707e-02
 -1.9105467e-01
 -1.0657344e-01
 -2.1383925e-01
 -5.4844421e-01
 -1.7981285e-01
 -3.5142049e-01
  3.4643283e+00
  1.4648567e-01
  3.1465605e-01
  3.0694404e-01
  7.0790613e-01
  2.3987085e-01
  1.6541921e-01
  4.2122960e-01
  1.3023480e+00
  5.6740735e-02
  2.8404686e-01
 -7.4715115e-02
 -6.8937853e-02
  3.4234309e-01
 -4.7690511e-01
 -9.2302197e-01
  6.8628311e-02
  1.2985428e-01
 -1.1558730e-01
  4.4850576e-01
 -1.4107774e+00
 -1.8546340e-01
  1.8283735e-01
  3.4861028e-02
 -1.8738565e-01
  1.7128782e-01
  1.2901336e-01
 -1.0472777e-01
  3.2268620e-01
  1.3948452e-01
 -4.6279192e-01
 -8.8560230e-01
  4.4355894e-04
  8.4382528e-01
  7.5679496e-02
  2.1933828e-01
  2.0196234e-01
  5.8304888e-01
 -2.0018126e-01
 -1.2787515e+00
 -3.8382733e-01
  2.4871798e-01
 -6.8313682e-01
 -1.5717442e-01
 -1.8451892e-01
  8.8569168e-03
  1.0689872e-01
  1.3755624e-01
  1.8248424e-01
  5.7076514e-01
  4.9987212e-02
  1.7822596e-01
  1.3239765e-01
 -1.3243537e+00
  5.3395651e-02
  1.5168422e-01
 -1.5438528e+00
 -4.9680969e-01
  1.3890442e-01
 -1.9486651e+00
  6.1994189e-01
  1.3828454e+00
  1.9204211e+00
 -3.5015885e-02
 -1.1585935e+00
  6.3872270e-02
  1.1901510e+00
 -2.2335172e-01
 -1.8236321e+00
  8.4397411e-01
  4.7374569e-02
 -1.5903203e-01
 -8.7685591e-01
  2.7280057e-02
  6.0718507e-02
  1.0578327e+00
  1.2378854e-01
  1.6244634e+00
  2.5001600e+00
  3.4479025e-01
 -1.1129706e+00
 -3.4128430e-01
 -6.4522955e-03
 -1.2451843e+00
 -1.1699180e-01
  1.8042738e-02
  2.7142332e+00
  2.8233852e+00
 -2.9850883e+00
  2.4372976e-02
  2.8325353e+00
  4.2355761e-01
  8.3152902e-01
  2.7377021e-01
 -2.6659520e+00
  5.6974590e-01
  1.5205972e+00
 -1.5564047e+00
  8.3558172e-02
  5.7453787e-01
 -3.4173125e-01
 -7.1096024e-03
  2.5224391e-01
  2.6916069e-01
  2.0635288e+00
 -6.1371535e-01
  9.9557668e-02
  2.4789990e-01
 -1.9699583e+00
  7.7299797e-03
  3.7769255e-01
 -4.5584244e-01
 -8.0111498e-01
  8.8168994e-02
 -5.2181268e-01
 -2.0331352e+00
  6.3456273e-01
 -3.2636219e-01
  4.1441512e-01
  3.6631074e-02
 -7.9632008e-01
  1.4340450e+00
 -2.7023456e-01
 -4.4128713e-01
 -5.2928317e-01
  4.2834821e-01
 -1.3044932e-01
  7.2869253e-01
 -9.0314843e-02
  2.6108685e-01
 -3.1688881e-01
 -3.4196246e-01
  1.0314663e-01
 -4.1060528e-01
 -7.0248038e-02
 -9.8757394e-02
 -3.7173748e-01
  2.7595586e-01
  1.4529866e-01
  7.5220841e-01
 -1.2830040e-01
 -2.4701047e-01
 -1.3506345e-01
 -2.8342181e-01
  3.5974938e-01
 -1.0575148e+00
  7.0235628e-01
 -6.2281344e-02
  3.2503255e-02
 -8.9951497e-01
  6.5259547e-03
 -1.3059117e-01
 -1.8778780e-01
  3.4880152e-01
 -4.8905694e-01
 -9.1243416e-02
 -3.0237138e-01
 -6.6189378e-02
 -4.7214243e-01
 -3.5214779e-01
 -6.0299700e-01
  1.2033311e-01
  4.4264472e-01
  5.8012575e-01
  1.2130685e+00
  9.7126037e-02
 -1.3359127e-03
 -2.6553127e-01
  5.5346340e-02
 -6.8690702e-02
 -2.2245492e-01
 -6.8072104e-01
 -1.0208759e-02
 -1.9405816e-01
 -3.1045096e-02
 -1.5051995e-01
 -1.9720437e-01
  1.3791566e-01
 -6.4981833e-02
 -1.3262420e-02
 -4.3963555e-01
  1.4890951e-01
 -5.4130986e-02
  7.8921355e-02
 -3.3399802e-01
 -1.6242842e-01
  1.4291722e-01
 -1.7363985e-01
  5.7024699e-02
 -3.6700219e-02
 -6.7969853e-01
 -2.3838115e-01
  2.0726055e-01
 -5.6343243e-02
 -1.7985504e-02
  2.8817477e-02
  1.7428152e-01
 -1.1462370e-01
 -7.2696811e-01
 -2.6437627e-02
  4.9487317e-01
  5.3079538e-02
 -3.5497877e-01
 -6.5835261e-01
 -9.8031086e-01
  5.8316424e-02
  3.1153932e-01
  2.5826141e-01
 -4.0057808e-01
  4.5988259e-01
 -3.4842230e-02
 -8.3733037e-02
 -4.4852743e-01
 -5.5615537e-02
 -2.2723149e-01
  1.9835159e-01
 -5.6043065e-01
  2.2056699e-02
 -8.7265670e-03
  1.1015266e-01
 -4.0589239e-02
 -2.0441464e-01
 -1.1126498e+00
  3.2704301e-02
  1.4180885e-01
  4.9228951e-02
  1.6985126e-01
  5.9333467e-01
 -2.3162539e-01
 -8.9527607e-01
  4.9400422e-01
 -2.8164527e-01
 -1.3460901e-01
  4.6203512e-01
  6.4982288e-02
 -3.7113863e-01
  4.6696606e-01
 -2.7694657e-01
  3.0431770e-02
  2.4831399e-01
  3.3008829e-02
  1.6240811e+00
 -1.2031657e-01
  3.1983319e-01
  1.5189809e-01
 -4.3065277e-01
 -4.7439459e-01
 -2.2476774e-01
 -1.4512793e+00
 -2.6517504e-01
 -7.1169198e-01
  8.4943838e-02
  5.4348284e-01
 -5.7139271e-01
  1.5900558e-01
 -1.7569937e+00
 -1.6920854e+00
 -3.8276556e-01
  4.8550617e-02
 -6.8590140e-01
  6.0479546e-01
  2.6757959e-01
  1.4153685e-01
 -3.4967259e-02
 -2.4151191e-01
  1.1243707e-01
 -7.4564952e-01
  1.1742814e-01
  7.1873081e-01
 -1.1921378e-02
 -2.9176867e-02
  2.6783487e-02
 -4.2862292e-02
  6.5004367e-01
  4.7930586e-01
 -1.1286906e-02
 -4.6100814e-02
  2.2976862e-01
 -2.5533625e-01
 -3.4323519e-01
  9.8642200e-01
  2.4499632e-01
  1.6409125e+00
  4.5690626e-01
 -1.0626925e+00
 -2.5925744e-02
  1.1325442e+00
 -3.5587141e-01
  3.5795516e-01
  6.4627282e-02
  9.2115140e-01
 -4.8256699e-02
 -1.0918938e-01
 -1.1262466e+00
 -6.5909493e-01
 -3.5894897e-03
  1.6310646e-01
  3.9645765e-02
  3.6389038e-01
  2.0132124e-01
  2.4152584e-01
  6.7521060e-01
  5.2069567e-02
  2.4795452e-02
  3.4517847e-02
  1.2716362e-01
 -2.2482601e-01
  1.8402033e-01
 -2.6580393e-01
  2.9932106e-01
  2.9445103e-01
  3.8231361e-01
 -1.0929556e-01
  1.6191166e-02
  1.5033616e-01
  1.1834566e-01
  5.6395192e-02
  7.1810400e-01
 -3.4478065e-01
 -5.2957244e-02
  1.1130113e-01
 -1.3126333e-01
 -3.6482224e-01
 -3.0010846e-01
 -5.9811529e-02
 -3.4493175e-01
  1.5067194e-01
  8.1530996e-03
  2.7065882e-01
 -1.2808396e-01
  1.1736652e-01
 -6.2870431e-01
  1.6635287e+00
 -7.3321052e-02
 -5.7561201e-01
 -3.4026152e-01
  1.6695019e+00
 -8.4075816e-02
 -1.9072182e-01
 -3.6034547e-02
 -2.9754719e-01
 -8.8815463e-01
  5.2128084e-02
 -7.1261577e-02
 -1.6696690e+00
  1.5337019e-02
  6.8777204e-02
 -3.5573944e-01
  2.7533742e-02
 -1.2958150e-02
 -6.2339568e-01
 -6.6879499e-01
 -3.2671265e-02
  3.2533357e-01
 -2.1457304e-01
 -3.1833071e-01
 -9.8801054e-02
  3.8114201e-02
  2.2229820e-01
 -6.8020001e-02
 -3.6127469e-01
 -3.6537152e-02
  6.7664765e-02
  4.7028530e-01
 -4.0415385e-01
  5.1095289e-01
  5.4183472e-02
  2.0186758e-01
  1.0669862e+00
  4.6264952e-01
 -1.4137812e-01
 -3.1169352e-01
 -1.3493769e-02
  9.6032001e-02
  2.0453651e-01
 -7.0720530e-01
  1.1968925e+00
 -1.5238840e-02
  1.6746922e-01
 -2.1338740e-02
 -2.1313457e-01
 -6.1162829e-01
  1.9594778e+00
 -2.1929021e-01
  1.7604561e-01
 -7.4628127e-01
  3.3598028e-02
  9.0444624e-01
  4.5646000e-01
  1.9191621e-03
 -1.1136498e-02
 -5.4397357e-01
  7.0837033e-01
 -6.6351265e-01
  1.8892445e-01
 -5.1470661e-01
 -2.4018683e-01
  3.1514743e-01
 -1.1130773e+00
 -3.2629952e-01
  2.5378099e-01
  1.5293972e-01
  4.0510246e-01
 -2.1609493e-01
 -1.3082850e-01
 -6.5527350e-01
 -4.2659160e-02
 -3.1509507e-01
 -1.0944675e+00
  2.4114314e-01
 -9.6642263e-02
  7.2776824e-02
  3.3959216e-01
  4.8737884e-01
 -1.6216834e-01
  4.2720255e-01
 -3.0963602e-02
  8.5952890e-01
 -3.4737208e-01
  1.4275646e-01
  2.4791494e-02
 -1.0947431e-01
  2.7103266e-01
  8.2300253e-02
  1.9537109e+00
  1.3201711e-01
 -2.0936850e-01
 -1.1158337e-01
 -2.4154758e-01
  4.2818792e-02
  1.7077796e+00
  8.8111234e-01
 -4.3037951e-01
 -1.8286729e-01
  5.6248212e-01
  8.2993917e-03
  1.6859855e-01
 -1.7023341e-01
  2.6990566e-01
 -4.8650511e-02
 -3.3915678e-01
  1.8314091e-02
  7.9978251e-01
 -2.7650023e-01
 -1.3516321e+00
  9.5457196e-02
  3.0662870e-01
  8.2890458e-02
 -2.3099551e+00
 -2.5331873e-01
  2.3262684e-01
  6.1446971e-01
 -1.2244617e-01
 -1.4058916e-01
 -2.1155347e-01
  4.7938643e+00
  1.7879857e-01
 -3.0611806e+00
 -5.3714339e-02
  5.4668467e-02
  2.6904011e-02
 -1.0190273e-02
 -6.3818598e-01
  2.3635195e-01
  1.1145475e+00
 -1.6004002e+00
 -9.1158307e-01
 -6.0368639e-01
 -9.1994412e-02
  8.5612583e-01
 -2.6090974e-01
  3.4995109e-02
 -1.1140208e+00
 -2.0143081e-01
 -4.0858361e-01
  2.8052783e-01
 -1.6994221e-02
  4.1370754e-04
  1.9163666e+00
  3.6657232e-01
 -8.1919227e-03
 -7.1201545e-01
 -8.4039405e-02
  1.0039067e-03
  3.4339234e-01
  1.2445120e-01
 -2.2154891e-01
 -1.9825512e-01
  5.3222787e-01
 -1.9846423e-01
  3.3907972e-02
 -1.4186143e-02
  2.5580332e-01
 -2.2711875e-01
 -1.0395298e-01
 -8.7152489e-02
 -4.6838701e-02
 -2.5777090e-01
  3.8747877e-02
 -1.7877517e+00
 -1.1116590e-01
 -1.2565237e-01
  4.3712009e-02
  1.8636765e-01
  6.0447598e-01
 -1.4666553e-02
 -2.0731457e-02
  6.7001595e-03
  1.1070141e-01
  1.4594762e+00
  9.3908552e-03
  3.2076705e-01
 -1.3609785e+00
  1.2531811e-01
  4.8937643e-01
 -6.7670965e-01
 -6.5290385e-01
 -2.4302642e-01
 -1.8612897e+00
 -1.9283356e-01
 -1.7977575e-02
 -4.7964224e-01
  2.5788348e+00
 -1.2101349e-01
  6.7124061e-02
  2.9564735e-01
  1.2931768e+00
 -4.3744564e-01
  9.0770647e-02
  1.0759006e-01
  1.3580233e-01
 -8.8449293e-01
 -3.5744435e-01
  7.5847238e-01
 -1.0283263e+00
 -7.9717731e-01
  1.1769406e+00
  1.3587954e+00
 -6.8059462e-01
 -1.7818537e-01
 -4.4656921e-02
  9.5685184e-01
  7.0763052e-01
  7.7767205e-01
  2.6557422e-01
  7.0719481e-01
  8.2704020e-01
 -1.5033613e-01
 -3.2656428e-01
 -1.4834614e-01
  4.7201425e-01
  5.8064568e-01
  2.8795514e-01
 -2.9242970e-02
  2.5013638e-01
  4.7617260e-01
  3.1704691e-01
 -8.0305880e-01
  2.1032692e-01
  2.7458957e-01
 -1.6640997e-02
 -1.7315820e+00
 -3.9431942e-01
 -4.1831577e-01
 -2.7706477e-01
  1.6603198e+00
  3.4228761e-02
  2.4664102e+00
  7.2982304e-02
  3.7180191e-01
 -7.7491913e+00
 -3.9509618e-01
  1.2944942e-02
  9.4040828e-03
  4.2812172e-01
 -3.4083655e-01
  2.3386079e-01
  6.0994774e-01
 -4.5860883e-02
  2.6302243e-02
 -8.4539139e-01
  1.1156630e-02
  1.8978569e-01
  7.4061042e-01
 -2.0245726e-01
  3.4845930e-01
 -1.5172324e+00
 -3.5514966e-02
  1.7207521e+00
  2.9359099e-01
 -2.0242112e+00
  1.4893191e+00
 -4.3475617e-02
 -1.3414626e-01
  1.5288265e-01
  1.2973937e-01
 -2.6557556e-01
  4.3386185e-01
 -1.9920038e-01
  1.9109270e-02
 -6.1275584e-01
 -5.8048236e-01
  2.4348243e-01
  1.7143032e-01
 -6.3153821e-01
  4.3479554e-02
 -6.3295364e-02
  5.5643439e-01
  1.3512127e-02
 -3.9285548e-02
 -2.3022430e-01
 -2.4317341e-01
  1.0891591e-01
  2.5283352e-01
 -2.3621120e-01
 -8.5077184e-01
 -5.7767999e-01
  1.6587815e-01
  2.3873691e-01
  1.3696042e-01
 -1.1563716e-01
 -3.2601781e-02
 -7.8183979e-02
 -1.5740007e-01
  6.6256255e-01
  2.3440938e-01
  6.7381579e-01
  1.5530860e-01
  4.8364711e-01
 -4.4438045e-02
  6.5950221e-01
  1.4991868e+00
 -3.7835509e-01
 -2.4854898e-01
 -2.3187388e-01
  4.1718522e-01
 -3.5832128e-01
  2.9131852e-02
  1.5507659e-01
 -6.9317991e-01
  1.9531836e-01
 -3.6270983e+00
 -9.0437782e-01
 -6.4167237e-01
  5.7318085e-01
  3.8500220e-02
 -4.4808444e-01
 -3.2177517e-01
 -3.4866589e-01
 -1.2076966e-01
  1.8336859e-02
  2.3743781e-01
 -5.1946700e-01
 -5.2644634e-01
  6.4004883e-02
  9.2317797e-02
  6.9861180e-01
 -1.3030580e-01
 -3.4906960e-01
 -2.1739500e-02
 -3.3784717e-01
  2.2489497e-01
  1.7763904e+00
 -9.3858898e-02
  8.7061173e-01
  2.7980840e-01
  9.5193326e-02
  1.8027320e+00
  7.1932077e-02
  8.7723255e-02
 -2.6218331e-01
  6.7118136e-03
  2.7066159e-01
  1.6870792e+00
 -5.7070434e-01
  1.4055564e-01
 -3.3806100e-02
  4.2903480e-01
 -3.1945318e-02
  9.3464265e-03
 -2.7133888e-02
 -9.4959688e-01
  2.4588211e-01
 -3.5074356e-01
  7.4368435e-01
 -1.6946502e-01
 -1.1324772e-01
 -9.5928645e-01
  4.3413248e-03
 -3.7340421e-02
  2.1055946e-01
  2.3355381e-01
 -4.6463840e-02
 -2.1501159e-02
  2.1864752e-01
 -6.8763012e-01
  8.0283396e-02
  3.2125865e-03
  3.5614425e-01
 -1.7656937e-01
 -4.8197091e-01
 -5.7691578e-02
  1.1159037e-01
  7.1432090e-01
  5.3259051e-01
  2.3301314e-01
 -2.5909400e-01
  1.9041137e-01
 -6.7183599e-02
 -2.0325850e-01
  6.1598036e-02
  5.7419658e-01
 -1.5260170e-01
  9.4632715e-02
  1.7812610e-01
  9.5343739e-02
 -8.8123037e-03
 -9.7780131e-02
 -1.0712139e-01
  3.3850975e-02
  1.3905254e-01
 -5.5226719e-01
  4.1474033e-02
  1.6902086e-01
  6.0958568e-02
 -3.0723014e-01
  2.0946194e-01
 -6.5047884e-01
  8.4172332e-01
  4.8653190e-03
  1.4619319e-01
  7.0587873e-01
  6.7597938e-01
 -9.5049626e-01
 -1.0981022e+00
  2.5818519e-02
  1.6219774e-01
  6.3626546e-01
 -3.1458333e-01
 -1.3026771e-01
  1.4499237e-02
  1.6291671e-01
  2.1255401e-01
  5.2671436e-02
  4.9950024e-01
  4.8305261e-01
  3.4580433e-01
  5.2009106e-02
 -2.6345225e-02
  8.7583717e-03
  2.3550108e-01
  3.0457619e-01
 -5.5309370e-02
  1.7018394e-01
 -6.4455128e-01
  3.4726676e-02
 -1.7924239e-01
 -1.0018688e-01
  3.9683750e-01
  3.6238216e-02
 -1.8619755e-02
  3.1280842e-01
  2.8937557e-01
  1.6754375e-01
 -6.5539381e-03
  5.8354400e-02
  7.2940785e-01
  2.8800115e-01
  2.1770865e-01
 -8.7919563e-02
 -1.8274544e+00
 -1.0584340e-01
  5.2966382e-02
 -5.5681610e-01
 -6.8062179e-02
  1.6851114e-02
 -3.2907370e-01
  5.8383137e-01
  1.7159666e+00
 -4.8861198e-02
  2.9482141e-01
 -4.7391540e-01
 -3.3721449e+00
 -9.1582559e-02
  7.1753687e-01
  1.0590320e+00
 -4.6239731e-01
 -2.8627682e+00
  1.7031518e+00
  6.4064950e-01
  4.7284105e-01
 -7.0253640e-01
 -6.6878431e-02
  6.0445684e-01
 -1.4469583e+00
  1.3739301e+00
 -5.3432211e-02
  2.1850798e+00
 -1.5768496e+00
  2.4408910e-01
  3.8661024e-01
 -6.3641697e-01
  4.5354046e-02
 -8.2719034e-01
  3.0367041e-02
  7.8709483e-01
  5.0177562e-01
  1.2417717e-01
  1.3502051e+00
  9.3553672e-03
 -4.8703846e-01
  1.6318680e+00
 -9.7088806e-02
  4.4993866e-02
  1.4695280e+00
  2.1065240e+00
 -9.9036956e-01
 -1.4026972e+00
 -3.4178287e-01
 -6.7205471e-01
  2.0143394e+00
  5.0697535e-01
 -3.3624828e-02
 -1.1941195e-01
  5.1641768e-01
 -1.1207992e+00
  6.6132778e-01
  1.9976410e+00
  1.5563131e-03
  1.5620065e+00
 -1.8911917e-02
 -6.0828816e-02
  1.1024372e-01
  3.0364764e-03
  2.7139974e-01
  1.5018938e+00
  7.9189473e-01
  1.6350305e-01
  3.0424204e-01
  5.1689363e-01
  1.0574446e+00
 -2.1767433e-01
  1.7671382e+00
  5.6708805e-02
 -6.9929892e-03
 -2.9530820e-01
 -6.6215806e-03
  1.6679761e-01
 -3.9073732e-02
  6.4736670e-01
  7.3038764e-02
  6.9946378e-02
  1.4147924e-01
  9.5178470e-02
 -5.8398259e-01
 -3.8187918e-01
  1.3615181e-01
  5.0726212e-03
 -4.5700258e-01
 -3.5604589e-02
 -2.1249099e-02
 -1.9927981e-01
  2.3698100e-01
 -5.1713729e-01
  4.3506718e+00
  1.1908180e-01
  6.3046801e-01
  2.5366493e-02
  3.9728180e-01
 -2.2958358e-01
 -1.7053241e+00
  8.0313869e-02
  8.9104646e-01
  1.8554538e-01
  1.9912577e-01
 -1.3921046e-01
  3.0517167e-01
  3.3214757e-01
 -1.4579085e-01
  2.7789694e-01
 -1.0044101e-01
  1.7408177e-01
 -7.1532559e-01
 -2.9587269e-01
  2.0253904e-01
 -1.2732486e-01
  6.3415624e-02
 -1.0540682e-01
 -1.7031266e-01
  4.6711337e-02
 -1.5957610e-01
 -5.3984857e-01
  1.7455388e-03
 -1.8933449e-02
  3.2131910e-01
  1.5634170e-01
  5.2586559e-02
 -7.6722577e-02
 -6.3402526e-02
 -2.4826257e-01
 -9.6637622e-02
  1.5163179e-01
 -5.0261813e-01
  1.3709667e+00
 -2.9268670e+00
 -5.1331854e-01
  3.4081179e-01
  5.6449032e-01
 -4.8329294e-01
 -6.7379880e-01
  3.9936441e-01
 -6.4846985e-02
 -4.5648274e-01
 -8.2537957e-02
 -1.7469301e-03
 -1.8168744e+00
 -3.3807326e-02
  1.3489754e-01
  1.8208677e-02
  3.4232673e-01
  8.9137465e-02
  4.7686931e-01
  3.2808504e-01
  1.7083928e-01
 -5.9698981e-01
 -1.5563042e+00
  4.8821083e-01
 -2.1641722e-02
  1.7687291e+00
  3.0893898e-01
 -7.1002580e-02
  3.9581963e-01
  1.8597031e-02
 -2.8616357e-01
  9.1557167e-02
  9.5867954e-02
 -1.7235412e-03
 -3.9752778e-01
  5.3604573e-02
 -7.7971198e-02
  8.0748126e-02
 -1.9788976e-01
 -2.8548580e-01
  2.6141164e-01
 -3.0042863e-01
 -8.0071980e-01
 -6.2785283e-02
 -8.5111029e-02
  5.9812880e-01
  1.4685433e+00
  1.8727727e-01
  7.7377886e-01
  7.9434985e-01
  4.3224704e-01
  1.5570372e-01
  1.1606382e+00
 -1.9705050e-01
  1.1736237e+00
 -1.1405632e-02
  8.2216913e-01
 -5.3799272e-01
 -4.7873837e-01
  1.3842519e-01
  3.1640175e-01
 -8.2547903e-01
 -5.4273997e-02
  1.3019462e-01
  1.8198093e-02
 -2.5443363e-01
 -4.9088502e-01
 -3.6384541e-01
 -2.9396439e-01
  3.1098971e-01
  4.3910745e-01
 -9.9917412e-01
 -7.7633299e-02
  9.6996033e-01
 -1.0535844e-01
  5.7622695e-01
  1.3092827e+00
  2.0799911e+00
  1.7911160e-01
 -3.9937970e-01
 -7.3553331e-02
  7.7937585e-01
  2.8577587e-01
 -5.0346740e-02
 -8.5984483e-02
  4.4366398e-01
  1.6089942e+00
  3.4556422e+00
  4.7837374e-01
 -4.0837578e-02
  2.3559336e-01
 -1.3299789e-01
  1.8246479e-01
 -7.1620129e-02
  2.1177874e+00
  2.3912050e-02
 -2.1908914e-01
 -9.7412485e-05
  1.7214315e-01
 -9.3857966e-02
  1.7256548e-01
  1.2539606e-01
  2.7124009e+00
 -9.3124859e-02
 -1.5624477e-01
  1.2360037e-01
 -8.1441993e-01
  2.0854446e-01
  7.1806842e-01
  7.1745318e-01
 -4.2327777e-01
  3.8614422e-01
  5.6833928e-03
  7.1756756e-01
  1.6502410e-03
 -8.1483468e-02
 -1.4280927e-02
 -2.8128603e-01
  3.6677417e-01
 -4.8951593e-01
  8.4442109e-02
 -1.3752919e-01
 -9.5952824e-02
  1.3744740e-01
 -1.7232028e-01
 -1.4464711e-01
 -1.5574811e-01
 -2.3817930e-01
 -8.4992719e-01
 -8.7735936e-02
  8.9000776e-02
 -1.4097090e-01
  1.1510222e-01
 -6.9999707e-01
  3.4356385e-01
  5.2334078e-02
 -1.6217609e-01
  6.0866457e-01
 -3.2710344e-01
  1.0985433e-01
 -1.5566914e-01
  1.0941602e-01
  1.0321983e-01
  8.3372779e-02
 -6.9983566e-01
 -1.9715083e-01
 -6.5184690e-02
  2.1012591e-01
 -9.7670052e-03
  1.5962210e-01
 -2.0511507e-03
  2.9661542e-02
  1.3561916e-01
 -3.7280920e-01
 -1.1822524e+00
  9.2353806e-02
  1.1671673e-01
 -1.1696000e-01
 -3.5078558e-03
 -8.8664286e-02
 -1.1095533e-01
  6.5557164e-01
  2.1556184e-02
 -8.7355494e-02
  8.5958149e-03
  1.6758221e-01
  2.9890764e+00
 -1.0504554e-01
  7.1631916e-02
 -4.1479920e-03
 -5.5828756e-01
 -2.0307042e-03
 -6.4198360e-02
 -8.7966740e-02
 -5.6431744e-02
  1.8349706e-01
 -5.8929897e-03
 -1.3061341e+00
 -1.7641398e-01
 -4.6203488e-01
  2.1036594e-01
 -4.5401686e-01
 -6.2005788e-01
  7.6413900e-02
 -3.7751082e-02
  1.4944871e-01
  7.1797764e-01
 -1.3209434e-01
  2.5109595e-02
  5.4557938e-02
  7.4528374e-02
 -2.2313243e-01
 -1.3170447e+00
  4.6192113e-01
  1.9016917e+00
 -2.6431315e-02
  3.1646767e-01
  7.5074589e-01
  9.9622682e-02
  4.1650206e-01
 -1.7857378e-02
 -1.8455040e-01
  1.4169595e-01
  5.4846555e-01
  1.5626390e-01
  1.1864024e-01
 -2.9049104e-01
  1.0542662e-01
  1.0773604e-01
 -5.1759607e-01
 -9.9464275e-02
  2.3882691e-02
 -2.0738038e-01
  4.2233534e-02
 -2.1570031e-01
 -1.4020540e-01
  5.5623606e-02
 -3.4468830e+00
  1.9804938e-01
 -7.2874379e-01
 -1.6592734e-01
  3.1599179e-01
  3.0400771e-01
  4.5532864e-01
 -4.1423482e-01
 -2.8923487e-02
 -2.4667683e-01
  2.3776287e-01
  9.0963334e-02
 -1.3324828e-01
 -1.1500154e-01
  1.2710458e-01
 -3.6444764e+00
  1.5507242e-01
 -6.8362974e-02
 -5.7525444e-01
 -4.0076293e-02
 -8.7358944e-02
  1.0224935e-01
 -3.2437742e-01
 -2.7850064e-02
  3.1621459e-01
  4.0394294e-01
 -1.0890367e-01
 -6.1902040e-01
  1.1486614e-01
 -8.6463684e-01
 -7.3286626e-03
  2.4404882e-01
  5.9318155e-01
 -4.2972583e-01
 -7.8722872e-02
 -1.5834129e-01
 -4.9355105e-01
 -2.4816938e-01
  9.8573804e-02
 -3.2966435e-02
 -2.3175412e-01
  3.1736582e-03
 -9.1944627e-02
 -3.1862912e-01
 -1.0846294e-01
  1.4102918e-01
 -3.0509952e-01
  4.1301423e-01
 -9.6246880e-03
 -2.1417990e-01
 -1.4195250e-02
 -7.1739629e-02
 -2.9680979e-01
 -6.7976616e-02
  1.9059159e+00
  8.1964634e-02
 -8.1779510e-02
  1.8546417e-02
 -1.5050329e+00
 -5.8612060e-02
 -4.7208461e-01
  1.5582870e-03
 -1.4024850e+00
  1.4919999e-01
 -5.4009821e-02
  1.6509579e-01
 -1.9850701e-01
  3.6028665e-01
  5.2250856e-01
  1.9723435e-01
  9.3435057e-02
  1.9321090e-01
  2.1007195e-02
  1.2114276e-02
 -1.7968181e-01
  2.7718362e-01
  2.6065944e-02
 -8.4092300e-03
 -1.3684951e-01
 -1.5163140e-01
  1.4536908e-01
 -3.4974971e+00
  3.4665328e-02
  1.0774738e-01
  2.6934260e-01
  1.8376212e-01
 -4.6350501e-02
  8.8674285e-02
 -2.4440792e-01
 -6.3789831e-03
 -1.1817107e-01
  1.7746741e-01
 -6.7594104e-02
 -1.7063913e-01
 -3.6382869e-01
  1.0110800e-01
 -7.7480741e-02
 -6.0900785e-02
 -1.3305573e-01
  8.7251239e-02
 -1.5248424e-01
  1.5230031e+00
  1.6070089e-01
 -3.4759887e-02
  1.1708677e-01
  5.5606234e-01
 -2.5733549e-02
  5.7755136e-01
 -1.8081899e-01
 -5.8673378e-02
 -4.0492047e-02
 -2.7203336e-01
 -5.3684466e-02
  1.6568437e-03
 -9.8726332e-02
 -1.9980448e+00
 -1.0144930e+00
  3.8231304e-01
 -1.4756666e-01
  7.8828484e-01
 -8.5757256e-01
 -6.1494496e-02
  5.5817835e-02
 -8.3551385e-02
  4.5188403e-04
  1.5787110e-01
  1.9521293e-01
  2.7268711e-01
 -4.2693894e-03
  1.7719841e+00
 -8.1626795e-02
  1.2050083e+00
  4.8534563e-03
 -4.2287566e-02
 -1.7651403e+00
  4.6360627e-02
  4.3776205e-01
  2.6426859e+00
  3.6206994e-02
 -5.7233942e-01
  1.1135495e-01
  4.0418133e-01
  2.7655859e-02
  3.7577245e-01
 -2.9908558e-02
 -1.5375750e-01
 -3.5280833e-01
  8.4723674e-02
 -6.5929174e-02
 -1.7043483e-01
 -5.8465887e-02
 -6.5612614e-01
 -2.7079135e-02
  1.2050798e-02
 -4.2170039e-01
 -5.9691776e-02
 -2.4485034e-01
  2.1824038e-01
  1.2553020e-01
 -5.2212000e-01
  9.1439128e-02
  1.0971322e+00
  5.5807881e-02
  3.2597333e-01
 -5.2099550e-01
  8.3735004e-02
 -4.0275958e-01
  9.3771242e-02
  7.9384345e-01
  8.2867795e-01
  1.7169163e-02
  6.3698970e-02
 -8.1770945e-01
  1.2231553e-01
 -2.7744377e-01
 -2.6056758e-01
 -1.0928812e+00
  2.6034135e-03
 -1.7443081e+00
 -7.0796572e-02
  4.1506022e-01
 -1.4336656e-01
  2.5298601e-01
  4.0793401e-01
  9.0042084e-02
  8.4726518e-01
 -3.0532289e-01
  2.7623931e-01
  3.6507875e-01
  1.4898518e-01
 -3.6595526e-01
  2.3963752e-01
 -3.4439814e-01
  6.1857206e-01
  6.1135270e-02
 -1.1543378e-01
 -1.5298658e-02
 -2.3822137e-03
  9.0693727e-02
  2.7788287e-01
  5.8336908e-01
 -6.8614119e-01
 -1.6140422e-01
  3.7186527e-01
 -2.4507876e-01
 -2.9738420e-01
 -1.3874756e-01
  2.1066447e-01
 -1.3142698e-01
 -4.7386453e-01
  4.4450027e-01
  1.1756402e-01
  1.2177533e-01
  1.1129958e-01
 -5.6584519e-01
  1.1914314e-01
  1.4557287e-01
 -1.3138932e-02
  1.0302095e-01
 -7.6211238e-01
 -8.9308947e-01
 -6.5634829e-01
  3.1705979e-01
  2.0804036e+00
 -1.2847903e+00
 -2.6185137e-01
  1.0109016e-01
 -9.5183231e-02
 -5.9092849e-02
 -1.2251537e+00
 -3.3224860e-01
  3.6608863e-01
 -1.6091291e+00
 -1.2342740e+00
 -1.1311642e+00
 -2.6811075e+00
  1.6983180e-01
 -2.2235937e+00
  2.1838228e-01
  3.2936782e-01
 -1.7943500e-01
 -8.4088993e-01
  4.4405978e-02
 -2.2613204e+00
  7.3255980e-01
  2.9800949e-01
 -3.6800441e-01
  1.7615493e-01
 -6.7142241e-02
 -5.6124918e-02
  4.9067378e-01
 -1.0607116e-02
  2.3178821e-02
  7.0751294e-02
  1.8993740e-01
 -9.2869796e-02
  2.2293696e-01
  1.1872103e-01
  1.6626735e+00
  1.8414669e-01
  1.3978723e-01
  1.8347408e-01
 -6.8076178e-02
 -2.2508876e-01
  7.0403300e-02
 -1.0055431e-01
  5.5556548e-01
  1.5608190e-01
 -3.6334500e-01
 -2.7240494e-01
  1.6199687e-01
 -2.8740212e-01
  7.1769789e-02
  3.5199264e-01
  5.8401233e-01
  5.4739092e-02
  9.1776854e-01
  1.8985677e-01
  2.3595181e-01
 -1.8614233e-01
  9.6018970e-01
  7.3539212e-02
 -6.5153921e-01
 -1.1719004e+00
 -3.2835290e-02
 -8.5733816e-02
 -5.5875264e-02
 -1.1420396e-04
 -6.1308477e-02
 -1.4931220e-01
  7.3535633e-01
  5.1013279e+00
 -5.2292872e-02
  7.8156792e-02
 -2.5896994e-02
  1.7567644e-01
  4.4508144e-01
 -1.6663359e+00
  2.5488615e-01
  1.1947742e-01
  1.1386799e-02
 -4.2012098e-01
 -2.1368930e-01
 -4.7270134e-01
  7.1124598e-02
  8.4542656e-01
  6.8125260e-01
 -5.9936178e-01
 -8.7685984e-01
  9.1360427e-02
  5.3282762e-01
  2.8776916e-02
 -2.8710875e-01
  1.3442222e+00
 -1.9684684e-01
 -8.3697312e-02
 -4.0649969e-02
 -3.1527495e-01
 -8.5291320e-01
 -2.2630388e-01
 -3.9875493e-03
  6.6465542e-02
  1.1719369e-01
  1.7892197e-01
  2.6428357e-01
  2.2585046e-01
 -1.6508564e+00
  1.1307946e-01
  6.2832899e-02
 -7.5680546e-02
  2.7804789e-01
  2.8456548e-01
 -6.0709852e-01
  1.7369372e-01
 -1.9257675e-01
 -3.4680638e-01
  8.0809051e-01
 -3.9432323e-01
 -1.3652106e-01
  1.9907559e+00
  7.3663151e-01
 -7.4187671e-03
 -6.4452475e-01
  4.6034905e-01
  1.7791486e+00
 -1.7858423e-02
 -1.8945518e+00
 -3.1639990e-01
 -1.8442404e+00
  6.5954298e-01
  4.3819058e-01
 -9.2259467e-02
 -1.3975258e-01
  4.9218878e-01
  1.0524947e-01
 -4.1369539e-01
  3.7839884e-01
 -2.0606902e-01
 -1.5815009e+00
  3.3476944e+00
 -4.7286406e-01
 -2.7620661e-01
 -6.7246038e-01
  8.7327564e-01
 -1.5053493e-01
 -1.6119306e+00
 -1.5323004e+00
  3.4866914e-01
 -1.4327661e+00
  2.3735668e-01
  2.5810153e+00
  2.7316106e-02
 -8.4915400e-01
 -2.2744214e-02
 -3.5914853e-01
  2.3287575e-01
 -6.1603766e-02
  3.2705319e-01
 -1.5456083e-01
  4.4086936e-01
  7.3748326e-01
 -2.7368596e-01
 -4.1994151e-02
 -3.6501139e-02
  1.9435641e-01
 -2.4878632e-01
 -2.8263122e-02
 -3.2365689e-01
 -2.6092014e-01
 -1.1073960e-01
  7.1222585e-01
 -4.8177525e-02
 -3.1368053e-01
  6.5341053e+00
  4.1662404e-01
 -1.3973650e-02
  2.8268836e-02
  4.4851330e-01
  1.5635474e-01
  1.2323944e-04
 -3.3537629e+00
  5.4887772e-01
  9.9430010e-02
  1.4264293e-01
 -3.3471805e-01
 -9.0512134e-02
 -5.1852095e-01
 -1.6557266e+00
  3.3524189e-02
 -3.4447286e-01
 -5.3336203e-01
 -9.7515486e-02
 -8.3058305e-02
 -9.9890411e-02
 -2.1389113e-01
  8.8940807e-02
 -5.3709596e-01
 -1.0522661e-02
 -1.6975835e-01
  2.5216690e-03
  6.5769523e-01
  5.2765585e-02
 -2.5542068e-01
  2.3826136e-01
  6.9935149e-01
 -2.0124859e-01
  1.3833599e+00
 -1.0337706e-01
  3.7486840e-02
 -3.1814501e-01
  2.2913670e-02
 -1.4441752e-01
  5.6264031e-01
 -3.5797704e-02
 -7.0127860e-02
 -1.0416956e+00
  3.2350966e-01
 -2.2424850e-01
 -1.0638269e-01
  8.3102226e-02
  2.7536672e-01
 -5.5316412e-01
 -1.6198552e-01
 -2.4208622e-02
  4.8203763e-02
  4.5356135e+00
  3.5462905e-02
  2.7909458e-01
  1.8767343e-01
 -1.5524209e-01
 -6.1780727e-01
  2.2426639e-01
  1.3922530e+00
  4.6210170e-01
  4.6433499e-01
 -1.2774922e+00
  1.1992269e-01
  9.1257668e-01
  1.2256575e-01
  2.2846822e-01
  2.3314786e-01
  2.0830472e-01
  1.0253973e-01
  2.2775400e+00
  3.2530122e-02
  4.8712891e-01
  5.7583932e-02
  4.3016756e-01
  1.3052334e-01
  1.4980898e+00
 -6.5157808e-02
 -2.9877923e-02
  5.7919663e-01
 -1.4904654e-01
  2.0703404e-01
  7.8549245e-03
 -1.5864681e-01
  1.3319010e-01
  6.4941727e-02
 -1.7459615e-03
  2.2250904e-01
  1.0247577e-01
  3.8755760e-02
  2.5688810e-02
  2.3321769e-01
  1.4425810e-02
 -7.5267091e-02
 -3.8861603e-01
 -4.0005273e-01
 -1.1304271e-01
  7.7983968e-02
  2.0942582e-01
 -9.7212106e-02
 -6.8135047e-01
  2.6624650e-01
  4.1593498e-01
 -1.6503105e-01
 -1.7478698e-01
 -6.6164577e-01
  2.7632806e-01
  1.9736075e+00
 -1.5119134e-01
  7.5948298e-02
 -7.4914515e-02
  4.2055011e-02
  1.3464591e-01
  1.8553852e-01
 -1.4235194e-01
  4.5321292e-01
  3.4348512e-01
 -1.7446158e+00
 -3.0658868e-01
 -2.5120139e-01
 -1.3129869e-01
  7.2145596e-02
 -4.1511819e-01
  7.9948282e-01
 -3.4351531e-01
  1.2421798e-01
  5.8365244e-01
  1.8026739e+00
 -5.5131185e-01
 -1.7403755e-02
 -3.2069206e-02
  1.8285663e-01
 -1.1713586e-01
  6.0989756e-02
 -1.2747135e+00
 -4.9732989e-03
  2.8060639e-02
 -5.3908661e-02
 -1.9798844e-01
  4.6686834e-01
 -1.0091188e-01
  2.2372682e-01
  2.5504655e-01
  2.4050145e-01
 -1.9952169e-01
 -2.2632726e-01
  2.1670556e-01
 -6.2452301e-02
  2.9215476e-01
  9.8056523e-03
 -3.2011348e-01
 -6.1460620e-01
 -3.5005456e-01
 -4.1512147e-01
 -4.0890676e-01
  6.8095946e-03
 -2.4355811e-03
  4.4770364e-02
 -1.9265939e-01
  1.8675786e-02
 -3.4473073e-01
  2.1273611e-01
 -4.7147280e-01
  2.8088126e-01
 -2.0362988e-01
 -5.1053166e-02
 -2.7183533e+00
  1.4068797e-01
  3.2105461e-02
 -1.0597366e+00
  3.9752981e-01
  1.9786049e-01
 -1.5986925e+00
 -1.6394112e-01
 -6.4861082e-02
  3.0854630e-01
 -7.2702512e-02
 -1.9127430e-01
 -6.3219182e-02
 -2.1600053e+00
 -9.6262343e-02
 -1.4640896e-01
  3.6521409e-02
  1.4074783e-01
 -3.8191202e-01
  1.0668893e+00
 -3.2546523e-01
  3.5614619e-01
  4.8485053e-01
 -2.1393073e-01
 -2.8967135e-02
  1.0803153e-01
 -2.7351615e-01
  2.1036142e-02
  3.2366592e-02
 -9.3713932e-02
 -7.2956747e-01
 -1.4371811e-01
  3.3494404e-01
 -4.6331784e-01
 -1.6980255e+00
 -3.1927925e-01
 -5.5370110e-01
 -9.6560544e-01
 -8.1658371e-02
 -2.4378839e-01
 -2.4348187e+00
  4.0587664e-02
  5.8716917e-01
 -8.8111258e-01
 -4.6319118e-01
  1.6442606e-01
 -8.3282644e-01
 -3.1336364e-01
  2.0106627e-01
 -8.8061042e-02
 -3.7672615e-01
 -2.5776285e-01
  5.6244299e-02
  4.0683976e-01
 -6.9596320e-01
  1.9235696e-01
  1.5224653e-01
 -7.4999100e-01
  1.0334803e-01
  4.1078892e-01
  9.0300447e-01
 -1.3391037e+00
 -3.5781249e-01
  7.2760123e-01
  2.8875585e+00
 -1.9599515e-01
 -4.8215374e-01
 -1.0824364e-01
 -5.6270301e-01
  5.8331430e-01
  7.4975830e-01
  5.8439398e-01
 -1.1744940e-01
  2.5259707e+00
  3.9022204e-01
 -1.0834142e+00
 -6.4664978e-01
  3.1475578e-02
  1.1132835e+00
  6.2019587e-01
  3.6098542e+00
 -7.7886885e-01
  9.2627025e-01
  1.3727297e-01
 -1.5741565e-03
  7.0730287e-01
 -3.1761786e-01
  2.6277616e+00
  2.1649511e+00
 -8.1268018e-01
 -7.3511046e-01
 -8.1147861e-01
  7.2206730e-01
  9.8324341e-01
  1.0213895e+00
  1.3499480e-01
  2.4662395e+00
  4.6703345e-01
  1.0572985e-02
  1.1118377e+00
  1.0795642e+00
  9.8761940e-01
 -6.2387788e-01
  1.1807176e+00
 -1.0921225e-01
  3.2690829e-01
 -1.4976221e+00
 -1.4775895e-01
  7.4276981e+00
 -1.6200851e-01
  1.6571449e-01
  8.7959886e-02
  1.7131922e-03
  3.4230163e+00
 -7.4471526e-02
 -1.4358111e-01
  9.1294080e-01
  1.9285773e-01
  2.2759469e+00
  1.0346711e-01
  1.2828315e+00
 -2.3022087e+00
 -1.4311262e+00
  3.7532058e-01
 -1.8448980e-01
 -3.8428366e-01
  8.4862471e-01
  1.4589398e+00
  8.1977852e-02
  1.5860106e+00
  4.4551674e-02
  1.1227866e-01
 -2.8518796e-01
  2.2890937e-01
  1.6763094e-01
 -6.5314370e-01
  1.6948115e+00
 -2.9476175e-02
  8.2178622e-02
 -5.5278528e-02
  5.8336365e-01
 -5.8746713e-01
 -4.6247672e-02
 -6.7288011e-01
 -2.0493472e-01
  3.1108394e+00
  7.2322339e-02
  9.8939277e-02
  8.3854601e-02
 -9.2761028e-01
 -1.0448978e-02
  6.4223123e-01
 -7.3508039e-02
 -1.7923795e-02
  9.4778374e-02
  1.3279596e-02
  5.0369722e-01
  3.3035848e-01
  4.9916542e-01
 -3.4909272e-01
 -1.3972862e-01
 -6.2735105e-01
 -5.7161391e-02
 -8.0992478e-01
  1.3623712e-02
  1.1740373e+00
  9.2331894e-02
 -5.7788277e-01
  1.9299862e-01
  1.8975529e-01
 -4.5641452e-01
  6.2649637e-02
  6.5772295e-02
 -2.1169406e-01
  6.2548302e-02
  1.9203466e-01
  8.6950493e-01
  3.1592929e-01
  1.6241211e-01
  1.2613311e+00
 -4.1169319e-01
 -1.4277130e+00
 -7.4938379e-02
 -5.9711933e-01
  2.8839064e+00
 -8.9587860e-02
  1.9017071e-01
  5.8897763e-02
 -6.7243762e-02
 -3.8283783e-01
  1.0153894e+00
 -6.8707514e-01
 -2.3912685e-01
  5.4973215e-02
  1.4408983e-01
  3.9309684e-02
 -1.1756077e-01
 -1.4768279e+00
 -1.4596008e-01
  3.1678388e-01
 -3.6993903e-01
 -1.2061760e-01
  6.3705671e-01
  3.0899458e+00
 -2.3284571e-02
  4.7181576e-01
  1.5057750e-01
 -1.8737338e-01
  4.5213112e-01
  6.5701693e-01
 -2.9577893e-01
 -4.4355565e-03
 -2.8198820e-02
  7.2070134e-01
  1.0775371e+00
 -1.6323128e-01
 -1.1620003e-02
 -4.3588415e-02
  3.0170432e-01
 -1.6563473e-02
 -1.4171928e-01
  3.8070982e+00
  1.0022558e+00
 -6.3122034e-02
  1.3968875e-01
  7.8336507e-01
 -7.1319088e-02
 -6.8248367e-01
  7.8028455e-02
 -5.4386977e-02
 -1.1219344e+00
  2.0918638e-01
 -4.4366187e-01
  9.4056356e-01
 -1.3738361e-01
  2.9611072e-01
  4.8991597e-01
  3.4818867e-01
 -1.1880328e-01
  3.7253219e-01
 -3.4966102e-01
 -7.7673465e-01
  3.2430065e-01
 -3.2567844e-01
 -2.4944720e-01
 -3.8336262e-01
  9.9613130e-01
 -5.1672716e-02
  5.6867075e-01
 -4.7894172e-02
 -5.3403670e-01
  4.3764192e-01
  3.4583542e-01
  6.4589727e-01
 -1.4752079e+00
  2.4971944e-01
 -9.1713572e-01
  1.2769121e-01
 -9.0089776e-02
  5.2108771e-01
  7.8273666e-01
  1.7657951e-01
 -6.4001286e-01
  4.6910447e-01
  1.3893798e-01
 -4.4652164e-01
  8.4391408e-02
 -9.7668409e-01
 -6.1781681e-01
 -6.5392733e-01
  8.5368675e-01
  1.4441070e-01
 -8.8863575e-01
 -8.0515957e-01
 -2.9008558e-01
  3.9200749e-02
 -1.3182920e-01
  1.7146283e-01
 -1.1386106e-02
  4.7503912e-01
 -5.1971096e-01
 -7.9491787e-02
 -3.9367259e-01
 -3.4936461e-01
  6.7055053e-01
 -3.8478276e-01
 -2.7530232e-01
 -4.1741543e+00
  8.8720381e-02
 -2.8175554e-01
  5.5140531e-01
 -3.1044325e-01
 -1.1008772e-02
  1.0563647e-02
 -6.3896254e-02
  4.1171351e-01
  9.1439679e-02
 -1.3750806e+00
 -1.4741179e+00
  6.9461758e-03
  1.7460437e-01
 -1.2470232e-01
  4.8487773e-03
 -5.6859761e-02
 -4.3782511e-01
  1.2431272e-01
  2.8874907e-01
  1.0944117e-01
 -1.7554289e-01
 -5.8836520e-01
 -4.5383841e-01
  4.0235698e-02
 -1.2973997e-01
 -2.9985432e-02
 -8.3486753e-04
  2.4536519e-01
 -4.7490606e-01
  3.8835797e-02
 -2.9687893e-01
  4.4952697e-01
  1.8718636e-01
 -2.3091431e-01
  1.3638489e-01
 -1.2223338e-01
  4.9152218e-02
  5.2335507e-01
  6.2973720e-01
 -2.3107020e-02
  2.1092626e-01
 -9.0603665e-02
  1.6881977e-01
  9.3415111e-02
  2.4971083e-02
  3.8127157e-01
  3.3976279e-02
  1.5862039e-01
  5.8738500e-01
 -1.1998794e+00
 -2.1796234e+00
 -1.7852902e-01
  4.9560249e-01
  3.5910207e-01
 -5.9704137e-01
 -1.2413378e-01
  2.9645100e-01
  1.0399971e+00
  1.9432747e-01
  4.7492351e-02
  1.3604915e-01
  1.1535785e-01
  5.0836690e-03
  3.4649494e-01
 -2.0260581e-01
 -1.7502128e-01
  2.8827110e-01
  5.5566674e-01
  1.2474603e-01
  1.4451051e-01
  1.9228907e+00
 -9.2048444e-02
  4.6340403e-01
  2.4118450e-01
  1.3655890e+00
  2.3731378e-01
 -1.0123943e+00
 -4.8972401e-01
 -2.4121151e+00
 -3.5267934e-02
  1.7895123e-01
 -4.5786947e-01
 -7.9307967e-01
  2.8259414e-01
 -1.3630047e-01
  1.5488700e+00
 -2.5775391e-01
  1.9429199e-01
 -3.7154901e-01
  3.0065200e-01
 -1.8626592e-01
 -8.2590401e-02
 -8.0136411e-02
 -2.5454506e-01
  5.1162469e-01
 -8.8342922e-03
 -7.4630223e-02
  2.2848614e-02
 -5.5094427e-01
  5.4245662e-02
  3.4843192e-02
  2.2538660e-02
  1.6431648e-02
 -4.7028926e-01
 -2.8960410e-01
  1.4926058e-01
 -5.8889743e-02
  1.3114603e+00
 -6.4676642e-02
 -2.4724212e+00
  8.3786762e-01
  2.3154767e-01
  5.4426737e-02
  1.0747926e+00
  3.7940431e-01
  6.9622815e-01
  1.4176908e-01
  1.0050762e-01
  7.4396826e-02
 -3.4303438e-02
 -3.0404904e-01
  1.2852593e-01
  1.5437277e-02
  1.7689025e-01
  9.9671692e-02
  7.4509859e-02
  1.7737202e-01
  2.7149773e-01
  1.4786789e+00
 -6.2178396e-02
  1.6340730e-01
 -1.5066534e-01
  2.5041801e-01
  8.4242754e-02
 -8.6645462e-02
 -2.6237744e-01
  2.8415716e-01
  5.6113154e-01
 -3.7565276e-01
  5.7773117e-02
  2.8002155e-01
 -3.2326171e-01
 -9.3649467e-04
  1.1856405e-01
  1.3460332e+00
 -1.2707233e-02
  2.1403545e-01
  2.6855066e-01
  1.9095688e-01
 -2.6161209e-01
 -2.1151358e-02
  8.4204413e-02
 -2.0848268e-01
 -2.0738451e-01
  7.5672768e-02
  1.0078454e-01
  8.9522958e-02
  3.7557032e-02
  3.8184419e-02
 -3.5618827e-01
 -8.0200648e-03
 -2.2300546e-01
  1.1693504e-01
 -6.6004828e-02
 -1.6867065e-01
 -2.0840241e-01
 -2.0122566e+00
  8.7460577e-01
  8.9369780e-01
 -4.9997374e-02
 -3.0029333e-01
  5.9085566e-01
 -6.6829884e-01
 -2.9027866e-02
 -1.2643746e-02
 -6.8397209e-02
  2.6067689e-03
 -2.7501169e-01
 -2.4824111e-01
 -6.5889835e-02
 -1.3798195e+00
  4.5595657e-02
 -1.2924312e-01
  6.6709602e-01
  1.9682217e+00
 -4.9859995e-01
  1.7865594e-02
  1.2720923e-01
  4.3172246e-01
 -5.2712429e-01
  1.4302592e+00
  7.1647352e-01
  1.3987747e+00
  5.7451463e-01
  3.5297698e-01
  2.1495815e-01
  1.0287262e-01
 -1.7374305e-02
 -3.2059115e-01
 -2.4222893e-01
 -3.5374686e-02
 -3.8527671e-02
 -1.1818244e-01
  1.7599627e-02
 -2.7693260e-01
  4.7426157e-02
 -2.6659828e-01
  2.0598991e-01
  2.4779651e-02
 -2.0031635e-02
 -1.6002111e-02
  1.3564058e-01
  2.3479277e-01
 -2.3283391e-01
 -4.9928656e-01
 -3.6614347e-01
  9.2241859e-01
  2.5663310e-01
  4.2065346e-01
  9.3948275e-02
 -1.5840153e-01
  5.6996900e-01
 -3.1152046e-01
  5.1435548e-01
 -3.8261026e-01
  3.5899913e-01
  1.3999690e-01
 -3.8675514e-01
 -3.1840634e-02
  4.2105503e-02
  5.0725166e-02
  5.7994574e-02
 -3.7006386e-02
  1.0538385e-01
 -4.1116771e-01
  4.8698545e-01
  1.1026560e-01
  1.0364115e-01
  2.6119125e-01
  6.4898133e-02
 -6.6946256e-01
  1.6297054e-01
  6.0115367e-02
  3.4419787e-01
 -9.1892041e-02
  2.6863152e-01
  3.7231948e-02
 -6.2142980e-01
  5.5314332e-02
  1.5744385e-01
  1.2820235e+00
  2.0443621e-01
 -1.5041895e-01
 -1.6815619e-01
  3.6001080e-01
  9.3796300e-03
 -1.1999683e+00
 -1.9195098e-01
 -1.7775081e-02
  1.1638090e-01
 -2.7623191e-01
 -1.2465004e-01
 -3.7263265e-01
  1.5199064e-01
  1.5916649e-01
  3.3644009e-01
  1.5058720e-01
 -1.0937769e-01
 -8.5272960e-02
  2.4083164e-02
 -2.3213305e-01
  1.3553260e-01
  1.7019026e-01
  4.1007346e-01
  1.4521392e-01
 -1.9184810e+00
 -2.9396096e-01
 -2.6227188e-01
 -1.0508573e+00
  1.6298621e+00
  5.9452492e-01
 -1.4683110e-01
  3.1163229e-02
  1.4247067e-01
  1.5489125e+00
 -1.2052763e-01
  3.9064044e-01
  8.7050982e-02
  3.3857666e-02
 -6.2740850e-01
 -1.9889817e-01
 -1.3520485e+00
  1.6854441e-01
  7.0879149e-01
  5.5004384e-02
  4.1266197e-01
  1.8460748e-01
  1.2960590e+00
 -5.3237981e-01
  2.2279060e-01
  6.4193267e-01
 -8.1478179e-02
 -1.8265761e-01
 -1.7622189e-01
  1.9623704e-01
  3.1913123e-01
 -4.2023461e-02
 -1.1191246e-01
 -3.0117763e-02
 -1.2746625e+00
 -9.2115313e-01
 -1.4154625e-01
  1.9901451e-01
  1.9684857e-01
  3.2271485e+00
 -1.2478230e+00
  6.7432038e-02
 -1.1392879e+00
 -4.3500621e-02
  2.8545719e-01
 -7.9867572e-01
  1.2631565e+00
  2.3594029e-01
 -1.5900896e-01
 -4.5669276e-01
 -2.6969948e-01
  6.2057501e-01
  1.6930072e-01
 -2.0860887e+00
 -1.9087317e+00
  9.8394975e-02
  2.2436157e-02
  1.9356777e-01
  1.3356446e-01
 -1.9670804e-01
 -4.9634740e-01
  1.0731822e-01
 -6.5817362e-01
 -1.4805165e-01
 -2.1044173e+00
 -1.1178138e+00
  7.5447984e-02
 -2.5098905e-01
  4.5042810e-01
 -4.3391687e-01
  7.5868301e-02
  9.2312776e-02
 -4.2609870e-01
 -9.4854310e-02
 -1.2477514e-02
 -2.3649637e-01
  1.6166133e-01
  3.5130929e-03
  5.2023280e-02
 -1.0470380e-03
  2.3062885e+00
  4.9974319e-02
 -1.2131745e+00
  1.1126655e-01
  2.1791358e-01
  1.1761692e-01
  1.0941203e+00
 -2.5967452e-01
 -2.8432667e-01
  8.0907565e-01
  2.0136560e-01
 -7.1526840e-02
  1.0832311e+00
  2.7957478e-01
  6.9723278e-02
 -3.5486448e-01
  5.0409030e-02
 -5.6665830e-02
 -9.0235227e-01
  6.4553225e-01
  4.9874121e-01
  6.0018647e-01
  5.7329911e-01
 -1.4147316e-01
 -1.9553039e+00
  9.9245675e-02
  1.0348215e-01
 -7.3558815e-02
 -9.3529534e-01
  7.0322758e-01
 -9.9300563e-01
 -1.4884643e-01
  4.6360895e-01
  6.1086029e-01
  7.5689727e-01
  2.1691874e-01
  6.4224404e-01
  1.1619525e+00
 -9.9799402e-02
 -5.0683726e-02
 -1.2458540e+00
 -2.8595918e-01
 -1.5388881e-01
  1.1221755e-02
 -1.4363585e+00
 -4.1693169e-01
 -2.5109980e-01
 -6.2366039e-01
 -3.3253750e-01
  5.8967209e-01
  6.0578978e-01
  7.0512190e-02
 -1.3548388e-01
  6.8544567e-01
  1.6915250e+00
 -1.0003340e+00
 -7.2780341e-01
  7.3949623e-01
  5.1105291e-01
 -3.5110500e-01
 -7.3533684e-01
  3.1491846e-02
  1.3074595e+00
 -7.0861167e-01
 -1.1340905e+00
 -1.0122999e-01
 -3.8106978e-02
  1.5628654e-01
 -7.5950181e-01
  1.6312791e-02
  4.2232864e-02
  7.5038719e-01
 -9.5835641e-02
  9.2278592e-02
 -1.1371324e+00
 -2.2217105e-01
 -1.5437914e+00
  4.3026433e+00
  1.8796922e+00
  1.2091564e+00
 -1.0989765e+00
 -1.6443337e+00
 -5.1251966e-01
 -4.1335645e-01
  3.2458910e-01
 -1.0006336e+00
  9.7011518e-01
  3.3434258e+00
 -9.0906933e-02
 -2.8353209e+00
 -5.8688039e-01
  1.6101407e+00
 -5.6628639e-01
  1.6742862e+00
  2.5016493e-01
  6.2005635e-02
  6.1561418e-01
 -3.1506106e-01
  5.1330687e-03
 -1.9332014e-02
  3.8349569e-01
  3.4652255e+00
 -2.5631866e+00
  8.9609969e-01
 -3.0305755e-01
  4.3141074e-02
 -2.3775016e-01
 -9.4619080e-02
  3.6830898e-02
  1.5340172e+00
  1.2296085e+00
 -4.5774760e+00
  1.7238611e+00
  1.7518252e+00
 -5.0940514e-01
  8.9071804e-01
 -1.1609180e+00
 -4.5339021e-01
 -1.9379873e+00
  1.6539633e+00
 -4.7410827e+00
  9.8371959e-01
  1.8925066e+00
  3.7123218e-01
  6.7638528e-01
 -1.6533988e+00
 -8.3096653e-01
  9.7796404e-01
 -4.7336736e-01
  1.2076718e+00
 -1.3679248e-01
 -4.9357635e-01
  1.0735638e+00
  2.3964050e-01
  7.6860212e-02
  3.3678111e-01
 -2.5346413e-01
 -3.5654661e-01
  6.1154997e-01
 -1.9919147e-01
  3.7564773e-02
  9.3320578e-02
  3.1505976e-02
 -3.4847224e-01
 -2.9995197e-03
  5.8381289e-02
 -2.0525179e+00
  4.2139906e-01
  1.4451294e-01
  9.4332832e-01
  1.0367009e-01
  1.6537059e-02
  3.3663803e-01
  1.5466972e-01
  6.9369364e-01
  1.7469205e-01
  7.8848583e-01
  3.9987522e-01
  3.7381392e-02
 -1.0108879e+00
 -5.3623968e-01
  2.5330570e-01
  1.6453889e-01
 -5.5416718e-02
  1.9764639e-01
  3.2280216e-01
  8.1332862e-02
  3.0210924e-01
 -4.9214650e-02
  2.4828393e-02
  1.0764426e+00
 -7.1984433e-02
  1.6315293e-01
 -5.1143289e-01
  4.9103171e-02
 -4.7870249e-02
  9.0255487e-01
  3.8056102e-01
 -1.7072274e-01
 -1.4493299e-01
 -1.0983698e-02
  7.2747339e-03
 -2.0957679e-01
 -5.9633399e-03
  6.1559814e-01
 -3.9735162e-01
  5.8807489e-02
 -2.6084772e-01
  8.6268105e-02
 -5.5855000e-03
  4.3513745e-01
  5.9815776e-01
  1.3406143e-01
  2.2807564e-01
  1.2688203e-01
 -3.5442108e-01
 -2.6533362e-01
 -1.5868433e+00
 -4.2167670e-01
  8.1802920e-02
 -1.2612048e-01
  1.4434212e-01
  3.1407073e-01
 -1.1178947e-01
 -1.4462724e-01
  6.7177594e-02
  5.9300077e-01
  1.0115658e+00
 -2.3299363e-01
 -1.2887522e+00
  8.5117751e-01
 -7.7043384e-02
  4.3004531e-01
  8.4351398e-02
  9.8980479e-02
  2.4800789e-01
  5.0680697e-01
 -7.8160095e-01
  1.8707569e-01
 -1.1769530e+00
  2.1181828e-01
  2.5657961e-01
  4.3881044e-01
  5.5241913e-02
 -1.7359541e-01
 -2.2907931e-02
  6.0240149e-01
 -4.3443832e-01
 -6.1985320e-01
 -3.4937871e+00
  2.9188740e-01
  7.9485320e-02
 -1.9950359e+00
 -4.6008017e-02
  8.2142698e-03
  2.6885307e-01
  8.5661128e-02
 -4.7586169e-03
 -1.3573623e-01
  1.2836149e-02
  9.0792924e-01
 -2.2499340e+00
 -1.0234488e+00
 -8.1670500e-02
  2.9560942e-02
 -5.3790057e-01
  3.8488399e-02
 -2.0392486e-01
 -1.6295433e-01
 -4.6186921e-01
 -9.6126264e-01
 -6.9801882e-04
  4.2794260e-01
 -7.2868273e-02
 -2.9618156e-01
 -8.5308984e-02
 -3.4632266e-01
  5.3521478e-01
 -2.7440600e+00
 -1.6476755e-01
  3.0160555e-01
  1.1056407e-01
 -1.0475831e-01
 -1.8675367e+00
 -2.1193714e+00
  9.7838694e-01
  1.1648387e-02
 -1.0167303e-01
  5.8152062e-01
  1.9642970e-02
 -9.1504388e-02
 -1.2583065e-01
 -2.5309634e-01
  2.6138720e-01
  3.9111767e-02
 -4.3645836e-02
 -8.5261136e-02
  3.8657594e-02
 -1.3772777e-01
 -1.9883993e-01
 -1.6875076e-01
  1.9488621e-01
  1.1697981e+00
  7.3090039e-02
 -1.3099471e-01
  1.5675460e-01
  7.4946566e+00
 -1.5140629e-01
  6.9953042e-01
  3.6122892e-02
 -5.8967793e-01
  7.3511416e-01
 -3.3131424e-01
 -3.4858037e-02
 -2.3141764e-02
 -3.3213599e-03
 -6.9822675e-01
 -3.2941246e-01
  7.6689273e-02
 -1.6759755e-02
 -8.8217489e-02
  2.1750240e-01
  5.8759671e-01
  5.2556241e-01
  1.9887292e-01
 -1.1225635e+00
 -8.6256230e-01
 -3.7164089e-01
 -1.1062701e+00
  1.7145369e+00
  5.3233212e-01
  1.4690608e-01
  7.0827514e-01
 -1.1207652e+00
  4.2611030e-01
 -3.1610103e+00
 -1.0761161e+00
  1.2802914e+00
  3.0324790e+00
 -4.3742332e+00
 -2.0180380e+00
  1.0539259e+00
 -3.0929610e-01
  3.2652348e-01
  3.7769845e-01
 -6.6966915e-01
  9.1430551e-01
  2.5432912e-01
 -1.9769527e+00
 -3.7695715e+00
  3.9066711e-01
 -3.1022549e+00
 -2.8836327e-02
 -1.8913094e+00
 -2.1610084e+00
  1.6695557e+00
 -6.2402290e-01
 -7.1404085e-02
  1.6126034e+00
 -9.7109532e-01
 -1.7234148e+00
 -1.7102031e+00
 -6.7034805e-01
 -4.8090148e-01
  1.5265784e+00
  2.4175878e-01
  4.3613408e-02
  2.3953801e-01
  2.6985800e+00
 -1.3236139e+00
 -8.6345553e-01
  8.2387334e-01
 -1.1960780e-01
 -5.2449220e-01
 -1.6436999e+00
 -7.1516860e-01
 -6.3346136e-01
  5.5052662e-01
  2.5845339e+00
 -1.5250205e-01
  5.6496578e-01
 -1.5803864e+00
  3.0872285e-01
  4.1862231e-01
 -1.5798949e+00
  8.8474733e-01
 -5.5927092e-01
  3.9308184e-01
  4.4045358e+00
 -1.3768904e+00
  2.8784305e-01
  2.7660015e+00
 -1.9513865e+00
  2.9517072e-01
 -2.9910168e-01
  1.1333252e+00
 -4.0103599e-01
  7.2802141e-02
 -1.7338626e+00
  1.5226074e+00
  9.0904289e-01
  1.2419406e+00
  1.8368665e+00
 -3.5637161e-01
  1.9280206e+00
  6.6458946e-01
  1.0312749e+00
  7.0267183e-01
  2.0201768e-01
  6.9960517e-01
 -3.2920676e-01
 -7.0805079e-01
  1.3068292e-01
  2.2481470e+00
 -3.8354349e-01
  3.6582789e-01
  3.7502289e+00
 -2.9279438e-01
 -5.3802311e-01
 -8.3815688e-01
 -1.7979031e+00
 -9.0643995e-02
  1.0194784e-01
 -2.0817451e-01
 -1.5054494e+00
  2.5357241e-02
  3.8393155e-01
 -1.1725229e+00
  2.1055734e-03
  1.0208712e+00
 -4.7180647e-01
 -2.8857267e+00
  8.3753091e-01
 -1.6415715e+00
 -3.7141162e-01
  5.8080250e-01
 -3.2075793e-01
 -5.8225352e-01
 -4.3994886e-01
  3.3477017e-01
  1.0303462e+00
  3.1844327e-01
 -2.1439965e+00
  6.5366405e-01
  7.2100595e-02
 -2.3980232e-01
 -7.6983964e-01
 -1.1306086e+00
  4.8052704e-01
  3.5710493e-01
 -1.2370468e+00
  1.6669561e-01
  3.6813191e-01
 -7.9272783e-01
 -1.0734308e+00
 -9.6581841e-01
 -1.3466768e+00
  2.9304847e-01
 -4.5168069e-01
 -3.9526787e-01
  5.2192628e-01
  8.2294977e-01
 -4.7494764e+00
  1.3103073e+00
 -4.7926885e-01
 -1.5680957e+00
 -2.4109536e-01
 -5.2813449e+00
  1.2774258e+00
 -2.0441122e+00
 -1.6518993e+00
  8.5223250e-02
  3.2013392e-01
 -1.4589888e+00
  5.9075481e-01
  1.2493050e+00
  1.1752301e+00
 -2.8454933e-01
  6.8489529e-02
  7.4635617e-02
 -3.8801414e-01
 -1.7134582e-01
