nep4 4 Cu Al C N 
cutoff 8.5 5.5 148 46
n_max 10 8
basis_size 10 8
l_max 4 2 0
ANN 50 0
  5.9204400e-01
 -1.6949290e+00
 -3.0021558e+00
  1.7726897e+00
  9.3690693e-02
 -4.1173574e-01
  8.4748763e-01
  8.9141071e-01
 -2.7547777e+00
  3.3618882e-02
  8.8898891e-01
  1.6884303e-01
 -3.6448342e-01
 -8.5393801e-02
 -7.5852409e-02
 -8.9386445e-01
 -5.2366972e-01
  7.2560549e-02
  1.2101792e+00
 -1.4133878e+00
 -1.1432747e+00
  1.3935175e+00
 -1.5143605e+00
  6.0961020e-01
  5.4197061e-01
  2.5738244e+00
  1.6138208e+00
  3.3183506e-01
  2.1905870e+00
 -2.4406395e+00
 -8.0471635e-01
 -1.5371139e+00
  4.6038169e-02
  6.4894807e-01
  9.7449146e-02
  7.4877554e-01
 -3.9816239e-01
 -7.3677409e-01
 -5.5698311e-01
 -1.1508161e+00
 -8.9049555e-02
 -1.2850320e-01
  1.0226934e+00
  4.4572897e-02
 -3.8986763e-01
 -3.9666915e-01
  4.3411955e-02
 -2.0794050e-01
  2.7595539e-02
  4.3410400e-01
  3.3175179e-01
  4.8575866e-01
  2.4508302e+00
  3.0387536e-01
 -5.0270744e-02
  9.2963672e-01
 -2.8852028e-01
 -1.2920132e-01
  4.3107101e-01
 -8.4726387e-01
 -3.1946160e-02
 -1.3838938e-01
 -3.3006185e-01
  4.2243063e-01
 -7.1586207e-02
 -4.7312102e-01
  1.6286539e-01
 -3.8516343e-01
  1.8185356e+00
 -1.1380260e-01
  2.6917777e-03
 -5.9335893e-01
  5.0766831e-03
 -1.7058398e-01
 -6.1077905e-01
 -1.5460755e-01
  7.0977420e-01
  2.7536356e-01
 -2.2865221e-01
 -2.0120484e-01
 -1.8855497e-01
  1.4488129e-01
 -1.5108818e-01
 -1.5175028e-01
 -3.6982185e-01
  9.2928439e-01
  2.5833061e+00
 -8.7041318e-01
 -6.1878458e-02
  7.0561975e-01
 -5.6178318e-03
 -2.5322175e-01
  3.6952770e-01
  2.0558469e-01
 -5.2581768e-02
 -2.2967353e-02
  3.2110673e-01
  1.3835472e-01
 -2.4012442e-01
 -5.5591028e-02
 -7.8257638e-01
  3.7803594e-02
  1.5973835e-01
 -1.6415378e-01
 -8.6773098e-02
  1.4588682e-01
 -1.0336485e-02
  2.8060895e-01
  6.4748205e-02
 -2.0238295e-01
 -5.9143774e-02
 -1.5489312e-01
  2.1303544e+00
 -9.6648596e-03
  1.5400418e+00
 -5.1315838e-01
  5.1181179e-01
 -8.2256216e-01
 -6.2480921e-01
  6.9914997e-01
  9.3199605e-01
  3.2795715e-01
  2.9819045e-02
  1.7848743e-01
  1.3865724e+00
  1.5147954e-01
  1.5480673e-01
 -9.4208457e-02
  7.1998614e-01
 -8.9701176e-02
 -1.7337289e-01
  5.6794685e-01
 -1.8920034e+00
  1.0673515e+00
 -3.4196422e-01
  3.5618913e-01
 -6.2938797e-01
 -8.0986601e-01
  3.2617502e+00
  7.9838026e-01
  5.1276499e-01
  7.4329376e-01
  1.9158933e-01
  2.1413267e-01
  7.7303231e-01
 -3.2494563e-01
  1.0846270e-01
 -6.1085340e-02
 -8.2111433e-02
  6.6930395e-01
 -2.4955104e-01
 -1.3864493e+00
 -7.0161361e-01
  3.7895814e-02
  4.8708841e-01
 -6.0440350e-01
  2.8143696e-02
 -8.9756690e-02
  3.1927541e-02
 -3.4012288e-02
 -1.5083102e+00
  1.9059999e-01
  5.5400796e-02
  4.6225256e-01
 -9.4101530e-01
 -5.6073421e-01
  1.3767144e-01
  2.1067190e-01
  7.1688563e-01
 -3.3663389e-01
  5.6498842e+00
  1.2579050e+00
 -8.9321584e-01
  2.9027972e+00
  2.2607434e+00
  2.7065756e+00
 -4.3088322e+00
  3.1348386e+00
 -7.6222342e-01
 -2.2054687e+00
 -2.1685018e-01
 -9.0140596e-02
 -2.8778350e-01
  1.0472653e+00
 -4.0120390e-01
 -8.5157380e-02
  1.5664041e-01
 -8.4308106e-01
  1.7766830e-02
  1.4582363e+00
  8.0345601e-01
 -1.3870500e+00
  5.2983344e-01
  8.3283186e-02
  1.1032836e+00
 -1.5688832e+00
 -5.3076134e-03
 -1.9610485e+00
 -4.6259545e-02
 -5.1281195e+00
 -2.5038764e+00
 -1.5018683e-02
 -8.9665127e-01
  4.1449256e+00
 -1.7517911e+00
 -2.2278985e-01
 -4.4712228e-01
  2.8646130e-02
  2.9814157e-01
 -9.9780178e-01
 -4.9952355e-01
  2.1593575e-01
  1.1788867e+00
 -6.3072354e-01
  4.8195598e-01
 -4.3900624e-02
 -1.6965173e-01
 -1.6010884e+00
  1.0315172e-01
 -1.7380334e-01
 -1.0800403e-01
 -3.7654909e-01
  7.4819916e-01
  6.4970250e-03
  3.5978326e-01
  7.1276063e-01
  1.8566102e-01
 -9.3325205e-02
 -4.7017822e-01
  1.8774201e-01
  3.7956312e-02
  1.0958771e-01
 -3.5953277e-01
 -1.2618507e-01
 -2.5531392e+00
  5.3236462e-02
 -7.0085913e-01
 -1.2748349e-02
 -5.1108889e-02
  3.5457907e-03
  3.1567752e-02
 -6.7155403e-01
 -1.7654072e-01
 -3.7611294e-01
  2.0231092e+00
 -2.0844580e-01
 -3.7837708e-01
 -3.0310339e-01
 -4.9306652e-01
 -9.4162501e-02
 -1.2124509e-02
  6.3039593e-02
 -1.6285096e-01
  1.7750248e+00
  7.7103153e-02
 -1.8735395e-01
  4.5860785e-01
 -1.3374695e-01
 -4.2969117e-01
 -1.4489463e-01
 -2.5471157e-01
  2.1141216e-01
 -1.6094956e-01
 -3.7955141e-01
  1.3772720e-01
  1.9602665e+00
  2.3744512e-01
  6.8568476e-02
  3.4464562e-01
 -2.1431240e-01
 -7.7026975e-01
  1.7842260e-01
 -2.8339729e-01
  5.5425733e-01
  1.6018289e-01
  6.4968610e-01
 -7.8838922e-02
  1.9660809e+00
  8.6010449e-02
  2.4561851e-01
 -3.7155098e-01
 -2.2061000e+00
 -8.2772124e-01
 -3.0158061e-01
 -1.9491345e-01
 -1.8782954e-01
  4.7727555e-01
  4.5787428e-02
 -6.2305856e-01
  1.3895762e+00
  7.4006486e-01
  4.2421755e-01
 -8.4291506e-01
  2.1428569e-01
 -5.4888242e-01
 -2.2023246e-01
  1.0932440e-01
  1.2687796e-01
  1.5304745e+00
  7.7940637e-01
  2.8267747e-01
  9.9235401e-02
  4.6658906e-01
  1.3702638e-01
  8.4207594e-02
 -2.0292437e+00
  5.5034045e-02
 -5.7640529e-01
  8.7860905e-02
  1.8014238e+00
 -1.0127616e-01
  1.5031767e-01
 -1.5995397e-01
 -3.7466112e-01
  7.8912294e-03
  1.5164925e-01
 -3.2668561e-01
 -7.3873430e-01
 -4.0614736e-01
 -8.0285805e-01
 -7.3860073e-03
  1.1689432e+00
 -2.4212882e-01
 -3.9953810e-01
 -6.4283210e-01
 -7.4917777e-03
 -8.8902295e-02
  9.2469685e-02
  2.5160882e-01
  8.4186129e-02
  2.1422014e-02
 -7.9921407e-01
  1.2660293e-01
  5.0840676e-01
 -4.8218447e-01
 -4.5028093e-01
 -1.1010757e-01
 -5.4245580e-02
 -7.7175021e-02
  2.4437085e-01
  2.6533714e-01
 -3.9664391e-01
 -1.6104841e+00
  2.0730716e-01
 -1.2931180e-01
 -5.9253141e-02
  4.1520631e-01
  1.1354554e-01
 -2.5965042e-02
 -6.7375964e-01
  2.2530356e-01
 -2.9104616e-02
 -3.1403607e-01
  2.1341018e-01
  1.5119120e-01
  2.7020538e-01
 -1.5391675e-01
 -1.3142949e-01
 -1.2048177e+00
 -4.7777116e-01
 -2.3628044e-01
 -2.4956018e-02
 -8.3074188e-01
  3.3115077e-01
 -2.0933363e-01
  6.6922158e-01
 -1.1307188e+00
 -4.9992681e-01
 -2.3500323e+00
  7.7635086e-01
 -1.8358225e-01
 -1.5111813e-01
  2.2133695e-01
  8.0744274e-02
 -7.4576938e-01
 -5.9347516e-03
 -1.9773409e+00
  3.4875363e-01
  1.2399405e+00
 -9.0255910e-01
  8.2061410e-02
 -3.7330943e-01
  1.1453664e+00
  5.8224905e-01
 -1.1087203e-01
 -1.3357230e-02
 -3.0312067e-01
  1.0466307e-01
 -1.0378774e-01
  3.9855632e-01
 -5.4537874e-01
  1.5215294e+00
 -9.4290411e-01
  1.8211626e-01
 -1.2775276e+00
  1.1648608e+00
  1.0090737e+00
 -3.8684249e-01
 -3.3672977e-02
 -7.6048070e-01
  3.9634350e-01
  2.9499304e-02
  1.3120759e+00
  1.5166997e+00
  1.1881284e+00
 -6.9509774e-01
  4.2631468e-04
  3.2613508e-02
 -8.5814637e-01
 -1.9571486e+00
  6.5441197e-01
  7.5198191e-01
 -5.8524084e-01
 -1.4071712e+00
 -1.5113974e-01
  1.4388022e-01
  4.8440856e-01
  4.1631126e+00
 -8.1179607e-01
  1.1267333e+00
 -2.5895603e+00
 -1.1083415e-01
  1.1289026e+00
 -2.0397029e+00
 -6.7328162e-02
  4.3448504e-02
  9.0057182e-01
 -2.6911184e-02
  8.6346072e-01
 -2.2808080e+00
  2.4000950e+00
  2.7738419e-01
 -2.0154583e+00
 -9.2310524e-01
  1.1469283e+00
  1.6610094e+00
 -1.0532000e+00
 -8.4444261e-01
  1.5192916e+00
 -4.5192301e-01
 -2.4754094e-02
  2.2255407e-01
 -1.0539268e+00
 -3.5844401e-01
 -4.8118153e-01
 -1.8561329e-01
 -1.1576542e+00
  2.2892947e+00
  2.9247633e-01
  4.2120433e-01
 -6.9686425e-01
 -4.9436367e-01
 -1.3580450e-01
 -1.5442441e-01
  1.1168734e+00
 -4.0985224e-01
  9.6848822e-01
 -2.4319417e+00
  4.8041779e-01
 -2.0092642e-01
 -4.3982878e-02
  1.0592108e+00
 -6.1405921e-01
 -1.7648309e-01
  1.1341277e-01
  3.4495896e-01
 -5.0789057e-03
  2.2332887e-01
 -1.5927555e-01
  2.9253793e-01
  1.2106293e+00
 -3.1496562e-02
 -4.4172487e-01
  4.8059413e-01
 -1.1631739e+00
 -5.8161166e-02
 -2.2301073e-01
 -4.5684558e-01
 -6.4875811e-01
  9.2322534e-01
 -2.3835193e-01
 -2.7340278e-01
  2.1147110e-02
 -4.4327551e-01
 -7.5224328e-01
  5.1137727e-01
  4.1480356e-01
 -1.1716860e-01
  1.7513218e+00
 -1.7405364e-01
 -4.9648809e-01
  1.0328435e-01
 -4.7789827e-01
  1.3309278e-01
 -7.6578006e-02
 -5.8007032e-01
 -4.4550428e+00
 -8.8813627e-01
 -2.9284689e-01
  1.1435854e-02
  1.9884482e-01
  6.1949074e-02
  3.5164562e-01
  1.0660984e-01
 -8.3529741e-02
  1.6332011e-01
 -1.3759951e-01
  2.0231694e-01
  2.1283631e-01
 -1.4239480e-01
 -2.9390863e-01
 -3.2964736e-01
 -1.4633515e+00
  1.3862774e-01
 -5.5871959e+00
  4.0926162e-02
 -6.4757198e-01
  7.1556455e-01
  7.5239949e-02
  1.0880768e-01
  1.3448362e-01
 -2.0076886e-01
 -1.9414523e-01
  1.1281536e-01
 -3.8742378e-01
  6.8830466e-01
 -7.5093329e-01
  1.3109021e+00
 -4.8316050e-02
 -1.7224339e-01
 -3.0989144e-02
 -7.7104583e-02
 -7.1565074e-01
 -2.7272266e-01
  1.4059588e+00
  1.8591522e-01
 -5.8130074e-01
  1.2208136e-01
 -3.3706978e-01
 -3.0708939e-01
  7.7941194e-02
  2.4333383e-01
 -8.5612088e-01
  1.3768106e+00
 -1.5998359e-01
  2.6486108e-01
 -8.6953767e-02
 -7.5764999e-02
 -5.6193811e-01
 -5.1012558e-01
  6.8968374e-01
 -7.2826140e-02
  1.9597447e-02
 -1.7583732e-01
  8.1235468e-01
  1.3798659e-01
 -1.7558345e-01
  2.0015290e-01
 -5.9557769e-02
  5.6871697e-03
  3.2300532e-02
 -6.9383538e-01
 -6.4270556e-02
  1.8614306e-01
 -1.0087562e-02
  9.5346197e-02
 -4.6537213e-02
  5.9513825e-01
 -3.9330459e-01
  6.2683530e-02
 -1.4947034e-01
 -3.8246727e-01
 -1.7660221e+00
  3.5897785e-01
  1.5670295e-01
 -1.3324097e-01
  5.4592764e-01
 -3.5016936e-01
 -3.1226265e-01
  1.6915271e-02
  3.4240045e-02
 -6.7262910e-02
  4.0557405e-01
  1.1326569e-01
 -1.4062308e-02
  8.4667599e-01
 -3.1255585e-01
  5.6776559e-01
  3.6989918e-01
  1.3799623e-01
 -2.7864037e+00
 -1.6491406e-01
 -8.2196355e-02
  4.2024791e-01
  1.6438950e-02
 -1.7718598e-02
 -4.2049131e-01
  2.1178347e-01
 -1.2448256e-01
  1.9320448e-01
 -3.3813643e-01
  5.0381583e-01
  5.7578813e-02
  2.2759624e-02
  8.0274358e-02
 -4.8212811e-01
  8.8367313e-02
  5.5822160e-02
 -4.4017732e-03
 -2.0413598e-02
  6.9522716e-02
 -3.6402471e-02
  3.1893191e-01
  4.4528790e-02
 -1.1992227e-02
 -6.4783111e-02
  1.3500087e-02
  6.3395590e-01
  1.2777027e-01
 -9.9815255e-01
 -1.7466319e-01
 -1.1988036e-01
 -4.1099963e-01
 -1.0121363e+00
 -7.2099674e-01
 -1.2543848e-01
  9.2337348e-02
 -3.8319930e-01
  3.3802602e-02
 -3.6706555e-01
 -3.4737208e-01
 -7.2907847e-01
 -6.3278788e-01
  8.0271691e-02
  8.1423235e-01
  4.0080014e-01
  6.6810228e-02
 -8.9127719e-03
  2.8892069e+00
  4.3530036e-02
  2.5019449e-01
 -2.7047512e-01
  1.5125261e-01
 -1.6880438e-01
 -4.3582231e-02
 -5.0324220e-02
 -3.6295822e-01
  7.5123027e-02
 -2.2120672e-01
  7.3821910e-02
 -1.3590240e-01
  9.3644008e-02
  2.6524732e-01
 -4.8238009e-01
 -1.3857856e+00
 -5.6477666e-02
  3.1242236e-01
  4.0711120e-02
  3.6062811e-02
 -5.5855322e-01
 -1.6448918e-01
 -3.2543093e-01
 -2.7125162e-01
  4.4124022e-01
  6.1296102e-02
  1.1109496e-01
  6.1617536e-03
  6.3358456e-01
  1.6039939e-01
 -1.8303661e-01
 -3.6010846e-01
  9.4703017e-03
 -1.9890897e-01
  1.7719838e-01
 -3.3870533e-01
 -1.7322406e+00
 -5.3781490e-03
 -1.4564120e+00
  7.4721229e-01
  9.3264021e-02
 -7.8554177e-01
  7.0510156e-02
  5.5025423e-01
 -3.4243444e-01
  7.9859205e-02
 -1.9230888e+00
  1.1137622e-01
 -6.1205510e-02
 -1.3178715e+00
 -2.7636085e-02
 -5.1986682e-01
  3.3488026e-01
 -1.1618460e-01
  2.2416897e-01
  2.7526322e-01
 -8.8087164e-02
 -5.1655674e-01
  1.3110128e-01
 -1.6818167e-01
  1.9653487e+00
  2.0489229e-01
  2.5444317e-01
  3.2021341e-01
 -1.2752017e-01
  4.7500219e-02
 -2.7835387e-01
  4.0153053e-02
  2.8247189e-02
 -1.6016397e-01
  9.4010419e-01
 -2.4670993e-01
  2.5669647e-02
 -5.4850549e-01
  1.7601151e+00
 -2.6866227e-01
 -2.2549047e-01
 -3.9437333e-01
  2.3848343e-01
  2.5085542e-01
  1.5476829e-01
  4.4988015e-01
 -3.3506762e-02
 -8.4351107e-02
  3.2121339e-01
  3.4708366e-01
  1.2287614e-01
 -1.1469848e-01
  4.5177728e-01
  2.1677010e+00
  1.1437081e+00
  2.2198029e+00
 -1.0775854e-01
 -4.3414959e-01
  3.2970041e-01
  1.6053630e+00
  6.2807280e-01
 -1.8525964e+00
 -1.3789151e+00
  2.2616131e+00
 -1.7490790e+00
 -6.2925488e-02
  2.0173237e+00
 -2.1097333e+00
 -4.5769069e-01
 -1.6114634e+00
 -5.3092316e-02
 -7.2436726e-01
 -1.8905163e+00
  9.3151368e-02
 -3.5040545e-01
 -2.8432205e-01
 -2.9317999e-01
  2.8312024e-01
 -2.0643640e-01
 -3.5199454e-01
 -9.4167471e-02
 -3.0301952e-01
  7.2688419e-01
 -5.5653941e-02
  1.4466621e+00
  4.1291636e-01
 -2.8954867e-01
 -3.4886675e+00
  6.3329202e-01
 -3.6543956e-01
 -1.5133516e-01
 -1.4919189e-01
  2.6247662e-01
 -2.6238401e+00
 -2.4688919e-01
 -1.0784410e+00
  3.6193463e-01
  1.3695017e+00
 -7.9595879e-02
  2.4162850e+00
 -1.1000612e+00
  4.4551253e-01
 -2.0536585e-01
 -5.7913393e-02
  5.3830910e-01
 -5.2139878e-02
 -6.5397289e-05
  2.2379714e-01
  8.1355584e-01
  1.1120740e-01
 -2.7843803e-01
 -7.8614575e-01
 -7.1874028e-01
  1.2702811e-02
  4.7730592e-01
 -3.2737162e-02
 -1.1971719e+00
  4.0985602e-01
 -1.4635084e+00
 -2.7025330e-03
 -3.1159118e-01
  6.8259619e-02
  2.8453943e-01
 -4.2836708e-01
 -1.0369430e-01
 -3.3790916e-02
 -5.2887118e-01
 -6.4345038e-01
  1.1415595e-01
  1.6761426e+00
 -3.1238001e-02
  1.4063922e-01
  9.0409511e-01
 -1.0660537e-01
  8.4392023e-01
 -2.0519042e-01
 -5.8550093e-02
 -1.1421772e+00
 -2.5041157e-01
  1.8975209e-01
  3.4511173e-01
  2.3182423e-01
 -2.5676453e+00
 -3.6018619e-01
 -2.6855206e-01
 -7.6120508e-01
  8.1625685e-02
 -4.2955938e-01
  4.9282253e-01
  4.9948746e-01
  1.8878531e-01
  1.4468458e+00
 -3.4367997e-02
 -1.0667422e-01
  8.8521488e-02
  9.9474259e-02
 -1.7749423e-01
 -2.7626781e-02
  4.2663091e-01
  8.9727990e-02
  3.1319395e-02
 -5.1204616e-01
  1.6504797e-01
  9.5437944e-01
  1.7851073e-01
 -3.0401292e-01
  2.0069692e+00
  1.1815164e+00
 -8.6071545e-01
  1.8650091e+00
 -2.0646591e+00
 -1.5726495e-01
 -1.7504413e-01
 -5.5169863e-01
 -4.3136772e-02
  1.2302532e+00
 -4.1278169e-01
  7.7252090e-01
  1.2530251e+00
 -2.4955980e-01
  1.9482213e-01
  5.9011620e-01
 -1.5984098e+00
 -1.7827803e+00
  2.7931607e+00
  7.1592677e-01
 -9.4723600e-01
  1.6815541e+00
  4.4526869e-01
 -8.2210171e-01
  1.5695566e+00
  7.4511528e-01
 -1.1372067e+00
  8.5258150e-01
  7.7363664e-01
 -2.0582006e+00
  2.3367482e-01
  3.9309454e-01
 -3.6710778e-01
  2.1492659e-01
  1.6861880e+00
 -3.8429594e-01
  5.5022430e-01
  2.3395634e-01
  5.7314205e-01
  2.2479897e+00
 -4.0994319e-03
  3.1307749e-02
 -1.0027844e+00
  3.7883443e-01
 -4.4227549e-01
  1.7727580e+00
 -2.5715327e-01
 -1.4830816e-01
 -1.2194632e-01
  2.5612980e-01
  4.0655438e-02
  1.5791568e-01
 -3.3426568e-02
  1.8383584e+00
 -2.7628429e-02
  1.2200040e+00
 -2.3692844e+00
 -6.6632259e-01
  8.4902906e-01
  2.9225019e-01
  1.3393009e+00
  1.5544800e-01
 -3.7688371e-03
 -2.0646773e-02
  1.8671854e-01
 -1.5811673e+00
 -2.7050531e-01
  5.6336377e-02
  1.4704177e-01
 -8.5007405e-01
  6.1888598e-02
 -3.4000210e-03
  3.3942774e-02
 -2.2126028e-01
 -2.4179022e-01
  3.3221844e-01
 -1.4001571e+00
 -2.1740887e-01
 -9.5242307e-02
 -1.4044583e-02
  6.8171537e-01
  1.0213084e-01
 -8.1984091e-01
  2.2059779e+00
 -9.2556596e-01
  6.3557130e-01
  2.2754844e-01
 -9.5898616e-01
 -1.9177581e-01
  1.1646837e+00
 -1.5948410e-01
  4.0741608e-01
  4.9690089e-01
 -1.0096078e-01
  7.6743789e-02
  4.7919791e-02
 -5.1140851e-01
  8.6316966e-02
  2.4393712e-01
 -4.1498523e-02
  1.0479565e+00
  3.6408532e-01
  1.1288854e-01
  4.7030479e-01
 -1.6311921e+00
 -8.6473429e-01
  4.9301598e-02
  1.0897737e+00
  2.2803533e+00
 -2.4763213e-02
 -5.9228700e-01
 -8.6901732e-02
  4.3363026e-01
  2.1794213e-01
  4.0262710e-02
 -1.3808022e+00
 -3.2241860e-01
  5.6503847e-02
  1.0527267e-01
  2.5933135e-01
  3.9501706e-01
  2.4563214e-01
 -7.5225639e-01
  4.8818722e+00
 -7.4704356e-02
  2.1396813e-01
 -3.2752849e-02
  2.0834877e-01
 -1.1550798e-02
  5.0382590e-01
 -2.6010621e-02
  5.5990863e-01
  2.2812098e-01
 -1.5179940e-01
 -2.7293539e-01
  1.3671362e-01
 -5.3803092e-01
  2.1224511e-01
 -3.9349827e-01
 -7.5247735e-01
 -1.5421855e-01
  3.1433430e-02
 -3.4453586e-02
 -3.7643821e-03
  1.0461541e-02
 -2.0975856e-01
 -2.2915168e+00
  3.4474894e-01
  2.0040117e-01
 -2.7125461e+00
  5.4296517e-01
  1.3467188e-01
  1.8234839e-01
  2.6541868e-01
 -1.5675834e-01
 -3.3309092e-03
  2.0164995e+00
 -4.0111828e-01
 -1.8126944e-01
  1.1947691e-01
 -2.0633729e-03
 -4.2133220e-02
  1.1923108e-01
 -4.2170685e-02
  1.6914068e-01
  8.7817296e-02
  1.6376073e+00
  9.1076475e-01
  3.8022888e-01
  9.5162815e-01
 -2.1809712e-01
  4.9607390e-01
  1.7540331e-01
  4.2813328e-01
  1.7976174e-02
  6.6502190e-01
 -1.2456377e+00
 -6.5752441e-01
  3.7461200e-01
 -7.5046855e-01
  2.0494528e-01
  1.3602676e+00
 -1.5358359e-01
  8.1995720e-01
 -3.7704533e-01
  8.7429024e-02
  2.6045838e-02
 -2.2265232e-01
  1.4068643e+00
  3.9034527e-02
 -3.4025457e-02
  2.3676765e-03
  3.1041386e-02
 -1.1332736e+00
 -2.6695937e-01
 -1.3282461e-01
  6.5970711e-02
 -2.6229209e-01
 -2.6089442e-01
 -1.2252209e-01
  1.4108075e-01
  6.9071824e-04
  3.4050393e-01
  9.8291188e-02
  2.2466302e-01
  1.8689430e-01
  3.2521565e+00
  3.7036493e-01
  4.5789771e-02
  1.6828963e-01
 -3.9156666e-01
 -1.4069554e-01
 -4.3138507e-01
  6.7604594e-02
  3.7660417e-01
  6.7517839e-02
  1.1205459e-01
  2.6636115e-01
 -1.4063190e-01
  2.0465115e-01
 -7.3101306e-01
  8.0771014e-02
 -1.3188611e-01
 -1.0427173e+00
 -6.2063605e-01
  3.4734294e-01
 -7.9484540e-01
 -8.2573426e-01
  1.1192709e+00
 -4.8674714e-02
 -2.2770515e-02
  7.3751605e-01
  1.3721600e-01
  1.4091554e+00
 -1.1920549e-01
  3.0783337e-01
 -7.9164428e-01
  1.3231907e+00
 -2.3638261e-02
  3.0610344e-01
 -1.7613770e-01
  8.8343078e-01
 -5.1984656e-01
 -4.8281886e-02
  3.6258084e-01
  7.0976621e-01
 -9.2975818e-02
  1.0434186e-01
 -1.7266786e-02
 -1.5850366e+00
 -3.6925355e-01
 -2.3742335e-01
 -1.2275462e-02
  6.7035615e-01
  1.1151865e+00
  5.0975680e-01
 -3.8210776e-01
 -9.7829320e-02
  1.0929513e-02
  4.6102121e-02
  7.3239183e-01
 -4.1081351e-01
 -7.3212641e-01
  9.6002184e-02
  1.4689616e+00
 -1.3374966e-01
 -2.0065925e-01
  2.2215395e+00
 -4.5761058e-01
 -1.9263002e+00
 -7.1638957e-02
 -1.5284619e+00
  6.5045726e-01
 -1.3374393e-01
  7.5394556e-02
  1.8522687e-01
  2.4311712e-01
 -3.1127906e+00
  7.5877470e-01
 -8.5142612e-02
 -9.8268741e-01
 -4.2652312e-01
 -4.1735452e-01
 -9.6121269e-01
 -2.5360745e-01
  7.0200598e-01
 -8.1738524e-02
  6.4306688e-01
  6.1991483e-01
 -3.3345435e-02
 -3.6685118e-01
 -2.7192740e+00
 -2.5764301e-01
  7.4615794e-01
 -6.2629682e-01
 -1.8075116e-02
  8.7501377e-02
 -3.6748767e-01
 -7.8422272e-01
 -2.5532562e-01
 -1.2632924e+00
  1.1358805e+00
  5.8317639e-02
 -2.4351446e-01
  7.4441540e-01
 -6.1163050e-01
 -1.9029166e-01
  1.1808247e-01
 -9.0500003e-01
 -3.6313266e-01
  3.5392267e-01
  8.8034368e-01
  7.2632968e-01
 -1.6887696e-01
 -9.7542256e-01
  4.8021641e-01
 -3.0798569e-01
 -2.1929157e-03
 -1.0281440e+00
  6.6183168e-01
  4.8856935e-01
 -1.1039790e+00
  1.1167695e-01
 -3.3927727e-02
  1.4221671e+00
  1.4131131e+00
  5.4367667e-01
  2.3156235e-02
  5.3596139e-01
 -4.1535893e-01
  1.2346395e-02
  2.0003574e+00
  2.9017016e-01
  1.6815636e-02
  4.8872986e-01
  4.0412802e-01
  2.4268860e-01
  1.8854922e-01
 -5.9842039e-02
 -6.0632652e-01
 -6.0069948e-01
 -1.1726321e+00
  8.9437610e-01
 -1.2392867e+00
  4.6058384e-01
  9.5493710e-01
 -4.5680910e-02
  1.8448114e-01
 -4.9866048e-01
  3.9929652e-01
 -9.9474795e-02
  1.0173563e-01
  6.0435455e-02
  1.4188997e-01
 -2.7057567e-01
 -8.5144043e-02
  1.8188035e-01
 -4.6035829e-01
 -1.2335937e-01
 -1.5293074e-02
 -8.6170036e-01
  1.5889481e-01
 -1.3654257e-01
  3.0598199e-01
  3.0458194e-01
  4.6581481e-02
  4.9673237e-02
  3.2575339e-01
  3.4398958e-01
 -4.0140295e-01
 -6.1635894e-01
 -3.3152901e-02
  5.1605791e-01
  1.7098989e-01
 -1.1513718e+00
  6.6215143e-02
  9.5017441e-02
  1.4356992e-01
 -2.0905532e-01
 -7.6628393e-01
  3.0973452e-01
  3.0586591e-01
  4.4706520e-03
 -9.2598605e-01
 -8.9093167e-01
  8.9691661e-02
 -2.6817471e-02
 -3.2356328e-01
 -8.9976758e-01
 -2.3145602e+00
 -4.5883998e-01
  1.7414093e-02
 -1.0088146e+00
  1.5967815e-01
  4.7971876e-03
 -7.8750753e-01
  3.4691334e-01
 -4.7037733e-01
  8.7626415e-01
 -1.6544668e-01
  1.1205112e+00
 -1.3418782e-01
  4.2617297e-01
  9.7503352e-01
 -1.2558882e+00
 -7.2132230e-01
 -7.4002343e-01
 -8.2793944e-02
 -2.4320300e+00
  1.8876776e-01
  6.1213799e-02
 -7.3228639e-01
  1.3910887e+00
  2.6858002e-01
 -1.3285422e+00
  6.0163236e-01
  2.1663072e+00
  3.8914323e-01
 -1.4696448e-01
 -2.3690046e-01
 -1.7028540e-01
 -8.2644337e-01
  2.7147617e+00
 -1.7767623e-01
  6.8076354e-01
 -1.4565714e-01
  7.0723563e-02
  1.2434092e-01
 -1.1598681e+00
  1.9996097e+00
 -1.6754738e+00
  1.7252731e+00
 -2.0040032e-02
 -3.7562928e-01
 -7.4202842e-01
  1.4722630e+00
 -6.9550508e-01
  1.0786542e+00
  3.3882865e-01
  7.7569479e-01
 -2.9087129e-01
  4.9307775e-01
 -5.0674289e-01
  4.8106840e-01
  9.1464609e-01
 -6.1773992e-04
 -4.8636917e-02
 -1.1067072e+00
  3.0030524e-02
 -3.5209167e-01
  2.9648721e-01
 -5.0075161e-01
  1.9670375e-02
 -2.2103466e-01
  7.7822514e-02
  2.5380647e-01
 -1.3478716e-01
  2.0268604e-01
  6.4651959e-02
  1.9818224e-01
  1.9041629e-01
  6.1707187e-01
 -2.3458010e-01
  9.4348645e-01
 -2.4156439e-01
  1.8759675e-01
  6.8499452e-01
 -2.2892770e-01
  4.2884085e-01
 -3.4580182e-02
 -1.3057630e-01
 -1.1283869e-01
 -2.0273300e-01
  2.0103507e-01
  3.2011479e-01
  6.1554167e-02
 -7.5666979e-02
  2.3152562e-02
  2.0528767e-01
 -6.6874586e-03
  4.0603897e-01
 -6.7129480e-03
 -2.9823157e-01
  6.0616903e-02
 -2.9653203e-01
  1.1907567e-02
 -3.2205302e-01
 -3.8843685e-01
  2.6638326e-01
 -3.4338910e-02
 -1.0250406e+00
 -8.2854158e-01
  1.6828656e-01
 -1.0191295e-01
  7.8246025e-03
  3.0840337e-01
  1.9749376e-01
  4.9668372e-01
  2.0127851e-01
 -2.4236880e-01
 -3.6259289e+00
 -9.1065831e-02
 -1.6348854e+00
 -7.6503950e-01
  4.3125284e-01
 -6.1440748e-01
 -4.9306142e-01
  6.2398231e-01
 -4.0949824e-01
 -2.0677875e-01
 -2.3247979e+00
  2.1157973e+00
 -5.5533367e-01
  1.1211601e+00
  2.5180215e-01
 -3.6842230e-01
  3.0811858e-01
  5.3822154e-01
 -2.6057211e-01
  8.5734588e-01
  4.8902968e-01
 -1.2321162e-01
  2.7815408e-01
  1.0382977e+00
 -1.3838243e+00
 -1.5746121e-01
  9.1947287e-01
 -4.6451089e-01
 -3.6897596e-02
 -8.2216626e-01
 -2.3210496e-01
  7.4440426e-01
  1.0284791e+00
 -1.1644007e+00
  1.2869823e-01
  6.5333688e-01
  7.1861315e-01
  3.5704586e-01
 -1.8687797e+00
  6.2966651e-01
  2.2531511e-01
 -1.8581182e+00
 -1.2955996e-01
 -2.6630732e-01
  1.6673539e+00
 -1.3988891e+00
  4.6336499e-01
 -5.4988527e-01
  2.2970641e-01
  4.7586030e-01
 -6.5362298e-01
  6.9421118e-01
  4.2150068e-01
 -9.8538317e-02
  4.7493450e-02
 -5.4178905e-01
  4.9218148e-01
  1.5372391e-01
 -2.8036216e-01
 -8.3252424e-01
 -4.7118231e-03
 -4.6748519e-01
  1.4493318e-01
  1.6579188e-02
  4.1689751e-01
 -1.2899685e-01
 -9.5162809e-01
  1.7689209e+00
  2.8524208e-01
  1.3177864e-01
  3.0680007e-01
  1.1750180e-03
 -7.0710294e-02
  8.4755905e-02
  3.3333862e-01
 -3.8688436e-01
 -1.1253631e+00
 -1.7193983e-01
 -1.3569409e-02
 -2.0864163e-02
  4.9121294e-02
 -2.8696734e-01
  8.2546324e-01
  1.8002848e-01
  2.0631675e-02
 -2.8813475e-01
 -2.4226679e-01
  1.4752202e+00
 -5.7491660e-03
  1.1038593e-01
 -2.7700710e-01
 -9.5085710e-02
 -1.2292382e-01
 -8.8546224e-02
  7.9976050e-03
 -1.7494586e-01
 -7.0920616e-02
 -8.7145735e-03
  1.3034163e-02
 -1.5887119e-01
 -5.8155671e-02
  3.6993802e-02
 -3.3709443e-01
  6.3089587e-02
  8.6654115e-01
 -3.7949923e-01
  6.9070198e-02
  1.1884140e-01
 -6.6445088e-01
 -2.4212109e-01
  5.6255306e-03
 -2.7894461e-01
  9.5859028e-02
 -4.9326679e-01
  1.1246881e-02
  1.1901320e-01
  1.1671592e-01
  8.7554738e-02
  1.9830236e-01
 -1.4640756e-01
  5.5902272e-01
  4.7562137e+00
 -4.4197151e-01
  2.5895989e-01
  3.7838560e-01
 -8.9885294e-02
  2.8879532e-01
  1.3406825e+00
 -2.1789970e-02
 -2.0372359e-01
  3.0196812e+00
  8.1338835e-01
  1.4378846e-01
  1.5149173e-01
  4.4033779e-03
  2.4710270e-02
  1.0969927e-01
  4.8535100e-01
  2.5707892e-01
 -7.4689090e-02
  4.2884529e-01
 -8.2012936e-03
  2.0723388e-01
  5.8517192e-02
 -2.2270475e-01
  3.3251131e-01
 -1.1854700e-02
  4.3475941e-01
 -3.5201412e-01
  2.4128436e-01
  3.2283381e-01
 -1.9504271e-02
  8.8207293e-03
  9.4328433e-02
 -1.5524197e-01
 -1.1710701e-02
 -3.3624730e+00
  9.4565189e-01
 -6.7900538e-02
  8.3114415e-02
 -3.6734197e+00
 -2.0568423e-01
 -1.8159740e-01
 -6.6558015e-01
  8.1808561e-01
 -1.0675179e-01
  1.9085273e-01
  6.0320002e-01
 -4.4330901e-01
 -6.3262683e-01
  4.5447864e-02
  5.3547278e-02
  3.3692136e-01
 -2.8226233e-01
 -3.1302908e-01
  3.7051883e-02
  2.7755475e-01
  2.5102013e-01
  1.4930989e-01
  4.0012455e-01
 -5.7829660e-01
  4.3502825e-01
  2.3720232e-01
  4.3196949e-01
  4.1920982e-02
 -5.7674084e-02
  1.2317014e-01
 -5.9023684e-01
 -3.1171376e-01
 -1.2769201e-01
 -2.6391008e-01
 -9.1272220e-02
 -1.4528684e-01
  2.7376556e-01
 -1.2873339e-02
  2.4180708e+00
  5.1072770e-01
  8.0067143e-02
 -8.8049740e-02
  4.6864960e-01
  1.0179459e-01
  2.4941719e+00
 -4.3899273e-03
  1.7598012e-01
  7.5677454e-02
 -4.7249317e-02
 -6.2253699e-03
  6.1066025e-01
  2.5278155e-02
 -5.3208935e-01
 -1.7330840e+00
  6.0775723e-02
 -3.4577963e-01
  6.2329397e-03
 -1.0470691e-01
  1.8503478e-01
  6.7790377e-01
  1.1952142e-01
 -2.3983455e-01
  9.9686220e-02
 -1.3108470e-01
 -2.4742848e-01
 -2.2193225e-01
  2.3956817e-01
  1.6648240e-01
 -3.1170875e-01
  6.6934508e-01
 -2.1837259e-02
 -1.3866996e+00
 -1.1947335e+00
 -5.5168438e-01
  3.5114586e-01
  5.1825082e-01
 -3.3680537e+00
  3.6157811e-01
  1.7035593e-01
  8.2150996e-01
 -4.0044114e-01
 -2.8566441e-01
  3.2580555e-03
 -9.4367966e-02
  3.7893012e+00
  1.7434455e-01
 -6.4774871e-01
  4.1703947e-02
 -9.1942221e-02
 -5.6201138e-02
 -1.7491391e-01
  3.7131053e-01
 -6.8368828e-01
 -3.5650763e-01
 -2.5530007e-01
 -3.7084731e-01
  7.8381501e-02
  1.0323362e-01
 -1.9396572e+00
 -7.9914790e-01
  1.6214380e-01
  1.3836394e-02
  1.4637929e+00
  1.0089983e-01
  3.5502192e-01
 -2.2490309e-01
  5.7785857e-01
 -2.7473724e-01
 -1.0811042e+00
 -1.4898199e-01
  3.5626113e-01
  3.7744517e+00
  6.8674751e-02
  4.2535063e-02
  1.6674833e-01
  1.9582644e+00
  5.3127442e-02
  6.5563291e-01
  1.4728808e+00
 -7.9010338e-02
 -1.4022608e-01
 -5.8010036e-01
 -1.7055394e-01
  4.9564026e-02
 -3.6011791e+00
  8.2179934e-01
 -7.9936695e-01
  3.7469161e+00
 -1.1157463e+00
 -1.9387981e+00
  2.7112627e+00
 -2.6730623e+00
 -1.0329787e+00
 -3.0051553e+00
  2.7276950e+00
 -4.3700204e+00
  8.4846288e-01
  6.7457430e-02
 -2.0975754e+00
  2.6295927e-01
  7.6686424e-01
  1.0584017e+00
  1.0090569e+00
 -1.5764520e+00
 -7.5833732e-01
  7.0931971e-01
  6.0816288e-01
  1.9159399e+00
  8.8206702e-01
  1.8311256e+00
 -1.2349013e-01
  9.8957783e-01
 -1.8797158e+00
 -1.6990916e+00
  4.9761024e+00
  1.3136253e+00
 -3.3576235e-01
  1.8418534e-01
  1.8687738e+00
  1.5415567e+00
  1.5772719e+00
 -1.6088730e+00
 -1.0538930e+00
  3.1966212e+00
  1.1722126e+00
 -4.7162843e-01
  1.1065398e+00
  1.5642145e+00
  5.0924957e-01
 -8.7677322e-02
 -4.3201759e-01
 -5.4001641e-01
  2.0714571e+00
 -5.0065416e-01
 -2.8542397e+00
 -6.4923577e-02
 -3.3918992e-01
 -5.2819073e-01
  2.2043538e-01
  1.6276237e-01
  3.5222381e-01
 -5.2526200e-01
 -2.7716551e+00
  1.9500345e-01
  2.5747910e+00
 -3.5841394e-02
  2.9797512e-01
  2.7849073e+00
  1.7924896e-01
 -1.3142942e-01
  1.0655799e+00
  4.3803167e-02
 -3.5290177e+00
  5.9256580e-02
  2.7132675e-01
 -9.4712488e-02
 -6.1646707e-02
 -1.7423679e-01
  1.1683921e+00
 -2.9943779e+00
 -2.4307988e+00
  8.7360096e-01
 -4.4456232e-01
  9.4164985e-01
 -1.7433519e+00
  2.6687346e-02
 -1.3985980e+00
  1.1566876e+00
 -5.9227729e-01
 -3.8707107e-01
 -1.6546263e+00
  2.4676042e+00
 -5.8595061e-01
  2.5473279e-01
 -4.0424030e-02
 -3.5157409e+00
 -4.7772516e-02
 -1.3198587e+00
 -2.6549647e-02
 -9.5227301e-02
 -1.2261169e+00
 -1.5271305e+00
  4.2549810e-01
 -6.5437198e-01
  4.5238018e-01
  4.4906653e-02
  7.5065136e-01
 -4.0173028e-02
 -1.5446469e-01
  1.3186616e-01
 -7.2106957e-01
  2.7824718e-01
  7.4084938e-01
  5.2553535e-01
  1.9180815e-01
 -2.0481507e-01
 -9.3497060e-02
  1.3744903e+00
  2.5089633e-02
  1.2908045e+00
 -2.6624246e+00
  6.7479990e-02
 -2.1496493e-01
 -8.8234385e-03
  2.4635244e-02
  5.8459684e-02
 -5.3547680e-01
  2.2873108e-01
  3.8926642e-02
  3.0269355e-01
 -2.3628387e-01
  1.2281077e-01
  1.4135355e-02
  2.8204955e-02
  7.3358104e-02
 -1.6092373e-01
 -5.5150697e-03
  8.1549529e-03
  8.5367374e-02
 -1.1558022e-01
 -1.6364053e-01
 -6.9409126e-01
 -3.1926334e-01
  1.5633930e-01
  1.1748030e+00
  6.7788407e-02
 -2.3629957e-01
 -1.4732301e-01
 -4.0753150e-01
 -5.4567760e-01
  1.2129226e-01
  2.5743696e-01
  7.5317138e-01
  5.8593675e-02
 -2.9758570e-01
 -4.4145070e-02
 -2.0319250e-01
  2.5139430e-01
 -7.8019895e-02
  8.0061212e-02
 -4.5632754e-02
  1.4056860e-01
 -1.1027818e-01
 -1.9583976e-01
  1.3604976e-01
 -4.1222316e-01
  3.4323645e-01
 -1.5861794e+00
 -5.2913398e-02
 -2.7700460e-01
 -1.2897401e-01
 -1.4929308e-02
 -8.8133868e-03
  3.9610359e-01
 -1.1347144e+00
 -1.3856444e-01
  1.2790836e-01
 -5.4482681e-01
 -4.0319085e-01
  1.9911340e-01
 -2.9570315e-02
  6.3462484e-01
  8.6521190e-03
  7.9226844e-02
 -2.5779039e-01
  1.3782148e-01
  9.7283268e-01
  1.0553341e+00
  2.4725296e-01
  3.7786163e-02
 -5.3074576e-02
 -6.0589546e-01
  5.0613161e-02
  3.0803587e-02
 -5.5441546e-01
 -2.3768288e-01
  2.2096723e-01
  1.3385551e+00
 -2.0203072e-01
  1.4704549e+00
 -1.0305370e+00
 -8.5794464e-02
  3.6601033e-02
  2.1362802e-01
  4.5765999e-01
  1.0131472e+00
  1.0995051e-01
 -2.6772144e-01
  3.8438655e-02
  2.7285901e-01
 -3.2487652e-01
 -3.3634645e-01
  3.1794521e-01
  8.1718922e-02
  9.0069318e-01
 -1.6332570e-02
  2.1921928e-01
  1.0526419e-01
 -3.0945012e-01
 -1.7509484e-01
  2.4717639e-01
 -1.5988508e-01
  3.9521697e-01
  1.3405832e-02
 -1.5476181e-01
 -1.6411501e-01
 -3.5007930e-01
 -4.5895793e-02
 -1.9664375e+00
  3.5538724e-01
 -6.7069876e-01
 -1.3008789e+00
  9.3047440e-01
 -6.0198289e-01
 -2.6270717e-01
  5.6458163e-01
  1.7112179e-03
 -3.3452827e-01
  2.2526550e+00
  1.7293622e+00
 -1.0429663e-01
 -5.1630545e-02
  1.5310231e-01
 -3.1279871e-01
 -1.4785071e-01
 -5.3356301e-02
  3.5934734e-01
 -4.6415922e-01
  9.5292950e-01
  2.0494909e+00
 -2.2558403e-01
  5.8186539e-02
  2.5859776e-01
  9.0076113e-01
  8.3473414e-02
 -9.6236676e-02
  3.7797919e-01
 -7.3027354e-01
 -1.7438699e-01
  2.5074267e-01
 -1.7847173e-02
  2.0515972e-01
  5.3173617e-02
  2.9594728e-01
  3.0040374e-01
 -8.8943380e-01
 -3.6354768e-01
 -2.6496067e+00
  2.1218746e+00
 -1.4232818e+00
  1.2229618e-01
  5.1168448e-01
  6.4713478e-01
 -6.6276021e-02
 -8.1869227e-01
 -2.3527806e-01
  2.0798391e-01
 -2.7602229e-02
  1.0032356e+00
  7.4061781e-01
 -3.4951511e-01
  2.6674226e-01
  4.4793648e-01
  7.4415249e-01
  2.6246840e-01
 -1.4435010e-01
 -1.5520319e-01
 -8.7699157e-01
  5.0141901e-01
 -3.8140935e-01
 -2.6926685e-02
  1.1638187e-01
  1.2235001e-02
 -1.0139632e-01
  5.5591331e-04
 -2.7677512e-01
 -1.4975661e-01
  3.1399599e-01
  5.2628297e-01
 -5.2952200e-01
 -1.7645910e-01
  1.7823344e-01
 -2.2110500e+00
 -1.7339252e-01
  2.8246760e-01
  6.0975801e-02
  7.6751608e-01
  9.4837680e-02
 -6.0531771e-01
 -7.1635798e-02
 -6.1085117e-03
  2.3085617e-01
  2.9361182e-01
  2.9008934e-01
 -4.1702291e-01
  3.4622467e-01
 -3.6127720e-02
 -2.2511718e-01
 -2.1760286e-01
  1.7855996e-01
  8.4774718e-02
 -1.2291852e+00
 -2.6788044e-01
 -3.1445587e-01
 -3.9597999e-02
 -8.5388482e-01
  2.6071373e-01
  9.5369026e-02
  6.2118649e-01
 -3.3430478e-01
  2.7618321e-02
  5.3108132e-01
  1.7949633e-02
 -6.6396587e-02
 -8.1929080e-03
 -5.6341553e-01
  1.9941217e+00
  1.0118436e-01
 -3.8614741e-01
  1.7114988e-01
  2.0994242e-02
  2.1075821e-01
  3.9322796e-01
 -1.5577210e+00
  9.4426893e-02
 -7.2536685e-02
 -3.9535138e-01
 -3.8830623e-01
 -2.2221836e-01
  3.2829526e-01
  1.7799236e-01
  1.3325074e+00
  1.1072149e+00
  5.1483297e-01
 -2.1147501e+00
  1.1084459e-01
 -1.5276184e+00
 -1.9421911e-01
  4.5316976e-02
  3.3676919e-02
  2.1069343e-01
 -2.7423930e-01
  1.0265326e+00
  3.4100735e+00
 -9.9856269e-01
  5.1010823e-01
 -1.7266525e-01
 -2.8082371e-01
  3.9663410e-01
 -5.8861363e-01
 -4.9878770e-01
 -1.3653748e-01
 -4.9538672e-01
  1.1760857e+00
  3.1837246e-01
  3.1187794e-01
  6.7262405e-01
 -1.1566113e+00
  8.0989957e-01
 -1.6826710e+00
 -9.6338606e-01
 -3.9674076e-01
 -2.1813087e-01
  4.7338781e-01
  6.1654419e-01
 -7.8480297e-01
 -1.2052660e+00
 -5.8122799e-02
 -3.8554627e-01
 -3.5741344e-01
  7.4206069e-02
  2.7662143e-01
  2.7799759e+00
  1.1676524e+00
  1.2238191e+00
  1.6557674e+00
  1.4155722e-01
 -6.9878852e-01
 -8.4534362e-02
 -6.0776627e-01
 -7.4227655e-01
 -9.8096961e-01
  3.8920256e-01
  2.8193306e-02
  2.4603908e-01
  1.6909190e-01
 -3.0529702e-01
  1.6896292e+00
  4.3428406e-01
  5.5120252e-02
  2.6970473e-01
 -3.2186542e-02
 -9.0956204e-02
 -1.2873243e-01
 -3.2142657e-01
  5.7330239e-01
  9.0487368e-02
 -5.0668050e-02
  1.7737480e-01
 -1.9747725e-01
 -6.9599062e-01
 -3.6943018e-02
 -9.0124391e-02
  9.5859125e-02
 -1.5685402e-01
 -4.3291089e-01
 -8.7437071e-03
  5.3855348e-01
 -2.6542512e-01
 -8.3913468e-02
 -4.9975008e-02
 -3.5676971e-01
  4.3159068e-02
  3.0015281e-01
  2.5212254e-02
 -3.9066583e-01
  2.4275793e-01
 -9.3678832e-02
  2.8013384e-01
  3.0452651e-01
  2.6055846e-02
 -1.4793323e-01
 -2.3418061e-01
 -2.9910928e-01
 -7.1702234e-02
 -4.6109815e+00
  6.9000326e-02
  5.1766839e-02
  9.5111698e-02
  1.9019829e-01
 -7.1045297e-01
 -2.2332981e-01
  1.5750792e-02
 -1.6956839e-01
  8.6893611e-02
 -1.7147650e-01
  5.6999439e-01
  4.1998306e-01
 -4.3778647e-02
 -4.5391011e-01
  1.8424717e-01
 -4.3118286e-01
  7.1275800e-01
  1.2988985e-01
  1.5038179e-01
  2.5214726e-01
 -9.5328048e-02
 -9.8283991e-02
  6.6104062e-02
 -1.6836073e-01
 -2.5218198e-01
  4.4662494e-02
  1.3216078e-01
 -7.6048785e-01
  7.4699271e-01
 -1.8311657e-01
 -4.4721952e-01
 -7.0847559e-01
 -1.9093834e+00
 -2.6418427e-01
  1.8717979e-01
  1.3725387e+00
 -1.3311674e-01
 -2.3547396e-02
 -5.2480388e-02
  7.0448124e-01
  3.7871143e-01
 -6.2854427e-01
  1.1250696e-01
  2.5623906e-01
 -1.4540750e-01
  1.6712343e-02
  1.4846368e-01
  3.5859245e-01
  5.7709473e-01
  8.7257028e-02
  3.3373886e-01
 -1.4384958e-01
 -3.1792539e-01
 -6.2341517e-01
  4.1017733e-03
  6.3646980e-02
 -3.0782703e-01
 -1.0474674e-01
  3.1522819e-01
 -3.0608132e-01
  6.9987819e-02
  5.8479108e-02
 -1.1996580e+00
  2.9918617e-01
  9.8750591e-01
 -4.3822852e-01
  6.8121947e-02
  2.0240882e-01
 -3.2178378e-01
 -1.1101264e+00
  3.7698835e-01
 -3.7502155e-01
  1.1029609e+00
  1.4532362e+00
  5.4761553e-01
  6.6339558e-01
 -7.0155896e-02
  3.0237287e-01
 -2.9541841e-01
 -4.3933740e-01
 -1.6957319e-01
 -3.0241678e-02
 -5.4274648e-01
  1.0365195e-01
  5.2039677e-01
  2.1939088e-01
  1.0468464e+00
  1.5663933e+00
 -4.8076570e-01
 -6.7256916e-01
  6.5719360e-01
  1.9404015e-01
 -4.3095016e-01
 -2.4697743e-01
  5.2492315e-01
  4.2416868e-01
  3.0568847e-01
 -7.4572623e-01
 -7.3248881e-01
 -2.5476298e-01
  3.3540756e-01
 -5.8167624e-01
 -1.0322610e+00
  5.8939464e-02
  5.3625148e-02
  2.0529690e-01
 -9.8009028e-02
 -2.5524950e-01
 -4.3579351e-02
  2.1390639e-01
  1.6444132e+00
 -1.6629235e+00
 -4.9357682e-02
 -8.2244062e-01
  3.7197450e-01
 -1.4415765e-01
  5.0993794e-01
 -1.4176998e-01
  2.9573189e-02
  3.6783189e-01
 -8.7226987e-01
 -3.3924079e-01
 -4.1263214e-01
  6.1767143e-01
  3.9565170e-01
  3.2941550e-02
 -8.4168094e-01
  5.0412823e-02
  7.6277059e-01
 -1.7903176e-01
  1.7481319e+00
  4.6351939e-01
  1.6578987e+00
  6.7355081e-02
 -6.5792537e-01
  3.7808880e-01
 -1.1854342e+00
 -6.2715077e-01
  1.3218230e-01
 -6.9207318e-02
  3.1061688e-01
 -1.0884118e+00
 -5.3044069e-01
 -1.5527089e+00
  3.1353727e-01
 -4.6872234e-01
  9.3045115e-01
  4.6020389e-02
 -6.0362363e-01
 -9.0933514e-01
  8.0420727e-01
 -1.9695185e+00
 -9.2142266e-01
 -6.6492264e-03
  7.1853444e-02
 -3.6283165e-01
 -8.8753301e-01
 -2.3589101e-02
 -6.2159282e-01
  1.1734551e-01
 -2.2901723e+00
 -3.8359877e-01
 -9.8362821e-01
  8.6897001e-02
  1.2574635e-01
  8.0531484e-01
  5.8522873e-02
 -2.5876313e-01
 -1.4390011e+00
  9.2052713e-02
  1.4238333e+00
  1.2852175e+00
  7.7008843e-01
 -8.3710867e-01
  8.0712903e-01
 -5.1275116e-01
  6.0992444e-01
  2.3045465e-02
 -6.7506582e-01
 -2.2694841e-02
 -6.6786045e-01
 -2.0722257e-02
 -3.4371743e-01
 -1.4256507e-02
 -5.9822939e-02
  1.0025744e+00
  1.9062642e-03
  6.0525544e-02
  4.7620498e-02
  5.8900096e-02
 -1.7606334e-01
  4.9507761e-01
  3.2581964e-01
 -1.9117002e-01
 -3.5313559e-01
  5.4362935e-01
 -9.6493036e-01
 -4.8526853e-01
  2.6751640e-01
 -2.1739794e-01
  4.4824634e-02
  4.4130665e-01
 -7.3768266e-02
 -3.4710023e-01
  4.6102092e-01
 -2.8695136e-01
  2.7799803e-01
  2.8206933e-01
  3.9443058e-01
 -6.8099797e-03
 -3.3692670e+00
 -1.3412969e-01
 -2.2018476e-01
  1.5922257e-01
  1.7248105e+00
 -1.4498086e-01
 -6.4746253e-02
 -9.2807248e-02
  5.3985897e-02
 -2.2088034e-02
  6.4876847e-02
 -2.5723141e-01
  5.0949347e-01
 -6.1372995e-01
  1.0363193e+00
  1.8910618e+00
  1.4685060e-01
  1.3581485e-01
  2.1376318e-01
 -9.7944312e-02
  2.5410058e+00
  1.1035409e-02
  2.3873588e-03
 -5.9411645e-02
  8.2823355e-03
  5.0350398e-01
  9.7771913e-01
 -1.4418069e+00
  1.3633316e+00
  2.2859541e-01
 -7.4120188e-01
  1.4591101e+00
 -9.4857198e-01
 -3.5434058e-01
  3.9264634e-02
 -4.5333207e-02
 -5.8704758e-01
 -3.7968385e-01
 -3.0877142e+00
  3.4122676e-01
 -8.1364369e-01
 -1.4330366e+00
 -3.1939623e-01
  2.8053746e-01
 -6.5378046e-01
  2.8411090e-01
  3.8618925e-01
 -5.1746339e-01
  1.3048843e-01
 -2.4232447e+00
  1.4202848e-01
 -1.5962015e+00
  1.6438603e-02
 -9.9511266e-01
  4.9864039e-01
  2.1658565e-01
 -1.7022101e+00
  5.5513542e-02
  1.1557773e+00
 -4.2069049e+00
 -2.7335778e-01
  2.3422644e+00
  4.6008606e-02
  3.5328209e-01
 -8.8035846e-03
  7.4008399e-01
 -6.7595720e-01
 -6.7705971e-01
 -4.5858067e-01
 -1.8344052e-02
  3.1889554e-02
  2.8926307e-01
 -5.1151216e-02
 -4.6299253e+00
 -3.9158899e-02
  3.4912673e-01
  2.3587840e+00
  2.7044287e-01
  4.0280098e-01
  2.1143426e-01
  2.3012714e-02
  6.7398787e-02
 -4.3094063e-01
  9.5608167e-02
 -6.9685699e-03
  2.6921445e-01
  2.7867925e-01
  5.0911856e-01
 -2.0984657e-01
 -3.5357342e+00
  5.5058762e-02
 -3.5588987e-02
 -2.1027128e-01
  1.0126188e+00
 -1.7331112e-02
 -7.0230079e-01
 -1.7478427e+00
  6.8253267e-01
  3.1583205e-01
  1.6637200e-03
  2.0619704e-01
  1.1564291e-01
 -1.2731107e-01
  6.4107573e-01
 -8.1019813e-01
  1.5577154e-01
 -7.3198937e-02
 -1.1396301e-02
  3.0721056e-01
 -1.6259601e+00
 -3.1710762e-01
  7.1578771e-02
  2.7808976e-01
 -1.5457530e+00
  6.1952196e-02
 -1.0408276e-01
 -2.0464559e-01
 -1.3502309e-01
 -4.1450265e-01
 -9.4892085e-01
  3.1131741e-01
  9.6878988e-01
 -1.7301609e-01
  4.5137640e-02
  3.4038460e-01
 -1.2772298e-01
  1.0802663e-01
 -5.0491776e-02
 -4.7253674e-01
 -9.0643436e-02
 -3.6190525e-01
  1.3322914e-01
  9.7866547e-01
  2.6384011e-02
  2.5843880e-01
  6.6506380e-01
 -3.3775449e-01
  9.5517856e-01
  3.6023495e-01
 -1.0120811e-01
  3.5108650e-01
 -2.5449092e+00
 -2.2509689e+00
  2.1145535e-01
  9.6408170e-01
 -1.9276401e-01
  1.1444664e-01
  8.3374754e-02
 -8.4775144e-01
 -4.8912644e-01
  6.5442663e-01
 -1.1506177e-01
  2.3574667e-01
 -1.0892645e-01
 -4.7154479e-02
 -4.2017683e-01
  9.1276109e-02
 -1.8925619e-01
  3.7370205e-01
  1.2607987e-01
  1.1718592e-01
  1.6137074e-01
 -6.9490999e-01
 -2.5219923e-01
 -3.0053037e-01
 -2.9057980e+00
 -1.3291101e-01
 -2.5230199e-01
 -1.6423537e-01
  3.8946409e-02
 -7.9883522e-01
 -5.0141966e-01
 -1.3243796e-01
  5.5304420e-01
  5.2376807e-02
 -1.3249055e-01
 -6.6613811e-03
  9.8643738e-01
 -5.8735836e-01
  5.2664179e-01
  9.9548452e-02
 -5.4313451e-01
 -1.3182281e+00
  6.6411525e-01
 -9.5624077e-01
 -4.6335655e-01
 -8.6047366e-02
 -2.0412993e-01
 -1.0999609e-01
  8.1784201e-01
 -4.6219349e-01
  1.1437353e+00
  4.1124737e-01
 -6.3720834e-01
  1.4718294e-01
  1.3906045e+00
  4.9647492e-01
 -4.9771309e-01
 -4.7992679e-01
 -3.7537677e+00
  1.3958455e+00
  1.3780238e-01
  2.2774321e-01
 -1.4452735e+00
  8.3390847e-02
 -1.5610114e-01
 -2.2271879e-01
  3.5928419e-01
 -1.3327664e-02
 -6.6578728e-01
  4.2840606e-01
 -1.1400950e-01
 -4.6790895e-01
  3.1697877e-02
  1.5723135e-01
 -1.4203474e-01
  1.2618609e-04
 -6.3925600e-01
  3.7886113e-02
  1.0865989e-01
 -6.7555094e-01
 -1.1193980e+00
 -6.6521049e-02
 -6.4642966e-02
 -3.7052649e-01
 -3.2407298e+00
  5.6887519e-01
 -2.4625413e+00
  4.9717766e-01
 -3.2480153e-01
 -3.5926864e-01
  1.9703830e-02
 -4.8902798e-01
 -4.5641640e-01
 -6.8451959e-01
 -1.1393656e+00
 -7.8814632e-01
  3.4549953e-03
  3.4672487e-01
 -4.4811204e-02
 -3.1565508e-01
 -7.6992765e-02
  1.3535389e+00
 -1.1667961e-01
  1.1553460e-01
  4.6380031e-01
  4.1043651e-01
  9.5806158e-01
  1.8801318e+00
 -1.0138602e+00
 -1.5096131e-01
  2.3455310e-01
  6.1802214e-01
  1.9158013e-02
  1.3001291e-01
 -3.4618619e-01
 -7.8391409e-01
 -5.8956879e-01
  5.2639985e-01
 -6.8345112e-01
  5.5633402e-01
 -5.4806877e-02
  2.6519108e-01
 -8.6779922e-02
  7.5479168e-01
 -1.9911588e+00
 -3.9613160e-01
  2.9551730e-01
 -6.0261273e-01
  6.0392159e-01
  9.6005201e-01
 -1.2814434e+00
  6.1547357e-01
  1.4488823e-02
  1.6992711e-01
  4.0631709e-01
  1.7663047e-01
 -1.0217829e+00
  4.4090189e-03
  6.4543769e-02
 -8.6958605e-01
 -3.1193590e-01
  3.5455668e-01
  4.0136868e-01
 -4.4388071e-01
  6.1046982e-01
  1.0726895e+00
  8.7332588e-01
  2.8547635e-02
 -2.2368474e+00
  9.4100100e-01
  5.2135766e-01
  4.8384315e-01
 -7.3933566e-01
 -3.4814808e-01
 -1.7775304e+00
 -2.1505958e-01
  4.0391386e-02
  6.9526231e-01
 -7.6958114e-01
  5.7856660e-02
  5.6449145e-01
  8.4843732e-02
  3.0967742e-01
 -2.6360951e-02
  3.2045938e-02
  3.1452450e-01
 -3.5770230e-02
  1.0324104e-01
  7.4445575e-02
  2.4116266e-01
 -1.0161040e+00
  2.3408081e-01
  3.6313117e-01
 -1.1126165e+00
  3.1491548e-01
  4.6017557e-01
  4.3404925e-01
 -2.8558341e-01
 -1.6632731e-01
  2.3585378e-01
  1.1436148e-01
 -6.2975086e-02
  4.9732037e-02
  6.3017631e-01
  2.9184598e-01
  8.4140837e-01
  1.8198166e+00
 -4.3519759e-01
  2.0102900e-01
  1.5835910e+00
  2.6801234e-01
 -1.6065243e-01
  1.2447964e+00
  4.1536608e-01
  1.0497341e-01
 -1.3148245e+00
 -1.9532649e-01
  5.7653522e-01
  3.1872525e+00
  5.9577473e-02
 -5.2763295e-01
  4.4986758e-01
  7.3058915e-01
  1.5351735e+00
  7.8375533e-02
 -2.7868520e-02
  4.2909184e-01
  2.6599735e-01
 -1.4706267e+00
  3.1090587e-01
  1.1671417e-01
 -4.3734944e-01
 -7.2373354e-01
 -8.8643335e-02
  2.8200871e-01
  1.7757399e-01
 -1.9949716e-01
 -5.4140907e-02
  3.4834321e+00
 -2.9072664e+00
 -6.9784313e-03
 -7.7073924e-02
 -2.6943117e-02
  5.5897510e-01
  7.0023142e-02
  6.6855544e-01
  1.0444371e-01
  1.3192149e-01
  6.2995240e-02
 -2.5576055e-01
  1.0842455e-02
 -3.3959347e-01
  2.3103249e-01
  2.9166479e-02
 -1.7204669e+00
 -5.3606931e-02
 -3.2925572e+00
  7.9376757e-04
 -6.0168803e-01
  4.0326503e-01
 -3.0857500e-01
  3.9869536e-02
 -1.2017508e-01
  9.1473378e-02
  2.9398048e+00
 -1.5824413e-01
 -1.9043374e-01
 -1.2482776e-01
 -2.0499922e-01
  6.8702823e-01
  5.5324543e-01
  5.7878164e-03
  2.5976691e-01
 -9.1854937e-02
  1.4466704e-01
 -2.0498647e-01
  1.9560105e-01
 -6.6676661e-02
 -1.0187662e-01
  1.5157909e+00
  6.6965842e-01
  3.1328744e-01
 -1.3308826e-01
 -1.9146165e+00
 -1.7235066e-01
  5.4204985e-02
  4.0814281e+00
  9.8018236e-02
  9.8636426e-02
 -6.5899744e+00
 -2.4145277e-01
  6.0838932e-01
 -7.1026027e-01
 -1.4585380e-01
 -1.1244770e+00
 -2.0262769e-01
  2.2124126e+00
  3.4523731e-01
  2.8411984e+00
 -1.3221072e-01
 -5.6834269e-01
 -8.6959988e-01
 -1.9306178e-01
 -2.6151824e-01
 -6.1947578e-01
  3.3064961e-01
  2.9989446e-02
 -6.5180683e-01
 -8.9070372e-02
  4.3094572e-01
 -6.8544251e-01
 -8.7218389e-02
  1.2675904e+00
  9.5250678e-01
 -9.5769560e-01
 -1.5411278e+00
  2.0566106e-01
  2.4277939e-01
 -1.0024264e-01
 -3.4423605e-01
 -9.2982799e-01
  3.7488955e-01
  4.7572580e-01
 -6.6829309e-02
  3.1097189e-01
 -9.8387122e-01
  4.1323183e-03
  4.1534599e-02
 -3.1601841e+00
 -6.7337103e-02
  5.5813396e-01
 -4.8405573e-01
  6.0751039e-01
  1.9925900e-01
 -2.6488245e-01
 -6.3491267e-01
  2.2484614e-01
 -3.3260748e-01
  1.4758122e-02
 -5.9958130e-01
  6.1359491e-02
 -1.0957580e+00
 -1.0815122e-01
  4.1733488e-01
 -1.4074817e-01
  7.9027307e-01
 -1.0864055e-01
  3.7573028e-02
  2.3047905e-01
 -7.6593742e-02
 -6.2290855e-02
  8.2099207e-02
  7.7859509e-01
 -4.9493477e-01
 -1.2215023e+00
  1.3236542e-02
 -6.0076404e-02
 -2.8974959e-03
 -4.9105248e+00
  5.5389482e-01
  6.5267926e-01
 -2.7572298e-01
  2.4177462e-01
  2.0271252e-01
 -3.8648030e-01
  8.7323600e-01
  6.1262196e-01
  4.5906924e-02
 -2.4166173e-01
 -3.2124922e-01
 -7.8596669e-01
 -5.0511211e-01
 -3.6679383e-02
  1.4721198e-01
 -1.5056573e-01
  2.4433899e-01
  3.7803099e-01
  1.9436967e+00
 -1.5704892e+00
 -1.9263473e-01
  1.0558159e-01
 -1.0071497e-01
 -9.7089924e-02
  3.0459356e-01
 -4.4312137e-01
 -4.6168554e-01
  2.2783650e-01
 -9.4088897e-02
  3.1790197e-02
 -1.0042246e-01
  1.5924104e-01
  4.4404066e-01
 -5.0402874e-01
  3.5709205e-01
  1.5017025e-01
  6.9364166e-01
  1.5715842e-01
  9.2504974e-03
 -3.3102864e-01
  8.0905497e-02
  1.0459964e+00
 -1.6080768e-01
  1.2789046e+00
  2.8020498e-01
  9.4880837e-01
  3.1220629e+00
  1.8489175e-01
 -1.0264810e+00
  1.6335218e+00
  7.9488432e-01
  9.8439148e-03
 -5.8133912e-01
 -1.4579895e+00
  7.0497406e-01
 -3.7013766e-01
 -7.2520465e-02
  1.5463786e-01
 -5.3046429e-01
  9.0025645e-01
 -2.0132135e-01
  5.3985798e-01
  5.4936975e-01
  4.6556938e-01
  9.2070365e-01
 -1.0243433e+00
 -6.9368750e-01
  1.9161483e+00
 -1.0456555e+00
 -1.0083972e-01
 -9.0366662e-01
  2.7539927e-01
  4.1965865e-02
  2.7897284e+00
  5.0301856e-01
  1.0032431e+00
 -1.5402436e-01
 -3.3241072e-01
  7.6651776e-01
  2.2541061e-01
  8.4467673e-01
 -1.1391183e+00
  5.4055738e-01
 -4.2644458e+00
 -5.6142431e-01
 -2.4845406e-01
 -2.6518872e-01
 -1.6411895e+00
  3.4281135e-01
  2.7520514e-01
  1.9096075e-01
 -4.8758349e-01
  2.6479435e-01
  2.4277268e-01
  1.2704166e+00
  2.8089699e-01
 -2.9494816e-01
  1.2005051e-02
 -1.5594243e+00
 -6.2526993e-02
 -3.5405904e-01
 -4.8101798e-01
 -4.2190135e-01
  1.9586253e-01
  1.6702594e-01
 -3.3028076e+00
  4.7338661e-02
  1.8593386e-02
 -2.2477464e-01
 -1.5657334e-01
  4.4079286e-01
  8.2516469e-02
  2.8072861e-01
  1.1949255e-02
 -2.3804082e-01
 -8.5796349e-02
 -3.1955111e-01
  6.0250056e-01
  3.4706381e-01
 -7.1789689e-02
  1.4016644e+00
 -4.0044522e-01
 -6.6197582e-02
 -7.6872486e-01
 -1.1403486e-01
 -1.7508884e-01
 -4.9130842e-01
 -1.8788108e-01
  1.6786657e-01
 -4.1781145e-01
 -3.9399159e-01
  6.5584004e-01
  3.9788508e-01
 -8.9881912e-02
 -8.1855941e-01
  1.4568497e-01
  5.0485075e-01
 -7.7435791e-02
 -1.9075615e+00
 -1.3084416e-01
 -6.5869385e-01
  4.2816359e-01
 -8.5278946e-01
  1.1349765e-01
 -8.8201356e-01
  8.3723992e-02
 -1.2000414e+00
  1.2329785e-01
  4.4464701e-01
  1.5644155e+00
  7.4940240e-01
  1.2814792e-01
  7.7944106e-01
  6.1620545e-01
  4.8181856e-01
 -1.7163089e-01
 -1.2130263e-01
  1.0325240e-01
  3.0048200e-01
  1.1532588e+00
 -8.4220402e-02
  2.1460967e-03
  1.9502617e-01
  4.0755373e-01
 -3.1480223e-01
  4.1400340e-01
 -5.1618028e-01
  2.1893553e-01
  3.6163781e-02
 -7.8368962e-02
  4.5770258e-02
  1.2588112e-01
  5.8991507e-02
  4.1088507e-01
  1.1010975e-01
  4.1427112e-01
  1.1129558e-01
 -1.7170769e+00
 -8.5422151e-02
  8.3142310e-02
 -1.7260772e-01
 -5.7689697e-01
 -3.7499174e-01
 -9.9704415e-02
 -1.1227365e-03
 -8.2193621e-02
 -6.5930897e-01
 -5.9955525e-01
 -1.8249753e-01
 -1.9894622e-01
  1.5361711e-01
  5.4130328e-01
 -1.4890091e+00
 -1.6234408e-01
 -4.1474172e-01
 -1.7069019e-01
  2.7634420e+00
  3.7105426e-01
  1.2277532e-01
  7.3609233e-02
 -6.2998638e-02
 -7.7738233e-02
  1.2410679e+00
  1.6036403e-01
 -1.6044457e-01
  4.5813985e-02
  1.1723917e-01
  7.3055518e-01
  4.9763641e-01
 -2.5231665e-01
 -1.0463463e-01
 -3.0729294e-01
  1.5720466e-01
  8.3608314e-02
  3.2200643e-01
  4.9284451e-02
 -2.5681400e-01
  8.9721644e-01
 -1.0125151e-01
 -2.5070602e-01
 -4.6190981e-02
  4.9844435e-01
 -5.2433740e-02
  9.8390013e-02
  1.6467965e-01
  1.7014733e-01
 -1.4118154e-01
 -2.2475677e-02
  1.5806986e-02
 -4.0586814e-02
 -5.3785807e-01
 -1.5592453e-01
  3.3730972e-01
 -7.1238232e-01
 -6.0292959e-01
  6.7874775e-03
 -1.8263964e-01
  3.6839372e-01
  3.9201349e-02
  6.2309970e-05
  3.3571254e-03
  1.9547528e-01
 -1.6337579e-02
 -1.8148674e-01
 -1.3176179e-01
 -1.8463807e-01
 -8.9366697e-03
  1.7668847e-03
  1.7332087e-01
 -3.3481252e-01
  1.7195545e-01
  1.2550522e-01
  3.3021754e-01
 -4.9523446e-01
 -2.2130817e-01
 -2.3537056e-01
  6.5258920e-01
  6.8592936e-01
 -2.7650455e-01
 -3.2176751e-01
  2.1890265e-01
  2.8312317e-01
  2.1374573e-01
 -4.8386529e-01
  1.0251971e-01
  2.2629004e-02
  4.6645534e-01
 -3.1698474e-01
 -5.8872148e-02
 -1.9776551e-01
  7.7920400e-02
 -5.8382500e-02
  6.1415046e-01
 -2.6876783e-01
  1.0038092e-01
 -2.2076827e-01
 -2.8886609e+00
  2.7067107e-01
 -2.0962659e-01
 -2.6561871e-01
  3.8687450e-01
  9.6332371e-01
 -2.2793896e-01
  4.8111922e-01
  1.6556960e-01
  1.0373278e-01
  1.9285983e-01
 -8.1448948e-01
 -1.9968024e-01
 -1.6903418e+00
 -3.5277373e-01
 -9.2583068e-02
  7.9730801e-02
  1.8947059e-01
 -4.7200277e-01
 -1.8897864e+00
 -4.3819267e-01
 -1.6690871e-01
  8.4987199e-01
  1.6644531e-01
 -1.6956949e-01
 -2.7144682e-02
  6.1770380e-01
 -7.1517482e-02
 -2.3573270e-01
  4.3702617e-02
 -1.6757749e-02
  1.4115766e+00
 -1.9188170e-01
 -2.6747829e-01
 -9.8730057e-02
 -2.3461189e+00
  4.1817820e-01
 -1.1556357e+00
  7.3676375e-03
 -3.6542130e-01
  4.2289889e-01
  6.4337647e-01
 -3.0617240e-01
 -9.0782449e-02
  2.2286719e-01
  2.8650978e-01
  9.5216528e-02
 -7.9560989e-01
 -5.7120752e-01
 -5.7457036e-01
  2.0177498e-01
  4.8169145e-01
  2.7731574e-01
 -4.1824675e-01
 -4.9031898e-01
 -2.0087156e-01
 -7.5873181e-02
  9.5353648e-02
  6.4690433e-02
 -1.1066837e+00
 -2.6054797e-01
 -1.5451157e+00
 -1.1450578e-01
 -1.0162108e-01
 -1.6512158e+00
 -2.7026394e-01
 -2.2256564e-01
  4.6405542e-01
 -3.5031742e-01
  5.7048563e-02
  1.0608319e-01
 -2.2858931e-01
  1.4545408e-01
  3.8924092e-01
  3.3329509e-02
 -2.0309472e-01
 -4.7214437e-01
 -2.4352255e-01
  2.5507864e-01
  2.1743272e-01
  7.8739725e-02
  1.3623177e-01
 -1.3768440e-01
  4.5753041e-01
  1.7958140e-01
  6.4624119e-01
  2.6140869e-01
 -1.1010565e+00
  1.1480847e-02
  7.1782660e-01
 -6.2010982e-03
  6.3559592e-02
  1.2528376e-01
 -9.3337305e-02
  3.0796775e-01
  3.8146442e-01
 -8.5363865e-02
  7.5060293e-02
  3.0207890e-01
  2.4398705e-01
  1.7228359e+00
  3.2329866e-01
  1.2338993e-01
 -1.4397488e+00
 -7.3818140e-02
 -7.7913776e-02
 -1.1164880e-01
  1.9405594e-02
  2.0141107e-01
  2.7288625e-01
  9.4594610e-01
  1.2030931e-01
 -3.1556335e-01
  3.8563032e+00
 -4.5375071e-02
 -3.1723025e-01
  4.4186923e-01
 -1.7657757e-02
 -1.1025108e-01
  1.0127030e-01
 -1.0052666e-01
 -2.3098171e-01
  1.2560949e-01
 -2.0240083e-01
 -4.3877710e-02
  4.7352672e-01
 -4.0422700e-02
  4.7358624e-03
  1.8398964e-01
 -2.1063891e-01
  2.4885776e+00
 -5.5071995e-02
  1.0973021e+00
  2.2369374e-01
 -1.9127420e-01
 -7.7272451e-04
  1.4097740e-01
  3.1854981e-01
 -8.9558013e-02
 -9.7520098e-02
 -1.1105894e+00
 -5.3575182e-01
 -1.9982611e-01
  3.5108984e-02
 -4.4121578e-02
  1.4391075e-01
  1.3916144e-01
  7.9137668e-02
 -2.2081840e-01
  4.7097750e-02
  2.9702950e-01
 -2.6025870e-01
  1.8671863e-01
 -9.2344014e-03
  2.7272138e-01
 -7.4641421e-02
  1.2838037e+00
  2.9110292e-01
 -1.6549987e-01
 -1.0671694e-01
 -3.5921258e-01
  4.0179949e-02
 -1.0086981e-01
 -1.3729776e-02
 -1.2847564e+00
 -3.9258543e-02
  7.6358356e-02
  2.0891379e-01
 -2.5351784e+00
 -1.1414470e-01
 -3.2633120e-01
 -1.8438894e-01
 -3.0103712e+00
 -2.7354813e-01
  2.0519364e-01
  2.6804432e-01
 -1.9049346e-01
  6.3147143e-02
  3.2723576e-02
 -6.0977548e-01
  5.0349530e-02
  1.1339498e-02
  2.7418053e-01
 -1.0334967e+00
  1.1603002e-01
  2.2954593e+00
  2.8893629e-01
 -1.6612615e-01
 -5.1312890e-02
 -1.4885834e-01
  1.6846329e-02
  1.7293914e-01
 -7.4727826e-02
  1.1096454e-01
 -4.3593574e-01
 -1.2155257e-01
  7.6530330e-02
 -3.6269894e-03
 -5.0211046e-02
 -2.9064104e-01
  1.2134396e-01
 -1.4489107e-01
 -6.1534435e-02
 -1.5808135e-01
 -1.0029897e-01
 -2.6899579e-01
 -1.5722386e+00
 -1.3565759e-01
  4.8592898e-01
 -1.1069254e+00
  1.0735707e+00
 -1.0498592e-01
 -1.1293409e+00
 -1.3291512e-02
  2.1831250e-01
 -7.7959496e-01
  7.4752527e-01
  3.0051962e-01
 -1.8139737e-02
 -2.6559290e-01
  3.9868242e-01
  8.9956605e-01
  2.6580855e-01
 -3.2003680e-01
 -6.2395435e-02
 -5.4509521e+00
  1.1639373e+00
 -8.9053166e-01
  8.8380247e-02
 -8.2206815e-01
  4.2572066e-02
 -2.4156226e-02
 -8.6941235e-03
  6.2312627e-01
 -2.9179151e-03
  1.0315224e-01
  1.8020333e-01
 -1.3885258e+00
  3.0328450e-01
 -3.8787462e-02
 -2.5440475e-01
 -6.0251437e-02
  3.5402045e-01
 -7.4642204e-02
 -4.3372675e-03
  1.9507498e-01
 -6.6911422e-02
 -3.6300129e-01
 -2.2574314e-01
  5.0076760e-02
 -3.0734176e-02
 -3.4918655e-02
 -6.5453649e-02
 -4.1379619e-02
  3.0606100e-03
  3.9680757e-02
 -4.4013047e-01
 -5.1137611e-02
  3.9721942e-01
  1.2790066e-01
 -1.0821823e-02
  8.2410544e-01
  7.1627781e-02
  2.3123038e-01
  1.8829994e-01
 -2.6969433e-01
  8.8778280e-02
  9.5218964e-02
 -9.4506240e-01
  1.0746241e-01
  3.1933185e-01
  5.2074271e-01
  3.5225753e-02
 -7.0680834e-02
 -1.6989927e+00
 -4.2142785e-01
 -4.7546121e-01
 -2.5724143e-01
  2.0848720e-01
 -5.8421221e-02
 -2.4763186e-01
 -5.2659307e-02
  1.4588580e-01
  2.7513081e-01
  1.9743986e-01
  8.8785291e-01
  1.1970825e-01
 -7.5568062e-01
 -1.4775735e-01
  2.4425089e-01
 -7.3177196e-02
 -1.0794734e-01
 -7.8107357e-01
  1.4503802e-01
 -1.0471103e+00
 -1.1838478e-01
  3.3310100e-02
  1.7671724e-01
  6.3548064e-01
 -4.2255986e-01
  2.9474366e-01
 -7.0745468e-02
 -2.7371430e-01
 -6.1755270e-01
 -8.8936436e-01
  9.3045935e-02
  7.3807485e-02
  2.5284003e-02
  6.3287929e-02
  1.8275359e-01
 -1.9193862e-01
 -3.1864036e-02
 -4.2022282e-01
  1.7999735e-02
 -1.6030188e-01
  1.6713780e-01
 -1.7422350e-01
  1.3269629e+00
 -1.6407071e-02
 -1.8677928e-03
 -5.3797860e-02
 -1.9941213e-02
 -5.4523185e-02
 -1.5904012e-01
  2.5320053e-01
  1.7232176e+00
 -2.5097162e-01
  2.7647316e-01
 -4.4747069e-01
 -8.6122304e-03
  1.5769310e-02
 -7.2448112e-02
 -6.4305916e-02
 -1.9994136e-03
 -3.8211014e-02
  6.8277746e-02
 -1.9571491e-02
  7.4720800e-02
  3.0410988e-02
  2.2289898e+00
 -9.0351954e-02
 -6.4231098e-02
  1.8854465e-01
 -4.5575529e-02
 -2.9517627e-01
 -1.2737298e-01
  1.5136038e-01
 -3.3837155e-02
 -8.0050953e-02
  1.5470496e-01
  3.8877952e-01
  2.0333171e-01
  2.5683993e-01
  1.1562563e-01
 -8.7629989e-02
  3.3696508e-01
 -1.4448605e-01
  2.3133869e-01
 -1.2743294e-01
 -2.7369189e-01
  1.1410911e-01
 -1.4354838e-02
  2.8033556e-02
 -5.4002923e-01
  8.7388146e-01
  8.6530283e-02
  4.5656368e-02
  6.1118102e-01
  8.6402290e-02
  1.4640845e-01
  9.3956873e-02
  6.1336174e-03
  2.0875172e-01
  6.8536335e-01
 -1.7186855e-01
 -2.6250339e-01
 -9.0688713e-02
 -7.0799184e-01
 -3.1783023e-01
  4.1669044e-01
 -1.8752755e-01
  4.2830426e-02
 -4.6498543e-01
  8.0137879e-01
 -3.5265270e-01
  4.6462141e-02
  1.2256126e+00
  4.4032833e-01
 -3.5218939e-01
 -1.3740132e+00
 -7.2771215e-01
 -8.9037359e-02
  2.8672481e-01
  1.4079825e+00
 -8.6892985e-02
  1.7054439e+00
  1.2949004e+00
  1.3559912e-01
 -2.1292415e+00
 -4.7132832e-01
  3.4444079e-01
  1.6309848e-01
  8.8287219e-02
 -1.0043077e-01
 -1.2491162e-01
  4.2132792e-01
  3.1297341e-01
  2.1341099e-01
  7.3666252e-02
  6.2106985e-01
 -1.3328457e+00
  1.1763800e+00
  1.7029147e-01
  1.6277131e-01
  3.6533907e-01
 -3.8480422e-01
 -3.9792469e-01
 -4.6659464e-01
 -5.8587898e-02
  2.2984201e-01
 -1.4554480e-01
 -7.5638138e-02
  2.3320863e-02
 -1.0164994e-01
  2.1464167e-02
  1.8697201e-01
 -8.0820864e-01
 -2.2742744e-01
 -5.4666615e-01
  5.0686622e-01
  1.1411941e-01
 -4.5595992e-02
  2.1886640e+00
 -2.7997109e-01
  8.5300148e-01
  1.8756621e+00
 -2.6547819e-01
  1.3356739e-01
  8.3790237e-01
  4.6366919e-02
 -1.0110335e-01
 -9.4096474e-03
  2.2944586e-01
  3.7677392e-01
  8.7480831e-01
 -3.5836317e-02
  4.6375450e-01
  8.7105511e-03
 -2.4414629e-02
  6.8786019e-01
  5.3895938e-01
 -6.7261821e-01
  3.2686893e-02
  2.1178815e+00
 -2.4143837e-02
 -5.0983137e-01
  1.4238068e-01
  3.2512468e-01
  4.6048556e-02
 -4.3735236e-02
 -1.6575733e+00
  2.9076046e-01
  9.9271111e-02
  1.4778373e-01
 -1.4152609e-01
  2.2164008e-03
 -3.8630765e-02
 -8.0889635e-02
  5.0573117e-01
  1.3604952e-01
 -3.3313173e-01
 -1.1325312e+00
 -2.1885359e-01
 -1.2750926e+00
 -1.4929509e-01
 -3.0454102e-01
  1.0382853e+00
 -3.4468272e-01
 -8.7336324e-02
 -5.7382691e-01
 -7.8266405e-02
  6.6236593e-02
 -3.0658498e-01
 -7.6045215e-02
  8.4029481e-02
 -1.6059102e-02
 -5.0967163e-01
 -2.2150494e-01
  3.2167485e-01
  3.0993366e-01
 -3.1470206e-02
 -8.3938828e-03
  1.0231191e-01
 -6.3254929e-01
 -7.4020140e-02
 -5.7926148e-02
 -2.8298372e-01
 -1.9964028e-02
 -9.5360130e-02
  2.5111419e-01
  1.4448880e-01
  8.7918654e-02
 -3.1011245e-01
 -1.6197409e-01
 -2.5067425e-01
 -3.6549023e-01
  7.1759172e-02
 -3.5133219e-01
  2.9988134e-01
 -1.6931723e-01
 -3.6215982e-01
  1.7666794e-01
  2.6662346e-02
 -2.9214376e-01
  3.3329301e-02
 -1.3511052e-02
 -2.4465573e-01
  2.9041667e-02
  5.4919738e-03
  1.7893417e-01
 -2.5942516e-01
  4.3093182e-02
  7.5351781e-01
  1.4194651e-01
  1.3308984e-01
 -2.5124986e-02
 -7.7920854e-02
  3.8173966e-02
  2.0549614e-02
 -1.6464415e-01
  9.0376735e-02
  3.3924252e-01
  8.2290517e-03
 -3.1517929e-01
 -1.2850018e-01
  6.4744967e-01
  2.9226607e-01
  3.5204786e-01
 -1.2616566e+00
 -3.1162369e-01
 -1.1933856e-01
 -1.8417579e-01
  2.4871968e-02
  5.4059505e-01
  1.1797456e-01
 -8.3337598e-02
  7.6708162e-01
  8.9246690e-01
 -1.1099281e+00
 -2.9681846e-01
  4.9685517e-01
  2.6410329e-01
 -8.9870042e-01
 -1.4333252e+00
 -3.3617732e-01
  2.6370905e-02
 -3.3555481e-01
 -3.8473952e-01
  2.8529806e-02
 -5.2263595e-02
 -2.1975678e-01
  3.3572632e-01
  1.8047079e-01
 -1.3204305e-01
 -1.5075027e+00
 -2.3403092e-01
 -6.5352023e-01
  7.1693011e-02
  1.6465785e-01
  7.5347251e-01
  5.2544302e-01
  1.2634547e-01
 -6.3877732e-01
 -2.3901123e-01
 -3.7228787e-01
 -9.0259060e-02
  5.4462820e-01
 -2.1294473e-01
 -3.4916334e-02
 -5.2122191e-02
 -4.2779434e-01
 -1.5449399e-01
  9.2456732e-03
  7.6761419e-01
 -3.4876898e-01
  2.5358057e-01
  1.0058395e-01
 -5.9917450e-01
 -2.9026878e-01
 -2.9820362e-01
 -1.6819914e-01
  1.1024865e-01
  6.2090699e-02
  4.7857484e-01
  6.6743474e-03
  4.9051899e-02
  1.2106700e-01
  6.0252815e-01
 -1.7855730e+00
  1.1137099e+00
  3.8095558e+00
  8.1617999e-01
 -7.6774818e-01
  3.3386557e+00
 -4.4665313e-01
  8.8042051e-02
  2.8589537e+00
 -1.2165940e-01
 -6.3312240e-02
 -3.7374664e-02
 -2.1588311e-01
 -8.5060513e-01
  5.2388138e-01
  7.6227516e-02
  9.2979157e-03
 -4.3669954e-02
 -1.1875035e-01
 -6.7236155e-02
 -6.1581194e-02
 -3.5992902e-02
  3.4748952e+00
  2.2139163e-01
 -3.3547851e-01
 -1.4763093e-01
  2.1571682e-01
  2.2172171e-03
 -1.4890589e-01
 -6.7794614e-02
  1.8971755e-01
 -2.4154975e-01
 -2.4776080e-01
  2.0414487e-01
  2.3121106e-02
 -3.6509573e-01
 -1.5756904e-01
  3.8985237e-01
  2.1500956e-01
  7.9940997e-02
 -2.9875594e-01
  5.4440994e-02
 -2.1071711e-01
 -6.8497714e-03
  1.3954864e-01
 -1.5814418e-01
 -8.9456540e-01
 -3.2452427e-02
  2.1902305e-01
  2.3800902e-01
 -7.5400002e-02
 -1.3076838e+00
 -2.7263293e-02
  6.6298372e-01
 -6.6800336e-03
  3.6362197e-02
 -9.2300230e-01
  6.2777977e-03
 -1.7802104e-01
 -1.7326756e+00
  1.5961929e-01
  7.7522308e-02
  2.6127698e-03
  5.6281015e-02
 -7.2278100e-01
 -3.0217092e+00
  1.0338373e-01
  3.5148582e-01
  2.4505639e-02
 -1.2417947e-01
 -2.1152823e-01
 -1.9700594e-02
  2.1731983e-01
  1.5180042e-02
 -1.2965295e-01
 -3.9114941e-02
  4.0008897e-01
  3.9354274e-03
 -4.6332028e-02
 -3.4482041e-01
 -5.5516949e-03
  3.5078061e-01
  4.2654327e-01
 -6.6574448e-01
  1.3487068e-01
 -4.8995575e-01
  2.0146425e-01
 -4.9699479e-01
  1.0296211e-01
 -8.5306905e-02
  2.8376523e-01
 -7.2639686e-01
 -1.8179545e+00
  1.3701127e-01
  4.7336817e-02
 -4.6799579e-01
  1.0893240e-01
 -2.8979176e-01
 -9.3777865e-02
 -1.3676624e+00
 -8.0307379e-02
 -7.7752113e-02
 -4.8981768e-01
 -2.7660748e-01
 -5.3046906e-01
  4.5124081e-01
 -5.8787102e-01
  2.8271595e-01
  4.0302530e-01
  6.1559469e-01
 -1.9587700e-01
  1.2529520e+00
  1.4290558e-02
 -3.2203487e-01
 -8.4467918e-01
  2.2694936e-01
  5.2103084e-02
  9.0129071e-01
  4.0846872e-01
  1.4190109e-01
 -3.6852133e-02
 -2.4156567e-01
  6.1246365e-01
 -8.4251501e-02
  5.4097486e-01
  9.6418239e-02
  6.9884068e-01
 -7.9689518e-02
 -5.2499580e-01
  2.3010978e-01
 -2.9660684e-01
 -4.7337425e-01
 -7.2965652e-02
  1.0454438e-01
  1.0330378e-01
  4.4739911e-01
 -7.3345877e-02
 -2.4731819e-02
  4.5905873e-01
  1.1519320e+00
  8.3383304e-01
  7.3079407e-02
 -4.6927592e-01
 -4.0639494e-02
 -2.9769691e-02
  5.9676282e-02
  2.4458233e-01
  2.0620254e-01
 -6.4162236e-01
 -3.9120874e-01
  2.3046255e-01
  1.6889143e-01
 -6.9086075e-01
 -2.5122631e-01
 -2.0591035e-02
  4.8723273e-02
 -1.0690032e-01
 -5.8113869e-02
 -7.6037586e-02
  8.0256313e-02
  1.4928453e-01
 -6.1835166e-02
 -5.5134064e-01
  2.3569702e-01
 -5.5693984e-01
 -1.7226347e-01
  6.5219134e-02
  1.0858069e-02
 -1.4481364e+00
 -4.5083925e-01
 -8.4833074e-01
  3.3427796e-01
 -1.1297065e+00
  1.4899012e+00
 -4.8885387e-01
  5.4884952e-01
 -9.2983985e-01
 -2.6035550e-01
 -6.1239088e-01
 -2.6178199e-01
 -3.1069496e-01
  3.6286101e-02
  9.2097513e-02
  2.2120617e-01
  1.5921046e+00
  1.3649034e-02
 -2.4907265e+00
 -4.1035488e-01
  2.2157404e-01
 -6.1987317e-01
  1.2302178e-02
  3.9750314e-01
 -8.3350398e-02
  1.7825709e-01
  9.3795484e-01
 -5.4366689e-02
 -2.9416841e-01
  1.1259089e+00
 -2.2777528e-01
  1.5357344e-01
 -2.1617394e-02
  1.6806921e-01
  5.0910108e-02
 -3.4758365e-01
  1.5276154e+00
 -2.9379174e-01
  6.5959066e-01
  6.1552304e-01
 -9.3828402e-02
 -6.7731091e-03
  1.8027052e-02
 -3.2962076e-03
  7.3998250e-02
  1.2128471e-01
 -3.8179356e-01
  1.2877789e-01
 -4.9719658e-01
  1.0989694e-01
  2.1416898e-01
 -8.0226374e-01
  1.0776979e-01
  1.6611420e-01
 -4.1126183e-01
  5.2711040e-01
 -2.4971780e-01
 -2.8653690e-01
 -2.6752548e-02
  1.1539499e+00
 -2.6999621e-02
  4.1528255e-01
  5.4430699e-01
 -2.5894871e-01
  6.4855635e-02
  4.9369204e-01
 -1.9212337e+00
  8.9896135e-02
  1.2013831e-01
 -8.3242193e-02
  2.7883390e-01
 -1.0225609e-01
 -2.1926368e-02
 -1.6995031e-02
 -1.2939531e-01
 -9.5654860e-02
  3.2310879e-01
 -7.5002514e-02
 -3.6811846e-01
 -9.7076774e-01
  3.3748474e-02
  1.0685672e-01
 -2.2598287e-01
  3.3708382e-01
  1.3218531e-01
  5.9479140e-03
 -1.2170039e-01
  1.0029757e-01
 -1.9881952e-01
  5.0355548e-01
  2.2315079e-01
  1.6180402e-01
  3.0917710e-01
  2.5575975e-01
  4.2986583e-02
 -1.3457942e-01
 -6.4838809e-01
  9.2122108e-02
  6.1907047e-01
  6.5598741e-02
 -1.4858215e+00
 -2.9120365e-01
  7.2334141e-02
  4.9998429e-01
 -1.4623183e+00
  2.5138506e-01
  1.1512259e-01
  2.7593669e-01
  1.1392986e-01
 -5.3041989e-01
 -5.4395795e-02
 -2.5618821e-01
  9.3172058e-02
 -7.2347306e-02
 -6.6908836e-01
  6.7858523e-01
 -3.5651827e-01
 -3.1116259e-01
 -1.7143200e-01
 -1.6636248e+00
 -2.3397709e-01
 -1.1288237e-02
 -1.8709123e-01
 -1.0524263e-02
  2.4566689e-01
 -1.9175942e-01
  6.3212305e-02
 -1.2041079e-01
  2.6205972e-02
 -2.5480273e-01
 -1.9559196e-01
 -1.9115560e-01
 -1.1530069e-01
  8.9450002e-02
 -3.1240929e-02
  3.7025053e-02
  1.9709764e-01
 -8.3225563e-02
  6.8438023e-02
 -1.2429382e-02
  5.0427936e-02
 -3.4927529e-01
 -2.9608406e-02
  1.5566079e-01
  1.2635069e-01
  2.7694842e-01
 -1.4364600e-01
  1.0628282e-01
  4.9237389e-02
  1.1525393e+00
  2.0002058e-02
  3.2948613e-01
  1.9130458e+00
 -1.7373097e+00
  6.0619377e-03
  6.6430412e-02
  7.5170808e-02
  3.4844160e-01
 -6.0115093e-01
  1.0925389e-01
  1.4677864e-01
  4.3443918e-02
 -9.9856257e-02
 -6.3553080e-03
 -3.2578564e-01
 -3.7195966e-02
  9.1911130e-02
  2.2762127e-01
 -1.6998789e-01
 -3.6250681e-02
 -9.1966152e-02
 -7.4804378e-01
 -3.1879198e-02
  8.9543507e-02
  4.0548712e-01
  1.7754769e-01
  2.9319397e-01
  6.2881660e+00
  5.6508863e-01
 -1.2916668e-01
 -1.3296944e-01
  3.9931911e-01
 -4.2329279e-01
  1.0895165e-01
 -2.0750532e+00
  3.1259376e-01
  1.2163659e-01
 -2.0550975e-01
  3.0014951e+00
  3.7463639e-02
 -1.8630003e+00
 -4.4598311e-01
  7.2798654e-02
  1.3878581e-01
  1.0874452e-01
  1.0989016e-02
 -3.6793783e-01
  1.5650718e-02
 -1.1924314e+00
  2.7987504e-01
 -3.1947318e-01
  9.7517885e-02
  2.7216461e-01
 -6.7400649e-02
  1.5039309e+00
  2.6463184e-01
 -4.8815495e-01
 -4.2711195e-01
  2.8028649e-01
  1.3740106e-01
  1.3500816e-01
  4.4938448e-01
  1.0993280e-01
  1.4913704e+00
  2.4731974e-01
  1.0595971e-01
 -1.2336129e-01
  8.3322805e-01
 -7.6517068e-02
  1.4500824e+00
 -1.7285229e-01
 -4.4552907e-02
 -4.3740004e-01
 -2.0462854e-01
 -5.6349456e-01
  2.1899581e-01
 -4.1793969e-02
 -1.0008370e+00
 -3.8879530e+00
 -9.7920090e-02
  3.5726362e-01
  2.3406915e-01
 -4.7427768e-01
  8.0470704e-02
  4.6738219e-02
  3.5453662e-02
 -1.3807404e-01
 -8.4973536e-02
  4.2802414e-01
 -1.7407482e-02
  3.9179394e-01
  4.6931905e-01
  1.8331763e-01
 -7.3609941e-02
  1.6839291e-01
  1.6024077e-01
  2.6438406e-01
 -7.0406161e-02
 -5.7085164e-02
  1.0659048e-01
 -9.4873279e-02
  3.2876325e-01
 -6.5650925e-02
 -1.8130162e-01
  1.4631973e-01
 -3.0164948e-01
 -2.3395006e-01
  2.2837467e-01
 -3.2877457e-01
 -1.9245893e-01
 -5.9826896e-02
  6.5427142e-01
 -5.5038165e-02
  2.8600374e-01
  5.3859276e-01
 -2.5071446e-02
  3.0861669e-03
 -3.3203624e-02
  2.1476774e-01
 -1.3528159e+00
 -5.2280515e-01
  3.6369998e+00
  5.2487276e-02
  2.0783694e-02
  1.7973600e-02
 -1.7297652e+00
 -3.1898167e-02
 -1.4915974e-01
  1.6473030e-01
  2.8968486e-01
 -1.7175941e+00
  1.0851626e-01
  8.1646681e-02
 -8.0032510e-01
 -3.7938479e-01
  2.4933878e-01
  1.7914367e+00
 -4.0634876e-01
  6.0364753e-01
  1.2227678e-01
  1.0060777e-01
  1.1716577e-01
  6.4119563e-02
  4.0603063e-01
 -3.0254850e-01
 -2.1588531e-01
 -8.8016987e-02
  3.0779682e-02
  8.4417239e-02
  4.7160964e-02
 -2.1685419e+00
 -5.0917357e-02
  7.9335451e-01
 -6.3466951e-02
 -3.4035519e-02
  7.4369594e-02
  1.8108618e-03
 -1.0481758e-01
 -1.7039853e-01
  8.0549225e-02
 -2.1251047e+00
  7.1040817e-02
 -6.2420897e-02
 -2.4133462e-02
 -1.9964889e-01
  6.7749590e-02
 -9.2704564e-02
 -2.5184605e-01
  7.1241759e-02
 -7.3213822e-01
 -1.0588434e-01
 -2.7501884e-01
  1.2764925e-01
  6.2531352e-02
 -6.0434416e-02
 -2.3705947e-01
 -5.9868317e-02
  2.7088094e-01
 -8.1194103e-01
 -1.0019651e-01
  1.7454405e+00
  1.2307747e-01
 -2.4911355e-02
 -1.4180622e+00
  5.8388695e-02
 -2.6128450e-01
 -4.8131159e-01
  5.0246590e-01
  7.6500416e-02
  4.0634653e-01
 -1.3283969e-01
 -2.5088120e-01
 -1.0556298e+00
 -1.6450174e-02
 -4.7481690e-02
  1.6471666e+00
 -5.0017613e-01
  6.3860464e-01
  1.3950774e-02
 -7.7056192e-02
 -1.7286022e-01
 -2.4006838e-01
  4.7559664e-02
  1.8575138e-01
 -3.2065856e-01
  2.4240875e-01
  8.3491534e-02
  5.1112771e-01
 -1.2789127e-01
 -1.1931738e-02
 -2.1890299e-01
  8.3317019e-02
 -1.6737126e-02
 -1.9876111e-01
  4.5371836e-01
 -4.4259709e-01
  3.7781903e-01
 -1.5731931e-01
  1.0824260e-01
 -1.1984370e+00
 -4.8841220e-01
 -5.9436526e-02
 -1.4062507e-01
 -8.5179314e-02
 -3.7715268e+00
  3.1973964e-01
 -3.9974594e+00
 -2.3142333e-01
  3.1221196e-01
 -2.7520514e-01
 -3.6177024e-02
  6.0776159e-02
  4.4345122e-02
 -7.4345693e-02
 -3.8055833e-02
  1.3195863e-01
  1.5438707e-02
 -1.3985345e-02
  5.0269432e-02
 -1.6502866e-01
  2.4123146e-01
  3.0858901e+00
  8.1260395e-01
 -1.2052543e-02
 -3.6955240e-01
  1.6439161e+00
  3.3425412e-01
  1.6392083e+00
  1.6559069e-01
 -5.6490576e-01
  2.3596382e-03
  7.7865475e-01
  3.3219361e+00
 -2.6846480e-01
 -1.7407013e-01
  2.7325818e-01
 -7.5377151e-02
  1.0068496e-01
  1.5550874e-02
 -9.2374468e-01
  4.7106752e-01
 -6.6422939e-01
  1.2549733e-01
  2.4394418e-01
 -7.2499812e-02
  7.5349832e-01
 -1.0557893e-02
 -9.5520988e-02
  1.0521262e+00
  5.5203903e-01
  1.7554052e-01
  2.0546071e-02
 -5.7021886e-02
 -6.4719850e-01
  7.3496497e-01
  1.0867772e-02
  2.1008356e+00
  7.3995203e-01
 -1.6589949e-01
  1.3346000e-01
 -7.2193938e-01
  1.2978077e-01
 -2.0574407e-01
  1.5772507e+00
 -1.6332965e-01
  5.9117013e-01
  1.2865200e-02
 -1.2181228e+00
  1.0864338e+00
  6.7385845e-02
  3.1681353e-01
  2.8262498e+00
 -3.8179748e-02
  1.1670086e-02
 -1.3679822e-01
  1.5122272e-01
 -6.9174564e-01
 -6.6817261e-02
  9.8458469e-02
 -3.4340876e-01
 -7.9711705e-01
  3.4546129e-02
 -1.5092370e-01
  4.1199297e-01
 -2.7875336e-02
  2.0926973e-02
 -1.6550763e-03
  3.7388618e+00
  4.8313081e-01
  3.9937994e-01
 -5.7129145e-01
 -1.0327804e-01
 -3.6844966e-01
 -5.0017840e-01
  5.0039057e-02
 -2.6562726e-01
  5.4786235e-02
  4.2244345e-01
 -3.8874367e-01
  2.1414777e-02
 -7.0867300e-01
 -1.7674826e-02
 -2.3871851e-01
 -8.9770779e-02
  2.1091428e-01
 -2.7015076e+00
  4.3029483e-02
 -2.8650975e-01
 -1.3511485e+00
 -2.7255175e-01
 -2.5229973e-01
 -2.1655928e-01
  2.8729811e-01
  8.9785755e-02
  5.4635927e-02
  3.3873331e-02
 -2.6471293e-02
 -1.2963740e-02
 -5.8015019e-02
  1.8781828e-02
  1.1041963e-02
 -2.5990653e-01
 -7.6526166e-03
  4.7373805e-02
 -1.3080201e-01
 -3.6173111e-01
  2.9944470e-03
  4.9402827e-01
  1.4389357e-01
 -1.4628643e-02
  2.6067317e-01
 -1.1468370e-01
 -1.5993226e-01
  2.6990750e-01
 -9.1628420e-01
  4.8575342e-02
 -6.3092506e-01
 -6.4445764e-01
 -1.3235970e-01
  9.3376003e-02
 -7.2972697e-01
 -2.3601362e-01
  2.0175788e+00
 -1.1410660e-01
  4.6734538e-02
 -2.4675187e-01
 -9.3113118e-01
 -3.2662320e-01
 -1.0986887e+00
 -5.2490324e-01
 -2.8016021e-02
  1.2516132e-01
 -9.8343669e-03
 -1.5134829e-01
  1.4731555e-01
  1.0764963e-01
 -3.8214484e-01
  1.1064972e-01
 -2.4877033e-01
 -7.7288622e-01
 -2.2797567e-01
  2.4017854e-01
 -1.1400861e-01
  9.2847735e-02
 -7.5532645e-01
 -5.0327772e-01
 -2.4661493e-01
  4.5958051e-01
  9.8007455e-02
  4.6538208e-02
 -1.2825442e-02
  5.1197690e-01
 -5.9900820e-01
  1.7257253e+00
  7.1697142e-03
  1.2922551e-01
 -2.8657374e-01
  1.9052668e-02
 -3.6607563e-02
 -7.8518319e-01
  1.5286018e+00
 -3.0186218e-01
  6.5359123e-02
 -1.0582300e-01
  6.4073098e-01
 -2.7795058e-01
 -2.2251348e-01
  2.5832641e-01
 -4.4922900e-01
  7.1482319e-01
 -5.4811168e-02
  3.1308949e-01
  6.5824501e-02
  2.3928632e-01
  2.1700996e-01
  1.8929212e-01
 -1.1583990e+00
 -2.2311946e-02
 -1.2078352e-01
 -3.9423111e-01
 -2.5383223e-02
 -3.7506016e-03
  5.7459295e-01
 -4.9307927e-01
  3.6509905e-02
  9.0246481e-01
  3.0220011e-01
  1.8626146e+00
 -2.6888873e-02
  1.2938017e+00
  7.0477295e-01
 -1.1756155e-01
  1.0252185e+00
 -2.9564968e-01
 -1.9833417e-01
 -3.7244445e-01
 -7.6384485e-01
 -1.6955802e+00
  3.1120706e-01
 -2.2180203e-02
  7.2461957e-01
 -1.6293913e-01
 -7.2819287e-01
 -2.4137223e-01
 -3.7165698e-01
 -2.1847222e+00
 -5.3762370e-01
  2.2172041e-01
  3.5773319e-01
 -3.0272579e-01
 -2.7621716e-02
  5.9525120e-01
  1.5165895e-01
  4.3775436e-02
 -6.7406309e-01
  1.4895914e-01
 -1.1570002e+00
 -1.4363717e-01
  3.3758488e-01
  1.8375202e-03
 -3.3544868e-01
  4.4138879e-02
 -4.7550388e-02
 -1.7110723e-01
  1.0171136e+00
  3.8059422e-01
 -5.5917841e-03
 -1.4879749e+00
  1.6129380e-01
  1.6347537e+00
 -4.0287796e-02
 -3.6662206e-01
 -3.1349340e-01
  3.7474823e-01
  1.8907657e-01
 -3.5697737e-01
  1.4653367e-01
  4.6997207e-01
  3.0320769e-02
 -6.3384479e-01
  4.9259591e-01
 -1.6486898e-01
 -1.8304250e-01
 -1.2894024e-01
 -1.7208776e-01
 -5.1543099e-01
 -4.3043447e+00
 -1.3341695e-01
  7.9847775e-02
 -3.1500259e-01
  5.2557003e-02
  2.5709060e-01
  3.3831137e-01
  2.2322795e-01
 -6.6249385e-02
 -2.2528729e-01
  1.7500544e-01
  2.1529650e-02
  2.4263322e-01
 -1.6590922e-01
 -1.4457443e-01
  1.5725331e-01
  2.0827623e-01
  1.6997036e-01
 -2.9711574e-01
  2.5312761e-02
  1.3494793e-01
  4.6662383e-02
 -9.2952311e-02
 -1.4879893e-01
 -1.4291364e-01
  9.6766546e-02
  3.9758089e-01
 -2.4726400e-02
  9.4043709e-02
  6.1813718e-01
  4.7362078e-02
  6.8185711e-01
 -9.4469078e-02
  1.3932973e-01
 -3.3685327e-02
 -1.2152305e-01
  1.8429062e-01
  2.1075703e-01
  3.8125619e-01
 -4.1051531e-01
 -1.1711802e-02
 -2.2884738e-01
 -3.6960803e-02
 -2.7822518e-01
  3.5585988e-01
  1.0135549e-01
  8.4489381e-01
 -3.2567412e-02
 -3.4833980e+00
  1.4527157e-01
 -1.8169383e-02
 -1.0405501e+00
  5.7534510e-03
 -4.4476143e-03
  7.7323899e-02
 -4.4465370e-02
  2.4951798e-01
  5.3996015e-01
 -6.5019242e-02
 -2.6976031e-01
 -1.6975042e-01
 -7.1993056e-03
 -3.8579494e-02
 -2.0208618e-01
  3.6127043e-01
 -1.5383187e-01
 -1.6173646e-01
 -8.6603832e-01
  2.4724539e-01
  6.3598328e-03
 -3.3943167e-01
 -3.5377762e-01
 -1.5333441e-01
  4.4435668e-01
 -1.0680872e-01
  1.5579727e-02
 -9.7027823e-02
  5.2704938e-02
  9.1751322e-02
 -7.6890965e-03
 -2.6316026e-01
  3.7522650e-01
  5.4519538e-02
  2.3352349e-01
 -4.4053355e-01
 -1.4011173e-01
  1.6719478e-01
  8.0779329e-02
  6.4516522e-02
  4.2904651e-01
  2.0000510e-02
  4.3195289e-01
 -8.1133598e-01
  3.7545159e-01
 -7.1331638e-01
 -8.0921090e-01
 -1.0269904e+00
 -5.8027780e-01
 -6.9804847e-02
  5.2784568e-01
 -7.8693390e-01
 -5.7727909e-03
  1.4897378e-01
 -1.3383416e+00
 -1.0894902e+00
  6.8937695e-01
  7.5810027e-01
 -1.3293711e+00
  1.1913522e+00
 -6.8063772e-01
 -1.6069746e-01
 -1.2415171e+00
  1.8940336e-01
 -5.2417803e-01
  1.0694804e+00
  1.5106354e+00
  8.0529727e-02
  1.1711129e+00
 -5.2061245e-02
 -1.4375767e+00
 -1.0007254e+00
 -9.5847100e-01
  1.0240598e+00
 -4.7785762e-01
 -8.2826994e-02
 -4.1940872e-02
  1.2732631e+00
  2.1008735e+00
 -1.0918330e+00
  1.7666203e-01
 -7.5345397e-01
  7.3364753e-01
 -4.9138048e-01
  2.1672946e-01
 -1.6503726e+00
  6.9138050e-02
  7.2787684e-01
  5.9788525e-02
 -4.4058096e-02
 -1.7796071e-01
  7.2852027e-04
  1.6748462e-02
 -3.6262590e-01
  7.6902407e-01
 -8.4252656e-01
  7.5519579e-03
  1.8092486e-01
  4.3879694e-01
  4.0850961e-01
 -3.6725506e-01
  3.2179892e-01
  6.1159778e-01
  1.2678450e-01
 -4.6458390e-01
  7.9259236e-04
 -7.8206323e-03
  3.4723341e-02
  1.5290485e-01
 -2.6489625e-02
  2.5559509e-01
 -2.6173547e-01
  1.2504444e-01
  4.0605357e-01
  3.9825018e-02
  2.3555072e-02
 -4.1350584e+00
  4.8854969e-02
  1.4392394e-01
 -2.5000164e-02
 -1.2152907e-01
  5.8483016e-02
  7.2673124e-01
 -2.2212245e-01
 -4.1946068e-01
  6.0327083e-01
 -2.7903819e+00
 -1.3266125e-01
 -4.8366347e-01
 -6.8429112e-02
  5.8895793e-02
  2.5640658e-01
  6.2477773e-01
 -1.8910783e-03
  3.0663830e-01
  5.4392010e-01
  5.5912219e-02
 -1.0239827e-01
  3.9368248e-01
 -1.5478306e-01
 -8.9738466e-02
 -6.2310179e-03
  2.1706371e+00
  8.0527425e-01
 -3.4997383e-01
 -3.9532900e-02
  3.4889836e-02
 -2.1273849e+00
 -9.6238323e-02
 -2.2001232e-01
  1.7585407e-01
 -2.6717040e-01
 -1.5786031e-01
 -2.1313761e-01
  2.2652760e+00
  2.9758051e-01
  6.5922938e-02
  3.6700615e-01
 -8.3095264e-01
  6.9750257e-02
  1.8076129e-02
  3.6136439e-01
 -6.6231287e-01
 -1.6179314e-01
  6.7241210e-01
  1.1831681e-01
  2.3288259e-01
  2.8745472e-01
  1.1034137e-01
 -1.0948325e-04
 -7.2710561e-03
 -7.9500973e-01
 -3.0651602e-01
  6.4349508e-01
  8.3773665e-02
 -1.5953855e-01
 -1.1868508e-01
 -1.7444711e+00
 -1.8832265e-01
  3.8855165e-01
 -4.0883771e-01
 -1.7195997e-01
  6.6122830e-02
  1.6198803e-02
 -4.5689565e-01
  1.2041005e-02
  6.8341249e-01
  3.6496359e-01
  6.8007874e-01
  5.6241626e-01
  3.5058521e-02
  6.9904631e-01
  2.2726642e-01
 -6.0139466e-02
 -4.5726371e-01
  3.3860631e+00
 -2.4415615e+00
  3.8419966e-02
  3.3900684e-01
  2.8858519e-01
 -5.2636065e-02
 -1.0917016e+00
  6.4328462e-02
 -4.7106910e-02
  1.5161209e-01
  1.1357339e-01
  1.4765410e-01
 -2.4621804e-01
 -2.1064883e-01
 -8.6426787e-02
  2.1286905e-01
  2.6196385e-02
  1.3048439e-01
  2.1010530e-01
 -9.8491883e-01
 -4.9544811e-01
  2.1325180e-02
 -2.7650383e-01
  5.0224822e-02
 -1.9578944e-01
  6.4527579e-02
  1.2234187e+00
  4.9817637e-02
 -6.8177813e-01
  5.5655867e-01
 -1.4988145e+00
  3.1531781e-02
  9.5784634e-02
 -1.5629034e-01
 -1.1817894e+00
 -7.0752382e-02
  1.7870763e-01
 -7.6754034e-02
  1.8293931e+00
  1.4451754e-01
 -3.3711642e-03
  8.2094744e-02
  7.1681637e-01
  2.1762750e-01
 -9.8032907e-02
 -3.0211502e-01
  3.4190333e-01
  4.7940977e-02
 -1.1216036e+00
  4.7441164e-01
 -1.5412933e-01
  1.0305572e-01
 -1.0690767e-01
 -3.3604270e-01
  6.0676676e-03
 -1.7477892e-01
 -2.5315168e-01
  1.0922801e+00
  2.2025755e-01
 -1.1850499e-01
  2.8301373e-01
  5.1333866e+00
  4.7762319e-02
  3.3959940e-01
  4.0192999e-02
  1.9092849e-01
 -1.1715972e-01
  2.7220532e-01
  6.3770697e-02
  1.9333977e-01
  4.4917888e-03
  4.3411404e-01
  4.8879240e-02
 -3.9981630e-01
 -9.4679676e-02
 -5.8191031e-02
 -1.2228220e-01
 -3.5218951e-01
  2.0998651e-01
  3.7673301e-01
 -1.8481456e-01
  8.1433490e-02
 -4.5077376e-02
 -1.4395826e-01
  3.6392722e-01
 -1.8589457e+00
 -8.9785211e-02
 -2.1329804e-01
 -2.2585931e-01
  1.8698506e-01
 -1.8793464e-01
 -1.4124175e-02
 -2.0273130e-01
  2.9008958e-01
  1.7533600e-01
 -5.2031195e-01
 -5.7238832e-02
 -1.4602844e+00
  2.9776973e-01
  2.0715611e-02
 -1.4165682e-03
  1.2089930e-01
 -4.5336736e-03
  1.9332167e-02
  4.7213605e-01
  1.6796625e-01
  3.3838212e-01
  9.6340381e-02
 -1.7226246e-01
  8.8350999e-01
 -1.9687209e-02
 -8.0945425e-02
 -2.5121510e-02
 -2.3638599e-01
  8.0256715e-02
 -1.0350448e-01
 -4.0112082e-02
 -2.5375536e-01
  1.1205692e+00
  2.4749507e-04
 -3.3748913e-01
  3.2241753e-01
  3.7223101e-01
 -4.5266561e-02
 -2.8479397e-01
  6.5311050e-01
 -3.8861442e-02
  3.6811611e-01
  1.3500565e+00
 -5.9779692e-01
 -4.2177051e-02
  7.2790056e-02
  5.2948933e-02
  1.6135617e+00
 -2.2818005e+00
  1.0075606e+00
 -1.4479646e-01
 -3.6305149e+00
  1.3885842e-01
 -9.4656341e-02
 -3.5246503e-01
 -3.0780861e-02
  1.0147058e-02
  5.0745648e-01
  3.2210778e-02
 -1.3990600e-01
 -1.3125186e-01
  8.5603455e-03
  1.5890385e-01
  1.7866923e-01
 -7.8536361e-02
 -1.7220587e-01
 -1.4577161e-01
  7.9690909e-01
 -1.0553276e-01
 -6.4369060e-02
  4.7244459e-01
  1.8767175e-03
  1.5876509e+00
 -7.0594600e-03
  8.6018145e-02
 -3.4809762e-01
  7.6644528e-01
  2.5219002e-01
 -3.7131345e+00
 -1.8932328e+00
  9.2116505e-02
 -1.2546706e-01
  1.5850941e-02
  2.6828204e-03
 -3.3510271e-02
  2.6164180e-01
  5.4616624e-01
  4.1520044e-01
 -2.2086637e-01
 -5.0220657e-02
  3.4970579e-01
  2.7456599e-01
 -2.7172777e-01
 -1.9303018e-01
  6.0208356e-01
 -1.2010089e-01
  8.4935832e-01
 -1.7331830e+00
 -4.7866118e-01
 -3.5474727e-01
  3.6767323e-02
  3.2358477e-03
 -1.5262745e-01
  1.2465710e-02
  2.8485036e-01
  1.3389474e+00
 -7.5550336e-01
 -5.7936126e-01
 -8.6197639e-01
 -7.5962377e-01
 -9.2112005e-01
 -1.0477525e-01
  3.8962430e-01
 -1.9652369e-02
 -2.9027489e-01
 -4.7382820e-02
 -2.9786360e-01
 -6.2724566e-01
  9.0542801e-02
 -2.3033144e-02
  3.2698009e-02
  1.0872853e-01
 -4.7006633e-02
  3.6851728e-01
  1.3823967e-01
 -8.6589433e-02
 -2.9716083e-01
 -6.4120263e-01
 -4.8541245e-01
  4.9376187e-01
 -2.1890576e-01
 -3.5554442e-01
 -1.4023960e-01
 -3.6705688e-01
 -7.7037424e-02
 -1.1981314e-01
  1.0328305e-01
  5.0077546e-01
 -3.5898514e-02
  4.1953836e-02
  2.7438616e-02
  4.5510232e-01
  3.9702594e-01
 -3.1021246e-01
 -3.7875968e-01
 -3.2709545e-01
  2.9081532e-01
  7.0951082e-02
 -1.2095796e+00
 -9.9841505e-02
  1.0495722e+00
  1.4408453e-01
  1.3010888e-01
  5.0476015e-01
  1.6056710e-01
 -7.9226810e-01
  7.6815046e-02
 -2.2920503e-01
  2.8609243e-01
  3.4854048e-01
 -6.9989838e-02
 -6.5680957e-01
 -3.1778321e-02
  1.7733316e-01
  3.9539922e-02
 -1.1547516e-01
  3.4974452e-02
  2.3896508e+00
  8.9165278e-02
  1.1405113e-01
 -3.6270282e-01
  1.9251741e-02
 -2.3344988e-01
  7.5694509e-02
 -1.3774118e-01
  6.6941750e-01
  2.7493060e-02
 -2.5956306e-01
  5.5076326e-03
  1.0013440e-01
  1.8848313e-02
  1.8204278e-01
 -4.3823048e-01
 -4.6809018e-01
  3.3838749e-01
  4.2626504e-03
 -2.4590870e-02
  1.8938006e-01
  8.8907063e-02
  5.3215063e-01
  5.2945268e-01
 -6.8774529e-02
 -2.5410604e-01
 -9.3003172e-01
  1.2287701e-01
  1.3679495e-02
  3.7437323e-01
 -2.5994885e-01
 -2.5413651e-03
 -1.7016534e+00
  3.2175219e-01
 -6.0374975e-02
  2.3199670e-01
  5.4209048e-01
 -5.4755914e-01
 -3.7848294e-01
  6.5785170e-02
 -5.7860422e-01
 -3.3718772e-02
 -3.1969017e-01
 -6.4275867e-01
 -9.4742000e-01
  5.2044296e-01
 -2.3129191e+00
 -8.1642234e-01
 -3.7999773e-01
 -5.4526383e-01
  6.8383224e-02
 -5.0529730e-01
  7.4912250e-01
 -1.5596120e-01
  5.0986832e-01
  1.3014562e+00
 -8.4399983e-02
 -3.8026754e-02
  4.7829565e-02
 -6.5137500e-01
 -1.0734334e-01
  2.7876385e-03
 -4.1356217e-02
 -5.1460534e-02
 -5.9086311e-01
 -2.4506582e-01
 -6.1820671e-03
  1.2542225e-01
 -9.8462653e-01
  1.7297214e-01
  5.8439158e-02
  4.0283408e-02
  7.8082418e-01
 -1.6112915e-01
 -3.0509615e-01
  2.5946093e-01
 -6.4368643e-02
  7.4706274e-01
 -3.9997745e-02
 -1.3484755e-01
 -7.2911628e-02
  7.0494258e-01
 -6.3100979e-03
 -1.3804734e-01
  8.1518435e-01
  2.6663581e-01
  1.0004348e-01
 -4.1550446e-02
 -2.8062400e-01
 -2.6120836e-01
 -1.3045603e-01
 -2.9265862e-02
 -4.8534575e-01
 -3.0240169e-01
  4.0237015e-01
 -1.3994585e-02
  3.5063305e-01
  1.5050729e-01
  1.7565903e-01
  1.8009248e+00
 -8.3209413e-01
 -1.9723493e-01
  3.1576891e+00
  6.0435027e-01
 -8.4377065e-02
  3.9355108e-01
 -2.6925340e-01
  7.3102868e-01
  2.0848839e-03
 -9.0856189e-01
 -2.3881087e-02
 -1.9983985e+00
 -1.8688668e-01
  1.4137900e-02
  7.2337365e-01
  8.4576178e-01
  3.1895623e-01
 -5.8764178e-01
  3.5801280e-01
 -1.0310792e+00
 -2.4278240e+00
  9.2066891e-02
 -2.9000416e-01
 -4.2973247e-01
 -8.1532642e-02
  4.8948753e-01
 -2.0508356e-01
 -3.4533826e-01
 -3.8807088e-01
 -1.0345199e+00
  4.8317239e-01
 -4.7961879e-01
  2.2487840e-01
 -1.7423773e+00
 -1.5743604e-01
  6.4420797e-02
 -3.9679757e-01
 -1.2953384e+00
 -7.5354129e-01
 -1.5486407e-01
  1.1649777e+00
 -1.5631877e+00
 -1.2324462e-02
 -5.9373740e-02
  5.0563210e-01
 -3.1784523e-01
 -7.5470932e-02
  6.5389568e-01
  3.5474017e-02
 -1.0762130e-01
  6.6589487e-01
 -1.4876329e+00
  6.3767076e-01
  1.4281467e-02
 -4.4725269e-01
  1.5329859e+00
 -1.0245609e-02
  1.1549971e-01
 -6.0453355e-01
 -1.2964474e-01
  3.7351015e-01
 -2.7384406e-01
 -8.8415079e-02
  1.8872644e-01
 -1.2367611e+00
 -1.0608716e+00
  1.7561419e-01
 -4.2551109e-01
  2.0683025e-01
 -1.0010452e-02
 -1.5371859e-01
 -9.3067944e-02
 -2.0484191e-01
 -1.5148701e-01
 -5.6928534e-02
  6.0256545e-02
  2.0156794e+00
  5.2725303e-01
 -9.6812174e-02
  1.9536421e-02
 -1.9987302e-01
 -2.6361644e-01
 -4.4685706e-01
  1.7682581e+00
  1.9987503e-01
 -7.4057832e-02
  3.8374397e-01
  1.9460028e+00
  5.8152342e-01
 -3.4721547e-01
  8.3048731e-02
 -1.9040653e-01
 -2.2715464e-01
  2.9187890e-02
 -1.4482281e-02
 -1.5565550e-01
 -1.3342681e+00
 -3.7141064e-01
 -2.0393505e+00
 -8.9623505e-01
  3.3078322e-01
 -1.5116614e-01
 -1.5552676e-02
  2.7074856e-01
  1.2214859e-01
  5.0496776e-02
 -1.5988453e-01
  3.0175602e-01
 -6.6490561e-02
  7.9158679e-02
  6.6768266e-02
  1.4429017e-02
 -3.1254184e-01
  5.1026912e+00
 -4.0742090e-01
  2.0148630e+00
  4.3750651e-02
  1.6385313e-02
 -3.3124295e-01
  1.4806847e-01
 -2.2939004e-01
  5.9655195e-01
 -2.0012406e-01
  3.3447644e-01
  1.1819482e+00
 -3.9077654e-01
  1.4400217e-01
  8.8345617e-02
  3.4962144e-01
  2.0346390e-02
 -1.2496693e-02
  3.6195126e-01
  1.0349211e-01
 -3.1976034e-03
  5.2173984e-01
 -3.4812289e-01
  6.0074854e-01
 -2.8187534e-01
 -5.9339542e-02
 -2.2572930e-01
 -5.7981718e-02
  4.4409782e-02
  1.1700670e-01
 -2.8301570e-01
  2.7019531e-02
  1.1909186e-01
 -1.3469377e-01
  9.1895849e-02
 -7.0718370e-02
  2.3931451e-01
 -7.8148586e-01
  1.3606304e-01
 -4.5534569e-01
 -7.6997685e-01
  6.7192297e-03
  2.7896172e-01
 -6.2603243e-02
 -5.9112197e-01
  1.3613309e-01
 -4.2104590e-01
 -1.6177174e+00
  5.8928055e-01
 -9.2996937e-01
  1.4473143e-01
  1.4939690e-01
 -2.4656002e-01
 -1.3708317e-01
  2.0004509e-02
 -1.2186621e+00
 -1.4157990e-01
 -2.1091205e-01
 -1.7394879e-01
 -3.6600959e-01
 -3.1726842e+00
  8.3051905e-02
  1.2368019e-01
 -2.4566795e-01
  1.9203756e-03
 -6.5266691e-02
  1.5341251e-01
  5.4830110e-01
 -2.8039042e-02
  1.6159959e-01
  8.5860752e-02
 -1.6785966e-01
 -1.1566179e-01
  4.1658503e-01
 -1.1182490e-01
  1.7488811e+00
  6.7087203e-01
 -7.4235445e-01
  2.2787367e-01
 -1.2775907e-01
 -1.9381057e-01
  2.5715566e-01
 -5.5527908e-01
 -1.9186032e-01
 -3.6397654e-01
  2.0591770e-01
 -4.3769583e-02
 -8.0160066e-02
  1.6773702e-01
 -2.3011778e-01
  8.0898535e-03
  1.5513404e-01
 -1.1613007e+00
 -1.0998326e-01
  1.2738056e-01
 -2.7211505e-01
  2.3461251e-01
 -8.6182430e-02
  3.0509019e-02
 -2.0187373e-01
 -4.4328883e-02
  1.2451382e+00
 -5.3537846e-01
 -3.8948726e-02
  1.7833766e-01
 -4.0535338e-02
  5.0924975e-02
 -2.0658830e-01
 -8.1833333e-02
  2.2872855e-01
 -7.5547832e-01
 -7.5365579e-01
  1.8948573e+00
  1.3649904e-02
 -6.7330176e-01
  5.3905942e-02
  1.1107454e+00
  1.7343217e-01
  6.5311754e-01
  5.3142350e-02
 -5.8497089e-01
  1.2676893e-01
 -2.6989527e+00
 -5.2170232e-02
 -4.7818292e-02
 -3.5408985e-02
  1.1583643e-01
 -1.2784244e-01
 -2.8638044e-01
  1.9644393e-01
  8.3862856e-04
 -8.5539907e-01
 -1.8845476e+00
  3.3439079e-03
 -2.4284700e-02
  7.0615101e-01
  1.1524936e-01
  1.4717573e-01
  1.5347898e-01
 -1.3701878e+00
  2.2326586e-01
 -3.9974463e-01
  1.2180544e-01
  3.2609049e-02
  2.5388807e-01
  1.3707626e-01
 -3.4567978e-02
  6.6519684e-01
 -1.0852579e-01
  9.8698018e-03
 -1.2305240e-01
  2.8573807e-02
  1.2980909e+00
  1.1538667e-01
 -1.1280939e-01
  1.8116598e-01
  3.5169569e-01
 -2.4646707e-01
 -3.6451134e-01
  1.6397177e-01
  1.9220676e-01
  8.5724322e-03
  8.2561217e-02
  1.4997251e-01
  7.2656876e-01
 -4.1882940e-02
  1.8771732e-01
 -7.6268114e-02
  3.6976394e-01
 -1.1902758e+00
  5.1008999e-01
 -1.6074678e-01
  4.2848304e-02
 -3.3151057e-02
  2.1671999e-02
 -2.6373978e+00
  6.3773215e-02
 -2.0434584e-01
 -5.1285122e-03
  3.4284227e-02
 -2.3174033e-01
  5.1320381e-02
 -2.5120780e-01
 -1.1679666e-01
  2.7602181e+00
  1.0585568e+00
 -1.1465435e-01
  1.1470743e-01
  3.3215562e-01
  5.2900648e-01
 -4.8850030e-03
  6.2057424e-01
  5.3630210e-03
  8.9169435e-02
 -1.1737854e+00
 -2.4924511e-01
 -1.1506598e-01
 -4.1168797e-01
 -2.8423338e+00
  3.5949299e-01
  9.0008810e-02
  1.0021621e-01
 -4.9535644e-01
  4.0400040e-01
 -4.0398958e-01
 -8.0464828e-01
 -1.5412812e-01
 -1.6358384e-01
  1.6223763e-01
 -2.1468453e-01
  7.1251296e-02
  3.4096036e-02
 -3.8232782e-01
 -1.7754160e+00
  1.1158697e-01
  1.4441726e-01
 -1.0191808e-01
  9.5734817e-01
  1.6634722e-01
  1.0027173e+00
  3.6557543e-03
  3.5193115e-03
  1.1139765e-01
 -5.9361225e-01
  1.2458701e+00
  1.1675211e+00
  7.1968067e-01
  1.1196494e+00
  1.7901262e+00
 -1.9422038e-01
  7.5474668e-01
  1.6177869e+00
 -6.4098686e-01
  1.4165460e-01
 -2.5255175e-02
 -7.7653563e-01
  6.1654550e-01
  4.6984082e-01
 -2.8659117e-01
 -7.8911223e-03
  2.0725261e-01
  7.9195398e-01
 -1.3563365e-01
  4.3132147e-01
 -4.3610531e-01
  8.4657460e-01
  9.0843338e-01
  1.7580064e-01
 -1.5388405e-01
 -1.2052531e+00
 -1.1664042e+00
 -1.0068283e+00
 -3.0305362e-01
  6.3747042e-01
  6.3804704e-01
 -2.8392446e-01
  6.6668940e-01
 -1.0871222e+00
  1.6783632e-01
 -5.9823310e-01
 -1.1314396e-01
 -3.9241035e-02
 -7.9328425e-02
 -6.3134807e-01
 -8.0194874e-03
 -2.2933928e-02
  1.7782267e+00
 -1.7944202e-02
  8.1995334e-03
 -1.2022713e+00
 -1.1587267e+00
  6.6349727e-01
  1.0479555e+00
 -1.3761884e-02
 -2.6550141e-01
 -1.6695242e-01
 -1.8339935e-01
  2.7829647e-01
 -5.4769230e-01
 -5.6078160e-01
 -1.2216355e+00
 -2.7171764e-01
 -7.9160196e-01
 -5.3836530e-01
  1.0903192e+00
  3.1398100e-01
  4.2693410e-02
  2.7056819e-01
  1.5900819e-01
 -3.6442852e-01
 -1.0856771e-02
  5.9859771e-01
 -2.1260881e+00
 -3.4715149e-01
  6.9851130e-01
  1.5677483e-01
 -1.9004574e-01
  5.5007112e-01
 -1.7262051e-01
  1.1417866e-01
 -1.9368865e-01
 -1.1787331e+00
 -8.0224127e-02
 -5.4021472e-01
 -1.3268888e-01
 -4.7177806e-01
 -1.5137835e-01
 -7.7802765e-01
  5.6753933e-01
 -5.2349832e-02
 -1.6230087e-01
  6.5286863e-01
  1.0103351e+00
  1.1415327e-01
 -5.3322881e-01
 -7.6171201e-01
  1.5837853e-01
 -8.9725935e-01
  4.8192236e-01
  3.6733744e-01
 -5.4540223e-01
  1.6510865e-01
 -5.4774791e-01
 -5.3128356e-01
 -1.0435833e-01
 -5.4228812e-01
 -4.8484838e-01
  1.2023693e+00
  1.7715415e+00
  1.2404184e-01
 -6.4553964e-01
 -5.2280641e-01
 -7.9790667e-02
  8.7881826e-02
  1.3191193e-02
 -8.8392146e-02
 -1.7595565e+00
  6.4620376e-01
  5.3440207e-01
 -6.7298450e-02
  9.3459034e-01
  4.1479853e-01
 -5.6777781e-01
 -1.2601393e-01
  6.2662375e-01
 -3.2300786e-03
  6.4305043e-01
  5.8271265e-01
  2.5871903e-01
 -1.9630034e-01
  3.2945674e-02
 -3.9784241e-01
  4.9377609e-02
 -1.8178684e-01
 -5.4124158e-02
 -5.9905380e-01
 -9.4940737e-02
 -2.7938861e-01
  2.8590305e-02
  9.8728168e-01
 -2.3616567e-01
  4.3027434e-01
  1.3623759e+00
 -3.5409040e-03
  1.3201795e+00
 -6.5666907e-02
  6.9863176e-01
  2.1983665e-01
  6.2582898e-01
  4.3980473e-01
  7.4828314e-03
 -8.6111444e-01
  8.2550138e-02
  5.3039926e-01
  3.6221990e-01
 -5.6208454e-02
  8.0961347e-02
  4.0681642e-02
 -3.1798393e-01
  6.2914717e-01
 -1.2065315e+00
  4.8383892e-02
 -1.4733604e-01
  1.8128626e-01
 -7.5287379e-02
 -1.8410282e-01
 -5.2523297e-01
  7.2129613e-01
 -1.2532091e+00
  4.9096063e-02
 -4.8625669e-01
 -1.5678500e-01
  5.7280117e-01
 -2.3281991e+00
  1.4165102e+00
  2.3242138e-01
 -1.4192382e+00
 -5.8769673e-01
  4.9964800e-01
  4.9408662e-01
 -6.9254971e-01
  8.7187430e-03
 -5.3537267e-01
 -5.9919351e-01
 -2.6423724e+00
  2.6970127e-01
 -9.3721421e-03
  5.6756116e-02
  4.5305914e-01
  6.7055279e-01
 -1.4053204e+00
  1.4402373e+00
  1.4037648e-01
  8.1473934e-03
  2.2625464e-01
  2.8524703e-01
 -5.5023730e-02
  1.6031098e-01
  9.2214262e-01
 -1.6534873e+00
 -1.4211357e+00
  3.9574304e-01
 -1.5498950e-01
  1.0790144e+00
 -1.0700810e+00
  1.7079394e-01
  1.8924478e-01
 -8.5171199e-01
 -8.0904394e-01
 -2.1418948e+00
  1.6370631e+00
 -1.2846755e+00
 -4.1294935e-01
 -2.8140107e-01
  1.9466327e-01
 -2.3967432e-02
 -6.7237425e-01
  8.0396600e-02
  1.0660125e-01
  2.6267749e-01
 -9.0917513e-02
 -1.1372301e-01
  5.0096118e-01
  2.0411947e-01
  7.7666390e-01
 -6.1437285e-01
  6.0162723e-02
 -1.1358052e-01
 -6.1320925e-01
  4.2305517e-01
 -5.9454811e-01
 -1.8221441e-01
  3.0502579e-01
 -2.1715990e-01
 -7.8062952e-01
 -2.3012574e-01
  1.5048468e+00
 -2.2716464e-02
 -2.4520697e-01
 -1.1239711e-01
  7.3579812e-01
  5.1787436e-01
 -5.8739251e-01
 -1.9435258e-01
  8.6669213e-01
 -8.2069200e-01
 -1.0553047e-01
  1.9880213e-01
 -1.5172175e-01
 -7.0611022e-02
 -5.0349310e-02
 -2.0175232e-01
  1.6108358e-01
 -4.9625385e-01
 -2.8245296e+00
 -2.8203148e-03
  7.2732335e-01
  9.9704713e-01
 -5.3610206e-01
 -1.5140554e-01
 -4.4648150e-01
 -8.4645385e-01
 -5.0707839e-02
  2.9816869e-01
 -9.2973383e-03
 -6.2403613e-01
 -2.5264936e-02
 -1.2548371e-02
 -1.1320318e-02
 -6.2713301e-01
 -5.6419230e-01
  2.8372145e-01
 -8.1404038e-02
  1.6363269e-01
 -3.7972462e-01
 -2.6901129e-01
  1.1745098e+00
  3.1540021e-01
  2.4715132e-01
  2.1467390e-02
  6.5021861e-01
  8.2964875e-02
  1.5013963e-01
 -2.8281075e-01
 -2.9383770e-01
 -1.0801597e+00
  1.9731499e+00
  3.7510002e-01
 -6.0558206e-01
  2.1514805e-01
 -2.3911102e-01
  2.3863522e-02
 -3.9804170e-01
  1.7992969e-01
 -9.1339692e-02
  4.8218814e-01
  7.4248076e-03
  2.0439109e-01
  3.8539144e-01
 -7.5229615e-02
  3.0829415e-01
  7.7811086e-01
 -1.4854813e+00
 -1.6819480e-01
  5.4161072e-02
  1.3484057e+00
 -4.7151089e-02
  4.8957807e-01
  1.9349030e-01
 -3.5807857e-01
 -3.6231029e-01
  3.0554485e-01
  4.6620771e-02
  2.5306785e-01
  1.0324841e+00
  3.5110864e-01
 -1.3424036e-03
  6.2034130e-01
  2.2953203e+00
  3.2105014e-02
 -3.1796719e-03
 -1.3193610e+00
  1.4045833e-03
  1.3106827e-01
  3.3849511e-01
  9.5632598e-02
  3.6103141e-02
  1.2964070e+00
  1.0907105e-01
  3.2848617e-01
  3.0604148e-01
 -3.5222065e+00
  3.5051563e-01
 -2.9774684e-01
  5.7680756e-01
 -8.0805682e-02
 -2.1392012e-02
  5.7970867e-02
  2.2446068e-01
 -4.8548426e-02
 -1.9167764e-01
 -3.5815555e-01
  5.8034915e-01
  1.7239490e-01
 -3.5170266e-01
 -4.0414816e-01
  1.8875957e-01
 -3.0082909e-02
 -4.7010413e-01
 -5.4361358e-02
  3.5364404e-01
 -6.2161964e-01
 -2.4731202e-01
  5.2405734e-02
  4.7417197e+00
 -7.7559017e-02
 -5.6399840e-01
 -1.0498784e-01
 -4.3840042e-01
  1.0619336e-01
 -1.6050673e-01
 -2.7536577e-02
 -4.9100259e-01
 -1.4104138e-01
 -1.6917199e-01
  2.9053153e-02
  4.3516883e-01
  1.7042459e+00
  1.3474427e-01
  4.1381843e-02
 -3.6491346e-01
  1.5631542e-01
 -6.6135120e-01
  8.1763798e-01
  6.3148662e-02
  1.1586122e-02
 -1.0478817e+00
  2.1645315e-02
  2.5337318e-01
 -2.6430082e-01
  7.5497068e-02
 -1.6999429e+00
  4.3866912e-01
 -1.2222964e-01
 -3.2460518e+00
 -1.8757561e+00
  2.0627011e-01
 -3.6720434e-01
 -4.1906273e-01
  9.6531332e-02
  2.6834041e-02
  4.7885105e-02
 -1.2716866e-01
  5.7649352e-02
  6.3949354e-02
  4.6442021e-03
 -1.5931753e-02
  4.6121508e-01
  4.4995415e-01
 -4.0316079e-02
  2.4107045e-01
  4.5117460e-02
  1.6453855e+00
 -7.6248579e-02
 -4.3794099e-02
  4.3199354e-01
 -2.3415026e-01
 -6.1880513e-03
 -1.6961065e-01
  1.4931511e+00
 -1.3188516e+00
  4.8326859e-01
 -9.4698182e-05
 -3.6108214e-01
  1.8842510e+00
 -3.0511352e-01
  2.4457352e-01
 -3.7688583e-01
  4.6474282e-02
  1.0063658e+00
 -3.5803050e-02
 -1.5489880e-02
 -8.3114141e-01
 -3.4436053e-01
  1.4779028e-01
 -2.2557475e-01
 -3.8691360e-01
  7.6880507e-02
 -2.1096718e-01
  5.1123619e-01
 -1.3924280e-02
  8.0810130e-02
 -5.2803349e-01
 -4.1222611e-01
 -6.2901324e-01
  3.7510824e-01
 -7.0576161e-02
  9.3788594e-02
 -9.3021727e-01
 -5.1336318e-01
 -3.6849681e-01
  6.5211380e-01
 -3.7273686e+00
 -1.0979470e-01
  7.5721979e-01
 -8.6581558e-02
  1.1139390e+00
 -1.2144752e+00
 -1.7788084e+00
  1.9046803e-01
 -4.3372577e-01
  8.2323569e-01
  2.0051208e+00
 -5.9198838e-01
  3.5003860e+00
  5.0162125e-01
  2.2720289e+00
 -2.1861286e+00
 -2.6544699e-01
 -2.8115761e+00
  2.0241003e+00
  2.6333122e+00
 -1.0631110e-01
  1.3877449e+00
  3.6461680e+00
 -3.8302293e-01
  7.1171254e-01
  3.2650176e-01
  1.2025221e-01
 -8.3186048e-01
  3.0513155e-01
 -3.5169754e-02
  3.9964479e-01
 -7.0980802e-02
 -1.9451661e-01
 -7.2356367e-01
 -1.5227693e+00
  2.1626990e-01
  2.5329748e-01
  6.1745650e-01
 -2.6030741e+00
 -1.1801242e+00
  4.1328921e+00
 -1.2776302e-01
  2.4104935e-01
  2.5102317e-01
 -3.9020586e-01
  2.7216384e-01
  2.0915464e-01
  5.0383613e-02
 -1.9711305e-01
  1.1339083e+00
  7.8868872e-01
  5.5185311e-02
  4.4077000e-01
 -1.6310890e-01
  2.0734477e+00
  8.7417442e-01
 -4.5150834e-01
 -1.0386505e-01
  8.8030076e-01
  8.2251497e-02
  1.7974604e+00
 -5.1343894e-01
  1.0740606e-01
 -2.2987437e-01
  1.7689518e+00
  3.4142166e-01
 -6.1778623e-01
  1.6473950e+00
  7.8150165e-01
 -6.6014838e-01
 -4.3532009e+00
  3.0192966e+00
  1.8905203e+00
  2.6375926e+00
  2.7531105e-01
 -9.1503882e-01
  2.5480235e-01
 -2.6752299e-01
 -1.7174510e+00
 -4.2388770e-01
 -2.4575603e+00
 -9.3237245e-01
  1.2951105e+00
  5.0724697e-01
  2.8542888e-01
 -1.2967680e+00
 -3.8654275e+00
 -1.2443577e+00
 -6.2636596e-01
  5.2186427e+00
 -1.3840920e+00
  9.2388886e-01
  4.1813993e-01
  1.1869104e+00
 -2.3406801e-01
 -4.2219594e-01
  2.6858354e-01
  2.3658113e+00
  7.7237034e+00
 -2.3066385e+00
 -2.3476353e+00
 -1.2134632e-01
  3.4771624e-01
  2.3908275e-01
  6.7059702e-01
  1.0945688e+00
  7.1705347e-01
 -2.9560354e-02
  9.6439970e-01
  2.3709593e+00
  1.1341792e-01
 -7.8939342e-01
  8.3637172e-01
 -1.1422156e+00
 -1.5814965e+00
  5.9254307e-01
 -3.6625195e-02
  3.3135881e+00
 -1.0026193e+00
 -1.4459333e-01
 -6.0050428e-01
 -1.1425014e-01
 -2.0052094e+00
 -3.6873763e+00
 -5.8328137e-02
 -1.2918206e-01
 -1.2616515e+00
 -1.0186121e+00
 -2.3068579e-01
 -2.3808608e+00
 -6.9652073e-02
 -2.0484686e+00
 -2.1758995e+00
 -2.9235356e+00
 -1.8215080e+00
  1.7804836e+00
  3.4871107e-01
 -1.0443711e-01
 -2.9907653e-01
 -1.6804776e-01
  8.3841854e-01
 -1.2062751e+00
 -1.0613028e+00
  6.9901931e-01
 -9.3499713e-02
 -5.9964653e-04
 -8.3661276e-01
  1.0698502e+00
  4.8966897e-01
 -1.3542783e+00
 -7.2386116e-01
 -1.0462829e+00
 -4.3343515e+00
 -3.9139313e-01
  6.1003052e-02
 -3.3372585e-02
 -2.4056643e-01
 -5.4852295e-01
  5.6516808e-01
 -1.4520037e-01
  1.9345045e-02
 -3.7937369e+00
  1.9611832e+00
 -1.6413167e-01
 -2.6547453e+00
 -1.6521169e-01
  6.0560331e-02
  2.1498685e+00
  2.3131000e-01
  1.5376021e-01
 -2.2884196e-02
 -9.6418071e-01
 -1.0461669e-02
  2.5944427e-01
  6.8401426e-01
 -2.7383712e-01
  2.9718575e-01
  2.5554606e-01
  2.0155999e-01
  3.4430271e-01
  2.2092900e-01
  2.9471684e-01
  6.8654791e-02
 -4.7520688e-01
  6.7111999e-02
 -2.8840300e-01
 -2.2892259e-01
 -1.9904988e-01
 -2.7790573e-01
  4.1962394e-01
  4.8199967e-02
 -8.8351607e-01
 -6.2001956e-01
 -7.3677473e-02
  3.5559249e-01
 -4.0460780e-01
  3.4841257e-01
  3.3880538e-01
  1.3500516e+00
  3.5680911e-01
 -2.2129194e-01
 -1.1468056e-01
  8.2870878e-02
 -2.3351820e-01
  1.4340579e-02
 -2.3084874e+00
 -1.0538709e-01
  1.8664174e-03
 -1.9769289e-01
 -5.7801481e-02
 -7.3556775e-01
 -4.7765970e-01
 -1.3222534e-02
 -1.0306574e-01
 -2.5907978e-02
  1.6581349e-01
 -3.6729452e-01
 -6.9675475e-01
 -3.6139548e-01
  1.2353898e-01
 -3.9799210e-01
 -1.4018046e+00
 -1.4313804e+00
 -1.0055195e+00
  3.9198342e-01
  2.3252802e+00
 -1.3438524e+00
  2.7308824e+00
 -2.9799719e+00
  1.5723320e+00
 -1.7792845e-01
 -7.6837212e-02
  1.8606928e-01
 -7.1185988e-01
  2.1955638e+00
 -1.8450774e-02
  2.4521437e+00
 -1.5013222e-02
 -3.1432576e-02
 -8.2539457e-01
 -1.5028827e-01
  5.5725344e-02
  1.1280510e-01
  5.0165880e-02
  3.2626454e-02
  5.3289080e-01
  2.1123023e-01
  7.5330114e-01
  4.4522142e-01
  3.4094015e-01
 -1.9215198e-01
 -2.1083480e-01
  1.2622048e-01
 -3.4194406e-02
 -6.7265861e-02
 -3.2999627e-02
 -3.8121312e+00
 -1.8392441e-01
 -2.0559245e-01
  3.7368742e-01
  3.1926560e-01
  1.3450824e+00
 -2.1688797e-02
  4.9339554e-01
  1.3692514e+00
 -1.5315844e-01
  7.9669073e-02
 -7.6282221e-01
 -3.4117436e-01
 -3.7636372e-01
  1.0524043e-01
  3.6721262e-01
  1.1435527e-01
  4.6394244e-01
  2.1915805e-01
 -7.5461078e-01
 -5.4403192e-01
 -1.3738177e+00
  1.7498384e+00
  9.1720402e-01
 -2.5990534e+00
  5.4975808e-01
  1.1762927e+00
 -6.4852959e-01
  1.2162871e+00
 -2.1689503e+00
  8.2543719e-01
  5.5706374e-02
 -9.6843970e-01
  4.4249877e-02
  2.5271335e+00
 -2.0547202e+00
  4.9014482e+00
  3.4073779e-01
 -1.4165901e+00
 -1.1265392e+00
 -2.3026611e-01
  3.9335907e-01
 -6.1755899e-02
 -1.7887257e+00
  1.0122731e+00
  3.5836978e+00
  1.3540704e+00
  1.5450807e+00
 -4.9006656e-01
  3.4012690e-02
 -3.4824708e-01
 -1.0397779e+00
  1.9600263e+00
 -1.7214139e-01
 -3.3176699e+00
  1.5469259e+00
  1.3894801e-01
 -2.1104433e-01
 -7.3071116e-01
 -9.8231994e-02
 -4.9790278e-02
 -1.0688499e+00
 -4.3730348e-02
  7.3000413e-01
  2.2232647e+00
  2.2186537e+00
 -1.8499057e+00
 -7.4521148e-01
  5.4609805e-02
 -3.6990475e-02
  4.0604919e-03
 -1.4105216e-01
 -2.9120222e-01
 -1.0220739e+00
  2.3111658e+00
  2.7551883e-01
  5.6241281e-02
  2.3510031e-01
 -9.1855288e-01
  9.0835214e-01
 -2.3979919e-01
  6.0856050e-01
  4.6170261e-02
 -3.1974659e+00
  6.0669285e-01
 -5.8456534e-01
  9.5737588e-01
 -2.4567778e-01
  7.1916229e-01
  2.7588359e-01
 -1.0010556e+00
 -2.4259576e-01
  1.6296785e-01
  2.7535811e-01
  6.6407211e-02
  1.1304481e-01
  1.5324051e-02
 -2.1428014e-01
 -1.6655460e-01
  1.0400590e-01
 -1.3537063e-01
 -7.0886061e-02
  6.2629557e-01
  3.1143150e-01
  8.8760681e-02
  3.5863028e+00
  1.1560692e-02
 -2.0096307e+00
 -3.4374025e-01
  2.0485021e-01
  1.6021626e-01
  1.1812814e-01
  2.2211466e-02
  8.3014786e-01
  3.4044373e-01
  2.9983361e+00
  6.1188340e-02
  2.8780615e-01
 -7.4018791e-02
  5.1624682e-03
  1.6971073e-01
  3.9760953e-01
 -1.4383635e-01
  1.4374730e-01
  6.7942552e-02
 -3.2681689e-01
 -1.2712072e-01
 -4.8132291e-01
  2.7042827e-01
  1.9105127e-01
  4.6029785e-01
  1.2688838e-01
 -9.5026296e-01
 -1.9008791e-01
  3.9134193e-02
  1.5581703e+00
 -3.1962457e-01
  9.4532216e-01
  4.7899485e-01
  1.0251776e+00
  2.5390113e-02
 -2.9238546e-01
  1.2573467e+00
  3.5007253e-01
  2.0212786e-01
  1.5434876e-01
 -6.5059912e-01
  9.1992572e-02
  1.3260895e+00
  1.0733049e+00
  1.7887685e-01
  6.2689555e-01
 -3.5311811e+00
  2.1124884e-01
  3.4260452e-01
  4.7374955e-01
 -3.5080612e-01
  1.5216942e-01
 -7.5641823e-01
 -3.2002822e-01
  6.7489655e-03
  9.1268420e-01
 -5.0491448e-02
 -1.6277078e-01
  1.7028615e-01
  2.4452960e-01
  8.9902803e-02
 -2.2762489e+00
  4.2368835e-01
  5.0620601e-02
 -8.3673936e-01
  3.1326976e-01
  2.8872188e-02
 -3.5760826e-01
 -6.0997039e-01
  5.6082942e-02
 -6.9140810e-01
 -4.2432186e-01
  1.2691729e-02
 -4.7644544e-01
 -5.1077944e-01
 -1.6434757e-01
  9.3266182e-02
 -2.2475229e-01
