nep4 4 Cu B C N 
cutoff 8 5 154 45
n_max 10 8
basis_size 10 8
l_max 4 2 0
ANN 50 0
  1.9853251e-01
  1.6388094e+00
  5.1238608e-01
 -5.3823113e-01
  7.9674160e-01
 -7.8353785e-02
  3.2799491e-01
  2.1182239e-02
 -4.7311958e-02
 -2.8775554e-02
  8.9418781e-01
  3.3449772e-01
  6.3280739e-02
 -4.4527027e-01
  1.1441106e-01
 -2.0711504e-02
  4.3411934e-01
  2.0225288e-01
  1.7549555e-01
  3.1597576e-01
  2.6183508e-02
 -2.0862412e-02
  1.9481048e-01
  1.6383982e+00
 -3.7331145e-02
 -6.4234549e-01
 -8.4826551e-02
 -3.2967556e-02
  4.9264118e-01
  3.0341110e-01
  2.8758436e-01
  1.9019868e+00
 -3.9940417e-01
 -3.0113849e-01
  2.8402019e-01
 -1.9198239e-02
  4.0164366e-01
 -1.4166394e-01
 -4.7855242e-03
 -6.6085351e-01
  3.3695620e-01
 -1.8678989e-01
  2.8520806e+00
  1.0106485e+00
  3.4918919e-02
 -3.0210787e-02
  2.0301643e-01
  1.0136662e-01
  4.2009264e-01
  4.1095993e-01
 -8.7167048e-01
  2.8147206e-01
  3.9115381e-01
  8.6560160e-01
  2.6021769e+00
 -2.9021064e-02
 -1.9899952e-01
  7.2687998e-02
 -2.9978070e-02
  1.1624700e+00
 -1.6369614e-01
  6.2677711e-01
  6.5898985e-01
  1.7277175e-01
 -2.4858367e-01
 -2.1344760e-01
  2.2012931e-01
  1.1288224e-01
 -1.4920756e-01
 -3.3355188e-01
 -3.4153345e-01
 -3.3645071e-02
  3.6492776e-02
 -1.4657366e-01
 -2.8495562e+00
  6.1133718e-01
  1.2890877e+00
  1.0308813e-01
  3.4427983e-01
  6.1964959e-02
 -1.1995522e+00
  1.0262413e-01
  3.2148462e-02
 -8.9522678e-01
 -1.8313037e-01
  7.3737227e-03
  6.4001106e-02
  5.1204324e-01
 -1.2238424e+00
 -3.2171446e-01
 -1.2293129e-01
 -2.6787870e-02
  1.0130862e+00
  1.5392330e-01
 -4.1791660e-01
  8.6046135e-01
 -7.2285317e-02
  1.1342148e-01
  3.1376092e+00
  6.9383311e-01
 -1.0063945e+00
  8.8555199e-01
  5.6433690e-01
  6.3073164e-01
  3.5116297e-01
 -8.3027713e-02
 -2.0990232e-01
 -1.7833854e-01
 -1.7212319e-01
 -1.9437838e-01
 -2.3896928e+00
 -4.2831790e-01
 -1.1655195e-01
  3.5150224e-01
 -2.9343871e-02
  7.9236828e-02
 -2.2674257e-01
 -3.2406563e-01
 -2.8077388e-01
 -6.6557926e-01
 -2.6671338e-01
 -1.2238189e-02
  3.1252754e-01
  1.8175464e-02
 -1.2373796e-01
 -1.7777556e-01
 -1.3947012e-01
 -2.9552123e-01
 -4.4303650e-01
  4.1892290e-02
  1.3494708e-01
  2.0711121e-01
 -1.9418234e-01
 -3.4997317e-01
  2.6720598e-01
 -4.0331316e-01
 -3.1042632e-01
  5.0432801e-02
  2.6809120e-01
  3.3446372e-01
  1.4883767e+00
 -1.4735764e-01
 -1.6973113e-01
  1.1065593e-01
 -2.0830023e-01
  2.5154814e-01
  7.8830540e-01
  1.8267244e-01
 -2.6114929e-01
 -3.7019007e+00
 -1.1555949e-01
 -7.1961656e-02
  2.2078279e-01
 -2.6522505e-01
 -1.4865436e-01
  1.5492092e+00
 -1.8060802e-01
  3.1270415e-03
 -2.5387581e-02
  2.2013694e-02
  1.6609891e-01
 -7.5746763e-01
  1.7115092e-01
 -1.3821736e-01
  1.6698280e-01
  6.7830160e-02
  1.3805856e-01
  8.2360223e-02
 -1.8817864e-02
  6.6127039e-02
  4.2579353e-01
  9.4943978e-02
  2.6667881e-01
 -8.9732103e-02
 -2.5737920e-01
 -5.4981071e-01
 -1.3311458e+00
 -5.1033713e-02
 -8.7505722e-01
  2.0894490e-02
  1.9376979e-03
 -1.5449014e-01
 -7.3614888e-02
  1.7718796e-02
 -9.0025628e-01
 -6.0627975e-02
  4.0058795e-01
  1.0196930e+00
 -7.3284276e-02
 -3.4980553e-01
 -1.0707253e+00
 -2.1185456e-01
 -7.4877107e-01
  4.3157998e-02
 -2.7055256e-02
 -3.0585378e-01
  2.8431051e+00
 -3.9789647e-01
 -1.0280795e-01
  2.4395856e-01
  1.5950140e+00
 -5.8891940e-01
 -2.1737567e-01
  9.7071700e-02
  1.4151293e-01
  3.1151691e-01
 -3.9231098e-01
  1.4223202e-01
  6.1723161e-01
 -7.7538598e-01
 -4.7947657e-01
 -6.0147148e-01
 -2.9472497e-01
 -2.1194108e+00
 -1.0062722e-02
 -2.2759272e-03
 -6.4815693e-02
  8.4634997e-02
  1.2183298e-02
 -1.8380944e-01
  2.0785892e-01
 -1.3091725e-01
  2.7029879e-02
 -3.4431946e-01
 -3.0007180e-02
  9.3064547e-01
 -3.6137849e-02
  2.0850935e+00
 -1.5017899e+00
  2.0087240e+00
  1.0388333e+00
 -6.1396265e-01
 -4.5346773e-01
  1.4087252e-01
  1.3452485e+00
  7.5747079e-01
  7.9031157e-01
 -1.8824534e-01
 -5.1760954e-01
 -8.8848734e-01
 -3.5413834e-01
 -1.1133126e+00
 -2.0437615e+00
 -5.6757700e-01
  1.4881344e+00
 -9.9475229e-01
  7.0425940e-01
  1.6865940e+00
  2.2079859e-02
  1.4872613e+00
 -6.2366509e-01
 -2.3325455e-01
  1.3467614e-01
 -6.2644579e-02
  1.4532269e+00
  7.0964706e-01
 -7.3836374e-01
 -4.6661791e-01
  2.2842899e-01
  5.4755723e-01
  1.5632927e-02
 -1.0563979e-01
 -4.1463491e-01
  1.3804181e-02
  6.1698222e-01
  6.7856812e-01
  8.5478711e-01
  1.1728262e-01
  2.3322570e+00
  7.8640002e-01
 -1.5804708e+00
  1.5074365e+00
 -4.7737621e-02
 -3.4532768e-01
  7.7606684e-01
 -3.5788975e+00
 -1.1663072e-01
 -1.9010162e-01
 -4.1550052e-01
  1.0530721e-01
  8.3313560e+00
 -1.4083607e-01
 -5.9439033e-01
 -2.9249269e-01
 -4.7796097e-01
 -2.6644206e-01
 -2.9872295e-01
  2.1371361e-02
  1.1543543e+00
 -2.3041632e+00
 -1.2756734e-01
 -3.6173731e-01
  7.4952883e-01
  2.8090763e-01
  1.6735631e-01
  2.4827161e-01
 -7.8281783e-02
  3.9153103e-02
  7.0469934e-01
  3.5783869e-01
  2.5551486e-01
  1.7820726e-01
  2.6116692e-02
  1.3211328e-01
  1.4719363e-02
 -1.8528920e-02
  1.3899501e-01
 -1.0547971e-02
  3.0922386e-01
  1.9851472e-02
 -9.3929537e-02
 -1.1063760e-01
  1.0958022e-01
  1.5675136e-01
 -1.7481217e-01
  7.6221180e-04
 -2.0183511e+00
  1.0928395e+00
  1.3692819e-01
 -1.5223713e-01
  3.5077649e-01
  3.3041529e-02
  1.2829868e-02
 -5.2898239e-02
 -1.2427874e+00
  3.4844607e-01
  1.1321834e-01
  4.2373195e-01
  2.6617241e-03
  1.4462788e-01
  3.2509574e-01
 -5.3243536e-01
 -5.7280439e-01
 -2.5473392e-01
 -7.7378321e-03
 -3.5686877e-01
  7.3025590e-01
  1.7987235e-01
 -2.4525712e+00
 -4.3514663e-01
 -5.3686392e-01
 -1.2784426e+00
  3.9798421e-01
  1.3387132e+00
 -7.3262930e-01
  4.4347446e-02
 -2.7448552e+00
 -5.7000160e+00
 -8.2763070e-01
  8.7172520e-01
  1.7808115e+00
  5.4520738e-01
  1.6287935e-01
  6.1849034e-01
  9.4781443e-02
 -1.1346468e-01
  1.1803477e+00
  2.9475227e-01
 -1.5604396e+00
 -4.0968728e-01
 -4.9270776e-01
 -4.2108074e-02
  1.3648080e+00
 -3.1256962e-01
  8.6189974e-03
  1.2172716e+00
 -1.1771177e-01
  3.0942373e+00
 -2.8791814e+00
  2.0754924e-01
 -9.5801145e-02
  2.5007215e+00
 -1.3508339e-02
 -2.0648116e-01
  2.5811765e-02
 -3.0446166e-01
  1.1890772e-01
 -9.2371655e-01
  2.2859640e-01
  5.1256144e-01
  7.6437406e-02
  3.3680931e-01
  3.3230269e-01
  4.7900471e-01
  3.4129488e+00
 -1.1429428e-01
  3.7184719e-02
  2.0195478e-01
 -1.4087841e-01
  4.3366396e-01
 -3.9588982e-01
 -2.1608710e-01
  1.5755026e-01
 -1.2067971e+00
 -1.2177886e-01
 -1.2625890e+00
  9.3131977e-01
 -5.6688982e-01
 -2.6400039e-01
 -4.0867869e-02
  1.0097816e-02
  3.3081293e-02
  4.3439302e-01
 -8.2304627e-02
 -5.0283039e-01
 -7.1490592e-01
 -9.7525644e-01
 -1.0645916e+00
  3.9814949e-01
 -1.3327003e-01
 -6.5522194e-01
  9.4768807e-02
  3.2898521e-01
  4.4586200e-01
 -1.6987167e-01
 -1.0375075e-01
 -1.3463342e-01
  8.0747224e-02
  7.5021572e-02
  1.1679809e+00
  2.8424522e-01
 -8.1488013e-01
  5.8626312e-01
 -4.4516101e-02
 -7.4796909e-01
  1.9929595e-02
 -3.7859514e-02
  2.8507447e-01
 -3.7928578e-01
  9.0442121e-02
 -4.1821688e-01
 -5.6945097e-01
  4.8697453e-02
 -2.0225072e-01
 -4.2360148e-01
 -1.8962631e-01
  1.4965865e-04
 -5.4630810e-01
 -1.1790072e-01
 -4.9000471e-03
 -9.5675516e-01
  1.9610451e-01
  1.4410973e+00
 -3.2577896e-01
 -7.9380894e-01
 -9.3370342e-01
  2.1862512e-02
 -3.9304154e+00
 -5.5466896e-01
 -9.7137310e-02
 -4.9221545e-01
 -1.1410390e-01
  3.7073347e-01
  7.8069240e-01
  7.4771410e-01
  2.2224618e-01
  1.4072177e-01
 -1.5411623e-01
  7.0258373e-01
  5.9356391e-01
 -2.5504869e-01
  3.1608710e-01
 -3.0234959e+00
 -2.6063862e-01
  3.3099339e+00
  2.4864106e-01
 -2.3885348e-01
  4.3340272e-01
 -7.7904856e-01
  1.1981355e+00
 -1.0676601e-01
  2.8114829e+00
  5.0962023e-02
  1.4629388e+00
 -6.6810977e-01
  9.5995203e-02
 -4.0650907e-01
 -7.8207159e-01
  1.8012208e-01
  1.9281803e-01
 -3.7606558e-01
 -4.0373856e-01
  2.4394958e-01
  9.1027834e-02
  8.5647829e-02
 -5.6459600e-01
 -3.7361395e-03
 -3.4472123e-01
 -6.4078636e-02
  7.6293372e-02
 -1.1345074e-01
 -3.0113608e-01
  1.8664439e-01
  1.4554092e-01
 -8.8086337e-01
 -4.1312379e-01
 -2.5704467e-01
  5.2770323e-01
  1.6899551e+00
 -3.2574704e-01
 -3.5980903e-02
  4.3780175e-01
 -1.3755664e-01
 -1.5208249e+00
 -1.5698613e-01
 -2.0194761e-01
 -1.8043926e-02
  2.1976302e+00
 -3.4576976e-01
  4.7867630e-02
  3.6880305e-01
 -9.5189065e-01
  3.6494650e-02
 -2.0078046e-02
 -4.8932872e+00
 -3.0614318e-02
 -1.1599548e-01
 -6.7940980e-02
 -7.7073008e-02
  5.3040314e-01
 -1.7571926e-01
  3.9033741e-01
 -1.8542007e-01
  1.2662913e+00
 -4.4165653e-01
 -1.7673476e-01
  1.0101800e+00
  4.0314314e-01
 -3.1043604e-02
  9.6323323e-01
  2.2677094e-01
 -6.0461289e-03
 -7.9735565e-01
  2.5116369e-01
  1.3870401e-02
  5.7026702e-03
  4.2187352e-02
  1.1854837e-01
  1.0710301e-01
 -1.6336915e-01
  3.3367491e-01
  1.0319781e-01
 -2.9075012e-01
  6.2377635e-02
 -1.3994600e-01
 -4.0260568e-01
 -2.1699362e-01
 -3.3886518e-02
 -2.8962934e-01
  5.8260745e-01
 -3.3764467e-01
 -1.2354888e-01
  7.9486191e-02
  4.4409897e-02
  1.7027382e-02
 -5.8293156e-02
 -1.8917786e-01
 -2.6273462e-01
  4.5902932e-01
 -1.2719685e-01
 -1.6581377e+00
 -5.2789050e-01
 -2.3294009e-01
  1.1123395e-01
  2.1371262e-02
  6.6526240e-01
  1.4820734e-01
 -8.9024447e-02
  8.0595136e-02
  4.9490556e-02
  2.4292576e+00
  5.3792942e-01
 -1.5123242e-01
  1.3517615e-01
 -4.0886290e-02
 -1.2836736e-02
  6.7407078e-01
 -3.3763193e-02
  1.0230332e-01
 -4.6514997e-01
 -5.9888368e-03
 -2.9632366e-01
 -2.8396326e-01
 -3.4861434e-01
 -3.9738870e-01
  3.3223543e-01
  2.9228592e-01
  1.2481004e-02
  1.2698525e-01
  6.7852259e-01
 -1.3868265e-02
  1.4353213e-01
  3.0525687e-01
 -4.2169151e-01
 -2.2350588e-01
 -4.3125421e-02
  2.2543864e-01
 -5.5761588e-01
 -1.6088629e+00
  1.7698941e-01
 -1.4674746e-01
  1.3474400e-01
  2.2132580e-01
  7.2862580e-02
 -1.6231726e-01
  1.8178510e-02
 -2.3960172e-01
  5.4953001e-02
  5.0742370e-01
 -2.6510078e-01
  4.0754154e-02
  1.4951259e-01
 -4.6988344e-01
 -1.0869575e-01
  4.7428302e-02
 -7.6899862e-01
  3.0229169e-01
  9.7545303e-02
 -4.5607272e-01
  4.6632299e-01
  3.7735486e-01
 -5.9008950e-01
 -5.0447738e-01
  1.2519913e+00
  1.4341384e+00
 -2.3021698e+00
  2.3079148e-01
  7.4894145e-02
 -8.5277170e-02
  2.1044962e-01
  1.6697003e-01
  5.0416356e-01
 -1.5630259e-01
  1.5163600e-01
  2.8327432e-02
  2.0957646e-01
  1.0881752e-02
  5.2157724e-01
  5.9530687e-02
 -5.4108876e-01
  1.0042755e-01
 -8.8360608e-03
  2.5192873e+00
 -1.9431436e-01
 -1.2225629e-01
 -3.6587451e-02
  8.4796488e-02
 -2.0281507e-01
 -3.4862202e-01
 -1.1410147e-02
 -2.6613044e-02
 -1.2077542e-01
 -6.1688161e-01
 -2.6247081e-01
  2.0155988e+00
  1.8452649e-01
  3.6693439e-01
 -8.5743144e-02
  6.8123534e-02
  3.5829124e-01
  1.1241189e-01
  2.2561091e-01
  5.0829428e-01
  9.7748309e-02
 -1.0971301e+00
  1.3747656e+00
 -5.6854632e-02
  3.5481369e-01
  4.8595592e-01
 -2.0321871e-01
  4.8150357e-02
  5.4869246e-01
 -2.0093104e-01
  1.6782495e+00
  2.0548983e+00
  1.7365744e-02
 -1.0606372e-01
 -7.9173195e-01
  2.2888536e+00
  4.2541385e-02
  6.6714816e+00
 -3.5374539e+00
  5.3914583e-01
 -9.7581804e-01
  6.0678738e-01
 -1.4640017e-01
 -5.7779709e-03
  3.9770520e-01
 -1.5210014e-02
  2.6757973e-01
 -1.1498836e+00
  3.4952760e-01
  5.8842320e-02
  1.5054354e-01
 -2.3596868e-01
 -2.0207810e+00
 -1.7542501e-01
  1.7929435e-02
 -6.4872317e-02
  3.7839112e-01
 -4.6373043e-02
  1.8281643e+00
 -8.4317589e-01
  1.6238940e+00
 -2.9314098e-01
 -3.2497084e-01
 -3.9723057e-01
 -6.1854023e-01
  1.3097534e+00
  1.3357785e+00
 -1.3360605e+00
  2.5786564e-02
 -1.2665327e+00
 -1.5712991e+00
  4.7609174e-01
 -3.2683961e-02
  3.3420718e-01
 -4.8900154e-01
  1.6504753e+00
 -4.7954294e-01
  2.6223036e-02
 -3.1262536e+00
 -4.2740464e-01
  2.1703269e-01
 -7.6505527e-02
  1.9457014e-01
  4.4328696e-01
  4.9574724e-01
 -1.3924895e-01
  4.5867303e-01
 -4.6605781e-01
 -1.8359154e+00
  7.4843001e-01
  3.1885684e-01
  5.0876435e-02
 -1.3080023e-01
  3.9865544e-01
  2.7687174e-01
  1.5216228e-01
  4.8097994e-02
 -2.4927129e-01
  1.0456751e-01
  1.4207592e+00
 -1.2358270e-02
  3.2606652e-01
 -9.3173005e-02
  1.3723054e-02
  7.7760131e-05
  3.3770466e+00
  4.2313585e-01
  9.8562247e-01
 -2.8569853e-01
  1.3948949e-01
  1.2399235e+00
  1.1947893e+00
  3.8943306e-02
 -8.9857149e-01
  1.4527977e-01
  3.5554099e-01
 -4.7493618e-02
 -2.0384524e-02
  3.3139971e-01
  1.8593523e-01
 -2.6911123e+00
 -3.0117838e+00
  4.4374156e-01
 -4.9221173e-01
 -1.9992456e-01
 -4.9077040e-01
 -1.6987541e-01
  1.0014353e-01
  1.2828016e-01
 -2.7946171e-01
  3.7634112e-02
  4.3292442e-01
 -5.5156666e-01
  1.4499976e-01
  3.3655265e-01
 -4.4575885e-01
  3.2686662e-02
 -7.5389422e-02
 -5.7149544e-02
  3.4724265e-01
 -2.0969062e-01
 -2.3143833e+00
 -1.1892583e+00
  2.5939748e-01
 -4.4322807e-01
 -6.9319075e-01
  4.1719890e-01
 -2.8258538e+00
  1.0217549e-01
  2.0489123e+00
 -1.1535248e-02
 -1.1465261e-01
  2.4679220e-01
  3.5927305e-01
  4.6543753e-01
 -1.4691044e-01
  9.3153214e-01
  3.3030324e-02
  9.2556041e-01
  9.7863948e-01
 -4.8390338e-01
 -2.2915227e+00
 -6.0446155e-01
 -1.4006953e-01
 -1.0661727e+00
 -2.7128688e-01
  6.8203613e-02
  8.9379627e-01
  3.9718404e-01
  3.7004647e-01
 -2.2408445e-01
  1.1902693e-01
  5.1745611e-01
  3.9150092e-01
 -1.5083149e-01
  2.2832389e+00
 -9.2390501e-01
  4.8965433e-01
 -1.8054453e+00
  9.0914476e-01
 -1.5222964e-01
  7.0722252e-01
  1.4887467e-01
 -1.0494817e+00
  2.8395097e+00
  4.3459842e-01
 -8.5562533e-01
 -2.9588702e-01
 -7.1534848e-01
  9.2690468e-01
 -1.4905223e-02
 -6.5247935e-01
  1.5666416e-01
 -1.8888989e-01
  5.4853830e-02
 -1.5026140e-01
  6.7103796e-02
  2.2301099e-01
  1.7690805e-01
 -1.8800712e+00
 -3.2977632e-01
 -1.4778328e-01
 -4.1709045e-01
  1.2321201e-01
 -7.3554242e-01
 -1.5036943e+00
  3.5832781e-01
  2.2765219e+00
 -3.2090470e-01
  1.2556667e-03
 -1.8071558e+00
 -6.7987464e-02
 -3.2562214e-01
  6.4852297e-01
 -6.8185858e-02
  1.8682663e-01
 -2.6057725e+00
 -2.9248554e-01
 -2.0227186e-01
  2.3097911e-01
 -1.4720990e-01
 -4.9734959e-01
 -7.9824460e-01
  8.9770371e-01
  1.4455578e+00
 -6.3247740e-01
 -1.1700610e-01
  1.9919585e-02
 -4.2510465e-02
  1.9969931e-01
  4.4034864e-04
 -5.3437464e-02
 -2.6041929e-02
  1.2370756e-01
  1.8832180e-01
  9.2750087e-02
  6.0421258e-01
 -3.7820885e-01
 -3.9824158e-01
 -9.0509194e-01
 -2.2128838e-01
  5.2819327e-02
 -3.9005704e-02
 -1.8304576e-01
  4.4269708e-01
  1.4351556e-01
  6.4432979e-01
 -4.2680106e-01
  3.9224017e-01
  6.7865163e-02
 -4.4800118e-01
 -1.2036221e-01
  9.7821809e-02
  7.6830256e-01
 -1.2457244e+00
  4.6124670e-01
 -1.7212743e-01
  5.4215354e-01
  5.4594028e-01
 -1.6053290e+00
 -5.8433007e-02
 -9.1585690e-01
 -1.8436681e+00
  2.1834590e-01
  1.9621310e-01
  5.1227313e-01
  1.3919016e+00
  5.2189922e-01
 -6.2042582e-01
  3.8689449e-01
 -2.2324684e-01
  6.0273957e-01
  7.0976979e-01
  6.4798802e-01
  4.3528162e-02
  1.2929546e+00
 -1.8320013e-02
  1.6322802e+00
  3.2601047e-01
  9.6472538e-01
  5.5994838e-02
 -1.0801191e+00
  2.2264700e-01
  3.7663192e-01
  1.3105811e+00
  4.3482170e-01
  1.4902995e+00
  5.7837382e-02
  1.3444979e+00
 -7.5685278e-02
 -4.2157182e-01
 -3.1893471e-01
 -1.8433772e-01
  2.0693077e-01
  2.2278745e+00
  7.3838419e-01
 -3.0697253e-01
  1.3202864e-01
 -1.4004623e+00
  1.8755956e-01
 -2.1864989e+00
 -1.7905188e-01
  1.9658163e-02
 -1.4811922e+00
  7.0335072e-01
 -4.5297224e-02
  8.5473496e-01
  9.1507614e-02
 -2.1800034e-01
  1.7269572e+00
  1.0715283e+00
  1.2179147e+00
  2.8078952e-01
 -7.2113824e-01
 -1.2019314e+00
 -8.4991068e-01
 -1.6242020e-01
 -1.3238921e+00
 -1.3089535e+00
 -1.5852976e+00
  1.4824664e-02
  9.8435324e-01
 -1.0269279e+00
 -7.5025582e-01
  9.6799237e-01
 -1.3916238e-01
  2.2971024e-01
  2.3108343e-02
  2.3268443e-01
 -8.7567806e-01
  4.0431693e-01
  1.5002692e-01
  9.5219743e-01
 -4.1386388e-02
  7.0981055e-01
  4.0145758e-01
  4.0057024e-01
  5.7608145e-01
  6.1192876e-03
  2.4859928e-01
 -1.7640772e-01
  2.9652572e-01
  2.1324536e-01
  1.7788371e-01
  1.2893555e+00
  7.0748389e-02
 -4.8427692e-01
 -1.2747387e+00
  2.2344051e-02
  3.2713133e-01
  1.6802862e-01
 -2.1809058e-01
 -3.8437948e-01
 -1.1220284e+00
 -5.2226659e-02
 -4.1911703e-01
  1.3360817e+00
 -2.6872787e-01
  1.9056174e-01
  2.9941928e-01
  2.3505822e-01
  2.2725330e-01
  1.4123775e-03
 -3.4293631e-01
 -4.5085866e-02
 -3.7757975e-01
  4.9602410e-01
 -9.2909795e-01
  2.6468834e-01
 -2.6220887e+00
  9.9118188e-02
 -7.0933390e-01
 -2.0852286e-01
  1.7737646e+00
  1.9656360e-01
 -7.6707375e-01
 -1.2423220e-01
  6.2330139e-01
  1.6395436e-01
  2.5818601e-02
 -3.6888074e-02
 -1.5443917e-01
 -2.9645160e-02
 -1.5582862e-01
 -2.8095353e-02
 -3.3819452e-01
  2.6492001e-03
 -6.3439101e-01
  8.0763131e-02
 -5.3490704e-01
  1.0860109e-01
  1.8541996e-01
  4.4298983e-01
 -6.8441129e-01
  7.2578982e-02
  1.8067978e-01
  1.6988621e-03
  2.3286715e-01
 -2.6525062e-01
 -1.9141307e-02
  8.3240546e-02
  2.2536610e-01
  1.2624106e-01
 -4.6756595e-01
 -4.5475644e-01
 -2.5971171e-01
  1.3571491e+00
 -1.1367247e-01
 -4.5526691e-02
  6.3971353e-01
 -5.5822861e-01
 -4.2846319e-01
  1.8542580e-01
 -9.1454558e-02
 -5.3478438e-01
  6.2007673e-02
 -2.2822358e-01
 -2.5805634e-01
  7.5328612e-01
  2.3297116e-01
 -5.0755954e-01
  2.9382901e+00
  1.9369930e-02
 -3.2246336e-01
 -1.5786412e+00
  1.0365149e+00
 -1.6864905e-02
  7.8741461e-02
 -2.2760375e-01
  1.9147897e+00
 -2.1458353e-01
  2.4868956e+00
  6.9736324e-02
 -7.9898372e-02
 -2.6413474e-02
  5.3564030e-01
  7.5686369e-03
 -2.2008222e-01
  7.9955198e-03
 -2.5704250e-01
 -2.0564127e-01
  3.5715845e-01
  3.3773026e-01
 -3.7713641e-01
 -5.4765237e-03
 -1.7788172e-01
  7.1040148e-01
 -2.0319158e-01
  2.9253003e-01
  3.1166127e-01
 -9.8926669e-01
  6.3404337e-02
  3.5106897e-02
  1.6014658e-01
  5.0228801e-02
  3.9779231e-02
 -3.2291037e-01
 -3.4783086e-01
  1.2825125e-01
 -3.8671231e-01
 -3.2401834e-02
 -3.2163913e-05
 -1.0337081e+00
 -5.6905460e-01
 -4.5654508e-01
 -5.7885461e-02
 -5.8537647e-03
 -1.0360532e-01
 -1.2237315e-01
 -1.1941741e-01
 -1.7102199e-02
 -8.9851253e-02
 -1.2215682e+00
 -1.1515060e-01
 -2.0982228e-01
  2.1110535e-01
  4.2600548e-01
  1.4551067e-01
  1.5707156e-01
 -3.0644858e-02
 -9.1551341e-02
  2.4799293e-01
 -8.6202882e-02
  1.6832459e-01
  1.2480218e-01
 -5.4415450e-02
 -4.2344556e+00
 -1.2778686e-01
  9.1360016e-03
  2.0720358e+00
 -1.2170541e-02
 -2.6352519e-01
  1.9767534e-02
 -7.8372575e-02
 -4.1587878e-02
 -3.0548507e-01
  6.2227268e-03
 -4.9768373e-01
 -8.1302807e-02
  1.6721965e-01
  4.6125013e-01
 -6.7522675e-01
  7.1766251e-01
  1.8068693e+00
 -1.7628954e-01
 -5.4551643e-01
  1.9941857e+00
  2.1998827e-01
 -1.7063657e+00
 -9.3114071e-02
 -5.0369793e-01
 -9.8765031e-02
 -2.9541305e-01
 -1.7965958e-01
  5.8475101e-01
  7.6158191e-03
 -1.7976212e-04
 -1.0584090e-01
 -3.6895910e-01
  2.0653360e+00
 -7.7618808e-02
 -2.4120453e-01
 -3.7376663e-01
  1.5318324e-01
 -6.5187663e-01
  3.8735617e-02
  3.9406371e-01
  1.8754593e-01
  6.4724892e-02
  5.8446580e-01
  1.5489042e-01
  1.4341138e-01
  1.7132877e-01
 -1.3885412e-01
  7.9464830e-02
  3.9145592e-01
  4.2587969e-01
  1.6429880e+00
 -6.5213251e-01
  5.2144533e-01
 -8.8880306e-01
  6.4406520e-01
  4.1518405e-01
  3.0241444e+00
 -3.9448833e-01
  3.0323970e-01
 -8.0698836e-01
  3.9433715e-01
 -3.7480500e-01
 -1.8743914e-01
 -5.8108997e-02
  1.1947409e+00
  2.7361163e-01
 -2.0505330e-01
  5.8204699e-01
  9.1978595e-02
 -6.6499871e-01
 -4.6445090e-02
 -2.5663874e-01
 -1.5911903e+00
 -1.6263297e+00
 -5.8398557e-01
 -1.8775115e+00
 -8.7356174e-01
 -3.1150866e-01
  1.4415092e+00
  1.6734314e+00
  5.6155294e-01
 -9.9730670e-01
 -1.4680254e-02
 -1.5461707e-01
 -6.9597179e-01
 -1.2427764e+00
  7.6698810e-01
  3.8022807e-01
 -1.9997850e-01
 -1.8405522e-01
  1.1675017e-01
 -1.9697818e-01
 -6.5700406e-01
 -2.1402891e+00
 -4.3027452e-01
 -1.9350502e-01
  1.4216607e+00
  2.6500911e-01
  6.3457537e-01
  7.4851555e-01
  1.7686853e-02
 -1.3443018e+00
 -1.3493510e+00
 -6.2137872e-01
 -1.9690443e-02
  7.9292846e-01
  1.2118099e+00
  7.3105037e-01
  5.9177870e-01
 -3.9365809e-02
  1.3902415e-01
  8.9997935e-01
  1.8483720e+00
 -1.2831523e+00
  1.0330768e+00
 -1.2202071e+00
  1.2381238e+00
 -1.0940557e+00
 -1.4901975e+00
 -1.2014380e+00
 -1.0596901e+00
  1.5990417e+00
  3.4545726e-01
 -1.4657794e-02
  1.3959426e-01
  6.5858954e-01
 -1.8664138e+00
 -1.5760611e-01
 -1.2003860e+00
 -2.0753990e-01
  1.2622670e+00
 -4.0233049e-01
  2.1830764e+00
 -2.2647683e-01
  6.8984789e-01
 -7.6814562e-02
 -7.5024509e-01
 -4.8045373e-01
 -1.2927757e-01
 -2.0327487e+00
 -1.4051895e+00
 -5.4482117e-02
 -1.0736883e-01
  7.5612944e-01
 -1.9342674e-02
  5.7364881e-01
  1.6575414e+00
 -4.3276373e-01
  1.7278064e+00
  1.8752159e+00
 -8.3874762e-01
  1.6096475e+00
  2.7714940e-02
 -2.5869131e-02
  1.8168981e-01
 -8.8427854e-01
 -1.9936526e+00
  6.1849797e-01
 -8.4429699e-01
  1.6538425e-01
  1.8664838e-01
  2.4402882e-01
 -2.7227098e-01
  2.2657271e-01
  2.6779163e-01
 -1.4446675e+00
  1.3839808e-01
  3.2027164e-01
  1.0338789e-01
  2.7947971e-01
 -1.0273738e-02
  5.3427514e-02
 -1.2441127e-01
  8.7244487e-01
  2.8827479e-01
 -1.7623065e-01
  6.6620481e-01
  2.2935841e-02
  1.2486259e+00
  2.1142241e-01
  1.9107123e-01
 -1.2958378e-01
 -2.8740618e-02
  2.3365456e-01
  5.7319980e-03
  1.0462603e-01
  1.9021146e-01
 -4.4235846e-01
  1.4262702e-01
 -4.9776325e-01
  2.4633220e-01
 -1.2508647e-01
 -6.7794037e-01
 -2.2691129e-01
 -2.2873963e-01
 -2.3943183e+00
  1.8581925e-01
  4.0967837e-01
 -1.2580354e-02
 -1.3566439e-01
 -1.3096200e-01
  2.8185993e-02
  1.0040576e+00
 -1.7578238e-01
 -1.0260339e-01
  2.0487787e-01
  2.9505977e-01
  5.7346851e-01
  5.1849443e-02
 -8.6094484e-02
 -7.3116261e-01
 -3.7352655e-03
 -3.3148080e-02
  1.1640549e-01
 -3.3738387e-01
 -8.5054889e-02
 -1.0362445e-01
  3.5890016e-01
 -8.2512879e-01
  8.6002015e-02
  3.7524256e-01
 -3.2731313e-01
 -1.4191733e-01
 -1.1181575e+00
 -4.6020475e-01
 -3.2811156e-01
  2.2954555e-01
  3.0328618e-02
  2.5853717e-01
  2.3823402e+00
 -2.7477624e-02
 -3.3163439e-02
 -2.2509904e-01
 -2.5240690e-02
 -1.5027453e-01
 -7.1252905e-02
  1.9642109e-01
  3.2732040e-01
  7.2605252e-02
 -4.1354373e-03
  4.9542952e-01
 -6.0636844e-03
 -9.5881581e-02
  2.3921141e-01
  1.1803118e+00
  2.7432266e-01
 -7.3912010e-02
  7.5957901e-03
 -5.5097486e-04
  2.1513870e-01
  6.3076369e-02
 -2.9278183e-02
  9.1667928e-02
  4.6062392e-01
 -2.0785922e-01
 -1.6491359e+00
 -2.8416416e-01
  8.9926645e-02
  2.8718057e-01
 -9.3392603e-02
 -2.9940897e-01
  2.7453250e-01
 -5.8645923e-02
  2.5296280e-01
  2.6337063e-01
  7.8167748e-01
 -3.4841642e+00
 -3.1623502e+00
 -4.7614347e-02
  9.8338928e-03
  8.4548712e-01
  1.5162112e-01
 -1.2672877e-02
 -1.1166228e-01
  6.7568851e-01
  1.0703612e-01
 -1.1750963e+00
  8.6223640e-02
  4.8805532e-01
 -1.0107370e-01
  4.9263960e-01
 -2.8710085e-01
 -9.1779426e-02
 -1.0777081e-01
 -1.6230509e-01
  4.8977938e-01
 -5.4296877e-02
  7.3240153e-03
 -3.2707575e-01
  1.6184738e-02
 -1.6191448e-01
 -4.3395004e-01
  2.6225073e+00
 -6.7414701e-02
  1.5599690e-01
 -2.4668981e-01
 -9.5043465e-02
  4.0094838e-01
  1.4873089e-01
 -9.8607975e-01
 -7.5735778e-02
 -1.9488989e-01
 -1.2127799e-01
  8.6316252e-03
 -4.0838641e-01
 -1.5562941e-01
 -8.4913209e-02
 -3.8049092e+00
  1.0246614e-02
  1.5832196e-01
 -1.5183288e-02
 -8.8596508e-02
 -1.7079368e-01
  1.4998086e-01
 -1.3085883e-02
  2.2800203e-02
  1.9794630e-01
 -2.0739220e-01
 -3.4132728e-01
  2.7708560e-01
 -6.1151272e-01
 -5.9699106e-01
  2.8918493e-01
 -5.5689818e-01
  5.8250651e-02
  1.7938551e-01
 -2.6333218e+00
  3.3877987e-01
  2.0076728e+00
  2.1113954e+00
  1.3372348e-01
 -8.4325217e-02
 -3.2471904e-01
  1.0571163e+00
  1.6936020e+00
 -1.6009369e+00
 -2.8703990e+00
 -7.2097623e-01
 -3.3196491e-01
  9.7860134e-01
 -1.7245121e-02
 -2.4428956e-01
  2.1070082e-01
  3.7683573e-01
 -1.4181195e-01
  1.2998476e+00
  4.8216647e-01
 -9.3972139e-02
 -1.6188918e-01
 -7.6849461e-01
 -5.1585847e-01
 -3.7945163e-01
  9.6623427e-01
  1.6781864e-01
 -1.9057502e-01
 -1.3646705e+00
  1.7604791e+00
  7.2127558e-02
 -1.0898186e-01
 -2.7868645e-02
  4.7436005e-01
 -2.0961468e+00
  4.3009803e-01
 -5.7921594e-01
  4.8405349e-02
 -4.6148512e-01
 -5.0621474e-01
  2.6157376e-01
 -8.3432806e-01
 -1.0071944e+00
 -1.4817919e+00
  6.5555409e-02
  8.3862372e-02
 -3.9699543e-01
 -5.3991389e-01
 -5.9525645e-01
 -1.1682124e-01
  7.1482259e-01
  3.0838203e-01
  9.0257339e-02
 -1.3188760e-01
 -1.8500938e-01
 -2.8478968e-01
 -4.3645021e-02
  4.9423128e-02
 -4.0217619e+00
 -5.3100288e-01
 -1.1776663e-01
  3.4665617e-03
  4.1263178e-02
  6.9821715e-02
  4.9075294e-01
 -5.1980704e-01
  1.0344194e+00
 -6.4326108e-02
  1.5429713e-01
 -1.3084706e+00
  1.2393576e+00
 -1.0732100e-01
 -1.6276351e-01
 -5.5345213e-01
  1.6096349e-01
  2.8358988e-02
 -7.4609381e-01
 -3.9334800e-02
  6.4649981e-01
  3.6923339e+00
 -4.9130023e-02
  1.1173332e-01
 -1.6610348e-01
  7.1248972e-01
  1.6260943e-01
 -1.4830384e-01
  2.5447851e-01
  7.1553457e-01
  1.0657535e-01
  6.6310473e-02
 -2.4991803e-01
  2.4985282e-03
  1.9776842e-01
 -1.8524731e-02
  2.1177101e-01
 -1.6616171e-02
  1.3507743e+00
  7.6224111e-02
 -2.5305076e-02
 -6.1944865e-02
 -3.0261442e-01
  4.3942939e-02
 -7.1150601e-01
  1.5742847e-01
 -4.6694791e-01
 -2.0617437e+00
  6.6586383e-02
 -1.4263450e-01
  1.8279197e-02
 -7.7513404e-02
 -3.8377824e-01
  5.2995008e-01
  1.0930624e+00
  9.4237262e-03
  8.5271180e-01
 -7.4905336e-01
 -8.1460917e-01
  1.8820617e-01
 -3.6357903e-01
 -2.2159774e+00
  1.2162418e+00
 -1.2917539e+00
  3.9873487e-01
 -3.4908631e-01
 -5.3723454e-01
 -1.5460100e+00
  5.1970589e-01
  8.7316670e-02
 -6.5776721e-02
 -1.3248761e+00
  4.1856697e-01
  1.2382787e+00
 -2.8743529e-01
 -2.2356968e-01
  1.1316723e+00
 -2.9271770e-01
 -3.0202419e-02
  1.2296392e-01
  5.5426311e-01
 -2.6397860e-01
  1.0492665e+00
 -9.2776418e-01
  1.8524389e-01
  1.6247373e-02
  1.9365428e-01
  1.0126475e+00
 -1.1154048e+00
 -2.0641894e+00
 -3.5746064e-02
  5.2663291e-01
  8.4233381e-02
  9.8887885e-01
  8.6689793e-02
  1.1089400e+00
 -5.2703983e-01
 -2.2438562e+00
  6.3453501e-01
 -2.1654086e-01
  1.0658934e+00
  2.6820597e-01
 -8.8315737e-01
 -4.2244166e-01
 -1.5503171e-01
  2.3119184e-01
  1.0039750e+00
  2.0567864e-02
 -7.7481884e-01
  9.3554549e-02
  9.4950944e-01
 -4.6819800e-01
 -8.7498599e-01
  8.5049194e-01
 -1.3776140e+00
 -1.1645697e+00
  9.7472185e-01
  6.9452137e-02
 -4.6221268e-01
 -3.5392728e-01
  1.9520897e-01
  2.2638680e-01
  4.3722609e-01
 -5.0447792e-01
  1.8150236e-02
  1.0884278e+00
  6.8723989e-01
  2.8311801e-01
  4.8420751e-03
  2.0416470e-03
 -2.4702609e-02
  8.3351839e-01
 -2.1441686e+00
 -3.3105320e-01
 -2.8750608e+00
 -3.0249393e-01
 -5.3925264e-01
 -5.2160871e-01
 -6.7768562e-01
 -9.9977225e-02
  2.2771337e+00
 -5.6460494e-01
  1.7008369e-01
 -2.6113525e-01
 -4.5955647e-02
 -3.7818027e-01
  5.1141784e-02
 -8.8660437e-01
  1.3335373e-01
 -1.1037444e-01
 -3.6486486e-01
 -2.9683840e-01
  7.2032616e-02
  3.6694948e-02
 -2.8049287e-01
 -2.9394882e+00
 -1.3784428e-01
 -3.9620551e-01
  3.0300304e-02
 -7.6568323e-01
 -2.3735400e-01
  4.4701433e-01
 -1.8842643e-01
 -3.8958818e-02
  3.2920733e-01
 -1.4957367e+00
 -1.8798003e+00
 -5.4990882e-01
  7.2618228e-01
  1.5631123e-01
  1.1220598e+00
 -7.9490173e-01
  1.0020335e+00
  3.7938529e-01
  4.4136766e-01
  7.1358430e-01
 -1.8849216e+00
  1.1722054e+00
 -2.5246038e+00
  2.2819483e+00
  1.0319537e-01
 -8.9693809e-01
  1.4341235e-01
 -2.2545610e-01
  2.0811293e-01
  2.9429615e+00
 -7.3135328e-01
  2.7440872e+00
 -8.3095627e-03
  2.1089321e-02
  3.9275065e-01
 -1.5261260e+00
  8.2134232e-02
  1.0491767e+00
  3.7408230e+00
 -1.6762273e-01
  6.4514375e-01
  4.5180440e-01
  2.3558745e+00
 -1.2890092e+00
 -1.3837495e+00
 -3.3450532e-01
 -3.0441365e+00
 -7.2363287e-01
 -5.4261684e-02
  2.4187436e+00
  3.2502749e+00
  8.6779064e-01
 -2.2027380e+00
 -9.9824083e-01
 -1.7433071e+00
  7.8738219e-01
 -6.5184498e-01
 -5.4463957e-02
  1.0531085e+00
  1.1220900e-01
 -8.0380356e-03
  6.6564763e-01
  2.5599699e-02
 -4.2680821e+00
 -2.4288532e-01
  1.6890423e-01
 -1.0790695e+00
 -2.7134824e-01
 -3.7226757e-01
  3.3671505e+00
 -3.5939875e-01
 -2.2220802e-02
  1.0762300e-01
 -1.4132775e+00
 -9.8630828e-01
  1.8107287e+00
 -4.0585288e-01
 -6.2002277e-01
 -3.9419070e-01
  1.9696334e-01
  5.3106534e-01
  1.6677719e+00
  8.3354890e-01
  1.9201401e-01
  7.0386040e-01
  1.9643594e-01
 -2.4883673e-01
  5.5842284e-02
  2.4828772e-01
  1.1190807e-01
  3.3130772e-02
 -2.6331035e-02
 -7.3485982e-01
 -2.1474659e-01
 -3.5225260e-01
  1.4470087e+00
 -2.1444178e-01
  2.7519020e-01
 -1.4695419e+00
  7.3766482e-01
  7.8237668e-02
 -1.8497773e-03
 -6.5064751e-06
  1.0906775e-01
 -1.3402648e-01
 -1.7242776e-02
  1.4494009e+00
 -3.1748605e-01
 -7.7012157e-01
 -8.6502653e-01
 -9.4696037e-02
 -5.0116426e-01
 -2.4953113e-01
 -9.6969001e-02
  4.0700516e-01
  4.9892244e-01
 -4.4270432e-01
  1.7670161e-01
  5.0515938e-01
 -2.3792115e-01
  2.7978811e-02
 -1.3413931e+00
  1.5619151e-01
  2.1672545e-01
  1.1960181e-01
 -4.9232644e-01
  2.9842219e-01
  8.0960959e-02
 -6.2721103e-02
  9.9801385e-01
 -1.6474630e+00
 -1.9021155e-01
 -4.1229445e-03
  7.7162482e-02
 -8.3801097e-01
  5.6637692e-01
  1.7566153e-01
  4.8480290e-01
 -1.6934463e+00
  6.0774207e-02
  1.9985133e-01
  6.0133231e-01
 -2.4902005e-01
 -3.8559067e-01
 -6.7556351e-02
 -4.0675944e-01
 -2.6343566e-01
  2.6234505e-01
  5.1533067e-01
 -3.9704584e-02
  3.2757944e-01
  1.3657627e-01
 -5.2888650e-01
  2.5003809e-01
 -3.6004347e-01
 -5.3815645e-01
 -1.0791754e+00
 -1.8796483e-01
 -7.0226854e-01
  1.3743398e-01
 -1.5364822e+00
 -3.9889765e-01
 -4.5015389e-01
  3.1281379e-01
 -2.3953199e-01
  1.6456877e-01
 -1.9563237e-01
 -2.9737212e-02
  1.3139111e+00
 -6.1768163e-02
 -3.9497343e-01
  3.1544879e-02
  4.9480763e-01
 -1.2855577e-01
 -1.2813121e-01
 -2.9665213e-02
 -1.4390123e-01
 -4.9171045e-01
  2.0220684e-01
  2.5073919e-02
 -7.0972688e-02
  4.0573895e-01
  1.1051250e+00
 -2.9695800e-01
  1.8079826e-01
 -2.6322159e-01
  8.0440664e-01
  7.9562970e-02
 -1.8541498e-01
  7.3076093e-01
 -3.1214029e-01
 -4.6382329e-01
 -1.7908946e-01
 -2.6813133e-02
 -3.0275187e-01
  9.8913968e-02
 -9.5872901e-02
 -6.7006938e-02
  5.4634899e-01
  1.7470711e-01
  3.9417448e+00
  5.1359028e-01
  1.0636804e-01
 -2.6955314e-02
 -1.1797827e-01
  1.4328527e-01
 -2.7843913e-02
 -1.2886547e+00
 -7.2332066e-01
 -1.3011619e-01
 -9.9296421e-01
 -2.5836116e-01
  1.8221402e-01
 -4.4392401e-01
 -4.4659463e-01
  1.4241363e-01
  6.5667257e-02
  1.1955488e-01
  1.0167491e-01
  2.4710635e-02
 -2.5495207e-01
 -5.4902142e-01
 -2.0538151e-01
 -1.8548389e-01
  7.2788484e-02
 -2.6547828e-01
  2.5635567e-01
 -9.5364368e-01
 -1.1961986e-02
  2.7371445e-01
 -1.9095443e-02
 -1.0093716e-01
 -9.3390547e-02
  2.8986901e-01
  6.5841460e-01
 -8.5858887e-01
  1.9692117e+00
  5.9764451e-01
  3.3703351e-01
  1.5005826e+00
 -6.8966299e-01
 -2.8197795e-01
  3.0542096e-01
  2.7312238e+00
  2.2985408e-01
 -6.2334381e-02
  1.3540756e+00
 -1.1951116e-01
  2.6845565e-01
  1.1830726e+00
  6.4659290e-02
 -5.7366639e-02
  2.6986817e-01
 -1.6085221e+00
 -4.0512821e-01
  1.0577849e+00
  3.8967588e+00
  1.5675411e+00
  4.0245321e-01
 -7.9897702e-01
  1.1175506e+00
  1.3855002e+00
 -8.8187486e-01
  1.9512577e+00
  1.8404895e+00
  5.5775051e+00
  2.3374050e+00
  1.9876794e+00
 -2.1014781e+00
 -1.0331917e+00
 -1.1756688e+00
  2.9929023e+00
  4.7995415e+00
 -4.8060149e-01
  2.3437344e-02
  5.7937002e-01
  4.3503785e-01
 -1.7003700e+00
 -1.8938824e+00
 -1.2014389e+00
 -1.3534220e+00
 -2.0325081e+00
 -5.4785472e-01
 -1.2819431e+00
  3.3046833e-01
 -2.4504718e-01
  1.3103877e+00
  6.1832257e-02
  7.4129385e-01
  4.4005308e-01
  3.6947645e-02
  1.0866091e+00
 -4.5538470e-03
 -9.4091362e-01
 -1.1700136e-02
 -9.9033302e-01
 -1.0245001e-01
 -1.8450055e-02
 -5.6826193e-03
  1.2337463e-01
  2.0044182e-01
  3.8804913e-01
  1.1200866e-01
  8.1239507e-02
 -1.9752382e-01
  1.9318579e-01
 -2.1971005e-01
  4.7677584e-02
 -7.7017069e-02
 -9.8456407e-01
  3.7070245e-01
 -4.0359133e-01
  9.8157432e-03
  3.5028532e-01
  3.8201801e-02
  3.4322238e-01
 -1.1331788e-01
  2.9617526e-02
  1.2351751e-01
  1.0619074e+00
 -2.0507954e-01
 -2.0025930e-01
 -4.4092816e-01
  1.0145831e-01
  2.7659035e-01
  8.4250593e-01
 -3.5987288e-01
 -2.6015696e-01
  7.6032114e-01
  2.4667463e-01
 -4.8941070e-01
 -2.5087434e-01
  1.4331965e-01
 -2.5130513e-01
  1.1227816e-01
 -6.9000643e-01
 -7.8624509e-02
 -1.5343611e-01
 -7.6350451e-02
 -1.8610947e-01
 -2.4428621e-01
 -3.9781022e-01
  2.7735677e+00
 -6.3875902e-01
  2.2419645e-01
 -5.1147479e-01
 -4.3462086e+00
  2.8245357e-01
 -2.1671603e+00
  6.8713993e-02
 -8.0281675e-02
 -5.6767279e-01
  2.1913844e-01
  1.7311198e-01
  2.2589555e-01
  3.2953525e-01
 -3.7987313e-01
  1.7686200e-01
 -9.3023792e-02
 -1.2843056e-02
  2.1677565e-02
 -1.1815049e-01
 -4.2437840e-02
  9.7477782e-01
  3.0505210e-01
  3.0451885e-01
  7.0271611e-02
  1.3838942e-01
  2.0937613e-01
 -2.6076102e-01
 -7.4122989e-01
  9.0017334e-02
  1.7075839e+00
  1.6395965e-01
  1.9787391e-01
 -3.0583531e-01
  7.8451777e-01
  4.9741495e-02
 -4.9587759e-01
 -6.0893316e-02
 -1.1080637e-01
 -3.6915866e-01
 -2.4834204e-01
  2.6580545e-01
 -7.0086077e-02
 -2.0217631e-02
 -1.5120687e-01
  4.2282257e-02
 -3.3455929e-01
  2.1078379e-01
 -3.2607776e-01
  4.4390727e-03
 -1.5823607e-01
  5.0580281e-01
  1.0281588e-01
 -8.8508412e-02
  1.9528091e+00
 -3.8775939e-02
 -2.6198718e-01
  1.9979981e-01
  4.2332690e-02
 -8.2161868e-01
  8.9829874e-01
  2.7971169e-01
  6.7614239e-01
  3.4663847e-01
 -5.0958717e-01
 -1.1840473e+00
  1.3153064e+00
  3.7303068e-02
 -1.3748831e-01
 -6.3067307e-03
  1.3781048e+00
  2.0789948e+00
  1.0008001e-01
 -2.2540712e+00
 -2.2391118e-02
  2.1915552e-01
 -8.3854282e-01
 -1.3651170e-01
  3.0820942e-01
 -1.3833522e+00
 -3.8569499e-02
  3.2012780e+00
 -2.4282062e+00
  8.5762642e-02
 -5.3473854e-01
  1.3951859e-01
  1.2939320e+00
  1.6152524e+00
 -2.3369706e-01
  3.6728373e-01
 -6.4569896e-01
 -4.2096528e-01
 -1.5228355e+00
  8.8560915e-01
 -1.2482574e-02
 -2.6940161e-01
  1.4282336e-02
  2.3979983e-01
  1.2396985e-01
  2.2454099e-01
 -6.4350706e-01
 -2.5567824e-01
  1.8809910e-01
 -5.9687961e-02
  2.7372745e-01
  8.6765194e-01
  3.1938982e-01
  1.2919943e+00
  7.2187924e-01
 -7.8414732e-01
 -4.3070376e-01
 -8.2210225e-01
 -2.8795809e-01
  1.5704261e-02
 -1.0383097e-03
  7.6986335e-02
 -1.5633114e-01
  3.9908740e-01
  3.2659061e+00
 -9.8531991e-01
 -1.9177680e-01
 -3.4987319e-01
 -2.8018143e-02
  2.0779294e-01
  1.0633644e+00
  7.1720767e-01
  2.4214664e-01
  2.6283786e-01
  4.4582474e-01
  6.5896690e-02
  5.8098054e-01
 -1.8202096e-01
  1.2498235e-01
  2.3617133e-01
 -3.9553203e-02
 -2.4276938e-01
 -3.2288780e+00
  1.8936107e-01
  3.5952580e-01
  8.2583803e-01
 -1.9307880e-01
 -5.3206235e-01
  1.5006179e-01
 -5.4176426e-01
 -1.4808656e-01
  2.7570319e-01
 -1.6168982e-01
  1.9290394e-01
  4.4181782e-01
  5.0292503e-02
 -3.2145552e-02
  1.6993079e-01
 -7.1631679e-03
 -3.0524868e-01
  3.5281393e-01
  1.7658303e+00
 -1.7779475e-01
  1.8961281e-02
  4.2298293e-01
 -3.7457860e-01
 -2.4568501e-03
 -5.4039083e-02
  1.6092193e-01
 -1.4615586e-01
 -7.8465067e-02
 -4.4814584e-01
 -1.9141209e-01
  2.2460928e+00
  5.1738180e-02
 -2.7872354e-01
 -1.2871383e-01
  1.8815286e-01
 -1.0365209e-01
  2.4123506e-01
  8.5995919e-01
 -3.2613188e-02
 -4.7183562e-02
  3.9255083e-01
 -3.1894054e+00
  1.6180912e-02
 -1.6644064e-02
 -4.7049680e-01
  2.3847317e-02
  3.4032097e-01
 -1.9323623e-01
  2.2284843e-01
  4.6536195e-01
 -6.7949718e-01
 -8.9848801e-02
  5.5045928e-03
 -3.7729714e-02
 -5.9852660e-01
  9.3303323e-02
 -1.2114070e-02
 -1.7899400e-01
 -1.0777829e-01
 -4.1607419e-01
  1.2764414e-01
 -1.9591190e-01
 -1.1367911e-01
 -2.3758572e-01
 -4.9988707e-03
  1.5270147e-01
  1.1692401e+00
  1.5720384e-01
  2.4567109e-02
 -1.9315322e-01
 -3.2474977e-01
 -3.2317832e-02
 -3.1788397e-01
  4.6779567e-01
  4.2459533e-02
 -3.3242238e-01
  6.1439455e-01
 -1.6367607e-01
 -3.8697180e-01
  2.7351600e-01
 -6.4165667e-02
 -9.2140627e-01
 -3.4583843e+00
  2.1144122e-02
  1.3630424e-01
 -2.0846725e+00
 -7.3369652e-02
 -1.2678257e-02
 -1.8289055e+00
  2.0749619e-02
  1.2714938e-03
  8.3408135e-01
 -1.7799114e-01
  3.5820706e-04
 -8.2332827e-02
  1.1041849e-02
  1.0877302e-01
  7.1229655e-01
 -4.1906396e-01
 -1.5449877e+00
  7.5635761e-02
  3.1473774e-02
  4.1951823e-01
  8.3350971e-02
  4.8775995e-01
 -1.1719626e-01
  1.0354009e-01
  1.8860780e-01
 -1.7359287e+00
  3.1460422e-01
  1.0208043e-01
 -2.4412918e-01
  2.3417592e-02
  1.3897985e-01
 -3.5681315e-02
  1.0452478e+00
  7.7044768e-03
  6.5044588e-01
  1.0697120e+00
 -1.3085409e-01
  1.0084510e+00
  1.4513522e-01
  1.0787284e-01
  4.1198738e-02
 -1.0606270e-01
  1.7151044e-01
  2.4036279e-01
 -1.2457005e-01
  4.7883336e-02
 -3.4483809e-02
  4.2805865e-01
  6.0731504e-02
 -2.9380131e-01
  4.1950944e-01
 -4.1394797e-01
 -1.5184421e-02
 -7.0774567e-01
 -4.2634606e-02
 -2.8614415e-02
 -7.3760742e-01
 -2.7568650e-01
 -3.0929856e+00
 -3.2762308e-02
 -3.2758147e-01
 -3.1435502e-01
  2.4620239e-02
  1.5676783e+00
 -5.6172985e-01
  3.0493003e-01
 -1.6025478e+00
  7.3769933e-01
 -1.7522233e+00
 -3.3285838e-01
 -6.6277838e-01
  2.5368299e+00
 -6.8923980e-01
  1.4263663e+00
  2.4918269e-01
  5.1878142e-01
 -1.6208166e+00
  5.3813122e-02
  3.8612757e+00
 -5.0623518e-01
 -6.8630308e-01
  1.3842745e-01
 -2.5579720e+00
 -1.0241607e+00
 -1.1217624e-02
 -8.9291286e-01
 -2.7776861e-01
  2.4886587e+00
  5.8358494e-02
  1.5834284e+00
  3.4859762e-01
 -4.1345978e-01
 -6.7943031e-01
  2.2107575e+00
  1.2817525e+00
  3.4244492e+00
  3.5959718e-01
  1.0251416e+00
 -1.8930905e-01
 -1.7453839e+00
 -1.5824906e+00
  4.2255419e-01
 -4.7553036e-01
  8.9769743e-02
 -1.3240974e+00
  3.7366161e-01
  2.1227224e+00
  2.2475640e-01
 -1.1029637e-01
 -2.1858866e+00
 -3.9545318e-01
 -1.5782025e-02
 -4.8080319e-01
  2.0414386e+00
  8.0565877e-02
 -3.0675458e-02
  1.0217377e+00
 -6.7488104e-01
  6.4542413e-02
 -1.9654146e-01
 -1.5881495e-01
 -2.5464082e-01
 -2.3040086e-01
 -3.6702815e-01
  1.6342400e-01
 -2.0537913e-01
 -1.3940020e-02
  7.1578093e-02
  2.3592393e+00
 -4.1715091e-01
 -1.9893579e-01
 -3.9288574e-03
  8.5060574e-02
  1.9600916e-01
  1.0661195e-01
 -2.3498885e-01
 -5.0961196e-02
 -2.9144663e-01
  2.9787958e-01
  6.1799452e-02
  1.1968330e-01
  1.3028307e-01
  3.8993847e-02
  3.4202274e-03
  4.8523404e-02
 -2.3057677e-03
  1.3500863e-01
  3.8612553e-01
  2.2928646e+00
  6.6250622e-01
 -1.7360612e+00
 -5.9581465e-01
 -1.1267006e-01
  1.7783679e-01
  6.1902098e-02
 -2.4438611e-01
 -1.1457326e+00
 -2.6975349e-01
 -8.2198018e-03
  3.7251300e-01
  3.2051075e-01
 -1.3544966e-02
  1.6613390e+00
  1.4902517e-01
 -1.0366887e-01
 -6.0875595e-02
 -2.6861611e-01
  1.1316151e-03
  1.5229161e-01
 -1.9241169e-02
 -7.1529791e-02
  7.6473743e-02
  1.2971394e+00
  3.1638372e-01
 -2.2171608e-01
 -2.1295910e-01
 -9.8396027e-01
  2.0341150e-01
 -4.9229026e+00
  1.2653223e+00
 -2.4173224e+00
  6.7450710e-02
 -9.2732392e-02
  9.2565918e-01
  1.4695572e+00
 -3.2563403e+00
  6.7669135e-01
  8.1523883e-01
 -4.2484224e-02
 -1.5745394e-01
 -4.8202062e-01
  1.4059731e-01
 -3.9776675e-02
  3.2863507e-01
 -2.0419453e-01
 -4.9786098e-02
 -6.2438023e-01
 -1.1167999e-01
  6.0597765e-01
 -8.5964799e-02
 -3.0335834e-02
  1.5406808e+00
  1.4870487e+00
  2.4410719e-02
 -1.0724439e-01
 -1.0038820e-01
  1.0389005e+00
 -5.6402147e-01
 -2.3784742e-01
  8.5117471e-01
 -3.6853093e-01
  4.4717136e-01
 -4.0182656e-01
 -3.5291418e-01
 -3.6697358e-01
  7.3205525e-01
  2.6205936e-01
 -1.2474932e-01
 -1.0819590e-01
  1.1500213e-01
  5.3555948e-01
 -4.9608624e-01
 -2.1428065e-01
  3.8482499e-01
 -2.7322108e-02
 -1.6191393e-01
  1.7595926e-01
 -1.1407081e+00
 -1.0008432e+00
 -2.3233199e-03
  3.5973579e-01
  2.4805982e+00
 -1.0921484e-01
 -2.3545490e-01
 -2.5397974e-01
 -1.0096247e+00
 -1.1645520e-01
  9.8517722e-01
 -4.8667303e-01
 -4.0379569e-01
  3.9068678e-01
  2.3159546e-01
 -5.7680202e-01
 -2.7653611e-01
 -2.7225269e-02
  9.9676865e-01
 -6.1365020e-02
 -1.0674549e+00
 -3.7385080e-02
 -1.6817839e+00
  3.8887107e-01
 -2.5791556e-01
 -5.9679240e-01
 -9.3010897e-03
 -2.9759043e-01
 -4.0649280e-01
 -6.3412726e-01
  2.9995656e-01
  7.9231137e-01
  3.8795534e-01
  8.5776353e-01
  3.9428458e-01
 -7.2070785e-02
 -9.0424478e-02
  4.2113289e-01
 -1.1007466e-01
  1.3089930e-01
 -4.2807364e-01
 -4.6485800e-02
  1.8699805e-01
 -1.2416927e+00
 -1.8545237e-01
 -1.3564141e+00
 -1.5842953e+00
  2.2433320e-01
  9.3866223e-01
  8.8810690e-02
  7.6118088e-01
  3.1596735e-01
 -2.6328704e-01
 -2.4274893e-01
  7.6298118e-01
  1.0284114e-01
  4.9528118e-02
 -2.6116297e-02
 -2.8648349e-02
  4.7770213e-02
  9.5321691e-01
  1.2179785e+00
 -1.3478056e-01
  1.2391938e+00
 -1.6203497e-01
  5.3749915e-02
  7.6085716e-02
  5.4058552e-01
  2.7335584e-01
 -1.4209941e-01
  5.4556346e-01
  3.3513639e-02
 -2.3662297e-01
  4.5350209e-01
 -6.2130154e-03
 -3.8661972e-01
  1.0687646e-01
 -8.4033221e-02
 -5.2441788e-01
 -3.7060251e+00
 -2.2112118e-01
  2.7270094e-01
 -1.2411259e+00
 -1.7297429e-01
 -6.1428660e-01
 -1.7802081e-01
 -7.8754210e-01
 -6.6393495e-02
 -3.1273283e-02
 -7.7111903e-03
 -4.7730457e-02
  1.2586474e-01
 -4.0626209e-02
 -2.4986847e-03
 -2.7831572e-01
 -3.0532810e-01
  1.9978908e+00
  1.9371410e-01
 -1.3229458e-01
 -1.3388513e-01
  1.0010279e-01
  1.3010378e-01
 -2.9853417e-03
 -9.2117690e-02
  7.3338848e-01
 -1.8828456e-01
 -1.1782511e-01
 -6.5677428e-01
 -3.3842462e-01
 -8.1539899e-01
 -3.1158522e-01
 -4.9452733e-02
  5.1835221e-01
 -1.6597057e-02
  1.2462602e-01
 -1.5925072e-01
  1.5058246e-01
  3.5797577e-02
 -4.2768030e+00
 -7.7415073e-01
  7.2771698e-01
 -2.9077327e-01
 -3.6604413e-01
  2.5387940e-01
  3.2525945e-01
 -4.1533668e-02
 -1.3749458e+00
 -8.5672431e-02
  8.4785187e-01
 -3.2824740e-01
 -4.5378223e-02
  1.3479519e-01
 -4.6300463e-02
  2.9054481e-01
  4.9470714e-03
 -1.2271529e-01
  2.8904095e-02
 -2.6757810e-01
 -4.7529185e-01
 -1.8100893e-02
  9.5112577e-02
  1.6635323e-01
  1.9959475e-01
  1.2677911e-01
  1.8824318e-01
  2.3846263e-02
 -1.1207157e-01
 -4.1859111e-01
  2.2396487e-03
 -5.2500045e-01
  2.6270422e-01
 -2.6534575e-01
  7.8475957e+00
 -2.4985407e-01
  1.0238068e-01
 -4.6643294e-02
 -9.3745887e-02
 -2.5429159e-01
  3.5859856e-01
  1.4496320e+00
 -1.2166062e-01
  6.2600482e-01
  5.3635713e-02
 -3.8097623e-01
 -1.3584940e-01
  9.9276561e-01
  7.1551174e-02
  2.6739651e-01
 -2.4774875e-02
 -3.4163776e-01
  2.0971127e-01
 -1.4251167e+00
 -9.6584946e-01
  1.2252360e-01
 -2.5265366e-01
 -4.2646492e-01
  2.1190936e-02
 -1.0258249e+00
 -4.4992977e-01
  3.8062636e-02
  2.2748156e-01
  2.2624201e-01
  2.5654608e-01
  1.0044202e+00
 -9.7383289e-03
 -1.2842318e-01
 -6.4637315e-01
  4.8798580e-02
  4.4925073e-01
  1.2323248e-01
 -2.5781829e+00
 -2.1815366e-01
 -3.8930848e-01
  2.4999073e-01
 -4.9534434e-01
 -1.2748359e-02
  1.0259992e-01
  8.5717952e-01
  2.1803312e-02
 -7.9070486e-02
  8.0924995e-02
 -4.8970642e+00
 -3.2382982e+00
  2.1042771e+00
  6.1877936e-01
  4.0768394e-01
 -6.0775971e-01
 -2.0156188e-01
  8.8330440e-02
  6.5029062e-02
  4.1980922e-01
 -1.4500622e-01
  1.0120391e+00
 -3.4603912e-01
 -2.3662864e-01
 -4.7240563e-02
 -3.0502456e-01
  1.4239638e-02
 -3.3768121e-02
  2.4055033e+00
 -1.6817239e-01
 -2.3441229e-02
 -1.4689021e-01
  1.7095011e-01
 -2.2581224e-01
  4.5770309e-03
 -5.8789138e-02
 -3.5114437e-01
  1.8741234e-01
  6.4935118e-01
  1.1406337e+00
 -1.1182003e-01
 -4.6746677e-01
 -1.6395983e-01
  1.8626271e-02
 -4.1604298e-01
  3.5285112e-01
 -3.9739636e-01
 -7.7982444e-01
  4.1444939e-02
 -9.2930025e-01
  3.5565346e-01
 -4.1277144e-02
  6.9286454e-01
  4.6153417e-01
 -4.2405489e-01
  2.6504561e-01
  4.9126363e-01
  1.2358949e-01
 -8.5005897e-01
  4.9046889e-01
 -3.5377759e-01
 -1.1522214e-01
 -9.2407659e-02
  8.8069654e-01
  1.1302045e-01
 -3.0620489e-01
  3.0734599e-01
  5.2210939e-01
 -1.3141078e+00
 -6.2903911e-01
 -4.1030803e-01
  1.5195300e-02
  5.5094916e-01
  5.2169580e-02
 -3.5742053e-01
  4.0679744e-01
 -1.6338472e-01
  3.1363124e-01
  6.2689833e-02
 -4.0755770e-01
  1.2786976e-01
 -3.9140928e-01
  4.6297541e-01
 -8.3515966e-01
 -6.4647168e-01
  6.3171923e-01
  7.1830653e-02
 -4.8386510e-02
  9.0227228e-01
  7.6841511e-02
  1.0851579e-01
 -3.3366328e-01
 -1.1334522e+00
 -2.8935722e-01
  8.0297224e-02
  1.0962463e-01
  5.9084296e-01
  2.8101060e-01
 -2.8042167e-01
  5.7875675e-01
 -3.0172434e-01
  4.8817351e-01
  5.7471704e-01
  1.5660059e-02
 -1.3543545e-01
  1.9436608e-01
  9.2791401e-02
  2.9070857e-01
  1.2017254e-01
 -1.8870750e-01
  4.4082594e+00
  5.9314811e-01
 -2.1413511e-01
  1.1274265e-01
  2.5114727e+00
  1.7064208e-01
 -1.0636449e+00
 -2.5098625e-01
  1.3154845e-01
  1.9115101e-01
 -8.7450862e-01
 -8.2294995e-01
 -1.1942807e-01
  3.1226283e-01
 -5.6183573e-02
 -2.0402510e+00
  5.2236408e-02
  3.8837153e-01
 -7.7852172e-01
  1.5345623e-01
 -2.7830982e-01
  3.4925108e+00
 -1.1032286e-01
  1.7739301e+00
 -1.7289290e-01
 -3.6131722e-01
  6.4514510e-02
 -1.1864629e+00
 -2.2651249e-01
 -7.9813784e-01
  1.0461057e-01
  1.8181851e-03
 -1.2121395e-01
  9.9695846e-02
 -2.0143946e-01
  1.4366058e-01
 -7.2562046e-02
 -9.0026343e-01
 -1.2203922e-02
 -1.2093574e-01
 -5.5301651e-02
  7.9522043e-01
 -2.4804049e+00
 -6.4209324e-01
  3.7242692e-02
  2.0746965e+00
  1.1419578e-02
 -2.0969572e+00
  6.7303181e-01
  3.4693956e-01
 -7.7205694e-01
  8.7473077e-01
 -8.2998157e-02
 -1.5235226e+00
 -1.8021622e-01
  3.0281559e-01
  1.1600071e+00
  5.4900658e-01
 -3.6773067e-02
 -1.5033424e-01
 -6.5333200e-01
  1.4110867e+00
  2.2590199e+00
 -1.0322520e+00
  1.1826307e-01
 -4.9642783e-02
  5.1960563e-03
  9.8765683e-01
 -2.6916984e-01
  1.5564859e-01
 -1.2825060e-01
  5.3915236e-02
 -2.2557077e-01
  2.9617126e+00
  3.0483934e-01
  2.5593638e-01
 -1.6620249e+00
 -3.9206940e-01
 -5.7683957e-01
 -8.4013693e-02
  2.9474881e+00
 -2.0355178e-02
  2.1634161e+00
 -9.5921569e-02
 -3.6833885e-01
 -1.1864650e-01
  2.0127612e-01
  2.0478304e-02
  4.3602318e-01
 -1.8054855e-01
 -1.1081427e-01
  1.5758933e-02
  3.4892794e-02
 -1.0855462e-01
  2.3788614e-02
 -1.0439985e+00
 -6.1045206e-01
  4.7151912e-02
  2.0007787e-02
 -3.8842615e-02
  6.3976303e-02
  5.9868164e-02
 -2.3295262e-01
 -4.6290162e-01
  5.6695037e-02
 -3.0209143e+00
 -5.5117384e-02
  2.3243040e-01
 -1.4788923e-02
  4.7722799e-01
  1.6639033e-01
  1.5941431e-01
 -6.4550161e-02
  1.0819773e-03
  8.6319350e-02
 -3.1339940e-01
 -1.9105835e-01
  1.5554556e-01
  5.1708631e-02
  8.3470970e-02
  2.9593968e+00
  1.6817298e-02
  2.9412899e-03
 -1.5654123e-01
 -1.1008129e-01
 -2.9788864e+00
  1.6032412e+00
 -1.0796773e+00
 -2.2744456e-01
  2.2164613e-01
 -7.2513834e-02
  1.7198075e-01
 -2.2823694e-01
 -5.9084457e-01
  2.6073156e-02
  2.3697996e-01
  5.9326131e-02
  8.5867308e-02
 -1.8436720e+00
  1.8906624e+00
  1.9807162e-02
  4.7329393e-01
  2.8918021e+00
 -2.8391862e-01
 -3.8432622e-01
 -8.7238193e-02
 -2.1169810e-02
  2.5406817e-02
  2.4739559e-01
 -5.5125351e-03
  9.5166571e-02
 -9.3331563e-01
  2.6573747e-01
  8.1707560e-02
  1.2754664e-01
 -7.1030962e-01
  3.7284389e-01
  1.3199377e-01
  1.7495532e-02
  1.4273144e-01
  3.6158738e+00
 -4.0926814e-01
 -1.0856196e+00
  1.5770645e-01
 -3.7016785e-01
 -2.6946785e-03
  1.4365092e-01
  2.4251753e-02
 -4.3792945e-01
 -3.6687347e-01
 -8.3452985e-02
  3.3697379e-01
 -1.2531963e-01
 -2.9816067e-01
 -2.1014856e-01
 -4.1108955e-02
 -3.4849170e-01
 -1.3653438e+00
 -1.6279355e+00
 -7.9241163e-01
 -4.7320697e-02
 -1.4541980e-02
 -7.5481489e-02
 -4.5245986e-02
 -2.7623826e-01
 -3.1947669e-02
  5.3419661e-02
  6.4466998e-02
 -8.2656801e-01
 -2.1468942e-01
 -8.5286170e-02
  4.2286900e-01
  9.6959400e-01
 -5.2781653e-02
  2.5847489e-01
  3.5829926e-01
  1.4749531e-01
 -1.5775609e-01
  4.3992117e-01
 -7.1420997e-02
  1.2220987e+00
  9.8062128e-02
  4.8170912e-01
  1.0179474e+00
  3.0937976e-01
 -4.3572143e-01
  5.8292683e-02
 -1.1738318e-03
  1.2679839e-01
 -2.8002274e+00
  1.4578457e-01
 -9.6734732e-02
 -2.1812840e-01
 -7.3953366e-01
  7.6099205e-01
 -4.1756564e-01
 -2.7639949e-01
 -2.5091568e-02
 -1.0285831e-01
  3.7866022e-02
 -1.8292260e-01
  7.3205985e-02
 -2.5398713e-02
 -1.0839377e-01
  4.4540275e-02
  1.6551732e-01
  1.6497675e-01
 -8.9611009e-02
 -6.4591408e-01
 -1.5945055e-01
  2.2538373e-01
  6.1081938e-02
 -2.5619817e-01
 -1.9650798e-01
  2.4058612e-02
  1.5999460e+00
 -2.1618403e-01
  1.0452166e-01
 -4.8573473e-01
  5.4030575e-02
 -1.0350490e+00
 -2.4189700e-01
 -1.1667017e-01
  1.3144001e-01
  4.3386474e-02
 -1.0183544e-01
  4.3105304e-01
 -1.5148675e-01
  1.2834197e+00
  1.1393851e-01
 -1.0689300e-01
 -8.0962889e-02
  1.0243181e+00
 -4.1439715e-01
 -5.8790731e-01
 -6.2636691e-01
  3.0716145e-01
  6.6766506e-01
  2.0495208e-01
 -1.0192426e-01
 -1.2800361e+00
 -2.6021566e-02
 -1.7312737e-01
 -4.8618573e-01
 -5.1386982e-01
 -2.1010286e-01
  1.0389876e-02
 -9.9723923e-01
 -6.9364697e-01
  2.0908718e-01
  1.9237194e-02
  1.5735668e-01
 -1.7518196e-01
 -5.7639742e-01
  9.7952777e-01
  5.9044983e-02
  1.6555846e+00
  1.9343097e-02
  2.9230878e-01
  7.0683517e-02
  2.5811315e-01
 -4.8319361e-01
 -3.5604142e-02
 -3.8513765e+00
 -1.2471503e+00
  4.7917303e-01
  5.4651745e-02
  2.4183451e-01
 -3.8759489e-02
  2.7687359e-01
  1.3592811e-01
 -1.6367863e-01
  4.2205331e-01
 -4.6504831e-01
 -1.0906523e-01
 -5.2890861e-01
  6.8265431e-02
 -5.3396963e-02
  7.1238495e-02
  1.0290570e-01
  2.4283402e-01
  1.0569884e+00
 -1.7990015e-01
  6.0112405e-01
 -3.7491569e-01
 -6.6454485e-02
  2.4165405e-01
 -1.9856159e-01
  1.9068143e-01
 -3.1051034e-02
  1.6562794e-01
 -5.5873604e-03
 -2.2297954e-02
  2.9281324e-01
 -1.9576605e-01
 -2.6944026e-01
 -2.0574627e+00
  3.1909093e-01
  1.4610533e-01
 -7.4090290e+00
  1.5602787e-01
  1.5187098e-01
  1.7732011e+00
  9.1882266e-02
  2.7080250e-01
  2.0140943e-01
 -1.3263552e-01
 -2.4927035e-03
  5.8589537e-02
  1.2049952e-01
  6.9146091e-01
  4.6147311e-01
 -1.2578814e-01
 -2.4101961e+00
 -1.8082350e-01
 -6.9380939e-01
 -4.6297628e-02
 -6.1106563e-01
 -1.0861665e+00
 -8.0033295e-02
 -6.3520628e-01
  1.9288051e-01
  5.8650267e-01
 -1.4159429e-01
 -2.1261115e-02
 -6.9823951e-02
  1.5408854e+00
 -2.0310339e-01
 -4.6443421e-01
  9.7655639e-02
 -5.3611957e-02
 -8.8651050e-03
 -6.6986136e-02
  2.6549780e-01
 -3.2535592e-01
 -1.9020361e+00
  2.1072294e-01
 -5.4075152e-02
 -2.4473390e-01
 -1.5807487e-01
  8.3287132e-01
 -1.0395067e-01
  5.2564200e-02
  4.4176188e-01
  1.0744407e+00
  8.9772433e-01
  5.5876607e-01
 -1.1359284e+00
 -2.4928235e-02
 -1.4738348e+00
 -1.0666319e+00
 -3.9641553e-01
 -1.5531114e-01
  2.2184840e-01
 -1.9311309e+00
  6.7852356e-02
 -1.6617261e+00
 -2.3438185e-01
  1.4420261e-02
  1.7683327e-02
  2.3021489e-02
  1.8053739e-01
 -3.7250561e-01
  6.1980832e-02
 -1.0135053e-01
  3.5898075e-01
  8.0909485e-01
  3.8605773e-01
 -6.3746178e-01
 -1.6703974e-01
  5.5799800e-01
  1.9039793e-01
  9.7812986e-01
 -4.0856448e-01
  2.7255061e-01
 -5.6898224e-01
  5.2516890e-01
  4.7827668e-02
  1.6334704e-01
 -4.1335363e-02
  7.2870129e-01
  1.6366516e+00
 -3.6103699e-01
 -2.1305358e-02
  1.9030546e+00
  8.7469719e-02
 -8.3467521e-02
 -4.6017277e-01
  2.4465775e-01
 -5.1068187e-02
  4.1342590e-02
  8.2815640e-02
 -2.4099407e-01
 -1.7257874e-01
  1.3728100e-01
 -7.1533032e-02
 -6.4418238e-01
 -6.4224529e-01
 -2.0437692e-01
 -1.4934938e+00
 -4.1352801e-02
 -1.2461965e+00
 -7.4704909e-01
  1.7197473e+00
 -4.3353643e-03
  1.4761696e+00
  4.0830749e-01
 -2.7402434e-01
  6.4315128e-01
 -5.1630282e-01
  2.4048690e-01
 -9.6459001e-01
  7.1772814e-01
  4.4448804e-02
 -2.0339917e-01
  3.7534779e-01
  1.8681848e-01
  1.3462432e-01
 -1.4498965e+00
  1.2914497e+00
 -7.8451878e-01
  4.5378524e-01
 -1.7776828e+00
 -5.6472915e-01
  6.0634412e-02
  3.4584871e-01
 -4.8957899e-01
 -7.2478890e-01
  1.7936693e+00
  1.8551145e-01
  8.5793501e-03
 -9.5738280e-01
 -1.2328727e-01
  1.7807605e+00
  4.5600912e-01
  1.7698964e-01
  4.2337731e-01
  5.6009144e-01
  9.8623164e-02
  6.0486978e-01
 -1.6961776e-01
 -4.8361570e-01
  9.7276706e-01
  1.1593234e-01
 -7.6611525e-01
 -4.6950921e-01
 -1.2468191e+00
  7.3656499e-01
 -5.4259515e-01
 -3.6724901e-01
 -1.9314348e+00
 -3.4246758e-01
  1.3053346e-01
 -3.3795685e-01
  1.4327526e-01
  1.6510539e+00
 -3.8325298e-01
 -2.8091389e-01
  3.3910852e-02
  4.5465845e-01
 -3.7520914e+00
 -8.0854118e-01
 -4.2214143e-01
  9.5232412e-02
  3.9481022e-03
 -3.0373719e-01
 -1.4172737e-01
 -3.0458111e-01
  4.7918186e-02
  3.2509094e-01
  4.3067720e-02
 -1.4365344e-01
 -7.0665574e-01
 -5.8835626e-01
 -1.5745319e-01
  2.1281053e-01
 -1.3981322e-02
 -2.9620886e-01
  2.8147608e-01
 -1.7679764e-01
 -1.1349351e-01
  1.3352552e-01
 -1.4531268e-02
  1.8137498e-01
 -4.7172815e-01
  5.6168865e-03
  2.2368282e-01
 -1.6056392e-02
  3.6992528e-02
 -7.8435726e-02
  6.5182310e-01
 -6.6705584e-03
 -7.0959046e-02
 -4.0909573e-02
 -2.4835740e-01
 -3.9227423e-01
  6.2022019e-02
 -1.8855235e-01
 -7.9787999e-02
  5.4124588e-01
 -3.0601877e-01
 -4.3466228e-01
  1.7616382e-01
 -4.9353039e-01
  2.5304645e-01
 -2.9543489e-01
 -7.9285997e-01
  1.3204936e+00
 -3.2916051e-01
  1.2481619e-01
 -1.0309897e-01
 -1.7104216e-01
  1.0611755e+00
  1.8088164e+00
  1.1968725e-01
  2.6639800e+00
 -4.2512390e-01
 -1.7693616e-01
 -5.6798077e-01
  1.5217760e-01
  9.6223754e-01
  1.5416056e+00
  1.4975043e-01
  8.8947856e-01
  1.1857575e-01
  1.4756447e+00
  1.9532971e-01
  1.5962125e-01
  6.0175550e-01
 -3.8575834e-01
  1.1142938e+00
 -2.2983542e-01
  7.8758292e-02
 -2.2559690e-01
  1.4616147e-02
 -2.8694099e-01
  6.8937711e-02
  1.8903619e-01
  1.5587586e-01
  1.2234045e+00
  1.2822045e+00
 -5.7466382e-01
 -1.9868381e+00
 -8.7226772e-01
  1.1037298e+00
 -3.4672275e-01
 -8.7121820e-01
  3.5980254e-01
  5.3087283e-02
  2.2171973e-01
 -1.4209857e+00
  9.1586344e-02
 -3.0585973e+00
  1.0368752e+00
  4.9371207e-01
  1.5698488e-01
  1.4410266e-02
  5.0018632e-01
  5.1592630e-01
  2.5859043e-01
  1.9092104e-01
  8.7217212e-01
  4.7492471e-02
  2.2051308e-01
 -3.7184355e-01
 -1.0020220e+00
 -9.5696010e-02
  6.9545306e-02
 -1.2231553e-01
 -2.1108355e-02
 -3.3275867e-01
  8.9054637e-02
  2.9061148e-02
  3.9976150e-02
 -8.3001131e-01
  2.2727287e-01
 -7.1997918e-02
 -4.9213506e-02
  1.1315172e-01
 -4.5207030e-01
  6.5310514e-01
  3.2300489e+00
 -1.3085118e-01
 -3.6583215e-01
  1.2189093e+00
 -6.0094472e-02
 -2.0104645e-02
  1.3719146e-01
  5.0630018e-02
  2.7802411e-02
 -5.2685186e-04
  3.6319220e-01
 -1.3981675e-01
  5.2117938e-01
 -5.1365732e-03
 -2.6685864e-01
  1.8880865e-01
  9.8748088e-02
 -4.8151270e-02
  6.3500321e-01
 -4.7642726e-01
 -1.4717919e-01
 -1.4776748e-01
  1.8327439e-01
  2.9320959e-02
  5.6146294e-01
 -5.5323686e-02
  1.8631585e-01
  7.6772764e-02
  1.8478309e-01
  4.3223858e-02
  1.6013997e-02
 -7.3064305e-02
 -5.2652001e-01
  1.4180525e-01
 -1.5878279e-02
  3.5509810e-01
  3.4248388e-01
 -2.0806496e-01
 -2.4670845e-01
  1.7641477e-01
  1.6701882e-01
 -4.5345275e-04
 -2.3956613e-01
  7.9951368e-02
 -2.5757813e-01
  3.1315672e-01
  3.0065092e-01
  9.2154983e-03
 -1.6988322e-01
  1.3930930e-01
 -4.2970091e-02
  9.4326243e-02
 -8.2368128e-02
 -1.7400200e-02
 -5.3312618e-01
 -1.5976568e-01
  2.0495673e-01
 -5.5537885e-01
  7.7307445e-01
  9.4312802e-02
  1.5516120e-01
 -8.9705639e-02
 -2.1915326e-01
 -4.4657066e-02
 -2.2995366e-01
  3.0208254e+00
  5.6753036e-02
 -2.5085294e-01
  1.2683970e-01
 -1.0483111e-01
 -3.2723367e-02
  2.2629521e+00
  4.7669885e-01
  1.3744323e-01
 -1.4252725e-01
 -1.8033408e-02
  4.2784076e-02
  2.1444692e-01
 -4.1466689e+00
 -2.5096714e-02
  6.0533279e-01
 -1.1034411e-01
 -1.9584661e-02
  4.0377381e-01
  1.0412267e-01
  4.7085348e-01
 -2.6118654e-01
 -6.2162608e-01
  6.1248142e-02
 -3.2686499e-01
  1.9059870e-01
 -6.7582017e-01
  4.2066732e-01
  6.0536563e-03
  3.1745965e+00
 -7.0429042e-02
  1.6210982e+00
 -3.7039959e-01
 -2.4377367e-01
  8.8846087e-01
 -1.0402139e-01
 -1.6323209e-01
 -6.7470294e-01
 -3.1583053e-01
 -1.9126959e-01
 -6.1811817e-01
  4.0783916e-02
  3.8151938e-01
  2.9189706e-02
  4.4614154e-01
  1.7914471e-01
 -6.6651994e-01
 -4.4796702e-01
 -2.2517240e-01
 -1.7049557e-01
  6.4893357e-02
 -1.3079455e-01
 -2.3226151e-02
 -6.6837944e-02
  2.2740741e-01
 -6.3465461e-02
 -1.1303302e-01
  1.4315885e-02
 -6.9619876e-01
  1.9634476e-01
  6.7909725e-02
  1.4313929e-01
 -7.0396727e-01
 -6.8393278e-01
  4.1073537e-01
  4.0579027e-01
 -2.1736863e-01
  2.3901900e-02
 -4.1401201e-01
  2.2582369e-02
 -2.9833266e-01
 -2.2746199e-01
  1.7629083e+00
 -3.0103138e-02
  1.0647202e-01
  1.0227334e+00
 -4.3239221e-01
 -1.5161097e-01
 -2.4582243e+00
  3.6096621e-01
  7.4936837e-01
 -8.9454420e-02
 -1.1154348e-01
 -8.1383392e-02
  2.2323434e-01
  7.5235122e-01
 -1.0699840e-01
  6.3340515e-03
  5.9762117e-02
 -5.0356537e-01
 -4.5685214e-01
  2.5507009e-01
 -1.0961974e-01
 -1.5881404e-01
  4.3313254e-02
  9.7727075e-02
  4.2883541e-02
  3.4040201e-03
  4.7630265e-01
  4.3187708e-01
 -7.8003740e-01
 -2.1944110e+00
 -6.7230381e-02
  1.7412622e-01
 -1.8063243e-01
 -7.2743729e-02
 -6.8953359e-01
 -1.7391615e-01
 -2.3432842e-01
 -2.6392877e-01
  4.1434526e-01
  2.0139462e-01
  6.4385511e-02
  8.3673932e-02
 -9.5990278e-02
  1.3521670e-01
  1.1530195e-01
  6.5937184e-02
  5.6323725e-01
  1.1825169e-02
  3.0768454e-01
 -2.1130176e-01
 -1.0717694e-02
 -7.3424205e-02
  6.2406410e-02
 -2.9640077e-02
 -7.6762304e-02
 -2.8446177e-01
 -1.5312185e-02
 -3.5244022e-02
 -4.3950148e-02
  6.8233901e-01
  7.2995079e-01
  2.6972315e-01
  2.2562332e-01
 -5.6893432e-01
  2.2032966e-01
 -2.1528234e+00
  2.5718758e-01
  3.6474288e-01
  1.1664208e-01
  2.6513913e-01
 -1.4313294e-01
 -9.7607112e-01
 -9.6091151e-02
  2.6445656e+00
 -4.0994663e-02
  8.8493019e-01
  6.0733151e-02
  1.5870495e+00
 -3.5229336e-02
  1.3674334e-01
  1.5512275e-03
 -3.2513821e-01
 -7.0232332e-01
  2.6148582e-01
 -1.9288988e-01
 -1.0993323e-01
 -9.0282679e-02
  1.1937891e+00
  1.9881947e+00
  9.3556553e-01
  3.7951884e-01
  2.1935671e-03
 -5.7005978e-01
 -2.7310893e-01
 -5.1008177e-01
  2.4154833e-01
  1.6231552e-01
 -9.3603514e-02
  1.0700755e-01
  2.3282364e-01
  6.6969857e-02
 -1.4937228e-01
  6.5524656e-01
 -9.3823808e-01
  5.4713398e-02
 -2.3239334e-01
  2.0574276e-01
 -7.0592701e-02
  5.4210713e-03
 -1.9585134e-01
 -9.4837613e-02
 -1.0414171e-01
 -6.5210879e-02
  1.4300489e-01
  8.2191825e-01
  1.5650155e-02
 -1.7296204e-01
 -2.0148344e-01
 -5.6756638e-02
  3.1326879e-02
 -3.0364785e-01
  2.7957553e-01
  7.8650795e-02
  7.7125281e-02
 -8.0774777e-02
  1.3854139e-01
 -7.2305843e-02
 -8.6265355e-01
 -2.7734363e-01
  2.8751465e-02
  8.2056630e-01
  9.4318765e-01
 -6.6315907e-01
 -5.9390340e-02
  6.3234597e-01
 -3.3156347e-01
 -4.2971045e-01
  5.9644181e-01
 -1.6601656e-01
 -6.9705494e-02
  1.1679029e-01
 -2.8017983e-01
  7.9927284e-01
 -1.9418085e-01
 -1.5340520e-01
  1.2038879e+00
  3.2609418e-02
 -6.1861970e-02
 -7.3488933e-01
  3.1781149e-01
 -2.9019672e-01
  5.6959450e-01
 -5.0780630e-01
 -4.0267333e-01
 -8.5202205e-01
  1.6594025e+00
  6.8032689e-02
  9.7290345e-02
 -3.0227833e+00
  4.1385931e-01
  1.1305355e+00
  5.8112781e-02
  7.6575172e-01
 -4.8298451e-01
 -1.4225756e-01
 -7.7786312e-02
  1.4801678e-01
 -5.7425088e-01
 -9.2266098e-02
 -4.4063523e-02
  1.2462259e-01
 -3.7264338e-01
  1.1145205e+00
  3.4954143e-01
  1.4634083e-01
  2.1362627e+00
 -9.3191707e-01
  2.5197622e-01
  3.4446307e-02
  2.2813921e-01
  3.6967808e-01
  1.7593627e-01
  2.8096899e-01
  3.3455025e-02
  1.5611591e+00
  3.7500665e-02
  1.9370147e+00
  1.4599696e-01
  2.9352335e-02
  7.7162519e-02
  3.8869362e-02
 -7.1886337e-01
  3.2835543e-01
 -4.4713581e-01
  3.1276587e-01
 -2.6128390e-01
  3.3339012e-02
 -1.5399624e-01
  7.4215963e-02
  4.7760025e-02
 -3.7168476e-01
 -2.6358575e-01
 -2.0547096e-01
  1.2906274e-01
 -2.5644949e-02
 -3.3900905e-02
 -1.7267655e+00
 -1.7859289e-01
 -2.4087804e-03
 -3.2271191e-01
 -9.1732509e-02
  1.5322512e-02
 -6.1938363e-01
 -1.1534706e+00
  3.3907694e-01
 -9.8005213e-02
 -5.3982300e-01
 -2.9440126e+00
 -3.0705607e-01
 -9.1129683e-02
 -2.8064700e-02
 -3.1333111e-02
  4.3721715e-01
  1.6657872e-01
  4.5780846e-01
  3.6724497e-02
 -9.2925057e-02
 -4.5935690e-01
  6.5315999e-02
 -8.0454701e-01
  2.1435611e-01
 -5.5058684e-02
 -3.5996071e-01
  2.1703775e-01
 -4.7706440e-01
 -1.6885732e-01
 -1.7356870e-03
 -9.0591073e-01
 -8.0446374e-01
 -1.3699695e-01
 -4.3077689e-01
 -1.2018528e+00
  1.7303360e-01
 -3.3670774e-01
 -7.1514368e-01
  4.1200772e-01
 -5.2857105e-02
  2.3156159e-01
  3.0563223e-01
 -8.9245550e-02
  2.6207045e-01
  3.9034307e+00
 -2.9244602e-01
  1.1704691e-01
  4.7653742e-02
  1.9461450e-01
 -3.3331409e-02
  5.8449692e-01
 -1.6997291e+00
  1.0562830e-01
 -4.0246749e-01
  2.1098340e-01
  2.5765858e+00
  1.6095878e-01
 -2.2157729e-01
  3.7681403e+00
  5.7312571e-02
 -9.1653511e-02
 -7.7772146e-01
 -3.5591519e-01
 -3.0929467e-01
  2.3078108e+00
 -2.6316205e-01
 -2.3917351e-02
 -1.5820872e-02
  9.3929872e-02
  1.2567912e+00
  3.7068716e-01
  2.2180538e-01
 -2.2810034e-01
 -6.4294672e-01
 -9.0776086e-02
  2.4875672e+00
  3.0730700e-01
 -4.2906970e-01
  3.9095196e-01
 -5.4697186e-01
 -8.6097084e-02
 -7.1118332e-02
 -1.4330663e-01
  1.1491603e+00
  5.2317921e-02
 -5.8661747e-01
  3.1742413e-02
 -7.2390176e-02
  1.8229848e-01
 -7.4527130e-02
  7.6970264e-02
 -1.2546107e-01
  4.1444120e-01
  6.1877000e-01
 -6.8966344e-02
 -5.4255087e-02
 -5.9735966e-01
 -5.1795498e-02
 -2.9049804e+00
  1.1055169e+00
 -6.6256022e-01
  1.1349762e-01
 -5.9289205e-01
  1.7000175e-01
 -8.5131451e-02
  7.7059066e-01
  2.9120293e-01
 -6.5352595e-01
 -3.3714819e-01
  1.2406183e-01
  1.3343725e-05
 -6.2279814e-01
  8.9187390e-01
  1.4318144e-01
 -2.6913102e+00
 -4.6362770e-01
  2.2544247e-01
  1.0154280e-03
  6.6490449e-02
  1.3708630e+00
 -5.6979343e-02
 -7.3736191e-01
  5.2685118e-01
 -1.9669500e-01
  9.0394773e-02
  3.6338624e-02
  6.5664761e-02
 -1.2044979e+00
 -7.3329888e-02
 -9.3757167e-02
 -6.0729152e-01
  3.1872538e-01
 -2.3042412e-02
 -1.1917517e-01
 -6.6544659e-02
  1.0326736e-01
 -9.7094573e-02
 -9.8354146e-02
  2.6371235e-01
 -2.2025083e-01
 -2.4889754e-02
 -1.6630268e-01
  2.7073834e+00
  3.7492841e-01
  6.0016368e-02
  3.4975305e-01
  3.7746233e-01
 -4.9937540e-03
 -2.2009534e-01
 -3.7828529e-01
  4.3819744e-02
  2.1381587e-01
  6.5439619e-02
  1.9068769e-01
 -3.2046586e-01
 -1.5746634e-01
 -2.1995260e-01
  1.6647738e-01
  9.4806105e-01
 -1.6983980e-01
  1.7670605e-01
 -6.2693006e-01
  3.6627123e-01
 -2.6098624e-01
  6.9696791e-02
 -1.4815557e-01
 -1.2944265e-01
 -5.4911687e-03
  4.1155872e-01
 -1.5781116e-01
  7.6769590e-02
 -2.4559334e-01
 -1.7504728e-01
 -1.3874751e-02
  7.7099937e-01
  5.0092399e-01
  7.8039696e-03
  4.8330569e-01
  6.9979116e-02
 -4.3449607e-02
 -5.7035793e-02
 -9.6832318e-03
 -1.2848718e-01
 -1.0096355e-01
  3.5398297e-02
 -1.7821314e+00
  2.2661448e-01
 -9.7914055e-02
 -3.3289468e-01
  2.1303160e-01
  1.0517080e+00
 -1.0434121e-01
  9.0433598e-02
 -1.1881401e-01
  5.6016445e-02
 -2.6512244e+00
  1.6102629e-02
 -2.4446489e-01
  4.0090361e-01
  5.8869225e-01
 -3.2930231e-01
 -6.8744344e-01
 -6.6530728e-01
 -1.8848094e-01
  1.6236027e-01
 -1.8165259e-01
 -3.9407313e-01
  2.2291112e-01
  5.9966785e-01
 -8.9962810e-01
  8.8689673e-01
  8.5361397e-01
  1.1279032e+00
 -1.4196440e-02
  4.1140294e-01
 -2.1636140e-01
  1.4513701e-02
  1.9994080e-01
 -2.9283458e-01
  1.3644637e+00
  1.1862163e-01
 -8.7829992e-02
 -9.1558382e-02
 -5.7132930e-02
 -2.4331783e-01
 -7.8385860e-02
 -4.5814344e-01
 -7.2777696e-02
 -3.1289712e-01
  4.2151497e-03
 -5.6245708e-01
 -1.8211196e-01
  5.0560287e-03
 -1.0105510e-01
 -2.3857327e-01
  5.2378958e-01
 -1.6831523e-02
  9.5118478e-02
 -1.8021969e-01
 -4.1435072e-01
 -9.1190380e-01
  3.6081287e-01
 -1.6518456e-01
 -8.4194845e-01
 -1.7559361e-01
  4.7116706e-01
  1.0749092e-01
 -2.4772242e-02
 -3.8610509e-01
  3.6104131e-01
 -3.3601280e-02
 -1.0655255e-01
  9.7639728e-01
 -5.3184405e-02
  2.1002243e-01
  6.7824286e-01
 -4.6422046e-01
  6.5867839e+00
  4.9489397e-01
  7.4676028e-03
  2.5640691e-02
  3.7666445e+00
  1.8900235e-01
  3.5572851e-01
 -2.0982514e-01
 -3.1744441e-01
 -2.8771585e-02
  2.3980719e-01
 -1.3098867e-01
  2.0554328e-01
  3.9373136e-01
 -1.0406742e+00
  5.2444863e-01
  7.0363641e-02
  1.2088250e-01
  2.4245928e-01
  2.5173256e-02
 -2.3810473e-01
  1.4607217e-02
  2.0350828e+00
  2.2669358e+00
  2.9098004e-01
 -2.3668720e-01
  5.2814331e-02
 -3.3228463e-01
  2.7176106e-01
  2.2772622e+00
  3.9485136e-01
  4.6637025e-02
  5.3746879e-02
 -1.3029453e-02
 -8.7605923e-02
 -1.8021065e-01
  1.9988467e-01
 -6.1950999e-01
  1.1502920e-01
 -2.1958118e-02
  2.3900589e-01
 -4.3920159e-01
 -5.8487143e-02
 -6.6049471e-02
  9.3309367e-01
 -1.4603595e-01
  1.3323128e-01
 -1.0001997e-01
 -2.1212345e-01
 -5.2069017e-06
  6.3283360e-01
 -3.9869618e-01
  1.6894412e-01
  2.9362762e+00
  6.9733894e-01
  1.2424031e-01
  2.1818608e-01
  3.3532035e-02
  5.1215386e-01
 -1.6964341e+00
 -2.6718426e-02
 -7.4272555e-01
 -4.3631617e-02
  5.5290829e-02
 -4.2035398e-01
 -9.4995797e-02
 -3.0876061e-01
  4.0757465e-01
 -4.0727916e-01
 -3.8492140e-01
 -5.3375494e-02
  1.2182504e-01
 -1.0071053e-01
  2.2665620e-02
  7.5493544e-02
  1.7590387e-02
 -1.6894282e-01
 -6.8504475e-02
 -1.9955195e-01
 -3.2533863e-01
 -2.5139114e-01
  3.2704489e+00
 -6.2866025e-02
  3.5423148e-02
  4.8207477e-01
 -8.2450408e-01
  1.0125615e-01
  9.4109811e-03
  4.6508081e-02
  1.8561121e-02
 -1.2661134e-01
 -6.9678023e-02
  9.7188525e-02
 -1.3331882e+00
 -3.8990834e-01
 -2.3683418e-01
 -2.0922247e-01
 -5.2016001e-02
 -1.5370511e-01
 -6.0194087e-01
  1.0912430e-01
 -2.3623382e-01
  5.9313890e-02
  5.3892165e-01
  1.0686941e-01
 -3.5878815e-02
  5.6340225e-02
 -1.4669677e-02
  4.9754590e-01
  5.8347338e-01
  8.7310362e-01
 -2.8899360e-01
  1.8766351e-01
  7.9566288e-01
 -5.4110903e-01
  2.4182659e-01
  1.7244451e-02
  3.0429718e-01
  5.3235304e-02
 -5.5530089e-01
  1.4206757e-01
 -4.5744714e-01
 -3.1455034e-01
  4.8802379e-01
 -8.8451612e-01
 -4.0591335e-01
 -7.5542219e-02
 -9.6339537e-03
 -1.0888450e+00
 -3.2308277e-02
  8.8173544e-01
  5.4495597e-01
 -1.2342098e-01
  1.0809019e-01
 -5.0063848e-01
  1.0764902e+00
  1.0305511e+00
 -2.2210781e-01
 -3.0978480e-01
  7.1611983e-01
  6.6571347e-02
  1.4667656e+00
 -2.1442993e+00
  4.4689372e-01
 -1.0390850e-01
  4.5770934e-01
  8.5647243e-01
  1.7589675e-02
  1.2242001e-01
 -3.2953298e-01
 -1.2655112e+00
  8.5776031e-01
  5.5632133e-02
 -2.2910933e-01
 -9.1502059e-01
 -3.8298294e-01
 -5.9087723e-02
  2.5652066e-01
 -1.7353551e-01
  1.8117189e-02
  4.0203863e-01
  5.6299049e-02
  9.7159493e-01
 -8.2148945e-01
  2.4136052e-01
  2.7905867e-01
 -2.4221845e-01
  1.6750814e-01
  1.5424619e+00
  1.8148427e-01
 -3.2827526e-01
 -2.1936653e-02
  6.8580829e-02
 -2.1765116e-01
  1.5031381e+00
 -5.3613335e-01
  2.5963228e+00
 -4.9866769e-02
 -9.3917720e-02
 -7.7735895e-01
 -4.4829804e-01
  1.0385020e-01
  1.8529096e-01
 -5.4019876e-02
  1.9702643e-01
 -2.9201007e-01
  1.8734142e-02
  2.2324334e-01
  1.4612575e-01
 -5.2173561e-01
  1.7283371e-02
  1.2795173e-01
 -2.4964881e-01
  1.1484724e-01
 -1.9943741e-01
  1.2256891e-01
  4.5828652e-02
 -2.9148903e-01
 -1.1117468e-01
 -5.9680527e-01
 -2.0846274e-02
  9.5592451e-01
 -1.4078806e-01
  2.8872719e-01
  3.8666472e-01
  5.0064582e-01
  1.7236926e-01
  9.0853578e-01
 -1.2101243e-01
  3.6498800e-02
  1.9617127e-02
 -1.5404731e-02
  1.9473521e-02
  1.3907275e+00
  4.1239005e-02
 -1.8200067e-01
 -8.2378695e-03
  2.8212777e-01
 -2.3878388e+00
 -5.3073145e-02
  3.5790595e-01
 -4.4514942e-01
 -3.9733753e-02
 -9.3618095e-02
  2.2028881e-01
 -1.2315265e+00
 -3.9309341e-01
 -1.3342626e-01
 -4.6105570e-01
  2.0810745e+00
 -1.1542982e+00
  6.2600392e-01
  3.6437342e-01
 -3.0059242e-01
 -4.2179728e-01
  5.4872614e-01
 -3.2010355e+00
 -2.1592104e-01
  3.9120662e-01
 -2.7086748e-02
  1.4331720e+00
 -6.4130515e-01
 -7.6495484e-02
  5.8849394e-01
 -6.3346937e-02
  3.1974810e-01
  7.9445779e-02
  8.5548796e-02
 -1.5240546e-01
  1.3585182e-01
  4.0214673e-01
  1.6981730e-01
  1.1746996e-02
 -3.2097998e-01
  3.5254818e-01
  7.5846665e-02
  1.2181619e-01
 -1.4991336e+00
  8.5465632e-02
  1.1010299e+00
  2.3887707e-01
 -1.5637424e-02
  5.6076590e-02
  3.0709556e-01
  7.8730263e-02
  1.6844361e-01
 -1.5869439e-01
 -1.5218589e-01
  3.3548027e-01
  2.4630427e-01
 -4.4963262e-03
 -1.4750971e-01
 -1.4397818e-01
 -1.4519291e-01
 -4.7206588e-02
  1.8026049e+00
  2.6591870e-01
 -2.3266738e-02
  3.3553025e-01
  3.1469202e-01
 -6.2072404e-02
 -5.2311260e-02
  1.9994857e-02
  3.6021872e+00
  3.9884883e-01
 -4.8987931e-01
 -3.6351189e-03
 -1.3563779e-01
  2.8899232e-01
 -4.7742462e-01
 -1.5349987e-01
 -1.0327017e-01
  5.6957376e-01
 -1.4652200e+00
 -8.6101167e-02
  8.0719121e-02
 -8.0827314e-01
  2.4699099e-01
  1.1266678e-01
 -1.6568110e+00
 -2.1300380e-01
 -1.7689404e-01
  2.3848560e-01
 -1.1511414e-01
 -2.0887490e-02
  1.1583766e-01
 -4.1473106e-02
 -7.2058603e-02
  3.1492719e-01
  2.6659292e-01
  1.0816610e-01
 -3.1586383e-02
  4.0642045e-02
  3.4144334e-02
 -3.5958147e-01
  2.7483009e-02
 -2.6076591e-01
  3.5949472e-02
 -1.7632405e-01
 -1.1953662e-01
 -4.3592978e-01
 -3.4795409e-01
  5.3977922e-02
 -1.9460186e-01
 -4.3423197e-01
  3.3011615e-01
 -3.9500263e-01
 -7.7210262e-02
  6.1772320e-02
  3.2818493e-02
 -1.5413332e-01
 -1.9740722e-01
 -1.5445377e-01
  1.4948417e-01
  1.1352082e-01
 -3.2499376e-01
 -3.0527228e-01
  1.7977090e-01
  8.6454093e-02
  2.9185051e-01
 -1.8292412e+00
  4.9132615e-01
  2.7592009e-01
  1.2237856e-01
 -2.7282670e-01
  1.8387394e-01
  1.1378292e+00
 -4.0530759e-01
  2.1725504e+00
  1.3310051e-01
 -1.2971361e-02
  8.5539216e-01
 -2.9630579e-02
  3.1740066e-01
  1.9493299e-02
  1.2054201e-01
 -1.0700040e+00
  5.6931749e-02
 -2.5369892e-01
  3.8052684e-01
 -9.6684761e-02
 -1.4778475e-02
  1.0136601e-01
  5.8515720e-02
 -4.1698372e-01
  2.5663686e-01
 -4.5286694e-01
  9.2898048e-02
 -4.3240038e-01
  2.9720185e-02
 -9.3691140e-02
 -1.3485676e+00
 -3.2784259e-01
  9.9596500e-02
 -5.4097819e-01
  3.1227037e-01
  2.4862933e-01
  1.8933729e+00
 -1.7381452e+00
  2.5802064e-01
 -3.2589751e-01
  3.6543980e-01
 -2.5025790e+00
 -5.9293526e-01
  1.8520106e-01
  7.5590990e-02
 -2.6287232e-02
 -3.5947603e-01
  1.6319206e-02
  8.8757267e-03
  1.4130686e-01
 -6.1722112e-01
  3.0600905e-02
 -7.3991805e-01
 -1.0748179e-01
 -1.7139846e-01
 -1.0757839e-02
 -6.8739849e-01
  3.2259709e-01
 -2.1479513e-01
  2.1547613e+00
 -5.8081806e-02
  1.0157070e-02
  5.9028107e-01
  1.9073731e-01
 -6.9866963e-02
  1.6801198e-01
  5.5848628e-01
  3.6212564e-02
  9.8729007e-02
  3.2262748e-01
  1.6877417e-02
  3.1989938e-01
 -2.7414566e-01
 -1.0445797e-01
  6.5162754e-01
  1.0345860e-01
  2.6393989e-01
 -3.3303730e-02
 -2.8955463e-01
  6.1420083e-01
 -2.2904174e-01
 -3.8221552e+00
 -6.2744521e-02
 -3.3700269e-02
  1.6403446e-01
 -8.7361765e-01
  8.3601862e-02
 -1.4252327e-01
  3.0009061e-01
 -1.1081330e-01
 -3.4975257e-02
 -2.1513121e-01
 -6.9985256e-02
  5.3104863e-02
  1.9559459e-01
  7.8770328e-01
  5.6461811e-02
  8.8050775e-04
  1.0854539e-01
  2.9111204e-01
 -5.6752842e-02
 -3.8107273e-01
 -3.1848010e-02
 -4.5542002e-01
 -2.4754694e-03
 -1.0184666e-01
  6.1432296e-01
 -1.4285623e-01
 -1.2270271e+00
 -2.7016187e-01
 -2.5731999e-01
  1.2101867e+00
 -4.4326058e-01
 -1.9199204e-02
  2.1319881e-01
 -1.3869701e-01
  6.3735771e-01
  8.3065741e-02
  3.1684253e-02
  6.0979296e-02
  5.5477816e-01
 -2.7777424e-01
 -9.5929420e-01
  5.9108932e-02
 -2.4689576e-01
 -3.1005161e-02
  6.3956738e-02
  7.9096532e-01
  1.4137249e+00
  8.9839458e-01
 -8.2686804e-02
 -2.3173115e+00
 -3.0026603e-01
  3.8178723e-02
  3.8939372e-01
  1.6228384e-01
  7.5475150e-01
 -4.7543126e-01
 -1.0590871e-01
 -7.7042770e-01
 -1.2210547e+00
  2.8319927e-03
  1.4118392e+00
  1.5063297e+00
 -2.8250188e-01
 -5.8320147e-01
 -6.9222230e-01
 -5.6172907e-01
  2.1587634e-01
  4.8320398e-02
  9.7945981e-02
  7.7446944e-01
 -6.6891432e-01
  5.7367969e-01
 -3.8667771e-01
  2.8101459e-01
  4.1302022e-01
 -7.2558105e-02
 -1.5570524e-01
  2.3149668e-01
  7.3275670e-02
  1.6941752e-01
  1.1505601e-02
 -2.5483594e+00
  2.5119710e-01
 -3.0652133e-01
 -8.5098922e-01
  1.0309145e+00
 -4.3202662e-01
 -1.8334821e-01
  2.5341022e-01
 -1.6828464e-01
 -4.0969354e-01
  9.7999470e-03
  5.1092684e-02
  3.9542103e-01
 -4.8025909e-01
  1.7380744e-02
  1.7360301e+00
 -7.5565144e-02
 -1.1822671e-01
  1.2622691e-02
  1.4977616e-01
  4.5500059e-02
 -5.9576727e-02
 -2.3282552e-01
 -4.3455306e-03
  3.5538474e-01
  6.4207772e-03
  2.8772779e-02
  2.3141760e-01
 -6.5610327e-02
  1.0338911e-01
 -4.4573277e-01
  1.9822724e-01
  1.0519394e-01
 -1.9982556e-02
 -1.7522915e-01
  1.3866289e-01
  3.4437957e-01
  2.6643175e-01
 -1.6977635e-01
 -2.9191528e-02
 -1.1378962e-01
  3.6485795e-02
  3.1478050e-01
 -5.9656268e-01
  2.0881170e-02
  2.4620276e-02
 -3.8971137e-02
  3.4277865e-03
 -7.6689504e-02
 -4.3499887e-01
  1.8359073e-02
 -2.5528195e+00
 -1.3288191e-01
  9.7196959e-02
 -2.4158083e-01
  9.2791021e-01
 -1.4274140e-01
 -7.8179695e-02
 -3.1078875e-01
  3.7594479e-01
  5.4824237e-02
 -3.3049417e-01
 -1.2462704e+00
  2.1446091e-01
  7.3100120e-01
  3.3891240e-01
 -5.8518831e-02
  4.9780998e+00
  1.4771594e-01
  1.0050573e+00
 -1.1069319e-01
  3.0386555e-01
  8.3183847e-02
 -6.4524867e-02
 -1.3972406e+00
 -3.7275106e-01
  1.7937334e-01
 -3.2261086e-01
  8.6705647e-02
 -3.5268593e-01
 -4.2662472e-02
  6.2933087e-02
 -1.1876341e+00
 -6.2909909e-02
  2.8758061e-01
  1.6380975e-02
  3.6312625e-01
  3.2969081e-01
 -4.3555675e-03
 -4.0291452e-01
  3.2112228e-03
  8.4886140e-01
  6.6074185e-02
  2.5350896e-01
  2.5854278e-01
 -1.7915323e-02
  1.6261436e-01
  4.4248673e-01
 -1.0343584e+00
  3.5954896e-01
  7.8969866e-01
 -1.3349910e-01
  2.5047728e-01
  3.4450555e-01
  2.2448784e-01
  1.2021579e+00
  5.3370774e-01
 -2.4281453e-01
 -7.2488882e-02
 -2.9442891e-01
 -4.0488479e-01
 -4.2805827e-01
 -3.4077516e-01
  7.3568952e-01
 -2.0678511e-01
 -3.6503407e-01
  1.1641243e+00
  3.2165891e-01
 -1.1574858e-01
 -2.5997451e-01
 -1.9938929e-01
  1.3282424e-01
  9.5536383e-03
  1.0579890e-01
  7.1727610e-01
  6.4490217e-01
 -2.9637429e-01
 -3.6506630e-02
  2.1024524e-01
 -4.0118712e-01
 -9.2719505e-03
 -4.6362793e-01
 -7.3591578e-01
  8.0732241e-02
 -3.9722290e-02
 -9.2784181e-02
 -3.5743931e-01
 -7.2256911e-01
 -1.7824496e-01
  2.0786564e-01
 -2.2667982e-01
 -4.9009201e-01
 -3.0362746e-01
  1.1342100e+00
  5.0460494e-01
  2.0618065e-01
 -3.2799855e-01
  1.1952983e-02
  3.0956835e-01
 -6.8701059e-02
  7.2958685e-02
 -1.2978725e-01
  1.0608762e-02
 -6.8469951e-03
 -3.2575312e-01
 -2.6805305e-01
  9.6903391e-02
 -2.2720154e-01
  2.5943831e-01
 -2.6770565e-01
 -1.1634678e-01
 -1.8616775e+00
  8.3007738e-02
  2.0574518e-01
 -5.1505679e-01
  5.2081490e-01
 -1.4229316e-01
 -2.9589772e-02
 -6.7582786e-02
  1.4880382e+00
  3.6729306e-01
 -6.9073513e-03
  6.1510360e-01
  7.9515243e-01
 -1.1136125e+00
 -1.9738336e-01
 -3.9923164e-01
 -7.5520331e-01
 -2.7725279e-01
  5.0462252e-01
  8.9602962e-02
 -3.3188033e-01
  1.3803181e-01
  2.0790251e-01
 -7.1903342e-01
  1.4140325e-02
  1.9890846e+00
  3.7059829e-01
  1.6467519e-02
  5.5335909e-01
  5.8534965e-02
 -4.1274376e-02
 -2.3768035e-01
  2.0521398e-01
  1.4723557e-01
 -1.0669862e-01
 -3.8214661e-02
  9.6220329e-02
  1.0171152e+00
  6.7916654e-02
  8.6566728e-01
 -5.3077787e-01
 -8.7305576e-02
  8.3304930e-01
  2.1298303e-01
  1.7018683e-01
  1.8398446e-01
 -1.6555895e-01
  6.4974838e-01
 -1.5184633e-01
 -1.0646789e+00
  2.6211295e+00
 -3.2449797e-01
 -1.4392948e-01
  3.5305125e-01
 -2.3215253e+00
 -1.5589317e-02
  3.8549243e-03
  1.4924578e-01
 -5.6837205e-02
 -2.4290022e-01
 -2.6799643e-01
 -1.5464710e-01
  7.6821220e-01
 -2.7480823e-01
 -2.8290117e-01
  1.4017960e-01
 -3.2275763e-01
 -2.7347038e+00
  1.5048245e-01
  9.1530919e-02
 -6.6968709e-01
  1.6138446e-01
  2.8533170e-03
  2.9182643e-01
 -1.1496691e-01
 -2.1920982e-01
 -4.1678405e-01
 -2.1111855e-01
  5.9911376e-01
  1.2512201e-01
 -1.1106843e-01
 -5.4687649e-01
 -7.8985855e-02
 -1.1451966e-01
  3.0092761e-02
 -2.9953712e-01
  1.0464009e-01
  2.8002465e-01
 -2.6333671e+00
  8.5267151e-04
 -3.8199574e-02
  2.4897411e-02
 -3.5240451e-01
 -2.0231169e-01
 -1.8909587e+00
  2.5227135e-01
 -5.6636762e-02
  1.0601791e-01
 -1.9208288e-01
 -8.5240133e-02
 -5.0073570e-01
  2.8422363e+00
  9.8955361e-03
 -2.7364029e-02
  3.8761001e-02
 -1.6930537e-01
 -1.8995680e-01
 -3.9384717e-01
 -4.5165956e-01
 -3.9943340e-01
 -3.3877364e-01
 -4.6599928e-01
 -1.8777747e+00
  1.0415623e-01
 -4.1012276e-02
  1.6647212e-02
  5.4222900e-01
 -5.6440449e-01
  1.5034525e-01
  6.8007343e-02
 -1.0743233e+00
 -2.6308877e+00
 -1.2055135e-01
  8.0311722e-01
  4.8073556e-02
 -1.3046594e+00
 -1.4712696e-01
 -2.9796860e-01
  2.9914823e-01
  6.1170298e-01
  1.2545284e+00
  3.0729038e-01
  1.5484472e-01
  1.5153384e-01
 -2.5741057e+00
  1.6932521e+00
  5.4274499e-01
 -2.0065215e-01
 -1.1233936e-01
  4.4062230e-01
 -1.2722673e+00
 -5.9786862e-01
  2.9853408e+00
  3.5106823e-02
  1.6333605e+00
 -1.6725199e+00
 -2.3452532e+00
  1.5251703e+00
  3.8726024e-02
 -5.1550531e-01
 -1.3219639e+00
  3.9387379e+00
 -2.2260072e+00
 -2.9294400e+00
 -2.9357870e+00
 -2.4608591e+00
 -1.5177650e+00
  9.8597795e-01
  7.0434445e-01
 -1.1657275e+00
  2.2685294e+00
  2.4026057e-01
  1.2410899e-01
 -6.8003380e-01
 -1.7402035e+00
 -8.2555598e-01
  1.5719019e+00
 -2.8582480e+00
  5.0918382e-01
  7.7911623e-02
  3.6188147e+00
  4.6044835e-03
  2.7143819e-02
  2.6249528e+00
 -1.4952023e-01
  1.1282423e-01
 -1.9103599e-01
  1.0624441e+00
  1.6546369e+00
  3.5454262e-02
  1.6057073e+00
 -1.2209891e+00
  6.1903089e-02
  1.8069804e-01
  8.9486319e-01
  1.0819716e+00
 -1.7271687e-01
 -2.5743079e-01
  9.0009563e-02
 -3.5410738e-01
  4.2518884e-01
  2.4796472e-01
  2.5701588e-01
 -2.3918943e-01
  7.6030798e-02
 -6.6381335e+00
  1.2546615e-01
 -5.4383515e-03
  7.5618744e-02
  4.8701376e-01
 -1.9726070e-02
  7.2559699e-02
  7.5978684e-01
 -1.9520575e-01
  2.6874787e-01
  1.9280879e-01
  7.8008994e-02
 -5.1995583e-02
  8.6794719e-02
  4.0267020e-01
 -1.8240350e-01
 -1.7888736e-02
 -8.3170481e-02
  3.9565071e-01
 -8.9070722e-02
  1.0126839e+00
 -1.1117458e-01
  8.3686464e-02
 -2.9715276e-01
  1.2675354e-01
  9.0393585e-01
  5.1571286e-01
  7.7038765e-01
  3.9968675e-01
  1.4551122e-01
  1.9998075e-01
  1.3491505e-01
  5.8549233e-02
 -2.3508273e-01
  1.8729128e-01
  7.9759491e-05
  8.0211639e-02
  3.9622468e-01
  2.0645449e-01
  5.6641525e-01
  5.8573806e-01
  5.2092705e-02
  3.9827127e-02
  1.8219994e-01
  2.7899038e-02
 -6.0032284e-01
 -4.2104006e-01
 -2.2978058e-01
 -2.3856058e+00
 -4.9618289e-02
 -2.4231319e-01
 -7.3164600e-01
  1.4916755e-01
 -9.8115005e-02
  7.6860565e-01
  2.4977380e-01
 -2.2454785e-02
  1.1719307e-01
 -2.2658418e-01
 -2.6216283e+00
 -2.1579184e-01
  2.7442325e-02
  3.8397858e-01
  2.0901304e-01
 -2.6716161e-01
 -7.4305391e-01
 -7.2924033e-02
 -1.1235067e+00
  9.2442602e-02
  1.0039106e-01
 -5.0323799e-02
 -2.0362606e+00
  9.4236933e-02
 -5.8864474e-01
  9.1567099e-02
  3.3825514e-01
  9.9209100e-02
  2.0179363e-01
 -1.0099258e+00
 -4.3355620e-01
  3.5523939e-01
  5.4763359e-01
 -4.5455331e-01
  3.8681918e-01
 -4.0459927e-02
 -8.5802794e-02
 -3.1424984e-01
  8.7312973e-01
  1.2837920e-01
  3.2882249e-01
 -4.1555333e-01
 -8.0329418e-02
 -3.0450270e-01
  5.6286103e-01
 -8.0490124e-01
  2.3264156e-01
  1.0248524e+00
 -6.8873459e-01
 -7.2847122e-01
  6.8387586e-01
  3.5661209e-02
 -2.1441072e-01
  2.6555648e-02
  1.6476794e-01
 -6.6318381e-01
 -8.7409303e-02
  5.2902945e-03
  1.3610268e-01
 -1.1859235e-02
 -3.5947062e-02
  1.3268501e-01
  1.3691304e+00
 -9.2565501e-03
 -8.7665297e-02
  1.2762757e-01
  1.8050215e-01
  7.1685773e-01
  2.0556474e-02
  2.3698549e+00
  3.9670117e-02
  4.2849970e-01
  2.3694652e-01
  3.3070004e-01
 -4.5557838e-02
  1.9308680e-01
  4.0947929e-01
  5.9758991e-01
 -5.3245860e-01
 -3.2243568e-01
  1.4208591e-02
  9.1283657e-02
  8.5716099e-02
 -2.2578514e-01
  3.2734734e-01
  8.9412957e-01
 -3.3458480e-01
 -3.3172485e-01
 -9.7754067e-01
 -8.5393801e-02
  1.7499363e-01
  1.7264378e-01
  1.6997498e-01
 -4.5637375e-01
  2.0361806e-01
  1.0838374e+00
 -1.2135132e-01
 -2.8934661e-01
  5.4972923e-01
 -7.3739827e-02
  7.2900784e-01
 -1.0132718e+00
  3.4489405e-01
 -3.0792651e-01
  6.8476275e-02
 -1.4364022e-01
  1.4886731e-01
  5.6925051e-02
 -1.5720211e-01
  7.3202513e-02
 -3.1324084e+00
 -8.5698813e-02
  3.4048757e-01
 -3.0683538e-01
 -3.6460289e-01
 -2.5861034e-02
 -2.0371554e-02
 -2.6166949e-01
  1.7651496e-02
  1.8088488e-01
 -1.2996441e-01
 -6.1399662e-01
  1.2691739e-01
  1.0270937e-01
 -4.0129751e-01
 -1.1018291e-01
  7.9918705e-02
 -1.9588464e+00
 -9.4765604e-01
 -3.9758608e+00
 -6.0988522e-01
  4.4550434e-01
 -5.7370816e-03
  9.5589586e-02
  6.6900867e-01
 -2.5863624e+00
 -3.0993482e-02
  7.6602861e-02
  9.4113380e-02
 -5.7918197e-01
 -1.1884177e-01
 -6.4869709e-03
  6.4575300e-02
  2.6552030e-01
 -1.4742289e+00
 -4.5911184e-01
  4.1369863e-02
 -2.3857284e+00
  4.1604370e-01
  4.1733928e-02
  1.5990892e-01
  4.8720247e-01
 -1.4730811e-01
  4.2400727e-01
  6.0063010e-01
 -6.9609958e-01
  4.8294640e-01
 -2.0299302e-01
  6.3875252e-01
 -1.1574117e-02
 -2.2831315e-01
 -5.3271875e-02
  4.3980621e-02
  4.7177508e-01
 -6.7034379e-02
  7.1107835e-02
  4.5901391e-01
 -7.0106769e-01
 -7.4658602e-02
 -3.4528950e-01
  2.8901714e-01
 -2.1331023e-01
 -1.3007604e+00
 -6.9831327e-02
 -4.0537876e-01
  2.6868429e-02
 -4.3833995e-01
 -3.8393170e-02
 -4.8782942e-01
  9.9319950e-02
  2.2138467e-01
  6.8029203e-02
  9.2805088e-02
  1.9597946e-01
  1.7043801e-01
  6.4144260e-01
 -1.8872626e-01
  2.4552437e-02
  1.5461668e-01
 -2.8959504e-01
 -2.4442962e-01
 -5.6784648e-01
 -1.1460478e-01
  1.0902427e-01
 -2.9001042e-01
  1.4418280e-01
  1.4460793e-01
 -1.9043449e-02
 -8.6587675e-02
  3.0218580e-01
  3.0922242e-02
 -7.3408990e+00
 -1.0037214e-01
  1.0384110e-01
 -3.4479499e-01
 -4.5770133e-01
 -1.3961489e-01
  3.8101611e-01
 -9.5018148e-02
 -1.0541915e-01
 -3.9916041e-01
  3.6401678e-02
  2.1442753e-01
 -5.3944647e-02
 -1.4765239e-01
 -1.1923470e+00
 -9.2394859e-01
  6.8144687e-02
  1.4580452e-03
  1.2552144e-01
 -6.3968353e-02
 -2.4172922e-03
  1.3378279e-01
 -4.0387979e-01
 -1.7056543e-01
  2.0629729e-01
  8.5090920e-02
 -2.0689847e-01
  1.4781882e-01
 -1.4400861e-01
  1.1376387e-02
  1.0890961e-01
 -1.2729546e-01
 -3.2221618e-01
  3.1773724e-02
 -1.0349141e-01
 -2.1890111e-01
 -4.2715770e-01
 -6.1757290e-01
 -6.1445810e-02
 -2.3622888e-01
 -6.2133431e-02
  5.4347700e-01
  3.0570462e-01
  4.8889190e-01
 -3.0103448e-01
  5.2875125e-01
  1.0644550e-01
  1.6512778e-01
  4.4988573e-02
  2.8806612e+00
 -6.0920513e-01
 -1.0116795e-01
 -1.5500623e-01
 -2.2146307e-01
  1.6357318e-03
  7.2168183e+00
  1.1606237e-01
  8.9983895e-02
  4.0620202e-01
  2.8212309e-01
  2.3705706e-01
  1.6924340e-01
  7.0342809e-01
  4.9733111e-01
  4.2768034e-01
 -2.0461562e-01
  1.9043313e-01
  1.4357806e+00
 -2.0006509e-01
 -5.2231222e-01
 -2.9381660e-03
  1.5286636e-01
 -1.1073192e-01
  4.0895635e-01
 -3.9617518e-01
 -1.0857621e-02
 -2.6868823e-01
 -4.1978572e-02
 -3.7492400e-01
  1.4638150e-01
 -7.6908015e-02
 -6.9572353e-01
  7.7478064e-05
  8.4942132e-02
  2.9653884e-02
  1.1616156e-01
 -1.2418526e-01
 -3.7874941e-02
 -2.0957983e-01
 -1.6752492e-01
  7.6337004e-01
 -1.1505204e-01
 -3.9490604e-01
  1.3622013e-01
  1.0453750e-01
 -5.4483914e-01
  4.7607198e-01
  5.8047831e-02
  1.8935126e-01
  7.0993990e-01
 -2.7655938e-01
  3.2808226e-02
  1.2058746e-01
  1.0585222e-01
 -2.5719717e-01
  1.4378695e-01
 -4.9016129e-02
 -1.3346350e+00
  1.9788370e-01
 -2.3758014e-01
  2.6313981e-01
 -1.9682187e-01
 -2.5093096e-01
  2.9386814e+00
 -4.8150641e-01
  2.7695513e-01
 -6.3047457e-01
  2.6686659e-02
  3.9409213e-02
  1.1299554e-01
 -9.9597186e-02
  2.8311819e-01
  7.3303565e-02
 -9.5932043e-01
 -1.8764864e-01
  3.3356208e-02
  1.5759514e-01
  2.9391620e-01
  3.8835448e-01
 -1.3581857e-01
 -2.7068295e-02
 -2.0004492e-01
  3.3529153e-01
  3.1835353e-01
  1.3287181e-01
  6.5711892e-01
 -7.6979652e-02
  2.1022482e-01
  3.9534997e-02
  8.1236802e-02
  3.6241645e-01
 -1.5836821e-01
 -1.1190555e-01
 -1.2082300e-01
 -1.2542135e-01
 -2.4522676e-01
 -5.2122300e-04
  6.7131752e-01
 -2.4902295e-02
 -5.1964617e-01
 -8.1792015e-01
 -2.5505841e-02
  3.1190696e-01
  4.9819517e-01
  2.9522312e-01
 -1.0086675e-01
 -4.9301553e-01
 -1.3949730e-01
 -3.9419234e-01
  2.1597771e-01
 -2.5004514e-02
 -2.3063675e-01
 -1.7956822e-01
 -5.9043127e-01
 -1.0386927e-01
 -1.2797617e-03
  9.9176735e-02
 -6.0232747e-01
  1.0614488e-01
  5.2242684e-01
 -1.5400015e-01
  1.6649225e-01
 -1.2982500e-01
  1.1653386e-01
 -2.7448162e-01
 -2.0448180e-01
 -7.8523360e-02
  3.2110035e-01
 -5.3719693e-01
 -4.0943736e-01
 -6.1762046e-02
  2.4349241e-01
  2.6288113e-01
  7.9728794e-01
  2.3444137e-02
 -2.5715983e-01
  3.9737993e-01
  1.1154043e-02
 -2.1869771e-01
 -1.0980873e+00
 -4.3737840e-02
  1.1865250e-02
 -4.0260947e-01
  2.2908922e-01
 -1.1736268e-01
  2.9104934e+00
  1.1987755e-01
  1.0387337e+00
 -1.2537112e+00
  1.6313192e-02
  2.8703108e-01
  1.6278061e-01
  2.0046446e-01
 -3.2420289e-02
 -3.2367581e-01
  3.1306052e-01
 -3.6921480e-01
 -7.2867265e-03
  3.2012808e-01
  1.2840093e-02
  3.8735580e-01
  2.3174495e-01
 -2.9305002e-01
  9.1629751e-02
  1.7858744e-01
 -1.9310884e-03
 -5.7987680e+00
 -6.8638861e-02
  5.0630277e-01
 -2.6008207e-01
  3.3379041e-02
 -2.9885601e-02
 -3.3415759e-01
 -1.3946402e-01
 -4.1749501e-01
  2.2783749e-01
  7.4953757e-02
  4.2190414e-02
  1.3602500e-01
  1.2023615e-01
 -7.3316023e-02
 -4.1299486e-01
 -1.9777486e-01
  1.5608865e-01
  1.0964185e-01
 -7.5663739e-01
  1.1316222e+00
 -6.8404959e-03
  1.7742625e-01
  2.3427500e-01
 -2.2003176e-02
  3.5992545e-01
  1.9887840e-02
 -3.3459164e-02
  6.2178558e-01
  2.6322663e+00
 -1.7830217e-01
  5.0401710e-02
  4.9662626e-01
  3.0697139e-02
  9.9278100e-02
  2.7870500e-01
  9.4914079e-02
  2.4117488e-01
  7.9621768e-01
  3.4406433e-01
  1.4172141e-01
  3.2283956e-01
  7.1484916e-02
  4.3361440e-02
 -2.7649823e-01
  2.5266188e-01
  5.5900598e-01
 -7.7007490e-01
  1.7046841e-02
 -3.3565063e-02
  3.1824800e-01
  2.2874343e-01
  2.7103236e-01
 -9.8510885e-01
 -5.0642645e-01
 -5.1374221e-01
  3.1623706e-01
 -1.6678041e-01
 -3.4638319e-02
 -7.8451931e-02
 -1.1558506e+00
  4.2901692e-01
 -4.6591099e-02
 -9.3394476e-01
 -4.4040731e-01
  1.9400397e-01
 -3.3711338e-01
 -2.7896342e-01
  7.5505711e-03
  1.5134038e-01
 -9.5938556e-02
 -8.7282062e-01
  1.0824178e-02
  1.9022076e-01
  3.5297079e-03
  5.6863588e-01
  8.1368476e-01
  5.9059751e-01
 -1.7175857e-02
 -6.1864078e-01
  9.3432403e-01
  8.9327626e-02
 -1.1915381e-02
 -1.4378904e-01
  1.5418128e+00
 -1.1307096e-01
 -9.2762530e-02
  1.6496103e-02
 -1.7009896e-01
 -3.1917635e-01
 -1.1615279e-01
 -9.0629786e-02
 -7.5363088e-01
 -3.9618924e-01
  2.8981754e-01
  2.0417470e-01
 -9.2138596e-02
 -8.3593793e-02
  9.1258579e-01
 -1.4033556e+00
  1.6673253e-01
 -2.6564407e-01
 -1.0329093e-01
  3.4372494e-02
 -2.7167693e-01
 -9.7030185e-02
  2.3547809e-01
  1.3742976e-01
 -4.9691256e-02
  1.2141566e-01
  1.0327361e+00
 -4.9661230e-02
 -4.5042388e-02
 -8.3872549e-02
 -1.6376518e-01
  1.2045448e-01
 -1.2795100e+00
 -1.1914562e-01
  4.0000110e+00
 -5.1870781e-01
  7.9188669e-01
  8.0000955e-01
  1.0153078e-01
  3.4202880e-01
 -3.6595282e-01
  1.8151755e-02
  4.3421030e-02
 -8.7520875e-02
 -1.4214546e-02
  3.1798688e-01
 -2.5271726e-01
  2.4527147e-01
 -1.9255461e+00
 -1.4948311e-01
 -2.7675810e-01
 -1.1507565e+00
 -5.3295556e-02
 -2.2779369e+00
  5.5738613e-02
 -3.1861946e-02
  4.4472810e-02
 -6.8567920e-01
 -2.7080575e-01
 -1.7560768e-01
  5.7555102e-02
 -5.4673715e-03
 -3.0571717e-01
 -3.4224505e-03
  4.5071769e-01
 -1.6354654e-02
 -2.0871904e-01
  1.5953241e-01
  9.4594419e-02
 -7.4600852e-01
 -8.0425334e-01
 -8.3415903e-02
  2.1055071e-01
 -2.0626283e-01
 -5.5009168e-01
  7.2202280e-02
  1.2417624e-01
  7.2622269e-02
 -1.1445709e+00
 -1.5155891e-01
 -7.1970177e-01
  4.3159354e-01
  4.9628627e-02
  3.3070610e+00
 -2.5261256e-01
 -2.6433936e-01
 -1.9479940e-03
 -1.2129658e-01
 -1.0932759e+00
 -1.3634177e-01
  1.5662757e-01
  1.4229130e-02
 -8.9704394e-02
 -2.4671800e-01
 -3.9554951e-01
  1.6326906e-02
  2.4775369e-01
 -1.6980961e-02
  6.8630956e-02
  1.6430223e+00
 -3.1592473e-01
 -2.8450000e-03
 -3.1832004e-01
  8.1846333e-01
  3.5338292e-01
 -1.8792902e-01
 -3.2126170e-01
 -2.1646821e-01
 -2.3617541e-02
 -1.8318826e-01
 -5.7987574e-02
 -2.4190858e-01
 -1.3490534e+00
  6.9566137e-01
  7.6083563e-02
  1.1832573e-02
 -3.3841956e+00
  8.5379645e-02
 -1.0763694e-01
  7.3942736e-02
 -2.3566077e+00
 -2.4910271e-02
  8.4505305e-02
 -5.3203934e-01
  9.8817140e-02
 -3.3175367e-01
 -1.1135843e+00
  2.6543307e-01
 -2.9429281e-02
 -1.1306653e-01
 -9.2287272e-02
  2.5583500e-01
 -7.2491348e-01
 -4.2390905e-02
 -2.1358442e-01
 -2.9380602e-01
 -1.7971084e-01
 -1.3490194e+00
  1.0342389e-01
  3.7569582e-02
 -3.8694403e-01
 -1.3700643e-01
 -3.9177459e-02
 -8.4866905e-01
  6.6675931e-02
  6.6641933e-01
  3.6455229e-01
  2.5224674e-01
  3.1356854e+00
  1.9959605e-01
  8.7672912e-02
  4.4116193e-01
 -3.2117227e-01
 -4.9537227e-02
  1.2391169e-01
  2.0509768e-01
  7.4695247e-01
 -2.0441878e-01
  6.3192338e-02
 -1.7757522e+00
  1.9772536e-01
  1.9558247e+00
  1.2142336e-01
 -5.2482194e-01
  3.0440215e-02
 -2.7361730e-01
  1.0745792e-01
  1.6238602e-01
 -2.9939815e-01
 -9.7263083e-02
  2.5408307e-01
  2.1052578e-01
  4.1898515e-02
 -2.8404170e-01
  1.5259100e+00
 -5.1875655e-02
 -2.5496271e-01
  2.0243056e-01
 -2.3706162e-01
  6.0532685e-02
  1.1384606e-02
  7.9504460e-02
 -8.7577015e-02
 -5.0031509e-02
  1.9695735e-01
 -3.4212837e-01
  2.6246428e-01
 -1.2588035e-01
  4.4944394e-02
 -3.6549395e-01
  2.3213100e-01
 -1.1296625e-01
  3.4791607e-01
 -1.7834659e-01
 -1.0322016e-01
 -1.7278169e-01
 -6.2460363e-01
 -8.3059622e-03
  7.0215356e-01
 -8.5194595e-02
 -2.5311664e-02
  1.2582259e-01
  6.1361057e-01
 -5.5139400e-02
  8.1091650e-02
  3.1471767e+00
  2.3096485e-02
  2.8664187e-01
  5.1644564e-01
 -1.4043917e-01
 -1.5244110e-01
 -5.9243649e-01
  3.6297432e-01
  2.4210532e-01
 -5.4481212e-02
 -4.1743356e-01
  5.6393182e-01
 -3.7396882e-02
 -2.1270457e-01
 -1.3771522e-01
  8.9575849e-02
 -2.6749137e-01
 -1.2230061e-01
 -1.3845441e-01
  8.4024921e-02
  1.8473467e-01
 -1.1167740e-01
 -1.3618952e+00
 -3.1698796e-01
 -4.4546515e-02
 -1.2014682e-01
 -6.7965704e-01
  5.7317299e-01
 -2.5821674e-01
 -1.3189080e-01
  1.8592358e-01
  5.7725996e-02
  1.1659972e-01
 -3.1303769e-01
  2.7105555e-01
 -3.6996979e-02
 -1.1780737e-01
 -1.1087438e-01
 -8.1917942e-01
  5.2191973e-01
  1.6234254e+00
  5.4389960e-01
  2.9435283e-02
  1.8248338e-01
 -1.4890511e-01
  2.6364815e-01
  8.5813934e-01
 -6.8643808e-02
  1.4890739e-01
  2.1598651e-01
  4.0744685e-02
  2.5188717e-01
 -8.8850790e-01
  1.0738618e-01
 -1.0577468e-01
  8.1680125e-01
 -8.4391379e-01
  1.2474933e-01
 -3.8704017e-01
  1.0050881e+00
 -6.5167218e-02
  1.0222735e-01
 -5.8239452e-03
  1.5824337e-02
 -4.4153193e-01
  4.5296583e-01
  1.2683541e+00
  1.1165757e-01
 -1.9787095e-01
  6.2986612e-01
 -3.8846448e-01
  8.9813876e-01
 -3.8786970e-02
  2.8997693e-02
  1.1922716e-01
 -7.0476872e-01
  1.1950601e+00
  9.1187626e-01
  7.9897434e-01
  3.2867619e-01
  1.5069859e+00
 -9.3440807e-01
  1.8339929e-01
  1.3300338e-01
  5.5173331e-01
 -2.1764532e-01
  7.0216469e-02
 -5.2485812e-01
 -1.0207665e-01
 -1.1666850e+00
 -5.4799372e-01
  1.3271165e-01
  2.2071129e-01
 -2.8428987e-01
 -1.2256565e-01
  1.9621581e+00
 -1.9643770e-01
 -5.2967685e-01
  6.0329705e-01
 -2.5791541e-01
 -1.0275912e+00
  8.5111928e-01
  4.8802078e-02
 -4.6558657e-01
  1.9871973e-02
  2.0763692e-01
  2.2937362e-01
 -1.8149106e-01
  1.6193143e-01
 -2.3133889e-01
  6.3294403e-02
  1.5076556e+00
 -1.8940423e-01
  5.7996309e-01
 -8.1746680e-01
 -6.1010444e-01
  4.5931694e-01
 -9.7645037e-02
  1.0368434e-01
 -5.3301388e-01
 -3.0727857e-01
  7.2946924e-01
 -2.2894034e+00
 -3.2660306e-02
 -4.4327426e+00
  1.3954167e-01
  5.7497507e-01
 -2.2534882e-01
 -5.1829135e-01
  2.3507292e+00
  1.3428175e-01
  4.5342870e+00
 -8.1008077e-01
  1.7995083e-01
 -4.0262967e-01
  3.9015263e-01
 -4.1164603e-02
 -3.1117648e-01
  9.9219214e-03
 -4.2759421e-01
  2.6751854e+00
 -1.4654906e-01
 -3.9190540e-01
  2.7923390e-01
  4.0440124e-01
  7.4949658e-01
  1.1181252e+00
  9.0754800e-02
  2.3324580e-01
 -2.5993807e+00
  4.4999981e-01
 -1.0858253e+00
 -6.4318115e-01
  8.0409241e-01
  7.6319785e-03
 -6.6366780e-01
  2.4448482e-03
 -5.6606126e-01
 -2.1611522e-01
 -4.5084190e-01
  2.6732412e-01
  8.9495638e-03
  1.1760793e-01
 -2.1684961e-01
  4.5702124e-01
 -5.0744498e-01
  1.2648554e-01
 -1.0297951e+00
  2.3878656e-01
  1.7501104e-01
  1.9257955e-01
 -1.2074836e-01
 -9.0391493e-01
 -1.0504018e-02
  1.4779925e-01
  2.7550410e-02
 -1.0782452e+00
  8.6132616e-01
 -8.0230981e-01
  1.4500306e+00
 -2.0058468e-02
  3.9054957e-01
 -3.0323323e-02
 -2.7020821e-02
  1.0084878e-01
  1.9650505e+00
  5.7143793e-02
 -2.5942126e-02
  1.4154747e-01
  3.7701416e-01
 -7.3531729e-01
 -2.3998144e-01
 -5.2337223e-03
 -2.9241091e-01
 -1.2727871e-02
  8.1391260e-02
  5.2128196e-01
  1.9379270e-01
 -2.9704058e-01
 -1.2244918e+00
  7.6500038e-03
  1.3565604e-01
  2.1426263e-01
  9.4522834e-02
 -4.2577484e-01
  2.9203418e-01
 -4.5305276e-03
  6.9899879e-02
  5.1855010e-01
 -2.0278066e-01
 -9.1877885e-02
 -3.3618847e-01
  1.8603235e-01
  3.0753741e-01
  5.0472748e-02
  6.3801624e-02
 -1.5985086e+00
  2.9233485e-01
 -1.8630708e-02
 -3.0927593e-01
  1.9202615e-01
 -9.6898168e-01
  4.8840848e-01
 -9.1874993e-01
 -1.8892455e-01
  1.5450374e+00
  8.0380028e-01
 -3.7846646e-01
 -7.9712547e-02
  4.6769371e+00
 -8.5420364e-01
 -3.8582864e-01
  1.6087566e-01
 -2.5122789e-01
 -6.8754238e-01
 -1.1197522e-02
 -7.2614956e-01
  5.2343614e-02
 -1.9521305e-01
  4.6572153e-02
  1.1566815e-02
  6.8504006e-02
  6.7645706e-02
 -1.6391711e-01
 -1.7405485e-01
 -1.8541242e-01
 -2.8469057e+00
  1.5301332e-01
 -1.9541968e-01
  2.9024038e-01
 -1.7997392e+00
  3.5547259e-01
  2.8631055e-01
  5.2308649e-01
 -1.9923861e-01
  4.8047425e-03
  1.9895856e-01
  1.2043650e+00
  7.4015921e-01
 -7.8133410e-03
  1.8471517e-02
 -6.4163762e-01
  4.7879690e-01
  1.9714141e-01
  9.9023290e-02
 -4.4387606e-01
 -4.4223884e-01
 -7.7887857e-01
 -4.2384189e-01
  2.4667780e-01
  1.0786350e-01
 -6.3011954e-03
 -2.2408365e-01
  5.7834566e-02
  5.5657101e-01
 -1.0753965e-01
  1.9140762e-01
  1.2229012e-02
  3.2534239e-01
 -8.7054414e-01
  2.6053319e+00
 -3.3637899e-01
 -3.5880971e-01
  4.7841531e-01
 -6.0577190e-01
 -3.7528792e-01
 -4.6341413e-01
  8.8397229e-01
  1.8899356e-01
 -5.8817428e-01
  8.4992655e-02
  6.3626242e-01
 -2.8072640e-01
 -3.4900868e-01
  4.9485579e-01
 -1.6278785e-01
  3.7058094e-01
  5.3536080e-02
 -1.0790306e-01
  7.6492149e-01
 -5.9377480e-01
  7.8291571e-01
  1.0773463e-01
  5.0485723e-02
 -4.5293117e-01
 -2.2464530e+00
 -1.3793948e-01
 -5.6401885e-01
  6.4976358e-01
 -8.6815923e-02
 -1.4120954e+00
  3.5352626e-01
  2.8883535e-02
 -1.2251121e+00
 -4.4494759e-02
  9.4837345e-02
 -1.3515985e+00
  2.0532766e-01
 -5.2034426e-01
 -7.7977246e-01
 -8.2513303e-02
  1.6131667e+00
 -1.4046112e-02
  6.1189401e-01
  2.9559410e-01
 -2.0232629e-02
  2.1541169e+00
 -3.7330869e-01
  8.2666457e-01
 -2.3797002e-01
 -1.1705245e+00
  3.6818096e-01
 -1.0732772e-01
  3.3940041e-01
 -8.6823857e-01
 -2.2841604e-01
 -4.9483049e-01
 -2.8702397e-02
  1.2615815e+00
 -4.9753276e-01
 -1.1553506e+00
 -6.4623463e-01
  4.7532824e-01
 -9.8342395e-01
  6.0959744e-01
  4.4957122e-01
 -3.5690346e-01
  1.3184575e+00
  9.4189274e-01
  4.6269333e-01
  2.8443578e-01
 -1.0092487e+00
  1.3374927e+00
 -1.1317509e+00
  1.8704024e-01
 -2.9382822e-01
 -8.1922239e-01
 -7.5082922e-01
  3.3755925e-01
 -8.2219623e-02
  3.8369194e-01
  2.1893282e-01
 -2.3239224e-01
  8.1005963e-03
 -9.5748430e-01
 -1.3170642e-01
  1.9528887e-01
 -3.3215898e-01
 -2.4730437e-01
  4.8736357e-03
  6.4039534e-01
 -1.7478397e+00
 -9.3626142e-01
 -9.6685064e-01
 -8.6653471e-01
  8.7408513e-01
  1.1717644e+00
  2.8776452e-01
 -1.1937028e-01
  1.2143672e+00
 -8.9609522e-01
 -7.4683443e-02
 -3.9440653e-01
  5.2221712e-02
  2.1261289e+00
 -1.7151140e-02
 -3.6465353e-01
 -7.8775525e-02
 -4.8652816e-01
  1.1007231e-01
 -7.7778393e-01
  2.1027239e-01
  4.9177343e-01
  3.1399155e-01
  6.9750184e-01
  9.2764616e-01
 -1.9647156e+00
 -7.5469887e-01
  7.0953113e-01
 -2.4111970e-01
 -5.2740729e-01
  2.2854316e+00
 -5.8660924e-01
 -8.8492179e-01
  2.0324416e+00
 -5.5431849e-01
  1.8535010e+00
  8.5076427e-01
  1.2759886e+00
  5.8437985e-01
 -2.8354354e+00
  5.6254005e-01
  1.8509160e+00
 -1.5928696e-01
 -1.4864759e-01
  9.3201488e-01
 -3.1852365e+00
  3.7304178e-01
 -3.8974612e+00
  1.1277226e+00
 -1.0246720e+00
 -1.5109810e-01
  2.2782514e+00
  6.6376305e-01
  2.3027222e+00
  4.2685986e+00
 -8.4096056e-01
  5.0009722e-01
 -7.6343581e-02
 -9.2072654e-01
 -6.9588006e-01
 -1.4860140e+00
 -8.3808053e-01
  1.6898959e+00
  2.2835009e+00
 -5.2295427e+00
 -2.9134362e+00
 -9.3126345e-01
 -5.5854499e-01
 -1.5508571e-01
  3.3132872e-01
  2.1557147e-02
  2.8218992e+00
 -3.2480189e-01
 -4.9840963e-01
  5.2783959e-02
 -3.4569627e-01
  1.4585752e+00
 -1.4723666e+00
 -1.0596261e+00
  1.7275017e+00
  1.0678015e+00
 -1.8587416e-01
 -1.1790551e+00
  1.8502338e-01
  1.0810233e-01
  8.7160921e-01
  8.6033821e-01
  8.6915344e-01
 -1.1453058e-01
  4.1622972e-01
  2.5365758e-01
  8.0039269e-01
  5.4738951e-01
 -4.1100639e-01
  1.4999494e-01
  7.5895429e-01
  2.7100543e-02
 -5.2664118e+00
  1.4975023e-01
 -1.3170948e-02
  3.1226566e-02
 -7.7409130e-01
 -1.9997387e+00
  9.0418793e-02
  4.0655819e-01
 -1.7039897e-01
  4.4889322e-01
 -9.9359417e-01
 -4.8149535e-01
 -2.7843540e+00
  1.7992638e-04
 -6.3981578e-02
 -3.0920115e-01
 -2.2324076e-02
 -1.7731875e-01
  4.6961024e-01
  3.9744833e-01
 -1.5291171e-01
  2.7348673e-01
  2.7770254e-01
  6.0249573e-01
 -8.1108969e-01
  2.0963185e-01
 -1.2998338e-01
  3.5509947e-01
  7.9249352e-01
 -7.1430020e-02
  4.9743664e-02
 -1.2248445e-01
  1.0016969e-01
 -2.8135353e-01
  3.4173748e-01
 -9.2638016e-02
 -1.0173787e+00
 -1.2638915e-01
 -2.9869205e-01
 -1.3875772e+00
  1.6817382e-01
 -1.7819681e+00
  6.6739328e-02
  9.6936762e-02
 -8.0693290e-02
  2.3436739e-01
 -2.2546709e+00
  1.5364570e-02
  2.7444530e+00
 -1.5832382e-01
 -4.0662136e-02
 -2.2552438e-02
 -1.0575919e-01
 -1.1167713e-01
  8.6372316e-02
 -1.2552572e-02
 -4.7723010e-02
  2.2828056e-02
 -3.3048172e-02
 -1.0051960e+00
 -1.6041312e-01
 -1.6354355e-01
 -1.1770390e-01
 -7.0285074e-02
 -1.5742327e-01
  3.7857968e-02
 -7.5599194e-02
 -6.9017708e-01
  8.3491033e-01
  4.2895740e-01
 -1.4225352e-01
  4.2778667e-02
 -3.6592510e-01
  5.6834918e-01
 -2.0710789e-01
  3.5136368e-02
  3.4788208e+00
  4.4579949e-02
  5.0832938e-02
  1.6051470e-01
  2.9456220e+00
 -2.6338172e+00
  3.4861445e-02
  4.2848311e-02
 -2.0817840e-01
  5.7509452e-01
 -6.1863869e-02
  7.9595549e-03
 -1.0311601e-01
  1.4484273e-01
 -5.2742416e-01
 -9.9887115e-01
 -6.6448247e-01
 -5.7866275e-01
 -3.2572678e-01
 -8.4882937e-02
 -8.1404947e-02
  7.0843577e-01
 -1.6924776e+00
 -2.5419244e-01
 -1.4003140e-01
  2.9158762e-01
 -1.4568416e+00
  8.2644296e-01
  2.8998423e+00
 -1.0676004e+00
  2.1070036e-01
 -1.5744799e+00
  2.2218490e+00
 -3.1759245e+00
 -2.3231831e+00
 -3.1928332e+00
 -1.1358720e+00
  6.8495607e-01
 -3.7742326e+00
  3.6743912e-01
  6.1339492e-01
  1.0116566e-02
 -5.2755184e+00
  9.1321295e-01
 -1.7036235e+00
 -9.5628607e-01
  5.5471706e-01
 -1.7796042e+00
 -1.2395373e-01
 -1.2350147e+00
 -3.6357651e+00
 -2.1773548e+00
  1.4199928e+00
  1.5672988e+00
 -3.1141448e+00
  2.0980630e+00
  1.2810496e+00
  1.0024288e+00
 -8.1992584e-01
  3.6950413e-02
 -1.0294607e+00
  2.7720466e-01
  4.5478504e-02
 -1.0710712e-01
 -1.3295393e+00
  2.2952364e-01
 -1.4761073e-02
 -1.7971066e-01
  6.0706103e-01
  1.1879930e-01
 -6.4517939e-01
 -1.9236701e+00
 -9.3299538e-01
 -1.1001949e+00
  8.5864580e-01
 -2.3079927e-01
 -1.5312299e+00
 -3.3022192e-01
  6.8447828e-01
 -1.8221009e-01
 -7.0751679e-01
  8.1503469e-01
  5.2589606e-03
  3.8375340e-02
  7.6407790e-01
  5.2906018e-01
 -5.5309498e-01
  8.2720652e-02
 -2.7951143e+00
  1.0127935e+00
  8.7176609e-01
 -4.8113701e-01
 -4.7251916e-01
  2.8134090e-01
 -9.0642497e-02
  2.1021195e-02
 -6.7975485e-01
  1.1542176e-01
 -3.0099612e-02
  1.1798231e-01
 -3.5407811e-01
 -5.0214249e-01
  7.1447194e-02
 -4.1550410e-01
  1.2541096e-02
 -1.6124450e-01
 -2.4123901e-01
  4.2144895e-01
  5.0316030e-01
  7.6282928e-03
  8.7447867e-02
 -2.1453409e-01
  8.8924634e-01
  1.1301161e-01
 -1.1060697e+00
 -1.4511312e+00
 -4.9611032e-01
  1.1829653e-01
  1.0837441e-01
  5.8897112e-02
  2.1458972e-01
  3.4409910e-01
