nep4 4 Li In C N 
cutoff 9 6 150 51
n_max 10 8
basis_size 10 8
l_max 4 2 0
ANN 50 0
 -7.2849236e-02
 -2.4553677e-02
  1.2940235e-01
  4.4442886e-01
 -2.0702524e-01
 -1.1803712e+00
 -3.0474547e-02
  5.2588746e-02
  2.6800681e-02
  3.0108881e-01
 -1.4418039e-01
 -9.8255359e-02
 -1.0044911e-01
 -9.2988893e-02
  3.1130511e-02
 -5.1174825e-01
 -4.2553514e-02
  1.1423149e-02
 -5.2540157e-02
 -5.5595774e-02
  3.5298232e-02
 -3.4142020e-01
 -8.6350664e-02
 -3.6260892e-02
 -3.5348129e-02
  4.8052773e-02
  2.6893893e-01
  2.6345965e-01
 -2.3957224e-01
  1.6950069e-01
  2.9654104e-02
 -5.1128536e-01
  1.6440375e-02
 -7.1469419e-02
 -2.4632802e-02
 -5.2686512e-01
 -7.0082672e-02
 -6.2369358e-02
 -1.0457782e-01
 -1.5843391e+00
 -1.5715364e-02
  1.2122818e+00
 -7.9307426e-03
 -8.9382988e-01
  1.6480402e+00
 -4.6767110e-01
 -9.5392622e-02
 -3.4016885e-02
  1.1006000e-01
  2.0681596e-01
  8.4255941e-02
 -4.2248044e-02
  2.6927879e-02
  2.3563778e-01
  2.3793064e-02
 -3.4185350e-02
 -3.3449754e-02
  1.0444573e-01
 -5.6574382e-02
 -3.6940914e-02
  4.4676042e-01
  1.1323436e-01
 -2.0192613e-01
 -2.2856485e-02
 -6.7751408e-02
  4.2507011e-02
  3.0811127e-02
 -7.3380135e-02
  2.7496517e-01
  1.5999110e-01
  1.3950896e+00
 -9.7734807e-03
  3.2652250e-01
 -1.0687566e-01
 -3.3071324e-02
 -5.2396572e-01
  1.6866755e-02
  8.0361050e-03
 -5.1300529e-02
 -2.0922294e+00
  2.7954242e-01
  1.6460858e-02
  6.1204363e-02
  9.8678350e-02
  3.0188125e-02
 -1.0310981e-02
  1.9470656e-01
  7.4613072e-02
  5.3245246e-01
  1.1189912e-02
  7.4134790e-03
 -1.0924251e-01
 -2.2764469e-02
 -7.4486472e-02
  3.2011986e-02
 -8.3526261e-02
  7.4619323e-02
  4.7709499e-02
  2.2055166e-02
 -1.5131535e-01
 -1.1986313e+00
 -2.0186190e-01
 -3.6310278e-02
 -2.1992064e+00
 -4.5608658e-02
  5.0299014e-03
  1.9916078e-01
  2.2954704e-02
  2.5335597e-02
 -1.3313192e-01
  7.1991332e-02
  7.9761338e-01
  1.5900679e-02
 -2.0613678e+00
 -1.7150043e-02
 -1.4252417e-01
 -2.3043513e-01
  1.2950140e-01
 -2.2845807e-02
  7.5239293e-02
 -8.0949822e-03
  1.1549478e+00
 -1.0687199e+00
  6.6353196e-01
  5.1697534e-02
  2.5628377e-02
 -1.0364602e-01
  9.1819815e-02
 -2.6054850e-01
  2.3946223e-01
  1.1194472e-01
 -2.1470439e-02
 -8.9245737e-02
  9.2973158e-02
 -6.0306016e-02
  4.2383637e-02
 -1.5390325e-01
  4.2503815e-02
  9.0865299e-02
 -1.1806493e-02
 -4.1576508e-02
 -1.5690893e-01
  1.6148330e-01
  3.2071558e-01
 -6.8653315e-02
  9.2091627e-02
 -9.1226563e-02
 -2.2791934e-01
  4.2488515e-02
  1.7138416e-02
  7.9889846e-01
  1.0134746e-01
 -1.2193221e-01
 -5.3612287e-03
  3.2631315e-02
  1.7522442e-01
  5.6598600e-02
  1.0876178e-03
  6.7411557e-02
  1.3651896e-01
 -8.6133337e-01
  3.6506940e-02
  8.2515158e-02
 -4.6406869e-02
  9.8664910e-02
  4.5064420e-02
  3.0829253e-02
 -2.9217014e-01
 -2.1070231e-02
  1.0914832e-01
  2.0607911e-01
 -1.0878508e-02
 -2.5858367e-02
  1.1602589e-01
  1.9255204e-02
 -3.5564396e+00
  1.0440598e-01
 -9.8840523e-01
  1.2351136e-01
  3.9821405e-02
  3.0154107e-02
  1.3130221e-01
 -1.7137382e-02
  8.2447179e-02
 -2.4048164e-02
  1.4840020e+00
  5.2455002e-01
 -1.8152542e-02
 -9.4079643e-02
 -6.5872394e-02
  2.1046232e-02
  2.0407498e-01
  1.0604110e+00
 -9.7120546e-02
  5.1738072e-02
 -1.1142670e-01
  4.9832352e-02
  3.4071799e-02
  5.0188608e-02
 -2.4029249e-02
 -6.8715431e-02
 -1.7182664e+00
 -5.9682041e-02
  6.8548188e-02
 -2.7729005e-02
 -5.9518591e-02
  5.6047510e-02
 -1.2385498e-01
 -3.9032474e-02
 -5.8653619e-02
  4.6924081e-02
  5.9902515e-02
 -3.3199549e-01
 -3.1278700e-02
 -9.5706511e-01
  2.3504521e-01
  3.1450290e-02
  1.0925312e-01
  1.0490146e-01
  2.1965897e-02
 -8.5036522e-03
  1.2359925e-01
 -1.4270706e-01
  5.4507360e-02
 -3.3618035e+00
 -9.4055392e-02
 -1.5461670e+00
  2.8136983e+00
 -1.6301500e+00
 -1.6104985e+00
  6.1793346e-02
 -3.3379048e-01
 -1.0510890e+00
  8.6965340e-01
  6.0687494e-01
 -9.9213910e-01
  1.8250381e+00
 -7.8660257e-02
  1.0237044e+00
  2.4412279e-01
 -4.9587649e-01
 -2.5390707e-02
  3.3836886e-03
 -1.5581914e+00
 -1.3583887e+00
 -1.1000705e+00
  2.3881662e-01
  1.4466994e+00
  7.5482078e-02
 -1.3946787e+00
 -2.6599810e-01
 -1.0801434e-01
  4.1520646e-01
 -1.4648533e+00
 -1.4054518e+00
 -2.5595266e-01
  8.4039646e-01
 -9.3533657e-02
 -9.2420042e-01
 -1.2690245e+00
  2.2836068e-01
 -8.5038587e-02
 -6.3040078e-01
 -2.5737375e-01
  5.8063900e-01
  1.0344630e+00
 -1.8684359e-01
 -5.1098794e-01
 -9.6365112e-01
  1.1736429e-01
 -7.4396509e-01
 -5.9723759e-01
 -9.9755138e-02
 -4.5373540e-02
  2.2762790e-02
  4.1801304e-01
  9.1843642e-02
 -1.2810544e+00
  9.1316067e-02
  2.5208551e-02
  1.5398546e-01
  1.0481308e-01
 -6.8309329e-02
 -1.3607104e-01
 -2.5513607e-01
 -3.1242831e-02
 -8.5635409e-02
 -6.0487270e-01
 -4.2587519e-02
  2.9441254e-02
  1.9324183e-01
  1.9063129e-01
  1.5852669e-01
 -9.4006747e-02
  2.7329087e-01
 -7.4211724e-02
 -1.6933355e-02
  7.2268948e-02
  2.5479984e-01
  3.4760732e-02
 -1.1564204e-02
  6.2979124e-02
 -4.0192321e-01
  2.3921069e-02
  2.3014244e-02
 -6.8555945e-01
 -6.3885294e-02
 -4.3047056e-02
  3.5842963e-02
  1.7827792e-01
 -9.6174747e-02
  3.4670168e-01
  1.2567957e-02
 -4.5630902e-02
 -1.4909059e-02
  1.1990521e+00
 -1.7996493e-01
 -5.8384296e-02
 -7.5389870e-02
  4.0301036e-02
 -4.0089242e-02
 -6.9274649e-02
  2.8174624e-01
 -1.6626507e-01
 -8.3009891e-02
  8.0515012e-02
 -4.8514497e-02
  4.4939131e-02
  1.2384734e-01
  1.1868125e-01
  1.6619125e-01
 -1.2945655e-01
 -2.8910391e-02
  9.9924477e-03
 -1.8551229e-01
 -4.4021469e-02
 -1.8018320e-01
  6.6866383e-02
  3.4183639e-01
 -3.0417308e-01
  4.6703780e-01
  4.5230869e-02
  6.0022116e-01
 -2.7524871e-01
  1.0528265e-01
  1.3320462e+00
 -2.3290941e-02
 -9.9931717e-02
 -1.3172676e-02
  6.3313723e-02
  5.2745052e-02
  1.1439925e-01
 -2.0733996e-01
  2.6203341e+00
  1.6927338e+00
  1.3781476e-02
  1.8702757e-01
  7.2875601e-01
  1.3343921e-01
  6.8402246e-02
  1.9939691e-01
  1.3543421e-01
  9.5309369e-02
  2.5995821e-01
 -1.0291353e-01
 -5.2928853e-01
  2.3877749e-01
 -2.1417755e-01
 -3.0227063e+00
  2.3342243e-01
 -7.3340639e-02
 -7.5367815e-03
  4.2539068e-02
 -9.4056249e-02
 -1.1037314e-01
 -1.5728453e-01
 -4.2445501e-03
  9.6037891e-03
  1.0761001e-01
  1.2265524e-01
  5.9704550e-02
  4.3310784e-02
 -3.3394817e-02
  7.7414191e-03
  7.4030958e-02
 -2.9246043e-02
  7.5696409e-01
 -9.0064935e-02
  2.0268340e-01
  1.5571769e-01
 -9.7052949e-03
  4.7391816e-03
 -1.0055766e-01
 -4.2093217e-01
  3.5214022e-02
  9.4632524e-01
 -8.0128886e-02
 -1.9052309e-01
 -1.6761471e-03
 -3.7515580e-03
 -1.0891274e-01
 -2.0844629e+00
  4.6451442e-02
 -1.2640587e-02
 -1.1233383e-02
 -1.1258795e-02
 -1.7378766e-02
  4.0405780e-02
 -9.6278172e-03
  1.5126297e-02
 -2.4112163e-02
  1.6636591e-01
  7.2759554e-02
  4.1394293e-02
 -6.5493084e-02
  2.2696084e-01
  5.8295749e-02
  4.1349888e-02
  7.3838711e-02
  2.6577104e-02
  5.1212835e-01
 -3.2860905e-02
  1.0842540e-01
 -6.6978559e-02
  4.2960066e-03
 -1.6419572e-01
  7.9975106e-02
 -7.4115917e-02
 -5.8695629e-02
 -3.7682042e-01
 -9.7043261e-02
 -2.6078627e-01
  1.9679325e-02
 -2.1650331e-02
 -2.1364018e-01
  7.7453882e-02
 -3.3244595e-03
 -1.4459661e-01
  4.6978375e-01
  3.6518686e-02
  1.0316972e-01
  3.0956122e-01
  8.9073405e-02
  8.6402046e-03
  4.0475052e-02
 -8.1069785e-01
 -7.8915417e-02
 -9.6024694e-03
  3.1364515e-02
  9.2317954e-02
 -8.0371821e-01
 -2.3388211e-01
  3.1243628e-01
  4.1639566e-02
 -3.0073883e-02
 -1.9638145e-02
 -1.2818834e-01
  2.8363034e-01
  7.3966056e-02
 -5.0509010e-02
 -5.5441260e-02
 -2.9309807e-02
  8.4113322e-02
  1.2574673e-01
 -3.1620849e-02
  1.3582602e+00
 -6.5282062e-02
  2.1429975e-02
 -1.3549675e-02
  4.7674000e-02
 -1.5830107e-01
 -7.3196597e-02
 -5.7698840e-01
 -4.2528547e-02
  7.9925917e-03
  2.8119838e-01
  9.6852288e-02
  3.6879613e-03
  2.6545806e-02
  7.8320492e-04
 -7.4409790e-02
 -1.4271499e-02
  5.4836545e-02
  2.4493011e-02
 -3.3604254e-03
 -8.1663378e-02
 -4.3004025e-02
  1.6183119e-01
  1.5334167e-01
 -4.0422076e-01
 -2.1096284e-02
  6.0545187e-02
 -1.1045595e-01
  1.9979750e-01
 -2.1846419e-02
  2.0151427e-02
  7.3908046e-02
 -7.8746341e-03
  1.2873584e-01
 -3.9065793e-02
 -2.7691312e-02
 -1.0029892e-01
 -8.1514372e-03
 -2.0616615e-01
  5.5304617e-01
 -1.6971257e+00
  1.4182225e+00
  3.2423215e-03
 -2.0841680e-01
  1.0218845e-02
 -4.8757035e-01
 -1.5870088e-01
  1.9837542e-01
  1.2136529e-02
  1.8639113e-01
 -1.0701081e-02
  6.9938493e-03
 -2.2515025e-02
  4.7490891e-02
 -2.0438679e-01
  1.4403108e-01
 -1.0431944e-01
 -4.9185269e-02
 -7.0694961e-02
 -5.5835219e-03
  1.1639855e-01
 -8.3317441e-01
  6.2114507e-04
  6.8586014e-02
  1.3155243e-02
 -9.6064061e-01
 -1.2792042e-01
  6.0261082e-02
  8.7490954e-02
 -1.7708483e-01
 -3.5540495e-02
  2.4232576e+00
  8.0120325e-01
 -4.3915149e-02
 -3.0969887e+00
 -2.2453327e-02
 -1.5908618e-03
 -3.4514380e-01
  1.6793370e-02
  4.6945624e-02
  8.3625279e-03
 -3.2730031e-01
 -1.0649440e-01
 -7.8079998e-02
 -5.3609890e-01
 -7.0453007e-03
  2.0401288e-02
 -4.3331400e-02
 -1.8631848e-02
  1.4236245e-01
 -1.4119647e-01
 -1.2132626e+00
 -1.3309282e-01
 -1.6222101e+00
 -7.8084194e-03
 -4.1229716e-01
 -1.1470368e-02
 -1.3419501e-01
 -2.5494026e-03
 -5.4141950e-02
 -1.4734357e-02
  4.6188015e-01
 -7.0277482e-02
  1.2995978e-01
  1.2914597e-02
  2.3437709e-02
 -1.0415808e-01
 -6.9677611e-03
  5.2304029e-02
 -5.1895615e-02
  7.5504088e-01
  6.4823769e-02
 -1.6331981e-01
 -1.3021271e-02
 -2.5359362e-01
  1.7595840e-01
  3.1202316e-01
  4.0325320e-01
  1.0479137e-01
 -3.6936130e-02
  2.2850546e-01
 -5.4438058e-03
  1.5747832e-01
  7.8030363e-02
  6.4717300e-02
  2.8553913e+00
  2.9548040e-02
 -1.5585203e-01
  4.1684918e-03
 -3.6086161e-02
  1.0234917e-02
  1.8934106e-02
 -3.0633442e-02
  7.6711990e-02
 -1.5526101e-01
  5.2301314e-02
 -4.5815581e-01
  9.5061526e-02
  8.0444261e-02
  2.2344984e-01
  7.7654183e-02
  1.5572228e-02
  2.1423821e-01
 -1.0504298e-01
  2.4831299e-01
 -2.7679116e-01
  5.1912181e-02
  6.7108855e-02
 -4.3629598e-02
  6.3785717e-02
  5.7678558e-02
 -1.2220662e-01
  1.6276540e-01
  2.4168217e-01
  1.0595918e-01
  3.7888970e-02
  1.5081221e+00
 -9.1221847e-02
 -4.9489077e-02
 -2.9543653e-01
  4.5002708e-01
  2.9633340e-01
  2.9399438e-02
 -9.4862506e-03
  5.9183300e-02
 -2.1502614e-01
  2.2252172e-01
  2.4885057e-02
 -4.2705204e-02
 -8.3065510e-02
  1.9128375e-01
 -1.1134190e-01
 -5.3953581e-02
  1.0714298e-01
 -7.3104456e-02
  4.1300063e+00
 -5.0189227e-01
  4.8391643e-01
  4.4794958e-02
  3.0825366e-03
  3.0483229e-02
  4.7831833e-02
  1.2036574e-02
 -1.5159895e-01
 -2.1316838e+00
 -9.3215421e-02
  9.0222284e-03
 -7.9308134e-03
  1.0400027e-03
  6.8493389e-02
 -3.3257225e-01
  8.8439761e-03
 -2.0045459e-02
 -7.3897637e-02
  9.4802035e-03
  5.8405992e-02
  1.0084486e-01
 -7.1058661e-02
 -7.7421395e-03
  9.8825186e-02
 -1.1931016e-01
  1.4493185e-01
  1.2875266e-01
  1.2275488e-01
  6.7668833e-02
  6.2887311e-02
  7.5789481e-02
  8.4666675e-03
 -2.6828917e-02
  2.3250042e-01
  3.2637235e-02
 -1.3554083e-01
  3.2084882e-01
 -2.5212411e-02
 -1.6105961e-02
 -4.5942329e-02
 -3.3584246e-01
  3.7781093e-02
 -1.1755390e-01
 -1.1960470e-02
  7.0551322e-03
  1.1332188e-01
  1.1994482e+00
 -1.1263158e+00
 -1.5235656e-01
  3.7116546e-02
 -1.0511266e-01
 -4.8758779e-03
 -1.3145297e-02
 -4.5731690e-02
 -2.0990124e-02
 -1.2996963e-01
 -9.9695493e-03
  3.8946297e-02
 -2.0506769e-01
 -1.0273197e-01
  1.5309347e-02
 -2.4531692e-02
 -8.9312606e-02
  1.5584508e-01
 -1.3195190e-01
  1.3307546e-01
  1.5088029e-01
  1.6526677e-01
  1.0186140e-01
  1.9588385e-02
 -3.5201702e-02
  7.7955760e-02
  7.0138335e-02
  9.9165805e-02
 -1.2818487e-01
 -1.0176849e+00
  1.5797320e-01
 -2.3690157e-02
  1.4877498e+00
  1.2549885e-01
 -1.8376614e-03
 -6.8362835e-03
  4.0789507e-02
 -8.1451818e-02
 -7.0703998e-02
  2.9099364e+00
 -1.4525901e-01
 -6.7847893e-02
  1.2049756e-01
  7.1387333e-03
  2.2690308e-01
  3.7206784e-02
  9.0004444e-02
  8.3108902e-02
  1.1843672e+00
  3.1200063e-01
 -4.8562296e-02
  7.4252267e-03
  5.1046718e-02
  1.8734830e-02
  5.5078793e-02
 -2.3989649e-01
 -2.7068651e-01
  2.0688251e-01
 -2.9227799e-01
 -2.8672926e-02
  2.0858066e-01
 -6.2435921e-02
  3.3377610e-02
  2.6947212e+00
 -2.6433194e-01
 -8.8696502e-02
  5.4658144e-03
  7.3579505e-02
  8.4614448e-02
 -5.3421844e-02
  3.1195292e-01
 -3.3431002e-01
 -1.8347360e-02
 -1.9491684e-01
 -2.1564017e-01
  1.2704991e-01
 -2.4096442e-02
 -1.8463356e-02
 -1.1524948e-01
 -2.0039216e-01
  5.7000693e-02
 -1.1173284e-01
  2.4596884e+00
  1.3103474e-02
 -1.8793033e-01
 -4.6443485e-02
 -1.0174409e-02
 -7.1064197e-02
 -3.1272124e-02
  1.9456416e-01
 -5.8355685e-02
  8.9787984e-01
  6.5125585e-02
  2.2742681e-02
 -1.0035273e+00
  1.9629361e-01
 -5.3287305e-02
 -2.2855407e-01
 -4.7564503e-02
  7.1903527e-02
  4.2576857e-02
 -4.4391295e-01
  5.3534519e-02
 -1.2009073e-01
  3.3232171e-02
  3.0233135e-02
  1.4658805e+00
 -2.4433041e+00
 -3.7246090e-01
  3.9609253e-02
  3.8164929e-02
 -4.8795085e-02
  1.2466704e-01
  2.1724310e+00
  1.0443294e-01
  1.0048836e-01
  1.7369461e-01
 -1.3490903e-02
  8.3782297e-01
 -1.1260050e-03
  1.4836169e+00
 -1.5367773e-01
  1.0370316e-01
 -2.0566737e-02
  4.4008613e-02
 -2.0552292e-03
  3.8020764e-02
 -2.5419051e-02
 -8.2061887e-02
 -2.5901932e-03
 -3.8594715e-03
  5.8248552e-04
 -6.5360203e-02
  4.5792368e-01
 -1.1953443e-01
  6.7575097e-01
  1.6648768e-01
  4.9368236e-02
 -2.0441370e-02
  1.7787416e-03
  1.5291619e-01
 -3.2865440e-03
 -3.7345466e-01
  3.3791244e-02
  3.6349952e-01
 -9.7931750e-02
 -8.2357548e-02
 -5.2553616e-02
  1.0801013e-01
  1.2105419e-02
  1.2583156e-04
  9.4618075e-02
 -5.7429373e-03
 -8.7616928e-03
 -5.5799220e-02
  5.0666749e-01
 -3.8374853e-01
  4.9000424e-01
 -9.7293198e-01
 -4.5124820e-01
  2.1505866e-02
  1.1753472e+00
  1.0937135e+00
 -5.1258230e-01
  1.2272637e-01
 -4.3317251e-02
  8.2117822e-03
 -1.6965538e-01
 -2.9621099e-03
  5.1668304e-01
 -1.8463129e-01
 -5.2651539e-02
  5.7499046e-03
 -4.3135006e-02
  6.1839783e-01
 -3.2478511e-02
 -5.5255424e-02
 -1.4418976e-01
 -7.9802927e-03
 -4.3208617e-01
 -6.7483597e-02
  1.9788018e+00
  1.3726703e+00
  2.2737908e-01
 -2.6502235e-02
 -5.7938106e-02
  1.0786903e-01
 -6.8355799e-02
 -1.3217497e-01
 -5.8598727e-02
  2.7284408e-02
 -2.0006604e-01
  2.1524305e+00
  1.1138830e-01
 -6.1287445e-01
  2.1234483e-02
  2.9930300e-01
  1.3570324e-01
  3.4815114e-02
 -2.0323932e-02
  3.1687357e-02
  1.1155714e-01
  1.2298169e-02
  4.5114061e-01
 -3.0242424e-02
 -2.5432820e+00
  3.1064373e-01
 -4.0177289e-01
  1.0472118e+00
 -6.8955213e-01
  2.7896780e-01
  4.1684337e-02
 -1.4065088e+00
 -1.2319499e-01
 -6.2670618e-02
 -1.4099757e-01
 -1.1988279e+00
  1.2972595e-01
  1.2503039e+00
 -3.5294514e-02
 -1.2926196e-01
 -7.3337160e-02
 -1.4061010e-02
 -8.1763379e-02
  1.1155099e-01
  1.5812786e-01
 -2.7859467e-01
 -2.5190008e-01
  2.0541425e-01
  1.3996008e-01
 -1.5974884e-01
  3.5021797e-01
 -1.1845452e-01
  3.7114430e-02
  2.7047703e-01
 -1.4234361e-01
  4.3846875e-02
 -1.4544895e-01
  5.1702732e-01
  4.0845871e-01
  1.5905629e-01
  1.5088521e-01
 -2.8491959e-02
  3.7637666e-02
 -6.5069747e-01
 -1.1812086e-01
 -7.0090465e-02
 -1.9537918e-01
 -3.3512574e-01
  2.9727576e+00
  4.6490127e-01
 -8.2843252e-02
  4.9120914e-02
 -6.5928005e-02
 -6.9548823e-02
 -1.2333822e-01
  7.3483741e-01
 -6.4537600e-02
  2.7477951e+00
  2.6033187e-02
  1.7736325e-01
 -1.6694145e-01
  9.6227124e-02
  3.8013127e-02
 -2.3724420e-01
 -2.9787576e-02
  2.8878936e-01
 -1.9644265e-01
 -1.2672475e-01
  2.8293582e-03
  2.1159101e-02
 -7.3032647e-02
  3.1889156e-02
 -9.0306997e-02
  1.8044151e-01
  3.5448380e-02
 -1.2740452e-02
  4.3521211e-02
 -1.3994150e-01
 -5.1386453e-02
 -1.5005891e-01
  1.9631904e-02
 -1.7087061e-02
 -5.0407413e-02
 -6.0239470e-01
  2.4623553e-01
  6.1524626e-02
  1.2821039e-02
  1.4386319e-01
  2.3433995e+00
 -1.7404670e-02
  2.2686529e-03
  3.4457222e-02
  6.7136414e-02
 -6.0542792e-02
 -1.7865274e-02
 -4.7057051e-02
 -1.9630685e+00
 -2.7763147e-02
 -1.5820420e-01
 -2.1565209e-01
  6.9318607e-02
 -1.2595478e-01
 -1.0679396e-01
  2.6223725e-02
 -3.5872873e-02
 -7.7134781e-02
 -1.9679633e-01
 -1.9145347e-01
  1.3798314e-01
 -5.5066537e-02
  2.6105614e-02
 -3.2427900e-02
 -4.5978058e-02
  9.9353283e-04
  2.5896246e-02
 -5.7785336e-02
  7.9271004e-02
 -1.9373370e-02
  2.5655844e-03
 -1.4163797e-01
  1.5174799e-02
  6.4750411e-02
 -1.2270532e+00
 -1.5026763e-01
  1.0851785e+00
  8.8668823e-02
  1.9691705e-03
 -8.5799292e-02
 -9.2532665e-01
  1.7862128e-01
 -1.5625206e-01
  1.4808550e-01
  1.1855216e-01
 -3.1609994e-01
  1.8030383e-02
  3.5179812e-02
 -1.8319529e-02
 -2.2852650e+00
  4.4031903e-02
 -3.1604338e-01
  3.4762897e-02
 -6.5709935e-03
 -1.3196810e-02
  5.5313729e-02
 -2.0018613e-02
  6.5607004e-02
  1.2294345e-03
  4.0331285e-02
  2.5159789e-02
 -1.4278731e-01
  1.9454298e-03
 -1.5307166e-01
 -2.0708639e-02
  3.1195989e-01
  3.4407180e-02
 -1.4318219e-01
 -4.8625325e-03
  9.0103872e-02
 -3.1921658e-04
 -5.1045429e-02
 -1.9335283e-02
 -2.4200842e-01
  1.0570673e-01
  3.7288401e-02
 -2.0356290e-01
  3.6297139e-02
  7.2018571e-02
  8.8583380e-01
 -1.9135542e-01
 -9.1229230e-03
 -2.7837407e-02
  1.6589214e-01
  4.7753835e+00
  4.7180695e-03
  6.3647196e-02
 -5.3460602e-02
  6.7688287e-03
 -1.1704490e-01
  1.0610421e-01
  2.0590001e-01
  4.1843897e-01
  1.8138114e-01
  1.4931978e+00
  3.1297582e-01
 -7.3195525e-02
  1.4845711e-01
  3.8749799e-01
 -1.0589418e-01
  8.8829592e-02
 -1.0129042e-02
 -2.3826120e-02
 -6.1610299e-01
 -3.1154819e-02
 -1.2645201e-01
 -7.4910194e-02
  1.1186135e-01
  1.0107129e-01
 -1.1949360e-01
 -5.7280291e-02
 -5.7205528e-01
  1.3480972e-01
  1.8692205e-02
 -3.0859113e-02
  2.7329442e-01
  6.7494430e-02
  3.6463205e-02
  2.3025684e-01
  1.2128140e-01
  2.4879890e-02
 -4.1225724e-02
  7.4862368e-02
 -1.8594553e-01
 -2.3148490e-01
  5.7215754e-02
 -3.2398179e-02
  2.3826018e-01
  1.4355323e-01
 -6.4360052e-02
  1.0762888e-01
  6.0483213e-03
  1.5001266e-01
 -7.2374262e-02
 -1.3701224e-03
  1.9056167e-01
 -3.4854475e-02
 -2.2684488e-02
  1.4322258e-02
 -9.2704058e-02
  1.4511539e-01
 -1.9160768e-02
  1.2382681e-02
  1.2247818e-01
 -1.7175223e-01
  2.2262124e-02
 -2.2118583e-01
 -3.7752988e-03
 -1.7068154e-01
 -2.4595596e-01
 -2.1333803e-01
  1.4387064e-01
  1.6062304e-01
  4.8661447e-01
  9.9973439e-04
  2.2744330e-02
  2.0338472e-02
 -8.2181521e-02
  5.6772166e-01
 -3.8917460e-02
  9.8772850e-03
 -1.7094200e-02
  1.1485169e-01
 -4.3332795e-05
 -1.0395411e-01
  9.2414573e-02
 -8.0824487e-02
 -3.6004651e+00
 -1.5832802e-02
 -1.8769648e-02
 -2.7016017e-01
  2.3498230e-01
 -6.2833703e-01
  2.8856568e+00
  1.7183854e-01
 -2.5980949e-01
 -9.7068876e-02
  8.9918002e-02
  1.5066720e-02
  4.9319598e-03
  1.3943051e-01
 -2.9387510e+00
 -1.3288993e-01
  1.4506193e-01
  8.2514048e-02
  4.2496626e-03
 -2.5339115e-01
 -3.9864025e+00
 -1.6658777e-01
 -2.3182787e-01
  1.4907438e-03
  1.2155716e-01
 -8.2869129e-03
  3.1929982e-01
  5.0467979e-02
 -5.7847392e-02
  2.2590831e-02
  4.6315029e-02
 -2.0657215e-01
  2.0833666e-02
 -4.5419335e+00
  2.5247180e+00
 -4.1202733e-01
 -5.7671624e-01
 -7.9670250e-01
  6.9272732e-03
 -3.4087483e-02
 -4.2506646e-02
  3.6481965e-02
  6.9506690e-02
  9.8701429e-01
  6.8491444e-02
 -2.0319866e-02
 -4.7459703e-02
 -1.7739250e-04
  1.2256445e-01
 -2.3516078e-02
  2.0627644e-02
 -3.6693450e-02
 -7.4438587e-02
 -2.2820877e-02
  1.4197579e-01
 -7.6449215e-03
 -1.7936731e-02
 -6.8290621e-01
 -1.0132729e-01
 -1.5404592e-01
  1.0496981e-01
  5.7935104e-02
  1.0995649e-01
 -1.3242328e-01
  2.5034148e-02
 -1.6056266e-01
 -5.0813727e-02
 -1.7479028e-01
  3.2578733e-02
 -1.3698368e-01
 -6.4804181e-02
 -2.5896990e-01
 -1.4260012e-01
  1.4091778e-01
 -4.7709994e-02
  4.1733101e-01
  4.6200138e-02
 -1.0913120e-01
  5.2448842e-03
 -6.9907412e-02
  1.4916952e-01
  1.5759641e-01
  1.3047360e-01
  2.4802382e+00
 -4.8715159e-02
 -3.4851041e-02
  9.4628081e-02
  1.2492586e-01
 -2.8552162e-02
 -6.0060190e-04
 -1.4210270e-01
  2.1828985e-02
 -7.7737138e-02
  5.6476718e-01
 -1.9752440e-01
 -1.4252554e-01
  1.8549563e-02
 -1.4969008e-01
 -4.9227840e-01
  1.8483385e-02
 -1.0859705e-01
  1.2883382e-01
 -1.0499736e-01
  4.5535043e-03
  5.8551975e-02
 -1.3151792e-01
 -3.7597153e-02
 -4.7656364e-04
 -1.3406091e+00
  1.6732784e-01
 -1.7044111e-01
 -3.5234611e-02
 -2.4290691e-01
  4.9698066e-02
  5.1590046e-03
  2.4275030e-03
 -1.4145754e-01
  1.8782634e-02
 -5.0317910e-02
  4.0471781e-02
 -1.1703990e-02
 -1.4797445e-01
 -2.1113653e-01
  1.6372630e-01
  8.4595054e-02
 -4.9801037e-02
  8.3326243e-02
  7.6575361e-02
  6.1910681e-02
 -6.0321063e-02
 -7.6907692e-03
 -1.5267663e-01
  2.0505330e-02
 -2.9119685e-02
  5.9360374e-02
 -7.1402334e-02
 -3.1864376e+00
  7.7781253e-02
 -1.3826279e-02
 -1.6196986e-01
 -1.0391593e-01
  9.0616196e-02
 -4.7807585e-02
  7.5487554e-02
 -1.8480279e-01
 -1.0703795e-01
 -1.8060852e-02
  7.8996763e-02
 -4.9549392e-03
  1.9381468e-01
  6.8629366e-01
  1.8440600e-01
  1.3925329e-02
 -9.5490098e-02
 -1.0490829e+00
  1.0448010e-01
 -4.0448960e-02
 -9.5285282e-02
 -8.7955162e-02
  6.9887689e-03
  2.8090205e-02
 -8.5155225e-01
  2.4203822e-01
 -1.0240949e-02
  4.9233880e-02
  2.8185898e-02
  5.6675665e-02
 -9.7442932e-02
 -4.2225242e-02
 -3.9613336e-01
  6.8367608e-02
 -1.5575595e-01
 -1.9142392e-01
 -1.0758464e+00
 -5.6558274e-02
 -5.6378372e-02
 -1.5237442e-02
 -1.2712196e-01
 -3.2785635e-02
  2.1081755e-02
 -1.1574115e-01
  5.9973025e-01
 -1.0281291e-01
  5.2370485e-02
 -4.9858622e-02
  2.4892761e-01
 -5.5288274e-02
  7.5045234e-01
 -5.1360585e-02
 -7.2094174e-03
 -1.8633144e-02
 -2.2485938e-02
 -1.2802127e-01
  3.9192167e-01
  6.1075974e-01
  4.6451632e-02
 -2.8080016e-02
  4.7981325e-03
 -1.9225925e-02
 -3.8203500e-02
 -2.4995191e-03
 -4.8774432e-02
 -1.1081700e-01
 -1.3316799e+00
  6.5934300e-02
 -1.0867736e-01
 -5.8004227e-02
  1.3279262e-02
  6.9084071e-02
  2.3972856e-02
 -3.9700577e-01
  3.0776608e-01
 -1.0934072e-01
  1.3964796e-02
 -2.0965496e-01
  3.2900399e-01
  1.7327437e-01
  1.0335483e-01
 -2.9182580e-01
 -8.1726819e-02
  1.7002724e-01
 -5.7038292e-02
 -1.7667462e-01
  3.9983071e-02
  3.4239646e-02
  6.9536865e-02
  1.2369897e-01
  7.2084451e-01
  5.8652267e+00
 -9.3752546e-03
 -6.0955334e-02
 -9.5541231e-02
  2.0831847e-01
 -1.3293112e-02
  5.6349397e-02
  2.2682821e-02
 -4.2375278e-01
 -2.3357891e-02
 -5.3858917e-02
 -5.0458346e-02
 -5.2061345e-02
  1.0165038e+00
 -7.9312794e-02
 -2.0156558e-01
 -3.2703422e-02
 -2.1201193e-02
  1.7296650e-01
  6.6815771e-02
  3.5754386e-02
  6.3804789e-03
 -9.5517449e-03
  5.7246633e-02
  3.4106717e-02
  1.0165419e-01
  2.3350023e-01
  4.3881625e-01
  4.8658438e-02
  1.2666233e-01
 -1.1901706e-01
  3.6477588e-02
 -1.7499669e-01
 -6.9732428e-02
 -1.2790695e-01
  1.2441685e-01
 -4.3228064e+00
  1.1631399e-01
 -3.7483200e-02
  1.0140951e-02
  2.6916897e-01
  7.5659230e-02
  6.7754783e-02
  2.2361974e-01
  7.4337842e-03
 -1.8481576e-01
  4.3772522e-02
 -8.6880594e-02
  5.2345641e-02
  1.4304458e-02
 -5.2809700e-02
 -5.0902281e-02
  1.1853804e-01
  1.3348199e-01
  2.5708698e-02
 -9.7457528e-02
  9.0256579e-02
 -6.1853468e-02
 -9.9928655e-02
  7.6964825e-02
 -3.7646163e-02
  4.5378652e-01
  1.2285634e-01
  1.3654022e-02
  4.4879625e-03
  9.5962346e-02
 -5.2483720e-01
  4.9332637e-02
 -1.9110816e-02
 -3.1528182e-02
  1.8024977e-03
 -1.8247508e-02
  1.9454049e-01
 -1.1104703e-01
 -9.0556726e-02
  2.5341282e-02
 -1.0024856e-01
 -1.7127489e-01
  1.2022135e-02
 -7.5205374e-03
  1.0571435e-01
 -3.2185504e-01
  5.5156194e-02
 -1.5200299e-01
 -2.7545491e-01
  1.4152148e-01
 -2.7840096e-01
  9.9909300e-01
 -2.1535112e-01
  1.6920014e-01
 -4.9153820e-01
 -1.1355540e-01
  2.7282247e-01
  2.5010806e-02
  5.3500843e-01
  2.6103729e-01
 -9.8256506e-03
  2.1693595e-01
  8.1737317e-02
  5.7971172e-02
  6.3309032e-03
  4.4837411e-02
 -1.8964730e-02
 -2.2868835e-03
 -1.9414248e-01
 -1.3692278e-01
 -3.7644238e+00
 -3.4150951e-02
 -2.3429742e-02
 -1.1854758e-02
  5.4460272e-02
 -2.0743017e-01
 -1.5593861e-03
  1.2928679e+00
 -3.6997604e-01
 -5.2392685e-01
  4.2656161e-02
 -5.8363900e-03
 -5.4215796e-02
 -5.3250976e-03
 -1.9175000e-01
  1.6610426e-01
 -7.8858860e-02
  2.8412721e-01
  9.5875941e-02
 -5.7330463e-02
  5.3758806e-01
 -1.0024463e-01
  9.3675055e-02
  7.7258661e-02
  3.4781624e-02
  5.0637867e-02
  1.2028757e-01
 -6.3071132e-02
 -1.4875885e+00
  5.8040184e-01
  5.9809081e-02
  1.2496414e-01
  1.0764140e-01
  3.2276209e-02
  1.4341460e-01
  1.4163323e-01
  4.1345692e-01
  1.6448822e-02
 -1.3572505e-01
 -1.6667396e+00
 -1.8017800e-01
 -3.0607530e-01
 -4.8393987e-02
 -4.6733755e-01
 -9.4680655e-01
  5.6565881e-02
  8.2620323e-02
 -1.0772676e-01
 -1.2966656e-02
  1.0346144e-01
 -7.3221797e-01
 -1.3294701e-01
 -8.4426031e-02
  1.0318361e-01
  2.8773707e-01
  4.1496690e-02
 -2.6085809e-02
  5.1340435e-02
 -5.4364223e-02
 -9.4672523e-02
  3.7590063e-01
 -3.4209811e-03
 -2.4267327e-02
  2.3652212e-01
 -1.3121632e-01
 -2.7648650e-02
  2.4495073e-01
  2.8337750e-01
 -4.5522500e-02
  8.6320229e-02
  1.0141524e-02
  1.7096352e-02
  2.1726382e-01
  3.6827803e-02
  1.7991846e-02
 -1.2348615e-02
  2.9385796e-01
  5.4631952e-02
 -1.2433559e-02
 -1.5093608e-02
  3.1177247e-02
 -1.0407113e-01
  3.1930886e-02
  1.9344644e-01
 -1.8969171e-02
  3.5963681e-02
 -2.9501903e-01
 -1.4999622e-01
  8.1268775e-01
  5.2764222e-02
 -5.1207244e-01
 -1.0968717e+00
 -1.4474948e-01
 -2.6971248e-01
  6.9564301e-01
  4.5843083e-02
  5.6414849e-01
 -2.1038787e-01
 -1.5240398e-01
  1.6820360e+00
 -1.2267653e+00
  3.5764113e-02
  8.4673750e-01
  3.1147778e-01
 -2.5821456e-01
  9.9066146e-02
  3.1893846e-02
  2.4971284e-01
 -1.6716253e-02
  7.3477560e-01
 -1.9971627e-01
 -1.2690200e-01
 -7.1233295e-02
  7.1608894e-02
  3.6496446e-01
  3.0980563e-01
 -6.6340506e-01
  1.4886443e-01
  8.3565706e-04
  7.3361784e-01
 -3.4593865e-01
 -1.7144388e-01
  3.2076362e-01
 -2.4266382e-01
  3.6567965e-01
  4.6111867e-01
  5.4995674e-01
  4.4183418e-01
  7.4382119e-02
  2.0634469e-01
  1.5568171e-01
 -6.0535014e-02
 -4.9729519e-02
 -6.0595101e-01
  6.5368630e-02
  1.0241051e-01
 -1.9043283e-01
  1.3914866e+00
  5.0329365e-02
 -1.6017865e-01
 -2.1734998e-01
 -1.4305422e-01
 -3.5413125e-01
  3.3521926e-01
 -3.1976125e-01
 -1.3357474e-01
 -8.0714338e-02
  1.3259819e-02
 -4.5240585e-02
  5.9294820e-02
 -5.4705165e-02
  5.4534221e-01
 -2.7674463e-01
  6.9410061e-03
 -4.6629805e-02
 -2.7729482e-03
 -6.1911549e-03
  3.9621818e-01
  1.2879486e-01
 -2.2198029e-02
  1.5292962e-01
  8.4368622e-01
 -2.6020639e-02
  3.8411441e-01
  1.1058624e-01
  5.7870664e-02
 -5.3214438e-02
 -1.1524926e-01
 -1.4387718e-01
  1.2633892e-02
 -2.5570478e-02
 -1.0766842e-02
 -1.9475439e-01
 -8.9373159e-01
 -2.1208470e+00
  5.1872566e-02
  3.2947455e-02
 -1.4757879e-01
 -1.1992796e-03
 -1.0168824e-02
 -1.4105320e-01
 -2.6738267e-02
  4.9841341e-01
  1.7407495e+00
 -3.1498078e-02
 -1.1053518e-01
 -9.7597584e-02
 -7.3921882e-02
 -1.5110938e-01
  4.0628558e-01
 -1.2829337e-01
  3.3120406e-01
  1.2474650e-02
  8.3822899e-02
  1.0518660e-01
  2.2094676e-01
 -3.3316210e-02
  2.5911001e-02
  2.3744851e-02
  9.6187644e-02
 -2.0580426e-02
  1.4875661e-01
 -1.6654816e-02
  8.3695106e-02
 -9.5258094e-03
 -4.3864536e-01
  2.8031486e-01
  3.9043002e-02
 -8.2460493e-02
  1.8737006e-01
 -1.1410508e+00
 -2.8858524e-02
 -9.4431806e-01
  3.8578296e-03
  2.0512605e-02
 -9.1902629e-02
 -1.5992425e-02
 -2.5834405e-01
 -1.2208928e-01
 -4.0417228e-02
  2.1374702e-01
  1.6135311e+00
 -1.0585082e-01
  1.6494080e-01
  2.1825410e-01
  5.2357090e-01
 -1.8460061e-01
  3.8981389e-02
  6.3472062e-02
 -9.6774161e-02
 -1.4791870e+00
  2.2673430e-01
 -1.8834693e-02
 -7.6782107e-02
 -1.0203846e+00
 -9.2750536e-03
 -3.5338294e-02
  9.2862137e-03
 -4.8390124e-02
 -1.9123940e-01
 -1.6721718e-01
 -4.8596155e-02
  3.6946263e-02
  2.4590954e-01
 -1.9196769e-02
  3.0750224e-02
  1.2316535e-01
  1.2997891e-01
  8.8741519e-02
  3.4534664e+00
 -7.8546181e-02
  9.4032288e-02
  9.9998116e-02
 -3.5007749e-02
  3.4024176e-01
  5.7651561e-02
  2.4948489e-02
  9.5108084e-02
  1.2931028e-01
  4.4981557e-01
 -2.6042572e-01
 -3.1843260e-02
 -1.5558301e-01
 -2.3400562e-02
 -1.8963490e-03
  1.4232833e-02
 -1.0791801e-01
 -2.2601166e+00
 -2.6836264e-01
 -4.7411360e-02
  1.3047652e-03
  8.3570918e-03
  4.2867333e-02
  2.3276381e-02
 -5.1131193e-02
 -7.2128557e-02
  7.5675324e-02
  3.7595421e-02
 -2.2748889e-01
 -2.3838598e-02
 -9.0693504e-02
  1.6888393e-04
  1.0105493e-01
 -9.7467339e-01
 -6.0005113e-02
  4.2495519e-02
  3.0594340e-02
 -6.9696575e-02
  9.2992373e-03
  6.9881499e-01
  9.1560549e-01
 -1.2737641e-01
  2.7180532e-01
 -5.5628210e-02
  2.0213192e-02
 -1.3502020e+00
 -2.4947584e+00
 -1.2436113e-02
 -7.5478040e-02
 -1.8815422e-01
  2.3735052e-01
 -4.2668574e-02
 -4.3156575e-02
  6.8146221e-02
 -2.7526060e-02
 -1.7023408e-01
 -1.5486351e-01
 -3.3501957e-02
 -3.4247991e-02
  2.8392877e-02
  2.3450972e-01
  2.5979316e-02
 -1.4701308e-01
 -3.2101944e-02
 -2.9768148e-01
  1.7445019e-01
  2.7386081e-01
  7.8573626e-01
  9.9068983e-03
 -4.0407309e-01
  3.2920998e-01
 -2.3235185e-01
 -4.6254122e-01
  4.9626550e-01
 -4.3850818e-01
 -3.9057583e-01
  5.3832671e-03
  1.2939764e+00
 -1.6436258e-01
 -1.3178288e+00
  3.8790432e-01
  1.3205993e-01
 -1.9426525e-01
 -6.6765118e-01
  1.7686550e-01
  8.4206307e-01
 -6.1694507e-02
 -3.3341270e-02
 -5.5959642e-01
 -6.9437701e-01
  9.9991918e-02
  2.6973283e-01
  7.1945950e-02
  1.4339498e-01
 -7.9674524e-01
  6.8679012e-02
  2.3268406e-01
 -1.0041987e-02
  1.1694566e-01
 -1.9509473e-01
 -1.6089725e-01
  5.2259944e-02
  1.5584773e-01
 -2.9721098e-02
 -7.2507858e-02
 -3.4840356e-03
 -1.1332008e-02
 -1.5858254e-01
 -6.5619379e-02
 -9.8170422e-02
  2.5594655e-02
  7.6496643e-01
 -1.1116809e+00
  3.1554036e-02
  3.8968116e-02
 -1.9897631e-01
 -6.2998474e-02
 -1.3725951e-01
 -5.8738943e-03
 -3.4522036e-01
 -6.4244226e-02
 -1.5283993e+00
  8.8955432e-02
 -2.9393944e-01
 -2.2489789e-01
  3.0553091e-01
 -8.2354188e-02
  3.3309737e-01
 -5.5017394e-01
  1.3131097e-01
 -1.8056698e-02
 -1.9844609e-01
  1.9698595e-01
 -2.8412575e-02
 -2.3680194e-01
  9.0567864e-02
 -1.4596450e-01
 -9.1396123e-02
  1.2284038e-01
  8.5628130e-02
 -1.6680558e-01
 -1.8345119e-02
 -1.7919183e-01
 -6.0233481e-02
  3.3603746e-01
 -1.8838206e-02
  3.0492011e-02
 -8.7220715e-03
 -7.2811358e-02
 -3.5766397e-02
  4.0355384e-02
 -6.8293512e-04
  1.3706474e-01
 -1.0960915e-01
 -9.3205094e-02
 -2.6251191e-01
  9.3644774e-03
 -2.7702209e-01
  8.0313489e-02
 -1.8891397e-01
 -4.0886503e-01
 -2.6393082e-02
  1.0488901e-01
 -2.8653564e+00
 -1.5075265e-01
 -1.4682744e-01
  9.7277410e-02
  4.1366491e-01
  5.6280054e-02
 -1.8686770e-01
  2.5436394e-03
 -4.8025668e-02
  2.0678124e-01
 -2.1165229e-02
 -2.7979445e-01
 -1.5180966e+00
  9.4452100e-03
  4.5266810e-01
  1.3547741e+00
  1.1671905e-02
  1.3018370e-02
  1.0885324e+00
  1.4283199e+00
  2.8362432e-01
 -1.8247824e+00
 -4.5492974e-04
  1.1555138e-03
 -5.9644248e-02
  1.4861952e-01
  3.4360373e-01
 -1.8000415e-01
  2.6415963e-02
  6.2088154e-02
 -2.6764506e-02
 -2.9069556e-02
  1.7054902e-01
  4.2725600e-02
  2.1713912e-01
 -5.0442481e-01
  9.6486909e-03
  2.5034694e-02
  8.3669819e-02
  1.8738036e-01
 -5.2165762e-02
  1.6505678e-01
 -2.1689616e-01
 -8.2263452e-01
 -5.5030517e-02
 -9.3963325e-02
  3.4829065e-02
 -2.1231180e-01
 -1.5088328e+00
 -2.7506046e-02
  1.5947182e-01
  1.1252663e-01
  2.4315758e-02
 -6.4213701e-02
  1.0814911e+00
 -4.2409919e-02
 -1.6735405e-01
  2.0044500e-02
 -8.8887751e-02
  5.5115588e-02
  6.0374919e-02
 -5.5858757e-02
 -8.5508972e-02
  9.0487681e-02
 -1.3888087e+00
  1.2422180e-01
  1.9071744e-01
  4.8625687e-01
  8.4905811e-02
 -1.1199311e-02
  1.8774325e-01
  9.1094159e-02
  3.2652527e-01
 -1.2121110e-01
 -1.3964944e+00
 -6.4586006e-02
  9.8805189e-02
 -3.7291744e-01
  1.7893697e-01
 -6.3245714e-01
  3.8018177e+00
  2.3704803e-02
  5.6792760e-01
  5.6432160e-03
 -1.8739097e-01
 -3.8713828e-02
  8.2084455e-02
 -2.6867246e-02
 -1.1150221e-01
  5.3761680e-02
 -1.6024210e-02
 -4.3809369e-01
  4.7705863e-03
  5.9654549e-02
 -5.5865508e-01
 -4.4900063e-02
 -3.9406452e-02
 -2.1220611e-02
  7.8098230e-02
 -1.7646294e-02
 -2.2215796e-01
 -8.4689893e-02
  3.8259728e+00
 -9.9248999e-01
  2.4059010e-01
  1.5464525e-01
  2.9254239e-02
 -1.3203870e-01
  7.2255738e-02
  1.7030777e-01
 -7.8151478e-03
  5.5047542e-02
  8.6739704e-02
 -1.8871995e+00
  1.0022163e-01
  4.0746458e-02
 -2.9138513e-02
 -1.4414176e-05
 -1.0527337e-01
  1.9828774e-01
  3.4218636e-01
  1.3002621e-01
  1.7106400e-01
 -8.0654612e-03
 -3.5526175e-02
 -8.7581463e-02
  5.4676044e-01
 -1.5028760e-01
  4.9458429e-01
  2.0002325e-01
  4.4003296e-01
 -4.4922635e-02
 -1.8929790e-01
  2.8890103e-01
 -5.8362079e-01
  6.5194678e-01
  2.9754466e-01
  6.8083435e-02
  4.8737487e-01
  1.6115196e-01
  2.5217265e-01
 -6.5839492e-02
  6.0747109e-02
  1.4856520e-02
  1.9867495e-01
  5.1946469e-02
 -1.3771224e-01
  2.5658977e+00
  1.5413204e-01
  3.5551390e-01
 -6.4395778e-02
 -5.3476232e-01
  1.1323863e-02
 -1.2841752e-01
  1.0015930e+00
  5.4424787e-01
  3.6826827e-02
 -1.4092498e-01
 -1.3310444e-01
  9.2990071e-02
  5.0631426e-02
  3.5583383e-01
  2.9708451e-02
 -3.2723706e-02
 -1.1741524e+00
  4.1407320e-01
  6.6099785e-02
  1.1246989e-01
  4.1406240e-02
 -2.9155365e-01
  4.1653495e-02
 -2.2461581e-01
 -1.7465521e-01
 -1.1787663e-01
  7.9106661e-03
  5.5796914e-02
 -1.9461918e-01
  2.0826980e-01
  7.6100044e-02
 -2.5191240e-03
 -5.5095464e-02
  4.0972371e-02
  3.7418328e-02
 -2.5449631e+00
 -5.8410503e-02
 -4.3658938e-02
 -2.2062223e+00
  2.5139850e-02
  2.5409568e-02
  1.1534145e-02
 -8.0558524e-02
 -7.6620481e-03
  6.3806318e-02
 -1.2073576e+00
 -3.8643669e-02
  3.4637440e-02
 -4.6736017e-02
 -2.0495463e-02
 -2.6818383e-01
 -1.5517262e-01
 -2.6596488e-02
  1.1720800e-01
  1.2654613e-01
  8.8170022e-03
 -4.7811799e+00
 -2.2147516e-02
 -6.1904673e-02
 -7.2864935e-02
 -4.2933360e-02
 -1.5442806e-02
  2.8513774e-01
 -6.9964290e-02
 -5.5664811e-02
 -4.4032726e-03
  2.0650117e-02
  2.0138174e-02
 -4.9227920e-01
  3.7881747e-02
 -2.6904393e-02
 -6.9064684e-02
  7.9418677e-01
  1.2739889e-01
  2.0590067e-02
  3.0378720e-03
  1.1412071e-01
 -6.7202196e-02
  2.6578517e-03
 -1.3853692e-02
  9.2584798e-03
  9.2729136e-02
  1.2841235e-01
 -1.7138181e-02
  8.1301123e-02
 -1.5393232e-01
  1.5309927e-01
 -6.0563141e-01
  1.0123260e-02
 -3.7551325e-02
  7.7371225e-02
 -4.3643139e-02
  1.3567780e-02
 -8.5616179e-02
  1.2026819e-01
 -3.6326790e-01
 -5.1719774e-02
  1.1812044e+00
  2.6440495e-01
  3.9612058e-01
  5.3637743e-02
 -1.5742845e-03
  4.3490812e-02
 -2.9680511e-01
  4.2379129e-01
 -1.7357135e-02
 -1.6674777e-02
  1.5423277e-02
 -6.7147091e-03
  1.0279299e-01
  7.5796986e-01
 -7.8239836e-02
  1.4566512e-01
  9.4055927e-01
 -1.7877595e-02
  7.0226602e-02
  1.6768761e-02
 -6.6027805e-02
 -1.1100803e-01
 -1.6947218e+00
  5.2726273e-03
 -4.1941825e-01
 -1.7663101e-02
 -5.2163280e-03
 -2.1253595e-02
  9.6567109e-02
  4.8068427e-02
  2.1605346e-01
 -3.0742308e-02
 -9.8216884e-02
  9.2449114e-02
 -8.0474811e-03
  1.6017465e-01
  4.5204699e-02
 -1.6368169e-02
 -2.6835319e-02
 -1.0644241e-01
 -1.5538412e+00
 -1.0881610e+00
 -6.7336284e-02
  5.2484006e-02
 -6.6782362e-03
 -4.5518283e-02
  1.2095840e+00
  6.9709108e-03
 -3.4734651e-01
 -2.6758689e-01
 -6.7629836e-02
 -9.3442060e-02
  5.2636093e-03
 -4.5271823e-01
  1.0431204e-01
  2.2590362e-01
 -6.8255800e-01
 -2.2102772e-01
 -1.3656052e+00
 -1.3971716e-02
 -8.4692359e-02
  1.4982952e-03
 -6.2736891e-02
  2.3744237e-02
  1.2583044e-01
 -1.2289052e-03
  4.6911728e-02
  8.1224196e-02
  9.5773945e-03
 -1.3008249e-01
  1.0271623e-01
 -1.5756520e-02
  1.7484552e-01
 -3.4340626e-01
 -1.8530054e-01
  1.9918621e-02
  6.9797181e-02
  2.1679929e-01
 -5.4504103e-03
  1.6425554e-01
 -1.2977251e-02
  1.6066994e-04
  1.7840634e-01
  4.0556535e-01
  9.9736862e-02
 -1.3898573e-02
  3.8775072e-01
 -1.0424984e-01
 -8.5820623e-02
 -2.3913233e-02
 -1.2795088e-02
 -5.8827601e-02
 -3.0215362e-01
  1.6947436e+00
  6.3963376e-02
 -3.0050550e-02
  3.9629072e-01
 -1.1298461e-01
 -2.4983626e-02
 -2.1013198e+00
 -9.2964992e-03
 -6.9292441e-02
 -9.7206905e-02
 -1.9161407e-02
  6.5752290e-02
 -7.9617910e-02
 -4.4848087e-01
 -7.4317545e-02
 -1.7113325e-01
 -4.9854654e-01
 -4.3957857e-03
  1.4280890e-01
 -4.2997744e-02
 -3.8285050e-01
 -4.9666277e-01
 -9.1278142e-01
  4.1323309e+00
 -1.6528097e+00
 -1.6535243e-01
  2.3887979e-02
 -8.4660006e-01
 -1.0531775e-01
 -2.7830410e-01
 -8.0162443e-02
  6.7917532e-01
 -2.7483997e-01
 -2.2297525e-01
  1.0068627e-01
 -1.6662613e-01
 -1.2528814e+00
  9.4115861e-02
  1.4304379e-01
  2.2456814e-01
 -4.7101367e-02
 -1.4525868e-01
  4.2605934e-01
 -1.6928956e-02
 -3.2921553e-02
  1.2531504e-01
 -3.1598970e-02
 -6.5434024e-02
 -4.8042431e-01
  1.7594206e-01
  1.6402218e-02
 -2.4023366e-01
  1.4217611e-01
  5.3286806e-02
 -2.4379456e+00
 -2.6362845e-01
 -3.2056384e-02
  4.5548625e-02
  9.3384840e-02
  2.4852040e-01
 -1.0146357e-02
  1.2881663e-01
  7.6717301e-03
  3.8443368e-03
  9.7007684e-02
  3.0327125e-02
  4.0761132e-02
  3.0366514e-02
 -1.2804978e-01
  5.7502449e-01
  4.4555789e-01
 -1.8291316e+00
  1.4234606e+00
  4.1167212e-01
  2.5528616e-01
 -1.1467189e-01
  2.6178348e+00
 -1.5784526e-01
 -5.6978518e-01
 -9.9117979e-02
 -7.3206244e-04
 -1.3391064e-01
  1.6640306e-01
 -1.0152381e-02
  1.8060654e-01
  1.2414744e-01
 -8.1312969e-02
 -2.9252734e-02
  5.6287505e-02
  9.9699438e-02
 -1.1486717e+00
 -3.5957995e-01
 -2.8298960e+00
 -2.1701276e-01
  1.6047928e-02
  6.8041816e-02
  1.0667887e-01
  4.8174132e-03
  1.1360069e-01
  1.0256447e-01
  1.2670089e-01
  9.5675707e-02
 -3.1083491e-01
 -3.6956719e-01
 -1.6293958e-01
 -2.5378859e-01
  4.4792593e-01
 -1.9221465e-01
 -3.2827124e-02
 -1.4061241e-01
  1.3550773e-02
  4.0920362e-02
 -2.3759289e-02
 -3.2096833e-02
  1.1507637e-01
  3.6757737e-02
 -3.1384826e-02
 -1.4419864e-01
  1.1958676e-01
 -1.5521729e-01
 -1.1205962e-01
  1.8152464e-02
 -1.2367079e-01
 -7.7625759e-02
 -8.5306031e-01
 -3.8392857e-01
 -3.6208725e-01
  6.4126663e-02
  4.7464839e-01
 -7.8682190e-01
  9.2464974e-03
 -4.8984838e-01
  2.1055079e+00
  1.2057862e-01
 -8.0271494e-01
 -6.7343198e-02
 -7.8169376e-02
 -1.0480982e+00
  8.4348798e-02
  1.2737274e-01
 -4.5101712e-03
  2.9382861e-01
  2.0002046e-01
  2.8168056e-02
 -1.0782276e+00
  6.9996929e-01
  1.1283638e-01
 -1.6470763e-01
 -7.0308395e-02
  2.0253269e-02
 -6.7689314e-02
  9.1029420e-02
 -5.2259523e-01
 -1.9391617e-01
  1.0696554e+00
  4.3700501e-01
  6.6190317e-02
 -2.0360419e-01
 -7.6114178e-02
 -1.8845072e-01
  1.1348548e-02
 -5.1919848e-02
  3.8512353e-02
  5.5196387e-01
  7.6321405e-01
 -1.3922708e+00
 -2.4981961e-02
  1.8164413e-02
 -1.4351505e-01
  5.0739959e-02
  1.6408569e-01
  1.0307466e-02
 -1.0363378e-01
  2.3809707e-01
  8.4252685e-02
  5.2704275e-01
 -6.4558841e-02
  5.1856011e-01
 -5.7536468e-02
  9.5411181e-02
  5.1296342e-02
 -6.6449851e-02
 -2.1812694e-01
  3.5940010e-02
  8.1939429e-01
 -1.8367542e-02
 -1.5964997e-01
 -1.6177231e-01
 -8.6829953e-02
 -1.9279991e-01
  1.1516451e-02
 -9.5767537e-03
  1.7313747e-01
 -4.1035470e-02
  4.4694725e-02
  1.1637429e+00
  6.9031097e-02
 -7.8427248e-02
 -1.1367363e-01
 -2.2247472e-01
 -5.6224735e-03
 -3.0924189e-01
 -2.6249794e-02
 -7.2677061e-04
 -5.4318511e-01
 -3.1657532e-02
 -3.3529520e-02
  4.0842317e-02
 -5.2841172e-02
 -1.1359848e-02
 -1.2221031e-02
 -5.0141089e-02
  6.1202925e-02
 -8.2872979e-02
  1.8499738e-01
  4.7888592e-02
  8.9120395e-02
 -8.1550121e-02
 -4.1638862e-04
 -6.7669764e-02
 -2.5150982e-01
 -3.8499623e-03
 -9.5068380e-02
 -1.7258972e-02
  5.9153892e-02
  1.0805693e-01
 -7.9721592e-02
  2.4212113e-02
 -6.5692244e-03
  2.6473908e-02
 -1.6748278e-01
  1.9185703e+00
 -1.6425990e-01
 -2.9944258e+00
 -1.5203179e-01
 -3.6995009e-02
 -5.6990877e-02
 -2.3791711e-01
 -1.7476174e-01
 -6.2777124e-02
  3.6534145e-02
 -7.1284644e-02
 -7.1462050e-02
 -2.9928947e-02
 -6.5943293e-02
  1.0052803e-02
  1.6607873e-01
  5.3004652e-01
  9.0532221e-02
 -5.9400424e-02
  2.2826953e-01
  6.0121864e-02
  1.0804641e-01
 -8.2298815e-02
 -1.9032657e-02
  3.7320320e-02
 -2.8402142e-02
 -1.8183643e-01
 -9.4873808e-02
  3.0917218e-02
 -5.1515214e-02
 -1.0554227e-01
 -3.2192212e-02
 -5.9075732e-02
  3.1578162e-01
 -1.7636272e-01
 -2.2968328e-01
 -8.8734150e-02
 -9.4572447e-02
 -9.6807733e-02
  8.6682200e-02
 -1.5969940e-01
  8.0062889e-02
  9.9503085e-02
  3.4644804e-04
 -2.5866663e-02
 -1.0991547e-01
  2.0501763e-02
  1.0117037e-01
  2.2185437e-01
  1.0327350e-01
 -1.2176764e+00
 -3.4436765e+00
  2.4858287e-01
 -5.1281940e-02
  2.4242809e-03
 -7.8160971e-02
 -4.3292814e-01
 -1.7559821e-02
  2.5768483e-01
  1.0586497e-01
  5.4881454e-01
 -1.8446418e-02
 -1.6126098e-02
  6.7021511e-02
  2.9410530e-02
 -1.5984191e-01
  2.8398992e-02
 -7.9468034e-02
 -5.0197914e-03
  2.9858521e-01
 -5.9450876e-02
 -1.1547923e-01
 -1.9346340e-02
 -3.7646923e-02
 -4.6834443e-02
  4.3253449e-01
 -5.1746078e-02
 -1.1829821e-02
 -5.7886355e-02
  6.4178246e-01
  1.8676573e-02
 -1.7292094e-01
  9.7235274e-01
 -1.8108571e-01
 -1.6119812e-02
 -2.5026616e-01
 -8.9951552e-02
  1.3058500e-01
  9.6710026e-02
 -1.0877340e-02
  1.8391987e-02
 -7.3662363e-02
 -6.6118643e-02
  1.4792398e+00
 -6.6834323e-02
 -9.8163392e-03
  8.6860016e-02
 -1.2144144e-02
  3.9491594e-02
  7.6177634e-02
  6.6862881e-02
  3.4731892e-01
  2.8097015e-02
  5.0358489e-02
 -1.6468552e-01
  1.8315559e-02
  2.3044419e-02
 -1.4819147e-01
 -1.4821073e-02
 -1.6844766e-02
  1.7093129e-03
  4.1443318e-02
 -3.6469014e+00
  9.8397218e-02
 -1.5031648e-01
 -3.7236685e-01
  3.2849588e-02
  2.9243678e-01
 -2.0915171e-02
 -1.2748311e+00
  4.0142718e-01
  6.0801017e-01
 -3.5530496e-02
 -1.0946746e-01
  6.0639596e-01
 -8.0132917e-02
  2.1592242e-01
 -5.3877801e-02
  4.0133577e-02
 -2.3938163e-01
 -7.6381327e-03
 -3.5067064e-01
 -1.3543712e-01
 -6.5604813e-02
 -1.2627202e-01
 -2.6444703e-01
  1.1593292e-02
 -6.1453149e-02
  3.6922436e-02
  3.8402081e-02
 -1.8673088e-01
 -2.0997946e-01
 -2.8644984e+00
 -5.8731443e-01
  1.2959013e-02
 -1.0912523e-01
  3.5154945e-01
 -1.1953343e-01
 -7.3336080e-02
  6.7862362e-02
 -7.4091919e-02
  2.4839377e-01
 -6.3913488e-01
  1.8401775e-01
  1.3039206e-01
  1.4268620e-01
  1.3486695e-01
  2.2715205e-02
  1.4097803e+00
 -3.6384813e-02
  2.6400543e-03
 -5.0219040e-02
  1.1235078e-01
 -1.1399602e-02
  1.8320507e-01
 -1.7447440e-01
  2.0549687e-02
 -1.5982491e+00
  5.0856993e-03
 -7.7917702e-02
  1.6663948e-01
 -9.7278252e-02
  1.0666121e-01
  1.3656589e-01
 -8.2723415e-03
 -8.1544447e-01
  6.6109123e-03
 -7.4284109e-03
  4.6447974e-01
 -2.5067934e-01
  2.5150653e-02
  1.0483711e+00
 -5.2623451e-01
  1.4004156e-01
  4.5801955e-03
 -1.8055569e-02
  2.4509927e-02
  6.1850514e-02
  8.2384926e-01
 -8.2922257e-02
  1.4357428e-02
  7.2549880e-02
  2.6981929e-01
  3.7215343e-01
 -2.3088906e-02
 -1.3925924e-02
  5.7700640e-03
 -2.8771918e-02
  9.3429476e-02
  5.3071762e-03
 -5.6017108e-02
 -3.5157222e-02
 -2.2875373e-01
  2.8607377e-01
  1.5304806e-02
 -2.6837915e-02
 -5.4310553e-02
  1.7433514e-01
  5.0046152e-01
  3.3450264e-02
  1.4726775e-02
  3.9774995e-02
 -1.7463239e-01
 -2.1568669e-02
  7.1584038e-02
 -5.7277679e-02
 -7.8614283e-01
 -1.0252403e-01
  8.7120287e-02
 -2.6903765e-03
 -6.4420164e-02
  9.6929803e-02
  1.3795617e-01
 -4.2546589e-02
  5.9650868e-02
 -5.1879358e-02
  2.7474172e-02
  5.9302425e-01
 -9.3942061e-02
  1.3236236e-03
  1.2235074e-01
  1.9056101e-01
  1.4303100e-01
  9.4732709e-02
  9.2438690e-02
 -1.6784720e-01
  1.3721289e-01
 -1.3177220e+00
 -2.3162700e-02
  1.5166073e-01
 -1.3452783e-01
 -3.7740115e-02
 -1.7643724e-01
 -1.2332987e+00
 -6.6009812e-02
  8.6836927e-02
 -3.5688378e-02
  5.4713681e-02
 -6.8096870e-01
 -2.5555521e-01
  9.0199158e-02
 -1.3449369e-01
 -4.7167650e-01
 -1.1923503e-01
 -1.3153124e-01
 -2.0871204e-01
  8.1179440e-03
  1.9771351e-02
 -1.2860397e-01
 -4.6521746e-02
 -7.8090914e-02
  9.4272390e-02
  5.1001370e-02
 -3.6162969e-01
 -8.5592093e-03
 -5.9345174e-01
 -1.4028007e-01
 -7.2004117e-02
 -4.4015538e-02
 -1.4191012e-01
  2.6481587e-01
  9.0229578e-02
 -1.4630388e-01
  5.2009955e-02
 -4.0966015e-02
  1.2922392e-02
 -7.1376418e-03
  5.7309058e-02
 -4.2399291e-02
  1.2061271e-02
  2.7266163e-01
 -2.2943965e-01
 -1.9709105e-03
  6.9931275e-01
 -9.2879133e-03
  4.1284245e-02
 -9.6604235e-02
  2.3359866e-01
 -1.9185201e-04
  1.7246455e+00
  1.0373998e-02
 -4.3684188e-01
 -1.0775988e-02
 -1.6063690e-02
  1.6098982e-01
 -2.8833297e-01
 -2.9934239e-02
 -8.5777715e-03
 -1.3168454e-01
  1.2021662e-02
 -7.2292276e-02
 -1.2634768e-01
  6.4481637e-03
  2.3467971e-02
 -2.0481002e-02
  4.6341598e-02
  7.9466179e-02
 -5.5250913e-02
 -9.7739093e-02
  1.1597709e-01
 -6.6284500e-02
 -5.5328161e-02
  5.1300123e-02
  1.4821395e-01
 -1.7830093e-01
 -5.7555717e-01
  2.4995601e-02
  7.9473011e-02
 -1.2980330e-01
 -6.9107942e-02
  8.5148215e-01
 -3.1446852e-02
 -1.0964588e-01
  5.6735426e-01
 -1.7389899e-01
  5.9368880e-03
  4.6155038e-03
  2.4249876e-02
  1.0755630e-02
  1.4186463e+00
 -1.8100362e-02
  5.5774331e-02
  3.8161475e-02
 -1.5020944e-02
  3.2509765e-01
  4.0445536e-01
  4.9033012e-02
 -2.1401034e-01
 -2.6483629e-03
  3.0932329e-03
 -1.0129561e-02
 -1.4172374e+00
  5.7184324e-02
 -2.9182438e-02
 -1.1312797e-02
 -9.8521173e-01
 -1.4390956e-01
 -2.4443008e-02
  6.3110329e-02
  1.5968381e-01
 -3.4825289e-01
  9.4842359e-02
 -7.5134560e-02
 -3.9647210e-01
 -4.8663411e-02
  2.5250587e-01
 -5.8548853e-02
 -2.6272538e+00
  1.9895738e+00
  5.1997498e-02
 -1.1655005e+00
 -2.1123564e+00
  2.3806009e-02
  1.8552588e-01
 -5.3785193e-01
  2.8165674e-01
 -9.4954753e-03
 -7.0673120e-01
 -5.7132896e-02
 -4.6016939e-02
  2.2155134e-02
 -3.3159605e-01
  9.5894599e-01
 -4.5450103e-02
 -1.1482865e-01
  2.0141430e-01
 -2.0444077e-01
  1.1291065e+00
  1.6985621e-02
 -6.3109569e-02
 -2.8954437e-01
  3.5816339e-01
 -9.2508054e-01
  9.5655374e-02
 -1.8317038e-01
  3.7898809e-02
 -5.2754689e-02
  4.0302902e-02
 -6.9378051e-03
  2.5443164e-01
 -3.5052183e-01
 -7.7505565e-01
 -3.2921426e-02
 -2.9884808e+00
 -2.8404914e-02
  8.8221300e-01
  6.7108832e-02
 -9.5935196e-02
 -7.2048781e-03
 -2.2408079e-02
  2.3873386e-01
  9.3620047e-03
  4.4103497e-01
 -5.0693303e-03
  8.7891899e-02
  1.3928614e-02
 -7.9468712e-02
 -8.3181165e-02
  3.4914996e-02
 -1.2963641e-01
 -5.9243649e-01
 -4.5366392e-02
  7.7557936e-02
  3.9610527e-02
  2.6824769e-01
  3.2046336e-01
  1.0936295e-01
  3.8836199e-01
 -1.9777132e-02
  2.6000908e-01
 -6.9195218e-02
  8.2268625e-01
  5.2959430e-01
 -3.1715971e-01
 -1.7626730e-03
 -2.3396990e-01
  6.1144609e-02
  1.5524462e-01
 -1.7106098e+00
  1.2348744e-01
  2.2342176e+00
 -1.2230577e-01
 -1.5521333e-01
 -1.7214729e-01
  5.8985680e-02
  1.3312955e-01
 -1.2566490e-02
 -2.3360766e-01
  2.2727901e-01
 -3.2565886e-01
 -4.0289909e-03
 -1.4585497e-02
 -4.0813174e-02
 -9.9708271e-01
  1.3844546e+00
 -2.4960096e-01
  7.9476058e-02
  3.7913570e-01
 -9.3037635e-01
 -1.1044070e+00
 -7.9228103e-02
  5.7680285e-01
 -5.4766025e-02
 -2.9035157e-02
 -2.3001011e-02
  1.6597722e-01
  5.4277283e-01
 -2.2730927e-01
  1.0261437e-01
 -5.3540218e-01
  8.6961843e-02
 -1.9873359e+00
 -4.9551901e-01
 -9.8822258e-02
  3.7635997e-01
 -4.5192305e-02
  6.9519959e-02
  9.4902739e-03
 -1.3957173e+00
  4.7367882e-02
  4.0217370e-01
  9.7941005e-01
 -4.2056885e-02
  7.2395736e-01
 -3.5228390e-01
  8.0976121e-02
  2.3040448e-01
 -1.2491956e-01
  3.9478561e-01
 -1.4763737e-01
  3.8683176e-01
 -1.0191393e-02
 -6.5496109e-02
  9.0668470e-01
  3.6701448e-02
  2.2925119e-01
  7.4180752e-02
 -2.2676354e-02
  2.2624081e-02
 -1.0234007e-01
 -5.0647512e-02
 -1.0422591e-01
  8.1026383e-02
 -1.1576934e-01
 -3.6083769e-02
  1.0624994e+00
 -3.4299750e-02
 -3.4866467e-02
  2.4497379e-02
 -9.3132305e-01
 -1.2470228e-02
 -6.9561368e-01
 -2.3525132e-01
  2.0902393e-02
  1.8436790e+00
  3.3873501e-01
  7.7927612e-02
 -1.4770143e-01
 -5.5256497e-02
 -2.7364641e-01
 -1.5410585e-02
  8.9792532e-01
 -2.1267387e-01
 -2.6090261e-02
 -3.7643430e+00
  5.6500918e-01
  1.5706303e-02
  7.2802015e-02
 -1.4323834e-01
  4.3965779e-02
 -4.8884071e-02
 -2.0594599e-02
 -1.5755314e-01
 -1.5991445e-01
  1.8668379e-01
  3.5370894e-02
  7.2513700e-02
 -1.4053740e-01
 -6.8565637e-01
  3.5500079e-02
  1.3745132e-01
  4.0501300e-01
 -4.5586419e-01
 -7.0337220e-03
 -1.6887382e-01
  2.0118119e-01
 -7.1830221e-02
 -2.1640345e-01
  9.8781493e-03
  5.5058300e-02
  1.4959700e-01
 -2.4451181e-02
 -1.7689871e-02
  7.3351287e-03
 -1.2148699e-01
 -4.3641664e-02
 -1.2510170e+00
  1.1635607e-01
  1.5306671e-02
  1.5022021e-02
 -7.3578633e-02
 -1.6630001e-02
  6.3235126e-02
 -2.2328934e-01
 -2.3687301e-02
  2.8188579e-02
  3.8651893e+00
 -2.8001287e-03
  1.5904836e-01
 -2.3725972e-01
 -1.5817350e-02
 -8.8112175e-01
  1.2101924e-01
 -1.6647097e+00
  2.0698117e-01
  9.6412651e-02
  4.8299350e-02
  8.5470468e-02
 -6.1358523e-02
 -1.8395343e-01
 -9.8383836e-02
 -2.4109727e-01
  5.9642475e-02
 -4.0884119e-02
 -1.1380193e-01
  1.8325388e-02
 -1.4759262e-01
  4.0353581e-01
  1.1123114e-01
  4.8610345e-02
  7.4816070e-02
  1.4359973e-01
 -7.2628401e-02
 -1.0843097e-01
 -2.6301684e+00
 -4.1219614e-02
 -1.5872775e-02
  5.0644051e-02
  8.8599071e-02
  3.8191989e-02
  2.4383064e-01
  1.2181348e-01
  1.0361428e+00
  2.3192490e-02
 -1.2336295e-01
 -3.1432811e-02
 -1.2547307e-01
 -2.9703686e-01
 -6.1839812e-02
 -2.4084415e-01
 -7.5798422e-02
 -4.4524346e-02
  1.6894698e-01
  4.0551350e-01
  2.6567057e-01
 -2.8691420e-03
  1.5672401e-01
 -4.7826599e-02
  6.1150007e-02
  9.8325425e-01
  7.2497314e-01
  9.7275473e-02
 -1.8892084e-01
 -9.1008365e-01
 -4.9015868e-01
 -2.8598973e-01
 -2.3793538e-01
  1.1254934e+00
  1.8817581e-01
  4.2662913e-01
 -1.2596893e-01
 -2.6654705e-01
  1.0791204e+00
  1.8421116e-01
  5.0823182e-01
  3.4480286e-01
 -7.3496150e-03
 -1.1154487e-01
  1.3420640e-01
 -3.0337901e+00
 -4.1946024e-02
  2.8853214e-01
  6.5811038e-01
 -9.0582492e-03
  5.0780082e-01
 -6.3085817e-02
 -1.1194668e-01
 -8.5116518e-01
 -8.7605715e-02
  4.8541695e-02
  4.3045651e-04
 -7.7806658e-01
 -1.6063757e-01
  2.0860879e-01
  2.6891819e-01
 -4.0727973e-02
 -4.5827258e-01
 -2.2644700e-01
 -8.9302091e-03
  1.8129723e+00
 -1.0194049e-01
 -1.6301805e-01
 -2.0242326e-01
 -9.7298361e-02
  1.3387011e-01
 -6.7594118e-02
 -1.9505838e-01
 -8.3878064e-01
 -1.4088289e-01
 -1.7158352e-01
 -5.2590981e-02
  1.3959569e-01
 -5.5540702e-03
  6.6511160e-01
  2.4879787e-02
 -1.4260359e-01
  2.4899979e+00
  1.0193228e+00
 -1.2214886e-01
  7.6825716e-02
 -1.9716045e+00
  5.8857054e-01
  2.6497138e-01
 -1.5712688e+00
  2.1027248e+00
  1.5578191e+00
  9.9024534e-01
  2.2540581e-01
 -5.3697193e-01
 -1.7849776e+00
  3.8849282e-01
 -1.0253836e-01
 -1.5131639e-01
  4.6930549e-01
  8.0638140e-01
 -3.0076429e-01
 -9.1382623e-02
 -1.3622370e-01
 -4.1793197e-01
 -2.3317513e-01
 -1.6022643e-01
 -9.2714481e-02
 -2.0013078e-01
 -6.2920493e-01
  1.8453473e-01
  1.0528471e+00
 -2.5402015e-01
 -1.9551645e-01
 -2.8728849e-01
 -3.1586248e-01
 -3.8847345e-01
 -2.5088718e+00
 -2.6708941e+00
 -1.2337418e+00
  5.2916382e-02
 -6.7070149e-02
 -2.6210227e+00
 -3.4480995e-01
  2.5176926e-02
 -3.7585875e-01
 -4.7047940e-01
 -7.2892553e-01
  2.3835568e-02
 -1.5717162e-02
 -1.1976393e-02
 -1.9944599e-02
 -2.6890832e-01
 -1.2994222e-01
  4.5361504e-02
 -9.9816136e-02
  4.9991980e-02
 -2.4531994e-02
  5.2327454e-02
  7.6032382e-01
 -3.8077638e-02
  1.0133605e-01
  1.8576874e-01
  7.4213125e-02
  1.5191692e-01
 -3.6068160e-02
 -8.0129489e-02
 -1.5552473e-01
  6.5629417e-03
 -3.8909111e-02
 -5.2257232e-02
 -1.3683692e-01
 -3.2210705e-01
  4.6866350e-03
 -1.2124465e-02
  5.4504946e-02
 -1.9497503e-02
  3.7416375e-01
 -1.1061516e-02
 -2.9232185e-02
  1.5634342e+00
  1.8702544e-01
 -8.9651056e-02
  2.9179616e-02
 -3.1029037e-01
 -1.0387518e-01
 -2.9999245e-02
  8.9449152e-02
  3.2276336e-02
  2.9319264e-02
  1.6278716e-02
 -1.1088051e-01
 -4.9316970e-01
  1.1979170e-01
  2.5977576e-01
  1.2103047e-01
 -1.5959772e+00
 -8.0510877e-02
  4.7522560e-02
 -2.2408420e-03
 -2.2727942e-02
 -1.0907163e-01
  6.8330210e-01
 -1.2154692e-01
 -4.7759484e-03
  7.1564652e-02
  8.5711107e-02
  2.3975780e-02
 -6.7378461e-02
  8.9689434e-02
  1.0053772e-01
 -3.1027835e-02
  1.3642575e-02
  7.2005522e-01
 -2.3750434e-02
 -6.4494371e-02
 -1.9655904e-01
 -3.5443312e-01
  1.6564434e-02
 -4.9349517e-02
 -1.0917950e-01
 -5.5278640e-02
  1.3582201e-01
  7.7384824e-01
 -1.4921653e-01
  6.4400129e-02
  3.0925560e-03
 -9.9428469e-01
  5.1020902e-02
 -2.2500724e-02
 -1.4777743e-02
 -1.4647964e-01
  3.3133648e-02
  3.1116590e-02
 -5.0665587e-03
 -9.8965481e-02
 -6.7607805e-02
 -4.3694660e-02
 -1.8384711e-01
 -6.0678318e-02
  3.3114665e+00
  3.0278778e+00
 -4.2748932e-02
  3.3793399e-01
 -8.6213283e-02
  1.0055155e-02
 -1.7016783e-02
 -3.2855257e-02
  5.2119613e-02
 -1.9210434e-01
  1.4642285e-01
 -1.7302427e-01
  2.7810266e-02
 -1.4969967e-01
 -1.6164808e-01
  6.4898275e-02
 -1.5620904e-01
 -1.2701133e-01
 -1.0888057e-02
 -2.9003507e-01
  1.3893322e-03
 -3.6552221e-01
 -4.0360570e-02
  2.5870544e-01
  2.9701290e-01
  1.2969224e-02
  8.8519983e-02
 -1.7789882e-01
  1.1002009e-01
 -1.2965228e-02
  8.5554488e-02
 -1.4714091e+00
  3.0175347e+00
 -8.4971167e-02
 -6.7268431e-02
  2.1724582e-01
  1.4203289e+00
 -8.2419127e-02
  3.1664260e-02
 -8.2189518e-01
 -1.5472572e-01
 -3.1516895e-01
  1.2047415e-01
  8.4143803e-02
 -6.0144607e-02
  6.0656186e-02
  1.1305168e-02
  5.9270818e-02
 -2.0810266e-03
 -2.3640156e-02
 -1.9305903e-02
 -1.1943963e-01
 -5.9230059e-02
  5.5068053e-02
 -4.5472947e-01
  1.0513975e-01
  8.6591147e-02
  1.2290210e+00
 -2.6115317e-02
  3.2777588e-03
 -3.8693585e-02
 -5.5255517e-03
  5.6967260e-03
  1.6370814e-02
  1.6043961e-02
  1.5791714e-02
  1.1733854e-02
  1.8945518e+00
  8.1728823e-02
 -1.5355423e-01
 -2.1614376e-01
  3.8716841e-02
  8.6522631e-02
  3.4978550e-02
 -2.1394122e-01
  7.8560121e-02
  2.2324750e-02
 -2.3966846e-01
 -2.8884435e-01
  1.6032797e-01
  2.6252016e-01
  7.6887727e-02
 -6.5511920e-02
 -4.3742351e-02
 -3.9903817e-01
 -2.3874337e-02
  6.5558376e-03
  1.5300986e-01
 -1.5868461e-01
 -1.8333329e-01
 -9.1069490e-02
  4.3462461e-01
 -1.5425059e-01
 -1.5847105e+00
 -1.1324684e-01
 -5.5083595e-03
  1.9941734e-02
  1.6598830e-01
 -9.9841386e-02
  4.5124225e-02
 -1.9857809e-01
 -1.0828861e-01
 -8.2892574e-02
 -5.5767227e-02
  7.0962422e-02
  2.7957404e-02
 -3.0681251e-02
  8.4256187e-02
 -1.2330503e-01
  1.0946016e-02
  9.5806539e-02
  1.7291829e-02
 -1.5415333e-01
  1.1440814e-01
 -1.8340675e-02
  5.9795853e-02
 -6.8298890e-03
 -3.3283062e-02
 -1.6027410e-01
  1.0502236e-01
 -3.0965760e-01
 -3.9593402e-02
  8.2936645e-02
 -6.1155383e-02
 -5.8567356e-02
 -1.6780525e+00
 -7.8405291e-02
 -2.9758665e-01
  7.6473646e-02
  8.5939281e-02
 -1.1651125e-01
 -7.1350247e-02
 -7.8865200e-02
  6.4618610e-02
  5.5551190e-02
 -9.0091757e-02
 -1.7112451e+00
 -1.5283266e-01
  6.3901700e-02
  1.2396905e-02
  4.9213551e-02
  1.3639197e-01
 -1.3384055e-01
 -1.5603605e-01
 -1.8815436e+00
 -3.6599261e-01
  7.5432944e-01
  3.1654346e-01
 -3.1384212e-01
  2.1742094e+00
  1.0709487e+00
 -1.1484202e-01
  3.1360355e-01
  1.1873561e-01
 -9.2005831e-01
  4.2445865e-01
  1.4145786e-01
  1.4787209e-01
  1.3514696e-01
 -3.3209499e-02
 -2.3229836e-02
 -6.9567971e-02
 -1.5026754e-02
  8.5053645e-02
  3.5262856e-01
 -5.3421516e-02
 -1.4437985e+00
  1.9204059e-01
  2.1844866e+00
 -5.8586884e-01
 -2.4493770e-01
  7.0191018e-02
  7.0645742e-02
  3.0611253e-01
 -3.9850575e-01
 -5.7046789e-01
 -2.1903935e-01
  9.9713516e-01
 -7.2104678e-02
 -3.4407425e-01
  1.3325842e-01
 -7.6229095e-02
 -1.4970140e-01
 -4.0427588e-02
  2.4201415e-02
  3.8472209e-03
  2.7576765e-01
 -1.6242316e-01
 -1.9819835e-01
  2.8527770e-03
 -1.8102153e-01
  7.5212747e-02
  3.2803670e-02
  4.3099381e-02
  2.2210704e-02
  1.0875759e+00
  3.6332756e-01
 -3.4899268e-02
 -5.2965149e-02
  2.5159043e-01
  2.2691352e+00
  4.2069759e-02
  6.5689921e-02
  2.3128416e-02
  1.1356945e-01
 -2.9998481e-02
  1.3426410e-02
  9.8120475e-01
 -2.5025374e-01
 -4.9727906e-02
  1.8248092e-02
  3.0395272e-01
  2.0195045e+00
 -4.6670247e-02
 -3.4315072e-02
 -1.3415715e-01
 -5.6989169e-01
  5.4943681e-01
 -4.8493572e-02
  1.2419725e-01
 -9.1832476e-03
  5.0217462e-01
 -3.1740624e-02
  7.6705247e-02
  8.7179375e-01
  2.0635663e-01
 -1.8247563e-01
 -9.0565145e-02
 -1.3848881e-01
 -3.1975348e-02
 -8.2661408e-01
  3.9501335e-02
  9.8376743e-02
 -1.5926480e-01
 -6.3615389e-02
  9.6034938e-03
  4.4671454e-02
 -1.1755927e-03
 -1.7196452e-02
 -4.8962694e-02
 -4.8538651e-03
 -3.4051023e-02
  6.8122214e-01
 -9.7817749e-02
  1.9786775e-02
 -6.3982621e-02
 -2.7431102e-02
 -7.7852920e-02
 -6.8781511e-03
 -3.2323718e-02
 -6.7807913e-02
  8.2165636e-02
 -2.7506534e-02
  3.0951610e+00
  1.5366390e-01
 -8.3956385e-01
 -2.0011267e-02
  1.7310866e+00
  6.2092651e-02
 -4.4859904e-01
 -3.3638222e+00
  4.7245767e-02
 -1.4296904e-01
 -2.6037452e-01
  3.0384310e-02
  2.4051623e-01
 -1.3379007e-02
 -3.3500351e-02
 -2.6142985e-02
  4.3065292e-01
  1.8078525e-01
  1.2214618e-01
  7.9824388e-02
  9.4930209e-02
  3.8712427e-01
  4.0010594e-02
 -3.5632990e-02
 -2.2270590e-01
  2.9959847e-04
  1.8477470e-02
  2.5489962e-01
  8.9185564e-03
 -1.6048861e+00
  3.5860127e-01
  8.7163949e-01
  4.2863321e-02
  5.3273714e-03
  9.3800366e-02
  3.0740252e-01
 -1.6710471e-02
  2.7393209e-02
 -9.6015725e-03
 -6.3226390e-01
 -3.6546901e-02
  7.1505159e-02
  1.9743650e+00
  2.6691166e-01
 -4.8832807e-01
 -2.5325382e-01
  1.0259719e-01
  1.5541069e-01
  4.2703964e-02
 -6.0208715e-02
 -1.4902382e-01
  2.4359448e-02
 -1.7728324e-01
 -1.4773252e-02
  6.8935804e-02
  3.2368574e-02
  9.7538418e-01
 -1.7187676e-01
 -3.9307800e-01
  3.2230574e-01
  1.5127366e+00
  2.5993636e-01
  8.4045863e-01
 -4.1666564e-01
 -2.3754174e-01
 -4.5760233e-02
 -8.0353427e-01
  3.4121230e-02
  7.3087221e-01
 -1.0452933e+00
 -1.7990111e-01
  1.8920344e-01
 -3.8290909e-01
 -3.0213940e-01
  2.6165494e-01
 -2.7143903e+00
  5.4721987e-01
 -9.0296292e-01
  3.9868367e-01
  2.9453838e-02
  1.4401428e-01
 -2.9716009e-01
  2.3608887e-01
 -2.3604557e-03
  3.4363914e-02
  1.1966990e+00
  2.9733798e-01
 -3.1335673e-01
  1.5684913e+00
 -1.3589218e-01
 -1.0569333e-01
  7.9554155e-02
  1.4339836e-01
 -1.3607693e-02
  1.6965781e-01
  8.1766201e-03
  4.5843035e-01
 -6.8431097e-01
  4.8257381e-01
 -1.1913350e+00
 -2.2070654e-01
  5.8307165e-01
 -4.5571949e-02
  1.7731339e-02
 -7.9052813e-02
 -3.5410620e-02
  5.2272707e-01
  1.3743597e-02
  1.2196521e-02
 -3.0697113e-01
  3.9392132e-02
 -8.2430337e-03
  8.6534435e-01
 -4.7119185e-01
  4.2363054e-01
  7.8863835e-01
  9.1508186e-01
  1.1702485e+00
 -9.8479293e-02
 -4.7225493e-01
  3.3313000e-01
  3.9196515e-01
 -6.2056325e-02
  4.1904446e-02
  9.9873960e-02
 -1.1275861e-01
 -4.7104675e-01
 -3.7284502e-01
 -4.6221591e-03
 -1.5965593e-01
 -1.1703541e+00
  5.2030414e-01
 -1.0616499e-02
  1.3094406e-01
  3.8869750e-01
 -1.0121244e-01
  2.1631245e-02
 -1.2350037e-01
 -1.5955497e-02
  3.7190902e-01
  2.3084826e+00
  1.4112036e-01
  1.3363305e-01
 -2.0505412e+00
 -4.6999791e-01
  1.4970478e-01
  2.8515071e-01
 -1.3377689e-03
  6.1422255e-02
  5.5788541e-01
  2.3798336e-01
  5.0832272e-01
 -3.6503932e-01
  5.6262094e-01
  1.4936643e+00
  1.3848804e-01
 -4.4628587e-02
  7.6156412e-03
  1.4485011e-01
 -2.2051378e-01
 -6.1641570e-02
  1.6859476e-01
 -2.9629490e-01
 -5.5306979e-02
  9.3713105e-03
  8.9434594e-02
 -1.1234664e+00
  1.0290574e-01
 -5.6301251e-02
  1.1035746e+00
 -1.6293100e+00
  6.5137938e-02
 -2.9048526e+00
  9.1612118e-01
 -1.2974137e-01
  3.4990445e-02
 -1.3861854e+00
 -1.5986083e+00
  1.3693716e-01
 -3.1629249e-01
 -9.9503577e-02
 -3.6751563e-04
 -1.0243517e+00
 -2.7373531e-01
  1.3487367e-01
 -4.5377851e-02
 -6.7171238e-02
 -2.8407818e-01
  5.1934261e-02
 -2.3230230e-02
  1.6970465e-01
 -5.4532073e-02
 -4.2852916e-02
 -1.6964365e-02
  5.4298017e-02
 -1.4588553e-01
 -2.9442170e-01
 -2.1980488e+00
  1.2227817e+00
  6.2898067e-03
 -4.9722288e-03
  2.1661621e-01
 -2.6051058e-02
 -1.8591208e-02
 -5.7187427e-02
  2.5294212e-01
 -1.0632556e-02
  1.2390990e+00
  2.1606900e-01
  7.6510087e-02
  4.9672063e-02
 -3.5721280e-02
  6.6146646e-03
  5.4756023e-02
 -7.6065555e-02
  2.6784509e-02
  2.5471035e-01
  4.7971595e-02
 -8.0148213e-02
 -7.9509653e-03
  4.8189443e-02
 -4.2418066e-02
  8.3032241e-03
 -1.0367532e-02
  2.1860082e-02
 -7.2803751e-02
 -1.2902409e-01
  4.1052811e-02
 -1.9500412e-01
  6.5558743e-01
 -1.1971484e+00
 -1.4402300e-01
 -7.9288445e-02
 -3.8508481e-01
  4.5062210e-03
 -4.3656271e-02
  2.5936115e-01
  4.2827357e-02
  1.4380551e-02
  3.1805281e-02
 -1.0850677e-01
 -1.3055028e-01
 -7.4247882e-02
 -1.8936079e-02
  6.4900450e-02
  5.2786559e-02
 -5.6148574e-02
  1.9312490e-02
 -5.2459903e-02
  2.4247742e-01
  5.0095636e-01
  1.5203103e-01
 -2.1086170e-01
  1.3550204e-01
  1.1887486e-02
 -2.2732057e-02
  1.3112529e-01
  5.9860345e-02
  1.7665997e-01
 -2.1286221e+00
  1.3109073e-01
  1.1900180e-01
  1.3165964e-01
  1.2658212e-01
 -1.5562034e-01
  8.5445583e-01
 -3.2414213e-02
  9.8633856e-02
  8.9921331e-01
  9.0395278e-01
 -2.7563609e-02
  1.5857042e-01
 -2.5846042e-02
 -1.5773614e-01
  1.7060228e-01
 -2.4857309e-01
  7.2827625e-01
  2.5779101e-01
 -1.0711933e-01
  1.0608360e-01
  9.9961996e-01
 -9.8979659e-02
 -5.1017939e-03
  4.3115610e-01
 -5.6071895e-01
  3.2036541e+00
  1.7391778e+00
  3.9206445e-01
  1.2584443e+00
  4.8128527e-01
 -7.3640525e-01
 -7.6522805e-02
  1.2471052e-02
  2.3329996e-01
  2.5289634e-01
  1.3079629e+00
 -2.3819219e-01
  3.8930598e-01
 -4.5637122e-01
  1.4394948e-01
 -1.0994499e+00
 -7.2168285e-01
  1.3640954e-01
 -1.1532552e+00
  5.6419736e-03
  6.2201107e-01
  1.2270430e-01
 -5.1291712e-02
  1.3422505e+00
 -2.1573071e+00
 -4.0636300e-03
  1.9069185e+00
 -4.1262101e-02
 -1.1259604e+00
  1.2242371e-01
  1.3190034e-01
 -1.2772030e+00
 -1.0016543e-01
 -9.4212723e-01
  4.8225299e-01
  3.9038116e-01
 -2.6959226e-01
  2.8779397e-02
 -1.8589398e-01
 -4.0308008e-01
 -6.4396256e-01
 -9.1959089e-02
  3.0255657e-01
 -1.7546409e-01
 -6.4866446e-02
 -6.1038202e-01
 -4.0584093e-01
 -1.5052518e-01
 -1.7341129e-01
  8.9114612e-01
  7.5541153e-03
  2.3450772e-03
 -2.3751616e-01
  6.9299150e-01
  7.7598530e-01
  6.8127573e-03
  2.9902968e+00
  2.4504854e-01
 -3.7041688e-01
 -1.5527388e+00
 -1.4401180e-01
 -2.0853458e-01
 -2.8085524e-01
 -5.2884072e-01
  2.6570740e-01
 -4.2654112e-02
 -6.6856116e-01
 -1.0334113e-01
 -2.4140154e-01
 -1.0578068e-01
  2.8821951e-02
  1.4446612e-01
  3.9309274e-02
 -3.8578719e-02
  2.8670251e-01
 -2.5056398e-01
 -5.8735931e-01
  2.0712310e-02
 -1.3238867e-01
 -6.1771816e-01
  1.6232021e-02
  2.0942947e-01
  1.6127172e-01
 -2.3057860e-01
 -6.9717163e-01
  4.2458728e-02
  5.9118707e-02
 -6.8153843e-02
  6.9970198e-02
 -2.7540204e-01
 -6.6583261e-02
 -2.2544360e+00
 -2.8167395e-02
  6.1053480e-03
 -1.8985394e-01
 -1.1881085e-01
 -1.4456953e-01
 -2.8915805e-01
 -3.4418005e-02
 -6.1895553e-02
  1.2482855e-01
 -3.3324949e-02
 -1.7829318e-01
  7.4996576e-02
 -2.7832041e-02
 -3.9684516e-04
  2.7146120e-02
 -1.6961356e-01
  9.9377763e-01
 -1.8191572e-01
 -3.0677119e-02
 -1.1558928e-01
 -3.3464149e-01
  4.0418044e-02
 -3.3177176e-01
 -4.1526872e-01
  8.7991863e-02
 -1.8697155e-03
  8.6841844e-03
  1.3219136e-01
  6.1472278e-02
 -6.9756478e-01
 -7.8757070e-03
  1.1768798e+00
 -4.2798866e-02
 -1.2924328e-02
 -1.8008110e-01
 -9.2538871e-02
  1.3419174e-01
  2.2909632e-01
 -2.3178710e-03
  1.8305136e-01
  9.7437710e-02
  3.3178881e-02
 -6.2846199e-02
  1.7211227e-01
  5.0385807e-02
 -9.7333804e-02
 -7.0493300e-03
 -1.4718915e-03
  4.1765239e-02
 -2.3789638e-01
  3.9197404e-02
 -5.3347927e-02
  4.1789599e-02
  5.1874321e-02
 -4.5380827e-02
  7.8080103e-02
 -6.6359289e-02
  1.7977780e-01
 -5.9057739e-02
  4.1909727e-01
 -1.4909416e-01
  1.7498672e-02
 -1.8223037e+00
  4.7873165e-02
 -6.0907269e-01
  2.6624521e-02
 -9.5041528e-02
 -1.1568673e-01
 -2.6887024e-02
  3.9083221e-05
  1.5563172e-01
 -4.0833396e-01
 -1.3847941e-01
 -5.2689057e-02
 -2.4755178e-02
 -4.4373531e-02
  7.2513230e-02
 -1.1917096e-01
 -1.5181786e-01
 -9.7217232e-02
 -3.2219508e-01
  8.7348247e-01
 -9.1560118e-02
  9.9676557e-02
  5.0708793e-02
 -4.5411766e-02
 -3.1075430e-01
 -3.3744937e-01
 -2.3311189e-01
 -1.6399251e-01
  9.0021603e-02
  3.3482999e-01
  2.1981334e-02
  4.1133668e-02
 -1.0659362e+00
 -6.4736910e-02
 -1.3731273e-01
 -1.0741054e+00
  9.2717506e-02
 -5.0952949e-02
  5.6616750e-02
 -2.5047198e-02
  1.3409340e-02
  1.2768856e-01
 -4.1459906e-01
  1.3671789e-01
  9.9787273e-02
 -3.1852642e-01
  1.2704144e+00
 -1.0034773e-01
 -6.2702280e-03
 -2.2414145e+00
  2.5098979e+00
 -1.1477445e-01
 -6.3851322e-03
  3.1366739e-02
  4.9400903e-02
  4.6490156e-03
 -1.1613538e-01
 -2.6007110e-01
 -4.8170304e-03
  5.2462563e-02
  1.4246903e-01
 -1.3472170e-02
  6.9487793e-03
 -3.3238046e-02
  7.9456903e-02
 -1.5235405e-03
  2.1007527e-01
 -9.8794013e-02
 -1.6299387e+00
  1.2703204e-01
  6.0504377e-02
  2.2849875e-02
 -2.9147372e-01
 -3.7247357e-01
  7.0797645e-02
 -1.3883008e-01
  2.7525945e-02
 -3.1059778e-01
 -3.0461239e-02
  1.6417231e-02
  1.4674963e-01
  3.1650282e-02
 -5.3761680e-02
 -4.3364555e-02
 -1.1400947e-01
 -6.8842575e-02
  1.1116534e-01
  2.2837017e+00
 -1.7431976e+00
 -2.9058886e-01
  1.6240016e+00
 -2.0997087e-02
  1.3687698e+00
 -5.7462785e-02
  9.8215491e-03
 -3.9303064e-02
  9.6926503e-02
 -9.8318487e-02
 -1.3244947e+00
 -2.3197394e-02
 -1.5644273e-01
  2.0382190e-02
 -2.1181953e-01
  2.0871527e-01
 -1.7097823e-02
  4.6286050e-02
 -1.2430889e-01
  1.7877747e+00
 -1.6952252e-02
  7.6619580e-02
 -3.9042084e+00
  1.0592837e-01
  4.6271499e-02
  1.0618148e-02
 -4.0936448e-02
 -1.2939930e-01
  1.5862271e-01
 -1.4218360e-02
 -1.2284414e-01
 -6.4411092e-01
 -3.5318428e-01
  1.8926166e-01
  4.5785058e-02
 -1.4643565e-01
  5.7870370e-01
  3.0888813e-02
 -1.8493995e-02
  1.9432627e-01
 -4.2192373e-01
 -4.8368534e-01
 -2.5994755e-02
  1.8904881e+00
 -5.0978005e-02
 -9.4505558e-03
  2.4712174e-01
 -8.7454813e-03
 -2.4208508e-02
  7.5349718e-02
  4.4617444e-01
 -2.8667727e-02
 -4.0318608e-02
 -1.5372601e-01
  2.0394584e-02
  1.9677113e-01
  2.0921481e+00
  2.7937384e-02
  3.6424946e-02
  1.6468671e-01
 -4.7763322e-02
 -7.3041826e-02
  4.2035583e-01
  1.2867330e-01
  1.8879755e-01
  7.1294501e-02
 -3.2195940e-03
  1.0740179e-01
 -2.1585150e-02
  1.8547247e-01
 -8.5366555e-02
  1.1739269e-01
 -2.9073756e-02
 -9.5491230e-02
  4.7712367e-02
  1.2367738e-02
 -1.7374685e-01
 -5.8963109e-02
  2.3727030e-02
 -5.3695388e-02
 -1.2229118e+00
  1.6657237e-02
 -1.6803427e-01
  4.8737079e-02
  3.0135700e-02
  3.1664723e-01
  1.2650780e-01
 -5.0075300e-02
 -1.0821284e-01
  2.8761482e-02
  2.0194009e-01
  4.2379480e-02
 -1.7197984e-01
 -1.2288365e-01
 -8.7231770e-03
  1.1061152e-01
  1.2369331e-01
 -6.0549293e-02
 -8.5391617e-01
 -9.4213182e-01
 -1.7235896e-02
  2.1372254e-01
  1.3625824e-03
  2.2565760e-01
 -3.9380230e-02
 -6.9761254e-02
 -5.4498399e-03
 -8.4538676e-02
  1.7089413e-01
 -5.3986739e-02
  7.4790075e-02
  9.8500095e-02
  1.4213490e-03
 -1.0448004e-02
 -5.6959735e-03
  6.2229156e-01
 -5.6129672e-02
  2.8407264e-01
  6.1645806e-03
 -1.4777884e-01
 -1.6821022e-01
  3.6099602e-02
 -1.2876840e-01
 -1.2223677e-01
 -9.5470451e-02
  6.3768495e-03
  4.0797260e-01
 -1.3496329e-01
 -7.1348049e-02
 -1.3023860e+00
 -9.3730576e-03
  1.5346374e-01
 -2.8956570e-02
 -9.7229995e-02
  1.4981779e-01
 -1.2231953e-02
 -3.9996961e-01
  1.7912471e-01
  6.4820367e-01
 -1.0256352e-01
 -1.8894257e-02
  8.6398171e-03
  9.1467775e-02
  3.1554833e-02
  3.1712215e-02
  1.4102472e-01
  1.1081977e+00
 -2.1048751e-02
  7.5226664e-03
 -9.4557649e-01
  2.0028631e-01
 -1.7116886e+00
  1.9598711e-02
 -7.3188418e-01
 -1.1502875e-01
  5.0459590e-02
  1.0511026e-01
  1.5173265e-01
  8.8076591e-03
 -3.7933297e-02
 -4.7922891e-01
 -2.5265235e-01
  1.3669490e-02
  7.2394043e-02
 -1.3122088e-01
  7.9957521e-01
 -1.5282539e-01
 -3.0451769e-02
 -2.9339391e-01
  7.1846180e-02
  4.4143591e-02
  1.7800371e-01
  1.7651303e+00
 -4.1991463e-03
 -1.4678234e-02
  7.4581705e-02
  2.0043334e-02
  5.7445117e-03
 -1.6717866e-01
  5.5188639e-03
 -1.2766434e-03
  1.9405456e-01
 -3.6890405e-01
 -1.2137605e-01
  5.2309585e-01
  3.5444703e-02
 -3.0590575e+00
  1.2480187e-01
  1.7895209e-02
 -7.9983152e-02
  8.6251512e-02
  6.0868226e-02
  3.6851317e-01
 -4.6851985e-02
 -1.4262375e-01
  1.6692311e-01
  1.4028499e-01
 -1.6847956e-01
  4.9285248e-02
  3.8276378e-02
  7.6440804e-02
 -2.4375105e-02
  2.2776522e-02
  3.1862253e-01
 -7.9312694e-01
  2.2299135e-01
  3.0830088e-01
 -4.2417550e-01
  4.4744608e-01
 -1.9253445e-01
  1.3926041e+00
  1.5388111e+00
  6.1949331e-02
 -4.6059209e-01
 -5.5282158e-01
  5.7585829e-01
 -2.0457358e+00
  4.2360023e-01
  1.7024054e-01
 -2.7161843e-01
  1.5795041e-02
 -1.7979312e-01
  7.0364386e-01
  3.1391105e-01
  1.8286178e-01
  2.6997196e-02
  7.9008549e-01
 -5.1773858e-01
 -9.3917596e-01
  5.4909790e-01
 -1.2202601e+00
 -1.0832211e+00
  1.6166472e+00
  4.2106968e-01
 -6.1536044e-02
  1.2001855e-01
  1.4384212e+00
 -1.3925209e+00
  2.6429665e-01
 -2.0198396e-01
 -4.5767665e-02
  1.1281137e+00
  2.1594281e-01
 -8.6713928e-01
  4.7855267e-01
 -5.8399445e-01
 -8.0904722e-01
  3.6647059e-02
  1.1263672e-01
  3.5787500e-02
 -1.3603921e-02
  5.5523612e-02
 -2.6009914e-01
 -1.2049840e-01
  3.0118075e-01
 -1.2838858e-01
  1.2363632e-01
  3.6034249e-03
  1.4908156e-01
  1.0133629e-01
 -9.4828367e-02
 -4.2689562e-02
  1.6400500e-01
  9.6021198e-02
  1.3333734e-02
  4.3600149e-02
  2.6032412e-01
 -1.6729150e+00
  4.5372754e-01
  8.6863944e-03
 -4.1881036e-02
  4.8271008e-02
 -1.3674811e-01
  2.5481869e-02
 -2.1806350e-03
 -1.1380500e-01
  1.1041505e-01
  1.5231356e-02
 -1.5699583e-01
 -6.4735822e-02
  1.6650110e-02
 -3.5511246e-01
 -3.7800211e-02
 -5.3538883e-01
 -4.1228108e+00
  2.4936084e-02
 -2.3740199e-01
 -3.6694670e-01
 -3.4270868e+00
  2.5384837e-01
  3.1773722e-01
  5.6552809e-02
  3.6839578e-02
  1.5678871e-01
 -1.0929377e+00
  8.3977616e-01
  4.0204134e-03
 -3.9863828e-01
  5.0622425e-03
 -6.4105406e-02
 -1.0267220e-01
 -9.8491400e-02
  1.8102425e-01
 -7.4593104e-02
  5.0071478e-02
 -4.4442832e-02
  4.0019393e-02
 -3.5250622e-01
 -8.9627072e-02
  1.2397435e-01
  1.9535670e-02
  1.9483037e-01
  1.7844610e-01
  2.1954397e-02
 -6.8596087e-02
 -4.4195015e-02
 -6.7154907e-02
 -1.0239583e-01
 -3.1834126e-01
 -1.0959947e-01
 -2.7251134e-02
 -3.0478699e+00
 -3.1132471e-02
  1.8015020e-02
 -9.8543331e-02
 -1.9278510e+00
 -2.2480214e-01
  6.8299222e-01
  1.5550816e-01
  7.1783513e-02
 -2.7155510e-01
 -2.7204034e-01
 -3.7766379e-01
  1.9743368e-02
 -1.4639319e-02
  1.5628016e-01
 -3.8015623e-02
  4.3572627e-02
 -4.0135390e-01
  3.0620201e-03
  2.1965732e-03
 -2.0666632e-01
  4.2449829e-01
 -2.5736803e-01
  3.9574523e-02
  1.3740449e-01
  2.0660347e-01
  1.7118205e-03
 -1.6605475e-03
 -1.0876105e-01
  7.7235150e-01
  1.8694365e-01
  3.1324174e-02
 -1.6994812e-02
  5.1286027e-02
  1.7902409e-01
 -8.4058031e-02
  6.6753134e-02
  2.8751862e-01
  1.7421836e-01
  1.5621923e-01
  1.6693907e-02
  3.3262849e-02
 -6.2026467e-02
  5.7579935e-02
  1.5209214e-01
  2.4788205e-02
 -1.6791253e-01
 -6.9352346e-03
  1.3530049e-03
 -2.4619286e-01
 -5.3738806e-02
 -6.7547865e-02
  1.7907441e-01
  1.5987091e-02
  2.4071269e-02
 -7.0191287e-02
 -1.9519219e-01
  1.2378572e+00
 -2.9475537e-01
  6.5644585e-02
  1.0658240e-01
  4.1610792e-02
 -2.0529686e-01
 -8.6754924e-03
  9.5339388e-02
 -3.4431484e-02
 -6.8039042e-01
 -8.7088540e-02
  8.6945198e-02
  5.1647138e-02
 -9.4176883e-01
  2.8358262e+00
  1.5147789e-01
 -1.8585658e-02
 -1.4553349e-02
 -9.0915173e-02
 -1.4862296e-01
 -1.3926449e-01
  1.5881164e-02
  4.0506175e-01
 -1.8181662e-01
 -1.3951673e-02
  5.7148945e-02
 -3.0498477e-02
  2.6063493e-02
 -1.0847154e-02
 -1.3370059e-01
  4.9414992e-01
 -2.0224717e+00
 -6.4503469e-02
 -2.3426513e-01
 -1.2483987e-01
 -1.4398793e-03
  5.3715599e-01
  4.0607560e-02
  1.5726598e-02
  5.9784498e-02
  9.5128782e-02
 -1.1477976e+00
  1.2031428e+00
 -2.3851620e-01
  1.6263574e-01
  2.4017479e-01
 -8.3503485e-02
 -4.7931308e-01
 -6.4655554e-01
  8.0730885e-01
 -3.5259759e-01
  6.7895865e-01
  3.8831942e-02
 -1.5865508e-01
 -2.3492289e+00
 -3.0693921e-01
 -2.1537176e-01
 -2.6606509e-01
  1.6234539e-03
  5.5849761e-01
 -6.6165492e-02
  8.8047844e-01
 -4.1674674e-01
 -8.8514888e-01
 -1.4149097e-01
 -8.3120517e-02
  3.2913217e-01
  2.5093248e-01
  8.3503664e-01
 -1.8262196e+00
 -1.1445312e+00
 -2.1117681e-01
 -1.5492103e-01
 -7.2823048e-02
  4.7404876e-01
 -5.3972524e-02
 -5.5265713e-01
 -2.5885898e-01
 -1.3746761e+00
  2.8844899e-01
 -6.6091433e-02
  2.0522590e-01
 -1.7805745e-01
  1.0930208e+00
  8.7764934e-02
  3.5987419e-01
 -5.8866310e-01
 -6.4945573e-01
  1.0493057e+00
 -2.9632649e-01
 -1.0114436e-01
  2.1573563e+00
  7.4675670e-03
  3.3948392e-01
  3.9091605e-01
  2.8410448e-02
  6.6976380e-01
  5.2365188e-02
  1.0981272e-01
 -3.0254697e-02
 -8.7619209e-01
 -1.9123074e-01
  9.8171651e-02
  9.2147306e-02
 -9.7812271e-01
  9.8898125e-01
 -1.1529578e+00
  4.2618379e-01
 -1.0677432e+00
 -1.0315135e+00
 -6.9232672e-01
 -1.8353379e+00
  1.0994126e+00
  2.4355540e+00
  1.3797095e-01
  2.1724178e-01
  1.3686086e+00
  1.0869477e+00
 -5.1611787e-01
  1.4829950e+00
  9.0262532e-01
  2.1999697e-01
 -8.2328901e-02
 -8.5949844e-01
 -5.3940475e-01
  4.8380727e-01
  6.9831342e-01
 -1.9425577e+00
  1.0691832e+00
  1.0899327e+00
  1.0398210e+00
 -1.3545145e+00
  1.5569760e-02
 -1.7048761e+00
 -7.5102979e-01
  1.1487262e+00
 -2.5589118e+00
  1.9806790e+00
 -1.7125832e+00
  1.2744790e-01
 -9.5742923e-01
 -3.3688363e-01
  5.0766522e-01
  4.6565953e-01
 -4.9946466e-01
 -8.6616427e-01
  3.8751757e-01
  5.0956869e-01
 -2.1734163e-01
  2.6883608e-01
 -1.6923869e+00
 -1.6575700e-01
 -1.4813960e-01
 -2.1873002e-01
 -1.3653863e-03
 -3.4311444e-01
 -9.0957955e-02
 -1.1662015e-01
  7.5547665e-01
 -4.9898975e-02
  1.4161018e-01
  3.5261047e-01
 -3.9806489e-02
  1.2647255e-01
  1.1479104e-01
 -3.0252907e-01
 -4.4119902e-02
  6.8428588e-01
 -7.8180559e-02
  1.0926821e+00
 -3.2379739e-02
  8.1996635e-02
 -7.1753311e-01
 -1.1997187e-02
  2.4739735e-02
 -1.4512222e-01
  1.1249122e-01
  1.3392007e-01
  2.6951892e-02
 -1.5137485e-03
 -1.9035443e+00
 -2.2875913e-03
 -6.8239599e-02
  9.1440029e-02
 -2.0114660e-01
 -1.2006517e-01
  3.9200302e-02
 -5.3281605e-02
 -1.6379593e-02
  4.4195506e-01
 -1.5222500e-01
  3.7615053e-02
 -2.1254342e-02
 -7.6485410e-02
  9.0801768e-02
  3.2256272e-02
  8.1499927e-02
 -6.8594874e-03
  6.1051350e-02
  2.7109738e-02
 -2.4964584e-01
  1.4576180e-01
  6.6539906e-02
  7.5992030e-01
 -8.5728489e-02
  2.6023809e-02
  8.6067729e-02
 -6.3952774e-02
  1.4610568e-01
 -6.6693552e-02
 -1.8683195e-01
  1.6463928e-01
  4.0005982e-02
  1.2172935e-02
  1.4911846e-03
 -4.2026978e-02
 -2.9414549e-01
 -8.3619706e-02
  8.9583826e-01
  2.9843077e-01
  5.3616416e-02
 -1.3577330e-01
  3.6779964e-01
 -3.7440899e-01
  4.2094436e-01
  4.9227792e-01
  1.8700182e-01
  1.0717945e-02
  7.0699275e-02
  8.2688473e-02
 -5.3434558e-02
 -3.7637156e-01
 -6.1022371e-02
 -4.7727682e-02
 -2.4821434e-02
 -3.9589044e-01
 -9.3724662e-01
 -4.1021120e-02
 -7.1026675e-02
 -3.4356039e-02
 -2.3870130e-01
  3.1949278e-02
 -2.6017320e-01
 -8.5158616e-02
  1.6711216e-02
  1.6277078e+00
 -4.0133748e-02
 -1.8695797e-01
 -1.8319824e-01
 -8.4947270e-01
  2.0135565e-02
 -3.7288976e-01
 -1.3313475e-01
  2.0174015e-01
  4.2708848e-02
 -9.1707921e-03
 -5.7314076e-02
 -1.9290633e-01
 -2.4171799e-01
 -3.0510199e-01
  3.7765568e-01
 -3.0788399e-02
 -5.4882776e-02
  1.4364012e-01
  1.6009256e-01
  1.5987046e-01
 -1.7629021e-01
  1.6240607e-01
  7.9941541e-02
 -2.3717517e-03
  1.6626911e+00
 -1.7536142e-01
 -1.3272582e+00
 -1.3951464e+00
  1.5421648e+00
 -1.2794976e+00
  1.3086890e+00
 -1.3462280e+00
  1.4016208e-01
  1.3062092e+00
 -3.1073496e+00
 -1.9782411e+00
 -2.0813341e+00
  1.4681926e+00
  4.4116554e-01
 -6.4954448e-01
  2.1143143e-01
 -2.6815289e-01
  4.1781837e-01
 -7.6140255e-02
  3.2850456e-01
 -8.7959188e-01
  1.5613930e+00
  9.4145083e-01
  3.1831834e-01
  4.4704676e-01
 -7.6751137e-01
  7.9371214e-01
 -9.5849365e-01
  1.3784380e+00
  1.9528085e+00
  1.1248690e+00
  6.4767498e-01
  3.3192304e-01
  2.4148658e-01
 -1.0363961e+00
  4.9761236e-02
 -1.0681143e+00
 -1.6848002e-01
 -4.9143133e-01
  2.3917247e-01
  1.8159444e+00
  1.5199188e+00
  1.6436547e-01
 -4.2079815e-01
  1.2756920e-01
  1.5478444e-02
 -6.8237275e-01
  6.2001979e-01
  2.8769919e-01
  5.1121358e-02
 -4.3171093e-01
 -1.2653111e-02
  4.2927209e-01
 -2.5113730e-03
  2.5537633e-03
 -8.9093268e-02
 -4.8453140e-01
  1.1287139e-01
 -1.8731934e-01
  9.2453718e-02
 -2.3172262e-01
 -7.5435981e-02
 -4.1189229e-01
  5.9978575e-02
  1.0049919e+00
 -1.9829838e-01
 -1.8400753e-01
 -3.3757079e-04
 -8.8041522e-02
 -4.4755783e-02
 -2.6109385e-01
  3.0707698e-03
  3.9713267e-02
 -2.6470876e-01
  6.7905560e-02
 -7.8427546e-02
 -3.2682367e-02
 -3.2195154e-01
  4.4768404e-02
 -5.9746569e-01
 -5.5600896e-02
 -9.5656610e-01
 -3.6949152e-01
  9.0125151e-02
  4.8357889e-02
 -2.7759249e+00
  2.0698106e-02
 -4.3812165e-01
 -3.2236181e-02
  7.9066657e-02
 -1.4700831e-01
 -6.3075408e-02
  1.3561721e-01
 -2.0573817e-01
 -3.2066500e-01
 -1.7864291e-01
  1.2784533e-01
  8.2640916e-02
 -1.3440754e-01
  1.9465544e-03
  5.3421378e-01
 -1.3842592e-02
 -4.3508593e-02
  1.6750851e-01
  9.4271801e-02
  8.2847435e-04
  6.6338316e-02
  1.1459171e-01
 -6.1846308e-02
 -8.8189662e-01
  4.9537670e-02
 -4.8563540e-02
 -1.6331747e-01
 -6.7610174e-02
  5.1056681e+00
  6.8374358e-02
 -6.7882622e-03
 -5.6254841e-02
  5.5415767e-01
  1.2377532e-01
 -4.7030349e+00
 -9.6654743e-01
  1.7562569e+00
  7.3833302e-02
  2.7152253e-02
  3.2836270e-02
 -9.4697706e-02
 -1.5262154e+00
  3.4509897e-01
 -8.0200009e-02
 -6.7147180e-02
 -5.1891857e-01
 -6.2956922e-02
  9.0066537e-02
 -6.1560217e-02
 -3.4840655e-02
 -6.5968663e-02
 -1.1217562e-02
 -3.5589047e-02
  1.5898901e-01
  3.9586350e-01
  6.7411601e-03
 -4.7082549e-01
  1.7914154e-01
 -1.0195931e+00
  2.8832699e-04
  8.5092880e-02
  2.7050346e-01
 -1.8309592e-01
 -2.5134653e-01
 -1.2467849e-01
 -2.5828637e-02
  1.5913300e-02
  9.0724833e-02
  5.4439243e-02
 -3.7725460e-02
  5.3555422e-02
 -1.4217477e-01
 -1.8031158e-01
  1.2995507e-01
  1.4801978e-03
  5.5636156e-02
 -2.5869364e-01
 -3.5255003e-01
 -2.3248224e-02
  2.0046055e-02
  2.5793591e-01
  8.8131644e-02
 -4.7099826e-01
 -4.4159341e-01
 -5.4552352e-01
 -2.6655877e-02
  1.7855587e+00
 -7.9877071e-02
  7.5320584e-01
 -1.4382307e-01
 -1.0052343e-01
  1.7595981e-01
 -1.5705338e-01
  7.2531289e-01
 -1.5710713e-02
  2.3154952e-01
 -2.0669533e-03
 -4.1791573e-02
  8.0998254e-01
  1.7105761e-01
  3.8327906e-02
 -5.8187861e-02
 -1.1107621e-01
 -4.9348943e-02
  1.5754116e+00
  8.9067452e-02
  2.6348382e-01
 -6.9227777e-02
  2.3620790e-02
 -1.0464872e-01
 -5.0661159e-01
 -1.2703876e-01
  5.2466887e-01
  1.4010665e-01
  1.2182287e-01
 -2.5237647e-01
 -7.9572165e-01
  9.6778445e-02
 -3.6860892e-01
  6.7181677e-02
  5.8972340e-02
 -4.0783538e-03
  7.9986447e-01
  4.5665097e-03
  7.3256984e-04
  1.0200198e-01
  2.0453486e-01
  7.4721754e-02
  5.7664134e-02
 -2.2304304e-02
  1.2264352e-01
 -1.3668098e-01
  5.2932177e-02
  2.6820322e-02
 -7.2958261e-02
 -1.6952548e-02
 -2.6133451e-01
 -9.7859576e-02
  1.2862949e-01
  3.1006035e-01
 -2.5208756e-01
  3.9157763e-02
 -3.5293054e-02
  1.0566535e+00
 -4.5333245e-01
  1.2797379e-01
 -6.9080615e-01
 -5.4123706e-01
  3.3751127e-01
  4.3997414e-02
  1.0319057e-01
 -1.8141730e-01
  6.0501581e-01
 -5.5019724e-01
  4.4532038e-02
  5.4599214e-02
 -4.7319688e-02
 -5.4111134e-02
  3.8170818e-02
 -2.8077671e-01
 -2.7461365e-01
  3.8947105e-02
 -4.3981772e-02
 -1.8436371e-01
  6.5261453e-01
 -9.4962335e-01
  4.1778002e-02
 -7.1542069e-02
 -4.3340582e-01
 -1.0379747e-01
  2.7058834e-01
 -2.5476425e+00
  2.6838997e-02
 -1.0904349e-01
 -7.4585152e-01
 -2.1381985e-01
 -5.1893193e-02
  3.9038360e-02
 -3.7743887e-01
 -7.5720839e-02
 -5.7004189e-01
  5.3335279e-01
 -1.7339630e-01
 -4.5498991e-01
  5.4058138e-02
 -1.9359080e-01
  5.5839860e-01
  2.9478163e-01
 -2.0338004e-02
 -1.6174566e-02
 -3.8928652e-01
 -2.8864226e-01
  1.1042236e-01
 -8.5310072e-02
  2.8094169e-01
  1.9129230e-01
 -1.8486515e+00
  7.3228188e-02
  2.1201426e-01
 -1.4154370e-02
 -1.1784840e-01
 -4.5253599e-01
  2.2171918e-01
 -2.9701841e-01
  1.9964726e-01
 -8.8981912e-02
  4.5479107e-01
  1.1064190e-01
 -6.4151779e-02
 -2.3880701e-01
 -5.8089167e-02
  9.3796082e-02
 -1.2839948e-02
 -3.7218481e-02
 -2.3965016e-02
  5.4827590e-02
 -1.5759221e-01
 -1.1561884e-01
 -4.3176644e-02
  2.4872198e+00
 -1.2233125e-03
 -1.4724854e-01
 -2.0992167e-01
 -2.7818973e+00
 -3.7031230e-01
  4.0486807e-01
  1.8851171e-01
  2.7883580e-02
  1.1643884e-01
  2.6473987e-01
  2.4080040e-01
  5.5065036e-01
  2.9709395e-02
 -1.3484710e-01
 -1.2795815e-03
  6.7989908e-02
 -6.6822164e-02
 -1.7913276e-02
  2.2415119e-01
  2.1061679e-02
 -1.8574909e+00
  4.2984754e-02
 -1.3983886e-02
  8.3084874e-02
  5.6020182e-02
 -3.2639271e-01
  5.0144136e-01
 -2.1363063e-01
 -2.5883737e-01
  6.1890535e-02
  2.3205807e+00
  2.5445864e-01
  1.1698297e-01
  1.2005633e+00
  4.3541840e-01
 -3.1963599e-01
  2.6799443e+00
  1.9861287e+00
 -4.0583810e-01
 -1.2556252e-01
 -2.0890255e+00
  1.3388546e+00
  7.8109413e-02
 -2.0106463e-01
 -3.8141569e-01
  8.0661291e-01
  6.6932239e-02
  6.4068809e-03
 -7.2079995e-03
 -1.9598775e-01
 -6.5851164e-01
  1.0488677e-02
 -5.1168853e-01
 -2.1254116e-01
  1.2993914e+00
  7.1822298e-01
  1.4822413e-01
 -2.5458762e-01
 -3.3632532e-01
 -1.7006077e+00
 -5.2470160e-01
  1.2587439e+00
 -7.3725365e-02
  3.6657846e-01
 -7.6855600e-01
  5.5995405e-01
  5.4282522e-01
  7.5427967e-01
 -7.1673405e-01
  1.0496940e-01
  2.3160095e+00
 -1.0395931e+00
  2.6686621e-01
 -5.7006532e-01
 -4.9987506e-02
 -3.8617975e-01
 -2.9711664e-01
  7.4036604e-01
 -1.1526331e-02
 -5.0621285e+00
 -1.4748492e-02
 -2.1460019e-01
  6.2426906e-02
  1.0873436e-01
  1.1757361e-01
  1.1411984e-01
 -2.3234247e-01
 -6.5158284e-01
 -2.0491757e+00
 -7.0837241e-01
 -2.5659791e-01
 -5.4444754e-01
  4.6907187e-01
  9.0927923e-01
  2.5186632e-02
 -2.3092085e-02
  1.1708267e+00
  3.8227203e-01
 -5.1045187e-02
  1.1997409e+00
 -6.4406353e-01
  1.4021218e-01
 -1.5013552e-01
  1.7644314e-01
 -2.8825763e-03
  9.8228402e-02
  6.3705081e-01
  4.3731964e-01
 -3.1606224e-01
 -2.2631223e-01
  2.6937851e-01
  9.7118914e-01
  1.5698806e+00
 -4.4259019e+00
 -2.2830861e+00
 -3.9747405e-01
  1.7146556e-01
 -6.8107659e-01
 -2.4054159e-01
 -5.1423437e-03
  1.6368203e+00
 -1.4505169e-02
 -3.9399691e-02
  9.2967999e-01
  9.4378099e-02
 -5.2583892e-02
  4.6666539e-01
  9.4626218e-02
 -2.4447801e+00
  1.0697546e+00
 -2.5792882e-01
 -6.5167654e-01
  1.1651793e-01
  2.5875399e-01
  5.4393047e-01
  1.1027399e+00
 -1.1127543e-01
  4.6298541e-02
  1.8074986e-02
 -1.6623433e-01
 -1.6863140e-01
 -1.8739587e-01
 -5.2230519e-01
 -2.2769892e+00
 -3.7319374e-01
  3.9699817e-01
  7.4951574e-02
 -1.0743988e+00
 -9.6918440e-01
  2.0168755e+00
 -8.6758822e-01
 -4.3696076e-01
 -8.5653998e-02
 -5.9903616e-01
  2.5928792e-01
 -4.8271392e-02
 -1.7241798e-01
 -6.1585253e-01
 -7.2080195e-01
  3.8387992e-03
  3.1079415e-02
  1.7839640e-01
  7.2100621e-01
  9.1324888e-02
  1.5802794e+00
 -3.6280327e-02
 -2.4473244e-01
 -1.1225861e+00
  1.3771572e+00
  1.3026880e+00
 -9.0863979e-01
 -1.6432278e+00
 -9.9580252e-01
  2.8027337e+00
  1.5911615e+00
  3.5906202e-01
 -1.1102377e+00
  2.2787185e+00
  7.8569537e-01
 -2.9539740e-01
 -2.7660925e+00
 -6.8376553e-03
  1.8947032e-01
  1.1372895e+00
  6.7574665e-02
  1.7465324e+00
  3.2444284e+00
  1.3244705e+00
 -5.1481280e-02
 -6.4838272e-01
 -2.9422230e-01
  5.6856595e-02
 -7.1169816e-02
 -4.5410636e-01
 -4.3303850e-01
  2.7093756e-01
  4.8976651e-01
 -2.2377541e-02
 -3.5941195e-02
 -5.3238481e-01
  6.4309776e-01
  9.3980767e-03
  1.6455909e+00
  2.7509506e+00
 -4.9912587e-02
 -2.0139389e+00
 -2.7268744e-01
 -1.3721581e-01
  1.8145982e+00
 -8.6794540e-02
 -7.6200748e-03
  1.9711753e-02
  3.8204587e+00
  8.1351495e-01
 -2.3190869e-02
 -5.5568371e-02
 -1.0303780e-01
  1.1929397e-01
  1.7766009e-01
 -1.3081717e-01
 -3.6122196e-03
 -2.6134863e-02
  1.1804086e+00
 -2.3106096e-02
  1.2108050e-02
  8.0383897e-02
 -1.0802482e-01
 -5.8117010e-02
  2.4989527e-02
  1.8292697e-02
  9.4967224e-03
  1.2987757e-01
  5.5823475e-04
  4.9645137e-02
  6.3376439e-01
  7.1463883e-01
  8.9466773e-02
 -6.5809704e-04
  9.0693843e-01
  6.0689814e-02
  9.9224532e-03
 -4.8998846e-03
  6.5010387e-01
  2.1511543e-01
  1.6213357e-01
 -1.5387444e-01
  8.0494238e-03
  4.1880429e-02
  5.5923387e-03
  7.6524787e-02
 -9.5596626e-02
 -4.0844522e-02
 -2.8031311e+00
  4.4257119e-02
 -7.5940892e-02
  4.5805187e+00
 -1.2460636e-01
  2.4849951e-01
 -3.0770786e-02
  8.4194136e-01
  3.1637105e-01
  3.2913988e+00
  9.8529661e-01
 -1.0302230e-01
 -5.7088900e-02
 -6.6312689e-01
  2.8971806e-01
  3.3745874e-02
 -2.8640261e-01
 -1.1340787e+00
 -4.0270022e-01
 -7.8470284e-01
  3.3273634e-02
 -3.3298981e-01
  7.2421134e-02
 -3.4822905e+00
  7.2180158e-01
  1.1188817e-01
  1.2675440e-01
 -1.0736796e-02
  6.5860385e-03
  8.4974700e-01
 -1.8320920e-01
  2.8243535e+00
  1.9218303e-01
 -7.9699278e-02
  4.6916280e-04
  1.2724552e-01
 -9.7569650e-01
 -8.2851566e-02
  9.0073735e-01
 -3.5648024e-01
 -1.1642672e-01
 -3.3695409e-01
 -1.0689329e+00
  7.5651810e-02
  4.2754504e-01
 -4.4609137e-02
 -1.6079303e-02
  7.2586268e-01
 -4.7897020e-01
  5.0069120e-02
 -1.2152658e-01
 -1.4567681e-01
  8.5967958e-02
  3.4665845e-02
 -3.7473526e+00
  1.0455113e-01
 -8.4327385e-02
  3.1094516e-02
 -1.5748208e-02
 -6.1963044e-02
  6.2382084e-01
  8.5331671e-02
  2.7225211e-01
 -4.5071599e-01
 -2.9398391e+00
  1.4829043e-01
  9.0140000e-02
 -6.7469615e-01
 -2.7848248e+00
 -1.1859065e-01
 -1.1668271e-01
 -7.0603514e-01
 -1.7296671e+00
 -3.6821496e-02
  5.0194860e-02
 -2.0939456e-02
 -1.2957200e+00
 -1.8405348e-01
  7.6807216e-02
 -4.7096182e-02
  1.5308101e-01
 -3.6850356e-02
  1.7326362e-01
 -6.6872559e-02
  2.9969284e-01
 -3.0609623e-02
 -5.2538794e-02
  9.7539485e-02
 -4.4510972e-02
  3.3950198e-02
  2.0926915e-01
 -1.2980309e-01
  4.5275196e-02
 -1.0926419e-02
 -1.1506037e-01
  1.3902450e-01
 -9.9540837e-02
  2.8314380e-02
  1.2678896e-01
  3.6128923e-01
  1.7449863e-01
  9.0010628e-02
 -1.2538801e-01
  7.6096738e-03
 -3.4365822e-02
  1.7235186e+00
  6.4967167e-01
  5.4103751e-02
 -1.5082766e-01
  5.9008822e-02
  1.4601561e-01
 -6.0583510e-02
  1.5316400e-01
 -7.2789691e-02
 -1.7945230e-03
 -6.8711156e-01
  5.2053250e-02
  9.8725289e-01
 -4.7281227e-01
  9.1336507e-01
 -4.0542934e-02
 -6.6290313e-01
 -1.5680075e+00
 -1.0120690e+00
  7.7839106e-01
 -7.0662975e-02
 -5.7932869e-02
  1.1717787e-01
  1.2073614e-01
 -2.8847024e-01
 -1.4275414e-01
 -1.6438335e-01
 -5.0383770e-01
  4.8423491e-02
 -5.8615901e-02
  1.1483031e-01
  8.5361844e-01
  4.2345104e-01
  1.1831238e-01
 -6.5538526e-02
 -8.9735799e-02
 -1.1802004e-02
  2.6389096e-02
  9.1165520e-02
  2.9993111e-01
 -2.3804402e-01
  1.4518525e-01
 -2.6391682e-01
  1.3193658e-01
 -3.8019556e-01
 -2.0449183e+00
  1.0803604e+00
  5.9190948e-02
  1.5319124e-01
 -2.4892302e-01
  6.0789187e-02
  3.7513040e-02
  6.6343528e-01
 -1.3533286e-02
  3.0991240e+00
  2.3807700e-01
 -5.2087713e-02
  9.2269339e-02
 -4.3936722e-02
  2.6164921e-02
 -4.1224673e-01
 -3.6258645e-02
  4.2973235e-02
 -1.9573919e-02
  2.6062436e-02
 -3.3778507e-02
  9.6437475e-04
  2.6839522e-01
  1.9033995e-01
  1.1888067e-01
 -1.9280018e-02
  6.0847676e-01
  2.3203801e-01
  8.8920325e-01
 -7.2109774e-03
  4.2429101e-01
 -1.3773115e-01
  7.0520252e-02
 -6.4694218e-02
 -2.0301921e-02
  3.4998477e-02
  2.0916219e+00
 -1.9441125e-01
 -3.4408939e-01
 -4.0161885e-02
 -3.5076043e-01
  7.9199702e-02
 -3.7482360e-01
 -2.2060595e-01
  8.4271306e-01
  5.3548552e-03
 -6.6873915e-02
  1.0217964e-01
 -1.4036699e-01
  9.5483316e-03
 -8.1732631e-02
 -8.3286446e-03
 -4.2232458e-02
  8.6226135e-02
 -1.9418460e-03
 -2.2842423e-03
 -1.9445856e-01
  7.0110068e-02
  2.5277363e-02
  7.2658164e-03
 -1.0249086e-01
 -7.1606948e-03
  5.2474450e-02
 -1.1068004e-01
 -6.5673456e-02
  2.7370943e-02
  1.3726211e-01
  8.9387588e-02
  2.8680721e-01
 -6.0016345e-02
 -4.3295167e-02
  2.0158064e+00
  5.8248243e-03
  3.2608069e-02
 -1.1106172e-01
 -4.5962114e-02
 -2.4267420e-01
  1.1768209e-02
  4.1602886e-01
 -1.9105832e-01
 -1.2192415e-01
  2.5414996e-02
  5.5908069e-02
 -1.2810826e-01
 -7.5145915e-02
  7.1481213e-02
  2.3483583e-01
 -4.6096560e-02
  9.5797408e-01
 -2.3816361e-03
  2.5169425e-02
  1.8598681e-02
  1.2699220e-02
 -2.6048133e-01
  5.1651518e-03
 -1.2139086e-01
  1.3266043e-01
  6.9941506e-02
  6.5889555e-01
  7.8048701e-03
  4.9982328e-02
 -4.5003274e-01
  6.4560086e-01
  9.1094328e-03
  2.0233381e-01
 -1.1248451e-01
  2.2447251e-01
  1.7302290e-01
 -2.1894123e-01
 -3.6430035e-02
 -6.8145745e-02
 -1.4780771e-03
  3.6537415e-01
  2.1374803e+00
  8.8072047e-02
 -1.2336516e+00
 -7.9485752e-02
  3.2046739e-02
  6.5146655e-02
 -1.4846733e-02
 -3.7866452e-01
 -7.7345997e-01
  6.2335138e-03
  2.5555335e-02
  3.9922930e-02
  9.7515553e-01
  7.4091144e-02
 -2.2641597e-02
  1.7173366e-03
  2.2493291e-01
 -3.1506069e-02
 -2.2971439e+00
 -1.7232025e-02
  2.5421295e-02
  4.2951223e-01
  2.3658307e-02
 -1.0688828e+00
 -1.1868552e-02
  3.8342741e-01
 -1.1710330e-01
 -3.1718764e-01
  1.9693582e-03
 -5.5509683e-02
 -4.0292043e-02
 -1.0600871e+00
  2.1445980e-02
 -2.4826182e-01
 -3.0217549e-01
 -2.6599586e-01
  4.4449184e-02
 -1.4838256e+00
  5.0365511e-02
 -1.4379837e-01
  1.0864536e-01
  2.1484855e-01
 -1.4256139e-01
  8.6564921e-02
 -5.7263744e-01
 -3.3367074e-01
 -1.9992925e-01
 -1.9169321e-02
 -5.4229725e-02
 -1.2540753e-01
 -2.9960326e-03
  8.9316481e-01
  2.9053716e-02
  5.1106360e-02
 -6.2192094e-02
 -3.8258216e-01
 -9.7877994e-02
 -5.3591534e-02
 -3.0511258e-02
 -1.4684422e-01
 -3.8373757e-03
  3.4139253e-02
 -6.0390942e-02
 -3.0327517e-01
 -6.5900259e-02
  2.6599750e-02
  8.4923254e-03
 -2.1346764e-01
 -6.7763433e-02
 -1.6458306e-02
  2.0131459e-02
  7.7046305e-02
  1.3851076e-02
 -5.8458347e-02
 -2.9820329e-02
  9.0917781e-02
  8.3444560e-01
 -2.0625323e-02
  1.9522135e+00
 -4.4490257e-01
 -9.6769787e-02
 -1.0994315e+00
 -9.2155240e-02
  1.5499923e+00
  5.0953156e-01
  1.1968996e-01
 -1.9792101e-01
 -9.2977631e-01
 -1.3680913e-01
 -1.3451742e-01
  4.2944819e-02
  3.0908984e-01
 -7.7467501e-01
 -1.1608050e+00
  2.3497073e-02
  1.0533581e-02
 -1.8310379e-02
  8.7627321e-01
 -8.6526304e-02
  7.8328162e-02
 -3.3852284e+00
 -3.8293652e-02
 -8.0338679e-02
 -2.6211688e-02
  8.8558346e-02
 -5.0362521e-01
  3.6002439e-01
 -3.2190862e-01
  8.4681287e-03
 -3.5542000e-02
  2.7254701e-01
  9.9771214e-01
 -1.5276295e-01
  9.4393104e-02
 -1.1561648e-01
  3.7217073e-02
  2.5627971e-02
  4.6437776e-01
  5.3581007e-02
  7.0833936e-02
 -1.0273020e-02
 -6.6575140e-02
 -5.2094203e-01
  3.5529520e-02
 -2.5908327e-01
  1.8746555e-01
 -9.4491020e-03
  2.3873299e-02
  1.1988443e-01
  6.1578387e-01
  1.1333367e-02
  9.2290387e-02
  2.0782922e-01
  6.7345984e-02
 -1.8275283e-01
 -2.2993943e-01
  2.4459276e-02
 -2.3028776e-02
  6.8156946e-01
  2.1120955e-01
 -1.8554802e-01
  1.3156332e+00
  5.1774969e-03
 -2.1818789e-02
  4.1514257e-01
 -3.4016967e-02
 -2.6664525e-01
  4.7075620e+00
  3.6105964e-02
  2.7194472e-02
 -5.6845643e-02
  5.5849240e-03
 -6.0242366e-02
  2.2689983e-02
  3.7799917e-02
 -1.7855097e-01
  6.2259410e-02
  5.3745783e-03
  2.2257756e-01
  2.8157702e-02
  2.8240154e+00
 -1.9560853e-01
 -2.1008921e-01
  8.4019527e-02
  3.6620695e-02
  9.5506907e-03
 -2.2487225e-01
 -3.8304050e-02
  3.5317558e-01
  1.7113798e+00
  1.0608146e-01
  1.4229277e-01
 -8.9131290e-01
 -4.6573821e-01
  5.1236589e-02
  6.6017032e-02
  5.6097981e-02
  5.2117604e-01
 -1.6748151e-02
 -2.8475963e-03
  3.7960604e-02
 -2.6043074e+00
  1.3154551e-01
 -1.3996882e+00
 -1.0222778e-01
 -4.8506064e-03
  1.9127412e-01
  8.6087513e-01
 -4.4154552e-01
 -2.3134549e-03
  2.1188767e-01
 -2.4602604e+00
 -5.7988442e-03
  2.2779303e-02
  1.9430000e-02
 -6.4972006e-02
 -2.6036525e-01
  3.2355091e-01
  1.1914485e+00
  7.2002989e-01
 -6.3020431e-02
  2.4133999e+00
  2.8343613e+00
  1.2699722e-01
  1.7560724e+00
 -1.0001381e-01
 -6.2011980e-02
 -1.3087565e-02
 -3.0426267e-01
 -7.1322656e-01
  1.9287352e-01
 -3.0010390e+00
 -1.1164811e-01
 -1.9302164e+00
  2.1695942e-01
 -1.2994320e+00
 -1.6991127e+00
 -1.7879264e-02
  5.0898170e-01
  1.2518822e+00
 -2.3537080e+00
  1.0523009e+00
 -2.0623277e-04
 -7.1164139e-02
 -7.0977312e-01
  5.4145843e-01
 -2.0333126e+00
 -1.4124900e+00
 -1.7550306e+00
  1.3751620e+00
 -5.7453465e-02
  2.6652834e-01
  6.2078785e-02
  4.5118489e+00
  6.2917799e-02
 -5.5950958e-01
 -1.2508705e-01
 -5.4358947e-01
 -5.7563346e-02
  1.1408942e-01
  1.3802261e+00
 -1.8513738e-01
 -1.3337418e-01
  4.5094206e-03
  1.1337845e-01
 -1.3579079e-02
 -3.0727297e-01
 -4.9270430e-01
 -4.6130231e-01
  4.2603293e-01
  2.4098326e-01
 -5.2097911e-01
  1.8537104e-01
  4.5043299e-01
  2.0477758e-01
  1.2279093e-01
  3.0558724e-02
 -1.2786531e-02
  2.7277192e-01
  1.6900206e-04
 -6.0744874e-02
  3.3960727e-01
 -2.6698652e-01
  1.9774611e-01
  1.8659051e-01
 -1.1416484e+00
  6.4604837e-01
  1.3384972e+00
  1.2445675e-01
 -2.0493793e+00
 -2.0853350e-01
  2.1032016e+00
  1.1435586e-01
 -5.0938356e-01
 -7.5624448e-01
 -2.1130373e-01
  7.1945387e-01
  9.2515916e-01
  4.0114179e-02
 -4.0545443e-01
  1.4678131e-01
 -1.6383311e-01
  1.9141976e+00
 -1.2888281e-01
  4.8797969e-03
 -7.5485557e-02
 -4.8481688e-01
 -3.3389783e-01
 -1.5483348e-01
  2.1028979e-02
  7.8568316e-01
 -3.5336858e-01
 -1.3667904e+00
  3.4942061e-01
 -8.6558157e-01
 -6.9496089e-01
  4.7851676e-01
  2.4465846e-01
 -2.2412242e-01
  1.1656767e+00
 -6.3592225e-01
 -2.4523882e-02
 -4.0639164e-03
 -1.0050742e-01
  1.1349261e-01
  2.3453887e-01
  2.0000777e-01
 -1.8934286e-01
 -1.7233030e-01
 -9.0308152e-02
 -1.3324994e-01
  4.9348444e-01
 -2.9795167e-01
  1.3793705e-01
  7.9991510e-03
  5.5696476e-01
 -6.1135471e-01
 -7.9145116e-01
  1.7625643e-01
 -1.1133689e-01
 -7.2409242e-02
 -1.7212559e-02
  3.5820782e-01
  5.1198583e-03
  1.4850160e-01
  2.6044244e-01
  1.9964938e-01
 -2.7415186e-01
 -8.2405561e-01
  7.4187672e-01
  1.9006956e-01
 -2.1030709e-01
  6.1006375e-02
  1.4248865e+00
  2.0184645e-02
  5.7797126e-02
 -7.5723074e-02
 -1.2680738e-01
 -1.6039705e-02
 -3.4175107e-01
  2.0637597e-01
 -3.6682468e-02
 -2.0657429e-01
  3.8835740e-01
  8.5255826e-01
  2.9125100e-01
  2.5936058e+00
  5.1632506e-01
  6.1169571e-01
  1.6835386e+00
 -5.2709550e-01
  1.6202356e-01
 -2.1794438e+00
 -1.3038243e+00
  1.0880969e+00
 -3.5928395e-01
  1.4226767e+00
 -2.3183150e+00
 -8.0778683e-03
  1.7676668e+00
 -9.1870266e-01
  9.4338661e-01
  9.0632826e-01
  4.1657538e+00
 -1.0519066e+00
  2.5540478e+00
 -5.1089972e-01
 -1.8274628e+00
  1.8289455e+00
  6.5972400e-01
 -1.0967476e+00
  6.1415565e-01
  1.6893532e+00
  4.9802014e-01
 -1.6268110e+00
  8.4397212e-02
 -8.0302989e-01
  1.7035726e+00
 -3.9312401e-01
  2.4209042e+00
 -2.9528323e-01
  4.9487600e-01
 -6.6779310e-01
 -4.4150892e-01
  3.4425225e+00
 -7.4166131e-01
  1.9954048e+00
  3.9461565e-01
  3.5323577e+00
 -2.1454576e-01
 -1.8514046e-01
 -4.3649200e-02
  5.5776560e-01
 -1.1720192e-01
 -4.7798995e-02
 -1.3752910e-01
  1.3586780e-01
 -1.1849015e+00
  2.1464961e+00
  5.2914214e-01
  8.7913680e-01
  2.4622218e-01
 -1.8236969e-01
 -1.6677100e-02
 -1.5653190e-01
 -2.1273932e-01
  2.5887012e-03
 -1.8521594e-01
 -6.3289881e-02
  2.3744763e-01
 -1.1880419e-01
 -6.5025434e-02
 -7.1228780e-02
 -1.1472567e-01
 -2.9430839e-01
 -4.4967886e-02
 -7.4299626e-02
 -1.8327132e-01
 -1.5112151e-01
 -1.3761657e-02
  2.5413173e-01
  3.6836171e-01
 -1.6214436e-02
  2.2440477e-01
 -6.4234361e-02
  8.9979723e-02
  1.0140750e-01
 -1.8327434e-02
 -9.8387726e-02
 -4.6187237e-02
 -1.6068016e-01
 -4.6612952e-02
 -1.4486852e-01
  2.7944919e-02
  9.7316191e-02
  1.2483331e-02
  2.0819327e-02
 -2.8615182e-02
  5.6173813e-01
  8.8169746e-02
  9.4614074e-02
  1.4911401e-01
 -7.0970625e-02
  2.6579213e-01
 -1.4641014e-01
 -6.3495236e-03
  6.2432766e-02
 -8.7156296e-02
  1.1330537e-01
 -9.3651088e-03
 -6.2022274e-03
  6.1065275e-02
  3.6657944e-01
 -7.1812183e-02
  9.5985577e-02
  7.2105163e-01
  4.1544188e-02
  1.1893334e+00
  3.3335474e+00
 -1.2448632e+00
 -2.0804353e+00
  1.1463137e-01
 -2.5464046e-01
 -1.0683578e-01
 -3.6790961e-01
 -8.9202262e-02
  9.5623769e-03
  1.5265899e-02
  1.4553585e+00
  1.0382970e-01
  4.8639277e-01
  2.1949026e-01
  1.0966854e-01
  2.7512237e-01
 -1.4189875e-01
 -1.1423367e+00
  3.5084441e-01
  2.4401760e-01
  1.0007474e-02
  3.1793994e-01
 -2.9482463e-01
 -1.2788230e-02
 -4.2605881e-02
  2.9487953e-02
  1.1871664e-01
  7.1324627e-03
  1.3557876e+00
 -7.2448686e-02
  3.6693439e-02
  1.3058944e-01
 -1.0558766e-01
  2.3986909e+00
  4.1874265e-03
  1.7607430e-01
 -6.2238265e-02
  7.5567007e-02
 -3.3336736e-02
  5.6214716e-02
 -9.8922942e-04
 -1.9345200e-02
 -7.3777154e-02
  2.3501713e-02
  8.1903720e-04
  2.2151287e-01
  9.0148143e-02
  1.1113504e+00
  1.0912768e-01
  4.7612514e-02
  1.1372715e-03
 -3.1355518e-01
 -4.8698604e-01
  4.6045091e-02
  1.2166381e+00
 -8.1701779e-01
  9.3162292e-01
 -1.4065056e+00
  4.5819022e-02
  1.1535527e+00
  2.2911765e-01
 -5.2098796e-02
 -1.2376010e-01
  8.9826214e-01
  2.1340292e+00
 -8.7769151e-02
  1.0981164e+00
  1.3094340e-01
 -1.9488890e-02
  1.1954775e+00
 -2.6581038e-02
 -1.8243927e+00
 -1.5672193e+00
 -1.4363503e+00
  2.2302197e-02
  3.9754301e-02
  4.6831313e-01
  4.0849227e-01
  9.9051103e-02
 -8.3112247e-02
  2.3565754e-02
 -8.1074592e-03
  7.3761046e-02
  1.2218308e-01
 -2.0843929e-02
 -1.7840266e-01
  2.0871532e-01
  7.5612724e-02
 -2.6345519e-02
  2.0040817e+00
 -6.3138187e-02
 -7.9489321e-01
 -1.2415683e-01
 -1.0526862e+00
 -3.4975157e+00
  2.3783247e-01
 -6.0551697e-01
  8.3102480e-02
 -3.2287997e-01
  5.8013193e-02
  1.8293479e-01
  2.8729588e-01
 -3.3939280e-02
  4.9206296e-01
  9.4054816e-03
  4.4099987e-03
  3.2706201e-02
 -2.1072935e-02
 -1.4423512e-01
  8.0424768e-01
 -4.9177742e-01
  3.7749574e-02
 -2.2159679e-02
  3.2146949e-01
 -1.5485732e-01
  1.2005055e+00
 -4.8122380e-02
 -8.9610636e-02
  7.1961260e-03
 -3.0908006e-01
  7.9183537e-01
 -9.9802166e-02
  8.6567783e-01
  1.7869021e-01
  1.7569294e-02
  3.5035092e-01
  2.0442145e+00
 -6.9050886e-02
  3.2614022e-02
  9.2421085e-02
 -2.7381995e-01
  1.9576544e-02
 -6.8467036e-02
  9.2218695e-03
 -2.5627744e-01
 -7.9999557e-03
 -2.6631143e-02
  2.6195216e+00
  1.7331140e-01
  1.0544679e-02
  1.8644363e-01
  3.1682655e-01
 -2.2119833e-02
 -6.3001476e-02
  4.8219040e-02
  8.5376687e-02
  1.5661000e-01
  6.0183299e-01
  2.0492883e-01
 -1.2328012e-01
 -9.1110915e-02
 -1.3294360e-01
  1.6667187e+00
  6.7542352e-02
  1.3805653e-01
 -2.7851275e-01
  2.0744939e-01
 -2.5249299e-02
  2.0830496e-01
 -1.2897702e-01
  8.2568809e-02
 -2.7256880e-02
  4.7767077e-02
  1.8746693e-02
  3.9760642e-02
  8.4290904e-01
 -8.3739853e-01
  3.2917765e-01
  9.7471797e-01
 -1.4660929e+00
 -3.8867111e+00
  4.3254516e-01
  1.2867537e-01
 -1.8531960e-01
  3.7484574e-01
 -2.0842586e+00
 -4.8483831e-01
  6.0410511e-02
  8.4913516e-01
  4.1434236e-02
  2.5355437e+00
  2.5095290e-01
  3.0994242e-01
 -1.6832217e+00
 -1.1119319e-01
  2.9787109e+00
  3.3333260e-01
 -1.2279878e-01
 -3.2187679e-01
 -2.9293889e-02
 -1.9599804e+00
  1.0370006e-01
 -4.6249986e-01
  1.5822415e-01
 -6.7018694e-03
  2.2831428e-01
  1.6971752e-01
 -3.3886895e-02
  3.8550711e-01
 -1.8099616e-03
 -1.0615940e-02
 -4.4910114e-02
  7.1399337e-01
  1.8282046e+00
  3.9653453e-01
 -4.8467807e-02
 -2.1621656e-01
 -5.3727798e-02
  7.9418671e-01
  5.8608879e-03
 -1.3247774e-02
  1.2632302e+00
 -7.8573100e-02
  4.1048370e-02
 -8.3879866e-02
 -1.7363917e-02
  1.6637889e-03
 -2.9457387e-01
  7.1641408e-02
 -8.5210726e-02
 -2.0859191e-02
  1.8308425e-01
  5.2272642e-01
 -8.2474715e-01
 -9.1310211e-02
  1.7594659e-01
 -2.6046169e-01
 -7.8473594e-03
 -5.5427784e-03
  1.6863371e-01
 -1.0469378e+00
 -1.1515754e-01
 -7.8238979e-02
  1.4361978e-01
  1.9379687e-01
  1.1361268e-01
 -3.2234157e-03
  7.6099984e-02
 -3.2719895e-03
 -2.8702334e-02
  3.0816654e-02
  3.5362631e-02
  3.8710736e-02
 -6.8093494e-02
 -1.4010775e-01
  9.5798643e-03
 -4.5310855e-02
 -2.0645444e+00
 -1.3979435e-01
 -8.5706487e-02
 -8.6669534e-01
 -1.4489712e-01
  2.8371044e-02
  9.2516981e-02
 -5.0334685e-02
  1.8426692e-01
  3.1716614e+00
 -2.3083767e-02
 -1.5854761e-02
 -5.9092190e-02
 -5.9130296e-02
  1.4742410e-01
 -2.1851364e-01
 -3.0497452e-03
 -2.0418265e-01
  6.9137231e-02
  6.1682742e-03
 -4.1837197e-02
 -1.9044012e-02
 -8.0315828e-02
 -5.7011936e-03
  8.8677153e-02
  4.2196311e-02
