nep4 4 Na Al C N 
cutoff 9 6 153 51
n_max 10 8
basis_size 10 8
l_max 4 2 0
ANN 50 0
  5.4837037e-02
  1.0465798e+00
  3.7353162e-02
 -7.8681536e-02
  1.8833519e+00
  1.8104650e-01
  4.4075033e-01
 -1.3000822e+00
 -1.5794927e-01
 -3.8690874e-01
  1.6871544e-02
 -1.1861917e-01
  1.7809987e-02
 -3.2425512e-02
 -9.0376064e-02
 -2.0915078e-02
 -1.9839704e-02
 -1.5671617e+00
  4.1700315e-02
 -8.8998780e-02
  1.2835938e-01
  1.4820531e-01
  3.0793013e-02
  1.8888703e-01
  1.2761022e-01
  2.1574572e-01
  2.9147003e-02
  5.3938285e-02
  1.2584408e-01
  2.6563821e-02
  1.2326504e-02
  5.1406501e-03
  1.6853205e+00
  7.9946294e-02
  1.2287904e-02
  2.5255835e-02
  7.6687813e-02
  2.6663485e-01
  3.6127627e-01
 -4.4172447e-02
 -2.5987625e-01
 -9.0564370e-02
 -2.6779044e-02
 -5.4514026e-03
  7.7784747e-02
  4.5458083e-03
 -9.6978419e-02
  1.2093531e-01
 -1.2591389e-01
 -2.4232822e-02
  5.1849894e-03
  4.4953585e-02
  3.7085544e-02
  1.0024817e-01
 -1.3285911e-01
  6.8617351e-02
  9.4367648e-03
 -8.9019495e-01
  5.8882886e-01
  5.6312734e-01
 -5.8633769e-01
 -4.3765175e-01
  3.7402747e+00
  5.0286698e-01
  7.6305926e-01
 -5.8533054e-02
 -2.1248450e+00
 -8.3503500e-02
 -4.5240194e-02
  1.1928577e-01
 -2.4785863e-01
  8.1879263e+00
  1.7354651e-01
  9.9470310e-02
  6.5076696e-03
  1.9487407e-02
  4.0008944e-02
  7.9051465e-02
  8.4526166e-02
  2.5276927e-02
 -1.3614614e-02
  2.7344048e-01
 -1.5600081e-01
 -2.7831180e-02
  2.1268362e-02
 -8.4733451e-03
 -5.7770348e-01
  1.6157109e-01
 -3.1918909e-02
  2.9139397e-01
 -1.7120141e-01
 -7.1274593e-02
 -8.2167849e-02
 -1.6887352e-01
  5.9857089e-02
 -4.5637734e-02
 -4.2221159e-02
  5.7331122e-02
 -2.3335628e-02
 -1.2357821e-01
  2.8772587e-02
  8.3453202e-01
  6.9362544e-02
  9.4116658e-01
 -6.5090120e-02
  1.1216963e-01
  3.9728496e-02
  3.4855820e-02
  4.0158421e-02
 -1.1673237e-03
 -2.1596315e+00
  2.0971207e-01
 -5.0034881e-01
  1.3191952e-01
 -3.9069641e-02
  1.7984138e-01
 -3.7431162e-02
 -3.3888221e-02
  4.7037458e+00
  3.6635980e-02
 -1.2261540e-01
 -2.6285461e-01
 -7.6601200e-02
  1.4938945e-03
  3.9045941e-02
 -2.1402264e-02
 -6.4665926e-01
 -9.3091780e-01
  1.2867969e-02
  6.4908259e-02
 -6.7179896e-02
 -1.0269670e-01
 -2.8175443e-01
  1.5501767e-01
 -2.4061964e-03
  1.9371679e-01
  2.8321159e-03
 -5.4860753e-01
 -3.2685542e-01
 -3.3060212e-03
 -1.5525941e+00
 -2.1485515e-02
  1.2793586e-01
  8.0662556e-02
  2.7479107e-02
  2.4935149e-01
 -2.7953109e-01
  1.3592806e-01
 -1.5235552e-01
  6.2905671e-03
 -3.9450434e-01
 -1.1065529e-01
  3.2098219e-02
 -1.7213383e-01
 -1.2032232e-02
  4.1505769e-02
  5.4996762e-02
  2.1479413e-01
  1.5271811e-01
 -1.0306062e-01
  3.5174731e-02
 -2.8803570e-03
  7.3529951e-02
 -5.1421490e-02
  5.0360173e-01
  3.2253560e-01
  1.0786878e-02
 -6.3829191e-02
 -9.3283415e-02
  1.2114094e+00
 -2.1239243e-01
 -1.7845416e-01
  2.8224123e-01
 -2.1186464e-01
 -1.4541659e-01
 -5.0359130e-01
  4.6092597e-01
  6.8066336e-02
  3.0191609e-01
  1.3356152e-01
 -1.7825061e-02
 -4.7156174e-02
  1.0052237e-01
  2.0414673e-01
 -3.4966731e-01
  7.9688514e-03
 -1.7750554e-02
  2.7624570e-02
 -1.2115306e+00
  1.7446639e-01
 -5.1441938e-02
  2.4330596e-02
  6.0823716e-02
 -5.1889822e-02
  4.8847325e-02
 -8.1043735e-02
  7.6682568e-02
 -1.1611958e-01
  1.3241164e-01
 -4.1573416e-02
  5.0748936e-03
 -3.5835631e-02
 -2.3268604e-01
 -6.4139575e-01
  1.0446527e+00
 -5.0514978e-01
 -4.9308956e-02
  7.3075391e-02
 -1.1227603e+00
 -9.4848424e-02
  2.0066021e-01
  7.9342693e-02
 -6.3070748e-03
  9.0064719e-02
  4.0853578e-01
 -1.2521381e-02
 -8.2318233e-03
  1.4303906e-01
  7.5405468e-03
  1.5437078e-01
 -4.8822887e-02
 -3.1979299e-01
  6.5244496e-02
 -3.7142787e-02
 -1.3638925e-02
 -2.7835241e-01
 -6.4021766e-02
 -2.2280257e+00
 -3.4682706e-02
 -6.4703822e-02
 -1.1791804e-01
 -1.2733394e-01
 -1.7046087e+00
  9.5042691e-02
 -2.4613541e-01
  6.0385164e-02
  7.1313965e-01
 -1.7609528e-01
  5.4909974e-02
 -8.5944659e-01
 -3.2216277e-02
 -5.6671832e-02
 -1.5641004e-01
  5.8071848e-02
 -4.9548645e-02
 -6.5000162e-02
  2.1810107e-01
  3.4187644e+00
  7.3346354e-02
 -4.1619677e-02
  1.4326125e-02
  3.2203099e-01
 -1.2713534e-01
  3.1823002e-02
  1.3178995e-01
 -1.8594628e-02
  5.5484730e-03
  5.9759896e-02
  2.0343179e-01
 -7.3429927e-02
  1.4996994e-01
 -1.8915118e-01
 -1.4416954e-02
  6.5892048e-02
 -4.7241691e-03
 -1.0645892e-01
  9.9070473e-03
  3.0642146e-01
  1.3746688e-01
  9.8495893e-03
  3.6570735e-02
 -5.4895766e-02
 -6.0762966e-01
  8.0319834e-01
 -2.4103119e+00
  2.6148712e-02
  5.9722498e-02
  2.8932899e-02
  7.9293936e-02
  2.1237299e-02
 -4.3151725e-02
 -7.8574032e-02
 -1.8566994e-02
  1.5460375e-01
 -1.2679586e-02
 -5.1148955e-02
  1.0326420e-02
  5.5274619e-03
  3.9836070e-01
  9.0866119e-02
  1.0507901e-01
  1.4209045e-01
  5.9468746e-02
 -3.0187279e-01
  5.5491853e-01
  2.5692850e-01
  3.7677020e-02
 -1.7610839e-01
  1.3231429e-01
 -2.6264030e-02
 -2.7263803e-02
 -1.2619792e-01
  6.8690944e-03
 -3.1082628e-02
 -1.9896843e-01
  8.3074354e-02
  2.6332522e-02
 -7.5874940e-02
  1.8263507e-01
 -1.0864609e-01
  1.2527923e-01
 -9.1705061e-02
  2.2601531e+00
  3.9188933e-02
  1.5277402e-01
 -9.0947524e-02
 -2.9034572e+00
 -3.5131026e-02
  1.0189553e-01
 -6.8079745e-03
  1.3624777e-01
  8.4907919e-02
  1.4139846e-01
  1.1458951e-04
 -1.1462133e-01
 -9.3310469e-01
 -6.3781098e-02
 -9.6178435e-02
  2.3712924e-01
  7.7360466e-02
  4.3414652e-02
  1.2455703e-01
  4.1491967e-02
 -6.1839134e-02
  8.5116670e-02
 -8.6473143e-03
  1.9041449e-01
 -2.8967584e-02
 -4.0922377e-01
 -1.1445213e-01
 -3.1616831e+00
 -7.5104889e-03
  3.5464659e-03
 -4.7705933e-03
 -2.6128204e+00
  2.0018247e-01
 -5.1909856e-02
  5.6981868e-03
 -9.0528682e-02
 -3.1605575e-02
 -5.8819778e-02
 -4.7012851e-02
 -3.0781439e-01
 -1.8892017e-01
  1.5021478e-02
  1.4813922e-01
 -1.6559733e+00
  8.0765426e-02
 -1.5243860e-04
 -5.7533246e-02
 -1.8735040e-02
 -1.1368337e-01
  1.0612103e-01
  1.2847525e-02
 -3.6066018e-02
  2.1508156e-01
 -3.9221317e-01
  4.2596874e-03
 -2.4609277e-02
  1.2538937e-02
 -9.5976043e-01
 -4.2939041e-02
  3.7809938e-02
 -2.0623162e-02
 -6.3930266e-02
 -1.7445819e-02
 -1.3406284e-01
 -1.0577362e-02
  8.3422440e-04
  4.0043138e-02
 -4.6958318e-03
 -1.0084114e+00
  5.4467654e-01
  1.7706990e-02
  3.1057113e-01
 -1.0569119e-02
  4.9425010e-02
 -1.9324297e-01
  3.4307808e-02
 -1.2093201e-01
 -5.5494998e-02
 -1.0448091e-01
  2.2944009e-01
  1.4708191e+00
  3.8785782e-01
 -1.7762856e-01
 -2.6815599e-01
 -1.8821409e-03
  1.4134471e-02
 -1.4968330e-01
  1.6324079e+00
  4.6031252e-01
 -1.0039982e-03
 -2.5620922e-01
  1.5434155e-01
  3.0455014e-02
 -5.0095502e-02
  1.9602602e-02
 -4.9777031e-03
 -4.9380761e-02
  5.2879505e-02
 -1.0179467e-01
 -1.0850348e+00
  1.2561817e-01
  1.8514995e-01
 -3.0042934e-03
 -7.0702240e-02
 -2.8842553e-02
  1.5270679e-01
 -1.0681799e-01
 -3.3977758e-02
 -1.1963440e-01
  7.4960659e-03
 -4.4081607e-03
  9.4252340e-02
 -4.4921278e-03
  2.5893882e-01
  3.2960195e-02
 -2.1238841e-02
  5.4159686e-03
 -4.8665315e-01
 -2.1262129e-01
 -3.6462769e-01
  3.5434738e-01
  6.2957690e-03
  1.0244948e-01
  7.7176169e-02
 -1.4052843e-01
  1.5731644e-02
  1.6334033e-02
  8.3418032e-03
  1.6707681e-01
 -3.4479912e-02
  2.9539350e-02
  2.1065088e-02
  1.2514406e-01
  1.3942263e-01
 -1.7527291e-01
  5.1610005e-01
 -5.2812468e-02
 -1.2665965e-01
  4.9265563e-02
 -1.3692194e-01
 -1.0531386e-01
 -1.1486173e-01
 -3.0580923e-01
 -1.4471413e-01
  1.1778300e-01
 -5.3760272e-01
  3.3580556e-03
  3.9356746e-02
 -2.4809742e+00
 -5.7678038e-01
 -4.5989126e-01
 -1.4313495e-02
  9.2285320e-02
 -4.5425644e+00
  7.9282053e-02
  4.3076307e-01
 -1.3178101e+00
 -5.0541364e-02
  6.2603778e-01
 -3.8405508e-03
 -1.0845698e-01
 -1.8515562e-01
  1.8657556e-02
  6.8956032e-02
  7.6125479e-01
  2.6182380e-02
 -3.4154889e-01
 -5.9157811e-02
 -1.8748900e-01
 -7.0978031e-03
  5.7333839e-01
 -2.2995470e-01
 -1.7378353e+00
 -1.6544648e-01
 -4.9417970e-01
  6.0435735e-02
 -1.2319416e-01
 -1.3246592e-02
  8.1948936e-02
 -3.2958243e-02
  2.6504484e-01
  6.9156632e-02
 -8.7823108e-02
 -1.6485383e-01
  3.2852808e-01
  5.9749470e-03
 -3.1889388e-01
  9.4433434e-02
  7.9475291e-04
  1.4073554e-01
  1.3787374e-01
 -6.9481783e-02
 -2.1921270e-01
 -6.4000264e-02
 -2.7387060e-02
 -4.6517679e-01
 -5.7082838e-01
  2.0847309e+00
 -5.5593848e-01
 -8.3069497e-01
  1.2876270e+00
  1.3020201e-01
  1.5784260e-02
 -1.5280886e+00
 -1.0099013e-02
 -5.3554788e-02
 -1.8570822e-01
  5.0712984e-02
  1.6215470e-01
  8.9184709e-02
  8.0383383e-02
 -7.1020983e-02
 -1.7229090e-02
 -2.0271362e-01
 -3.1690899e-01
  1.4422330e-01
  4.6788964e-01
  2.3583345e-01
  3.0532950e-01
 -3.9905101e-02
 -1.2080099e-02
 -1.4157308e+00
 -2.9903632e-01
  1.3345360e+00
 -7.1175969e-01
 -1.9624707e-01
 -3.8815850e-01
  6.1196052e-02
 -1.6833910e-01
  2.4191039e-02
  1.8282020e-01
  6.2440354e-02
  2.0028748e-02
  3.0690828e-02
 -6.3950218e-02
  4.1918945e-02
 -9.9302037e-03
 -3.4690204e-01
  1.1034504e-01
 -1.3107812e-01
 -1.8668161e-01
 -1.5495202e-01
 -1.9746197e-02
  6.7793936e-02
  4.3436695e-02
  1.9304438e+00
 -6.5322891e-02
  4.7653653e-03
  2.3706324e-01
  1.9662611e-01
 -5.0280422e-01
 -1.8348321e-02
  5.6609392e-02
 -8.0789573e-02
  1.3380332e-02
  9.4369411e-01
  8.3155297e-02
  1.5137256e-02
 -2.2618899e-02
  5.3803504e-02
  5.5860743e-02
  1.0927499e-01
  1.2338156e-01
 -3.9147325e-02
 -3.6767058e-02
 -4.0792394e-02
 -2.7628973e-02
  2.6287548e-02
  1.0200857e-01
 -8.7479480e-02
 -1.7435546e+00
  2.5546992e-02
  3.7318394e-02
  2.2017856e-01
 -6.4225838e-02
  8.3653495e-02
 -1.1159237e-01
 -1.4925500e+00
 -5.6086704e-03
  1.1465794e-01
 -1.3061129e-02
  1.0862389e-02
 -5.7972014e-02
 -2.0229805e-02
  4.1409712e-02
 -1.1300161e+00
  4.4450963e-01
 -3.3662204e-02
  2.6972320e-02
  3.6532409e-02
  1.1573158e-01
 -2.8532897e-03
  1.3170226e-01
  4.5712078e-01
  1.2788698e-03
 -1.7279582e-01
  9.1732591e-01
 -4.8722297e-02
 -2.0028934e-01
 -8.3504627e-03
  4.3497574e-02
  2.9420856e-02
 -6.5547444e-02
  1.4932530e-02
  1.2550527e-01
  1.2146105e-01
 -1.4486939e-01
 -8.6785591e-01
 -2.2967499e-01
 -1.6553761e-02
 -1.4187694e+00
  6.7107663e-03
  4.3010315e-01
  3.6278494e-02
  1.7441803e-01
  2.8506534e-02
  1.8742381e-02
  2.2564754e-01
  1.8479556e-01
  1.4879428e-01
  1.2893783e-01
 -1.5222638e-02
 -2.5214275e-04
  9.6878864e-02
 -1.5186647e+00
  1.1626190e-02
  1.6014601e-01
 -2.7469510e-02
 -2.4515001e-01
 -9.7689494e-02
 -6.3103199e-02
 -1.5746702e-01
 -7.0964426e-02
 -9.2148520e-02
 -7.5065888e-02
 -4.5766965e-02
  5.9339867e+00
  7.7567719e-02
  1.3587441e-01
  1.6348234e+00
 -1.8605436e-01
  1.5193230e+00
 -9.0815715e-02
 -1.9134970e-02
 -2.1709505e-02
  1.5901226e-01
  1.4454116e-01
  5.1207191e-01
  1.0283927e-02
  9.6555233e-02
  2.9391546e-02
  2.6298911e-04
  1.9029555e-01
 -9.6535213e-02
  7.8970745e-02
 -1.9471385e-01
  9.2708856e-02
  3.7099469e-02
  9.8091900e-02
 -2.1064496e-02
 -2.1380592e-02
 -2.6273417e+00
 -2.6073277e-01
 -1.5783516e-01
  1.0160834e-01
 -4.7824231e-01
  4.5671147e-01
  1.0132159e-01
 -2.7330762e-02
  1.3499248e+00
 -2.4893807e-01
 -6.8089887e-02
 -3.1879123e-03
  2.9323784e-01
 -2.9140888e-02
 -6.4495660e-02
  6.5690517e-02
 -2.6963051e-02
 -1.8744649e-02
  5.4804396e-02
 -6.0239404e-02
  4.9205709e-02
  2.3881698e-01
 -1.6094728e-01
  7.1403719e-02
 -2.8522484e-02
  1.0882503e-01
 -2.6011642e-02
 -5.5432647e-02
 -1.2896006e-01
 -1.2604676e-02
 -1.3290899e-02
  1.0331378e+00
 -5.1152408e-02
  5.4082874e-02
  1.5129663e-01
  9.2060335e-02
  5.9742082e-02
 -9.9299625e-02
 -1.5217164e-01
  3.0859721e-01
 -8.9648431e-03
 -8.4682278e-02
 -3.3282526e-02
  9.3420470e-01
 -2.3363191e-03
 -1.1276029e-01
 -1.8962273e-02
  1.4958684e-01
 -4.2993359e-02
 -2.5557777e-01
 -1.4164865e-01
  1.6220841e-01
  3.4578622e-03
  1.7652275e-01
  5.1647995e-02
  8.6040184e-02
  1.4221915e-02
  4.1791666e-02
  3.8861150e-01
 -5.9036136e-01
 -2.9486196e-02
 -1.9022682e-01
  2.3645313e-02
  2.8919303e-01
 -1.8856818e-02
  1.1403059e-01
  1.6195355e-02
  4.4837702e-02
 -1.2848596e-01
  7.9264492e-03
 -5.3751981e-01
  3.4612755e-03
  1.1108214e-01
  5.6233801e-02
  4.3862498e-01
 -1.6489771e-01
 -1.1848405e-01
 -7.4884623e-02
 -3.1712070e-02
 -6.0566489e-02
  3.2279391e+00
  2.5018426e-02
 -5.4519826e-01
  3.8615018e-02
 -1.3043965e-01
 -1.1564045e-01
 -1.4672631e-01
 -1.4329670e-01
 -3.2453921e-02
  1.5053000e-01
  4.6756692e-02
 -3.2182840e-01
 -5.3723375e-03
 -1.0307819e-02
 -9.5062517e-02
  2.2200064e-01
  9.2443511e-02
  9.3680501e-02
  8.2477555e-02
 -8.3589472e-02
 -6.3485891e-01
  9.8244688e-03
  2.2143674e-01
  7.2072923e-02
  1.3331355e-01
 -2.7889946e-01
 -2.4870992e-01
 -1.1785722e-02
  7.2543539e-02
 -1.0934681e-01
 -1.0308218e-01
  1.2239126e-02
  4.8161980e-02
 -1.2781677e-01
 -2.2205186e-01
  3.1834465e-01
  6.6879250e-02
 -8.4292822e-02
  9.6013084e-02
  2.3852672e-01
 -7.9179175e-02
 -5.2587558e-02
  1.8533632e-01
  9.8513275e-02
 -4.2773072e-02
 -3.1077316e-01
 -8.6078672e-03
  7.2497435e-02
  1.2922278e-01
 -2.9557842e-01
  1.4785759e-01
 -5.4648362e-02
  3.9026803e-01
 -1.3173383e-01
 -1.2677111e-01
 -1.8400805e-01
  3.8664055e-01
 -1.5129618e-01
  4.0875539e-01
  5.3647552e-02
  1.8401775e-01
 -4.6708256e-02
  3.1046671e-01
  1.2969521e-01
 -2.2454442e-01
 -1.5526527e+00
  1.9396594e-02
 -3.6399609e-01
  6.3260727e-02
 -1.9569576e-01
 -8.8083416e-02
  2.3256868e-01
  4.9081385e-02
 -1.0747178e-02
 -6.7841904e-03
 -1.0340998e-01
  2.0079997e-01
 -1.1090431e+00
  1.7307770e+00
  2.8576388e-03
  2.8287649e-01
 -4.5400646e-02
 -2.8350184e-02
  8.0164373e-02
 -8.5787969e-03
  3.7521818e-01
  1.0940168e-01
  1.2356071e-01
 -4.6016209e-02
 -9.0116932e-04
  9.9765614e-02
  3.5913455e-01
  6.8936482e-02
  5.1579114e-02
  2.1366481e-01
  6.0501450e-01
  3.8337525e-02
  3.0648036e-02
  5.0541487e-02
 -7.9529569e-02
  1.4305206e-01
 -7.2323792e-02
 -4.1928589e-02
  1.9202887e-01
 -3.9330437e-03
 -3.7335205e-01
  9.7309887e-02
 -1.2778446e-01
 -5.2370182e-03
 -1.7184710e-02
 -7.5908124e-02
  3.7062719e-02
 -2.8226299e-02
 -7.0673239e-01
  5.0913990e-02
 -9.0712244e-03
  4.4597772e-01
  3.7366528e-02
  1.4346638e-01
  3.1151393e-01
 -4.0463958e+00
  5.7510793e-02
  6.9098741e-02
 -1.9609505e-02
  2.7823987e+00
 -1.2983909e-01
  6.0642674e-03
  5.8398116e-02
  2.3386543e+00
 -2.8819731e-02
  2.1871155e-02
  1.0901658e-01
  2.2159146e-02
 -2.4508964e-02
  1.6460320e+00
  4.4062696e-02
  5.4599855e-02
 -1.8243073e-01
  5.0757233e-02
  1.4665709e-01
  2.1144050e-01
  1.0765953e-02
  3.2832420e-01
 -9.0593714e-01
  1.3315836e-04
 -1.4750442e-01
 -1.4734889e-02
 -2.8435562e-02
 -2.9390115e-01
  5.4944891e-01
  6.1899531e-01
 -8.2498603e-02
 -1.1241260e+00
  9.2402689e-02
 -1.6639547e-01
  4.2054313e-01
  3.1239173e-01
 -3.6427644e-01
 -4.0374894e-02
  8.5592136e-02
 -3.7717119e-02
 -2.1869123e-01
 -3.4064244e-02
 -2.4899612e-03
 -9.3800433e-02
  8.1636250e-02
 -4.9991958e-02
  2.0831676e-01
  2.9271239e-02
  2.0244451e-01
 -1.3877764e-01
 -1.5266384e-01
 -9.7532731e-01
  5.5119276e-01
 -7.1369368e-04
  7.3796257e-02
 -1.1711135e-01
 -8.2342297e-02
 -3.1326041e-03
  1.4688791e-01
  5.8905032e-02
  1.7608829e+00
 -1.2848678e-03
 -2.2589933e-02
 -2.6515692e-02
 -4.9325194e-02
 -8.3084874e-02
 -4.1306901e-01
  3.0995090e-02
  2.5409549e-01
 -3.9602056e-02
  5.7070617e-02
  8.8007540e-02
 -2.5858232e-01
  7.9976827e-02
 -3.4308299e-02
  1.0638472e+00
  1.0163312e-01
  4.1060209e-02
 -5.5917211e-02
  4.9958143e-02
 -3.3166921e-01
 -1.0463481e-01
  1.2803707e-02
  1.3414586e-01
 -4.4912171e-02
 -3.2257536e-01
 -1.3234107e-02
 -1.5459010e-01
  1.0551872e-01
  1.4290137e-02
 -2.3102865e-02
  1.0295553e-01
  5.1112637e-02
  1.0243466e-02
  1.4739181e-01
 -8.4065028e-02
 -2.9339808e-01
 -9.4006017e-02
 -2.4177177e-01
  3.3374142e-02
 -7.7668941e-03
  9.9587068e-02
 -1.7351028e-01
  1.1019103e-02
  8.4984675e-02
  1.1287031e-01
  1.0553377e-02
 -5.5375177e-02
  8.2306661e-02
 -1.3046719e-01
  1.7695977e-01
 -6.9186345e-02
  6.4187750e-02
 -3.1119886e-01
  9.2652008e-02
 -1.1212949e-01
 -4.6865549e-02
  1.7330003e-01
  3.9950982e-01
 -7.5351208e-02
  5.9898180e-04
 -4.5166105e-02
  3.0122388e-02
 -9.7131625e-02
  1.2319493e-01
  7.7494241e-02
 -5.6707595e-02
  1.2096280e-01
 -2.5063479e-01
 -1.1306619e-02
  6.2633543e-03
  6.6453658e-02
 -2.6799175e-01
 -1.0419212e-01
  6.6036023e-02
 -5.8501665e-02
  5.7658203e-02
 -6.3025147e-02
  2.5042349e-01
 -5.3208154e-01
  9.2880307e-03
 -1.0852809e-01
 -1.8979947e-01
  6.4472452e-02
 -2.3620601e-01
 -2.1785761e-01
 -6.3268805e-01
  1.7570600e-01
 -2.2884528e-01
  7.7918492e-02
  1.4159493e-01
  3.5308152e-01
  7.3728658e-02
  7.6157741e-02
 -5.1443603e-02
 -9.2615522e-02
 -2.0639053e-02
 -4.1322401e-01
 -3.2759443e-02
 -2.5780417e-02
  2.0476261e-01
  1.6681198e-02
 -7.4786142e-02
 -1.6172743e-01
 -9.7344697e-02
  6.4922027e-02
 -4.4165391e-01
  2.4208884e-01
 -4.0874951e-02
 -5.8451373e-02
 -6.6638165e-03
  5.8430117e-02
  5.8219349e-03
  2.1947367e-01
  2.7237561e-02
 -2.0801768e-01
  1.0926998e-01
 -3.3828553e-02
 -6.9671226e-01
 -3.0827031e-01
 -3.7417673e-02
 -6.0533147e-02
  4.9609356e-02
 -8.3808368e-03
 -1.6786867e-01
 -1.2369890e-02
 -1.4781171e-01
 -1.2709117e-01
 -8.0191910e-02
  1.0172804e-01
  2.0057760e-01
 -7.5505499e-04
 -2.1012264e-01
  6.6729207e-03
  7.1670741e-02
  2.3301246e-02
 -1.3669713e-01
 -2.7898988e-01
  1.1464453e-01
  6.4824545e-01
 -1.2866981e-01
 -7.0794351e-02
  1.0734189e-01
 -2.2893052e-01
  7.5102054e-02
 -1.0317197e-01
  3.3701941e-01
 -1.1830104e-01
  1.4641456e-03
 -7.0444874e-02
  9.8498620e-02
 -3.9944131e-02
 -2.8222391e-01
  4.0933557e-02
 -5.8228570e-01
 -1.3163584e-01
 -4.7183603e-02
  1.8696114e-02
 -6.6610030e-03
 -3.9839666e-02
  5.5997536e-02
  3.8569456e-01
  2.2727211e-03
 -1.2203504e-02
  2.0666180e+00
 -6.9062191e-01
 -4.1561517e-01
 -1.3066706e-01
  2.7569017e-01
 -1.5703425e-02
 -2.1545747e-02
  1.2407302e-01
  2.2444706e-01
 -6.0246110e-02
 -4.8874728e-02
  9.4130254e-01
 -1.2968029e-01
 -1.1422227e-01
 -8.5338376e-02
 -1.2660648e+00
  1.3806541e-01
  4.1937113e-02
 -1.9086698e-01
  8.6175904e-02
 -5.9441600e-02
  6.6145025e-02
  8.8502131e-03
  7.8347184e-02
 -3.6911038e-01
  1.3391870e+00
  3.2036164e-01
  6.9126755e-01
 -7.6972365e-01
  1.0204979e+00
 -3.8379563e-03
  2.9345199e-03
 -1.7920259e-01
  8.9284979e-02
  1.9133036e-01
  1.5802035e-01
 -1.2624122e-01
 -8.7739863e-03
  4.6454109e-02
 -1.5654825e-01
 -1.1162838e+00
  1.1887463e-01
  1.6810702e-02
 -1.0121593e+00
 -2.9482198e-01
 -1.0484933e-03
 -6.5473221e-02
  3.2765605e-02
 -7.0302583e-02
 -1.0376942e+00
  5.0729308e-02
 -2.0446566e-01
 -6.0536798e-02
 -4.1302692e-02
 -1.6194285e-01
  4.5938794e-02
 -3.5479452e-02
 -2.0019400e-01
 -6.3818939e-02
  6.0936292e-03
 -1.2085824e-02
  1.3607822e-01
 -3.6851738e-02
  1.7954734e-01
  9.4979621e-02
 -4.5653958e-02
 -1.2880976e-03
 -9.5866933e-02
 -1.2922117e-01
 -7.3467620e-02
 -4.1084167e-02
  8.2671605e-02
 -1.1601439e-01
 -3.5305249e-03
  1.0730974e-01
 -2.3653533e-02
 -8.1149891e-02
  1.7394332e-02
  2.1399671e-02
  9.5687928e-03
  8.0066226e-02
  1.5185295e-01
 -2.8564534e-01
 -8.7933809e-01
  4.5985676e-02
 -1.7648782e-01
 -1.3194136e-01
  9.2310235e-03
 -8.9661010e-02
 -1.3478070e-01
 -8.3433278e-02
 -1.2183671e-01
  2.1142051e-01
  9.2364857e-03
 -1.4078391e-01
 -1.7718630e-01
  2.0428568e-02
 -1.4242265e-01
  2.9513516e-02
 -1.7028183e-02
  6.9028489e-02
  8.9782318e-03
  6.1775184e-01
 -1.0000719e-01
 -1.4488980e-01
  1.0873427e-01
  2.7148677e-02
 -1.4246289e-01
  5.0646011e-02
 -7.9324543e-02
 -1.5704181e-02
 -2.5949104e-02
 -6.0653560e-02
 -1.9235472e-01
  2.1324718e-02
  2.1895701e-02
 -1.2830912e-02
 -2.6349816e-01
  8.1469811e-02
  4.1006625e-02
  2.4280199e-01
  1.2661400e-01
  2.4862188e-01
 -1.9441156e-02
  2.0963168e+00
  1.5337771e-01
 -2.8558156e+00
  2.7089953e-01
  1.1923973e-01
 -1.2919717e-01
  1.0158321e-01
 -1.8226108e-02
 -1.2560086e-01
  2.1482457e-01
  1.1610601e-01
  3.1835489e-02
 -9.1934413e-01
 -1.4867485e+00
  8.7087165e-04
 -1.1411228e-01
  5.0850332e-02
 -1.8605359e+00
 -1.1917623e-02
 -3.3727896e-01
 -7.2103031e-02
  1.6366062e-01
 -1.5017941e+00
  2.7246010e-02
  5.4384906e-02
  3.1920429e-02
  1.5614384e-01
  1.0976532e-01
 -3.3128899e-02
 -7.4446343e-02
  1.1159202e-01
 -1.2773553e-01
 -2.3406794e+00
 -1.4242027e-02
  1.0137087e-01
  1.4987595e-01
  7.2541170e-02
  6.8127498e-02
 -6.7066461e-02
  9.8085806e-02
  2.2323233e-01
 -9.6431613e-02
 -8.6162426e-02
  1.0920065e-01
 -9.0637498e-02
  2.2688305e-01
  2.9883349e-02
 -5.5920627e-02
  8.4786490e-02
  5.4518614e-02
  2.0847604e-01
  4.1123167e-02
  1.7294621e-03
  4.8313534e-01
 -4.5740079e-02
 -7.7442296e-02
  9.4639891e-01
  7.1301577e-03
 -2.6727107e-01
 -1.8533226e+00
 -7.0742004e-02
  2.5744135e-02
 -6.8142660e-02
 -3.4114674e-02
  5.0718373e-01
  7.7094696e-03
  2.3367707e-01
 -2.8259695e-01
  1.8444622e-01
 -2.2353876e+00
  1.1390851e+00
 -1.5315782e+00
 -9.0107900e-01
 -1.2432817e+00
 -1.1833004e-01
 -2.1285510e-01
  1.3076842e-01
  1.3198850e-01
 -1.8047269e-01
 -1.5386959e-02
  1.5430914e-01
  7.3441252e-02
 -2.6601472e-01
  1.4517452e+00
 -2.3413676e-01
 -1.0851407e-01
  1.4202985e-01
 -2.7259716e-01
 -7.4662350e-02
 -8.9761004e-02
  1.3569686e-01
 -5.0469857e-01
  8.5750949e-01
 -7.2101541e-02
  2.9667142e-01
 -1.9050205e-02
  1.2373836e-01
  8.8431910e-02
 -3.7568387e-01
 -2.7073357e-01
 -1.2689016e+00
  5.4957151e-01
 -4.7458649e-01
 -2.7531475e-01
 -1.1223175e-01
 -3.0244761e-03
  1.2117717e-01
  1.7516997e-02
 -3.7138816e-02
 -4.9222788e-01
 -6.4003937e-02
 -2.4003723e-01
  2.4920920e-02
 -3.0987760e-01
  1.3247289e-01
  1.9250080e-01
  7.8929439e-02
 -4.2939195e-01
  7.5981982e-02
 -8.5555814e-02
 -9.2597501e-03
 -1.9024757e+00
  1.3146803e-02
 -2.2035138e-01
  1.5878534e+00
  2.8653154e-02
  2.3275183e-01
  3.5497794e-01
 -1.1463852e-01
  5.0453782e-01
  1.8873590e-01
  1.0294936e-01
 -6.5950356e-02
  1.0495982e+00
  3.8422334e-01
 -1.6073917e+00
  8.5518964e-02
 -2.2172546e-01
  3.1376671e-02
 -2.5461497e-02
  3.8644243e-02
  2.0420076e-01
 -1.7974027e-02
 -9.3249828e-02
  5.0201439e-03
  8.8263817e-02
 -7.4221000e-02
  2.0447345e-03
 -1.9808587e-01
  1.0187003e-01
 -7.2825685e-02
 -1.2576883e-01
 -3.1081948e-01
 -5.3686477e-02
  3.9532054e-02
  5.7690285e-02
  1.2871836e-01
 -2.0980169e-01
  1.3619778e-01
  6.0211342e-02
 -3.6641460e-02
  1.3511069e-01
  5.7551768e-03
 -2.8721686e-02
 -1.1019734e-01
 -2.3208978e-02
 -2.2839172e-02
 -4.3722034e-02
 -1.0203636e-01
 -1.4401330e-02
  3.0982686e-02
 -4.5080847e-01
  3.5356390e-01
  4.0218815e-02
 -2.3818348e-02
 -5.6926042e-02
 -8.8344082e-02
 -3.2332337e+00
  6.5279484e-02
 -2.5653598e-01
  2.5929667e-02
  2.4335726e-01
  1.2259996e-02
 -1.8535469e-01
 -2.5873810e-01
  5.9758413e-01
 -1.3863297e-01
 -2.1880351e-01
  2.1278204e-01
  3.6782432e-02
 -1.4405161e-01
  4.3559238e-02
  2.5980704e-02
 -5.1029388e-02
  2.9697672e-01
  2.7673116e-02
 -2.9459545e-02
 -9.3341157e-02
 -6.9412686e-02
 -4.6111945e-02
  2.1233606e-01
 -4.5255683e-02
 -1.7319221e-02
 -1.7250119e-02
  1.4178951e-01
 -1.2765186e-01
 -1.2187794e-01
 -1.9884977e-01
 -2.2008199e-02
 -1.5742746e-01
 -1.9172171e-01
  7.1579479e-02
  8.6760253e-02
  8.1836200e-01
  9.0712957e-02
  7.7689467e-03
 -1.5443969e-01
  1.7538247e-01
  1.0847689e-01
 -1.8303373e-01
 -4.0857997e-02
 -2.1817207e-02
 -7.4137650e-02
  1.1030620e-01
 -1.0259325e-01
  4.7360850e-03
 -3.4955320e+00
 -8.1112429e-02
  4.6426448e-01
  1.8633369e-02
  2.1997522e-01
  4.2299487e-02
 -3.6942247e-02
  3.6134967e-01
  4.3847001e-01
  2.7756115e-02
  4.1914341e-01
 -3.6172715e-01
  1.0327021e-01
  5.2632362e-01
 -3.4451348e-01
  2.0973186e-01
  3.7783560e-01
 -3.6146536e-01
  6.3363045e-02
 -2.8594270e-01
 -1.3455543e-01
  1.8666213e-02
 -4.0858388e-02
 -3.3742093e-02
 -6.0996402e-04
 -1.0150996e+00
 -8.8494688e-01
 -9.5827445e-02
  7.5830650e-03
  4.6132777e-02
  1.0568401e+00
 -5.6154907e-02
  1.1325884e-01
  3.3527163e-01
  5.5006865e-02
 -3.4095641e-02
  1.2796195e-01
  3.2207737e+00
  5.6972876e-02
  6.7082020e-03
 -1.9799612e-01
 -2.0014617e-01
 -7.0484601e-02
 -5.4985886e-03
 -1.0120481e-01
 -2.3202131e-02
  4.1095398e-02
 -3.4278920e-03
  7.3715419e-02
  6.7212805e-02
 -1.5203659e-01
 -5.2814108e-01
 -9.0169847e-02
 -8.0526464e-02
 -2.4306633e-01
 -1.5962344e-02
  4.5163909e-01
  2.9434207e-01
 -3.1657323e-02
 -1.5571958e-01
  2.4605205e-02
 -8.0095112e-02
 -3.2582865e-03
  2.9681602e-02
  9.8793589e-02
 -4.4735524e-01
 -2.6682578e-03
  1.3756798e-02
  6.3198991e-03
 -1.3296406e-02
 -9.8952524e-02
  3.1633868e+00
  2.2426210e-02
 -9.9619234e-04
 -2.3945558e-01
 -2.2713138e-01
 -7.6229416e-02
 -2.8585400e-02
  7.8996807e-02
 -7.8993201e-02
  3.7770681e-02
  1.3252674e-01
  6.5355524e-02
 -1.8665262e+00
 -1.6224308e+00
 -3.6087513e-02
  1.4835277e-01
  6.2987983e-02
  1.8924996e-02
  2.5355088e-02
 -1.1284698e-02
  9.8173332e-01
 -7.4782722e-02
 -1.2838436e-02
  2.0475042e-01
  9.8345578e-02
 -1.6423555e-02
  1.0472690e-02
 -3.5566226e-02
  1.8349736e+00
  7.1982846e-02
 -4.2387557e+00
  1.4106479e-01
  4.4492565e-02
  1.0107639e-01
  4.1315299e-02
 -8.7068357e-02
  1.7830282e-01
 -1.0478168e-01
 -2.4013370e-03
 -1.0349098e-02
  6.5828569e-02
 -8.6659543e-02
 -2.5857696e-03
 -1.8016987e-02
  1.5671707e-03
 -1.4781256e-01
  9.7518869e-02
  5.1854867e-01
 -2.3817880e-01
  2.8662494e-01
  2.3448920e-01
 -2.0776685e-02
  2.6089843e-02
  1.9771101e-01
 -1.5872516e-01
 -1.0132077e-01
 -5.8054972e-02
  9.1492184e-02
  2.7405956e-01
  4.4836368e-02
  2.0122054e-01
 -4.0653005e-02
 -2.1280057e+00
  1.0929544e-01
 -4.6897813e-04
 -8.7605618e-02
  1.6198115e-02
 -1.8194955e-02
 -3.0106137e-02
 -1.2102196e-01
  6.6214487e-02
 -3.1539598e-01
  1.3492237e-01
  2.6563987e-01
  1.0420671e-01
  2.0097224e-02
  1.9755214e-01
 -1.5994154e-01
 -2.1983134e-02
 -7.4439690e-02
 -1.9598971e-01
  4.0040678e-01
 -1.9937848e-01
 -5.4851670e-02
 -4.0803973e-02
  4.8414171e-01
 -2.4884404e-01
 -1.4782406e-02
  6.7458957e-02
  1.1190978e+00
 -8.7427966e-02
 -3.0289429e-01
 -8.4136292e-02
  2.8197068e-01
  6.6125020e-02
  1.3630949e+00
 -3.4874052e-01
 -2.1002451e-02
  3.1741239e-02
  4.0240610e-01
 -3.7555642e-02
 -1.4620295e-01
  1.8672891e+00
  9.2040207e-03
 -1.1612529e-01
  1.5760145e-01
  1.6328686e-01
 -9.1340356e-02
  9.8809086e-02
 -1.6156204e-01
  2.2890996e-02
  1.9931860e-02
 -3.8746634e-01
 -2.7574310e-01
 -8.6105734e-02
 -2.5364479e-02
 -3.1209880e-02
  1.9920986e-02
  1.0826261e-01
 -8.6225588e-03
 -2.7558925e-02
 -1.0171756e+00
 -1.6262772e-02
  3.0772618e-03
 -9.6568037e-03
  5.5296633e-02
 -2.1492928e-01
 -8.4887378e-02
 -5.5345472e-02
  1.1519143e-01
 -4.1404727e-01
  2.1113206e-02
 -1.9640073e-02
 -3.0421987e-01
 -7.5869344e-02
  4.0761136e-02
 -7.8987169e-01
  3.9587632e-02
  8.8676266e-02
 -9.2748091e-02
  1.7098539e-02
 -1.0607424e-01
 -1.4229534e-02
  3.3707270e-01
  6.2660664e-02
 -2.4346780e-02
 -4.3714948e-02
  2.3516291e-01
 -4.2945708e-04
 -1.2807867e-01
 -1.9976601e-01
 -1.3720664e-01
  1.6271279e+00
 -2.3352142e-02
  1.1928570e-02
 -1.0298169e-01
 -8.8995874e-02
  1.6079094e-01
 -8.0314741e-02
 -1.0365672e+00
  3.1776404e-01
  1.4592550e+00
  4.6071723e-01
  1.5924729e+00
 -1.7827870e-01
 -1.0270569e-02
 -7.9084319e-01
  2.4010739e+00
  1.1560309e+00
  2.3016694e-01
 -4.1037777e-01
 -1.5433476e-02
  8.4665394e-01
 -6.8550394e-03
  1.0873931e-02
 -6.3436143e-03
 -2.0254488e-01
  3.8556042e-01
  1.8421492e-01
 -2.9604994e-02
 -1.0039161e-01
 -3.2952681e-02
  1.1187644e-01
 -1.8248272e-01
  7.2431952e-02
 -5.0837759e-02
  8.0143148e-01
 -1.9251280e-01
  1.0454441e-01
 -1.4685825e-01
 -1.6927069e-02
 -5.4945624e-01
  7.7661365e-02
  6.5930933e-01
  2.8199347e-02
 -2.8129824e-02
 -2.5224251e-01
  2.6415565e+00
 -7.4564569e-02
  1.3768746e-01
 -1.3756649e-01
  1.8075430e-01
  1.0797596e-02
 -2.2195721e-02
  9.9417627e-02
 -1.9095857e-01
  6.1433059e-01
 -4.4294521e-02
  1.0485258e-01
 -6.0571725e-03
  7.1665689e-02
 -6.7288689e-02
 -7.4213791e-01
 -6.8383454e-03
 -5.2949015e-02
  1.1626593e-01
 -2.5430236e-02
 -2.1287812e-01
 -5.7126310e-02
  8.7554350e-02
 -1.5351427e+00
  9.1647357e-01
 -9.8799658e-01
  5.8118147e-01
 -1.2613301e+00
  1.9384909e-01
  2.6376963e-01
  8.5638262e-02
 -7.5669967e-02
  2.5106862e-02
 -1.6011871e-01
  2.4807510e-01
  4.6840508e-02
  4.0382024e-02
 -2.2600226e-02
  1.4023736e-01
  1.5911068e-01
  3.9459169e-01
  4.2164233e-02
 -1.2054937e-02
 -3.4438327e-02
  1.9272304e+00
 -9.1774501e-02
  1.1113938e+00
 -2.3132476e-01
  1.3310874e-01
  7.3644596e-01
 -7.4889652e-02
 -8.6355619e-02
  1.7959699e-02
 -2.6969468e-02
 -1.7549649e-02
  3.5303319e-01
  3.5823306e-01
 -1.6374084e-01
  3.2135630e-01
  6.3564010e-02
 -3.3266389e-01
 -1.0754806e-02
  4.9388862e-01
 -1.5355073e+00
  5.0686104e-03
  1.0254547e-01
  1.7951712e-01
  1.7228469e-01
  1.3490653e+00
 -3.4432727e-01
  2.8750997e-02
  3.1083643e-02
 -3.3269495e-01
  1.2837702e-01
 -8.1299238e-02
 -3.7332229e-02
 -2.8328154e-02
 -1.4545277e-01
 -2.5335425e-01
  1.9425195e-02
  1.5097256e-01
 -5.9264445e-01
  2.0361378e+00
  9.4820684e-01
 -5.3290494e-02
  1.6979408e+00
 -1.8760033e-01
 -2.0027120e-02
  1.5745478e-02
  4.3263465e-02
  2.7842363e-02
 -5.2647207e-02
 -1.4046665e+00
 -2.8589070e-01
 -1.1221068e-01
 -2.4771336e-02
  1.1167511e-01
 -4.4428393e-01
  1.2399229e-01
 -1.5877765e-01
  3.6782023e-02
  2.1990974e-01
  7.8693137e-02
  7.4503027e-02
  3.4837607e-02
 -7.7394031e-02
 -1.2830766e-01
  1.3151895e-01
 -1.8634507e-01
 -3.4779668e-02
  2.1760928e-02
 -1.2038635e-01
  2.4989709e-02
 -1.1743815e-02
  7.1824580e-02
  3.7714463e-02
  9.3821317e-01
 -2.4356592e-01
 -2.4399187e-01
 -1.3866429e-01
  4.3252591e-02
  1.5063770e-01
 -8.6277597e-02
 -2.9127238e+00
  2.1488385e-02
 -8.5075768e-03
 -1.8372273e-01
 -1.4676091e-01
  5.0070647e-02
 -1.9075912e-01
 -2.0523779e-02
  4.1104719e-02
 -6.5312886e-01
  1.3195667e-01
  4.4851065e-01
 -1.6796571e-01
  6.5041262e-01
 -1.6363130e+00
 -3.1583104e-02
 -6.1698090e-02
 -1.0732107e-02
 -3.6942670e-01
 -2.6500558e-02
 -4.3467443e-02
 -7.1180902e-02
 -2.3676674e-01
 -8.9734875e-02
  1.7181972e-02
  3.7774567e-02
 -2.5542903e-01
  2.9844856e-01
  1.4164972e-01
 -3.4662840e-01
  5.5584484e-01
  5.2819606e-02
  5.4861039e-02
 -3.6622554e-02
 -5.1008753e-02
 -1.1010302e-01
 -2.2303532e-01
  1.2369534e-01
 -1.6662648e-01
 -1.6051099e-01
 -6.5214261e-02
  2.7852301e-02
 -7.6206930e-02
 -4.5415547e-02
  1.0018421e-01
 -1.1527144e-01
 -5.1320113e-02
  2.2666292e-01
 -1.1264522e-01
 -1.7980847e-01
 -2.9392469e-01
  7.9306167e-01
 -3.2702628e-01
  2.4996576e+00
 -1.9125706e-02
 -1.7963933e-02
 -1.6860558e-03
  1.8697660e-01
 -8.3288163e-02
 -3.4590352e-02
  7.5546347e-02
 -2.6084700e-01
  2.9958385e-01
 -1.3020921e-02
  3.0633163e-01
  2.9813495e-01
  6.4904088e-01
  4.6494859e-01
 -1.0692602e-01
  6.9774680e-02
  1.0606600e-01
  2.7761176e+00
  4.5085052e-01
  2.5805792e-01
 -2.0538173e+00
  3.3154376e-02
  1.2463846e-01
  3.7200740e-01
 -2.3278959e-02
  1.7225541e-01
 -6.4294599e-02
 -7.7966869e-02
  1.0217428e-01
  2.7739316e-01
 -1.9947823e-02
  2.9933640e-01
 -1.3520902e-01
 -9.1705397e-02
 -1.8486079e+00
  5.1885629e-03
 -4.5260087e-01
  3.5908005e-01
 -3.1319529e-01
  6.2374316e-02
 -3.4293883e-02
 -2.2681128e-02
 -8.2817465e-01
 -3.0891204e-04
  2.2739609e-01
 -9.9037543e-02
  2.9390633e-01
 -2.6036826e-01
  4.8127476e-02
  1.2082282e-02
 -4.5305327e-02
 -5.9792247e-02
 -1.5427527e-01
  2.9843083e-02
 -2.2451820e-02
 -4.1329913e-02
 -1.5274680e-01
 -2.7731967e-01
  1.8441263e-01
 -5.1076811e-02
 -9.8523967e-02
 -2.3266829e-03
  4.6182401e-02
  8.6451635e-02
 -4.4407097e-01
 -9.4014131e-02
 -1.7184536e-01
 -1.3326006e-02
  6.8966299e-02
 -2.2976138e-02
  1.1782678e-01
 -4.7140058e-02
 -8.5328412e-01
 -5.5806870e-03
  1.0458414e-02
 -8.1566250e-01
 -1.5123692e-01
  1.1110232e-01
 -6.2155064e-02
  1.0146589e-01
  4.9888514e-02
 -1.3850628e-01
 -1.9901663e-01
 -2.6321694e-01
  1.4358321e+00
 -8.8577263e-02
 -1.0121104e-01
  3.5792518e-02
  1.6703689e-01
  5.3155277e-02
  4.4785548e-02
  4.9688584e-01
  1.5213135e-01
  8.1235291e-03
  1.0804506e-01
 -7.7177483e-01
 -3.4130298e-02
  2.4721776e-01
  7.0717677e-02
  2.2436749e-02
 -2.8712234e-01
 -9.4019333e-03
  2.0885829e-02
 -1.8741003e-01
  7.9429805e-02
  2.9524866e-02
  2.5647037e-02
  3.4656677e-02
  1.2105901e-01
  1.1156582e-02
 -7.6029137e-02
 -4.4126783e-02
 -1.8988978e-02
 -9.6153937e-02
  1.7190889e-02
 -5.6446251e-02
 -9.7926140e-01
  1.0202690e-01
  9.1833919e-02
 -5.5900663e-02
 -8.4318854e-02
  1.2851008e-02
 -3.4907693e-01
 -1.8210079e-01
 -1.7116943e-01
  1.3416263e-01
  8.4190056e-02
 -2.9035097e-02
  2.5162786e-01
 -4.0740490e-02
 -4.2679969e-02
 -5.2843425e-02
 -4.2568758e-01
 -1.1478306e-01
 -4.5954701e-02
  2.8005207e-02
 -1.5514059e-02
 -1.3025782e-01
 -7.2010316e-02
 -9.6414104e-02
  1.8331533e-02
  4.5904309e-02
  7.6711210e-03
  8.2348241e-03
  2.5240744e-02
 -3.3841938e-02
 -7.3171733e-03
  7.3437199e-02
 -6.3243322e-02
 -3.3159381e-01
  1.9912361e-01
  2.2508390e-01
 -1.1311413e-01
  7.7449769e-02
 -1.4403050e-01
 -3.4929976e-01
 -6.9039279e-01
 -8.0174044e-02
 -1.0588266e-01
  1.1858342e-01
 -1.0074121e-02
 -4.6869226e-02
 -1.2977781e-02
  3.8895387e-02
  2.9552955e-02
 -1.1880191e-01
 -2.3525567e-01
 -1.2064044e-01
 -1.5696345e-01
 -2.0685087e-01
  2.0781989e-01
  3.1362038e-02
 -9.8356074e-03
 -5.1343632e-03
  6.1938232e-01
  1.2272949e-02
 -1.4746712e-01
 -5.7562105e-03
 -1.2824728e-01
 -2.3487279e-01
 -1.2860847e-01
  1.4391001e-01
  1.4105432e-02
  5.9001350e+00
 -3.9262264e-03
 -4.6757337e-02
  1.4372012e-01
 -8.5338689e-02
  3.1033924e-02
  2.5941225e-02
 -2.8045919e-02
  1.0895915e-01
  1.3977240e-01
  3.1226827e-03
 -1.2678777e-01
 -4.2424746e-02
  1.0611545e-01
 -6.9284409e-02
 -4.7281899e-02
 -7.6967075e-02
  3.6037803e-02
  3.1830406e+00
  3.0102883e-02
  4.2249478e-02
 -6.9724578e-01
 -1.3425126e-02
  3.1344275e+00
 -1.5101197e-01
  2.9353824e-01
 -7.0873648e-02
 -6.1231077e-02
  9.0797983e-02
  1.5722135e-02
  6.0248703e-02
  1.2842876e-02
  1.7738113e-03
 -1.2525295e-02
  1.0819487e-01
 -1.8034711e-02
  6.3467543e-03
 -6.2437724e-02
 -2.7715668e-02
 -1.5890445e+00
  9.3976017e-03
  1.7886285e-01
  5.4781444e-02
 -5.5199599e-01
  6.0396504e-02
 -3.1949494e-02
  5.4274086e-02
  1.4710008e-01
 -1.5404736e-01
 -2.0886034e-02
 -4.5688365e-02
 -7.4198671e-02
  4.7198776e-02
  1.7363694e-01
 -3.9793838e-02
 -5.8629310e-01
  6.9128639e-01
  4.3147877e-01
  1.5446481e-01
 -9.1996944e-01
 -8.5347496e-02
 -1.4773986e-01
 -2.2588442e-01
 -5.3383369e-02
  5.4976767e-01
 -1.1093427e+00
 -4.0889187e-03
  7.2790543e-03
 -7.0890084e-02
  2.1729334e-01
 -7.7792327e-03
  1.7155490e+00
 -1.6771816e-01
 -3.1293191e-02
  2.1633449e-01
 -1.6474221e-02
  2.4735628e-01
  7.2257906e-02
 -1.4584441e-01
 -5.8963619e-02
 -2.6116087e-03
 -1.7116724e-01
 -4.0903784e-02
  1.5516022e-03
 -5.0706476e-02
  8.4804520e-03
  5.2713573e-02
  2.3154816e-02
 -1.0180285e-01
 -9.5309578e-02
  1.2203138e-01
  4.9376998e-02
  5.3813078e-02
 -2.6718834e-02
 -1.5511566e+00
 -1.4790831e+00
 -9.8593019e-02
  9.0677693e-02
 -1.3003688e+00
  1.7978638e-02
  9.0957463e-02
  1.9084410e-01
  2.8494257e-01
 -1.1634719e-01
  5.5473402e-02
  8.2229063e-02
 -2.9895350e-03
  6.8085283e-02
  2.0600869e-01
 -4.2652416e-01
  3.3308345e-01
 -5.9750784e-02
 -3.6097625e-01
  2.0696540e-01
 -5.2287977e-02
  6.6751271e-01
  3.9942628e-03
  4.7428995e-01
 -7.8528173e-02
 -1.6782425e-02
  1.4685144e-01
 -1.6430952e-01
 -1.2717800e-02
 -4.2535883e-01
  1.5879676e-03
  4.8052296e-03
  1.6637273e-02
  8.4497862e-02
 -4.6161793e-02
  1.1298952e-01
 -2.2566812e-01
  7.3469773e-02
 -8.8690035e-02
 -4.3368910e-02
 -1.0275406e-01
  1.3946541e-01
 -8.1212652e-01
  1.6625001e-04
  5.7129703e-02
  2.7951166e-01
  1.4648865e-01
 -2.2043705e-02
  7.3585503e-02
 -2.3264748e-01
  9.6000999e-02
 -1.6951755e-01
  2.4567449e-01
  4.1640777e-02
  8.3114058e-02
  2.6821358e-02
 -1.4895058e-01
  1.8554461e-01
 -4.1701522e-02
  3.2263946e-02
 -2.1247288e-02
 -3.7791637e-01
 -1.6645329e-02
 -1.2349474e-01
 -1.6317616e-01
 -3.4337571e+00
 -2.2245316e-02
  2.3172723e-02
  9.5400311e-02
 -1.4281695e+00
 -2.3413655e-01
 -3.2731545e-01
  6.8733537e-01
  1.4622599e-02
  1.2469084e-01
 -3.3486533e-01
 -6.7091905e-02
 -9.3113817e-02
 -7.8406602e-02
 -3.3734602e-01
 -2.3677956e-01
  1.6012669e-01
 -7.5172290e-02
 -2.4268550e-01
 -4.3324854e-02
 -7.3000103e-02
 -2.7754109e-02
 -1.2284722e-02
 -8.1779830e-02
  1.4957169e-01
 -1.7750959e-01
  2.0481689e-02
  7.8969866e-02
 -7.9385079e-02
  4.8470061e-02
 -1.5641062e-02
 -2.5270196e-02
  1.8942428e-01
  6.6361301e-02
 -1.2813592e-01
 -7.0621735e-01
  8.4071914e-03
  4.6451247e-01
 -4.8334222e-02
  4.1373684e-03
  8.2924895e-02
 -1.2108436e-03
  4.4760916e-02
 -2.6065162e-01
  1.0025604e-01
 -2.9518768e-01
 -9.3297653e-02
 -2.1217619e-03
  1.7033371e-01
 -2.1613714e-01
 -1.4958997e+00
 -1.2720452e-01
 -1.0300655e-02
 -1.2112297e-02
  1.8480383e+00
  1.6554561e-01
  1.9362018e-01
  3.2467827e-02
  1.6043154e+00
 -8.3458088e-02
  3.5238281e-02
 -4.2506933e-02
  8.6728744e-03
  1.7157154e-01
  6.7554433e-03
  2.7268372e-02
 -3.9491244e-02
 -5.6752539e-01
  7.5111501e-02
  1.5628478e-02
  3.8188031e+00
 -2.8386304e-02
 -7.2799870e-03
 -1.1278713e-01
  6.1061978e-01
  3.9191365e-02
  3.6645994e-02
  4.5172691e-02
  1.2207163e-02
 -1.1014102e-01
  5.8833040e-02
 -7.5369306e-02
 -2.3220128e-01
  3.3937036e-03
 -7.6190401e-03
  2.5560981e-01
 -1.6857742e-01
 -1.3095654e+00
  5.6488194e-02
  1.7202364e-02
 -7.0275970e-02
  8.4355555e-02
  4.9798045e-02
  3.0834034e-02
 -3.3976994e-02
 -2.1036296e-01
 -2.1992476e-01
  2.7384329e-01
  2.2924395e-01
  1.2109336e-01
 -1.9953939e-01
  2.9226109e-02
 -4.5452308e-02
  2.3057491e-02
  6.4937775e-03
 -4.0569708e-02
 -1.2230847e-01
 -4.8151898e-01
 -1.2990448e-01
 -3.8291346e-02
 -3.2452473e-01
 -7.0018969e-02
  6.6032052e-02
  2.2160240e-02
 -6.5168977e-02
 -1.0725381e-01
 -6.4390409e-01
 -2.5358850e-01
 -1.6664663e-01
 -1.0524495e-01
 -3.4145427e-01
  1.8118505e-01
 -1.8677950e-02
 -1.0527065e-02
  6.6588759e-01
 -2.1770318e-01
  1.3155038e-02
  1.7157091e-02
  4.0079586e-02
  9.1271989e-02
 -1.5576445e-01
  1.0230452e-01
 -8.5148752e-02
 -6.2239771e-03
  4.5473304e-02
  1.2575042e-02
 -1.5086058e-01
  5.7987297e-01
 -4.2886105e-01
 -8.9855365e-02
  1.2769955e-02
  2.6001824e-02
  1.0939949e-01
  4.0222260e-01
  1.5400678e-01
  3.3046189e-01
  2.9604331e-01
 -6.0804659e-01
 -5.9474123e-01
  3.3874705e-02
  2.2512177e-01
 -2.6839736e-01
  2.3208875e-02
  6.3581519e-02
  1.9029886e+00
  2.8250918e-01
 -6.7086689e-02
  5.3012815e+00
 -2.4762371e-01
  3.7400252e-01
 -3.2682260e-03
  6.0627684e-02
 -3.9495742e-01
  7.7443682e-02
 -8.4232613e-02
 -8.4408902e-02
 -1.8258230e-01
  2.3555186e-02
  2.6984075e-02
  1.6504425e-01
  5.5839933e-02
  8.2527989e-01
  1.6135085e-01
  3.7086148e-02
 -8.1426524e-02
 -3.2878390e-03
  1.2567104e+00
 -2.2685626e-03
 -8.7866075e-02
  1.4434409e+00
 -9.4948667e-01
  1.0894402e-01
 -4.8431197e-01
 -1.9252230e+00
 -9.0038203e-02
 -5.8626842e-02
  7.9105753e-01
 -3.5786208e-02
  2.0965812e-01
 -2.5541069e-02
  1.3007335e-02
  1.9692250e-01
  9.0455934e-02
 -4.9449794e-02
  7.0095830e-02
  2.1808138e+00
 -5.2707624e-01
 -9.3954429e-02
  8.3593525e-02
 -2.3452573e-02
  1.9163319e-01
  5.4195352e-02
  1.2676540e-01
 -2.1658351e+00
  8.5417293e-02
  6.3517772e-02
 -1.1882357e-01
 -2.0985372e-02
  1.3903108e-01
 -1.1682413e-03
 -1.2347299e-02
 -3.3792078e-02
 -5.4631855e-02
  2.0593616e-01
  1.5181744e-01
 -1.2052405e-01
  9.0400241e-02
  1.5078790e-02
 -1.4241528e-02
  4.5823067e-02
 -8.4241241e-02
 -7.5305082e-02
 -1.6246932e-02
  2.4902514e-01
  1.8152332e-01
 -6.0711022e-02
 -2.6171428e-01
 -4.0022299e-02
  8.9479395e-04
 -2.3260622e-03
  1.5087289e-01
  1.4205058e+00
 -1.1662059e-01
 -3.0738130e-01
  3.8711876e-02
  6.4955360e-01
 -4.9332324e-02
  1.5251603e+00
 -1.0859982e+00
 -8.1710275e-03
 -1.4433546e-01
  1.3932334e-01
  4.5488600e-02
 -6.0300139e-04
 -1.0433444e-01
  5.5839956e-02
  6.4860843e-02
 -4.2869933e-02
  3.6840562e-03
 -1.3149597e-01
 -2.3738807e-02
  3.9720472e-02
  2.9463360e+00
 -5.1051371e-02
 -5.6491937e-03
 -1.6723228e-01
 -1.8232774e-02
 -8.5830383e-02
 -1.2605613e-01
  3.3791788e-02
  3.5996124e-02
  2.2630326e-01
  2.1690253e-02
 -4.4647515e-01
 -5.0838447e-01
 -8.9246891e-02
  4.4197449e-03
 -5.5230998e-02
 -8.1608570e-01
  5.1623538e-02
 -5.3073511e-02
 -1.5824804e-01
  3.4284133e-02
 -4.5892823e-02
 -4.4096410e-02
  4.1875560e-03
 -4.4867057e-02
 -7.8527933e-01
  1.9336469e-02
 -2.6231144e-02
 -2.0608198e-02
 -5.1767398e-02
 -4.2401896e+00
 -2.5034590e-02
 -5.0953771e-03
  6.5762110e-02
 -1.0026923e-02
 -8.9144282e-02
  9.4601009e-03
  9.0308510e-02
  4.4095393e-02
 -2.1039559e-02
  4.4072248e-02
  2.1825317e-01
  6.5127355e-01
  2.6351547e-01
 -1.0123154e-01
 -2.9146701e-02
  1.0548227e-02
  3.5217723e-01
 -2.2792568e-02
  6.4264047e-03
  7.6975964e-02
 -1.9017309e-02
 -1.1482646e-01
 -2.3261195e-02
 -2.0415504e-02
  1.4342652e-01
 -1.0624409e-01
 -4.3705177e-02
  1.3144012e-01
 -2.5168408e-02
  8.3306916e-02
  8.6209476e-03
  1.1414191e-01
  1.3964070e-01
  5.5543095e-02
  1.1977650e+00
  3.4922305e-02
 -3.1359657e-03
  2.0870404e+00
 -4.9821544e-02
 -1.1250086e+00
 -7.1766279e-03
  2.7121308e-01
 -4.7597483e-02
 -2.3530548e-02
  3.8811974e-02
  5.7322241e-02
 -1.2878253e-01
  1.6207597e-01
  6.8109292e-03
  5.3082287e-02
 -3.4648009e-02
  5.5790987e-02
 -1.1070024e-01
 -1.4526098e+00
  7.4931480e-02
 -1.9478732e-01
  3.1007661e-02
  1.2180777e-01
 -3.4480217e-01
 -3.9292529e-01
 -1.2731228e-02
  1.6808493e-02
  3.6138767e-01
 -2.2803400e-01
  1.1947428e-01
  5.4137039e-01
  2.6045382e-01
  9.2773849e-01
 -9.2736840e-02
  1.8606535e-01
 -1.4269462e-02
 -9.8341472e-02
  9.3179541e-03
 -1.1710086e-01
 -1.7656828e-01
  2.0678619e-02
  2.4443033e+00
 -1.2015790e-01
  1.1679977e-02
 -1.9984189e-01
  4.0837847e-02
  8.0264556e-01
 -1.1893062e-01
 -7.8549527e-02
  9.3802854e-02
 -2.6396194e-01
 -3.7508983e-02
  2.3743947e-01
  3.6597729e-01
 -4.8915248e-02
 -3.6145117e-02
 -7.4786164e-02
 -1.9222891e-03
  1.7380934e-02
  1.9123141e-01
 -5.3583318e-01
 -6.0056936e-02
  1.2475032e-01
  5.8821124e-01
  1.6026200e-01
 -1.0907158e-01
 -6.7247666e-02
 -9.2902603e-03
  3.4381270e-01
 -7.1130133e-01
  2.5778107e-04
  5.2078839e-02
  1.1126833e-02
  3.9931897e-02
 -9.0263478e-02
 -6.3287765e-02
  7.3127568e-02
 -1.4349020e-02
  1.1585159e+00
 -2.6659554e-02
  3.9759679e-03
 -1.7251647e-01
  2.7014828e-01
  7.8713678e-02
 -1.3149501e-01
 -1.0565523e-01
 -4.6314329e-01
  3.1505734e-02
 -1.5348238e+00
  8.0633003e-01
 -4.5938887e-02
 -1.7220058e-01
 -8.5769683e-02
 -4.0814295e-02
  2.2601205e-01
 -4.0270943e-02
  1.4434557e-01
  2.8188974e-01
 -9.6007401e-01
  1.9908393e-02
 -1.1502032e-01
 -3.5129872e-01
 -3.4360531e-01
  9.7224981e-01
 -1.7531484e-01
  1.9478136e-01
 -1.0919875e+00
  4.2694584e-01
 -2.0267946e-01
 -3.7552935e-01
  6.1456796e-02
 -7.1399903e-01
 -2.4968576e-02
 -7.8798510e-02
  1.7573871e-01
 -7.1446851e-02
  1.5422031e-01
 -4.7857976e-03
  5.0771230e-01
 -8.6518116e-02
  6.4694697e-01
  3.7023973e-01
 -6.8204069e-01
 -4.1562831e-01
  9.0614438e-01
  5.1201928e-02
 -6.5241314e-02
  1.1070254e-01
  1.6530065e-01
 -3.2600877e-01
 -3.9306554e-01
  1.3661789e-03
  1.5318678e-01
 -1.9277266e-01
 -8.7983757e-01
 -1.1338622e-01
  7.8685932e-02
 -2.1426855e-02
  3.3094329e-01
 -3.7855219e-02
 -1.7612452e-02
  1.9659998e-01
 -2.4289234e-01
 -3.1056599e-04
  1.0914809e-01
  3.6041984e-01
  1.7788227e-01
 -4.5111129e-01
  1.5756665e-01
  1.1610016e-01
  1.7828459e+00
 -1.2751166e+00
  8.0500513e-01
  5.0216120e-02
 -2.1806704e-01
  6.4523794e-02
  3.7291761e-02
 -4.1375436e-02
 -7.1243748e-02
 -7.5325422e-02
  3.6894238e-01
 -3.3834577e-02
  1.6211407e-02
 -6.1343927e-02
 -1.3435694e-02
  6.0461655e-02
 -6.8055332e-02
 -1.2969914e-01
 -3.6926797e-01
 -1.3809832e-02
  1.4139961e-03
 -1.6074091e-01
 -1.1316181e-01
  5.0528508e-01
  1.6966160e-01
  2.7575681e-01
 -1.0115867e-01
  3.7354992e-03
  1.5792717e-01
  1.5400912e-01
  7.8733444e-02
 -6.8549734e-01
 -9.6534789e-02
  1.4192940e+00
  7.7339315e-01
 -5.7660829e-02
  1.7228693e-01
 -1.4504226e-02
 -3.6285278e-01
 -1.8503554e-01
 -1.0851291e+00
 -5.9166130e-02
 -5.8625227e-01
 -1.7001458e+00
 -1.7535839e+00
  2.0764248e+00
  1.4681774e-02
 -4.3266301e+00
 -2.3329539e+00
 -9.6137273e-01
 -1.9848971e-01
  1.0332437e+00
 -2.1846647e+00
 -6.3431543e-01
  9.4350457e-02
  2.0030394e-01
  8.3189738e-01
 -9.4729525e-01
 -1.0825980e-01
  2.9176852e-01
  1.4686204e-01
  2.2394145e-02
 -4.7275054e-01
  2.5130931e-02
 -5.9899716e-03
  7.4804699e-01
 -2.5213134e-01
 -9.9551238e-02
  2.8086985e-02
  3.9037821e-01
  1.6990416e+00
 -1.6793939e-01
  2.6032691e+00
 -1.4678216e-01
 -1.2912865e-01
 -2.7248181e-02
  5.2786475e-01
  1.8798034e-01
  7.1774256e-01
  9.6122277e-01
  2.5554046e-01
 -3.6007583e+00
  3.1427956e-01
  5.5669755e-01
  8.0437981e-02
  1.1263911e+00
 -2.6855514e+00
  7.1553089e-02
  3.2237489e-03
  1.2670532e-01
 -1.5588659e-01
 -1.3356479e-01
  5.2969240e-02
 -5.6987729e-02
 -1.4061147e-01
 -3.1908698e-02
  3.9705586e-02
 -5.3278353e-02
 -4.4202433e+00
  2.2350512e-02
  1.3376993e+00
 -3.4062240e-01
 -1.1160377e-02
 -5.1947922e-01
 -3.2796282e-01
  1.0738981e-01
 -3.4091160e-01
  4.2148587e-01
  2.2005896e-01
 -2.0310047e-01
  8.4456462e-01
  4.5651728e-03
  3.3541001e-02
  3.2019839e-01
 -1.5691338e-01
 -4.6765575e-01
 -1.8758790e+00
 -6.9982791e-01
  1.6151165e+00
 -1.3417731e-01
 -6.8808359e-01
  2.3945634e-01
 -4.3675351e-01
 -4.1704521e-02
  1.2161890e-01
  2.3525734e-01
 -9.1116279e-01
  3.7982843e+00
  1.6750810e-01
 -6.8843532e-01
  1.9359396e-01
 -1.7496604e-01
 -1.7817514e-01
  1.5873718e-01
 -8.9869849e-02
 -2.2010934e-02
 -3.8621870e-01
  8.0644198e-02
  2.2400601e-02
  1.7932016e-01
  1.4863923e-01
 -1.3550182e-01
  1.2954006e-01
 -2.6862746e-01
 -1.3642676e-01
 -1.3008988e+00
 -6.0291193e-02
  1.7808042e-01
 -8.0609274e-01
  2.2160727e-01
 -5.5788660e-01
  3.9877035e-02
 -3.9078731e-02
 -2.0534894e+00
 -5.2357826e-02
 -6.6615361e-01
  2.2465234e-01
 -6.8233573e-01
  5.8301378e-02
 -8.4288239e-02
  3.8750419e-01
  1.6942985e-01
 -9.4509475e-02
 -4.8451191e-03
 -2.0518264e-01
 -2.7033415e-01
 -1.9611041e-01
  1.3235358e-02
 -1.0607691e-01
 -1.0416013e+00
  1.0454108e-01
 -1.3362736e-01
 -1.6141555e-01
  8.5572459e-02
  1.9476950e-01
 -8.4241331e-02
  7.3146021e-01
 -4.8833081e-01
 -1.5788560e-01
 -1.0262651e-01
 -3.8545084e-01
  6.0841544e-03
 -2.0391589e-02
 -3.2564141e-02
 -2.3101395e-01
  6.1694515e-01
  9.3745492e-02
 -1.2745078e-01
 -3.0340797e-01
  5.5286367e-03
  3.4500933e-01
 -3.3538144e-02
  3.2273501e-01
 -6.4520282e-01
  5.5135325e-02
 -2.9758382e+00
 -1.9457804e-01
 -9.7030681e-03
 -7.5192004e-01
  9.6702680e-02
  2.9710561e-01
 -2.3710720e-01
  4.4344991e-02
 -1.8224825e-01
 -2.6794165e-01
  2.4093720e-03
 -3.5475254e-02
 -7.4993007e-02
  3.3456944e-02
  4.2144105e-02
 -1.1020096e-02
 -1.1632267e-01
  4.7995605e-02
  5.9846997e-02
 -2.0347571e-01
  2.8428125e-01
 -5.6343704e-02
  3.1778386e-01
 -1.4526676e-01
  7.7276543e-02
 -2.3619622e-01
 -1.2202576e-01
  9.8374352e-02
 -2.0639583e-02
 -8.6354762e-02
 -2.3036420e-02
  1.2263426e-01
  9.4655462e-02
  6.3519301e-03
  8.2821324e-02
 -5.2758258e-02
 -3.4357484e-02
  1.7122325e-02
  1.2318366e-01
  8.2011744e-02
  3.7877935e-01
 -7.3580377e-02
 -7.5526059e-02
 -9.8195568e-02
  1.1188671e-01
  1.4858088e-02
  3.9472502e-02
  1.2710486e-01
 -4.8451029e-02
 -5.1579863e-02
  1.4097989e-01
  8.6586438e-02
 -7.1919486e-03
  1.0942647e-01
  2.0472370e-01
 -1.7764401e-02
  6.6791661e-02
 -1.2932104e-01
 -1.4134026e-01
  6.0184136e-02
 -5.3515278e-02
  1.3077058e-01
  3.0007249e-01
 -2.9593984e-02
  1.8287408e-01
  1.2042739e+00
 -1.1390415e-01
  1.1427329e-02
  1.6136703e+00
 -4.9580529e-02
 -5.0775584e-02
 -5.0976258e-02
  1.9538592e-01
 -2.2254245e+00
  7.6522626e-02
 -3.6414129e-01
  5.6337520e-02
 -6.4054090e-01
 -2.8496958e-02
  1.4671724e-03
  2.4934180e-01
 -7.4855960e-03
  3.5338160e-01
  5.0742757e-01
  1.8322547e-01
 -5.1870551e-02
 -1.6888478e-01
 -7.5672597e-01
  2.4576727e-02
  4.9874390e-04
  3.6950689e-02
 -2.0304188e-01
 -4.0997729e-01
 -6.9322921e-03
 -4.8516102e-02
 -1.6989584e-01
 -1.8505201e-01
  3.0534121e-01
 -7.9365957e-01
  7.0954772e-04
 -1.4325860e-01
  5.9430968e-02
 -1.0780989e-01
  8.4893536e-03
 -3.1832635e-01
 -1.2371673e-01
 -9.8215006e-02
  1.9548621e-02
  6.1604969e-02
  1.8083228e-01
  1.3583468e-01
 -1.5037648e-01
  1.2876991e+00
 -6.0630161e-02
  1.4022251e+00
 -5.2620375e-01
 -9.3706721e-01
  4.6429414e-01
  1.0657167e+00
  8.9300111e-02
 -1.6431817e-01
 -7.2894506e-02
 -3.6179435e-02
  3.1867228e-02
  3.3248949e-01
 -2.3825452e-01
  2.0961527e-02
  2.3142059e+00
 -2.5860569e-02
 -6.0011242e-02
  4.3270960e-02
  1.0727283e-01
  6.3475424e-01
  1.7352523e+00
 -7.9898555e-03
 -1.3269375e-01
 -3.6207864e-01
 -6.5630175e-02
  2.1237817e-02
 -3.0555606e-01
 -9.7021635e-04
  4.5746163e-01
  1.6926841e-01
 -2.0569111e-03
  3.1243670e-01
 -1.5699554e-02
  1.5908517e-02
  2.4647959e-01
  2.1289474e-01
 -6.5822557e-02
 -9.6520334e-01
  1.8819137e-01
  2.6322111e-01
 -5.3103466e-02
 -6.7418344e-02
 -3.5982645e-01
  4.9119711e-01
  1.3237736e+00
  5.7130259e-01
  2.7407413e-02
 -6.2964275e-02
 -1.4958167e-01
 -8.0772065e-02
 -7.1550377e-02
  1.0725907e+00
 -5.0236559e-01
 -2.0180792e-01
  2.7165387e-02
  5.6985992e-01
 -7.6916182e-01
  2.5041089e+00
 -1.3259907e-01
 -4.6804181e-01
  5.2547610e-01
  3.3576612e+00
 -1.7192261e+00
  1.2541734e+00
  8.4168649e-01
  4.2012888e-01
  1.4317524e+00
  1.3784482e+00
 -7.2883505e-01
  1.2500643e+00
 -1.3661404e+00
  4.6293700e-01
  1.3000961e-02
 -1.1387348e+00
  4.4144785e-01
  4.0709737e-01
  5.0173939e-04
 -1.6981839e+00
 -2.1052551e+00
  5.7990905e-02
 -4.6716833e-01
  6.7652011e-01
  2.0850530e+00
  3.0472234e-01
 -1.3049372e+00
 -2.9679909e-01
  5.2754658e-01
  3.6931947e-01
  2.8435969e+00
 -8.7231600e-01
 -1.2379793e+00
  2.0951321e+00
  7.1992987e-01
 -5.1895803e-01
 -2.0846043e+00
 -1.1750844e+00
  2.8806849e+00
  3.9585003e-01
  6.6912341e-01
 -5.1261729e-01
  1.0375162e+00
  2.8893581e-01
  6.8178698e-02
 -8.9541030e-01
 -3.9486286e-01
 -1.4438395e-01
  4.6122083e-01
  3.0671161e-01
 -8.1119007e-01
  9.0797678e-02
  9.1448677e-01
 -1.5732677e-01
 -1.8210940e-01
 -3.4759150e+00
 -5.1681396e-02
 -1.4982908e-02
 -4.6067369e-01
  7.7610284e-02
 -2.0271352e-01
 -5.5892587e-01
 -6.4190191e-01
  7.1239449e-02
  2.0555520e+00
 -1.5767309e-01
  1.6894408e-01
  2.2354445e-01
 -2.8972201e-02
  2.5251396e-02
 -5.2809030e-02
 -4.6892907e-02
 -3.5334674e-01
 -4.4916067e-01
 -2.0133433e-01
  4.3202247e-02
  2.2387737e-02
 -6.7417411e-04
 -3.5347682e-01
  5.5809951e-01
 -1.2790923e-01
  5.9416339e-02
  2.1615100e-01
 -1.6840587e+00
 -4.1537249e-01
  1.9842902e-01
  1.8638642e-01
 -1.5935717e-02
 -9.9459618e-02
 -1.3265997e-01
 -2.5509365e-02
 -1.2596661e-01
  1.1733259e-01
 -1.2320818e-02
 -3.3024794e-01
 -5.7281896e-02
  1.6618507e-02
  1.6756889e-01
  4.4240624e-01
  2.7046761e-02
  3.2044344e-02
 -1.2603621e-02
  1.8660414e-01
  1.3486365e-02
  1.0865409e+00
 -8.6520255e-02
  5.1049549e-02
 -2.5513822e-03
  3.6171030e-02
 -1.4709537e-01
  2.3032428e-01
 -6.5972686e-01
 -1.3061523e+00
 -9.4838455e-02
  3.3420369e-02
  4.5484847e-01
 -2.4771787e-01
  1.2251502e+00
 -2.7040386e-01
 -7.9806316e-01
 -4.8933930e+00
  1.2714289e-02
 -5.6717535e-03
 -1.1002158e-01
 -6.9352943e-03
  5.2011581e-03
 -3.6296159e-01
 -2.5629935e-01
 -1.9549707e-02
  5.5284094e-02
  3.3847347e-02
 -2.2113889e-02
 -1.8552262e-01
 -6.3968554e-02
  2.3907359e+00
  1.3316606e-01
 -3.7182525e-03
  8.8159278e-02
 -1.9243961e-02
 -1.1690301e+00
  2.8930310e-02
  7.9661414e-02
  9.7615860e-02
 -2.6064011e-01
 -2.2643146e-01
  3.4296896e-02
 -1.8572665e+00
  9.8704156e-03
 -1.3857104e-03
  4.5657512e-02
  3.0388358e-01
 -2.6119878e+00
  8.6589910e-02
  7.6327044e-01
  2.1270271e-01
 -1.1203659e-01
  2.0865982e-02
 -5.7525152e-01
 -6.8350270e-02
  1.5882020e-01
  1.4163893e-01
 -5.8491137e-02
 -2.3875577e+00
 -1.5815642e-01
 -3.4357625e-01
 -2.0586612e+00
 -2.3050413e+00
  2.2345207e+00
 -3.7622463e-02
 -2.8326705e+00
  9.2144215e-01
  1.6710821e+00
 -1.2206293e+00
  8.2234794e-01
 -6.7092553e-03
  1.9776502e-01
  1.8447191e+00
  7.9611905e-02
 -1.7882806e+00
 -3.0409945e-02
  3.6994541e-01
 -4.9962994e-01
  7.4016935e-01
  2.3278389e-03
 -1.3518407e+00
 -9.1880596e-01
 -4.6804437e-01
 -2.1624656e+00
 -1.4660959e-01
 -1.6997266e+00
 -1.0651846e+00
  2.5416052e+00
  3.2796800e-01
 -2.4004455e+00
 -1.0543785e+00
 -4.2639899e-01
 -3.3267248e-01
  5.4256153e-01
 -2.3079083e+00
  1.2094131e+00
  1.1579255e+00
  3.9618674e-01
 -9.6863258e-01
 -2.7377453e+00
  1.0801065e+00
 -2.2922719e-02
  1.4204439e+00
 -2.1757846e-01
  1.0636383e+00
  9.2727602e-02
  9.7453058e-01
 -2.5629165e+00
 -1.0717751e+00
  1.0637163e+00
  2.5229576e-01
 -1.6848952e-02
  9.7801155e-01
  2.1337132e-01
  2.1033554e-01
 -1.4063531e+00
 -3.4183004e-01
 -4.1582421e-03
 -2.3643391e+00
  3.8961127e-01
  1.0427269e+00
 -1.3382220e+00
  1.1751367e+00
  2.2771932e-01
 -1.2246009e+00
 -1.1189179e+00
 -1.6238220e-01
 -1.0652415e+00
  1.2641084e+00
 -2.6354921e-01
  1.9957927e+00
 -1.7077239e-01
 -7.8788102e-01
  1.3011223e-01
  3.7194234e-01
  1.4855494e+00
  1.4551882e-01
 -8.5352278e-01
 -1.2541199e+00
 -5.0617043e-02
 -3.3960372e-01
 -6.8280888e-01
 -3.0903497e-01
  5.5303227e-02
  1.5558936e-01
  3.2679653e-01
 -2.0719780e-01
 -8.5335147e-01
 -3.6465082e+00
 -2.2493162e+00
 -9.0461552e-02
 -2.9209331e-01
 -1.8940598e-01
 -9.0544319e-01
  2.5910476e-01
 -6.6126126e-01
 -2.5145525e-01
 -2.9327983e-01
 -1.3105638e+00
 -5.0023317e-01
 -3.6412272e-01
  1.0627699e+00
  1.0823215e+00
 -3.9625919e-01
 -1.6822405e+00
 -1.0106320e+00
 -5.5099595e-01
  7.6707268e-01
  8.0635226e-01
 -7.1952127e-02
  9.3017316e-01
 -6.3528024e-02
  7.4260521e-01
  2.8988883e-01
  1.3023695e+00
 -8.0072349e-03
 -7.0208853e-01
 -1.1402346e-03
  4.1069105e-01
  6.9042915e-01
 -8.3931911e-01
 -1.6374263e-01
  2.9411370e-01
 -4.1367558e-01
 -2.6536619e-02
 -1.2890990e-01
 -2.2052377e-02
 -3.1012517e-01
 -1.7930905e+00
 -5.2980199e-02
 -1.4066964e-01
 -1.1021492e+00
 -2.6123914e-01
 -8.6224765e-02
 -9.4920717e-02
  7.9554431e-02
 -6.0305697e-01
 -1.4052947e-01
  5.4919207e-01
  6.7573839e-01
 -7.2861083e-02
 -1.2536846e-01
  7.8406453e-01
 -5.3852880e-01
  5.2768892e-01
 -3.4856430e-01
  1.1893615e+00
  6.1680287e-01
 -1.2191365e-01
  2.1424439e-02
  4.8538095e-01
 -1.7173439e-01
  1.0771321e+00
 -1.2410923e-02
 -3.4273863e-03
 -6.6984290e-01
 -8.3747798e-01
  2.1158950e+00
  3.1417711e+00
  2.2692548e-01
 -1.9074437e-01
  1.4097334e-01
  4.9777405e-04
  4.6286654e-02
  8.6183427e-04
  1.3007519e-01
 -5.1747806e-02
  3.9131570e-01
  1.2482334e-01
  2.1693103e-01
 -1.1108898e+00
 -9.4043195e-01
 -4.1420105e-01
 -1.2525240e+00
 -2.3819402e-02
  9.1981083e-01
  3.3264697e-02
  6.7624253e-01
 -7.4242353e-01
  2.7831235e+00
  5.2541904e-02
 -1.4797133e-01
  3.2667649e-01
 -4.1944820e-02
 -1.5843107e-01
 -1.5504085e-02
  1.0063545e-01
  5.0901860e-01
  1.1506905e-01
  1.1531829e+00
 -2.0837422e-01
  1.2585643e-01
 -6.2612720e-02
 -2.4189019e+00
 -4.9562253e-02
 -5.1574137e-02
 -7.1024060e-02
  1.0168871e-01
  2.3479331e-02
  3.0872855e+00
  1.4078012e-01
 -3.0434574e-03
 -9.6822552e-02
 -5.0618738e-01
 -2.6310387e-01
  2.2614181e-01
  1.5002637e-01
 -7.7644259e-01
  6.0761529e-01
  1.6856250e-01
 -3.6084771e-02
  2.9759628e-01
  1.1962722e-02
  3.8676336e-02
  2.7306250e-01
  5.8533537e-01
 -1.3522977e-01
  6.3350819e-02
  2.6402915e-01
  6.5864645e-02
 -6.8821539e-03
 -2.4122390e-01
 -3.1474569e+00
  9.6787605e-03
  3.4698492e-01
  1.0665154e-01
  2.1100125e-01
  3.4117043e-01
  1.1058422e-02
 -9.8132394e-02
 -5.6907105e-01
  1.4861812e-01
  1.1259259e-01
 -5.0559070e-02
  2.9882710e-02
 -1.1981527e-01
 -3.0838442e-01
 -2.8799394e-01
  5.5221237e-02
 -1.3026708e-01
 -2.1847151e-01
  2.1030912e+00
  7.9117604e-02
 -6.2570937e-02
  1.3176417e-01
  7.9530001e-02
  3.9146051e-02
  1.0103752e-01
 -7.5907618e-02
  1.0872378e-02
  2.4539175e-02
 -2.7039120e-02
 -8.6956209e-01
 -2.0342183e-01
  3.2175434e-01
  8.8684416e-01
 -1.4840235e-03
  1.4567755e-01
 -1.8893276e-01
  4.1207757e-02
  5.9995309e-02
  1.0463810e-02
  1.0340817e-01
 -1.4007193e+00
  9.5821135e-02
 -1.7862184e-01
  2.4761439e-03
 -6.4221002e-02
  4.5865897e-02
  7.5762564e-01
  8.5024722e-02
 -1.0660599e-01
  2.6047733e-01
  7.4582398e-01
  3.5413329e-02
 -1.4508948e-01
 -1.1450021e-01
  4.4775859e-02
  2.4254224e-01
  1.3141596e-01
  8.8732675e-02
  4.0257495e-02
  2.4460034e-02
 -5.3933881e-02
 -2.5222996e-02
 -2.1282641e-02
  1.7428378e-02
  6.3296989e-02
  1.5598908e-01
  2.3141418e-02
  5.9805233e-03
  1.0320936e+00
 -4.7061077e-01
 -9.1673039e-02
 -2.6283665e+00
  1.6319957e-02
  6.2789887e-02
  3.3207811e-02
 -4.4964418e-01
  8.7856539e-02
  4.0828232e-02
 -1.0214441e-01
 -1.5911674e-01
  6.7807429e-02
 -3.2260418e-02
  1.7716108e-02
  8.7711643e-03
 -1.0597722e-02
  8.7974787e-02
 -5.4170871e-03
 -1.2140288e-01
  2.6747549e-02
  2.5346395e-01
 -3.2366458e-02
 -1.3316542e-01
 -4.4139847e-02
  3.8640264e-02
  1.7487845e-01
 -7.8664833e-01
  1.1883077e-02
 -7.9539157e-02
  1.9950664e-01
  1.1758253e-01
 -5.5118757e-03
  5.8998005e-03
  7.0538349e-02
  4.5676425e-02
  2.7194858e-01
  9.8934144e-02
  1.0274421e-01
  4.0168655e-03
  4.3863937e-02
  2.3156250e-01
 -3.8900763e-02
 -3.8102430e-01
 -2.9206170e-02
  6.1256558e-01
  6.4238399e-02
  3.3824861e-01
 -7.7414536e-01
  6.1590266e-01
  1.2582874e-01
  1.0938083e+00
 -1.9826881e+00
 -9.8275971e-01
 -8.6551285e-01
  1.9286709e-01
 -2.0435209e+00
 -2.3614632e-01
 -1.6540054e+00
 -2.4251527e-01
  5.8746636e-02
 -1.0670714e-02
  1.1775725e-01
 -4.9776908e-02
 -1.3459839e-01
 -3.4978602e-02
  1.7344266e-01
 -4.9110675e+00
  2.8703911e-02
 -7.9459232e-01
 -1.5605742e-01
  1.9883984e-03
  2.4812041e-01
  2.2976471e-02
  1.5082285e-02
 -3.7238127e-01
  2.7597320e-01
  2.1079767e-02
 -3.2789183e-03
  5.6592967e-02
  9.8784107e-01
  1.1953683e+00
  9.2346609e-02
 -1.6163114e-01
 -4.8084695e-02
  6.8759709e-03
 -9.2608884e-02
 -2.8999045e+00
 -8.3288562e-01
  1.3985564e-01
 -1.6213419e-01
 -4.8109662e-02
 -9.7971439e-02
 -5.3617078e-01
  6.0837187e-02
 -2.5483122e-02
 -1.0560449e+00
  1.1600378e-01
  3.7970372e-02
 -4.3351340e-01
 -4.2689157e-01
  7.1573299e-01
  1.5689882e+00
  9.0330457e-03
  5.6904012e-01
 -2.9698560e-02
  1.0460143e-02
  4.2094108e-01
 -3.6150607e-01
 -1.1139312e-01
 -2.2698593e-01
  5.5207672e+00
  9.1833520e-01
 -2.6183218e-01
 -7.1666576e-02
  1.0163240e-01
 -4.7118444e-02
  3.3932682e-02
 -2.2036372e-02
  1.3104398e+00
  5.6144521e-02
 -6.0201578e-02
  1.5015465e-01
  1.1139346e+00
 -2.0871787e-01
  1.9341373e-01
 -5.0351858e-01
  3.5028473e-02
  1.7089418e-01
 -1.5420406e-01
  5.4341161e-01
 -4.7457680e-01
  1.5557937e-02
  1.8301724e-02
 -1.9666591e-01
 -4.9030617e-01
 -5.6703128e-02
 -1.0100189e-01
  6.1870927e-01
 -1.1368068e-01
 -6.3909255e-02
 -3.7295382e-02
 -1.3842539e-02
 -3.9279270e-03
 -1.2397650e-01
 -2.5523804e-02
  3.7611768e-02
  1.4386442e-02
  9.0885532e-01
 -5.1510055e-02
  7.8019232e-02
  9.1417562e-03
  2.3328120e-01
 -1.8225531e-01
 -1.5245619e-01
 -1.2579368e-01
  3.7547246e-02
  6.9791123e-02
 -2.9424092e-01
  5.9567567e-02
  2.8205621e-01
  1.7777583e-01
  3.2785509e-02
  3.0333573e-02
 -5.2075052e-01
 -2.8737652e-01
 -1.2328658e-01
 -1.4095043e-01
  5.4543260e-02
  6.3006237e-02
 -8.9748099e-02
 -8.8523768e-02
  2.1427953e-01
  8.7403096e-03
 -5.5134726e-01
  1.7231098e-01
  6.5537589e-03
  8.5345939e-02
  8.7097995e-03
  4.9861324e-01
 -8.8235265e-01
  1.0575813e-01
 -6.0385051e-03
 -9.4545178e-02
 -4.5495056e-02
  1.0733569e-01
 -5.7666633e-02
 -1.9234165e+00
  5.6785326e-02
  7.5890221e-02
  2.8930336e-02
 -6.9417983e-02
 -1.1187601e-01
  7.9030439e-02
  1.3921446e+00
  1.4899336e-01
  1.7218380e-01
  3.0349961e-01
  8.0672763e-02
  1.1386592e-01
  7.4453559e-03
 -1.3968141e-01
 -5.6027924e-03
 -4.9046963e-02
 -1.4569718e+00
 -2.0214500e-02
  5.1686160e-02
 -2.0983632e-01
  9.3891710e-02
  1.1644781e-01
  3.6892384e-02
  1.8134590e-02
  7.7324710e-03
 -7.2363019e-02
 -2.6151088e-01
  6.9891113e-01
 -2.1271386e+00
 -3.2496958e+00
 -1.4821078e+00
 -3.6387244e-01
 -2.5212986e+00
 -6.2825489e-01
 -1.7668601e+00
  1.3296819e+00
 -1.3849094e+00
 -1.3053534e+00
 -1.6398039e+00
  3.0828795e-01
 -2.6552337e-03
  5.2073383e-01
 -2.9557568e-01
 -1.0041015e+00
 -2.5997752e-01
 -1.3845290e-01
  1.5305096e-01
 -1.5860873e+00
  2.5273195e-01
  2.1780814e-01
 -1.7396615e-01
 -1.5256504e+00
 -2.0082741e+00
  6.6068548e-01
  7.4705631e-01
 -1.8440926e-01
 -1.1408089e-01
 -1.3098298e+00
  1.2705426e+00
  4.3643247e-02
  1.6970356e+00
 -1.4991424e+00
 -6.3915026e-01
  5.6689250e-01
  1.4889003e+00
  1.6706292e-01
 -1.2835634e-01
 -8.9358050e-01
  8.3743507e-01
  2.2038068e-01
 -5.2255410e-01
  7.0690507e-01
 -1.7865893e-01
  2.9924306e-01
  6.6130355e-02
  1.2373407e+00
  6.3692355e-01
 -9.4436818e-01
  9.3774777e-03
 -2.1995284e-01
 -1.0166880e-01
 -8.4261894e-03
  2.1875720e-01
  2.0831196e-01
  1.1633016e-01
 -8.1799185e-01
  5.8212750e-02
 -2.3994885e-02
  8.3709764e-01
 -3.8828894e-01
 -2.3035088e+00
  1.0868363e-01
 -1.0816967e+00
  8.5108176e-02
 -1.3676482e-02
 -5.8839552e-02
  1.0892405e-01
 -1.4305629e-01
 -1.4859799e-01
 -3.6117904e-02
 -6.1825316e-02
  4.6615109e-02
 -5.3121704e-01
  1.0940664e-01
  2.2510357e-02
  5.8734214e-01
  9.4792716e-02
 -1.0931028e-01
 -3.8380000e-01
 -8.0873379e-03
  4.1496131e-01
  1.2648618e-01
 -2.8338510e-01
 -1.6674124e-01
  6.6538215e-01
  1.1878813e-02
  2.1260390e-02
 -1.6545545e-01
  2.2747135e-01
 -1.1658146e-02
 -3.7131112e-02
  4.1327965e-02
 -2.1668099e-01
 -1.8772118e-02
 -1.1302574e-01
 -2.6594527e-02
 -1.2309819e-01
  3.1504489e-02
  5.0835466e-01
  1.4707422e-01
  2.8175467e-01
  7.9083964e-02
  2.2413462e-02
 -1.2834322e-01
 -1.9309150e-01
 -4.0628639e-01
 -1.4108129e+00
 -2.8527068e-02
  9.3238163e-01
 -6.2583023e-01
  2.2366036e-02
  1.4922284e-01
  1.9193147e-01
 -1.0465443e+00
 -6.6490643e-02
  3.2305676e-01
 -1.2103447e+00
 -4.1283122e-01
 -1.0657015e+00
  2.5344610e-01
 -1.6138722e+00
  1.1559398e-01
  5.4287410e-01
  7.4234587e-01
 -3.2850519e-01
 -2.3351563e-02
 -1.4771919e-01
 -6.4848268e-01
  1.4482799e+00
 -2.7426547e-01
 -3.6540576e-03
  1.5417763e+00
 -7.5278459e-03
 -1.0852286e+00
  9.0127312e-02
 -1.6232187e-01
  1.0642997e-01
  9.9984276e-01
  5.6403208e-01
 -4.7069994e-01
  1.5470403e-01
 -6.4288646e-02
 -1.0577909e+00
 -1.3936863e+00
  6.4461422e-01
  1.4988122e+00
 -1.6467387e-02
  1.3689756e-01
  3.7857614e+00
 -3.2510966e-01
 -6.3002758e-02
  3.6775339e-01
  3.4199247e-01
  7.4580485e-01
 -1.1459653e-01
  4.3648621e-01
 -5.9837073e-01
  2.2886953e-01
  1.5246158e+00
  5.0627872e-02
  1.0981917e+00
  5.6426764e-01
 -2.6376304e-01
 -5.6336480e-01
 -1.9233103e-01
  4.5193173e-02
  6.2558299e-01
  1.1767501e+00
  3.9698310e-02
  1.0864836e-01
 -7.1384355e-02
  5.1636386e-01
  9.5495057e-01
  1.1967355e+00
 -1.0767149e+00
 -2.6990637e-01
 -1.2597907e-01
  1.5959289e-02
  4.3897611e-01
 -2.8995422e-01
  7.7031903e-02
  3.4326080e-03
 -1.9896460e-01
 -7.4710056e-02
  4.5178124e-01
  4.9343199e-02
 -6.4931527e-02
  2.4014771e-01
 -4.9216580e-01
 -1.6120800e-01
  7.5073252e-03
  2.8893280e-01
 -4.5958304e-01
 -3.6304969e-01
 -1.9312882e+00
 -2.0687881e-01
  2.7016453e-02
  9.1241769e-02
 -9.8156643e-01
 -7.4916917e-01
 -9.1771746e-01
 -8.8151401e-01
 -4.8166537e+00
 -1.3044557e-02
 -8.4635412e-04
 -7.7579248e-01
  6.3509184e-01
 -4.5179386e-02
 -4.6581745e-02
 -5.0100023e-01
 -4.3185074e-02
  2.5202650e-01
 -1.0239095e-01
  9.6472472e-02
 -1.8148084e-01
 -5.9237998e-02
 -1.2278754e-01
  1.3948724e-01
 -9.9779228e-03
 -4.3740466e-01
  1.8419539e+00
 -2.4876295e-01
  2.6733476e-01
 -1.3387753e+00
  3.0149850e-01
  3.6553308e-01
  8.9462474e-03
 -6.7569703e-01
  5.7065934e-01
 -4.5314911e-01
 -1.2464503e+00
 -7.4228948e-01
 -3.6303371e-01
  1.9955657e-02
  8.7611717e-01
  1.5852153e+00
 -2.1736547e-01
  6.0277176e-01
 -4.7174385e-01
  5.2965090e-02
 -1.7196928e-01
 -4.8067591e-01
  5.3906005e-02
  3.2300043e-01
  8.8956794e-03
 -2.1057732e+00
 -2.3259809e-02
 -8.5930073e-01
 -8.5723951e-02
 -6.3854498e-01
  4.5095444e-01
  1.2625335e-01
  2.1374097e-01
  8.5598801e-04
 -1.9916343e-02
 -6.7949587e-01
  4.4112533e-01
  1.4844406e-01
  3.3632692e-02
 -1.2832031e+00
 -1.6222559e-01
  3.7034172e-01
  6.3370494e-03
 -3.0583900e-01
  1.5757366e-01
  5.4293239e-01
 -1.7434993e-01
  1.3502693e-03
  3.5054597e-01
 -5.4528870e-02
  1.2607028e-01
  1.3809268e-02
 -7.4423738e-02
  4.7144648e-01
  4.2864766e-02
 -1.7086951e-01
  6.0962057e-01
  3.1609673e-02
  1.3987006e+00
 -9.3946569e-03
 -2.7354960e+00
 -1.8958342e-01
  2.4547625e+00
  5.4436880e-01
 -9.7020644e-01
  9.7773254e-01
  1.4265472e+00
  8.9084244e-01
 -8.3879012e-01
 -6.2276679e-01
  7.6925611e-01
  1.8219372e-02
 -9.6500605e-02
  3.4090430e-02
  1.3860570e-01
  9.0628988e-01
  8.4417397e-01
 -1.1014378e-01
 -2.4500538e-01
 -1.2788330e-01
  1.0945564e-01
 -2.2871031e-03
 -9.2450964e-01
  7.1274871e-01
 -5.0195545e-01
  1.7573694e+00
 -1.7753913e+00
 -6.6625021e-02
  1.0209417e+00
  4.9015585e-01
  1.6800809e+00
  6.5773958e-01
 -1.2757993e-01
 -7.0310950e-01
 -1.4436074e+00
 -1.1646119e-01
  1.9221221e-01
  7.4484237e-02
 -2.9876420e-01
 -5.9507113e-02
 -1.4006583e-01
 -5.2220744e-01
  1.3489635e-01
  1.9627920e+00
 -1.3044639e-01
 -4.5020189e-02
  2.2912647e-01
 -4.3475956e-01
 -1.5213452e-01
  8.2249027e-03
  2.5664234e-01
 -9.4506480e-03
 -1.2039644e-01
 -1.0420735e+00
  4.0532443e-01
 -2.3025293e+00
 -5.7795030e-01
 -9.8194385e-01
  2.4031625e+00
 -1.8936868e+00
 -1.0332065e-01
 -4.6479520e-01
  8.2161093e-01
  4.8984003e-01
  2.0765784e-01
  5.9394091e-02
 -1.9174607e+00
  5.5758095e-01
 -2.4656256e-01
 -1.9262255e+00
  5.8489746e-01
 -3.0228004e+00
  6.5147340e-01
 -6.4960974e-01
  3.6824706e-01
 -6.2745404e-01
 -2.4805880e-01
  4.2598467e-02
 -1.4487363e+00
  3.7958661e-01
 -9.9185914e-01
  3.3790553e-01
  1.0843299e-01
  3.0786034e-01
 -3.5600130e-02
  6.6981268e-01
 -1.1079227e+00
 -2.8125399e-01
  9.7434208e-02
  6.1095202e-01
  1.0713670e+00
 -2.1973738e-02
 -8.7355942e-02
 -4.0287070e-02
 -8.5292214e-01
  8.0663639e-01
 -1.8347049e-01
 -9.9332482e-03
  7.6662146e-02
 -3.4784696e-01
 -7.9215363e-02
 -3.0622417e-01
  6.3034469e-01
 -2.4494121e-03
  1.9474552e+00
  1.3320079e-01
 -9.5431432e-02
  1.0386636e-01
 -9.6191788e-01
 -5.9803057e-01
  1.8543972e-01
  1.5086141e+00
  1.2618483e-02
  4.2709905e-01
  5.1843870e-01
  1.3677204e-01
  1.2137850e-03
 -3.2645509e-02
  6.0964506e-02
 -9.6176410e-01
  1.1644747e-01
 -1.3721367e+00
 -7.8053093e-01
  3.9037153e-01
  1.0644703e-01
 -1.8750335e+00
  1.0483012e+00
 -3.5856258e-02
 -6.9721824e-01
  3.1341961e-01
  3.2051423e-01
 -1.3651270e-01
  4.3728673e-01
 -1.8518440e-02
 -1.7492435e+00
  1.0821762e+00
  6.3071415e-02
  7.4981058e-01
 -1.4618653e+00
  5.9016898e-02
  6.4859974e-01
 -2.7610421e-02
  7.3873207e-02
 -4.7550806e-01
  1.0094848e-01
  4.7506779e-01
 -2.6240078e-01
  2.0737675e-01
  1.8962362e+00
 -4.2199087e-01
 -8.4233381e-02
  1.3219627e-02
  7.1623564e-02
  1.5395007e+00
  6.5120572e-01
 -4.1747910e-01
 -9.3607135e-02
  7.2190052e-01
 -2.5209811e-01
  4.4391447e-01
 -1.8985541e+00
 -1.0175530e+00
 -1.1975296e+00
 -1.9933883e-02
 -2.3894930e-01
  3.3632794e-01
  9.9381697e-01
  1.0184970e+00
 -4.8426423e-02
  1.6782895e+00
  1.5677561e+00
  5.5133831e-02
 -6.2606961e-02
  7.7859163e-01
  5.9787408e-02
 -4.1887957e-01
  3.6651549e-01
  8.3370674e-01
 -3.8938513e-01
  1.0751741e-01
 -2.8126559e-01
 -5.6714737e-01
  1.7785785e-01
  9.1973819e-02
  4.4411117e-01
 -1.5162857e-01
 -1.6541153e-01
 -2.4729969e-01
 -5.8054882e-01
  3.5371181e-02
  1.2979573e+00
 -2.0858107e+00
  1.2888715e-01
 -2.2831765e-01
 -1.9072089e+00
  1.6046394e-02
  2.9234627e-01
 -1.3337116e-02
 -5.4278868e-01
  1.0300194e+00
 -4.8316649e-01
  4.0765944e-01
 -3.0287364e+00
 -3.8215280e-01
  5.1587280e-02
 -1.0267879e+00
  4.3620369e-01
 -2.0985469e-02
 -5.9327614e-01
 -4.3852102e-02
  3.3623986e-02
 -3.5253510e-01
 -4.5270085e-01
  1.1473583e+00
  4.3601802e-01
 -3.0738157e-01
 -1.1399089e+00
  5.7706612e-01
 -3.6760338e-02
  3.1927535e-01
  5.7109600e-01
 -3.7945953e-01
  2.6148025e-02
  2.1612900e-01
 -5.0689399e-02
  5.8969682e-01
  1.0461406e+00
 -8.8784046e-02
 -3.2007250e-01
 -4.6691913e-03
 -5.0992269e-02
 -2.5347140e-01
 -1.9435264e-01
  2.4833553e-01
  5.9679996e-02
  6.8099350e-02
 -1.3531350e-01
  9.2519736e-01
 -3.0473450e-01
 -2.9719669e-01
  2.5711358e-01
 -3.8411620e-01
  4.3375846e-02
  3.8192016e-01
  9.1875857e-03
 -6.4288303e-02
  1.4556308e-01
  2.0147566e-02
 -4.6319976e-02
 -6.7505933e-02
 -2.1122591e-01
 -2.4688093e-02
 -9.6583769e-02
  5.3983234e-02
  1.3959725e+00
 -1.7350695e-01
  3.5276723e-01
 -4.1091549e-01
 -2.4174221e-02
  1.4261073e-02
  2.2211082e-02
  1.4123063e-02
 -1.0411441e-01
 -1.2351427e+00
  3.5320044e-02
 -5.0515208e-02
  9.8076232e-02
  2.0971318e-01
 -5.4030796e-03
 -3.2807015e-02
 -7.4853070e-02
 -1.1523501e+00
  2.5904021e-01
  2.5740860e-03
 -7.7858114e-01
  1.5985195e-01
 -7.4283108e-02
 -1.5786967e+00
  8.1356579e-01
  5.7787704e-01
  5.6381065e-01
  1.4193471e-01
  2.4106018e-01
  1.5774414e-02
 -5.1680934e-01
  4.9775898e-02
  1.1643617e-01
 -1.2102754e-01
 -7.0772901e-02
  4.8990220e-02
 -8.2268398e-03
 -6.7493677e-01
  1.5625919e-03
 -2.3811126e-02
 -1.9814947e-01
 -2.2380283e-02
 -1.1688339e-01
  2.4565881e-02
 -1.0290693e-01
  1.4194899e-03
  1.4406994e-01
  1.3922018e-01
 -2.2395772e-01
 -9.0962552e-02
  9.4331302e-02
 -7.5059056e-02
 -2.3239536e+00
  1.0465250e-02
  1.4238973e-01
  1.1329920e-03
 -9.8037250e-02
  1.9310048e+00
  3.1141552e-01
  8.7318331e-02
 -2.2498945e-02
 -1.0073776e-01
  7.8987248e-02
  2.8942861e-02
  1.4637215e-01
  7.2229147e-02
  4.2624392e-02
  8.9914910e-02
  2.3453285e-01
 -2.4367885e-01
  8.6013250e-02
  6.4340867e-02
 -6.8583474e-02
  4.6411756e-02
  1.3579704e-01
  1.3516691e-01
  1.1262611e-01
  3.9092038e-02
  1.0028908e-01
  2.8142956e-01
 -1.0144120e+00
  4.3075386e-01
 -1.2030082e+00
  1.1683959e+00
  3.3150427e-02
 -1.3327214e+00
 -1.2309614e+00
  4.2421564e-01
 -8.3109331e-01
  1.6522470e-01
  3.5807278e-02
  1.4078014e-01
 -8.9526278e-01
  1.0347109e-01
  1.3182583e+00
 -7.9325658e-01
  2.5526226e-02
  7.6426379e-02
 -2.1352153e-01
 -6.4874727e-01
 -2.2299979e+00
  1.0824623e+00
  3.5370865e-01
  1.9771242e-01
  2.4227165e-01
  5.7177306e-03
  2.5038600e-02
  1.6481031e-01
  4.2420927e-01
 -1.5716439e-01
 -5.9323043e-01
  5.5695802e-02
 -3.1932184e-01
  1.3555460e+00
  1.8685721e-02
  2.5105461e-01
  8.9193478e-02
  4.0734913e-02
 -1.6340354e-01
 -1.6397431e-02
 -6.1913592e-01
 -2.2373839e-01
  8.8088799e-01
  2.6061759e+00
  5.5936025e-03
  3.9872426e-01
 -1.2042874e-01
 -4.7553480e-02
 -5.1769484e-02
  8.6606562e-02
 -3.7881821e-02
  3.2701692e-01
  2.3467308e-01
  3.6980942e-01
 -5.8221781e-01
  1.2392844e+00
  7.0032895e-02
  9.0473637e-02
  1.3267983e+00
 -9.3814188e-01
 -1.1838057e-01
  5.9659964e-01
  3.3290067e-01
 -5.0387508e-03
 -3.2286200e-01
 -2.2454417e+00
  1.1988441e+00
 -1.2231934e-01
  3.8548194e-02
  5.0339079e-01
 -8.1556201e-01
  7.4758440e-01
 -5.6511569e-01
  6.4542867e-02
 -1.3565073e+00
 -3.3879712e-01
  4.4157752e-01
 -5.8159375e-01
  1.5999302e+00
 -7.0653367e-01
 -4.6958154e-01
  7.5126755e-01
  6.8867975e-01
 -1.9145797e+00
 -1.3996507e+00
 -3.6881253e-02
 -6.2078025e-02
  2.1700145e-01
  8.8537633e-01
 -1.1935208e+00
  6.4484425e-02
 -3.8676745e-01
  3.5145256e-01
 -1.1030138e-01
 -4.0814450e-01
  2.2356538e-01
 -2.7154300e-01
 -3.5877717e-01
 -9.3949455e-01
  6.9317478e-01
  3.5074487e-02
 -7.2040606e-01
  5.6606445e-02
  2.5498861e-02
  2.2084194e-01
 -7.1108736e-02
 -9.0136433e-01
 -5.4333073e-01
  2.4512097e-01
  5.8782679e-01
  3.3578336e-01
 -2.2965569e+00
  7.9064608e-01
 -8.1379950e-01
 -8.9591241e-01
 -8.3998656e-01
  3.2042962e-01
 -1.8529895e-01
 -8.3926298e-02
  2.0082606e-01
 -1.3797779e-01
  6.6582280e-01
  6.5260656e-02
 -2.9012248e-01
 -1.1270363e-02
  2.8488515e-02
  1.0073715e-01
 -5.1055327e-03
 -3.5313687e-01
  7.2665721e-01
  1.0534541e-01
 -3.2913771e-02
  3.7633860e-01
  7.7252671e-02
  4.6807945e-01
  1.5249644e-01
 -2.1484512e-01
  1.4996462e-01
  2.1996750e-02
 -5.3108193e-02
 -1.8407813e-01
 -5.3351566e-02
 -1.8137382e-01
  1.2933303e-02
  4.8286324e+00
 -6.7059392e-01
  1.6075941e-02
 -3.6672774e-01
 -6.0881723e-02
  2.9077783e-01
 -6.4987086e-02
 -7.4902900e-02
  2.6049483e-01
  1.7103510e-01
  8.0302519e-01
 -5.3820230e-02
  2.1482265e-02
 -8.6240843e-02
 -2.3429909e-01
 -1.9058052e-01
 -4.0151453e-01
  1.1066864e-01
  5.1056881e-02
 -1.3809066e-01
 -1.4978467e-01
 -1.7027798e-01
  2.6148629e+00
 -1.3550524e+00
  5.4037726e-01
  2.8194764e-01
 -7.9581058e-01
 -1.1896517e+00
  1.6399508e+00
  3.1197187e-01
  1.0772587e-01
 -1.3658706e-03
 -4.8472550e-02
 -3.5256365e-01
 -3.0210104e-02
  2.5568038e-01
  1.2653869e+00
 -4.6025352e-03
  1.4045414e-01
  1.9980397e-02
  1.6189887e-01
 -2.2010785e-01
 -2.9610991e-02
 -1.3610840e-01
 -4.6621397e-02
  2.4004532e-01
  4.0427335e-02
  7.7772804e-02
  7.9401560e-02
 -2.0493761e-02
 -2.3298407e-02
 -1.3344288e-01
  2.6761532e-02
 -2.0407762e-01
 -1.6461667e-01
 -2.8830903e-02
 -1.8105859e+00
  2.0142934e-01
 -2.0688923e-01
  1.1366392e-01
  1.4502715e-01
 -1.6232101e-02
  1.4854765e-01
  6.4642183e-02
  4.2470217e-01
  1.5867525e-01
  2.0710824e-01
  2.2977561e-02
  3.6070785e-01
  2.1845395e-02
  5.7091366e-02
 -1.0057896e-02
 -2.0418152e-02
  3.9427977e-02
  1.4816968e-01
 -4.5714438e-02
  2.7450334e-02
  1.8762184e-02
 -9.2125706e-02
  3.8345483e-01
 -1.7416422e-01
  1.8691547e-01
 -4.8421621e-02
 -6.7719787e-02
  4.3571627e-01
  2.0448747e-01
  4.0397897e-01
 -1.8179733e-02
  1.0915866e+00
  9.1976091e-02
 -1.1368912e-01
  1.1337133e-01
  1.8698367e-01
 -4.9765790e-03
 -1.8961436e-01
  3.5569083e-02
 -8.2617569e-01
 -2.2176687e-01
 -2.2079773e-02
 -7.7133149e-02
  4.0973596e-02
 -3.2709958e-03
 -1.0882410e-01
 -5.2157119e-02
  2.1513782e+00
  4.2809492e-01
  4.6339516e-02
  3.1290281e+00
 -1.1173140e-01
  6.3509874e-02
  3.5336164e-03
  3.2266882e-01
 -3.4348965e-02
  2.6096335e-01
 -6.9645569e-02
  3.7421912e-02
  3.2971266e-01
 -5.1044303e-01
  1.7706351e+00
  4.8069153e-02
  1.1750118e+00
 -2.0245810e-01
 -1.5644389e-01
  1.1679681e-02
 -6.1613327e-01
  3.2929796e-01
  3.6902759e-02
  2.8603569e-01
  5.6186546e-02
  4.8043109e-02
  3.5313004e-01
 -5.5344462e-02
  6.9679983e-02
  2.6416215e-01
 -5.7678919e-02
  1.4157332e-01
 -1.2778240e-01
 -2.7322382e-02
 -5.3198691e-02
 -2.3310816e-01
 -5.7287145e-02
 -1.7061841e-01
 -2.1833103e-02
 -4.5488875e-02
 -1.6049568e-01
 -1.6116613e-01
  6.5428451e-02
  1.7813346e-03
  1.7938480e-02
  1.8355638e-02
  3.8457468e-02
 -1.6161527e-01
 -4.0037882e-02
 -9.5134070e-03
  4.9972784e-02
  7.2625607e-02
  3.0381101e-01
 -8.3313091e-03
 -2.6003748e-01
 -3.8173079e-02
 -1.5232824e-01
 -6.8034574e-02
 -8.0391318e-02
 -2.0174706e+00
  1.7651397e-01
 -5.1139802e-02
  1.4365253e-01
 -1.6495654e-01
 -4.3810789e-02
  2.8182341e-02
  2.3888065e-02
 -2.5559169e-01
  5.7994585e-02
  1.4959449e-01
  4.7213372e-02
 -9.2508845e-02
 -1.0548046e-01
 -8.5328922e-02
  1.3817044e-01
 -7.0274562e-02
 -1.6493596e-01
  4.3030564e-02
  1.3334420e-01
  7.5075693e-02
 -2.0108480e-02
 -5.6952048e-02
  1.0626089e-02
  1.4814347e-01
 -6.1114323e-03
 -1.6647398e-01
 -1.2496755e-01
 -2.3718525e-01
 -1.1035946e-01
 -9.4169390e-01
  1.0181738e+00
 -5.8085010e-03
  3.2094951e+00
 -3.4805451e-02
 -9.2023849e-02
 -1.1991889e-01
 -2.6010717e-03
  2.2731863e-03
 -1.9884307e-02
 -6.8716877e-03
 -3.3027861e-02
 -1.0514414e-01
  8.4363371e-02
 -2.5735220e-01
  3.8803160e-02
  1.8897736e-02
  1.0300399e-01
 -2.1919347e-02
 -2.0883484e-01
  1.1182458e-01
 -3.4775153e-01
 -1.2267302e-02
 -5.6409850e-03
 -3.6083531e-02
  9.0216175e-02
  4.3731041e-02
  6.8012133e-02
 -2.4394499e-02
 -1.6157057e+00
 -1.2740760e-01
  2.5256908e-02
  5.1128156e-02
 -1.5237571e-02
 -4.1711248e-02
  7.3482633e-01
 -2.4409549e+00
  2.2299003e-02
  3.6837906e-02
 -1.4182971e-02
  1.6173553e-02
  8.5341148e-02
  2.1791953e-01
 -1.6574397e+00
  9.3302680e-03
  2.0767224e-01
  1.0039209e-02
  2.6330701e-01
  3.2031432e-02
  1.1337445e-02
 -4.6638492e-02
  1.0965948e-02
  3.0189848e-01
 -5.2514948e-02
  6.6687323e-02
  2.4742061e-01
  9.9613470e-01
  9.7518182e-01
 -1.8962677e-01
 -1.9361164e-02
  1.0028951e+00
  8.1703149e-02
 -2.4731967e-01
 -4.6330395e-01
  6.9784272e-01
  1.3830937e-01
 -5.8117501e-02
 -9.3328446e-02
 -3.7688192e-02
  6.7629349e-01
 -1.6665243e-02
  2.0367303e-01
 -1.3089879e-01
  1.6765583e-02
 -7.0616144e-01
 -7.4658200e-02
  8.8251986e-02
  1.2769833e-01
 -4.3305328e-01
  1.5680544e-01
  3.4347504e-02
  6.8781137e-02
  1.5420814e-01
  4.3155205e-01
  6.9642006e-03
 -2.1347109e-02
  3.9565761e-02
 -7.4408893e-03
  1.8030046e-01
 -1.1168808e+00
  1.3013332e-01
 -2.3721980e-02
  1.4426149e-01
 -9.9328749e-02
 -1.7140701e-01
  5.4968115e-02
  2.9751387e-01
  8.3692834e-02
  1.6815037e-02
  1.6191256e-01
  1.0871223e-02
 -5.5336278e-02
 -1.6667916e-01
  1.3201447e-01
  9.5435582e-02
 -9.3441814e-02
 -3.3976111e-01
 -2.3634832e-01
  2.3421927e-01
 -1.6125087e-01
  2.2634752e-01
 -4.0543476e-01
  5.7099450e-01
  2.7839813e-01
  1.2124713e-01
  8.9975274e-01
 -2.7507436e-01
 -1.3231357e-02
  3.6848471e-01
 -8.3465040e-02
 -1.3547335e+00
 -1.0313675e+00
  1.5768316e-01
 -1.0226334e+00
  2.5380349e-01
 -5.0551605e-01
  3.3453256e-01
 -6.3994211e-01
 -4.5132872e-01
  4.5499322e-01
  3.4067504e-02
  5.2233380e-01
 -2.3928814e-01
  5.4229569e-02
 -4.9317247e-01
 -5.2148741e-01
  1.2969841e-01
 -9.8498449e-02
 -7.9108037e-02
  3.2997367e-01
  1.3274425e+00
  1.7953420e-01
 -1.1529853e+00
  2.3634398e-01
  1.6762476e-01
 -6.0942811e-01
  1.6540865e+00
  2.4714570e-02
 -2.2019977e-02
 -2.0035141e+00
  9.8214839e-03
 -1.6167159e-01
  9.0805233e-01
  2.6386645e+00
 -1.9427349e-01
 -3.4612727e-01
 -2.0489405e-01
  3.4807679e-01
 -8.8389955e-02
  2.4955654e-01
  7.3931277e-01
 -2.3183697e-03
  2.8303549e+00
  1.1939449e-01
  6.0744904e-02
 -6.6719733e-02
  1.0500751e+00
  2.5272581e-01
  6.4758703e-02
 -1.4733346e-01
 -3.1923929e-01
 -5.7792771e-01
 -1.4048660e+00
  4.3009460e-01
 -9.5452535e-01
  9.1950232e-01
  3.1183648e+00
  5.7800061e-01
 -5.2984780e-01
  7.3961866e-01
  2.6163511e-02
 -1.2473707e-03
  1.1055493e+00
 -3.7477612e-02
  2.0802367e+00
  1.3261241e+00
  4.6156245e-01
  3.7351862e-01
 -5.8525823e-02
 -4.2727405e-01
  1.1087402e+00
  2.4787547e-01
 -7.0657313e-01
  1.6533539e+00
  4.9851274e-01
  2.3683839e+00
  1.0445614e-01
 -5.9555966e-01
  1.5262422e-03
  3.7401268e-01
 -1.3184265e+00
  4.7898200e-01
  1.6389711e-01
 -3.2577208e-01
  5.1078522e-01
 -6.6113353e-02
 -1.3649601e+00
  8.1121820e-01
  4.0116036e-01
  6.8870664e-01
  5.4271281e-02
 -7.8902715e-01
  2.2417843e-01
 -2.1370746e-02
  1.2756734e-01
 -3.7697989e-02
 -1.0139176e+00
 -1.5642323e-01
 -1.0572062e+00
 -5.1236260e-01
  7.1893954e-01
  9.0445273e-02
 -1.2894613e-02
 -3.1143510e-01
 -2.0341778e+00
 -7.0838708e-01
  6.5357253e-02
 -1.4109439e-02
 -1.7198746e-01
 -4.0558499e-01
  2.5998634e-01
  4.6684045e-01
  4.9885163e-01
 -9.4957136e-02
  2.7837899e+00
 -9.6047461e-02
 -1.2076164e+00
 -2.0872283e-01
 -1.9583823e-01
 -7.1998443e-03
  2.5129244e-02
 -9.7833134e-02
  4.3682316e-01
 -1.3852683e-01
  6.4906367e-04
  1.5497001e-01
 -3.3722542e-02
 -2.2524950e-01
 -4.2388552e-01
 -4.9514610e-02
  1.1417603e-01
 -6.5125130e-02
 -8.7252688e-03
 -2.9514633e-02
  3.0728444e-01
  6.9416583e-02
  3.4268445e-01
  3.6353335e-01
  3.1121116e-02
  4.1357528e-02
  1.7594742e-02
 -3.7616812e-02
 -3.8725201e-02
  8.3071597e-02
 -2.0533937e-03
 -1.3374880e-01
  1.2791240e-01
 -2.1382934e-01
  1.7725959e-01
  5.3447497e-01
 -2.0814963e-01
  2.3663931e-01
 -1.3065253e-01
  2.7386708e-02
  1.9375034e-02
 -3.8371794e-02
  1.4124519e-01
 -3.5271451e-02
  1.4254425e-01
  3.4840485e-01
 -1.9501402e+00
  1.1814895e-01
 -3.9865804e-01
 -1.8341925e+00
  1.0798607e+00
  1.3337603e-01
  6.1637664e-01
  2.0451646e-02
  6.9470173e-01
  1.7971192e-02
  4.2446461e-01
 -5.1542962e-01
  2.8583986e-01
 -2.7783696e-02
  1.8176903e-01
  2.2228473e-01
 -1.1816252e-02
  3.8240731e-01
  1.6009754e-01
  2.5748730e-01
  1.9375259e-01
  1.1910798e-01
  9.2234962e-02
 -9.2326954e-02
 -6.5595560e-02
 -6.7526773e-02
  2.7914852e-01
  4.6106538e-01
 -3.4766644e-01
 -1.5583384e+00
  9.6811853e-02
 -1.5364851e+00
  5.0907487e-01
 -2.1775036e-01
 -7.4152845e-01
  1.9061637e+00
 -7.9874408e-01
 -1.2759385e-01
 -5.9292711e-02
 -5.1315881e-02
 -1.7437440e-01
 -2.9394478e-01
  1.7564274e-01
  6.0965508e-02
 -6.6982791e-02
  3.0716425e-01
  6.2071048e-02
 -2.3152183e-01
 -1.4866208e-01
 -8.0739953e-02
 -2.4674833e-02
 -3.9907765e-02
  1.3969229e-01
  3.5548005e-01
  3.1647597e-02
  1.3970664e-01
  3.3958802e-01
 -1.9037689e-01
 -9.8865551e-01
 -2.5204659e+00
  3.6924225e-01
  3.0467299e-01
  9.2508625e-03
 -5.2678144e-01
  9.5777147e-02
  8.7821603e-02
  1.0383438e-01
 -1.5117382e-01
 -8.5869029e-02
  1.3711550e-02
 -3.9532103e-02
  4.2800996e-02
 -1.1219422e-02
 -4.6563934e-04
  1.9287562e-01
 -2.0414347e-02
 -1.8321356e-03
  2.9034162e+00
  1.6856247e-01
 -6.2456466e-02
 -4.9541827e-02
  5.7619557e-02
 -3.1729713e-02
 -3.2054089e-02
  3.6397915e-02
 -1.5408874e-02
  5.8979779e-01
  2.6897164e-02
  1.4293971e-02
 -5.6831129e-02
  8.4550604e-02
  4.4033103e-02
  7.0305489e-02
  1.1625076e-02
 -2.1602647e-01
 -1.3762502e-02
  9.4912924e-02
  1.1991879e-01
  5.5722419e-02
  4.3059494e-02
 -2.2534920e-02
 -1.0602915e-02
  3.4727171e-02
  6.3314512e-02
 -4.5344587e-02
  3.6830899e-01
 -1.3923163e-03
 -2.3209324e+00
 -1.3486742e+00
  2.6911823e-03
  2.1544322e-02
  1.1406092e-01
 -7.1900494e-02
 -4.7022635e-01
  4.9527469e+00
 -9.6609242e-02
  1.5744185e-02
  2.6538417e-02
 -7.9574101e-02
  9.4936363e-02
  1.4714581e-02
 -8.9450233e-02
  1.8195519e-01
 -1.7532609e-02
 -2.2698261e-01
 -1.0484597e-01
 -2.4637599e-01
 -1.7435287e+00
 -1.1360586e-03
 -1.3094771e-01
  2.6621875e-01
 -8.5036683e-01
  2.2573290e+00
 -9.9528637e-03
  1.0446050e+00
  4.9422313e-03
  9.3702905e-02
  5.4797929e-02
 -2.6429915e-01
 -8.7438108e-05
 -3.1538397e-01
  7.7383243e-02
 -5.1421724e-02
  2.2186089e-02
 -1.3889428e+00
 -1.0334353e-01
  1.7715091e-01
 -4.0423241e-01
  9.5859945e-02
  4.4436991e-02
  1.1941374e-01
 -1.6406169e-02
 -5.6935525e-01
  2.3864761e-02
 -2.5750015e-02
 -9.6952625e-02
  2.2884443e-01
 -2.0550802e-01
 -2.1723631e-01
 -9.9879570e-02
  7.1585827e-02
 -8.1973568e-02
  5.4494705e-02
  3.2725353e-02
 -9.1037281e-02
 -9.2256570e-01
  2.3217766e-02
 -2.2750030e-01
  2.3363896e-01
 -3.8740760e-01
  4.4452619e-02
  1.0080853e+00
 -7.6972890e-01
  8.6177033e-01
  9.2314176e-02
  6.5281129e-01
  6.1535865e-01
  1.0054154e-02
  1.7709495e-01
 -3.9057262e+00
 -3.6390534e-01
 -1.4708912e+00
 -4.8355326e-02
 -6.3165640e-03
  1.2237708e-01
  3.0291393e+00
 -3.9007249e-01
 -7.3987186e-02
 -1.1304089e-01
 -2.2655971e-02
  2.3018353e-01
 -1.4255166e-01
  4.4876406e-01
  4.5998287e-01
 -1.0334858e-01
  3.5044402e-01
 -1.1685821e-01
 -1.7238107e-01
 -2.0053533e-01
 -5.0988227e-02
 -1.8472346e-02
 -2.7503005e-01
  2.1432335e-02
 -6.4503908e-01
 -7.5668520e-01
  6.2621973e-02
 -9.0860522e-01
 -7.3575594e-02
 -5.1404637e-01
 -2.7184099e-02
 -2.2000316e-01
 -2.6337180e-01
 -1.9338563e-01
  8.5971296e-02
 -2.7980173e-01
 -5.9431437e-02
  9.7636038e-01
  6.0036361e-02
 -5.0154936e-01
 -1.5802702e-02
  6.6167369e-02
 -9.3115509e-02
 -5.2321106e-01
 -1.3705509e+00
 -3.5742360e-01
  9.4005555e-01
 -2.8477781e+00
 -1.4062037e-01
  1.2026606e+00
 -1.1762357e+00
  1.7038977e+00
  1.1900535e+00
 -1.1589137e+00
 -5.1685482e-01
  2.2241023e-01
 -1.6468631e+00
 -2.4341917e-01
  6.6088814e-01
 -9.1903500e-02
 -5.1353729e-01
 -2.5777277e-01
  1.8185469e+00
 -1.6811930e-01
  2.4003422e-02
  4.1893691e-01
 -8.5211241e-01
 -3.0365881e-01
  1.5503646e-02
 -1.3702544e+00
 -8.2450874e-02
  1.9047363e-01
  1.2591131e-01
  8.0108702e-01
  4.7590815e-02
 -7.3756146e-01
  1.5392452e+00
  1.0081834e-01
 -2.1954050e+00
 -9.5632535e-01
  3.5307100e-01
 -7.9860702e-02
 -2.4882566e-02
 -8.5393742e-02
 -5.3486466e-01
 -3.7644348e-01
  5.4964375e-01
 -3.8027837e+00
 -4.6912441e-01
 -4.0919641e-01
  3.2492587e-01
  8.6229406e-02
  7.2574437e-02
 -1.0154883e-01
  1.2943998e-01
  3.7409982e-01
 -1.1151769e-01
 -6.3856035e-02
  1.5131073e-01
 -1.1562155e+00
  1.4995086e-01
 -2.8049555e-02
 -3.0527037e-01
  2.1724997e+00
  5.8918488e-01
  6.2112939e-01
  4.3125946e-02
 -4.4549525e-02
  2.1237691e-01
 -4.2267033e-01
 -7.1793653e-02
  1.0099091e-01
 -1.5728733e-01
 -7.4010462e-01
  5.1334467e-02
  5.3983908e-02
 -6.7358607e-01
 -2.0417745e+00
  4.9519883e-03
  2.2128232e+00
  7.6058231e-02
  2.7068564e-01
  5.8522254e-01
  5.8465496e-02
  1.0944215e-01
  5.7231933e-01
 -9.8777205e-02
 -2.1915440e-02
 -4.7605520e-01
 -6.6127515e-01
 -6.3507324e-01
  1.2260318e-02
  6.6378820e-01
 -2.6623926e-01
  9.2586435e-02
  6.4086691e-03
  2.6811719e-01
  7.1716130e-02
  1.0695993e-01
 -2.1905959e-01
 -1.1510460e+00
 -2.9638739e-02
  2.6183164e-01
  1.3248563e+00
 -4.0593602e-02
  1.5589692e-01
 -1.2997068e-01
 -3.8758663e-03
 -6.9853134e-02
  2.5014747e-02
  6.3837186e-02
 -1.6017289e+00
 -2.4578271e-02
  1.1961050e-01
 -1.7781045e-01
 -2.0493835e-01
  9.5766067e-04
  2.0514498e+00
  7.4387774e-02
  2.3485254e-01
  7.4219429e-01
 -2.6077163e-01
  3.7588656e-01
 -9.2593744e-02
  6.3464636e-01
  4.5601737e-02
  7.3641434e-02
 -1.8879808e-01
  1.8656185e+00
 -1.5507054e-02
  3.6227286e-01
  2.1801491e-01
 -2.7591463e-02
 -1.0579452e-01
 -2.1622935e-01
 -1.9643651e-02
 -6.3494727e-02
 -4.4162989e-01
  1.1467973e+00
  2.9907635e-01
 -3.4908465e-01
  6.6775405e-01
  1.4963229e-01
 -8.9075394e-02
 -7.1886092e-01
  1.4167358e-01
 -4.2475870e-01
  1.1848184e+00
  6.6461694e-01
 -2.4358919e-01
  2.2051825e-01
  4.1411407e-02
  3.2319698e-01
  1.1306246e-01
 -2.7589110e-01
  1.0338360e+00
 -1.2416158e+00
  3.8313353e-01
 -1.3118210e-01
  1.7623590e-02
 -1.8826030e-01
 -8.7792888e-02
 -1.9568944e+00
  1.8970866e-02
 -3.7386678e-02
 -8.8636018e-02
  3.2132378e-01
 -1.9398437e-01
  1.4552566e+00
 -4.3419342e-02
 -9.2575848e-02
 -1.8999732e+00
 -1.0966437e-01
  2.1071801e+00
 -9.4880208e-02
 -2.1598265e-01
  7.3808193e-01
 -1.4939424e+00
  8.3678144e-01
 -1.0296535e+00
  8.4622276e-01
  2.3329000e+00
  4.0784311e-01
 -9.3212467e-01
 -1.3304098e-01
  4.0379581e-01
  1.2283133e+00
  1.4571239e+00
 -5.7430202e-01
 -3.3987179e-01
 -3.2602170e+00
  1.8975161e+00
 -6.5659273e-01
 -5.0819153e-01
  1.2463584e-01
 -1.8695239e+00
  5.3527421e-01
  2.1608149e-01
  3.3392084e-01
 -1.3840252e+00
 -1.8473514e+00
  2.6102224e-01
 -5.5991721e-01
  1.6712807e-01
  7.2300315e-02
  2.3590119e-01
  4.0683171e-01
  1.8399443e-01
 -2.0725408e-01
  1.3658783e+00
  4.0987086e-01
 -1.0994728e-01
 -7.8932799e-02
  2.9805077e-03
 -2.1501441e+00
  1.0586704e-01
  1.8404740e-01
  8.1515029e-02
 -1.6278273e+00
  4.7421120e-02
 -1.2831759e-01
  2.4424899e-01
  3.4750572e-01
 -1.6284859e-02
  1.0348039e-02
  7.4132979e-01
 -1.0504547e-01
  3.8232271e-02
 -1.3111414e-01
 -9.0631813e-02
  4.4508480e-02
 -1.6574559e+00
 -4.6152510e-02
 -9.5437951e-02
 -1.4036171e-02
 -6.8018660e-02
 -1.2176514e-02
 -1.3197726e-01
  1.5890164e-02
 -7.0236884e-03
  7.6870876e-03
  6.8202885e-03
 -6.9497988e-02
 -4.6606508e-01
 -1.6670491e-01
 -6.9268502e-02
 -5.3545297e-03
 -1.0184209e-02
  3.1740351e-03
 -3.2673381e-02
  2.6818447e-02
 -1.6641982e-01
  5.1152352e-02
  3.7184972e-02
  1.0739722e-01
  9.5120899e-02
  6.8709649e-02
 -4.0527261e-03
  7.1410112e-02
 -6.8290889e-02
 -1.1283940e+00
 -3.0739736e-03
 -1.3809790e-01
  2.0231315e-01
  1.4863247e-01
 -7.9441518e-02
 -6.2093690e-02
 -1.2555941e+00
  1.0473926e+00
 -6.1656427e-02
 -1.8646692e-01
 -1.2967661e-01
 -5.6834284e-02
  4.1893221e-02
  4.8650883e-02
  2.8916070e-01
 -2.7595067e-01
 -2.6208660e-01
 -8.2563661e-02
 -5.9763217e-01
 -1.5300100e-01
 -2.9601948e-02
 -2.6110145e-01
  9.9754214e-02
  1.7586114e+00
 -1.6367533e+00
  2.1851842e+00
 -1.0559368e+00
  2.0894530e-01
 -1.7284375e-02
  5.4592979e-01
 -3.6203036e-01
  2.0184672e-01
 -1.2175407e+00
 -1.1337505e-01
  1.2728448e-02
 -5.0784039e-01
  4.3212202e-01
 -2.1560540e+00
 -3.3981922e+00
 -6.3247079e-01
  2.4846636e-01
  6.5690494e-01
  1.0851796e+00
 -1.6077541e-01
 -1.4531708e-01
 -5.4998887e-01
 -1.2315797e+00
  7.8673631e-02
  8.1711803e-03
 -2.1342805e-01
 -4.4400671e-01
  8.4738338e-01
  1.3343723e-01
 -1.2696745e+00
  2.5957136e-04
  7.5087965e-01
  1.0688778e+00
  1.7690657e-02
  4.5452702e-01
  2.0130293e-01
 -2.3539174e-01
  7.8932866e-03
 -1.4660885e+00
  3.5873752e-02
  4.7708981e-02
  2.3548752e-01
  2.5092442e+00
 -1.2881139e-02
  9.3599892e-01
  1.6031404e-01
  5.0972492e-02
 -4.2023978e-01
 -1.3534310e-01
 -3.6369777e-01
 -1.0900152e+00
  6.3512135e-01
 -3.7738240e-01
 -1.1958031e-01
 -2.5064325e-01
 -3.5137488e-03
  2.2888802e-01
  9.5184043e-02
 -2.7539821e+00
  3.6632638e-02
  7.2366133e-04
 -9.3260817e-02
 -1.9560468e-01
 -2.5349632e-01
 -1.6000228e-02
  2.5659040e-01
 -1.9467905e+00
 -8.9164656e-01
  1.9164715e-02
  3.0841265e-02
  1.6415678e-02
  1.8101417e-01
 -9.0526910e-03
  1.7167937e-02
  8.1755020e-02
  2.4748544e-01
  2.4288451e-02
  1.0258599e-01
  1.0404655e+00
  1.4414652e-01
 -3.6954501e-01
  3.4757156e-02
  3.7680021e-01
  1.5361685e-01
 -1.5610830e-01
  1.6970526e-01
 -2.7815243e-02
  7.2955273e-02
 -6.5599799e-02
  1.3223349e+00
  9.1460004e-02
 -2.3642229e-01
  1.4280625e-01
 -1.6438340e-01
  1.1288213e-01
  8.8698501e-03
 -1.5406570e-01
  3.7822895e-02
  2.0266579e-01
  1.2838344e-01
  1.1037911e-01
  8.5376790e-03
  1.0562465e-02
 -8.3628558e-03
  1.5860246e-01
  5.7131838e-02
  7.5279754e-01
 -5.4646790e-02
  9.1663912e-02
 -2.6942986e-01
 -3.9182219e-01
 -1.9044065e+00
  1.0164922e-01
 -4.6306697e-01
 -2.9055735e-01
  7.8330451e-01
 -2.5874834e+00
 -8.8021666e-01
  7.1141332e-01
  1.3387851e-01
  2.6597505e+00
  1.1600847e+00
 -1.1825143e+00
 -4.8364353e-01
  4.3760708e-01
  2.4174780e-02
 -7.8415364e-02
  2.1757965e+00
  6.3742623e-02
  8.5896589e-02
  3.8079369e-01
 -7.6075798e-01
  8.9183651e-02
  1.5037549e-01
  3.2259071e+00
  8.1173128e-01
  5.8128691e-01
  2.5787990e+00
 -1.8499787e+00
  8.8969123e-01
 -1.0922648e-03
 -6.3148737e-01
 -4.2801943e+00
 -2.5075140e+00
  1.6150812e+00
 -1.1833857e+00
  2.0339582e+00
 -1.8430928e+00
  3.5011694e+00
 -8.4069610e-01
 -3.3697014e+00
 -1.7628109e+00
 -3.4646411e+00
 -1.3904476e-01
  6.9516778e-01
  3.3778094e-03
 -1.3017270e-01
 -6.8715811e-01
  1.0764148e-01
 -1.2283531e-01
  5.8845365e-01
  8.7128186e-01
 -3.2373348e-01
 -1.2134969e+00
  5.5069005e-01
  1.5420437e-01
  4.3408203e-01
  1.7779551e-01
 -1.1476785e-01
 -1.0851914e-01
  3.2286562e-02
 -1.2564532e+00
 -1.7927589e-01
 -3.0066925e-01
 -3.5565279e-02
 -2.6108501e-02
  6.2108026e-03
 -4.4567497e-03
  1.4069790e-02
 -3.2866299e-02
  3.7924317e-03
  7.3059507e-02
 -1.3544204e+00
  3.2620430e-02
  5.4850519e-02
 -1.2784097e-01
 -8.1344828e-02
  3.2174833e+00
 -1.5386450e-01
  1.6731612e-01
 -3.1116890e-02
 -9.3723558e-02
 -1.4546125e-02
  2.6554527e-02
 -1.2902100e+00
 -1.8661788e-02
  9.8120607e-02
  3.4595913e-01
 -1.1756148e-01
 -2.2081758e-03
 -9.5011018e-02
 -9.2146873e-02
 -6.7327894e-02
  1.1136987e-02
 -9.1407793e-03
  7.9221847e-03
 -6.5488838e-02
  7.7154972e-02
  3.9885387e-02
 -8.6356767e-02
 -2.0403722e-01
 -1.9534590e+00
  1.8805216e-01
 -3.9382253e-02
  1.0543891e-02
  6.4579320e+00
 -5.7638455e-02
 -2.1599619e-02
  6.4041987e-02
  5.0180025e-02
 -3.4428474e-01
  2.9036226e-02
  1.0078297e-01
  6.9700755e-02
 -1.2245992e-01
 -2.2161637e-01
  1.2007735e-03
 -1.2331986e-01
 -1.7990521e+00
 -1.2974061e+00
  3.1970210e-02
 -1.2094332e+00
  3.8793515e-02
 -3.4772418e-02
 -2.2838011e+00
  1.8227328e+00
  4.0263474e-02
 -2.5571492e-01
 -1.2209512e-01
  6.8564397e-01
 -2.4115400e+00
  1.8334992e+00
  1.2151474e+00
 -2.0835865e+00
 -3.2223544e-01
 -1.2412372e+00
  2.0975555e-01
 -5.6573999e-01
  1.9334509e+00
 -2.8539641e+00
 -9.3860209e-01
 -2.1069016e-01
 -4.1468769e-02
  8.2894884e-02
  5.6991886e-02
  6.0969643e-02
 -5.6891543e-01
  3.0215797e-01
  7.7402480e-02
 -3.9341721e-01
 -3.6810216e-02
 -2.6247537e+00
  1.2602810e+00
 -1.8307528e+00
 -3.7244964e-01
  2.1090955e-01
 -2.6797097e+00
 -1.2333724e-01
 -1.3971165e-01
 -1.2664519e-01
  6.9392854e-01
  1.2991687e+00
  1.2702974e-02
  4.5538247e-02
  2.7793369e-01
  3.4891778e-01
  1.8026555e-01
 -5.1592276e-02
 -6.8765604e-01
  6.6368037e-01
 -1.0659550e+00
  1.9270788e-01
 -3.3458449e-02
  7.1248026e-03
  4.4216967e-01
  1.5985798e+00
  3.9290611e-02
 -1.3244709e+00
 -4.8115775e-02
 -3.3658293e-01
 -3.5665351e-01
 -1.9310372e-01
  6.6200972e-01
  4.3083155e-01
 -4.4148219e-01
  4.1083041e-01
  8.5445352e-02
 -1.1458100e-01
  2.9678336e-01
  1.1833615e+00
  5.3899925e-02
  9.4701514e-02
  5.5022702e-02
 -8.3078131e-02
  4.2382523e-02
  1.4013875e-01
  8.8545674e-01
  4.1358763e-01
 -5.5419910e-01
 -1.6422258e-01
  2.4027601e-01
 -1.2846014e+00
  3.1460312e-01
 -1.6617730e-01
  1.1626152e+00
 -7.6441664e-01
  5.2457452e-01
  2.0220002e-02
 -1.9395700e-01
  1.9938834e-01
  3.4322435e-01
  5.3482944e-01
  1.2613304e-01
  9.2486352e-01
  4.9675524e-02
 -6.3870410e-03
 -5.0280982e-01
  8.1882507e-02
  2.1366315e-01
  3.9800489e-01
 -1.1851670e-01
  3.2354403e-01
 -2.2615437e-01
  2.7122113e-01
 -8.2412504e-02
 -1.2930019e-01
  5.4623681e-01
 -6.7817487e-02
 -2.4820136e-01
 -1.3215971e-01
 -2.4779275e-01
 -7.7118069e-02
 -5.1072526e-01
  2.3910335e-01
  1.2883947e-02
 -1.3803864e-02
  4.0103201e-02
  2.0029090e-01
 -1.1984016e-01
  3.7442243e-01
 -1.6716585e+00
 -8.3506070e-03
 -7.6207821e-03
 -4.0186442e-02
 -2.6025316e-01
 -2.8476664e-01
  7.8238294e-02
  1.0603381e-01
  1.7790660e-01
 -2.7911961e-01
  6.2152341e-02
 -1.5944642e-01
 -1.4256440e+00
  3.4255442e-01
  4.7133487e-02
 -5.2789509e-02
 -1.9538055e-01
 -9.3040325e-02
 -4.7410851e+00
  1.6704965e-02
 -2.0596480e-01
 -7.4745592e-05
  1.0059363e-01
  3.0337416e-02
 -3.7595164e-02
 -6.0835952e-01
  8.2917780e-02
 -1.2060973e-01
 -2.0395787e-01
  8.5501188e-01
  1.5458143e+00
  4.4415426e-01
  3.2644504e-01
 -2.9662462e-02
 -1.3476710e+00
 -7.5512916e-01
  4.6488095e-02
  6.1065997e-03
  8.2154453e-01
  7.2950274e-02
 -1.1287469e+00
  8.9045858e-01
  8.9349318e-01
  1.3617646e+00
 -4.5978239e-01
 -6.8533279e-02
  3.3988091e-01
 -1.4874785e-01
  7.1261294e-02
  3.6479476e-01
 -6.2685281e-02
  1.8524890e-01
 -1.4735171e+00
  2.1765279e-02
  3.6858147e-01
  1.0541365e-01
 -7.1728730e-01
  4.5823370e-04
 -4.5991190e-02
  5.0789069e-02
  6.5080839e-01
  8.2377143e-02
 -4.0898714e-02
 -1.9665983e-01
  8.6638778e-01
 -1.8555374e+00
  2.1610414e-03
 -5.2476391e-02
  5.3275935e-02
  3.0117899e-01
  1.3739258e-01
 -3.8259896e-03
 -8.6677456e-01
 -2.4372390e-01
 -7.4659842e-01
 -2.0640247e+00
 -3.8430907e-02
  6.7470878e-01
  1.0401807e-01
  2.2973593e-01
  8.6998031e-02
 -5.9657235e-02
  4.5555043e-01
  3.1398708e-01
  8.9132339e-01
  6.4415187e-01
  2.2855033e-01
  2.3897986e-01
 -1.2281840e+00
  1.4883463e+00
  9.8141026e-01
 -2.2790577e-01
 -3.7968850e-01
  6.5303624e-01
  1.5782019e-01
 -1.7243975e-01
 -2.3321483e+00
  2.1462874e+00
 -3.0618782e+00
  6.0670191e-01
 -2.8372424e+00
  7.8441703e-01
  2.0672777e+00
  1.6678177e-01
  1.3355958e+00
  8.4066413e-02
 -8.7541306e-01
 -1.1811147e+00
  1.7259467e+00
 -1.6861966e-01
 -3.3150663e+00
  1.2585539e-01
  1.5091524e-01
  1.1899908e-01
 -2.5509794e+00
  3.9331877e-01
 -1.1392471e+00
 -8.1052411e-01
 -2.1691685e+00
 -8.7693208e-01
  2.2209675e+00
 -2.7694805e+00
  7.1325791e-01
  2.0787411e-03
 -3.7306523e-01
 -6.1826730e-01
  3.1145737e-01
 -2.8926554e+00
  2.8407815e-01
  1.1735758e+00
 -3.3010476e+00
 -1.5851802e-01
 -4.5309387e-02
  2.7296809e-02
 -3.0537348e-02
  6.6874303e-02
  8.5029930e-01
  2.7963427e-01
 -7.7800202e-01
  4.7512922e-01
 -3.4506404e+00
 -1.1348055e-01
  4.7672743e-01
 -1.7684940e+00
  1.5455439e+00
 -1.3537611e+00
  2.6201674e-01
  2.8381495e+00
  1.2417606e+00
 -6.5291899e-01
 -1.8626934e+00
  1.6452975e+00
 -2.5290973e+00
  2.1572106e+00
  7.7435696e-01
  6.9399023e-01
  1.1228526e-01
  3.1135085e-03
  4.5727402e-01
 -2.7104992e-01
  4.2413631e-01
 -2.2066140e+00
 -1.3459647e+00
 -2.3519404e-01
  2.1929257e+00
 -8.1085300e-01
 -1.2428731e+00
  2.0445709e+00
 -1.9962790e+00
 -5.6586928e+00
 -1.8678668e-01
 -5.4080766e-01
 -9.7915053e-02
 -2.3551207e-02
 -2.4295166e-02
 -1.3736445e+00
  4.2222208e-01
 -9.4869047e-01
 -5.2116877e-01
 -9.7724426e-01
  9.4582242e-01
  1.0241194e+00
  1.0990160e+00
 -1.2368110e+00
  1.5041054e+00
 -1.4745178e+00
  7.4907437e-02
  2.5380304e-01
 -1.1440873e-01
  2.5996211e+00
  4.4585022e-01
 -1.7532322e-01
 -1.7661348e-01
  2.9172167e-01
  1.1767732e+00
  5.6136996e-01
  5.0063038e-01
 -4.0806350e-01
 -1.2950327e-01
  1.0225697e+00
  6.3209110e-01
  4.7892511e-01
  2.7495496e-02
 -1.3528525e+00
 -3.2695398e-01
 -2.7000242e-01
  2.3724195e-01
  1.4884906e+00
 -3.3403480e+00
 -1.3575687e-01
 -4.8314986e-01
  1.5419593e+00
  1.1463777e+00
  7.3719782e-01
  1.6198117e+00
 -3.4607401e+00
 -2.5268679e+00
 -2.9403858e+00
  4.0967422e+00
 -6.6660857e-01
  2.5416498e+00
 -1.3092595e-02
 -1.3126764e+00
  4.1632834e-01
 -3.5530720e+00
  5.5723846e-02
 -1.9549154e+00
  2.2230847e+00
 -4.4557936e-02
  1.5923975e-01
  1.0736583e+00
 -2.4013375e-01
  3.4023139e+00
 -4.8860013e-01
 -1.1089172e-01
  2.4495900e-01
  9.9190569e-01
 -5.3937268e-01
  7.4926496e-01
 -7.4700963e-01
 -1.2501401e-01
  3.4266385e-01
  2.4111464e+00
  1.1088683e-02
 -2.3869365e-01
  9.3955904e-01
 -2.0458987e-02
 -2.7199507e-02
  5.8174957e-02
  4.6633714e-01
  7.1971221e+00
 -4.6877018e-01
  1.0749726e+00
  2.8616872e-01
  2.5555673e-01
 -1.2291033e+00
  5.3129095e-01
 -2.2815500e-01
 -1.0912591e+00
  5.4672468e-01
  2.3620792e-01
 -1.9787110e+00
  2.6293913e-01
 -5.1106954e-01
  1.9997767e+00
 -4.4492251e-01
 -1.0579246e-01
  5.1178429e-02
  5.8572325e-03
  1.4933112e-01
 -1.9806838e-01
 -4.7204983e-03
 -6.6457861e-03
 -7.1039788e-02
 -2.3482172e-01
 -8.3687782e-02
 -5.7438958e-01
  2.3529507e-01
 -6.2994219e-02
 -1.2837257e-02
 -4.6431664e-02
 -3.3675343e-01
 -2.0630138e-01
  1.1836585e+00
 -8.9249633e-02
 -2.4304742e-01
  3.5248328e-02
  8.5474215e-02
 -6.4937156e-01
 -1.4082655e-02
  6.6438705e-02
 -8.2425028e-02
  6.6305089e-01
  1.3371658e-02
  3.1076664e-02
 -1.4037588e-01
 -5.3203315e-02
 -8.3106626e-03
  1.3966866e-02
  1.3295218e-02
  5.0984913e-01
  4.8765332e-02
  3.2242343e-01
 -5.5234056e-02
 -8.3681352e-02
 -1.8285002e-01
 -6.0012292e-02
 -2.7406881e-02
 -7.3758316e-01
  2.6608903e+00
  2.2693682e-01
  6.1891779e-02
 -7.2138357e-01
 -9.4678295e-01
 -7.8815377e-01
  4.2446765e-01
  7.3324934e-02
 -7.2807819e-01
 -2.8081629e+00
 -2.8133166e+00
 -4.9391514e-01
 -1.6158819e-02
  9.8605102e-01
  2.0462582e-01
 -1.4432772e-01
  6.2736079e-02
 -1.7275667e-01
  6.5671784e-01
 -2.4557634e-01
  2.8819317e-01
 -8.4320515e-02
  6.5173042e-01
  1.5070776e-02
 -4.8104366e-03
  3.2305080e-02
  3.5840020e-01
  2.0854641e-02
  9.1570780e-02
 -9.5159493e-02
 -5.2668649e-01
  6.3898754e-01
 -8.9531749e-01
 -6.2793678e-01
 -2.4951730e-02
 -5.9723544e-01
  2.5635481e-01
 -1.2404357e+00
 -2.1440701e-01
  5.1504761e-02
 -1.3478679e-02
  3.8702449e-01
  1.5790887e-01
 -1.9252777e-02
 -1.5552319e-02
 -7.5187042e-02
  4.3287454e-03
  2.2302699e-01
 -3.1885974e-02
 -1.3478111e-02
 -1.4613232e-02
  2.2546084e-01
 -1.2950769e-01
 -3.6652457e-02
  7.6404959e-01
  4.9203220e-03
 -3.7890926e-01
 -1.0063881e-01
  9.0090670e-02
 -4.9015161e-02
 -9.8956190e-02
 -1.2235286e+00
  2.1794578e-01
  5.1296107e-02
  1.3127688e-01
  4.9488997e+00
 -3.5265082e-01
 -4.8356783e-02
  3.9167315e-02
 -1.1984197e-01
 -1.5812854e+00
 -5.5717155e-02
 -2.0419359e-02
 -1.3582325e-02
 -3.2965194e-02
  9.7371630e-02
  1.2701662e-01
 -4.6266425e-02
  5.3934049e-02
 -2.7521345e-01
 -4.6035230e-01
  1.3141916e-02
 -8.7120384e-02
 -2.2368355e-01
 -3.1797037e-02
  9.9892929e-02
  4.6523530e-02
 -7.3856721e-03
  5.5783734e-02
  2.2033785e-02
 -1.6654460e-02
 -1.3850629e+00
 -1.8241429e-01
 -1.5920955e-01
 -4.0256400e-03
  1.2609176e-01
 -2.6245262e-02
  5.6308247e-02
  1.3861061e-02
  2.0676212e-02
 -3.6706124e-02
 -5.9726007e-02
  2.6629744e+00
 -2.7044987e-02
 -6.7376927e-02
  9.3198337e-02
 -5.1669967e-01
