nep4 4 Na B C N 
cutoff 8.5 5.5 152 48
n_max 10 8
basis_size 10 8
l_max 4 2 0
ANN 50 0
 -7.8789731e-03
  3.1766245e-01
 -1.0685022e-01
 -1.1186870e+00
  3.8390238e-02
  9.7388685e-01
 -3.8450110e-01
  6.3768750e-01
  5.1166099e-01
 -1.3317651e+00
  2.2898617e-03
  3.3928979e-02
 -2.7814481e-01
 -3.0761559e-02
 -5.2084142e-01
  6.4062566e-01
 -2.0827237e-01
 -2.9975948e-01
  8.3715901e-02
  1.2402613e-01
 -2.8222051e+00
  4.4306123e-01
 -3.3676559e-01
  4.5508328e-01
  5.6361538e-01
  2.3431580e-01
 -4.5626646e-01
 -1.2395909e-01
  2.4038309e-01
 -1.6281268e-01
  8.2557656e-02
  5.5524218e-01
  4.3977636e-01
  1.6239090e-01
 -7.3361605e-01
 -1.2272067e-01
 -6.3095325e-01
  1.3606498e-01
 -2.6738185e-01
 -9.9232206e-03
  6.9374245e-01
 -8.2952701e-02
 -9.7949885e-02
 -6.7268796e-03
  1.6464894e-01
  7.6055932e-01
  2.7168190e-01
  1.6246654e-02
  9.0767980e-02
 -2.4534577e-01
 -1.3998722e-01
  5.0225448e-02
  1.8369559e-02
  2.0850874e-01
  3.8648668e-01
  2.9511234e-01
  2.1082866e-01
  1.7767593e-01
  2.5815770e-02
  7.9101187e-01
 -1.7703667e-01
 -8.5259026e-01
 -7.0504797e-01
 -5.4795510e-01
 -2.7881926e-01
 -6.6674286e-01
 -3.9615941e-01
 -1.4701022e-01
  7.9090491e-02
  2.5473356e-01
 -8.9548051e-02
 -9.5744155e-02
 -9.8111019e-02
  2.2228435e-01
  8.0800667e-02
  4.4951841e-01
  6.8167366e-02
 -6.3191004e-02
 -1.3483219e-01
 -1.9212049e-02
 -1.0517369e-01
 -5.9563881e-01
 -3.2964587e-01
  1.1528357e-01
 -5.8263344e-01
  3.2945683e+00
  1.0705195e-01
  3.8596997e-01
 -1.3043516e+00
  2.1150166e-01
 -3.7535337e-01
 -3.2824567e-01
 -3.7068972e-01
  5.1736284e-02
 -2.9749557e-01
  3.7612876e-01
  2.3297899e+00
  7.2732955e-02
  2.5026637e-01
 -4.9360716e-03
  6.8526441e-01
  5.2639462e-02
 -4.4561304e-02
  2.0393743e-01
  6.7832047e-01
  1.0215155e-01
  1.8258874e+00
  6.0076195e-01
  2.0852993e-01
 -4.0053090e-01
  1.8566959e-01
  9.9418946e-02
 -7.3834737e-03
  3.3739218e-01
  1.0128063e-01
  9.1355376e-02
 -2.7970123e-01
 -3.5481015e-01
 -1.6680595e-01
  2.7347472e+00
  5.1941432e-02
  1.0227386e+00
 -1.0815627e-02
 -1.6418630e-01
  1.1820208e-01
  3.8478839e-01
 -3.3078560e-01
  1.8880375e-01
  3.4521785e-02
 -1.1254067e-01
 -7.0875490e-01
 -3.0061373e-01
 -1.6901976e-01
 -1.2600808e-02
 -4.6373743e-01
 -7.3449872e-02
  9.1733694e-02
  7.3369509e-01
  1.8956935e-01
  5.5890590e-01
 -2.4290259e-01
 -2.9217088e-01
 -6.5271653e-02
 -4.7806841e-01
  1.8784007e-01
 -1.0666528e-01
  2.4150400e-01
  4.6411994e-01
  2.2828662e-01
 -5.3102255e-01
  2.6145449e-01
  2.0775644e-01
 -8.8750355e-02
 -6.3765780e-03
 -3.2366265e-02
  2.1644250e-01
  1.4352396e-01
 -1.0632583e+00
  1.4885715e+00
 -8.1325069e-02
  2.6402679e-01
 -1.7613272e-01
  2.8802520e-01
 -7.9514736e-01
 -3.4113702e-01
  5.4932572e-02
  3.5032681e-01
  1.0779159e-01
  1.2863445e-01
 -1.4317781e-01
 -1.3311315e+00
 -2.1967755e-01
  3.4552518e-01
 -7.0954645e-01
 -3.3988424e-02
 -1.0421047e+00
 -1.4558943e-01
  1.1301322e-01
 -1.5201923e-01
  2.8747717e-01
  1.6526403e-01
 -1.6776004e-01
 -2.5185406e-01
  1.4560902e-01
  3.9625734e-02
 -1.1414376e-01
 -7.3256654e-01
 -3.4156317e-01
  5.3325862e-01
 -1.5136921e-01
  4.6916649e-02
 -5.4439865e-02
 -1.0933701e-01
 -1.0291149e-01
 -7.8038342e-02
  5.8093127e-02
 -1.2593104e-01
 -1.5535078e+00
  5.1509559e-01
  1.9324780e-01
  2.0612873e-02
  3.7980193e-01
 -5.7223652e-02
 -6.5100081e-02
  1.4645183e-01
 -4.0033245e-01
  2.0404679e-01
 -2.7333689e-01
 -1.9491541e-01
  6.2418431e-03
  5.4512495e-01
 -1.5304790e+00
  1.5191877e-01
 -1.8415643e-02
  2.9018390e-01
  3.4418055e-01
 -4.6506423e-01
 -4.6520400e-01
  1.1630393e+00
  1.3299300e-01
  2.3284265e-01
  1.1888159e-02
 -4.9048024e-01
 -3.0837604e-01
 -3.6102764e-02
 -1.9342014e-01
  4.5334932e-01
 -1.0991891e-01
  1.7129707e-01
  1.0364938e+00
  2.2084825e-02
  5.3155148e-01
  2.2161500e-01
  4.3138942e-01
 -3.0648887e-01
  1.3088131e-01
  6.2775470e-02
  1.6463509e-01
  1.3985506e-01
 -3.9086139e-01
 -3.6405468e-01
  8.3007537e-02
  3.5380495e-01
 -4.3218471e-02
  1.0832284e-01
 -1.0202392e-01
  4.5657462e-01
  1.0530416e-01
 -1.2066033e-01
  9.0872276e-01
 -1.5657049e-01
 -1.8007293e+00
 -5.0079447e-01
  3.6453274e-01
 -2.0766370e-01
 -9.6243912e-01
  4.3593457e-01
 -1.5421306e-01
 -1.1616029e-01
  1.2247424e-01
  9.7305375e-01
 -9.0905398e-02
  1.3272981e-01
 -9.5375770e-01
 -2.2161245e-01
 -4.6956581e-01
 -2.8724870e-02
  2.4458928e-01
 -1.3640505e-01
  1.6327414e-01
  2.3807897e-01
  2.5798259e-02
 -1.5596353e-01
  2.3751600e-01
 -1.3980998e-01
  2.1927387e-01
  4.4377964e-02
 -9.1574397e-03
 -1.6769944e-01
  6.2366642e-02
 -9.4241016e-02
 -5.3824734e-02
 -1.7459925e-01
 -1.3311919e+00
 -4.3107700e-02
 -9.9044880e-03
 -2.6574951e-01
  5.4721290e-01
  1.0270161e-01
  1.4500515e-01
  2.9622472e-04
 -5.5174399e-02
 -3.4462165e-02
  4.8638318e-02
 -9.5424980e-02
  6.7070380e-02
  1.2604466e-01
  2.0931669e-01
 -3.9340311e-01
  6.7372106e-02
 -1.0477903e-01
 -1.9245090e-01
 -2.3908934e-01
 -4.4792078e-02
 -1.5978869e+00
  7.9272076e-02
 -1.8855044e-01
 -2.5828904e-01
  2.4536422e-02
  2.7090451e-01
 -2.1700032e-01
 -1.2126067e-01
 -1.0014000e-01
  2.2737929e-01
 -5.5600023e-01
 -3.6735246e-01
  1.4238870e-01
 -4.3251913e-02
 -7.8436077e-02
  1.4325154e+00
  5.9836972e-01
 -1.3757341e+00
  9.1162413e-01
 -4.8340347e-01
  1.9631758e-01
 -4.5595668e-02
 -1.0053885e-01
  5.1073128e-01
  4.3529859e-03
 -3.3569613e-01
 -5.2954584e-01
  2.0365381e-01
 -7.4369535e-03
  3.2883337e-01
  9.6956221e-03
  1.8364655e-02
 -8.6476207e-02
  7.4991122e-02
  1.3023288e+00
  1.3750178e-01
 -5.9013063e-01
  7.4772763e-01
  2.2360124e-01
  1.0516908e+00
  7.3028281e-02
 -5.4631919e-01
 -2.8622547e-01
  5.1844284e-02
 -1.3406564e-01
 -1.7923108e+00
  1.1886569e-02
  2.3287483e-01
 -6.5316403e-01
 -7.3433179e-01
 -6.3594085e-01
  5.6545866e-01
 -3.9723757e-01
 -4.1811172e-02
 -6.7813367e-01
  4.7410527e-01
 -8.8461556e-02
  1.4466400e-01
 -2.9857662e-01
 -4.0706702e-02
  1.5280561e+00
  2.3413982e-02
 -7.0865834e-01
 -7.7406347e-01
  5.0168443e-02
 -1.4971259e-01
  2.2319399e-01
 -2.5937232e-01
 -1.7920704e-01
  6.1120337e-01
  3.7400937e-01
  3.7116669e-02
 -5.5280872e-02
 -3.4902057e-01
 -2.8248164e-01
 -4.1653195e-01
 -7.2426063e-01
  4.1114557e-01
  9.1959611e-03
 -2.4196671e-02
 -8.8222057e-02
  2.0923612e-01
 -1.0166467e+00
 -1.6383913e-01
 -7.2127185e-03
  5.9458101e-01
  4.7519370e-03
 -3.8088509e-01
  3.9287460e-01
  5.7098114e-01
 -3.7324774e-01
 -8.8958478e-01
 -2.7382460e+00
 -3.3175650e-01
  2.2713239e-03
  4.5822624e-02
  3.7197110e-01
 -7.2260775e-02
 -3.4594515e-01
 -1.2172329e-01
  2.7786875e-01
  4.9747966e-02
 -7.2267866e-01
 -2.5073963e-01
 -1.1279787e-01
 -4.9121919e-01
  1.4947148e-01
 -1.4153814e-01
 -1.4227997e-01
 -7.5449955e-01
  6.2709451e-01
 -4.2871717e-02
  1.3191390e-01
 -1.2809859e-01
 -4.2075533e-02
  1.0407265e-01
  2.3141258e+00
  4.5379806e-01
  1.6280088e+00
 -6.2237687e-02
  2.1774843e-01
  1.7197254e-01
 -3.2538140e-01
  1.4190993e-01
  1.3320068e-01
 -2.3870739e-01
  1.5439962e-02
 -3.3472785e-01
 -6.4307338e-01
  3.1337431e-01
 -8.5811570e-02
  5.0316870e-01
 -7.1765535e-02
 -1.2135557e-01
 -6.7883424e-02
 -1.0257854e-01
 -2.1648204e-02
 -5.5412269e-01
 -1.2858482e-01
 -1.4644098e-01
  5.0637221e-01
  3.9904146e+00
 -1.8617289e-01
 -4.9782347e-02
 -1.7858169e+00
 -4.5509905e-01
 -1.3091542e+00
  2.3278894e-01
  1.6539837e+00
  1.9169879e+00
 -1.0358506e+00
 -9.9226546e-01
 -5.2012514e-02
 -2.3763450e-02
  2.7659273e+00
 -1.4381596e-01
 -7.5170392e-01
  1.3654443e-02
 -1.9470124e-01
 -3.5259768e-01
 -5.9803027e-01
 -1.3868167e-01
  1.7612968e-01
 -1.4060169e-02
  2.1695547e-01
  1.0381429e-01
 -4.7553595e-02
  1.7427543e+00
  7.8192037e-01
 -8.0205417e-01
  2.2220801e-01
  2.1751194e-01
 -7.9163980e-01
  1.2743960e-01
 -3.0592915e-01
 -2.3187341e-01
 -1.5259941e-01
  2.7518207e-02
 -4.0428591e-01
  2.8958091e-01
 -2.2927254e-01
 -1.8728406e+00
 -6.2270564e-01
 -1.4187695e-01
  5.8382094e-02
 -1.9251221e-01
 -5.5857170e-02
  1.6973418e-01
  4.1380867e-01
  1.2419149e-01
  6.8872459e-02
  1.3096371e-01
  4.0018675e-01
 -1.2792715e-01
 -1.8972801e-01
 -7.1994744e-02
 -1.7399874e-02
 -3.4574252e-02
 -1.1801285e-02
  1.8082011e-01
 -2.2474256e-01
 -6.7685783e-01
 -6.0422271e-01
 -5.3519711e-02
 -2.3438182e-01
 -2.0678835e-01
 -4.0620324e-01
  3.1459928e-01
  1.1732420e-02
 -1.5088785e+00
 -5.8844995e-01
 -1.6989602e-01
 -4.9473423e-01
  6.1697368e-02
 -4.1357997e-01
  6.9002241e-01
 -6.4967632e-01
 -1.2199628e-01
  1.7352615e-01
 -5.6135619e-01
  2.4907199e-01
  4.4283456e-01
  1.1612211e+00
  5.3304389e-02
  3.6300471e-01
 -1.2049139e-01
 -2.3995096e-02
  1.8644597e-02
 -4.2649201e-01
  1.4413019e-01
  1.0111700e+00
 -1.2908603e-01
  5.9114701e-01
  2.4913626e-02
  1.1022031e-02
  1.7002009e-01
  8.2049549e-02
 -2.4228954e-01
 -2.4820039e-01
 -6.9556525e-03
 -1.3865153e-01
  1.2785514e-02
  7.4695289e-02
  2.6585804e-02
 -1.5583113e+00
  3.9588490e-01
 -2.5212793e-02
  4.8862146e-03
  4.5779794e-01
  4.8095518e-01
  8.4936577e-01
  4.5029527e-01
  2.4543424e-01
  7.2071725e-01
  4.6688449e-03
  2.3691240e-01
 -6.2521756e-01
 -7.8778338e-01
  8.0644166e-01
  3.3942774e-01
 -2.8086993e-01
  8.0616735e-02
  3.2261527e-01
  6.1006439e-01
  1.4430565e-01
  2.4052892e+00
 -3.3727527e-02
 -1.3051726e-01
  5.4869272e-02
  9.7776391e-02
 -5.5893147e-01
 -5.0498241e-01
  1.3805733e+00
  4.2382044e-01
 -5.7591543e-02
  7.3186624e-01
  5.0519657e-01
  5.1238018e-01
  1.6203235e-01
  4.4231135e-01
  1.6085821e-01
 -9.4022751e-02
 -3.8762373e-01
 -2.9890838e+00
  3.7958547e-02
 -3.3805326e-02
 -9.0179220e-02
  4.5385309e-02
  3.2119223e-01
 -6.3101049e-03
  1.0076753e-01
 -5.5389106e-01
  6.8400717e-01
  1.8566965e-01
  2.1762135e+00
  3.4291175e-01
 -4.7759277e-01
 -1.4862470e-01
  7.7939220e-02
  4.5341104e-01
  8.6902596e-02
  1.3348545e-01
  6.3559501e-03
 -1.4670426e-02
  2.8074133e-01
  4.0536970e-01
 -2.2834182e-01
  5.8639336e-02
  9.7223938e-02
 -3.4490153e-01
  2.8459993e-01
 -1.3311014e-01
 -2.6960906e-01
  1.3955010e+00
 -7.1008837e-01
  4.1233273e+00
 -1.8287005e+00
 -1.1318668e+00
  3.0185685e+00
  2.3793936e-01
 -1.3791867e+00
 -3.5878798e-01
 -5.5409789e-01
 -7.7988631e-03
 -9.2016935e-02
 -1.6264511e+00
  1.8515286e-01
 -1.0151026e+00
  5.0763941e-01
 -1.6559519e-01
 -2.3890537e-01
  3.0471429e-01
 -9.9579805e-01
 -2.9211202e-01
  1.1018023e-01
 -2.7294633e-01
 -8.3821201e-01
  6.2888044e-01
 -2.8695920e-01
  2.2577689e+00
  7.7760506e-01
  1.4316418e+00
 -3.6192444e-01
 -5.5769062e-01
  1.7013405e-02
  3.1132376e-01
  6.6260952e-01
  2.9790854e+00
  1.3085235e+00
 -9.3971157e-01
  2.4167071e-01
  4.8554450e-02
  1.4620258e-01
 -1.4060347e+00
 -3.8514242e-01
  1.2761548e+00
  9.1536981e-01
 -3.5078458e-02
  8.4698163e-02
 -1.5759364e-01
  2.1583290e-01
 -1.4706089e-01
  8.2081772e-02
  2.1023640e-01
 -3.1336520e-02
  8.0444187e-02
  3.7492089e-02
 -1.4698972e-01
 -1.3707286e-01
  1.0647610e-03
  1.8415474e+00
  1.5205473e+00
 -1.8202510e-02
  1.4073111e-02
  3.5393998e-01
 -9.7521037e-02
 -1.3513228e-01
 -7.7167630e-02
  1.1099796e-01
  5.7169014e-01
  5.2799010e-01
 -9.5707290e-02
 -2.8677383e-01
 -1.3509698e-01
  3.5267163e-02
  4.6896759e-01
 -2.5382584e-01
  4.2944300e-01
  3.5336301e-01
 -5.5329341e-02
  9.3925875e-03
 -1.5382563e-01
  2.6423210e-02
 -4.5685622e-01
  4.1226059e-01
  4.0519747e-01
  3.8894102e-01
  1.7531134e-01
  1.3400018e-01
 -9.0275235e-02
  1.0991491e-01
 -3.0184999e-01
 -6.3330460e-01
 -2.7544770e-01
 -2.4088341e-01
  5.5187237e-02
  4.8766857e-01
 -4.6561796e-02
  1.7099085e-01
  2.5206424e-02
  2.0795320e-01
 -4.2234725e-01
  1.2767920e-01
 -1.3149567e-01
 -5.1526392e-01
  1.8385799e-01
 -8.0425687e-02
 -1.8378793e-01
 -8.7753803e-01
 -1.9487077e-02
 -9.4826229e-02
  3.3142245e-01
  5.6708075e-02
  9.4346358e-03
  1.6856629e-01
  6.4554906e-01
 -7.0246041e-02
 -2.2474703e-01
  6.8949693e-01
 -4.3861661e+00
  2.4787918e-01
  1.9394988e-01
  1.4576308e-01
 -8.7883973e-01
 -3.8465053e-01
  5.4369032e-01
 -1.1475925e-01
  1.0048229e-01
 -8.3202548e-02
 -4.9884421e-01
  5.7790694e-03
 -4.9881320e-02
 -6.1026514e-01
  1.0876598e-01
 -1.6243133e-01
 -1.9784506e-01
  3.6596617e-01
 -1.1602069e-01
  1.8099096e-01
  2.6560396e-01
 -1.4087579e-01
  1.7285323e-02
 -4.9125526e-02
 -1.1025673e-02
 -6.4085433e-03
  5.0985530e-02
 -9.8130263e-02
 -2.6625609e-01
  1.0723485e-02
 -5.8547461e-01
  3.2694432e-01
  8.1495516e-02
  2.9038447e-01
 -5.4073447e-01
 -4.1846877e-01
  6.5672897e-02
  8.4629558e-02
  3.1250901e+00
  7.6676503e-02
 -4.1207528e-01
 -2.3139273e-01
  5.8369908e-02
  2.7268875e-01
 -3.5717103e+00
  3.5211596e-01
 -1.0256825e-01
  1.2901229e-01
  3.1015611e-01
  1.6354291e-02
 -2.5088723e+00
  5.9171941e-02
 -1.0802428e+00
 -2.3742604e-01
  2.2723250e-01
  5.7433043e-02
  8.3468658e-01
  4.8585603e-01
 -6.6784418e-01
  4.6783757e-01
  2.2709046e-02
  4.6289974e-01
  1.8041913e-01
  6.8219042e-01
  2.8765944e-01
 -1.5415844e-01
 -5.0343573e-01
 -9.4913587e-02
  1.1060379e-01
  2.3168314e-02
 -2.5820982e-01
  7.1363491e-01
 -1.8482150e-01
  7.3483124e-02
  2.5546774e-01
  1.3034470e-01
  4.4076082e-01
 -9.3821064e-02
  4.8832685e-02
  2.8246295e-01
 -1.3474010e-01
  1.2144354e-01
 -5.5101728e-01
  1.0408997e-01
 -1.8083278e+00
 -1.3803056e+00
 -2.1691613e-01
  1.6553818e-01
 -7.3408252e-01
 -5.5583108e-02
  6.1613798e-01
 -2.3418596e-01
  6.7899179e-01
  2.5915306e+00
 -1.0942733e-01
  6.9300108e-02
  1.3536859e-01
 -9.0800337e-02
  1.8660226e+00
 -9.4924368e-02
 -9.3720891e-02
  3.9243165e-01
  1.6595665e-02
 -3.9894879e-01
 -2.7541369e-01
 -1.4090621e-01
 -2.5867951e-01
  2.5924372e-02
  9.7190574e-02
 -8.3387995e-01
  3.2506415e-01
  1.4277330e-01
  4.4500947e-01
 -8.1074513e-02
 -1.5475646e+00
  3.9281532e-02
 -8.0682844e-01
  1.5728781e-01
 -5.6045469e-02
 -7.5392002e-01
  3.8740513e-01
  1.9089882e-01
  1.1260536e+00
 -3.2223858e-02
 -2.2378168e-01
 -2.4825598e-01
  4.5290399e-02
  4.8974806e-01
 -2.5091225e-01
  2.1127212e-01
  2.3248062e-01
  1.6442025e-01
 -6.2893718e-02
 -1.9361201e-01
 -7.7139586e-02
 -8.3795384e-02
  2.2857524e-01
  8.5373640e-02
  5.0471988e-02
  5.2951895e-02
  4.0832236e-02
 -2.9494780e-01
 -9.0357803e-02
 -1.8656656e-01
  1.0245718e-01
  1.1177417e-01
 -3.1442633e-01
  6.4768270e-02
 -3.6602259e-02
  1.2764549e-01
 -1.3546377e-01
 -4.6610883e-01
 -1.7279470e-01
  3.6215198e-01
  1.8094273e+00
 -1.2986894e-01
 -1.4111647e-01
  4.8483226e-02
  4.5438793e-01
  1.6478702e-01
 -1.3925898e-01
 -3.3121511e-01
  1.0217053e-03
 -5.7370967e-01
 -9.3103401e-02
 -6.4795807e-02
  3.4015152e-01
  2.0554723e-01
 -4.5730762e-02
 -2.6821620e+00
  4.8958495e-01
  2.1720269e+00
 -2.8441948e-01
 -1.3802071e-01
  1.1860572e-01
  2.3875065e-02
  2.0877803e-02
  2.1852465e-01
 -7.7235943e-01
 -4.0857069e-02
 -2.8169066e-01
  4.0199891e-02
  2.6824012e-01
 -1.4727481e-01
 -1.1428537e-02
  3.4740534e-02
  5.1105465e-03
 -1.0081064e+00
 -2.1361805e-01
  1.8591139e-01
  5.8560330e-02
  4.3561986e-01
 -1.3348599e-01
 -8.9834636e-01
 -1.4163655e+00
 -7.0146672e-02
  8.1176823e-01
  3.5229132e-01
 -1.8217947e-02
  1.5305448e-01
 -3.8405931e+00
 -1.0496303e-02
  2.6921856e+00
  4.4206612e-02
  1.5174752e-02
 -6.5835476e-01
 -1.1845695e-01
 -1.9738659e-01
  7.1068233e-01
 -2.1353023e-01
  1.5144420e+00
 -3.1700224e-02
  2.1684097e-01
  1.6519360e-02
 -2.1116970e-02
  3.1999803e-01
  3.2405570e-01
 -2.3093531e-01
  1.6608539e-01
  1.5947387e-02
  4.8953927e-01
 -1.6973183e+00
 -5.8140397e-02
 -9.5829174e-02
  1.6258173e-02
 -5.1091921e-01
 -8.1863624e-01
  7.7077478e-02
 -2.5057614e-01
  6.5592682e-01
 -4.9012284e+00
 -3.8639206e-02
  2.0190954e-01
 -3.7426379e-01
 -6.9872886e-02
 -8.7021440e-02
 -7.6541871e-01
  1.1951429e-02
 -2.4268084e+00
 -3.6558485e-01
  1.4005512e-01
 -2.1226458e-02
 -3.4455881e-01
  9.2413060e-02
  3.0352890e-01
 -2.2878209e-01
  5.4331875e-01
 -4.1501090e-02
  2.5123553e-02
 -2.1753795e-02
 -9.3277238e-02
  3.2102711e-02
  1.3130139e-01
 -6.2395954e-01
 -7.6128454e-03
 -1.9089849e-01
 -2.5789401e-01
  5.2536953e-02
  5.0275885e-02
  1.7580399e-01
  5.2394271e-02
 -2.4290435e-01
 -1.2613417e+00
  4.3722712e-02
  8.4056862e-02
 -1.4609978e-01
 -7.6557004e-01
 -3.5340992e-01
  4.0645417e-02
 -1.0202322e+00
  5.6209434e-02
 -3.6021098e-01
  1.7842810e+00
  3.0310079e-02
 -5.2333498e-01
 -4.6641391e-02
 -1.3174565e-01
  4.1806541e-02
  8.6091124e-03
  1.8364882e-01
  2.2929463e-01
  4.4004935e-01
 -2.8267836e-02
  4.2333126e-02
 -1.2077919e+00
  1.6272603e-01
 -7.0196815e-02
  4.0439749e-01
 -1.8023980e-01
 -1.4511959e-01
  2.0658249e-01
  6.6411126e-01
 -1.0840565e-01
 -1.0918655e-01
  2.2857361e-01
 -8.0733949e-01
  1.2431264e-01
  8.6196780e-02
  2.2566675e-01
  2.6434216e-01
  3.2340568e-01
  1.1879743e-01
 -5.8624212e-02
 -8.7638927e-01
  7.1459991e-01
  3.7976429e-02
 -4.9908879e-01
 -2.5745514e-01
  2.5622240e-01
 -5.6302797e-02
 -2.2462524e-01
 -3.3536655e-01
  1.3848820e-02
 -2.5614557e-01
  1.2374566e-01
 -1.6858138e-01
 -1.0548548e-01
 -2.4260814e-01
 -2.8365418e-01
 -2.2810400e-03
 -1.4532330e+00
  1.2511541e-01
 -4.0629644e-02
 -2.9977971e-01
  2.2143984e-01
 -7.1655315e-01
 -3.8940933e-02
 -6.5536153e-01
 -1.5279122e-01
  4.8791505e-02
 -3.5432956e-01
 -2.0187303e-02
 -5.0784969e-01
 -8.2746767e-02
  2.3440409e-01
 -4.9907729e-01
  1.4450442e+00
  1.0828171e-01
 -4.5770947e-02
  4.3197066e-01
  8.1433184e-02
 -4.8403037e-01
 -1.5396135e-02
 -8.1748471e-02
 -1.8998433e-02
  8.1095791e-01
  2.4146684e-01
  1.3959134e-02
 -1.3197668e-01
  1.5129715e-01
 -1.0346338e+00
  3.1712677e-02
  2.8946733e-01
 -2.3257141e+00
 -2.8850362e-02
  1.9638130e-01
  1.2009428e+00
 -6.0717988e-01
  3.3107513e-01
 -1.2196825e-01
 -1.8410776e-02
 -1.2481196e-01
 -5.6984436e-02
 -3.0998546e-01
  2.4697240e-01
 -1.5112509e-01
 -5.0691628e-01
 -1.0183650e-01
 -3.1868532e-02
 -2.2550733e-01
 -1.6229492e-01
 -4.2209301e-02
 -2.8448723e-02
  2.0182722e+00
  3.9268320e+00
  9.2045844e-02
  3.9039131e-02
  1.0985456e-01
  2.2015333e-01
 -1.3710909e-01
 -8.3960474e-01
 -2.0770624e-02
  2.2471824e-01
 -2.5218684e-02
 -7.7806532e-02
 -1.3406768e-01
 -3.5137364e-01
  7.5194341e-01
 -7.3246121e-01
  1.2974763e-01
  2.1194161e-01
  6.4798802e-01
 -6.9946706e-01
 -8.7179965e-01
 -1.8627999e+00
 -2.8477940e-01
 -2.1892834e-01
  4.5818853e-01
 -2.2559223e-01
  5.4978973e-01
  3.3647969e-01
 -4.9398754e-02
  2.3076774e-01
 -4.8368856e-01
 -1.2764263e-01
 -4.8967251e-01
  4.4031609e-02
 -1.1874576e-01
  3.0029507e+00
  3.1851256e-01
  4.5451972e-01
 -6.3697749e-01
 -2.0954517e-01
  2.9868224e-01
 -3.8399968e-01
 -6.2004590e-01
 -1.4424120e-02
 -2.3008741e-02
 -4.7588682e-01
 -3.4867898e-01
 -7.2651017e-03
 -3.5240224e-01
  1.6887873e-01
 -4.6260212e-02
 -1.4266725e+00
 -2.6514547e-02
  1.5134038e-01
 -1.6475281e-01
  2.2581552e-01
  2.4596156e-01
 -1.4774001e+00
  1.5655434e-01
 -1.5095024e-01
 -8.8608938e-01
  1.0178694e-01
  4.2108876e-01
 -4.0058002e-02
 -1.8390464e+00
 -2.9418918e-01
  9.6173219e-02
 -1.7435320e-01
 -1.9452626e-01
 -7.2396748e-02
  4.1060567e-01
 -1.6413423e-01
 -2.4903287e-01
  6.1614764e-01
 -3.8392854e-01
  3.9783424e-01
  2.5238925e-01
 -3.1457362e-01
 -1.6635211e-02
 -2.2892407e-01
  1.5282928e+00
 -1.0820358e-01
  3.7030220e-02
  5.4811645e-01
 -6.3328576e-01
 -1.7526844e-01
  3.1250274e-01
 -3.4268364e-02
 -5.4166943e-01
 -4.7938496e-01
 -8.7817073e-01
 -3.8067847e-01
  5.3128791e-01
 -1.6457285e-01
 -4.4799638e-01
 -1.5496728e-01
  1.8466082e-01
  4.5063922e-01
 -2.8532451e-01
  6.3639134e-02
 -1.4989690e-01
 -4.2380661e-02
  6.2002376e-02
  3.7017271e-01
 -2.6852974e-01
 -2.3682711e-01
 -2.3036405e-02
  1.2460787e-01
 -8.0525532e-02
 -1.3874735e-01
  7.9317409e-01
  1.1532128e-01
 -6.1144906e-01
  1.3844086e-01
 -5.4366790e-02
  1.4552692e-01
  1.8642053e-01
 -5.4260772e-01
 -1.0577898e-01
 -1.6004641e-01
  1.0863225e+00
  1.2169220e-01
  5.5511426e-02
  2.0532416e-01
 -4.4940010e-01
 -1.7708711e-01
 -1.9344823e-01
 -9.1129512e-02
 -3.8481316e-01
  1.3384107e-01
 -2.4384038e-01
 -1.5808936e+00
  3.6541548e-01
  1.1091492e-01
  9.2283171e-01
 -9.8940617e-01
 -2.4916928e-01
 -6.2533051e-02
 -1.1373401e-01
  1.1452616e-01
 -3.9737798e-02
 -6.8728425e-02
  1.6430866e+00
 -9.7460570e-03
  2.4534529e-01
  1.7673582e-01
 -3.2634173e-02
  6.4209253e-02
  6.5494090e-01
  4.8833895e-01
 -9.5541483e-01
  5.4038353e-02
  2.1301156e-01
 -1.8558609e-01
  8.8517666e-01
 -1.0194893e-01
  1.3172233e-01
  2.7024570e-01
  6.6502404e-01
 -2.7248621e-01
 -1.4161237e-01
  2.4356288e-01
  3.5008848e-01
  1.3787098e-01
  2.4884264e+00
 -1.6487359e-01
  3.0586076e-01
 -5.2906245e-02
  2.8296517e-02
 -6.2500186e-02
 -1.4640355e-01
 -9.3401057e-01
  2.7674165e-01
 -4.2739693e-02
 -3.5221931e-01
 -4.8977858e-03
  2.9381862e-01
  5.9242394e-02
  1.8551427e-01
 -4.8620086e-02
  9.0403402e-01
 -1.0564226e+00
 -1.5297142e-01
 -7.7481627e-02
 -1.3883222e+00
 -1.8647973e-01
 -7.8983295e-01
  9.9681184e-02
  1.0374770e-01
  1.3272613e-01
  2.0370035e-01
  6.7496586e-01
  4.4048080e-01
  9.5351315e-01
 -3.5701892e-01
  6.8592864e-01
  5.3984833e-01
 -3.1589076e-02
  1.0932028e-01
 -7.3809937e-02
  2.2658703e+00
  2.2777104e-01
 -5.2929904e-02
 -3.7797847e-01
  3.3707425e-02
 -4.0851012e-02
 -2.8676215e-01
  8.3846742e-01
  1.8702073e-01
 -1.7083497e-01
  4.7650021e-02
 -4.8418471e-01
  3.0048206e-01
 -1.9337972e-01
  2.4739164e-01
  7.5629008e-01
 -4.6581298e-02
  3.0591983e-01
  4.0527903e-03
 -1.8372011e-01
 -5.5349672e-01
 -1.3276069e-01
 -1.0635897e-02
  2.1509704e-01
 -4.2462274e-01
  2.0315414e-02
  1.4200814e-01
 -5.1789778e-01
  1.3958515e-01
  1.0278317e-01
 -9.1452308e-02
 -3.8303006e-02
  1.4052569e-02
 -1.2828012e-01
  5.1455849e-01
  1.3220645e-01
 -2.9853526e-01
  2.3400632e-01
  1.1183015e-01
  6.6446638e-01
 -7.7258247e-01
  2.1808739e-01
 -2.7378282e-02
 -7.6307207e-01
 -1.1024075e+00
 -1.2279532e+00
  2.9583913e-01
  1.8932134e-01
  4.6631968e-01
 -1.7378096e-01
 -6.1803627e-01
  1.1682568e-01
  1.2453004e+00
  1.1177225e-03
  7.5159562e-01
 -2.1887049e-01
  5.1671803e-01
  7.8076117e-02
  5.1337802e-01
  6.5199032e-02
  6.3799441e-02
  2.5540185e-01
 -2.2420270e-02
  1.6937797e-01
 -5.0654781e-01
 -3.5733022e-02
  5.2139622e-01
  1.4639619e-01
 -1.4691760e-02
 -8.4735113e-01
 -5.0514530e-02
 -3.7355375e-01
  3.0306426e-01
  3.7161586e-01
  1.3254956e+00
 -1.9443769e-02
  4.9267743e-02
  2.1177833e-01
  5.1632676e-02
 -8.4981036e-01
 -2.6366225e-01
  1.8777055e-01
  5.7011312e-01
  4.9659475e-03
 -4.7206393e-01
 -1.8974827e-01
 -2.4106695e-01
 -1.9994825e-01
  1.4165762e-01
  4.3551186e-01
 -2.8484735e-01
  6.7632473e-01
 -4.9485183e-01
  7.0489570e-02
  2.4373466e-01
  2.2420076e-01
 -3.5051265e-01
  6.2994355e-01
 -3.9961749e-01
 -1.5375054e+00
  9.4120312e-01
  4.9447924e-01
  2.6875600e-01
 -1.4554449e+00
  2.9608148e-01
  2.1697862e-01
 -5.2483487e-01
 -1.1639788e+00
  3.6880919e-01
 -3.4888828e-01
  4.9949878e-01
  7.3385376e-01
 -6.7284942e-01
  2.9094404e-01
 -6.8125862e-01
  5.6855911e-01
  3.2239363e-01
 -3.6979291e-01
 -8.0772859e-01
 -4.2265296e-01
  6.4080518e-01
  3.8112182e-04
  8.8354015e-01
  9.4502747e-02
 -4.2269775e-03
 -2.6812640e-01
 -3.1725091e-01
  2.8883941e-02
  2.9599777e-01
  7.2324343e-02
  1.0735042e-01
  1.2092706e+00
  2.5016949e-01
  6.1954569e-02
 -5.0361228e-01
  5.0523430e-01
  1.6266850e-03
 -4.4561958e-01
  2.4690153e-01
 -4.2498205e-03
  3.9375570e-01
  1.2919062e-02
 -1.3212588e-02
  4.1434327e-01
 -1.5221080e-01
  2.3506817e-03
  3.7315991e-02
 -1.9572766e-01
  8.8280815e-01
 -3.5594985e-01
 -2.4378671e-01
  1.3394265e-01
  4.0159568e-01
 -1.3078535e-01
  1.5646069e-01
 -8.3479691e-01
 -6.4510913e-03
  1.9185658e-01
  6.8841946e-01
  8.0248322e-03
  2.8245968e-01
  5.0303228e-02
  5.9339678e-01
 -1.6574028e-05
  1.6161714e-01
 -1.5604372e+00
  1.4754030e+00
  7.3756255e-02
 -1.6974812e+00
 -1.6371539e-01
  3.9093714e-02
 -6.5068781e-01
  6.4739309e-02
 -3.4259012e-01
  2.0580059e-01
 -3.0722612e-01
  3.5197154e-01
  4.3251225e-01
 -6.8329602e-02
 -2.4899231e-01
 -4.5034423e-01
  7.9107279e-01
  1.1767661e-01
 -5.7032973e-02
 -1.2146965e-01
  1.6586117e-01
  3.3345544e-01
 -3.3259027e-02
  5.1043856e-01
  1.5892066e-01
  3.1991988e-01
 -3.0755943e-01
  4.8750681e-01
  2.9398105e-01
  3.9165774e-03
  3.8156703e-02
  1.5415713e-01
 -4.2031024e-02
 -4.3185394e-02
 -4.3091416e-01
  1.0494594e-01
 -4.2581609e-01
 -1.3521910e-01
 -9.8059341e-02
  7.8538962e-02
 -3.3205390e-01
  7.6517785e-01
  1.5788551e-01
  2.6983824e-01
  2.3896206e-02
 -2.5832608e-01
 -1.5613578e-02
  3.4200798e-03
 -1.7173636e-01
  1.1507785e-01
 -1.2696334e+00
 -3.3324239e-01
 -8.1132919e-02
  3.6991069e-01
 -1.9327382e-02
  6.2913769e-01
  2.8850174e-01
 -1.9069667e-01
  1.8740542e-01
  4.5406166e-02
  1.1593002e-01
  3.6943156e-01
 -2.1821576e-01
  1.1252209e-01
  8.0002166e-02
  1.2608471e+00
  6.7258203e-01
  2.4666287e-01
  9.4045423e-02
 -3.0986023e-01
  2.8053841e-01
 -2.7464977e-01
 -1.3182348e-01
 -2.2770213e-02
  9.1999374e-02
 -6.1249900e-01
  5.0987369e-01
  3.6641875e-01
 -4.8243273e-02
 -3.3657387e-02
 -1.6836388e-02
 -3.2348728e-01
  4.5330450e-02
 -1.3400738e-01
 -2.9868960e-01
  2.0408145e-01
  2.7595630e-01
  3.2368246e-01
  5.8923781e-01
 -2.3765361e-01
 -3.4355596e-01
 -2.5134254e-01
 -1.2095971e-01
 -5.2721089e-01
 -5.8604026e-01
 -3.6409366e-01
 -8.7658149e-01
 -3.6579141e-01
  4.2086765e-02
  8.7491080e-02
  1.3036033e-03
 -1.7429627e-02
  5.6826979e-01
  1.5184992e-04
  1.1926396e-01
  2.2407506e-01
 -2.2773622e-01
 -2.7844295e-01
  7.5898515e-03
  5.3970981e-02
 -4.0198672e-01
  1.8577993e-01
  2.7080405e-01
 -1.4539905e-01
  7.7008009e-01
  9.7857249e-01
  5.2494340e-02
 -6.6521537e-01
 -4.6308417e-02
 -1.4828466e-02
  9.8440051e-02
 -1.8342814e-01
 -3.7364504e-01
  1.8011702e-02
 -6.6994280e-01
 -1.0576248e-01
 -4.0972224e-01
  1.8895660e-01
 -1.7016941e-01
 -6.3436814e-02
  2.5924316e-01
 -1.1895222e-01
  1.2836848e-01
  1.0551050e-01
  1.5711347e-02
  9.9330515e-02
  8.6620170e-01
  6.0321338e-02
 -1.2854673e-01
  4.8682266e-01
 -8.9278603e-01
 -2.4666391e-01
  1.3549016e-01
  9.1833931e-01
 -1.4100881e-01
  8.8201957e-03
  1.5969118e-01
  1.5429030e-01
 -6.1663605e-02
  2.4495611e-01
 -3.4146204e-03
 -7.7317965e-01
  1.8516788e-01
  5.9283185e-01
 -2.5878432e-01
 -5.0690395e-01
  1.9219315e-01
  1.6772722e-01
  3.7981283e-02
 -1.4027102e-01
 -2.3975383e-01
 -2.1021792e-01
 -6.2880152e-01
 -5.6828469e-02
  6.4559244e-02
  3.6334384e-02
 -3.1874201e-03
  4.5120005e-02
 -1.5328118e-01
  1.3203862e-01
  2.1743841e-01
  8.1667870e-02
 -2.7135164e-02
 -2.2953218e-01
  1.2105169e-03
  1.8360347e-01
  6.7753106e-02
 -3.3607297e-02
 -9.4288006e-02
 -8.1180298e-01
  1.5718234e-01
  4.1745219e-02
 -1.2141952e-01
  4.5986384e-01
  2.9565665e-01
  4.7811055e+00
 -8.4467471e-02
  4.5263108e-02
  7.1719855e-01
 -6.4633042e-02
 -4.1162762e-01
 -2.4155262e+00
 -4.2412691e-02
  5.5999804e-02
 -7.6283388e-02
 -3.3354050e-01
 -6.8855524e-02
 -6.7912281e-02
 -9.1968946e-02
  2.6222509e-01
 -3.9887015e-02
 -1.2755053e-02
  1.7460765e-01
  1.7305410e-01
  9.0103000e-02
 -7.2210449e-01
 -2.2486426e-01
 -3.4428909e-01
  1.2882638e-01
  9.0660483e-02
 -4.4539416e-01
 -5.3410006e-01
 -3.9908988e-04
  5.6511545e-01
  4.2862747e-02
  6.9027668e-01
  4.3785086e-01
  3.8679424e-01
 -1.3598795e-01
 -9.1234995e-03
  4.0944014e+00
 -2.5740743e-02
 -3.1421271e-01
 -7.4454203e-02
  3.6443245e-02
 -9.4583935e-01
  5.0420105e-01
  7.0477229e-01
  2.6730595e-02
  6.1740827e-02
 -3.0546647e-01
  3.8614145e-01
  8.1987865e-02
 -2.2442697e-01
 -1.2640153e-01
 -4.3382570e-01
 -2.3172657e-01
 -4.1480717e-01
  5.8884329e-01
 -3.7517164e-02
  3.5561389e-01
  4.0346969e-02
 -5.3245530e-02
  9.8831616e-02
  5.9903557e-03
  9.2799641e-02
 -5.3292990e-01
 -7.4121222e-02
  3.2698002e-02
 -7.3653266e-02
 -3.6276445e-01
  2.3642337e-01
 -1.5721428e-01
 -2.6626131e-01
  9.8058999e-02
  4.9552795e-01
 -1.1247063e+00
  2.2820704e-01
 -7.1681164e-02
  5.8065083e-02
 -5.2190763e-01
  3.6804023e-01
 -1.7866756e+00
  1.1841007e+00
  1.3111451e-01
  1.3889708e-01
  7.1945190e-01
 -4.7058818e-01
 -6.7853041e-02
 -8.4898420e-02
  7.6046532e-01
 -1.0748081e+00
  5.7702577e-01
 -8.5216641e-02
  1.4047225e-01
 -3.3774456e-01
  2.1287453e-01
 -4.4925246e-01
  3.0222860e-01
  1.7375283e-01
 -5.9070259e-01
 -2.3617671e+00
 -2.6107917e-02
 -3.1061050e-01
 -2.0943297e-01
 -4.4182482e-01
  3.0641165e-01
  1.1355985e+00
  7.9001540e-01
  2.4708702e-01
  3.6448759e-01
 -2.4686240e-02
 -1.6758861e-01
  2.8915155e-01
  1.8636744e-01
 -3.6411068e-01
  1.3352253e-01
  6.9408096e-02
  1.2043643e-01
 -1.8400994e-01
  3.5350785e-01
  1.5946549e-01
  3.3894128e-01
  4.8224796e-02
 -1.4165136e-01
  5.0411910e-01
  2.3331116e-01
 -5.6311995e-02
 -1.4712697e-01
 -1.0454541e-01
  9.5147121e-01
  4.2689143e-04
  1.5215857e-01
 -2.3497570e-02
 -1.0222923e-01
  3.8217142e-01
  4.6151990e-01
  2.7441233e-01
  1.6610292e-01
 -9.1821007e-02
  1.4049906e-01
 -3.7363601e-01
 -1.0584733e-02
 -9.0617830e-01
 -2.6968947e-01
 -4.8601517e-01
  6.4329660e-01
 -6.7721851e-02
 -3.5181603e-01
  2.4747066e-01
 -3.1409189e-01
  1.2355028e+00
  5.6483746e-02
 -1.5639691e-01
  3.9953810e-01
  9.1248453e-02
 -5.6099240e-02
 -5.0504737e-02
  2.4056524e-02
  2.6922929e-01
 -9.8094040e-01
 -4.0217346e-01
 -4.3754819e-01
  2.3153242e-01
 -1.1993963e-01
  1.0304787e+00
 -9.5889665e-02
  1.9439603e-01
 -1.1586841e+00
  3.8390705e-01
 -1.1972435e+00
  1.8199196e-01
  6.1677897e-01
  1.1425789e-01
 -3.8877356e-01
 -2.2642575e-01
 -2.5097105e-01
  4.9482509e-02
 -1.0955585e+00
  2.2398496e-01
  2.6257029e-01
  7.5967535e-02
 -2.0442259e-02
  3.1629482e-01
  1.8466309e-02
 -2.7901149e-01
  9.7312510e-02
 -1.6163263e-02
 -3.7681226e-02
 -1.0487865e-01
 -7.3256761e-01
 -3.7862398e-02
 -3.9276677e-01
 -8.3351570e-01
 -1.4711562e-02
 -2.5355944e-02
  4.1161209e-02
 -2.6201269e-01
  3.8195655e-01
  4.3827929e-03
  2.4728894e-01
 -3.2400966e-01
 -2.3685396e-01
  3.2420206e-01
  2.3044090e+00
 -1.6928223e-01
  1.3959150e-01
 -2.4385460e-01
 -3.4739770e-02
 -1.4301421e-01
  1.9880394e+00
 -3.6751468e-02
  4.1903970e-01
  9.9553764e-02
  1.7589220e-01
 -1.0619687e-01
  1.7000663e-01
 -1.9482455e-01
  1.1212006e-01
  1.8391158e-01
  2.8001225e-01
 -5.4235715e-01
 -1.4911468e-01
  1.1474451e+00
 -5.0661719e-01
  8.5382573e-02
 -1.4629269e+00
 -1.3165984e-01
 -3.8684625e-02
 -5.5849858e-02
  4.3868774e-01
 -1.1015540e-02
  4.4645494e-01
  2.3588338e-01
 -8.3651394e-02
  1.8964472e+00
  2.6877683e-02
 -1.1934246e-01
  7.2866701e-02
  1.0754793e-01
  5.6258941e-01
  3.4945482e-01
 -3.9994806e-02
 -3.6658716e-01
  1.8340307e-01
 -6.1392856e-01
 -2.3198729e+00
 -5.2948397e-01
  3.9869674e-02
  1.0582706e-01
  1.0917046e-01
 -1.3938998e-01
  2.0776296e-02
 -9.7559020e-03
  3.5385746e-01
 -6.5835426e-03
  4.7380175e-02
 -4.0495270e-01
  3.1104502e-01
 -1.9918533e-01
 -2.5292099e-01
 -6.2526566e-01
 -1.5228218e+00
  3.2802811e-01
  8.9839660e-02
 -2.9319835e-01
  9.4469301e-02
  8.2281631e-01
  1.5010275e-01
  3.3007517e-01
 -1.2551321e-01
 -5.7759784e-02
 -6.4049631e-01
 -1.2680691e-01
  8.6851329e-02
  1.0025225e+00
  8.3473347e-02
 -2.7065778e+00
 -3.5268006e-01
 -1.7614570e+00
 -6.3484496e-01
  2.8013585e-02
 -2.3310409e-01
 -1.8542832e-01
 -1.1468549e-01
  1.8285483e-01
  3.3953257e-02
 -2.2375713e-01
 -2.1789324e-01
  5.5663027e-02
 -2.3686069e-01
 -2.1264930e-01
 -5.4103053e-01
  9.3278742e-01
  9.6204378e-02
 -2.1855035e-01
 -1.3306245e-01
  2.4668708e-01
  5.1033169e-01
  4.8772380e-01
  1.0522982e-01
  3.9554015e-02
 -4.6503600e-01
 -2.8738740e-01
  1.7592332e-01
  3.7055296e-01
 -4.1626477e-01
 -9.2145942e-02
 -1.1454610e-01
  1.7629968e-01
  4.2402416e-02
 -1.1016040e-01
  8.8091826e-01
  6.6815180e-01
 -2.2679274e+00
 -8.4562832e-01
 -1.1374185e+00
 -2.8770429e-01
  3.3260646e-01
  3.9594507e-01
  2.5972211e-01
  1.1704209e+00
 -9.5047526e-02
  2.1436022e-01
  7.8709505e-02
  2.3650816e-01
 -3.3988206e+00
  4.0021621e-02
  6.7024112e-01
 -1.3318738e-03
 -1.8759170e-01
 -7.5466290e-02
  1.3944708e-01
  1.8608961e-01
 -4.0552942e-03
  2.9885214e-02
  1.9336954e-01
  1.1366237e+00
 -1.9528756e-01
  8.4604315e-02
 -1.3891199e-01
 -1.5240014e-01
  4.4864368e-02
 -3.5401312e-01
  4.4017017e-01
 -4.7481626e-02
  3.6927918e-01
  3.0024749e-01
 -2.6716711e-02
  4.0553585e-01
  2.5167253e+00
 -2.1413979e-01
 -2.0961905e-01
  4.6546972e-01
 -3.3485660e-01
  5.0506753e-01
  4.3179932e-01
 -1.0042200e-01
  4.1732416e-02
  8.2245819e-02
 -6.0285860e-01
  1.1778579e+00
 -4.9440548e-02
  9.9563891e-01
  3.9625216e-01
 -1.5154716e-01
  9.4555068e-01
 -6.2049937e-01
  2.3853259e-01
  4.3235302e-02
 -2.2286531e-02
  5.5148029e-01
  3.2027576e-02
 -1.5103749e+00
 -3.3153992e-02
 -2.1110846e-01
  5.4450305e-03
  2.9344833e-02
  6.2578720e-01
 -8.2195979e-01
 -2.9279613e-01
 -5.0706886e-02
 -2.1236157e+00
  2.6819302e-02
  3.0169964e-01
  6.7877613e-02
  2.3848295e-02
  1.9926906e-01
  8.2699861e-04
  3.7779558e-02
 -3.4332684e-01
  8.7035322e-01
 -1.9687238e-01
 -6.2680143e-01
 -5.3749491e-02
  1.0650827e-01
  4.0401418e-02
 -3.4065178e-01
  7.8392116e-04
  3.2916486e-01
  3.8504489e-02
  2.3442036e-02
  7.8909650e-02
 -2.3327643e-01
  3.2562863e-02
  8.5398130e-02
 -1.2842795e-01
  3.3388276e-02
  1.2429772e-03
  2.2954156e-01
 -2.6217082e-01
 -8.6749154e-01
  2.1809982e-02
  1.1676183e-01
  4.6591286e-02
  1.0616256e-01
 -7.9780430e-01
  2.8276661e-02
  1.2583195e-01
  2.2717012e-01
  3.8132388e-02
 -4.8521739e-01
 -6.0809112e-01
  6.2528476e-02
 -1.9514537e-01
  4.9746585e-01
  4.2482626e-01
 -2.8434131e-01
 -7.4509889e-01
  3.7410006e-01
 -1.1364061e+00
 -8.1559628e-02
 -5.8960766e-01
 -1.0969058e-01
 -1.0578897e-02
  4.9204379e-01
  4.5086005e-01
 -2.8402007e-01
 -5.9855944e-01
  6.0080636e-01
  5.8925841e-02
  2.5645667e-01
  6.2812579e-01
  1.5728973e-01
 -4.3699992e-01
 -4.6141282e-01
  2.2285668e-02
  7.2414592e-02
 -3.4404570e-01
  1.9385095e-01
  9.9338084e-02
  1.6643576e-01
 -2.1478789e-01
 -2.6143038e-01
 -1.4537337e+00
  1.0678198e-01
 -9.1886923e-02
  7.9255372e-01
 -1.2154928e-02
 -1.2611644e-01
  2.9829649e-02
 -9.3783730e-01
  1.4693688e-02
  7.2792840e-01
  1.1705023e-01
  3.0939540e-01
 -1.2413280e-01
  7.0406161e-02
 -1.6931232e-02
 -1.4233918e-01
  1.8450571e-02
 -2.5600389e-01
  1.3857408e-01
 -6.5325928e-01
 -1.0595196e-01
  2.6858151e-01
 -6.0094529e-01
  5.7873797e-01
 -2.7194554e-01
  6.5266602e-02
 -6.4031146e-02
  8.8081658e-02
  1.2872447e+00
  1.5978681e-01
 -6.4525932e-02
  2.5930235e-01
  1.5089024e+00
  2.2741680e-01
 -2.3258631e-03
 -3.2200923e-03
  9.3611926e-01
 -2.4478924e-02
  7.9018551e-01
  3.4616363e-01
 -1.5966164e-01
  1.0461107e+00
 -1.7570162e-01
  9.9790692e-02
  1.9176060e-01
  6.7429340e-01
  2.5653856e-02
 -4.5795921e-02
 -6.7594957e-01
  2.0304482e-01
  2.1442366e-01
 -1.0418084e+00
 -1.7621103e-01
  2.1421454e+00
  2.4167015e-01
  7.4986851e-01
  1.6169937e-01
  6.2571190e-02
  3.0268171e-01
 -5.9854716e-01
 -1.3737625e-01
  1.4023006e-01
 -2.1204488e-01
  4.5654159e-02
 -4.2617983e-01
  2.7309933e-01
 -1.4230198e+00
 -2.3103844e-01
 -6.7021018e-01
 -9.9415421e-02
 -2.5519055e-01
 -1.7129520e-01
 -1.5866764e+00
  3.3424380e+00
  2.6282365e-02
  6.8806058e-01
 -6.4900517e-01
  2.4971560e-01
 -9.2446941e-01
 -1.0631745e-01
 -3.1861973e-01
  5.9362215e-01
 -1.9583672e-01
  1.0388608e-01
  1.3177127e+00
 -4.8829228e-01
  4.2749697e-01
 -2.6495317e-01
  6.5614325e-01
  4.9521398e-02
  2.5624702e+00
  7.8255355e-01
  2.4151492e-01
 -1.0597122e+00
  7.4706453e-01
  5.7659507e-02
 -1.2270540e-01
  1.5706740e-01
  7.7572311e-03
  1.0305865e-02
  8.5278183e-02
 -4.9539100e-02
 -2.1723646e-01
  6.5923752e-03
  6.1432067e-02
  8.5859418e-02
 -1.5931351e-01
  3.2178301e-01
 -1.9571749e+00
  8.2147174e-02
  1.6887356e-02
  6.8513164e-03
  2.6062253e-01
 -3.8493198e-01
  1.1096410e-01
  5.7682723e-01
  2.2340788e-01
  6.3191253e-01
 -1.1391706e-01
  1.2272893e-01
  1.4561191e-01
 -2.4813369e-01
  3.4600858e-02
 -4.9987006e-01
 -1.2555695e-01
  1.3566783e-01
  1.9019167e-01
 -2.8287214e-01
  2.8463501e-01
 -2.6636597e-02
 -6.8266815e-01
 -3.8073685e-02
 -2.4835426e-01
  1.0553622e-01
 -7.6970682e-02
 -2.6125777e-01
 -5.4350737e-03
  2.2667067e-01
  1.6354819e-01
 -4.6889730e-02
  2.8717044e-01
  3.8371764e-03
 -3.1687063e-01
  5.9100058e-02
 -9.3341011e-01
  6.0804522e-01
  5.4691624e-02
  1.5965602e+00
 -1.4435752e-01
 -1.9532730e-01
  6.6338815e-02
 -4.6670947e-02
 -7.7925473e-02
 -6.4283535e-02
 -1.7758974e-01
  6.0221832e-04
 -6.7844182e-02
 -4.5642403e-01
  1.1095057e-01
  5.7225001e-01
  1.2951884e+00
 -3.0487636e-03
  3.0186037e-02
 -1.0537370e-01
 -4.8821535e-02
  1.2495915e+00
 -1.0024324e-01
  3.1078377e-01
 -9.4463296e-02
 -4.2417862e-02
  4.7679905e-02
 -1.5883584e-01
  6.3589290e-02
  5.5055492e-02
  2.9181048e-01
 -4.4708285e-02
 -3.7456360e-01
 -3.8287889e-02
  2.5639024e-01
  2.1003488e-01
  5.9478294e-02
 -2.7587175e-01
  3.1775329e-02
 -1.0824840e-01
 -3.2820511e-01
  1.0574112e+00
 -3.4301788e-01
  5.6573683e-01
 -2.2123992e-01
 -8.6097375e-02
  2.5950246e+00
 -1.1183979e-01
 -2.4789905e-02
  5.3599244e-03
 -1.8162874e+00
  1.2373112e+00
  3.2859200e-01
  3.2419139e-01
  1.4596404e+00
 -1.7155398e-02
  1.3194269e-01
  1.1219992e-01
  3.3770570e-01
 -1.7439981e-01
 -3.3490595e-01
  2.7821574e-01
 -1.7389326e-01
 -7.5659691e-03
 -3.8437882e-01
  3.1984501e-02
 -1.6714004e-01
  6.2482518e-01
 -2.7069864e-01
 -4.6872097e-01
  5.7361368e-02
 -1.4837691e+00
 -1.2932144e-01
 -3.6843833e-01
 -5.2925941e-02
  3.9045829e-02
  7.9670073e-03
  1.6205864e-01
 -2.7799299e-01
  2.1259105e-01
 -9.2839807e-02
  1.1758632e-02
 -3.0537108e-01
  3.1080800e-01
 -5.3929138e-01
  1.0819371e-01
 -1.6108215e-01
 -1.8472016e-01
  3.2632664e-01
  2.6526660e-01
  4.6480784e-01
  4.0945867e-01
 -3.9232284e-01
  1.9756317e-02
 -1.1432299e-01
  1.5541826e-01
 -7.1251601e-02
 -8.6852223e-02
  1.2679631e-02
 -1.0342856e-02
 -7.0529662e-02
  3.8470092e+00
 -3.7081802e-01
 -1.2043405e-01
 -7.5654626e-01
 -5.7285288e-03
 -9.7781795e-01
 -1.1744828e-01
 -4.5275399e-01
  1.6794777e+00
  3.2322350e-01
  1.8997166e-01
  1.1602759e+00
  4.6012285e-01
 -1.4988890e+00
  2.3275273e-01
 -1.1436234e-01
 -1.2065898e+00
 -1.3102239e-01
  2.4715836e-01
 -6.0559213e-01
 -8.0326594e-02
  6.3962436e-01
  2.4466421e-01
 -3.1094053e-01
 -2.3840116e-01
 -3.4978381e-01
 -1.0144486e-01
 -7.6258771e-02
  3.9574429e-01
 -3.8491309e-01
  5.9169632e-01
 -2.8353442e-02
  6.6101521e-01
 -4.9369307e-03
  6.2806897e-02
  1.5978339e-01
 -5.8937892e-02
 -1.2046631e-01
 -5.2049011e-01
  4.5132032e-01
 -2.2234529e-01
  1.3762893e-01
 -7.8416288e-02
 -1.0103100e-01
 -1.9861002e-02
 -7.4440107e-02
 -3.0676547e-01
 -1.5013801e-01
  4.8057896e-01
  7.4373019e-01
 -1.4685683e-01
 -2.0554392e-01
  3.8024321e-02
  3.5691399e-02
  3.1907004e-01
 -3.0077967e-01
  6.6891003e-01
  2.2566091e-01
 -7.8874540e-01
 -3.3427471e-01
 -9.7209170e-02
 -1.3834137e+00
  6.9598097e-01
  1.6287088e+00
 -1.8168460e+00
 -2.6210237e-01
  3.6857191e-01
  5.0842381e-01
  1.0650992e+00
 -1.0097421e-02
  9.9413004e-03
  7.2438113e-02
 -1.6598588e-01
  2.4277028e-01
  1.9865483e-01
 -2.1380164e-01
 -1.3394774e-01
  1.6287228e-01
  1.3528341e-01
 -2.4286920e-01
  4.1060023e-02
 -1.1089310e-01
  1.6971305e-02
 -1.0682513e+00
  1.2020678e-01
  6.5056241e-01
  5.9329517e-02
 -1.7115304e-01
  5.2769083e-01
  1.4591637e-01
  7.7418357e-02
 -1.0249691e+00
 -5.1191169e-01
  2.6306909e-01
 -2.5041854e-01
  1.1644506e-01
  9.9146682e-01
 -5.1319855e-01
  4.8882374e-01
 -3.8262779e-01
 -4.0070280e-01
  3.6886421e-01
  3.4534943e-01
 -6.0806113e-01
  6.3988930e-01
 -7.9395407e-01
 -3.5699129e-01
  1.6659798e-01
 -2.5768581e-01
 -3.2899100e-01
  2.0902818e-01
 -2.4767411e-01
  8.4188950e-01
 -3.3187070e-01
  4.8261088e-01
  3.4006700e-01
 -4.0292069e-01
  3.2551578e-01
  8.0247742e-01
 -1.2911003e-02
  3.1771427e-01
 -2.3469099e-01
  2.2815140e-02
 -2.1777730e-01
  4.5505741e-01
 -1.7135440e-01
 -3.9727095e-01
 -3.5160705e-01
 -3.3048701e-01
 -9.8587638e-01
 -1.5253961e-01
  2.0323062e-02
  2.0469831e-01
 -3.3119282e-01
 -5.3240609e-01
 -2.8780672e-01
  6.1807096e-02
 -1.9237438e-01
  1.4556670e+00
  1.1107457e-01
  8.0697238e-02
  6.4886652e-02
  2.1294291e-01
  1.9768743e-02
 -4.6999320e-01
  1.7355204e+00
  7.0324874e-01
  3.7796825e-01
  1.3993670e-01
  1.3529718e-01
  1.4827192e-01
 -3.8704562e-01
  1.6671190e-01
  1.7289422e-02
 -3.2547790e-01
 -1.0001878e-01
 -2.1486144e-01
 -1.8245928e-01
  2.1788927e-03
  2.0435610e-01
 -5.5761921e-01
  4.4863987e-01
 -3.4677097e-01
  4.1704801e-01
 -7.0465527e-02
  2.6304701e-02
 -2.6441711e-01
 -1.6260425e-02
  1.1820362e-01
  2.3646519e-01
  2.2879922e-01
  1.1975285e+00
 -1.0763950e+00
  2.9149852e+00
  4.7242861e-02
  2.8995190e+00
 -9.0520871e-01
  2.6433009e-01
  4.2804921e-01
 -1.0545601e+00
 -1.5571280e-01
 -2.3095632e-01
 -3.4094531e-02
 -2.0344611e-01
  4.4131704e-02
 -2.0723103e-01
 -1.7506391e-01
 -5.0749516e-01
 -9.9910244e-02
  1.4443877e-01
 -1.3448724e-01
  2.0177051e-01
 -4.3444056e-02
  2.1061306e-01
 -1.2530437e-01
 -2.8430650e-02
 -2.7513257e-01
  5.0406639e-02
  7.2284319e-02
  3.3660623e-01
 -1.1847237e-01
 -9.5499717e-02
  2.7946523e-01
  1.7328511e-01
 -1.5244785e-01
  1.9348125e-01
  1.5419012e+00
  2.1912310e+00
  1.1824351e-01
 -3.2931155e-01
 -1.1580639e-01
 -2.4217445e-01
 -2.6447019e-02
  1.5484786e-01
  2.1626160e-01
  9.3308680e-02
  7.1160871e-01
 -1.6226597e+00
  4.0971920e-01
  6.7234552e-01
  8.2028419e-02
 -5.9203621e-02
 -4.7831383e-02
 -4.1672698e-01
  1.1104264e-01
  3.6497727e-01
 -3.2388636e-01
 -4.2758170e-01
  9.4751686e-02
  1.9561453e-01
 -5.2085733e-01
  6.1503094e-02
  1.5769597e-02
  1.3278347e+00
  1.1583452e-01
  5.8206379e-01
 -9.4448638e-01
 -8.8995486e-01
  1.2812510e-01
 -2.1659497e-02
 -6.8351537e-02
  2.4821514e-02
 -2.7790970e-01
 -1.5687716e-01
 -2.2952678e-02
  2.8917614e-01
 -1.2153963e-01
 -1.1333157e-01
 -7.9048261e-02
 -3.0567320e-02
 -2.3925530e-03
  1.4396071e-01
 -2.4151447e-01
 -1.0531433e-01
 -1.4028877e-01
 -1.6507018e-01
 -2.7958602e-01
 -7.3621809e-02
  2.2676507e-01
 -2.2561146e-02
  4.2866845e-02
  1.8329237e-01
  2.6250347e-02
 -4.5841947e-01
  8.1554420e-02
 -9.8972660e-01
 -3.4027883e-01
 -2.3302516e-01
 -5.3027611e-02
  4.2720497e-01
  3.1071255e-01
  2.0052932e-01
 -1.0010263e-01
  1.0322436e-01
 -5.2139604e-01
 -2.1143074e-01
  1.6050546e-01
  1.2660322e-01
 -1.7172012e-01
 -9.6097559e-01
 -7.4972831e-02
  3.7530077e-01
 -1.3855243e-01
  3.0218804e-01
  1.9175103e-01
 -4.4487321e-01
 -7.5954342e-01
 -4.5772862e-02
  1.8765710e-01
 -1.6998719e-01
 -1.7709182e-01
 -3.6001848e-03
 -1.1594845e-01
  7.1830750e-03
  2.3591095e-01
  3.9788017e-01
 -2.6178882e-01
 -3.0047491e-01
  1.4256899e-01
 -4.8013225e-01
 -2.8168269e-02
  1.3349696e-01
 -2.2079951e-01
 -1.2105220e-01
  1.1500917e-01
 -9.2484230e-01
 -5.3287737e-02
  3.1209460e-01
  1.5697798e+00
  2.6569510e-01
  6.9626264e-02
  1.2050704e-01
 -1.2465931e-01
  6.5339670e-02
 -2.1800771e-02
 -1.1235029e-01
 -5.5980754e-01
 -1.1443745e-01
  9.1971004e-01
  4.1676261e-02
 -1.0402967e-01
  1.9334322e-02
 -7.9741716e-01
 -1.3207652e-01
  1.3171624e-03
  2.3514736e-01
 -3.1282920e-01
 -1.4546188e+00
 -7.7485196e-02
 -3.3207709e-01
 -1.0766445e-01
 -3.5818660e-01
  1.4728422e-01
  1.9052169e-01
 -5.7378456e-02
  2.8441124e-02
 -8.6453146e-01
  3.4240198e-01
 -1.3971888e-01
  1.4227065e-01
  1.7101038e-01
  3.9585896e-02
  1.8171888e-02
  1.0905013e-01
 -2.8005219e-01
  2.4481523e-01
 -2.9300603e-01
 -7.7097923e-01
  6.1259703e-03
  2.2552662e-01
  6.4920706e-01
 -3.8342407e-01
  2.1970040e-01
  5.3445655e-01
  2.7889588e-01
 -5.8776647e-01
  4.2771734e-02
  1.4265112e-02
  4.4438910e-01
  1.7733473e-01
  2.8565320e-01
 -1.4646424e-01
  5.8099866e-01
 -6.3599128e-01
  1.0816264e-01
 -4.6926368e-02
 -5.6813306e-01
  6.6304341e-02
 -3.8439724e-01
  1.4633954e-01
 -9.7216904e-02
  2.7345495e+00
 -1.0432472e-01
  2.3294476e-01
 -7.4309778e-01
 -9.6823722e-02
 -4.0297408e-02
 -3.5634053e-01
  4.1849875e-01
 -2.1702267e-02
 -7.9883181e-02
 -9.3722856e-01
 -9.9523244e-03
 -1.6951496e-02
  6.9756927e-03
  4.4520716e-03
  2.4460430e-01
 -1.4045745e-01
  1.1813812e-01
 -2.4850596e-02
 -8.5137635e-02
  1.7119681e+00
 -1.3285105e-01
 -1.4252589e-02
  4.6608165e-01
 -4.9213284e-01
 -7.7513687e-02
  1.8200197e+00
 -2.2409672e-01
 -9.6591786e-02
  5.0890565e-01
  3.7206319e-01
 -2.6997464e-02
 -5.8226347e-01
  1.2608380e+00
  3.2550910e-01
  2.3959330e-01
 -6.3451283e-02
  1.6436124e-01
 -8.3131149e-02
  7.5526461e-02
 -2.8723357e-03
 -2.9124734e-01
  3.3095455e-01
  1.4159907e-01
  8.7542251e-02
 -3.0309203e-01
 -2.5605792e-01
 -2.6159376e-01
 -1.4415959e-01
 -1.4087133e-01
 -3.6833259e-01
  1.6052806e-01
 -2.1578342e-01
  7.1405590e-01
 -1.1352332e-01
 -7.0328116e-02
 -2.5622480e-02
 -1.4889139e-01
  1.3641359e-02
 -3.7010914e-01
 -2.5078246e-01
  1.6958651e-01
 -2.2315812e-01
 -1.9718882e-01
  3.1419311e-02
  1.4647037e-01
 -1.1243350e-02
  2.1733767e-01
  2.3163160e-02
  3.6309880e-01
 -2.7360037e-01
  2.7293870e-01
 -2.8310841e-01
  1.4055340e-01
 -2.5187036e-01
 -9.3748592e-02
 -3.2430112e-02
  7.7024199e-02
  3.5865760e-01
  2.8270929e+00
 -4.8487511e-01
 -1.1843003e-01
  3.1920454e-01
 -1.9471163e-02
  8.8107115e-01
  1.2248249e-01
 -3.9622240e-02
  1.3384522e+00
 -1.5135768e-01
  3.2059651e-02
  3.2544892e+00
 -9.1308641e-01
  1.4813544e-01
 -7.1242046e-01
 -1.2788831e-01
 -7.3725116e-01
  4.0686244e-01
  7.8145280e-02
 -6.2593973e-01
 -2.9289630e-01
 -5.2315716e-02
  8.2219499e-01
 -8.9109093e-02
  7.3398780e-03
  4.5443442e-01
  3.4536892e-01
  1.9235201e-01
  1.3066196e-01
  5.5858475e-01
  2.1951370e-02
 -4.0640671e-02
  1.6458199e+00
 -1.7370375e-01
 -3.1621900e-01
 -7.8529286e-01
 -9.7186911e-01
 -6.6388994e-02
  9.6297093e-02
 -1.5335053e+00
  5.0259892e-02
  7.1409053e-01
 -1.5257861e-01
 -3.2691841e+00
 -6.4450055e-01
 -1.4272960e-01
 -2.3224488e-01
  1.1366989e-01
 -8.0203936e-03
  1.4433075e-02
  4.2360123e-02
 -4.3690972e-02
  2.4160968e-02
  4.7053181e-02
 -9.2777714e-02
  3.1137702e-01
 -4.5992982e-01
 -1.4976053e-02
  1.6621004e-01
  5.1397425e-01
  1.8843645e-01
 -2.6298302e-01
 -2.5372785e-03
  9.5868133e-02
 -7.3315722e-01
  4.5797175e-01
 -2.7761111e-01
 -2.9809993e-02
 -1.0512744e+00
 -3.2053599e-01
  6.7373522e-02
  5.3893752e-02
  1.0595568e-01
 -1.7960245e-02
 -3.4201759e-01
 -4.1514939e-01
 -1.2972133e-01
 -1.0671341e+00
 -7.3306099e-02
 -5.8568511e-02
  3.4018900e-02
  1.5176946e-01
  4.1186936e-02
  1.0541863e+00
 -6.6469359e-01
 -1.0798768e+00
  7.3483205e-01
 -1.4278129e-02
  2.1430290e-01
  2.0462067e-01
  2.7425399e-01
  7.6344264e-01
  7.4878767e-02
  5.9068328e-01
  1.0332216e-01
 -2.9817266e+00
  2.0461243e-01
  3.5160713e-02
  3.4886029e-01
 -4.3515112e-02
  3.9565992e-01
 -5.6025720e-01
  9.4738239e-01
 -1.3711567e+00
 -7.4539876e-01
  3.6698785e-02
  1.9090110e-01
  1.0956659e+00
  2.9443505e-01
  9.5798033e-01
  1.3578186e+00
  5.4693623e-03
  8.2903993e-01
 -4.2608116e-02
  1.0512906e-01
  4.4549638e-01
 -1.3166474e+00
  5.7809174e-01
 -8.3229864e-01
  1.0421679e+00
  2.1919776e-02
 -1.3490415e+00
  2.0656553e-01
  4.7964641e-01
  1.3909439e+00
  1.2266302e+00
  1.7020448e+00
  9.9541187e-01
 -4.8104018e-02
 -5.9104681e-01
  9.0263680e-02
  4.0755555e-01
  6.5655416e-01
 -9.0325274e-02
 -5.9831136e-01
  1.3813752e-01
  7.4212354e-01
 -6.2419444e-01
 -6.6820508e-01
  4.7103223e-01
  1.4291226e+00
 -6.4952022e-01
 -1.5521644e-01
  3.0270100e-01
  4.1399068e-01
 -2.5079347e-02
 -2.9082468e-01
 -1.7774525e-01
 -5.4954785e-01
 -5.1486617e-01
  1.4449024e-01
 -3.4975350e-01
 -1.7255474e+00
 -2.1008040e-01
 -9.3954802e-01
  3.2697296e-01
  5.1991016e-01
  3.8045308e-01
 -7.1870945e-02
 -1.7437711e-02
 -1.1252005e-01
  7.2125308e-02
  3.0333184e-02
  9.4949496e-01
 -4.2401731e-01
 -6.0022041e-02
  5.0888433e+00
 -1.5105408e-02
  2.1296340e-01
 -2.7414730e-01
 -2.0300016e-01
 -2.7169144e-02
  1.2413063e-02
 -2.8367525e-01
  4.6690248e-02
  5.6735027e-01
  7.5215563e-02
  1.1673249e-01
 -2.7401166e-02
 -2.3498769e-01
 -6.6034943e-01
 -5.5438764e-02
 -7.2380441e-01
  7.3471516e-02
  2.8487551e-01
  3.8319138e-01
 -3.3361965e-01
 -1.0047817e+00
 -3.2164845e-01
 -1.3286647e-01
  1.5263961e-01
 -1.7174637e-01
 -3.1909823e-01
  8.1152178e-02
  5.3215301e-01
  1.8498015e-02
  3.3129275e-01
 -3.4311253e-01
  3.0651709e-01
  1.8305222e-03
  1.4281878e+00
  1.3546824e-02
 -9.4096631e-02
 -2.6822358e-01
 -8.6168073e-02
 -1.0456035e-01
 -1.7951940e-01
  1.1209005e-01
 -3.9993501e-01
 -4.3892665e+00
  3.7003350e-02
  2.9532423e+00
 -1.5576619e-01
 -3.1364799e-01
 -1.1815691e-02
 -4.3796936e-01
  4.6241245e-01
  7.6241428e-01
  9.9603355e-02
 -1.6257460e-03
 -5.1847690e-01
 -4.1029565e-02
 -1.1483372e-01
 -4.8403032e-02
  2.9114741e-01
  1.3089009e-01
 -3.4718927e-02
  2.1249222e-02
 -1.3251632e-01
  2.2992282e-01
  4.4578502e-01
 -2.4381070e-01
  5.4858737e-02
  1.4037015e-01
 -6.9594473e-02
 -1.5167519e-01
  6.7632622e-01
  6.7883927e-01
 -1.0989583e+00
  1.3185838e-01
 -5.6807961e-02
  2.6618132e-01
  9.8428690e-01
 -3.5060141e-02
 -3.3971250e-02
  4.2588672e-01
  2.8980827e-01
 -1.7507039e-01
 -1.7265774e-01
  3.1436992e-01
  9.5687503e-01
 -4.5195389e-01
 -3.6182486e-02
  1.1329981e-01
  3.1384125e-02
 -6.1334752e-02
 -3.8660519e-02
  1.3177782e-01
 -6.3664854e-02
  2.0621523e-01
 -6.9387425e-03
  7.5947815e-01
 -5.1919781e-02
  1.8545477e-01
  1.4778905e-01
  5.0409395e-01
 -6.6329964e-02
  4.1185524e-02
 -4.5595306e-01
 -9.2974740e-01
 -1.3260635e+00
  6.9591902e-02
  9.8067784e-01
 -3.5788298e-01
 -1.0885624e+00
  1.1932853e-01
  2.5866926e-03
  5.6854433e-01
  4.7166681e-01
 -2.5312904e-01
  6.5705076e-02
 -1.7669117e-01
  3.3707273e-01
  2.3289123e+00
 -3.1561497e-01
 -1.4519683e-01
 -3.6215585e-01
  1.0784838e-01
 -6.6067040e-02
 -9.2216715e-02
 -5.5154108e-02
 -3.9120924e-01
 -2.8620362e-01
 -6.9173372e-01
 -1.5868677e-01
 -7.7902204e-01
 -1.1140326e-01
 -1.3831669e-01
 -1.7461028e+00
 -4.7623806e+00
  7.8744036e-01
 -1.6665787e+00
 -1.1406082e-01
 -5.8454159e-03
  3.3213818e-01
  9.0042740e-02
 -7.1139604e-02
  2.0427877e-01
 -1.0521425e+00
  8.0771369e-01
  1.7160746e-01
 -1.2271204e+00
 -5.7961392e-01
  1.6749649e-01
  9.7827181e-02
 -6.5301701e-02
 -4.3683735e-01
 -1.4972448e+00
  2.1764337e-01
  7.8414358e-02
  9.5979500e-01
 -3.4030359e+00
  7.6715982e-01
 -1.9723970e-01
 -2.1910347e-01
 -1.9003406e-01
  1.5648517e-01
 -3.0919176e-01
  3.3491269e-01
  4.4693032e-01
  1.8567652e+00
 -5.0891846e-01
 -2.1229377e-01
 -1.5801688e+00
  5.9576797e-01
 -2.3379970e-01
 -3.3274013e-01
 -6.4751669e-03
 -2.9699473e-02
 -1.2197991e-02
  3.9334614e-02
 -2.5560525e-01
 -3.5866556e-01
  4.2284143e-01
 -8.5817277e-02
  6.8638295e-02
  2.7979189e-01
  1.1257096e-03
 -5.3400403e-01
 -9.1449100e-01
 -2.8178126e-01
  4.7537297e-02
  6.4500637e-02
  3.1711936e-02
 -1.0386275e-01
  2.9736724e-01
  3.4508318e-01
 -6.4287573e-01
 -3.1088296e-01
  2.8785464e-01
 -3.1421399e-01
 -4.2290717e-02
  3.7792450e-01
  2.4532604e-01
 -2.3169973e-01
  1.8295418e-01
 -5.4902371e-02
  2.2793996e-01
 -7.6987989e-02
 -1.8531860e-01
  4.1396417e-02
  2.1822004e-01
 -6.2147796e-01
  3.9608914e-01
 -7.8910089e-01
  5.1884979e-02
 -4.1877177e-01
  4.4754989e-02
  1.1828801e-01
 -1.2960514e-01
  3.2358191e+00
 -1.1229580e-01
 -1.2003928e-01
  5.5484480e-01
 -6.3659531e-01
 -5.3214437e-01
 -2.7744934e-01
  6.9835514e-02
  7.3582649e-01
  4.3109956e-01
  2.3501824e-01
 -7.4771419e-02
 -3.3475327e-01
 -9.6787852e-01
  6.0240339e-02
  8.0473870e-02
 -2.0043457e+00
  2.6854727e-01
  2.6301157e-02
 -1.0097706e+00
 -9.5345445e-02
  1.1105075e-01
 -2.8544840e-01
 -3.6210024e-01
  1.2792911e-02
 -6.5770179e-01
  2.4531958e-01
  6.4009076e-01
 -5.6059670e-01
 -1.4217558e+00
  3.0078104e-01
 -1.4925339e+00
  3.1608981e-01
  1.9003282e-01
  1.7793320e+00
 -1.2072117e-01
  5.2557308e-02
  4.4379738e-01
  2.7697489e-01
  1.1683352e-01
  1.5338006e-03
 -1.0711911e-01
 -1.4271924e-01
  1.7216685e+00
 -2.4580556e-01
  3.2394165e-01
 -4.8288393e-01
 -1.1734697e-04
 -3.4423988e-02
  3.7184495e-01
 -3.0444157e-01
  9.6299827e-01
 -3.1049663e-01
 -3.7646887e-01
  1.1467367e-01
  1.5800279e-01
 -3.7057644e-01
  6.4087309e-02
  3.9350547e-02
  4.3993142e-02
 -5.6747991e-01
 -5.5492091e-01
  3.4036837e+00
  6.2310869e-01
  3.8918987e-01
 -4.1831899e-03
  7.9382896e-02
  1.7315469e+00
 -6.3125020e-01
 -7.6263440e-01
 -1.2207534e+00
 -5.5009586e-01
  2.4978425e-02
 -6.4628132e-02
  1.0252331e+00
 -1.2372176e-01
  2.8584376e-01
  2.7207634e-01
 -1.0603394e-02
 -6.9846040e-01
 -9.2169121e-02
  6.7421429e-02
  3.7703156e-01
  3.4251353e-01
 -5.0811358e-02
 -9.8012991e-02
 -1.5307437e-01
 -3.2892019e-02
 -7.2192287e-01
  2.4621378e-01
 -4.2057168e-01
  3.0147669e-01
  1.2236018e-01
 -1.5529042e-01
 -1.0179835e-01
 -7.9625007e-03
 -7.2995313e-03
  5.7924494e-02
 -5.3448999e-01
 -2.5727805e-02
  6.2169507e-02
 -7.3481686e-02
  5.4880477e-02
  7.7150124e-01
  1.5936235e-02
  3.0285007e-01
 -1.0896102e-01
 -1.8377563e-01
 -8.9747392e-02
 -1.1267716e-01
 -3.9628989e-01
 -3.2078400e-01
 -3.6415002e-01
 -3.4143230e-01
 -1.2173867e+00
 -4.3975107e-02
 -5.5818689e-01
 -1.1702154e+00
  1.8875749e-01
  7.4190192e-02
 -9.6580267e-01
 -1.4805948e-02
  1.9629595e+00
  1.8676428e+00
  1.2993444e+00
 -6.6417791e-02
  3.6569223e-01
  3.0076019e-02
  1.4673948e+00
  1.8082135e+00
  5.4460317e-01
  1.5224508e+00
  7.1477778e-02
 -3.6725858e-01
 -1.0733072e+00
  3.3277705e-01
 -1.3815527e+00
 -3.7241788e+00
 -3.7531033e-02
  2.9288739e-01
 -5.8602285e-01
  1.0060480e+00
 -4.9526278e-02
 -6.1767370e-01
  2.1410575e+00
 -4.4200870e-01
  9.5095688e-01
 -4.7141284e-01
  3.2153971e+00
 -1.9204823e+00
 -2.6064900e-01
 -2.7326555e+00
 -9.8422068e-01
 -1.2570213e+00
  8.2187749e-02
 -1.9721325e-02
 -1.3703463e+00
  1.1781679e+00
  1.6607203e+00
  8.4933203e-01
 -1.0732292e+00
  2.4903181e-01
 -1.9287756e-01
 -7.0699215e-02
  1.2339487e+00
  1.3258296e-01
 -6.1223215e-01
 -4.7045898e+00
 -7.0151113e-02
  5.5136301e-02
 -7.6250561e-02
  1.2250353e-01
  5.5377569e-02
 -6.1369680e-02
 -4.6819532e-01
  2.0566942e-01
  4.4030046e-01
 -4.6793503e-01
 -3.5602206e-01
 -3.0638862e-01
 -2.6963925e-01
 -1.1197923e-01
  1.4182724e-02
  7.1163070e-01
  5.1279008e-02
 -1.4036975e+00
  5.6587720e-01
  9.8585621e-02
 -1.1887626e-02
  3.2600409e-01
  2.0701455e-01
 -1.6542430e-01
 -4.9944910e-01
  2.2976644e-01
  8.4671281e-02
  1.8022812e-03
  9.8101538e-01
  3.9021108e-01
 -1.5850247e-01
  1.3826606e-01
 -3.7821746e-01
  5.5516690e-01
 -1.3072203e-01
 -1.2524723e-01
 -1.1430835e+00
 -6.7201791e+00
  3.1959546e-01
  8.5450515e-02
  1.5606918e+00
  4.0482000e-02
 -3.0476972e-01
 -8.6580686e-02
  6.0056530e-02
  2.5748386e+00
  4.7223610e-01
  3.5390537e-02
  1.3053846e-01
 -3.9307117e-03
  1.6596542e-01
 -1.9043357e+00
  5.5999994e-01
  8.4267601e-02
 -3.7492868e-01
  1.1481606e-01
 -1.1231951e+00
 -4.7665098e-01
  1.1450201e-01
  1.4384934e-01
  1.9607195e-01
  4.0360913e-02
  5.9319186e-01
 -5.2894700e-01
 -6.2654205e-02
 -6.2041348e-01
  1.6530097e-02
  2.2481433e-01
  2.6417482e-01
  6.7520481e-01
 -1.5704266e+00
 -4.8352855e-01
 -1.9535609e-02
  6.7484699e-02
  9.0997797e-03
  2.3406647e-01
 -1.8599528e-01
 -2.8605932e-01
  2.7693361e-01
 -5.5950832e-01
 -2.4554230e-01
  2.3198397e-01
  2.7478206e-01
 -2.1801833e-02
 -1.5676445e-01
 -2.5249782e-01
  8.7062168e-01
  2.1619563e-01
 -6.5330374e-01
  1.4024273e-01
 -3.6737359e-01
 -3.6311582e-01
  1.6028129e-01
  3.4797087e-01
 -1.8952003e-02
  5.9636545e-01
  7.0862725e-02
  6.2575167e-01
  4.1127685e-01
 -9.0302360e-01
  1.4846209e+00
  1.7656782e-01
  2.0762721e-01
 -2.5305698e+00
  4.6783495e-01
 -1.1822110e+00
 -2.3274730e-01
 -9.6388394e-03
 -3.3452895e-01
 -4.1203782e-01
  2.3393303e-01
  7.1162976e-02
  9.0658909e-01
 -1.2349258e-01
  2.3366889e-01
  3.4409646e-02
  3.6319685e-01
  7.9554841e-03
 -2.3261099e-01
 -5.4580164e-01
 -8.0513498e-03
  7.1609318e-01
 -5.5760235e-01
 -5.6029195e-01
  3.7320805e-01
 -3.7472416e-03
 -2.8602436e-01
  6.6333748e-02
  5.8831209e-01
 -1.8531002e-01
  3.9136603e-01
 -5.3954203e-02
  2.2568378e-01
  9.2095165e-03
  1.4594841e-01
  1.9701269e+00
  5.6502998e-02
 -2.6431896e-02
 -1.7249760e-01
  5.4861240e-02
  4.2115939e-01
 -2.7717844e-01
 -1.9460571e-01
 -5.6337982e-01
  3.8226515e-01
 -1.4609227e-01
 -3.8335100e-01
 -1.2498441e-04
  2.4556343e-01
  4.4013880e-02
  3.9906785e-02
  1.4045922e-01
 -1.9316375e-02
 -1.2433967e-01
 -1.7262895e-01
  1.4193507e-01
  5.2397954e-01
 -8.2518852e-01
 -1.7049839e-01
  7.4692076e-01
  9.3972765e-02
 -1.2641241e-01
 -6.1973784e-02
 -2.4039353e-01
  6.0994136e-01
  2.2648317e-01
  2.3219848e-01
 -2.2918820e+00
 -1.1580566e-01
 -1.3083670e+00
  1.8155540e+00
 -7.1282023e-01
  8.0134648e-01
 -2.5329551e-01
  5.2575469e-02
  6.4994729e-01
 -3.7837859e-02
 -4.8916054e-01
 -3.0253679e-01
 -7.0907050e-01
 -4.2256007e-01
  7.9369944e-01
  5.0268888e-01
  8.8980898e-02
 -1.0474774e+00
 -1.9179998e-02
  2.8650895e-01
  9.4891810e-01
 -1.8101977e-01
 -3.7235764e-01
 -6.3163441e-01
  1.8056597e-01
 -3.5088085e-02
 -3.5247698e+00
  6.9621891e-01
 -1.5914975e+00
 -2.5930027e-03
 -1.0159619e-01
  1.2433577e+00
  4.4343045e-01
 -5.3756160e-01
  2.6909104e-01
 -1.0751810e+00
  3.1513815e+00
  3.9486349e-01
  1.7721363e+00
 -1.3098888e-01
 -3.1391871e-01
 -4.2151943e-01
  6.6605300e-01
  2.4036791e-02
 -1.0351785e+00
  1.2839743e+00
 -4.3064213e-01
  4.1222963e-02
 -1.7293897e-01
 -1.7071135e-01
 -4.5746133e-01
  2.5725874e-01
  3.1782486e-02
 -1.9395249e-01
  3.5455194e-01
 -2.0894586e-01
 -2.9107466e-01
 -2.4647373e-01
  1.1572039e+00
  2.4771504e+00
  3.6948740e-01
  1.5769688e+00
 -1.4121498e+00
  2.7012998e-02
  5.8459944e-01
  3.2135916e-01
 -2.1622579e-01
 -9.0849668e-02
  9.2736311e-02
  3.6598012e-01
  8.3741680e-02
 -1.9665316e-01
 -1.8306062e-01
 -4.2090025e-02
  1.8382385e-01
  2.0141919e-01
  1.4604328e+00
 -2.9862052e-01
  4.7866634e-01
  8.0184197e-01
  1.2927255e-01
 -2.8057507e-01
 -6.3265181e-01
 -3.1612784e-02
 -1.5443023e-01
 -2.9003119e-01
  6.5853143e-01
  7.8255735e-02
  9.2850067e-02
 -2.8271690e-01
 -2.0551452e-01
 -1.3617501e-01
  3.6643289e-02
  4.4515276e-01
 -1.4954190e-01
  1.4798144e+00
  1.5292987e-01
 -1.4223271e-02
  1.5636638e-01
 -2.4793898e-01
  5.5093918e-02
  5.8426894e-03
  2.5772619e-01
  1.1054513e+00
  6.7391372e-01
 -2.4428304e-01
 -8.8414502e-01
  1.5776467e-01
 -1.5048654e-02
  6.4678299e-01
 -3.1284943e-01
  7.8331873e-02
  2.2729841e-01
 -6.9803111e-02
 -2.5661212e-01
 -4.1106296e+00
  1.8269235e+00
  8.3342743e-01
 -4.7225916e-01
 -1.2546011e+00
 -1.3846725e+00
 -8.5309428e-01
  1.1117022e-01
  2.2626218e-01
 -9.3616582e-02
 -4.8423377e-01
 -1.5366907e-02
  1.6967046e-01
 -2.0013636e-01
 -1.5135763e+00
 -2.1294935e-01
 -1.1409618e+00
  4.3578592e-01
 -9.1504425e-01
  1.4684623e+00
  5.6587696e-01
 -3.9532289e-01
 -1.7279671e-01
 -1.4520989e-01
 -1.6043652e+00
  3.7187889e-01
  4.9658015e-02
  8.3710486e-01
 -4.1037303e-01
  1.2363085e-01
  2.9662914e+00
 -7.5645977e-01
  2.3878579e+00
 -2.9895693e-01
 -1.0245619e+00
 -1.2143216e+00
  6.7403334e-01
 -2.0529018e-01
  7.0840210e-02
  1.7270098e-02
 -2.9369012e-01
 -4.3470049e-01
 -8.8965517e-01
  6.3275099e-01
  1.0251263e+00
 -1.2678870e+00
  1.4754584e+00
  1.1010265e-01
  6.1960912e-01
 -5.3319061e-01
  1.3790258e+00
  1.2592021e+00
 -3.7008449e-01
 -4.4931930e-01
 -1.3302393e-01
 -2.6576621e-02
  5.8592248e-01
 -6.6012904e-02
 -1.2099230e-01
  5.6085455e-01
  3.3461317e-01
  2.2860177e-01
 -1.2199882e-01
  5.9109509e-01
 -1.0545068e-01
 -4.5141101e-02
  7.5990736e-01
 -6.7551583e-01
  4.5049124e+00
 -3.3436120e-01
 -5.6726467e-02
  4.5579251e-02
  2.8006160e-01
 -1.1142195e-01
 -1.2241200e-01
  4.7366451e-02
 -6.1833184e-02
 -3.9698508e-01
  4.4957235e-02
  3.3329853e-01
 -3.5263188e-02
  3.1054553e-01
 -1.9252708e+00
  3.6246456e-02
  7.6365441e-02
 -2.0000357e-02
 -1.9615865e-01
  1.0574769e-01
  5.1611520e-02
 -1.2071872e+00
  1.8761406e+00
  3.1528765e-01
 -4.8862413e-02
  5.2593553e-01
 -4.0361768e-01
 -4.2726085e-01
  2.8207555e-01
  1.3089581e-01
 -2.4833560e-01
 -1.2670454e-01
 -1.7508049e-02
 -2.8934443e-01
 -1.4630492e-01
  2.5862914e-03
  1.0851723e+00
 -1.9074765e-01
 -5.3946370e-01
 -1.2791353e-01
  2.5788024e-02
 -1.3405430e-01
 -1.4070241e+00
 -1.7111032e+00
 -5.9620816e-01
 -4.1859412e-01
 -9.1559574e-02
 -7.4376054e-02
  5.5194420e-01
  4.1400072e-01
 -9.3675268e-01
 -4.9102226e-01
 -1.1964110e-01
  8.9448398e-01
 -5.8321059e-01
  1.3011551e-01
 -6.1160910e-01
 -7.4509032e-02
  1.5883988e+00
 -1.7817451e-01
  8.1773482e-02
 -1.5325861e-01
  2.3125659e-01
 -6.2643319e-01
  1.1395596e+00
 -4.4906434e-01
 -3.4054491e-01
 -1.2683308e+00
 -6.6854155e-01
  2.2270776e-02
 -3.9875280e-02
 -7.2561562e-01
  1.4852290e-01
  1.4982767e-01
  2.1952026e+00
 -3.1373340e-01
 -3.1244880e-01
  3.6298501e-01
  1.4355479e+00
 -1.8091804e+00
 -9.3979873e-03
 -4.5267949e-01
  2.3131976e-01
 -5.6183887e-01
 -6.9146734e-01
  4.5522526e-01
  1.0136932e+00
 -1.1388781e+00
  4.7828969e-01
  5.9225315e-01
 -1.6290963e-02
 -3.5144505e-01
 -1.5270580e-01
  6.5823841e-01
 -1.4220463e+00
 -5.5663276e-01
 -3.3990881e-01
 -7.8630291e-02
  3.0346634e+00
  1.3951551e+00
  3.3840498e-01
  8.4432650e-01
  2.2638884e+00
  5.6631249e-01
 -5.9366357e-01
 -4.4246173e-01
  1.6222336e+00
 -8.5957214e-02
 -2.3873398e+00
 -2.0875642e+00
  3.4386298e-01
 -3.6631200e-01
  1.5773576e+00
 -1.6553937e-02
  1.7921188e+00
  1.8933062e-02
  7.7395773e-01
  1.3962030e+00
  3.5048500e-01
 -2.2972532e-01
  9.9027656e-02
  7.5886059e-01
 -2.6182348e-01
 -1.2511644e+00
 -2.5019020e-01
 -1.0723513e+00
 -6.8464541e-01
  1.1920240e+00
 -3.9975315e-02
 -3.8559539e+00
  4.3684274e-01
  7.4468851e-01
  2.5985688e-03
 -7.0003822e-02
  1.3983248e-01
 -6.1642216e-03
  3.3282116e-01
 -1.3912749e+00
 -9.3237925e-01
 -1.2799565e+00
  9.3619710e-01
 -2.6800668e-01
  6.6952175e-01
 -7.9572819e-02
 -6.2444943e-01
  6.9079444e-02
  9.9768855e-02
  1.1458056e-01
 -2.3839443e+00
  5.2878670e-02
  4.8131099e-01
  1.7818415e-01
 -2.6718391e-02
 -3.9110208e+00
 -3.9915615e-01
 -3.3420351e-01
 -2.8485100e+00
 -9.5446639e-02
  1.1060355e-02
  4.9306557e-02
 -4.3353224e-01
 -1.2663892e-01
 -1.8663610e+00
  1.1089449e+00
 -1.5867893e-01
 -4.6017557e-02
  1.8645931e-02
  2.6557383e-01
  2.4317300e+00
  1.4541303e-01
  5.5671040e-02
  7.9943335e-01
  1.1993225e-03
 -1.2576131e+00
 -1.0477287e-01
  1.4848182e-01
  2.2765608e-01
  2.8376654e-01
 -1.6246089e-01
  2.5019577e-01
  1.9897161e-01
  1.8587410e-01
 -8.9920824e-03
  4.4662839e-01
 -1.5234586e-02
 -6.9868483e-02
  5.7860398e-01
  2.5567073e-01
 -1.2549430e-01
 -4.4720775e-01
 -5.0576431e-01
 -5.1916760e-01
 -4.2164199e-02
  3.9162520e-01
 -5.1842853e-02
  1.4837016e-01
 -4.2146057e-01
 -3.9957082e-01
 -3.3567202e-01
  3.3547589e-01
  1.2730163e+00
  1.0477535e-01
  8.7671511e-02
  4.9113490e-02
 -2.4375352e-01
  6.7365117e-02
 -1.2284654e-01
  4.0058203e-02
 -2.4013698e+00
 -3.0294156e-01
  1.5303047e-01
  4.6487153e-01
  7.6230878e-01
  1.9892690e+00
  1.2343335e+00
 -4.4427551e-02
  1.4777763e-01
 -3.7783112e-02
 -5.9298313e-01
 -3.0174675e+00
 -3.7302583e-01
  4.2326504e-01
  4.5692858e-01
  2.2309473e-01
 -2.5410050e-01
  8.0345280e-02
  7.3523241e-01
  2.8353274e-01
  4.5404163e-01
 -1.0368717e-01
  5.8146261e-02
  5.3756237e-02
 -6.4002961e-02
 -4.4524083e-01
 -1.7173864e-02
 -1.9910102e+00
  7.7573374e-02
  1.6500853e-01
 -8.5125148e-02
 -5.6781195e-02
 -4.3800989e-01
 -1.3075857e-01
 -1.7571952e-02
  3.3776894e-01
  1.7676637e-01
 -2.1754643e-01
 -2.0706031e+00
  3.0072734e-01
 -7.5962313e-02
  1.0701039e-01
 -3.9089498e-01
  4.2113843e+00
  1.1302590e+00
 -5.0978413e+00
 -1.6967645e-01
  1.7851599e-01
 -7.8557259e-01
 -1.5444875e-01
  4.1814357e-01
 -3.3969322e-01
 -8.5355639e-02
 -2.6820320e-01
  4.0446737e-01
  4.9749726e-01
 -4.7822496e-01
 -4.0525287e-02
  3.8390079e-01
  2.1562693e+00
  4.0536433e-01
  1.1882644e+00
  5.0969613e-01
 -2.2997571e-02
 -8.1347942e-01
  6.8961613e-02
  1.1889110e-01
 -1.5660901e-01
 -9.7356790e-01
 -1.2771401e+00
  1.9420849e-01
 -4.9573889e-01
  1.6043822e+00
  1.5738896e+00
 -7.6018833e-02
  3.8442314e+00
  1.9271810e-01
 -2.3901312e+00
  2.1035163e-02
 -2.5206091e+00
 -3.6270067e-01
  2.1516550e+00
 -5.8817461e-02
 -4.5810863e-01
 -2.5661893e+00
  1.2765671e+00
 -1.5168285e-01
 -4.3650088e-01
 -3.7198710e+00
  4.9423732e-02
 -1.4096234e+00
  3.4732133e-01
  3.2402203e+00
 -1.1275756e+00
  9.6821964e-01
 -1.7920898e+00
 -2.8555083e-01
 -2.6021554e+00
 -1.0421132e+00
  6.8108983e-02
  1.1385906e+00
 -2.3560651e-01
  1.0506284e+00
 -5.2929193e-01
 -7.9589415e-01
 -1.9287589e+00
 -3.6035854e-01
  2.2272240e-01
  1.4377698e-01
 -5.6916635e-02
  2.9604974e+00
  9.1789842e-01
  2.3953526e-01
  2.0295579e+00
  4.9118105e-01
  3.7836832e-01
 -2.6606193e-01
 -3.1772275e-02
 -4.3050236e-01
 -9.7998679e-01
  1.1974158e+00
 -9.7134382e-01
  3.1423628e+00
  2.2138268e-01
  1.8076630e-01
  9.7865981e-01
  3.0541641e-01
 -1.2925659e-01
 -2.6323429e-01
  2.1885190e-02
  7.4941552e-01
  5.1248521e-01
  4.2491099e-01
 -8.5104026e-02
  2.0051029e-01
  3.0170676e-01
  6.7897016e-01
  3.5077248e-02
 -1.4811081e-01
 -5.4706052e-02
 -5.4694152e-01
  1.4622178e+00
 -3.7941393e-02
  7.4213329e-03
 -1.4835390e-02
 -6.3088542e-01
  1.1645714e-01
 -3.5902137e-01
  1.0995055e-01
  1.3200425e-01
 -4.9345795e-02
  1.4053394e-01
 -3.6343965e-01
 -6.7587443e-02
  3.8324279e-01
 -6.2092777e-02
  3.5024139e-01
  3.4749496e-01
  6.1543638e-01
  1.1573941e-01
  3.7773842e-01
  8.4591009e-02
  9.2563607e-02
  5.4629836e-02
 -5.5877590e-01
  1.6542350e-01
  1.4464511e-01
  1.6436094e-01
 -3.8460657e-01
  1.7247912e-01
  8.0760604e-01
 -2.0901878e-01
 -2.4766503e-02
  2.2826272e-01
 -2.2975964e-02
  1.8084872e-01
 -1.5182123e+00
  1.7153723e+00
 -1.7350404e-01
  2.1169641e+00
  1.4543033e-01
 -1.0833687e+00
  9.3205905e-01
 -7.5794339e-01
  7.3590660e-01
 -1.9365357e-01
 -5.4434526e-01
 -9.8318439e-03
  2.6044195e+00
  5.9580261e-01
  1.1837610e+00
 -2.1104217e-01
 -3.9014015e-01
 -2.6963031e-01
 -1.3797632e-03
  2.2699316e-01
  1.5457895e+00
  4.5802307e-01
  9.6458149e-01
  1.7972772e-01
 -2.9355180e-01
  1.9353786e-01
 -1.1526850e+00
  2.5710794e-01
 -8.2013719e-02
 -6.4441435e-02
  2.8927106e-02
 -3.7708077e-01
  1.0949912e+00
  2.1335550e-01
 -1.5755013e-01
 -4.8327796e-02
  2.2224645e-01
 -3.4104308e-01
 -9.3909460e-01
 -6.3756086e-02
  1.3910303e+00
  6.3611016e-02
  4.6700720e-02
  3.8444325e-01
  1.7751366e-01
 -1.0463705e-01
 -4.9075070e-01
  3.6013445e-01
 -4.0221754e-01
 -1.1839326e-01
 -1.4194091e-01
  1.0606847e+00
  1.3001812e-01
  2.9532036e-02
 -1.6757731e-01
 -4.1502908e-02
  6.2489045e-01
  1.2713045e-01
 -1.4106750e+00
  1.1229631e-01
  1.3981913e-01
 -1.9411671e+00
 -3.2702934e-02
  3.6325938e-01
 -4.8225072e-01
 -6.3102925e-01
 -6.0323816e-02
 -2.1331300e-01
 -1.6087107e-01
 -4.1775846e-01
  9.5088311e-02
 -1.8241761e-02
 -7.0513493e-01
 -4.6770746e-01
  4.1824531e-02
 -1.0727497e-01
  7.3661631e-01
 -2.3518907e-01
  8.6133271e-02
 -1.6292295e-01
 -1.5259114e-01
  2.7371202e-02
  4.5638216e-01
 -1.5867759e-01
  3.0626830e-01
 -1.1706033e-01
 -5.0820190e-01
  9.4123945e-02
  2.9965562e-01
 -4.0139475e-01
 -2.3368427e-01
  2.4097893e+00
 -4.1927710e-02
 -4.9323933e-03
  2.5291465e-02
 -1.2023492e-01
 -3.7103590e-02
 -2.0131715e-01
  2.9093137e-01
  1.4443128e+00
 -4.6483006e-02
 -4.7020841e-01
 -3.1876642e-02
 -1.6311222e-01
  4.8059467e-03
  1.5059312e-01
  1.7685229e-02
  2.8003891e+00
  4.3270195e-01
 -2.2052532e-01
  1.0607302e-01
 -1.1854496e-01
 -2.8936159e-02
  2.1033409e-01
 -4.3997243e-01
  2.1961448e-01
 -2.4239983e-01
  6.1808646e-02
 -5.2587595e-02
  3.3547059e-02
  5.0960612e-02
  8.7725461e-02
 -2.8314433e-01
 -1.6772598e-01
 -1.9124860e-01
  1.7217025e-01
 -7.0157915e-02
 -1.0957719e-02
  1.4064737e-01
  5.4209838e-03
 -5.5635023e-01
  1.0078974e+00
  3.0736107e-01
  1.5380430e-02
  1.1947567e+00
 -7.2024643e-01
 -6.1918069e-02
  4.5022649e-01
  5.2314024e-02
  1.7702572e-02
  2.3409273e-01
  2.2617838e-01
 -5.5543464e-01
  1.3717385e-01
 -8.2983971e-01
  2.1101071e-01
  2.1402520e-01
 -4.1905853e-01
 -5.6430465e-01
 -2.8209019e-01
  3.1586714e-02
  1.8041764e-01
 -1.8257754e-02
 -6.8260872e-01
 -5.9818286e-03
  1.9029351e-01
 -1.0970339e-01
  2.0397374e-01
  1.4399119e-01
 -6.0980603e-02
  7.1224250e-02
  1.1968268e-01
  1.0394649e-01
  6.2454566e-02
 -7.8744388e-01
 -1.5301573e-01
 -2.4701640e-02
 -9.3123281e-01
 -6.2571561e-01
  4.4706866e-02
  9.8113595e-03
 -9.4416732e-01
  1.0968938e-01
 -1.1404751e-01
 -2.7265513e-01
 -3.9660141e-02
 -5.1252969e-02
  3.3037665e-01
  1.7462658e-03
 -3.7097687e-01
  2.4702448e-01
 -5.2078632e-03
  2.4406502e-02
  4.0475065e-01
  2.0471373e+00
 -1.0052744e-01
 -1.4396404e-01
  8.2973808e-02
  2.0708212e-01
  3.0187932e-01
  1.2885730e+00
 -1.5908322e-01
  3.7235168e-01
  3.5687944e-01
 -1.9418372e-01
  1.8374790e+00
  1.4340565e-01
 -1.3566242e+00
 -9.6062705e-02
 -1.3418788e-01
  3.6419924e-02
 -8.5196011e-02
 -3.5167491e-01
 -6.7482042e-01
 -3.3790064e-01
  2.3240525e-01
 -7.3748976e-02
  1.2922962e+00
  1.2896743e-01
 -4.3960076e-02
  4.2647619e-02
 -2.5553444e-01
 -3.4758958e-01
 -6.5139300e-01
  2.4903718e-01
  4.6447650e-02
 -6.2063801e-01
 -1.5648407e+00
  4.6178665e-02
  1.3921002e-02
  6.8417625e-03
  1.0870962e-01
 -2.7394763e-01
  9.4027662e-01
 -4.2840824e-01
 -1.0747711e-02
  1.6196268e+00
 -3.1778866e-01
  4.6932372e-01
 -1.0050134e-01
 -6.9356454e-03
  2.8975978e-01
  1.8226907e-01
  1.6721241e-02
  1.5959878e-01
 -2.7896208e-01
 -2.9079435e-02
  2.1773204e-01
  3.4724316e-01
  2.1781060e-01
  3.8347280e-01
  8.4827650e-01
  3.2183290e-01
 -3.9459392e-01
 -1.2632133e-01
  2.2346101e+00
 -2.6385853e-01
 -3.6807504e-02
 -2.5040057e+00
  6.6344231e-02
 -9.5289042e-03
 -1.3598998e+00
 -1.8954518e-01
 -2.2450464e-03
 -1.1450359e-01
 -4.2877547e-02
 -6.5606242e-01
  2.7234314e-02
  1.2298337e-01
  2.1889648e-01
 -6.1665062e-02
 -2.0769294e-01
 -8.8344711e-01
 -2.9642614e-02
  6.1145711e-01
  3.7607279e-01
 -3.5195139e-01
 -6.4309366e-02
 -2.9865417e-01
 -1.0948373e+00
 -3.2960644e-01
  2.7283114e-01
  1.1974684e+00
 -1.5833379e-01
  3.6462814e-01
  7.4768312e-02
  1.8185616e-02
 -1.9214270e-01
  2.3765992e-01
  1.7266536e-01
  3.3408634e-02
 -2.4202301e-01
  1.4833693e-01
 -1.1927291e+00
  1.4840752e-01
  7.9299081e-03
 -2.2548878e-01
  1.4719097e-01
  3.0152364e-02
 -1.8409981e-01
 -4.4269536e-02
  2.2992568e-01
 -9.3713589e-02
 -5.3379929e-01
  4.2761553e-02
 -3.6821570e-02
 -3.8982235e-02
  3.0731049e-01
 -3.9701346e-02
  3.1048989e-01
  8.5715599e-02
 -4.4861320e-01
  1.0646912e-01
  8.1318729e-02
  4.1508634e-02
  3.4781961e+00
 -9.9235207e-02
  5.1127905e-01
 -6.3205081e-01
  3.7779504e-01
  2.5282723e-01
 -5.8559310e-02
  6.1155502e-02
 -3.8182729e-01
 -1.1086770e-02
  2.5252932e-01
 -7.8711860e-02
  2.5035924e-01
  2.2151187e-02
  8.3168167e-01
 -2.1126263e-01
 -9.8277140e-01
 -6.8038799e-02
 -1.2316678e-01
 -1.2585104e-01
  1.0216061e-01
 -1.7607646e-01
 -6.3885652e-02
  9.6148390e-01
 -1.3683556e-01
  3.1585425e-01
  4.0981057e-03
  1.9763580e-01
 -1.7836908e-02
 -7.4987137e-01
 -6.5907538e-02
  1.9209561e+00
  3.1759143e-01
 -1.7429455e-01
  4.5947224e-01
  2.6408690e-01
 -1.0525061e-01
  6.6276509e-01
 -3.1384099e-01
 -1.6957590e-01
  1.3602909e-01
  3.9010473e-02
  3.8339984e-02
 -1.4091617e-01
 -7.4100727e-01
  1.0097500e-02
 -4.9088106e-01
  2.9197698e-02
  1.9354331e-01
 -1.1765451e-02
  1.4320430e-01
  7.4577801e-02
  5.7257369e-02
  1.2157162e-01
  1.4062485e-01
  3.6078535e-02
  2.8651726e-02
  1.1187018e+00
  2.8422242e-01
  1.7718802e-01
 -7.4338013e-01
  3.8806331e-01
 -8.0061239e-01
 -4.5457029e-01
 -7.7094990e-01
 -5.6546718e-01
  1.1745073e-01
 -2.5620896e-01
 -2.3286955e+00
  1.3513465e-01
 -3.2864174e-01
  5.9849876e-01
  7.1647084e-01
  2.8039351e-01
 -2.0638180e-01
  1.2816210e-01
 -3.3767799e-01
  4.2347592e-01
 -4.5871580e-01
  2.2446974e-01
 -2.9023129e-01
  3.9516032e-01
 -1.2277791e-01
 -1.5128317e-01
  1.5627129e-01
 -3.9296836e-01
 -2.5374860e-01
  1.4071513e+00
  5.1371181e-01
  9.9166030e-01
 -9.4330955e-01
  6.5133083e-01
 -8.0361098e-02
  2.0615244e-01
  2.5079075e-02
  2.7820284e+00
 -1.9134969e-01
  2.1449354e-01
 -6.4082599e-01
 -1.5728173e+00
 -2.8753418e-01
 -7.5333022e-02
  5.1074177e-01
  4.2162207e-01
  3.2722759e-01
  6.6169357e-01
 -1.1643389e+00
 -1.2739340e+00
 -1.2214981e+00
  1.6712995e-01
  1.6080048e+00
  5.4571122e-01
  5.3273386e-01
 -1.1690249e-01
 -3.2225761e-01
 -7.9676968e-01
  2.8580191e+00
 -7.9149693e-01
  5.4797041e-01
  7.4711907e-01
  8.8948533e-02
  2.2309954e-01
  2.3399746e-01
 -2.7461782e-02
  2.8664872e-02
 -1.8139891e-02
 -7.7255982e-01
  3.5486764e-01
  4.2142889e-01
  5.4882443e-01
  1.3985468e+00
  3.6774058e+00
  4.3163966e-02
 -5.1479471e-01
 -3.3124512e-01
 -1.8247996e-01
  3.4437057e-01
 -6.1313337e-01
 -1.2571460e-01
 -4.5544647e-02
  1.2605147e+00
 -3.0205977e-01
  1.3336210e-01
 -5.7069600e-01
  6.7918795e-01
 -2.5134546e-01
 -2.0014514e-01
  6.9355202e-01
 -1.9686249e-01
  1.3235712e-01
  5.6590927e-01
 -6.5925978e-02
  1.8228088e-01
 -3.7466487e-01
 -1.0262716e+00
 -7.4118130e-02
  4.9325276e-02
  5.5366176e-01
 -1.7988255e-02
  1.6244242e-02
  4.3534777e-01
 -1.3463898e-01
  3.9872959e-02
  1.5220831e-01
 -5.5993080e-02
  5.5928253e-02
  3.9602242e-02
 -1.6967466e-01
 -4.7478965e-01
  2.7543897e-02
 -1.6711378e-01
  1.6936947e-02
  4.8984099e-02
  3.9621067e-01
  6.5984078e-02
 -1.7067778e+00
  2.1726836e-01
 -5.3890040e-03
  4.0801868e-01
 -2.0072979e-01
  9.7611345e-02
  6.6845812e-02
  2.8055590e-01
  1.8248667e-01
  1.5798432e-01
 -1.2359419e-01
  5.2274394e-01
 -1.2575458e-01
  2.3954624e-01
  1.9726080e-03
 -3.0709752e-01
  3.1884646e-01
  1.9801012e-01
  1.3727289e-01
 -9.4276622e-02
  3.0151713e-01
  1.5788731e-01
 -3.2335961e-01
 -5.6226317e-02
  6.2586844e-01
  2.3287471e-01
  4.1036651e-02
  3.1444427e-01
  1.4371826e-01
  1.3073328e-01
 -5.9596026e-01
  1.3194835e-01
  3.4375176e-01
  4.9493428e-02
  3.0808762e-01
  9.9329138e-01
 -3.5671208e-02
 -3.9254573e-01
 -2.1443577e-01
  5.8068708e-02
  1.4979826e-01
 -2.4322927e-02
  1.7661980e+00
 -1.5490997e-01
  6.5745670e-01
 -9.9889360e-02
 -4.6805840e-02
 -2.4777334e-02
  1.8701094e-01
 -9.3860272e-03
  4.3030120e-02
  6.1311460e-01
 -1.3541947e-01
 -3.6494532e-01
 -3.4472234e+00
 -4.9454849e-02
 -1.9926150e+00
 -1.5188777e-01
 -1.3577022e-01
 -6.3335139e-01
  2.6791045e-01
 -3.1841063e-01
  2.0564203e-01
  5.7228619e-01
  6.1821872e-01
 -7.3010445e-02
  2.6771295e-01
 -7.1092635e-01
  7.9308778e-02
  9.8934978e-01
 -5.6652188e-02
  1.8741058e-01
  1.1131746e-02
  1.1565159e-01
  5.7553712e-02
  1.4861324e-01
  2.5662902e-01
  6.3967094e-02
 -2.7040157e-01
  2.5080714e-01
 -6.3026023e-01
 -2.8494015e-01
 -5.5618048e-01
 -4.9960953e-01
 -1.9709755e-01
 -3.3679911e-01
  1.6860455e-01
 -1.0653368e-01
  2.2655849e-01
  1.9067730e-01
 -1.9395915e-01
 -4.0562949e-01
 -1.0645746e-01
 -5.2536350e-01
 -3.5694100e-02
 -2.8664824e-01
 -1.3934863e-01
 -3.7367740e-01
 -1.7220906e+00
 -1.3256952e-01
  2.7224720e-01
 -1.6590962e-01
  1.3791578e-02
 -5.1302606e-01
  5.4332107e-01
 -1.4133249e-01
  7.4942607e-01
 -7.3810160e-02
 -4.4925135e-01
  8.0629930e-02
  3.0500653e-01
  4.9554053e-01
 -3.7045351e-01
  5.2262241e-01
  2.1977255e-01
 -4.0211260e-01
 -6.4860694e-02
 -3.8245150e-01
  1.1625645e-01
 -3.1631222e-01
  3.8453558e-01
  4.0022889e-01
 -4.5232814e-02
 -1.2532976e-01
  1.5043813e-02
 -1.7286514e+00
 -6.0493994e-01
  1.0220303e-01
  4.3731209e-02
  2.1710184e-01
  9.5215179e-02
 -1.5623818e-01
  9.7764522e-02
 -4.0472043e-01
  7.1170963e-02
 -2.5071472e-01
  1.0254886e-01
 -5.3707528e-01
  1.5454714e-01
  1.5175745e-01
 -1.8328369e-02
  4.3693548e-01
  4.0044803e-02
 -1.9654270e-01
 -1.0825576e+00
 -2.7551621e-01
  6.8810672e-01
  7.1893901e-02
 -1.9615020e-01
  7.2204486e-02
  8.0979697e-02
 -2.5944638e-01
 -1.3700208e-01
  7.2654121e-02
 -2.2544657e-01
  3.1831738e-01
 -1.6846107e-01
  9.0780385e-02
  2.4735529e-02
  5.9360802e-01
 -1.9792844e-01
  6.0722846e-01
  1.3537793e-01
  6.5784514e-02
  5.4737377e-01
 -4.8748425e-01
  3.3695284e-02
  7.0519581e-02
 -6.3022363e-01
 -2.1411562e+00
  1.5423480e-01
 -3.1409403e-03
 -2.1667407e-01
 -3.1958321e-01
  6.5997809e-01
  1.1382755e-02
  2.6436779e-01
 -2.4418551e-01
  1.0838009e-01
 -1.4194398e-01
  4.1100781e-02
  6.7843139e-02
  1.1093122e-01
 -2.2808146e-01
  1.1348822e+00
  1.4221987e-01
  1.1858214e+00
  2.8302923e-02
 -1.1779880e-01
 -1.0724887e+00
  1.4465524e-01
 -1.8294553e+00
  2.9037923e-02
 -5.7561868e-01
 -3.1326036e+00
 -8.0226207e-01
 -2.1243997e-01
 -7.5786471e-02
  6.5061700e-01
  1.9465959e-01
 -8.4702540e-03
 -1.8297265e-03
 -3.1827602e-01
  2.4901727e-01
 -1.3524884e-01
  3.1007776e-01
  3.3909184e-01
 -7.9634890e-02
 -5.0668496e-01
  7.4327022e-02
  2.8132796e-01
  4.0367544e-01
 -1.1445096e+00
  5.5217457e-01
  2.8949609e-01
  1.8090723e-01
 -1.8343879e-01
  1.2998863e+00
 -1.7357008e-01
 -4.7475696e-01
 -7.5779557e-01
  1.5218112e-01
  5.3870380e-01
 -1.1128014e-01
  2.3009637e-02
 -1.9244692e-01
 -5.7802469e-01
 -3.1065795e-01
 -2.3832557e-01
 -3.1090793e-01
 -5.2295968e-02
 -5.7571256e-01
  4.0666629e-02
 -4.6066099e-01
 -2.8099051e-02
 -5.7105273e-02
 -3.5211572e-01
 -8.4622782e-01
  2.1656407e-01
 -5.4680508e-01
  3.7740582e-01
 -3.0225798e-01
 -9.3470499e-02
  1.5381533e+00
  2.5018041e+00
  3.2695714e-01
  3.7702700e-01
  1.0429212e-01
  1.1600404e+00
  6.7727768e-01
  1.4157436e+00
 -1.7154763e+00
 -7.1704775e-01
  3.0812219e-01
  4.1782547e-02
 -1.3722973e-01
 -2.1486667e-01
 -4.0894195e-01
 -1.1038763e-01
  1.0834480e-02
  9.6901852e-01
 -5.2502513e-01
 -1.6216633e+00
 -6.4933091e-01
  4.2296997e-01
  3.6170918e-01
  4.0590751e-01
  2.3745515e+00
  7.2295439e-01
  2.7508268e-01
  1.7527838e+00
 -1.6977552e+00
 -6.0034376e-01
  3.2480651e-01
 -5.6846434e-01
 -5.9557568e-02
  4.3332562e-01
 -9.1704763e-02
  4.3511239e-01
  8.2140964e-01
 -1.1624229e+00
  1.9033189e-01
  1.9534875e-01
  4.5429724e-01
 -1.0159872e+00
 -3.4870043e-02
  8.7172234e-01
  4.9276945e-01
 -8.7412447e-02
  9.4203554e-02
 -9.6728012e-02
 -1.4494582e-01
  9.1521092e-02
 -2.8522065e-01
  1.2638882e+00
 -5.8621186e-01
 -6.4787939e-02
 -1.5189539e+00
 -4.6036351e-01
  1.1119680e-02
 -7.9861879e-02
  6.8982825e-02
  1.0382856e-01
  2.5611970e-01
  5.9814161e-01
 -4.7124657e-01
  4.5796875e-02
 -7.0928741e-01
  7.0428121e-01
 -1.5759249e+00
  1.5447180e+00
  2.0524871e-01
 -1.0375161e-01
 -4.3493262e-01
  6.1556678e-02
  5.0218475e-01
  4.9013165e-01
  7.1688229e-01
 -1.0672072e-01
  9.4143428e-02
  8.7051354e-03
 -8.3157921e-01
 -2.4267517e-01
  2.3783527e-01
 -1.3436444e+00
  2.5584435e-01
  6.9998676e-01
 -3.2186928e-01
 -2.9545344e-04
  3.5568732e-01
 -2.2340947e-01
  1.2585215e-01
 -4.0735975e-01
  1.5339983e-01
 -1.3191469e-01
 -5.6491727e-01
  3.1426162e-02
 -1.7736712e-01
  1.8598436e-01
 -5.3749752e-01
 -1.9688174e-01
 -1.9880489e-01
  8.3196759e-03
  4.9916036e-02
 -8.9262083e-02
 -1.3282318e-01
 -1.7288153e-01
  9.9807225e-02
  8.3186843e-02
  2.3940323e-01
 -2.2149938e-01
 -6.2474001e-02
 -1.0812431e-01
 -4.7366825e-01
 -8.7883455e-01
 -5.5461091e-01
  5.3811157e-01
 -2.4858803e-01
  2.9091388e-03
  9.3873367e-02
 -3.5418574e-02
  6.9281900e-01
 -1.6536044e-01
 -1.9441339e+00
 -1.1832178e-01
 -2.9337771e-02
  1.7514084e-01
  5.0181642e-02
 -4.1899607e-01
  2.7368557e-01
 -2.7535430e-01
  2.7753025e-01
 -7.9840094e-02
 -6.4640865e-02
  4.5738086e-01
  4.1206893e-01
  9.4236082e-01
  3.2701924e-01
 -1.9913931e-01
  1.8837275e-01
  1.4726979e+00
  2.0612474e-01
 -7.7710027e-01
  3.0046555e-01
 -2.6059678e-01
 -4.5247272e-01
  1.1741919e-02
  2.7526602e-01
 -1.4106309e-01
 -1.3717378e-02
  2.2948545e-01
  6.1338449e-01
  5.7723019e-02
 -1.1193731e-01
 -2.2588833e-01
 -3.3252880e-01
 -1.3144849e-01
 -3.9155218e-01
 -3.3763830e-02
  1.4929960e+00
  2.1065395e-02
 -7.3237754e-02
 -9.7175166e-02
 -3.5945654e-01
 -8.1424028e-02
  5.3666502e-01
  1.9060044e-01
  3.1488597e-02
  2.0676825e+00
 -9.9907136e-01
 -6.1624646e-01
 -1.2765518e+00
  8.4849715e-02
  6.6352433e-01
 -8.9285320e-01
  1.0614069e+00
  9.5186520e-01
  3.9753929e-01
  1.3425951e+00
 -1.4188141e+00
 -2.6840144e-01
 -2.2663859e-01
 -8.3557718e-02
 -5.4879367e-01
 -2.0682628e+00
 -4.2605177e-02
  2.4975379e-01
  7.7184820e-01
 -1.4648987e-01
  4.4360650e-01
 -2.8693467e-01
 -4.0688962e-01
 -1.5999937e-01
  1.6122006e+00
  2.8948551e-01
 -1.0579202e-01
  2.3628816e-03
  2.0386374e+00
  1.9298069e-01
 -6.7645979e-01
 -1.6548190e-01
 -6.4667732e-01
 -1.7215456e-03
 -3.0387589e-01
  9.9024153e-01
 -2.5140354e-01
  1.6430347e-01
  1.1022834e+00
  4.0398580e-01
 -8.5336345e-01
 -1.5211940e-01
 -5.0719321e-01
  3.3336520e-01
  1.6276900e+00
  4.9248811e-02
 -1.3301413e-01
  5.0149781e-01
  3.0595538e-01
 -4.1407642e-01
 -2.4423382e-01
 -2.1289197e-01
 -6.0372319e-02
 -6.7763947e-02
  3.2755077e-01
  3.9312276e-01
 -6.8238884e-01
  9.2327684e-01
 -4.8929119e-01
  6.1365837e-01
 -1.2301692e+00
  2.3208301e+00
  3.3311241e+00
 -2.6065925e-01
  1.3604341e-01
 -6.5163799e-02
  2.5266361e-01
  2.1724630e-02
 -1.7393041e-01
 -3.0067549e-03
 -6.0044956e-01
 -6.0526151e-02
 -3.5354903e-01
 -1.1562535e-01
  3.0415910e-01
  1.1298419e+00
 -3.4139827e-01
 -4.1863108e-01
  1.6189383e+00
 -1.5589707e-02
 -8.9014810e-01
 -2.3774622e-01
  3.4937942e-01
  2.5260183e-01
  7.2942948e-01
 -1.6401928e-02
 -5.3095025e-01
  5.8796614e-02
 -1.0575925e-01
  8.3700979e-01
  7.1705222e-02
  4.1383350e-01
  5.9069610e-01
  8.7074608e-01
  3.3878773e-01
 -9.5505223e-02
 -3.6194567e-02
  8.5598625e-02
 -8.4744357e-02
  1.6655132e-01
 -2.8980264e-01
 -3.9315004e-02
  1.1495994e+00
  5.5765402e-02
 -3.0359530e-01
 -1.4497884e-01
 -2.6204744e-01
  4.5359519e-01
  6.7069210e-02
 -1.7149416e-01
  5.8546711e-02
  7.3947161e-02
  2.7166492e-01
 -1.5616616e-02
  2.2689888e-01
 -1.2009136e-01
  2.7439727e-02
 -7.8025222e-01
  1.1809833e-01
 -9.0299141e-01
  2.1090493e-01
  7.8399563e-01
  2.1088026e-02
  7.7333874e-01
  5.1636791e-01
 -1.3776349e-01
  4.0543616e-01
  1.1391602e+00
 -1.9909121e-01
  8.7460542e-01
  6.6579646e-01
  4.7271479e-02
 -9.7859144e-02
 -4.8530668e-02
  2.4691133e-01
 -6.0519701e-01
  4.3898100e-01
 -2.0542125e-01
  5.3037500e-01
 -5.7546020e-01
  9.3236381e-01
  9.1152340e-02
 -2.5750062e+00
 -2.1370180e-01
  7.2910994e-02
  6.1491764e-01
 -2.1401678e-01
 -8.4430993e-01
  1.6352892e-01
 -2.3391785e-01
  4.8431492e-01
 -1.0185490e-02
 -2.3912605e-02
  8.9619815e-02
  3.2691631e-01
  6.6843045e-01
 -2.8978055e+00
  7.3236704e-02
 -1.9973232e-01
  1.5393917e-01
 -2.4301052e+00
 -1.1322402e+00
  1.3534828e-01
  3.7827188e-01
  6.6904058e-03
  1.7277502e-01
 -5.5073518e-02
 -2.2147618e-01
  1.2816043e-01
  6.0020972e-02
  1.1293836e+00
  5.5632443e+00
 -6.8436563e-03
  4.3902189e-02
 -1.1609432e+00
  7.3811881e-02
 -6.6276543e-02
 -8.1004786e-01
  4.5551321e-01
  1.9678338e-01
  7.4129182e-01
  1.7753290e-02
  8.3885968e-01
 -1.8046709e+00
  1.3561742e-01
 -4.8449021e-02
 -4.6730045e-02
  7.1294814e-01
 -2.3795132e-01
 -2.6236066e-01
 -7.2848044e-02
  2.1213900e-01
 -2.8512248e-01
  2.6623592e-01
  8.0885366e-02
 -1.4524215e-01
  1.2970881e-01
 -1.0650700e-01
  5.3353238e-01
 -5.3931024e-02
  1.4941648e-01
 -1.7203656e-01
 -3.0079825e-02
 -4.3681752e-02
  1.2637158e-01
  3.8327852e-01
  1.4115696e-01
  8.4457718e-02
 -1.5476963e-02
 -1.2233151e-01
 -3.7637733e-02
 -2.9867640e-02
 -9.9635713e-02
  1.5157627e+00
  5.0625467e-01
  1.9476026e-02
 -3.3510977e-01
 -3.6817744e-02
 -1.8963730e-01
 -2.4929312e-01
 -3.9245000e-01
 -7.6206887e-01
 -4.3501636e-01
 -1.8687542e-01
 -2.6400664e-01
 -3.5227233e-01
 -2.0834979e-01
  1.8572168e-01
  1.0956153e-01
  8.7400758e-01
  2.4364679e-01
 -3.3395407e-01
 -1.6010135e-01
  2.0190184e-01
  1.0628790e+00
 -1.7241293e-01
 -2.7930084e-01
  1.6031401e-01
  3.2739505e-01
  4.8587254e-01
  1.1528079e-01
  1.6997401e-01
 -1.0650998e-01
 -4.5317210e-02
  7.1436957e-02
 -6.9534343e-01
  2.9341009e-02
  5.8217889e-01
 -1.0088258e-01
  1.3190442e-01
 -4.5760274e-02
 -2.0465332e-01
  7.7985480e-02
  1.7059445e-02
  1.2354995e-01
 -3.3186278e-01
  7.1828909e-02
  9.9750906e-02
 -3.6859047e-01
  2.3192519e-02
  2.0446661e-01
 -2.3222117e+00
 -6.2861815e-02
  1.4960515e-01
 -1.3501470e-01
  6.3885137e-02
  1.5139549e-02
 -2.1671255e-01
  5.9138155e-01
 -3.9142945e+00
 -1.4216229e-01
 -2.9514760e-01
 -3.6802506e-03
  6.7630786e-01
 -2.5548825e-01
  2.8544533e+00
  2.4490035e+00
 -4.9698776e-01
 -3.1167248e-01
 -3.6434764e-01
  1.2590852e+00
  2.1457948e-01
 -7.9904377e-01
  4.7834463e-02
  2.9009438e-01
  1.3614343e-01
  2.1186271e-01
 -1.5191558e-01
  4.3316171e-02
  3.6905728e-02
 -9.7474545e-01
  1.2170726e-02
 -4.6252474e-01
 -5.3150272e-01
  1.2284336e-01
  2.0276363e-01
 -8.0168940e-02
  2.1124494e+00
  2.9556528e-01
 -4.9900952e-01
 -1.9791204e-01
 -3.4609195e-02
  2.5163651e+00
  1.8401543e-02
  4.8976950e-02
 -3.2168335e-01
  2.3644651e-01
  5.9862143e-01
 -2.2857009e-01
  5.1370192e-01
  3.6807546e-01
  1.6532345e-02
 -1.0281448e+00
 -3.3822998e-01
 -2.9713082e-01
 -8.8815652e-02
  1.1089267e-01
 -7.9002336e-02
 -4.1014589e-02
  1.4399004e-01
  2.9134798e-01
 -4.3828312e-01
  1.7074588e-01
 -6.8946338e-01
  1.2562278e-01
  2.6541563e-02
 -4.5765474e-01
  1.2550184e-01
  4.2087021e-01
 -1.0155922e-01
 -3.2591026e-02
 -3.3724278e-01
 -4.7353417e-02
  4.0252689e-01
  5.8585215e-01
  5.0352597e-01
  2.2324315e-01
  1.5250355e-02
 -3.9078735e-02
 -2.9451465e-02
 -7.1600491e-01
 -3.1687066e-01
  7.7080235e-02
  9.3573272e-02
 -1.3939881e-01
  2.1977501e-02
 -1.3810934e-01
 -3.9752758e-01
  1.3062525e+00
  1.7186848e-03
  6.2856776e-01
  5.5120286e-02
 -3.6092895e-01
 -2.4573596e-01
 -2.4277093e-01
  3.6331895e-01
 -2.6687350e+00
  5.0012898e-01
 -1.0825672e-01
  2.4040550e-01
  4.0352163e-03
 -1.1114968e-01
  1.1253301e-01
 -1.3392985e-01
  7.7199233e-01
 -8.9990467e-02
 -1.1072929e-01
 -1.3161970e+00
 -4.6392640e-01
  2.2881497e-01
  1.4896016e-01
 -1.6826826e-01
 -9.0751313e-02
 -7.1230221e-01
  5.9339625e-01
  4.2005268e-01
  7.6704362e-04
  2.1565634e-01
  4.2952426e-02
 -1.3676395e-01
 -5.6107670e-01
 -3.7857142e-01
 -7.9700321e-02
  9.5633394e-01
  3.7517145e-01
 -1.9811846e-01
 -1.6645633e-01
  5.1473889e-02
 -4.9931437e-02
 -5.8669295e-02
 -4.7846082e-01
  1.1266536e-01
  1.9021069e-01
  1.8577564e+00
 -1.3742216e-01
  1.9495440e+00
 -1.6527289e-01
 -2.2254497e-01
  1.5467851e-01
 -1.0813426e-01
  2.8513348e-01
  1.1430201e-01
 -8.3822471e-01
  7.5103588e-02
  1.9511776e-02
 -3.6175251e-01
 -4.1103360e-01
  4.8330146e-01
 -2.8947607e-01
 -6.9122910e-02
  2.6407209e-01
  8.0041610e-02
  4.0550309e-01
 -9.4200892e-04
 -5.1329769e-02
 -6.3378528e-02
  7.8642297e-01
 -1.0900507e-01
  7.0714617e-01
 -1.2284143e-01
 -1.4236081e-01
  1.3694347e+00
  6.0579967e-02
 -2.0280917e-01
 -1.9310618e-02
 -1.2853487e-01
  1.0201204e-01
  1.2406357e-01
  5.3887658e-02
 -1.7560478e-01
  1.4420056e-02
 -2.1712960e-01
  4.3676905e-02
 -1.0207213e-01
 -8.2064904e-03
  7.8748874e-02
 -2.0208548e-01
  6.6078864e-03
 -9.8193951e-02
  1.1342746e-01
  1.3012099e-01
  3.6827093e-01
  4.0680682e-03
  2.3864734e-01
  6.0456458e-02
 -6.0765535e-01
  1.2823050e-01
  8.0353901e-02
  3.4717435e-01
  1.3559244e+00
 -6.7832905e-01
  9.1912848e-01
 -2.0229561e+00
 -1.5472435e+00
  1.7036216e+00
 -2.1427248e+00
  5.2063364e-01
 -3.4615135e-01
  3.4058006e+00
 -1.0536258e+00
 -9.0811270e-01
  9.0456933e-01
  6.9299763e-01
  5.5506712e-01
 -5.9141910e-01
  8.2631139e-03
 -2.4967910e-01
 -1.5297664e+00
 -3.9399770e-01
 -3.1432334e-01
  1.7301425e-01
  2.3257101e+00
 -1.2386831e+00
  6.6173814e-02
  3.8819075e+00
  1.3103378e+00
 -1.0041752e+00
 -4.8017707e-01
  8.6120886e-01
 -8.3714619e-02
 -6.6846013e-02
 -2.8846092e+00
  2.2238669e-01
 -9.3352675e-01
 -2.1037865e+00
 -6.2655830e-01
  1.7919728e-01
 -1.5301750e+00
  4.0416425e-01
 -1.5716763e-01
  6.9100881e-01
 -3.8304225e-01
 -9.0739542e-01
 -1.7983481e-01
 -8.3053982e-01
  6.7345160e-01
 -2.0396188e-01
 -3.3387084e-02
  2.0272660e-01
 -7.6981431e-01
 -1.8768899e-02
 -3.5210532e-01
 -9.2196941e-01
  6.5098310e-01
  5.3921431e-01
 -8.3262473e-02
  2.8149015e-01
  2.3216825e-02
 -1.5587488e-01
 -2.9888156e-01
 -2.1848850e-01
  1.1958264e+00
  2.4368200e-01
  6.8366963e-01
  9.6202470e-02
  1.8534166e-01
  1.0408563e-01
  2.5321800e-01
 -1.8593410e+00
 -3.8083166e-01
  1.1379315e-01
 -8.0386929e-02
 -1.0706665e-02
  2.2175504e-01
  1.8181962e-01
 -3.1200510e-03
  2.4178685e-01
  9.9827968e-02
  9.9618383e-02
 -1.8076323e-01
 -1.7876010e-02
  6.9346666e-02
  1.4527000e-01
  4.0296037e-02
 -1.3251411e+00
 -3.6597989e-02
 -7.3848531e-02
  2.2619800e-01
 -4.3181121e-01
  2.3079605e+00
  2.0922182e-02
 -1.2127475e-01
 -3.2798263e-01
  7.4362092e-02
 -2.4469094e-01
  4.5559177e-01
  1.2106574e+00
  2.4599761e-01
  4.7020701e-01
  3.2573423e+00
  4.1031876e-01
 -2.3887751e-01
  9.1421701e-02
  7.8238681e-02
 -4.3077546e-01
  9.0789638e-02
 -1.7545906e-01
  4.7444444e-02
 -4.6948701e-01
 -1.4523703e+00
 -1.4439173e-01
 -4.5145056e-01
  3.2141465e-01
 -4.6603349e-01
 -6.0046721e-01
 -3.0419189e-01
 -1.0191165e-02
  8.0294591e-01
 -3.4793884e-01
 -4.1168958e-01
 -1.7577903e-01
 -4.5107743e-01
  1.6140108e-01
 -2.0925095e+00
  2.7989334e-01
 -3.0799916e-01
 -7.0564538e-02
 -1.9856731e+00
  5.6907159e-01
 -6.1759774e-02
  1.5832070e+00
 -2.3222822e-01
 -5.2726779e-02
 -2.9689485e-01
  1.8376626e-02
  2.9704770e-01
 -6.3770302e-02
 -5.6897834e-02
 -2.6695574e-02
  3.9519104e-01
  7.7876884e-01
  5.9806556e-02
 -3.9609984e-02
  6.8415105e-01
  1.5351994e-01
  4.3497488e-02
  2.7258185e-01
 -5.6304955e-01
  6.6516066e-01
  5.5139136e-01
 -5.9578955e-02
  1.1446910e-02
  5.9760451e-01
 -2.4132790e-01
  2.0536859e-01
  3.6724594e-01
 -1.1040426e+00
  2.2463126e-01
 -3.8554070e+00
  9.2370421e-02
 -5.7047153e-01
 -7.0089531e-01
  5.7572681e-01
 -1.2352271e-01
 -5.5225201e-02
 -7.1033239e-01
  2.3169290e-01
  4.0102217e-01
  6.4706564e-01
 -9.5956281e-02
 -3.5054573e-01
 -1.0493539e-01
  4.0375325e-01
  8.6713600e-01
 -9.8775648e-02
 -1.1014944e-01
  6.6274583e-01
  2.3967285e-01
  2.6051018e-01
  1.1518087e-01
 -1.9088741e-01
  4.4887966e-01
 -1.9403915e-01
 -1.7023639e-01
  6.6485994e-02
 -3.4992445e-01
  5.1323615e-02
 -2.3332313e-01
  4.7187753e-02
 -1.9818172e-01
 -3.3265135e-01
 -6.2440544e-02
  1.0319126e-01
 -4.3410799e-01
 -3.1944799e-01
 -3.5376868e-01
  3.9158362e-01
  1.0913295e-01
  1.3611774e-01
 -1.8123230e-01
 -2.8541392e-01
  1.1847205e+00
  3.2156253e-01
 -1.0668416e+00
 -1.0409576e-01
 -5.5597591e-01
  7.9511905e-01
 -7.1022168e-02
  2.2244711e+00
 -9.3064038e-03
  8.8568099e-02
  2.3506568e-01
  1.5369032e-01
  2.9575041e-01
 -3.0659312e-01
  1.5265250e-01
  3.2881638e-01
 -1.1736527e-02
 -6.3241678e-01
 -1.4331231e-01
  1.3156278e+00
 -8.8179104e-02
 -3.0148119e-01
  1.2745517e+00
  1.0618280e-01
 -1.7121430e-01
 -1.1547673e-01
 -2.1073589e-01
 -1.8466295e+00
 -7.0297056e-01
 -9.0020931e-01
 -8.9862727e-02
  5.1731091e-02
 -8.1299968e-02
 -1.2346705e-01
  8.2231081e-01
 -6.8810530e-02
 -3.3971786e-02
  1.1093187e-01
 -4.2727527e-01
  2.3296608e-02
  2.4558300e-01
  6.6653609e-02
 -4.6730936e-01
 -1.5720372e-01
 -2.2933166e+00
  1.2160523e-01
 -1.7417175e-01
 -6.1545932e-01
 -4.0835049e-02
 -5.6279093e-01
 -2.7401605e-01
 -3.9137462e-01
  6.2004840e-01
  2.1168306e-03
 -1.6606119e-01
  1.5240987e-01
  1.9974746e-01
 -1.4026158e-01
  1.8770282e-01
  2.6889229e-01
  2.8645661e-01
 -7.5647436e-02
  6.6228956e-02
 -1.4358125e+00
 -1.8451346e-01
 -4.5683193e-01
 -6.4207602e-01
  1.8328774e-01
  4.3757450e-02
  1.0849586e+00
 -4.6916105e-02
 -3.8641086e-01
 -3.3654451e-01
  2.5300026e-01
 -6.1429303e-02
  1.1132110e+00
 -4.1615075e-01
 -1.1317541e-01
 -6.1594939e-01
 -4.8599228e-01
  9.9820089e-01
  6.8525589e-01
  4.4174486e-01
  7.9997212e-01
  6.0690320e-01
 -6.0270093e-02
 -1.2165484e+00
 -1.8353109e-01
  3.6470619e-01
 -2.3348920e-01
 -5.5440152e-01
  2.4649358e+00
 -6.2108314e-01
  6.1768401e-01
 -1.2221264e+00
 -1.2069242e+00
 -4.8962548e-01
  3.1172523e+00
 -4.1717613e-01
  1.2470694e+00
  4.9228609e-01
 -4.7160435e-01
  4.0794015e-02
  1.3492748e+00
  2.5379834e+00
  5.1290619e-01
 -1.4828759e+00
 -1.4664109e+00
  1.4640129e-01
 -2.3319133e-01
  6.3854325e-01
 -1.2551956e+00
 -1.8285592e+00
 -2.1421658e-01
  1.5979438e-01
  1.6383940e-01
  9.9044549e-01
 -2.6303592e-01
 -5.4562598e-01
 -6.1703545e-01
 -2.8108126e-01
 -5.0159603e-01
 -9.5943463e-01
  1.1334949e-01
  8.2511634e-02
  7.9165950e-02
 -9.0214986e-01
 -1.7123469e+00
 -1.2186327e+00
 -8.5986800e-02
 -1.4267041e-01
 -4.6394709e-02
  7.0686981e-02
 -3.6937386e-02
  1.9793814e+00
 -2.2349738e-01
 -4.7351182e-02
  4.6652368e-01
 -7.1249172e-02
  9.6286260e-02
 -1.2105809e-01
 -4.9911585e-01
 -4.8487153e-02
  8.7502187e-01
 -3.5593808e+00
 -4.2053390e-02
 -3.5842222e-01
 -3.2300594e-01
  4.5108452e-02
  9.3375897e-01
  5.3713858e-01
  4.6585124e-02
  4.2809701e+00
  1.7334753e-01
 -1.4758278e-02
 -2.1622875e-01
  6.7752296e-01
  6.8744108e-02
 -1.2127149e+00
  1.2930856e+00
 -8.7068141e-02
 -3.9260048e-02
  2.4628713e+00
  1.8532330e-02
  4.3691033e-01
 -2.1188595e+00
 -6.8217412e-02
  5.2053768e-02
  2.5484547e-01
  5.0852853e-01
 -3.9086139e-01
 -9.8852187e-02
  3.2120484e-01
  9.1284657e-01
  3.7499227e-02
  6.2835030e-02
  5.8303910e-01
 -1.1825556e-01
 -1.3730441e+00
 -1.9378942e+00
 -4.7550589e-01
  2.0138165e-01
  5.9662122e-02
 -5.8073455e-01
 -6.6715491e-01
  2.2492225e+00
  1.3530636e+00
  1.6190035e+00
 -9.7254328e-02
  7.6455198e-02
 -7.5380713e-02
 -1.6935852e+00
 -9.3073577e-02
  7.0180273e-01
 -4.1155571e-01
 -9.0385967e-01
 -1.1933097e+00
  3.9518544e-01
 -1.1499615e+00
  1.9297328e+00
  4.7790766e-01
 -1.3396094e+00
  1.2383239e+00
  9.0731513e-03
  1.3650432e+00
  1.5028095e-01
 -2.9533222e-02
 -8.8385803e-01
 -3.6023495e-01
 -1.5650108e+00
 -9.8716849e-01
  1.0003322e+00
 -6.9606924e-01
  2.6031420e-01
  5.0383534e-02
 -8.5816205e-02
 -8.0478418e-01
 -1.1166960e+00
  7.2344440e-01
 -4.5619988e+00
 -8.7218755e-01
 -2.3486702e-01
 -5.6458163e-01
 -1.3670954e-01
  2.7094616e-02
  1.2851940e-01
  4.8786777e-01
  1.0724011e-01
  3.3336899e-01
 -3.5214160e-02
  4.3144590e-01
  7.1384764e-01
 -1.6586761e-01
 -1.8147825e+00
 -1.8705792e+00
  5.3446941e-02
 -3.0071691e-01
  2.2477476e-02
  1.8542004e+00
  5.3594124e-01
  9.0603042e-01
 -1.4434304e-02
 -3.0375507e-01
  5.6264925e-01
  2.0383401e+00
  8.8694519e-01
  1.7340024e+00
 -7.5242925e-01
 -1.3878634e+00
  1.0472661e+00
  1.9323907e+00
 -5.3812921e-01
 -3.1372204e-01
 -1.4415750e-01
  9.4767950e-02
  2.3535969e+00
  8.1714815e-01
 -2.3690389e-01
 -3.3259056e+00
  3.0342875e+00
 -3.1924349e-01
 -5.2543676e-01
 -1.2460539e+00
  2.2859341e-01
 -2.7021809e+00
 -1.3917843e+00
  3.9025309e+00
  2.1595931e+00
  3.4057117e+00
 -5.1491553e-01
 -4.4856887e-02
 -3.8242066e-01
  1.4541652e+00
  1.7077402e+00
 -1.9136673e+00
  8.0485642e-01
 -1.2165371e+00
 -6.8170279e-01
 -4.8655120e-01
  3.2361636e-01
  1.0411385e+00
 -3.2115191e-01
 -7.4698341e-01
 -1.6621484e-01
  4.4681975e-01
 -7.0519680e-01
  3.4904996e-01
 -1.3142858e+00
 -1.0007015e+00
  1.8845620e+00
  3.8747165e-01
  1.7642744e-01
  4.1157404e-01
  2.2616084e-03
 -2.2422336e-03
  1.1555277e+00
 -3.1729168e-01
  1.4188255e-01
 -7.7128839e-01
 -1.3473729e-02
 -3.7282038e-02
  1.6051941e-01
 -3.3479765e-02
 -2.4751951e-03
 -1.4491121e-01
  4.7918200e-02
  6.5392971e-01
 -6.7307316e-02
 -3.6629743e-03
  1.0116420e-01
  2.0998487e+00
  5.6257844e-01
  1.7095227e-02
 -1.5714596e-01
  7.5757511e-02
  2.3892002e-01
 -1.9188898e+00
 -1.1643165e+00
 -3.7775487e-02
 -7.3162451e-02
 -2.6496646e-01
 -8.0054808e-01
 -1.8987487e-01
  2.0364034e-01
 -7.6235104e-01
  4.5609042e-01
 -1.6837527e+00
  2.5589797e-01
 -1.1274835e-01
 -2.0293875e-02
 -3.2537216e-01
 -1.8558869e+00
 -1.2127017e-02
  4.6865992e-02
  3.9057341e+00
  5.3756249e-01
  1.2328386e+00
  3.6590955e-01
 -3.5599163e-01
  4.9996614e-01
 -7.2246552e-01
 -1.8136397e-02
  1.5309303e+00
 -9.7641960e-02
 -5.8533888e-02
 -1.3164851e-01
  2.9643639e-03
  9.5220232e-01
 -4.4777736e-01
  1.1240692e-01
 -2.2233138e-02
 -1.3241179e-01
 -1.3645123e-02
 -1.6611260e+00
 -4.6073186e-01
 -2.0131354e-01
 -1.2542906e+00
  1.1163019e-01
 -1.4010639e+00
 -7.5136036e-02
  4.5295811e-01
  3.6407024e-01
  3.0530107e-01
  2.4984252e+00
 -6.4602095e-01
 -4.2046028e-01
  1.1766439e-01
 -9.3516117e-01
 -1.6879599e-01
  9.8368809e-02
  4.2077261e-01
  3.2631106e+00
  4.6555892e-01
  2.5573456e-01
 -4.0901503e-01
  3.7554905e-01
  7.4104095e-01
 -1.2166257e-01
 -7.0058870e-01
  1.0382060e-01
  1.2913184e-01
  3.7441185e-01
 -1.6476797e-01
 -2.7850336e-01
 -3.6699688e-01
  9.8893189e-01
  1.6016398e-01
  5.6390375e-01
 -7.9031577e-03
  1.1201454e+00
  7.8156643e-02
 -7.7490874e-02
  9.3499100e-01
  1.3709332e-01
 -7.1568536e-03
  4.4678707e-02
  1.4338395e-01
  1.4513279e-01
 -7.9221153e-01
 -6.4610595e-01
  4.0972206e-01
  1.5390609e-01
 -5.1682442e-02
 -5.5819690e-01
 -2.3665366e-01
  2.4075909e-02
  3.2451624e-01
 -1.1955220e+00
 -3.9759851e-01
 -2.2298363e-01
 -8.4599398e-02
 -9.0254545e-01
 -1.3348076e+00
 -4.4174659e-01
 -6.3643336e-01
  4.0763369e-01
 -1.9444610e-01
  1.0307078e-01
  3.9737570e-01
  5.2705961e-01
  7.5721401e-01
 -3.9623328e-03
 -1.7530516e-01
  6.5994769e-01
  2.6203435e-02
  2.6808266e-02
  9.6441329e-02
  4.2465556e-02
 -4.2800009e-02
  1.9137378e-01
  2.9287735e-01
 -9.0212241e-02
 -3.0502829e-01
  8.4603168e-02
 -1.7569546e-01
  3.2874621e-02
 -1.7501882e+00
  4.2383197e-01
  2.4380369e-01
  3.0169004e-01
 -4.5259336e-01
 -4.3956734e-02
 -3.0993593e-01
 -2.4910975e+00
 -4.0561774e-01
  2.9751211e-01
  1.1837383e-01
  2.4798796e-01
  3.4571388e-01
 -1.8374088e-01
 -1.8414273e+00
 -1.7032614e-01
 -2.8435436e-01
  1.1058129e-01
 -6.8602204e-02
 -2.7335307e-01
  3.4094006e-01
 -2.3944181e-01
 -3.7900043e-01
 -1.3730446e+00
  1.6406812e-02
 -9.4309831e-01
 -1.0140904e+00
 -6.2679440e-01
  4.0366954e-01
 -2.3326017e-01
  8.2155734e-01
  4.1936848e-01
  9.8556828e-01
  1.0484597e-01
  3.2855694e+00
 -1.2080678e+00
 -1.1522870e+00
  2.6981566e+00
  1.4911895e-01
 -5.9004445e+00
  1.2102830e+00
  2.4970381e+00
 -3.3363912e-01
 -2.5343468e+00
 -1.3574055e-01
  4.0163806e-01
  1.3269005e+00
  5.1086915e-01
  2.4435213e+00
 -9.7486615e-01
 -4.5976844e+00
 -8.4966666e-01
 -2.2353387e-01
  4.9946747e+00
 -1.4198887e-01
 -2.7076503e-02
 -1.8035398e-01
  1.6635101e-01
 -1.6181457e+00
 -2.1561127e+00
  1.5219957e+00
 -2.3913670e+00
  1.1555099e-01
  3.1515616e-01
 -1.7380100e+00
  2.1006886e-02
 -2.0801361e+00
 -3.5878718e-01
 -4.2983245e-02
  1.2683397e-02
 -2.6970565e-01
  1.4213327e-01
  1.1792412e-01
  7.1046889e-01
  2.1568090e-02
  1.4631882e-01
  2.5597866e+00
 -2.8738454e-02
 -1.5468797e-01
 -2.6305598e-01
  6.4499825e-01
  1.4314629e+00
  2.0044957e-01
 -7.7230525e-01
  8.4033765e-02
 -1.2206101e-01
  3.1423674e+00
  1.2374146e+00
 -1.2674466e+00
 -4.5460239e-02
 -1.8563756e+00
 -4.9232778e-01
 -9.3848509e-01
  3.4156466e-01
 -2.5138664e-01
  2.2018236e-01
  3.7888581e-01
  3.2712847e-01
 -4.5384094e-02
  1.8479210e-01
  5.0201647e-02
 -3.3764687e-01
  7.1538776e-02
  1.2174755e+00
 -5.9340328e-01
 -4.6644513e-02
 -3.9952961e-01
  1.0560305e-01
  2.3135665e-01
  1.9957906e-01
  3.1646973e-01
  2.7584368e-01
 -2.7372563e-01
  1.4538684e+00
  3.9492249e-01
 -2.3056616e-01
 -3.9717903e+00
 -9.5462531e-01
  2.9686901e-01
 -5.2965868e-01
 -8.3311342e-02
  3.8726978e-02
 -2.1896465e-01
  4.9222347e-01
  3.3431455e-02
  1.8245909e-01
  5.4964185e-01
  1.4820920e-01
  4.1974723e-01
  8.6620763e-02
 -2.0909257e-02
  1.4090098e-01
  6.3178219e-02
 -1.8090521e-01
  3.6921680e-01
  3.2407063e-01
  4.9363175e-01
  5.7242739e-01
  1.5280229e-01
  2.1699989e+00
 -1.9555265e-01
  1.6023217e+00
 -2.4466428e-01
 -9.8380828e-01
  1.0195517e-01
 -3.9905918e-01
 -1.2477604e+00
 -1.1821325e+00
  4.0211015e+00
  4.5089241e-02
 -5.9209112e-02
 -2.6983216e-01
 -5.1253116e-01
 -2.9375520e-01
  3.8443139e-01
 -1.4577191e-01
  1.2279081e-01
  2.6526102e-01
 -9.1046548e-01
 -3.0403629e-01
 -4.8546845e-01
  8.9162290e-01
  1.5569581e-01
 -1.4499481e-01
 -9.6147406e-01
 -1.8164346e-01
 -8.7502801e-01
  2.6290342e-01
 -6.2968038e-02
  5.2098441e-01
  1.8282758e-02
 -2.1069811e-01
  1.9345337e-01
 -4.4335052e-04
 -2.6973826e-01
 -2.8370610e-02
  1.0135277e-01
  9.1026193e-01
 -8.0501837e-01
 -1.3642398e-01
 -2.5112804e-02
 -3.6226192e-01
 -1.9546594e-01
 -1.1840827e-01
  5.7102346e-01
 -8.5502669e-02
