nep4 4 Na Ga C N 
cutoff 9 6 149 52
n_max 10 8
basis_size 10 8
l_max 4 2 0
ANN 50 0
  5.2780233e-02
 -1.9054160e-01
 -2.3272881e-01
  9.9095958e-01
 -1.0810366e-01
  1.6612923e-01
  2.4125463e-01
  9.2579603e-01
  1.2421887e-01
  1.1809932e+00
  4.7117022e-01
 -6.1123338e-02
 -5.8762673e-02
  1.2827076e-01
  4.1778889e-02
 -3.2771427e-02
  4.0821317e-03
 -1.1088538e-01
  3.4436630e-03
 -4.7458611e-02
  8.6903036e-02
  4.7266583e+00
 -7.2804950e-03
  7.0937395e-02
 -1.3547193e-01
 -1.2114095e-01
  4.4083609e-03
 -2.5075901e-02
 -1.5512208e-03
 -2.2173536e-01
 -1.1524691e-01
  8.6942971e-01
  7.4115582e-02
  1.7315811e-01
  1.2760724e-01
  6.0231671e-02
  4.9796323e-03
 -6.4088650e-02
  1.1379706e-02
  3.6909096e-02
 -9.7385496e-02
  1.7504051e-01
  1.9921584e-01
  2.4517310e-01
 -3.5761815e-02
 -1.4056233e-02
  1.1126942e-01
 -4.0891062e-02
  7.5920798e-02
  8.0340974e-02
 -6.3308422e-03
  3.4298405e-02
 -4.3281932e+00
  1.9672694e-02
 -3.5374515e-02
  8.7473718e-03
  4.0072698e-02
 -3.1182583e-02
 -9.8617218e-02
  3.3537835e-02
  2.6873432e-02
  1.5632997e+00
 -9.6113116e-02
  4.0634315e-02
  1.3272898e-02
 -3.3213979e-01
 -3.7933964e-01
 -7.1961366e-02
 -3.2413382e-02
  1.6091144e-01
  4.2667188e-02
  3.5550353e-01
  3.8089880e-01
  2.0240591e+00
  2.4941970e-02
  1.0025563e-01
  1.7398806e-02
 -1.5561964e-01
  1.4505766e-02
 -3.5778087e-02
 -5.5991054e-01
 -2.0108472e-01
 -6.9970742e-02
  2.3099996e-01
  4.8415121e-02
 -9.3088239e-02
 -8.0215439e-02
  4.7062732e-02
  5.1807873e-02
 -2.3792700e-01
 -4.9143084e-03
  3.3188581e-03
  2.1757057e+00
 -2.5198558e-02
 -1.3412353e-01
 -1.1186038e-01
 -8.0901450e-03
  1.8202706e-01
 -4.7467221e-02
 -1.1288360e-01
 -3.1074578e-02
 -2.8054835e-03
  3.5657249e-02
  7.8144662e-02
 -1.8233284e-02
  5.6202937e-02
 -3.7041807e-01
  3.4354650e-03
 -1.0838266e-01
 -6.5331973e-02
  7.7054828e-01
  1.6689964e-02
 -5.2229978e-02
 -1.9016020e+00
  4.8597734e-02
  2.9663762e-02
 -1.8400777e-02
 -5.1980656e-02
  9.8799944e-02
 -8.2833380e-02
  3.1356979e-02
  4.5334387e-01
  3.9991778e-01
  4.3670315e-02
  8.9948386e-02
 -1.6936491e-01
 -1.0747556e-01
 -3.8108587e-01
  7.6745495e-02
  4.0711541e-02
 -2.8291471e-02
  1.4591524e-01
  2.6750306e-02
  2.6168728e-01
 -7.4078619e-02
  1.3950963e-01
 -6.4543202e-03
  2.8005794e-01
 -1.1105512e-01
  1.0621830e-01
  1.4841809e+00
  6.6534318e-02
 -5.4884724e-02
 -8.4592544e-02
  1.2412923e-01
  2.8327524e-03
  9.3833071e-01
  6.4386823e-03
  1.8727789e-03
 -6.5046117e-02
 -8.6279593e-02
 -5.2275911e-02
  2.7449498e-01
 -3.2685511e-03
 -3.3601437e-02
  2.7635643e-01
 -1.2225597e-01
  1.6974039e-01
 -5.2295388e-03
 -2.5898997e-02
 -1.3496285e-02
 -2.6207936e-01
 -9.6545309e-02
  1.5155351e-01
 -6.4048484e-02
  7.7145405e-02
 -7.5433031e-04
 -7.7196352e-02
 -2.5999078e-01
 -2.0226873e-01
  9.9142283e-02
 -1.3349413e-02
 -1.5144782e-02
  5.2974369e-02
 -2.8126511e-01
  3.4384921e-02
 -1.2738281e-01
 -2.6020542e-01
  6.7021303e-02
 -1.1878128e-02
 -2.2330676e-01
  1.0269040e-01
  3.6465171e-01
 -1.8590100e-01
 -3.3982951e-02
 -8.2585953e-02
  6.1881974e-02
 -4.0865216e-02
  1.1005415e-02
 -2.0209514e-02
  1.7622229e-01
  1.1155919e+00
 -2.2109501e-02
 -7.1727432e-02
 -3.5069108e-02
 -6.2087383e-02
  1.8959643e-01
 -6.0162120e-02
  1.7554219e-01
  8.6158458e-03
 -6.4964630e-02
  2.6509098e-03
  1.6135065e-01
 -6.3455090e-02
 -1.5600480e-01
 -5.1864032e-02
  6.4916037e-02
 -2.6429383e-02
 -6.4869970e-02
 -2.9695288e-03
 -4.9185440e-02
 -4.8469093e-02
 -1.1415797e-01
 -1.7428760e-01
  7.0124608e-01
 -2.8633624e-02
 -1.7874449e-05
 -7.5748167e-03
  5.5328570e-02
  1.7358825e-01
  1.0985827e-02
  1.3277509e-02
 -3.2583993e-02
  8.6602665e-02
  9.6895527e-03
  7.4340117e-01
 -7.3116815e-01
 -6.2962554e-02
 -5.7229221e-02
 -4.3345147e-01
 -8.6440733e-03
 -8.5760897e-01
  5.4525461e-02
  2.1212883e-02
 -3.0539238e-01
 -2.9113111e-01
 -6.4738616e-02
 -2.2202744e-01
 -8.4193736e-02
 -2.1440440e-03
  3.3720550e-01
 -5.7110500e-01
 -2.9983858e-02
  1.0299515e-02
  2.5789928e-01
 -5.4016080e-02
 -2.7336454e-01
  2.1993699e+00
 -6.8205379e-02
 -3.4291491e-02
 -7.0310026e-02
  1.7736706e-01
 -1.0808139e-01
  2.4412423e-02
  1.4519729e-01
  1.0924702e-01
  3.3990455e-01
 -4.8878128e-03
  3.2168850e-01
 -1.2731236e+00
 -2.7555644e-03
  3.2816976e-01
  7.7802378e-01
 -1.3500817e-02
 -5.9984043e-02
  1.1062702e-02
 -1.8114108e-01
  1.7074620e-02
  2.3557030e-02
  6.5935917e-02
 -1.6916377e-02
 -1.8611695e-01
  1.2559040e-01
 -1.9847372e-01
  1.6423106e-02
 -3.3959936e-02
 -9.3440130e-02
 -6.3537754e-02
 -8.1942923e-02
  6.5762527e-02
  9.4376216e-03
 -3.6486391e-02
  1.9600233e-02
  6.5153334e-03
  1.7961787e-02
 -1.5140735e-01
  5.1861447e-01
  5.7996046e-02
  1.8409617e-02
  1.5100241e-01
  4.2005934e-02
  2.1054683e-02
 -1.9968855e-01
 -1.2335512e-01
  2.4835204e-01
  3.2374792e+00
  2.4691339e-01
 -8.0201691e-03
  8.9300022e-02
 -1.5066849e-01
  2.9912526e-02
 -6.0264032e-02
 -3.0368658e-02
  2.2852984e-01
 -1.9630261e-01
  6.9386818e-02
 -2.0172557e-01
  1.4607362e-02
  4.0555671e-01
  5.3977687e-02
  5.3761110e-02
 -6.7632943e-03
 -1.6331320e-01
 -8.6683733e-03
  9.3782485e-01
 -1.0437981e-01
 -1.8501467e-01
 -2.7566359e+00
  4.2651847e-01
 -2.7605140e-01
  2.9380379e-02
 -3.7859414e-02
  1.8873025e-01
  5.2189089e-02
  3.9899524e-02
 -1.0461354e-01
  1.2955651e-02
  7.8943126e-02
 -3.2411374e-03
  2.8775046e-02
 -1.5682670e-01
  3.9045978e-02
 -3.1080315e-01
 -7.2250389e-02
 -4.3337564e-03
 -2.3374097e-01
 -7.4849740e-02
  6.4241356e-01
 -7.7230996e-03
  6.0180649e-02
 -1.2436605e-01
 -3.9970353e-02
 -8.9110341e-03
 -6.9176406e-02
 -8.4167212e-01
  1.5815603e-02
  4.8212716e-01
 -1.9518493e-01
  2.3167714e-01
  3.7581500e-02
  8.9161970e-02
  4.1378877e-01
 -2.5331280e-01
  1.6722995e-01
  1.4606548e-02
 -1.3548521e-03
 -2.4644851e-03
 -1.5269417e-01
  1.1105065e-01
 -8.3773482e-01
  2.1687185e-02
 -3.0250967e-01
 -8.1184087e-03
 -4.0836774e-02
 -1.7764619e-02
 -1.6109763e-01
 -2.4744604e-02
 -1.3098485e-03
  8.1684897e-03
  1.6412373e-01
 -1.5364964e-01
  4.2028096e-02
  7.2938837e-02
 -3.5560101e-02
  2.6514575e-01
  8.9711320e-01
  1.6927956e-01
  1.0855800e-01
  3.3277746e-02
  2.7793637e-02
 -2.4841124e-02
  4.3319635e-02
  9.6559241e-02
 -1.2081031e-02
 -1.1530479e-01
 -2.7315453e-01
 -2.2643909e-02
 -2.8767020e-01
 -1.5817598e-02
  2.6587950e-02
  1.2613625e-02
  1.7787298e-02
 -5.1278019e-01
  2.0051988e-02
 -5.1261955e-01
  2.1115420e-02
  2.1180479e-01
 -2.7923232e-01
 -4.2773373e-02
 -6.2184941e-02
  2.6027676e-01
  1.9104288e+00
  5.7566464e-01
  2.3804532e-02
  6.6613756e-02
  1.1720561e-01
 -1.4135052e+00
 -4.7061220e-02
  2.8927898e-01
 -1.0826004e-02
  5.9140988e-02
  6.2441893e-02
  4.4965982e-02
 -2.4657896e-02
  1.3718547e-03
  3.1796046e-02
  4.0497400e-02
  7.2627455e-02
 -4.2257003e-02
  8.9156277e-02
  5.7084464e-02
 -9.4841585e-02
  3.8851175e-02
 -3.6045045e-02
 -1.4556435e-01
 -1.7002005e-02
 -3.4116097e-02
  5.6739882e-02
 -7.8959368e-02
  1.7575341e-01
  4.3201991e-03
  6.8657915e-03
 -1.5468100e-01
  1.7666267e-02
  8.5803527e-01
 -4.5021188e-02
  8.2080677e-02
 -2.5374837e-02
  6.2510230e-02
  1.6564579e-01
  2.8325988e-02
 -8.8706434e-02
  3.3524847e-01
 -9.6664280e-02
  6.7117013e-02
 -1.7510059e-01
 -2.3664163e-01
 -3.9893042e-04
 -1.2440450e-01
  1.1175554e-02
 -5.7939742e-02
  1.4864403e-01
 -8.6658180e-02
  1.0374266e-01
 -3.3918250e+00
 -9.4004244e-02
 -1.1556277e-01
 -1.4885269e+00
  3.2808450e-03
 -2.0739902e-02
  4.1258808e-02
  3.5116818e-02
 -8.3367896e-01
  8.0538308e-03
 -1.9294977e-02
  7.1354851e-02
  1.1575608e-01
 -8.4389418e-02
  1.0725334e-01
  4.7225911e-02
 -6.8371646e-02
  6.1266318e-02
  1.2177911e-02
 -1.9269106e-01
  2.3468416e-02
  3.0240994e-02
  2.0326281e-02
  7.4405089e-02
 -1.0723277e-01
 -2.9956007e-01
 -3.4520295e-02
  7.3758401e-02
 -5.8147792e-02
 -4.4493228e-01
 -7.1322732e-02
 -1.0882435e-01
  1.0270791e-02
 -3.2307476e-02
  7.9087116e-02
 -6.3030027e-02
  1.1402974e+00
 -1.3859387e-01
  8.9016715e-03
 -1.3798286e-02
 -5.1784776e-02
  1.4471855e-02
 -5.9856851e-02
 -9.1616064e-02
  3.4680076e-02
 -8.2132787e-01
 -8.2746975e-02
  2.2799136e-01
 -3.0667786e-02
 -1.9837244e-01
  4.4846285e-02
  4.4853774e-01
  9.2954987e-01
  1.3038204e+00
  5.5953753e-01
 -7.1347183e-01
 -2.8359103e+00
  2.5017414e+00
  1.2075838e+00
  1.9571645e+00
  9.3613434e-01
  6.3327760e-02
 -5.7393146e-01
 -2.2195575e+00
  1.5502685e-03
  4.4834584e-02
 -3.6799768e-01
 -1.5579077e-02
 -1.2157006e-01
 -3.3388877e-01
 -2.3315320e-04
 -6.6489053e-01
 -9.5755279e-02
  1.3914588e-01
  1.8149041e-02
 -2.2366408e-01
  2.3637593e+00
 -1.1349858e-01
  9.5991679e-02
 -9.5866002e-02
 -1.1663844e-01
 -2.4762824e+00
 -1.8835280e-02
  1.1562625e-01
 -1.5158385e+00
 -1.0037728e-01
  9.2429176e-02
  1.6136135e-01
  1.7874217e-01
  5.6160355e-01
 -2.8626004e-01
 -3.3001970e-03
  1.8954333e-02
 -3.6208332e-01
 -6.2579662e-02
  1.5111071e-01
 -1.4647207e-01
  1.2610252e-01
 -2.0441709e-03
 -1.6051033e-01
 -4.4566821e-03
 -7.4409418e-02
 -3.5309672e-02
 -2.1801871e-01
 -1.9778379e+00
  6.4121746e-02
 -1.8723959e-02
 -2.0585938e-01
 -8.4020637e-02
  2.7412751e-01
 -6.1538178e-02
 -2.4602087e+00
 -1.3754430e-01
 -1.2934140e-02
  1.5676672e+00
 -5.7676047e-01
 -6.2138729e-02
 -1.0870901e-01
  1.3769309e-01
 -7.4329808e-02
 -1.4486015e-01
  1.2535405e-01
  1.4271590e+00
 -2.9490946e-02
  1.7778113e-02
 -2.1388955e-02
 -1.6818641e+00
  5.5250114e-01
 -5.4432895e-02
  5.3739734e-02
 -1.5090781e-01
 -1.1253878e-03
  2.0305294e-01
 -4.5030038e-03
 -9.9112749e-02
 -5.6762751e-02
  5.3103689e-02
  3.2931872e-02
  2.7503351e-02
 -5.8236115e-02
 -5.9125595e-02
 -1.5614198e-01
  5.1910955e-02
 -1.1127619e-01
  4.6585165e-02
  1.4430971e-01
  7.5784646e-04
 -2.6785415e-02
 -1.4989896e-01
  8.4210318e-01
  5.2495837e-02
  2.8106859e-02
  3.3322826e-02
  6.4412028e-01
  4.7575042e-02
  1.1057612e-01
  4.6040186e-01
  1.6112205e-02
  6.7113407e-02
 -6.6805214e-02
  1.8531558e-01
  3.8842000e-02
  4.7654505e-03
  7.0928619e-04
 -2.9432064e-01
  1.0066288e+00
 -5.3757273e-02
  1.4699300e-01
 -1.2073305e+00
  2.0335429e+00
 -3.3593290e-02
  1.1885148e+00
  4.8107654e-01
  2.0417325e-02
 -3.2356162e-02
 -2.1722827e-02
 -9.8168347e-03
 -6.8496799e-01
 -2.4323411e-02
  3.4260657e-02
  1.1085128e-01
  3.2245085e-02
  2.6407209e-01
 -5.9677180e-02
  1.0038042e-02
 -2.5407779e-01
  1.0545864e-01
 -1.4911011e-01
  8.9692855e-03
  4.8923969e-02
  7.1380562e-03
 -2.3799689e-01
 -4.1827396e-02
 -3.4216198e-01
  4.6507277e-02
  1.7915334e-01
 -1.5062809e-01
 -3.1991299e-02
 -1.6643498e-02
  6.7802958e-02
  2.1841010e-02
  1.3580738e-01
  2.3468065e+00
 -1.0845634e-01
 -4.3033730e-02
 -1.3751546e-01
  6.0653794e-01
 -8.8192783e-02
 -3.7074711e-02
  4.5913361e-02
 -1.2624099e+00
  4.9724501e-01
  6.6557720e-02
  9.3562864e-02
  1.5020965e-01
 -7.1624644e-02
  2.3414333e+00
 -2.1095678e-01
 -2.5988540e-01
  2.1948332e-02
  2.6325944e-01
  1.9409221e-01
 -9.4164677e-02
 -1.9091129e-01
 -2.4368195e-01
 -2.7485907e-01
 -3.6410846e-02
  3.6179487e-02
  5.5993706e-01
 -7.9999743e-03
 -1.8248311e-01
  8.3268538e-02
  2.0818447e-01
  9.5142864e-02
  4.7771864e-02
  6.6435301e-01
 -1.2638009e-01
 -2.5413569e-02
  2.4051702e-01
  4.0653276e-01
  8.1926519e-01
  6.6960329e-01
 -1.7739311e+00
 -2.1500593e-02
  7.6869681e-02
  3.4182634e-02
 -1.3812393e-01
  3.0773446e-02
 -1.4275770e-01
  9.9569850e-02
 -2.3933746e-02
 -1.8666266e+00
  2.2913675e-01
  1.4771301e+00
  2.4362738e-01
 -6.8504573e-03
  9.3899302e-02
  4.0959999e-02
  4.0981781e-02
  3.2879636e-01
  5.7706922e-01
  4.0986370e-02
 -5.8648298e-03
  1.0994788e-01
 -1.0031439e-02
  5.7173498e-02
  6.3110791e-02
  4.0034750e-01
  2.6199179e-02
 -3.8034402e-02
 -3.7891481e-02
  7.8857882e-04
 -1.1559001e-01
 -7.0553622e-03
  2.8463566e-01
 -1.3021393e-01
  9.3506098e-01
  5.3569174e-01
  1.7718226e-02
 -2.3600368e-01
 -3.6564149e-02
 -1.0295103e+00
 -1.3951199e-01
  2.4576521e+00
  8.4895939e-02
 -1.4486934e-01
 -2.8730506e-02
  2.1753250e-02
  1.3233973e-01
 -1.0786356e-02
  1.7358052e-02
 -8.2140771e-04
  1.3825318e-01
  1.2577768e-01
 -7.8371756e-02
  8.3575428e-01
 -2.6519930e-01
 -9.9056296e-02
 -1.9049528e-01
  4.0112630e-02
  8.4802575e-02
  5.0123762e-02
 -1.7110842e-01
  2.3363183e-01
 -1.5267457e-01
  3.8014278e-02
 -1.0032750e+00
  1.5354269e-02
  4.2793021e-02
  1.4769332e-01
  2.1422303e-01
 -3.4902296e-03
  1.8293263e-01
 -3.9459150e-03
 -3.3592421e-01
  1.0751283e-03
 -5.4594666e-02
 -3.8717788e-02
 -1.9565152e-02
 -1.0007292e-01
  3.2918296e+00
  6.2778234e-01
 -3.2305542e-02
 -3.1212781e-02
 -2.6475612e-02
  8.4254481e-02
 -5.6770299e-02
  1.4814535e-01
  1.2700963e-01
  2.7384724e-02
  1.1478772e+00
  1.4516823e-01
 -5.2443850e-01
  6.5643318e-02
  4.3601736e-01
  2.7425247e-01
  2.7815875e-01
 -8.3267186e-03
 -1.4501439e-01
  2.4610652e-01
 -1.7681582e+00
 -4.5019831e-03
 -9.5626861e-02
 -4.3575105e-01
 -7.2426312e-02
 -6.0471888e-03
 -3.6213078e-02
  2.8913148e-02
 -2.2521313e-02
 -6.7591257e-02
 -1.9261521e-01
  5.4746903e-02
  9.1029093e-02
 -5.1007342e-01
  9.9922948e-02
  1.4298807e-02
 -1.1614696e-01
 -3.7819444e-04
  1.3459753e-01
 -1.9574597e-01
  2.8809952e-02
 -2.4796755e+00
 -9.5020637e-02
  7.6275408e-02
 -2.4719149e-01
 -1.0478489e-02
  3.4809522e-02
  1.1969783e-01
 -1.1517156e+00
 -1.9387169e-01
 -4.3216091e-02
 -1.1158240e-01
 -3.5454288e-02
 -5.7737969e-02
  8.5237697e-02
  2.7467176e-02
  3.6839440e-01
 -4.5449546e-01
  7.7752016e-02
  7.3770009e-02
  1.5563066e-01
  1.0407041e-01
 -1.7589249e-02
  4.0266488e-02
 -1.0254792e-01
 -1.2699212e-02
 -5.4190703e-02
  2.7887188e-02
  3.8478326e-04
 -5.6481913e-02
 -3.2394189e-01
  1.5279486e+00
 -1.2518351e-01
  8.1995177e-01
  3.2025427e-02
 -8.7878667e-02
  2.0721042e+00
 -1.5358114e-01
  1.1966064e-01
  1.8817697e+00
 -2.3962724e-01
  2.6558906e-01
 -4.8535932e-03
 -5.1297026e-04
 -1.0892474e-02
 -5.6256123e-02
 -1.3727710e-01
 -1.3160003e-02
 -1.1334433e-01
  1.1297315e-01
  8.0902435e-02
 -2.8703755e-02
  3.8875532e-03
  6.5534525e-02
 -2.6024199e-01
 -2.0221744e-01
  1.7269239e-02
 -1.1451556e-01
  1.2406368e-01
 -3.1230252e-02
  3.4271557e-02
  4.8527122e-02
  2.2355791e-02
 -1.6116062e-01
 -3.8761739e-02
 -3.8355107e+00
  2.9492516e-02
  3.3666253e-02
 -4.6712641e-02
 -9.3107224e-02
  1.3788724e-01
  9.8019369e-02
 -1.4582174e-01
 -1.2782173e-01
 -9.2614897e-02
  2.9914506e-02
 -2.3324342e+00
 -8.6603627e-02
 -8.8480124e-03
  1.4096011e-01
 -1.9545073e-03
  5.2099288e-02
 -8.6779065e-02
 -8.9435071e-02
 -8.8416234e-02
 -2.3593883e-01
  1.6662753e-01
  9.4584256e-02
  2.3347198e-03
  2.0575538e-01
 -1.0751883e+00
  1.0949054e-01
  4.7978500e-01
 -1.0721274e-01
  3.0982779e-02
  7.6219725e-04
 -3.3580860e-01
  2.9625621e+00
 -1.2330630e-01
 -1.5576570e+00
 -1.8911611e-02
 -8.1284690e-01
 -9.2923358e-02
  7.1290083e-02
 -2.3936421e-02
 -1.8932967e-01
  2.8530579e-02
 -3.5168478e-01
 -2.4799615e-02
 -5.3564034e-02
 -7.8818742e-03
 -4.4239871e-02
 -6.4864665e-02
 -4.5271415e-02
 -2.1471256e-01
  4.4847071e-01
 -1.3325620e-01
  1.0669703e-01
  5.7262860e-02
  2.8190467e-01
  1.2398277e-02
  1.6393149e-01
  1.2928147e+00
  1.9765069e+00
 -1.3566300e-01
  1.9333728e-02
  9.4223194e-02
 -1.5094835e-01
  1.1939044e-02
  1.8159851e+00
  1.1470453e-01
 -5.6760926e-02
 -9.2295241e-03
  5.7396195e-03
 -1.0465798e+00
 -9.1509812e-02
  2.8645298e-01
  1.8069795e-01
 -1.2015672e-01
 -1.2133669e-02
 -3.2666005e-02
  3.2629985e-02
 -1.1448831e-02
  7.8841321e-02
  4.4792572e-01
  4.0695170e-01
  3.6782037e-02
  8.9493394e-02
 -1.6037871e-01
 -1.5378723e-01
 -6.6662923e-02
  2.6971321e+00
 -7.7903807e-02
 -6.2429849e-02
 -1.5756182e-01
  7.6111771e-02
 -2.9526595e-02
  4.3648850e-02
  9.9325009e-02
  1.0047199e-01
 -1.2547933e-01
 -1.3009161e-02
 -6.0781334e-02
 -2.5662627e-02
 -7.7701735e-01
  2.6861703e-02
 -7.1834843e-03
  2.5526537e-02
 -1.3812662e+00
 -2.2666965e-01
  5.5193748e-02
 -4.5631513e-02
  3.9043386e-02
 -7.9866037e-02
  2.5869554e-02
  2.7598063e-02
 -7.4598804e-02
 -3.0626772e-02
  1.9202527e-01
 -1.9481644e-02
 -9.8439092e-03
  7.4672334e-02
 -2.2460053e+00
 -2.7538841e-03
 -5.1886387e-02
  1.3474697e-02
 -1.5942587e-01
  9.4207019e-02
 -4.5519866e-02
 -3.5240018e-01
 -1.0707193e-01
 -5.4740559e-02
  3.3170080e-03
  1.8557291e-01
  4.7821423e-01
 -7.5344813e-01
 -6.4331567e-01
  3.1393844e-01
 -4.4895631e-01
 -1.3340794e+00
  1.0438194e+00
  4.9776012e-01
  3.6558038e-01
 -9.7750741e-01
 -7.0888526e-03
  1.0660195e-01
  7.0913300e-02
 -3.1663314e-01
 -3.0653914e-02
 -1.0318884e-01
 -4.2203233e-02
  7.0171095e-02
 -1.8809930e+00
  2.2034080e-01
 -6.3288376e-02
 -2.5771111e-02
 -1.5327747e-01
  1.1455344e-01
 -2.8814906e-01
 -1.4443822e-01
 -6.2109614e-03
 -1.6160250e-02
 -7.9412085e-01
  4.5294162e-02
 -5.7319226e-03
 -2.1284418e-02
 -1.1961788e-01
  3.1706739e-02
  9.8619932e-01
  9.5813110e-02
 -2.4632916e-02
 -9.2677651e-03
 -4.6436731e-02
 -6.3876741e-02
 -4.5810059e-02
 -1.8792585e-01
 -5.9556779e-02
  1.3740003e-02
  7.3160075e-02
 -6.0178854e-02
  2.5569221e-02
 -7.8781776e-02
 -8.0865510e-02
 -1.1015312e-01
  1.2760730e-01
  8.8525312e-03
 -5.2006185e-01
  2.0666476e-02
  9.2211273e-03
 -4.5802243e-02
  3.1380317e-01
  1.4278244e+00
  2.4002025e-01
  5.8806878e-02
  5.7240214e-02
 -9.1412550e-01
 -4.6884751e-01
 -4.6510759e-01
  4.5151812e-01
 -2.6335677e-03
 -2.7575022e-01
 -8.3390661e-02
  3.6251716e-02
 -3.0932385e-02
  3.5973098e-02
 -3.8603686e-02
 -4.5853995e-02
 -8.0658086e-02
  1.4465436e+00
  3.9228190e-02
  2.0142883e-02
  1.1631621e-02
  1.8342961e-01
 -2.5335899e-01
 -1.3697009e-01
  6.7637727e-02
 -1.1817663e-02
 -2.1239309e-02
 -7.8790551e-03
  6.6368785e-03
 -2.4064627e-01
 -1.0849024e-01
  9.9970549e-02
 -1.6494362e-01
 -2.1151665e-01
 -8.8731721e-02
  5.2044803e-01
 -5.2167016e-01
 -1.0257810e-01
  5.3905115e-02
 -1.0030537e-02
  3.2948589e-01
 -1.8705377e-01
  7.3449850e-01
 -1.6385379e-01
 -1.4700072e-01
  1.0036087e-01
 -3.0947059e-02
 -1.4684710e-01
 -3.3449242e-03
 -2.8042316e-02
  3.0648360e-02
  3.8533241e-02
 -5.5600885e-02
 -2.2667311e-01
  5.8294762e-02
 -1.4724599e+00
  9.3618989e-01
 -3.3906844e-01
  8.7057926e-02
 -9.2855282e-02
  1.3697258e+00
  7.4303651e-01
 -2.7676940e+00
 -1.3837254e+00
  2.0292635e+00
 -1.2847964e-01
 -4.5189521e-01
  9.2310309e-01
  1.8335674e-02
 -5.0055288e-02
 -3.7525292e-02
  4.6090963e-01
  1.2726514e+00
 -1.2154865e-01
 -2.9614204e-01
 -7.9755324e-01
 -1.0382817e+00
  1.8670954e-02
 -1.2358759e-01
  2.9445574e-02
  3.0114052e+00
 -7.4119389e-02
  1.7468249e-02
  5.2426022e-04
  9.7930074e-01
 -9.9205500e-01
  3.5450989e-01
 -6.8463755e-01
 -4.1583669e-01
  3.7183863e-01
  5.5894069e-03
  2.6594815e-01
  2.8795905e-03
 -5.0637585e-01
 -5.5950719e-01
  9.9754155e-02
 -3.8162488e-01
  5.4666333e-02
  1.2578556e-01
  3.2570183e-02
  3.0861232e-01
 -2.4595560e-01
  9.2284024e-02
 -1.5303950e-01
  4.8902240e-02
 -1.8398969e-02
 -7.2782958e-01
 -2.4152032e-01
  7.4185237e-02
  1.8221032e-02
  6.7445366e-03
 -1.3910662e-01
 -3.4563950e-01
 -2.5918221e-01
 -3.3363082e-02
  2.1972830e+00
  7.6426780e-03
  8.4605463e-02
  3.6343798e-01
 -1.0911414e-03
  8.7747157e-02
  5.5701856e-02
  6.2355757e-02
 -1.2898088e-01
 -3.2818053e-02
  2.0155840e+00
 -8.5091949e-02
 -9.7885855e-02
  9.1805207e-03
  4.1798081e-02
  1.0867923e-01
 -1.0669244e-02
 -4.6521518e-02
 -7.1257525e-03
 -1.0056529e-02
 -6.2515885e-02
 -5.6871884e-03
  1.5566961e+00
  5.9964288e-02
  7.0619091e-02
 -8.8786662e-02
 -8.8933585e-03
  2.6051033e-01
  4.9841130e-01
  4.9499512e-02
 -4.9967945e-02
 -2.5268737e-02
  1.4111619e-02
  1.4153266e-01
  1.4122449e-01
  2.2722220e-01
 -1.3610056e-02
  5.2484363e-02
  2.3429187e-01
 -8.8722870e-04
 -7.1574584e-02
 -1.2367371e-02
 -4.0890120e-02
  1.3589832e-01
  7.3392228e-03
 -4.0659811e-02
 -2.3316585e-01
  1.2194482e+00
  5.7900779e-02
 -1.7279424e-01
  2.5418738e-02
 -1.6491576e-01
  7.4256277e-01
  2.9442254e-02
 -5.0214177e-01
 -2.4508203e-03
  1.1800637e-01
 -1.4875610e-01
 -3.2224122e-01
  1.5385705e-02
 -4.1627899e-02
 -1.0573899e-01
 -2.3868963e-01
  3.6036354e-01
  1.6487563e-01
  1.9091497e-01
 -1.0769325e-01
  5.0966401e-02
  1.2743305e-01
  6.0763147e-02
  8.2339952e-03
 -2.2824049e-02
  5.6367565e-02
 -1.4367604e-01
  1.4751528e-01
 -7.5031526e-02
 -2.1099452e-02
  3.5340462e-02
  4.2148441e-01
  2.2615023e-02
 -1.1601878e-01
  3.2900892e-02
  1.4352882e-01
  5.8002230e-02
 -9.9568274e-03
  7.9447567e-02
  7.1734056e-02
  1.5606242e-01
 -1.3107079e+00
  6.4324969e-01
  5.8647569e-02
 -1.3704943e-02
  7.3577881e-02
  7.4948692e-03
 -2.1209985e-02
 -2.2333483e-01
  1.6093244e-01
  1.7398307e-01
 -1.0756878e-01
  4.5563452e-02
  1.1178327e-01
 -3.4607768e-02
  1.9433819e-01
 -4.6712250e-02
  2.1211892e-01
 -1.6200764e-02
  1.2615864e-01
 -1.2607929e-01
  7.5887024e-02
 -1.7769335e-01
 -6.7923117e-01
 -4.9713302e-02
  7.6550990e-02
 -1.7015133e+00
  2.2956951e-02
  2.9539628e-02
  9.9277198e-02
 -9.9940203e-02
  5.2045297e-02
  3.3965519e-01
  2.2297192e-01
  4.3031685e-02
  8.3259158e-02
 -8.6078160e-02
 -6.6848141e-01
  4.6348609e-02
  2.0339686e-02
  5.6982834e-02
  1.2728397e-02
 -7.1817311e-03
 -2.6570413e-02
  1.0184968e-01
 -7.4652873e-02
 -2.8195601e-02
 -1.2386963e-02
  2.2886187e-01
  6.1209518e-02
 -4.3182120e-02
 -4.6901472e-02
 -8.1884578e-02
 -6.9768033e-03
  1.0571466e-01
  6.2524056e-01
 -1.5525280e-01
  6.0857452e-02
 -1.9686514e+00
  1.9026156e-01
 -2.9379681e-02
 -2.5231865e-01
 -7.5764261e-02
  5.9461409e-01
 -3.3434890e-02
  7.4397169e-02
  7.3628491e-03
  6.0037132e-02
 -7.1923137e-01
  1.0078074e-03
  1.9024056e-01
  1.6557340e-02
  2.9223759e-02
 -3.7557170e-02
  3.1000191e-01
  4.5714062e-02
  1.9816075e-02
 -1.0335744e-01
  1.9645567e-01
 -3.8572297e-01
 -5.5709008e-02
  3.0348524e-02
 -4.5377973e-01
 -2.0030634e-01
 -6.9916910e-01
  7.5406834e-02
  2.5137030e-02
  1.0067216e-01
 -2.2903636e-02
 -1.8088934e-01
 -1.9439878e-01
 -2.4892914e-01
 -5.8463708e-02
 -1.7033961e-01
 -1.5205796e-01
 -3.9542493e-01
  4.0707231e-02
 -5.5143498e-02
  1.2990755e-02
  2.5770056e-01
  1.3815239e-01
 -2.1308735e-01
  3.6103109e-01
  1.0650371e-01
 -8.4723078e-02
 -3.6777959e-03
  2.0603181e-01
  1.3366641e-01
  7.0092790e-02
  7.7023990e-02
  1.1718413e-01
  5.7806980e-02
 -7.6559059e-02
 -6.6124454e-02
  2.4344483e-02
 -2.1476208e-01
 -6.3785654e-01
  7.7764404e-01
  1.1303402e-01
 -1.8918738e-02
  7.4542813e-02
 -1.5145812e-02
 -1.4077586e-02
  2.7527427e-02
  7.0330530e-01
  1.3936828e-01
 -8.4071187e-03
 -1.4167661e-02
  1.0123550e-01
  1.1075957e+00
  6.5953873e-02
 -3.1002995e-01
  2.8471604e-01
  5.7017869e-01
 -2.5840095e-01
 -4.3212533e-01
 -1.5465365e-02
  1.2014041e-01
 -6.8860221e-01
  5.8782256e-01
  2.4627970e-01
  2.1150176e-01
  1.3376212e-02
 -1.0282870e-01
 -1.2387960e-01
 -3.2262647e-01
 -9.8091096e-02
 -4.2103729e-03
 -4.6669982e-02
  6.8041778e-01
  2.8408471e-01
  1.0642961e-02
  1.4665645e-01
 -6.7308039e-04
 -5.1405476e-03
 -6.6711003e-01
 -4.0192053e-01
  2.1183422e-01
  2.6725678e-02
  7.8751124e-02
 -2.3466380e-01
 -1.2710621e-02
  1.5490429e-02
 -1.2740812e-02
 -1.6192636e-01
  2.9003361e-01
  1.5909918e-01
 -2.0835069e-01
 -2.2549215e-01
  3.3669282e-02
  1.0149866e-01
  8.1713088e-02
  4.3344975e-01
 -8.2980436e-01
 -2.2253954e-01
 -2.4911073e-01
 -5.7981227e-02
  1.5408060e-03
 -4.3222945e-02
  6.7648873e-02
 -1.4218557e-01
  2.8981256e-01
  6.5121423e-03
  8.4489569e-02
 -5.1289726e-02
  4.2182317e-01
 -1.5121652e-01
  1.1868726e-03
 -1.1707152e-03
 -1.5798424e-01
  1.2861009e-01
 -7.0904739e-02
  2.6155341e-01
 -1.8399249e-01
 -2.3122305e-01
 -1.5771355e-01
  2.3217954e-01
  1.6155595e-01
  1.5409932e-01
 -5.8524456e-02
  5.9874538e-02
 -8.3233613e-01
  1.4409304e+00
 -1.2331312e-01
  4.2464412e-04
  2.1851328e-03
  1.0129000e-01
  4.1350346e+00
 -2.1764931e-01
 -1.1273265e-01
  5.0523095e-02
  2.0618697e-01
 -1.1983813e-02
  4.9712189e-02
 -2.8915849e-01
  7.8745507e-02
  1.6663728e-02
 -5.5547088e-01
 -3.6367361e-02
 -1.6839016e-02
 -7.2613738e-02
  5.7254490e-02
  5.4832157e-02
 -1.5347943e-01
 -6.0536105e-02
  1.4876878e-02
 -5.3861104e-02
  5.0940190e-02
  1.1708225e-01
 -3.8092032e-02
  1.3778341e-02
  3.5691988e-02
 -3.1173360e-03
  3.5805620e-02
  1.4222711e-01
  2.8738779e-01
  1.2635417e-01
 -4.0364210e-02
 -1.5715495e-03
  2.3845416e-02
 -1.4059736e-01
  1.1160040e+00
 -5.0826836e-03
  9.7593874e-02
 -1.0414492e-01
 -2.1281078e-01
  1.3484302e-01
 -5.3448290e-01
  4.5247343e-01
 -1.4737464e-03
  1.4501401e-02
 -4.2108022e-02
  1.2356354e-02
  1.5564783e-02
 -3.0647198e-02
 -9.7023231e-01
  4.3225951e-02
 -1.2171716e-02
  1.6132113e-02
  4.0804904e-02
  2.5088546e-01
 -7.0404880e-02
 -2.5181976e-01
  6.9210298e-02
  7.6728277e-02
 -2.2937732e-02
  1.6658074e-01
  1.8554433e-01
  6.6580050e-02
 -9.4330162e-02
  3.9468262e-02
  4.3374002e-02
  2.8344464e-02
  5.1085234e-02
  1.6281937e-01
  1.8768735e-01
 -3.6077881e+00
  6.9748932e-01
 -1.3974535e+00
  1.2915322e-01
 -2.4958428e-02
 -1.0732875e-01
 -2.0897466e-01
  2.1738927e-03
 -8.8771194e-02
 -1.3494033e-02
  4.2615879e-02
 -7.6433666e-02
 -1.9508037e-01
 -9.1640847e-03
  2.4589114e-03
  6.8108262e-03
  6.8767756e-02
 -1.4429867e-01
 -2.6547045e-01
  4.2764723e-02
  1.9635667e-01
  1.2160419e-02
  7.6529328e-03
  9.0821736e-02
 -6.5093106e-01
 -1.7410447e-01
 -6.5995343e-02
 -3.5606295e-01
  8.8972703e-02
 -1.2044635e+00
  1.7175098e-01
 -7.1153812e-02
  5.9697360e-01
  9.0296015e-02
 -1.6657236e-01
  2.4901462e-01
  1.1294264e-01
  6.1598632e-02
  2.5319448e-01
 -2.6836732e-02
  1.6652943e-01
 -2.1168839e-02
  6.6377956e-01
  3.5467629e+00
 -1.2554410e-01
  8.6686969e-02
  1.2365604e-02
  1.0879067e+00
  5.5074919e-02
  3.2240670e-02
  5.7317659e-02
  8.3767390e-03
  4.3042746e-01
 -1.4132233e-01
  2.4741853e-02
  1.1478432e-01
 -4.8422366e-02
 -4.4200331e-02
 -5.9903931e-02
 -3.2187346e-01
 -3.1382680e-02
  2.7581034e-02
  1.4870056e-02
 -1.1320698e+00
 -5.2631833e-02
 -1.5006845e-01
  2.2001404e-02
 -7.1245313e-02
  2.7156132e-01
  1.1351196e+00
  2.8010714e-01
  1.1471965e-01
 -5.2304849e-02
  3.2194847e-01
  1.4788619e-01
 -1.0339420e-01
 -2.4483119e-01
 -2.1507762e-01
 -1.7241279e-02
  8.2923460e-01
  4.3348461e-01
 -7.1797067e-01
 -5.6347009e-02
  3.7091192e-02
 -5.1391363e-02
 -1.8901663e+00
 -3.2079455e-02
  4.0287228e+00
 -8.1696987e-02
 -3.0955764e-02
 -7.1060602e-03
  6.1351216e-01
 -7.3859759e-02
  8.8794246e-02
  7.5298883e-02
 -2.0190267e-01
  2.4422359e-01
 -5.6787081e-02
 -2.4918949e-02
 -9.4049528e-02
 -6.8854252e-03
  8.1629686e-02
  1.6693919e-04
  8.3285026e-02
  1.1582872e-01
 -2.7927481e-02
  1.4670931e-01
  5.6058121e-01
  2.2406080e-03
 -3.6830883e-02
 -9.4405197e-02
  1.1943637e-01
  1.0921066e-02
  1.1593119e-01
  1.6359624e-01
  1.4743210e-02
  1.1522181e-01
  2.8237712e+00
 -1.3416383e-02
 -9.9585742e-02
  7.6391943e-02
 -8.3038751e-03
 -1.4924763e-01
 -1.0324538e-01
  1.4990506e-01
 -9.1581565e-01
  1.2584478e-01
  5.5296266e-01
  1.0227451e-01
 -8.1795275e-02
  8.9716315e-02
 -1.2285582e-01
  1.1627207e-01
 -1.7264347e-01
 -1.4445048e-02
 -1.3801239e-02
 -3.1780753e-01
  2.6509023e-01
 -1.1065872e-01
 -1.8229260e-01
  2.8707495e-01
 -4.1866548e-02
  2.1723602e-03
  6.2591493e-02
 -2.7976392e-02
  9.1164246e-02
  4.2187467e-01
 -1.0347755e+00
  2.1850497e-01
 -1.5039491e-02
  5.3082210e-01
  1.6280983e-01
 -3.0948386e-02
  4.2125332e-01
 -5.9420247e-02
  1.2150992e-01
 -4.0500471e-01
  1.2110114e-01
 -2.6641710e-02
 -1.8102399e-01
  3.7240062e-02
  1.3130645e-01
  8.1943616e-02
 -5.1747221e-02
 -5.5757603e-03
 -8.2442015e-02
  8.3841109e-01
 -1.3452932e-01
 -7.8555800e-02
  1.9932867e+00
 -2.0870786e+00
  1.1978918e-01
 -8.8049889e-02
  2.2991750e-02
  3.5075668e-01
  6.9903746e-02
  7.8720544e-03
  3.4365481e-01
 -2.0356530e-02
 -6.0004424e-02
  2.6187479e-02
 -1.5571909e-02
  1.5311992e-01
 -8.6935185e-02
  6.0872562e-02
 -4.3290190e-02
  1.2090479e-02
 -9.4724894e-01
 -1.2210352e-01
  2.3746906e-01
  1.0062919e-01
  2.0570207e-02
  4.4131972e-02
 -1.2790933e-01
  8.0212086e-01
 -2.7700767e-02
  2.3730442e-02
 -1.1520491e-01
  4.8869965e-03
  4.9904698e-01
  5.3217959e-01
 -2.5494373e-01
  5.5481631e-02
  8.7346748e-02
 -6.4901941e-02
 -9.0229407e-02
 -5.4544616e-02
 -2.4000663e-02
  4.8491556e-02
  1.0661162e+00
  3.8744521e-01
  8.3607949e-02
  7.4874371e-02
  2.6120099e-01
 -3.8559314e-02
 -2.1512282e-01
  8.9386441e-02
 -3.1457495e-02
 -8.9592338e-02
  1.2568669e+00
 -1.5122931e-03
 -3.3784967e-02
  4.3422741e-01
 -1.7062459e-02
 -3.5488960e-01
 -2.0082494e-02
  1.5261982e-01
  9.2157811e-02
 -1.8410610e-01
 -9.9403299e-02
 -1.0529880e-01
 -8.7724715e-02
  2.5455016e-01
 -4.5091449e-03
 -3.7500717e-02
 -1.5058002e-02
  9.3486972e-02
  1.5425405e-01
 -1.8462965e-01
  9.0980403e-02
  6.4332247e-02
 -2.5122112e-02
  6.4432062e-02
  4.0147579e-03
  1.1722550e-01
 -9.9565357e-02
  1.7149650e-01
  1.9220491e-01
  1.9403808e-01
  6.7884457e-01
  2.0756325e-01
  1.5155551e-01
 -6.1163981e-02
  1.8957065e+00
  9.6194670e-02
 -5.7886219e-01
  1.8180681e-02
  2.2060993e-01
  3.6752069e-01
 -7.0453852e-01
  1.2671505e+00
 -1.0611391e-01
 -1.7667343e-01
  8.0432244e-02
  9.0294117e-03
 -1.9821245e-02
  2.3587460e-02
  5.8511846e-02
  1.0651217e-01
  1.0259654e-01
  1.7132115e-02
  6.7367774e-01
  7.9641834e-02
  2.6450701e+00
  6.9557592e-02
 -2.5640173e-02
 -2.6258335e-01
 -1.3337961e-01
  9.8289073e-02
 -1.8680800e-01
  2.2364433e-01
  3.7434942e-01
 -1.6305280e-01
 -8.4338464e-02
  3.5758156e-02
 -9.6682765e-02
  1.3548580e-03
  5.0776746e-02
  7.3915714e-01
 -1.4123602e-01
  6.1542898e-02
 -2.0464619e-01
  2.0682406e-02
  3.2096264e-01
  4.6671942e-02
  1.0947499e-01
 -2.6713926e-01
 -1.8002626e-01
  4.2419922e-01
  4.6536049e-01
 -3.9327960e-02
  1.4808205e-01
 -9.5529236e-02
 -3.1838723e-02
  1.0304116e-01
  6.5595023e-02
  2.5338978e-02
  5.0028428e-02
 -7.6821035e-01
  2.0991363e-01
  3.7810108e-01
 -1.3995372e+00
  1.4826205e-01
  1.0467413e-01
 -3.0628595e-01
 -1.1446315e+00
  8.6844720e-02
 -1.5099102e-01
  1.6945855e-03
 -1.5422302e-01
  6.1670848e-04
  1.2623082e-01
  6.9829859e-02
 -2.2974868e-01
  4.3705702e-02
  9.3446605e-02
  1.7389277e-01
 -2.6758814e-01
 -3.2539213e-01
  4.3428022e-01
  3.9761660e-01
 -1.9689800e-01
 -9.0559624e-02
  8.4318379e-03
  1.1477365e-02
 -4.4126321e-02
 -2.2204228e-02
  1.3446891e-01
  1.2283564e-01
 -2.6804952e-02
  4.4998148e-01
 -2.2148097e-02
  3.0022070e-01
  1.3435914e-02
 -1.1025579e-01
 -9.4646089e-02
 -3.7159458e-01
  7.7761397e-02
 -4.4164948e-02
 -1.8332110e-01
  9.7608473e-03
 -6.4773438e-03
 -2.6683735e-02
 -1.4692513e+00
 -3.1427849e-02
 -5.5395249e-02
 -9.2018306e-02
  5.2897364e-02
 -3.6335073e-03
 -2.2561409e+00
 -3.6051832e-02
  6.8718284e-02
  3.6269226e-03
  1.1345853e-01
 -2.3975362e-01
 -2.9764084e-02
 -3.8605407e-01
  7.9641894e-02
  1.2310306e-01
 -1.3473769e-02
 -8.7828428e-02
 -7.6357867e-03
  3.6996402e-02
 -1.4871074e-02
  5.4549620e-02
 -1.5465932e-01
 -1.3689104e-02
  1.2209522e-01
 -1.1049306e-01
  2.2555981e-02
 -1.4410490e-01
 -3.1105479e-02
  4.1020191e-03
 -1.0661770e-02
 -4.8167516e-02
 -2.2037501e-02
 -1.2972939e-01
 -1.5700322e-02
 -6.2223606e-02
 -4.6612397e-02
 -3.5098184e-02
 -8.9667447e-02
  2.1234679e-01
  1.2031115e-01
  1.0139333e-01
  1.4687772e-01
 -1.3036303e-01
  7.1460366e-02
  1.5998028e-01
 -3.1666994e-01
 -5.7263568e-02
 -4.6717368e-02
 -6.3173898e-02
  1.1411172e-01
 -4.5627791e-02
  3.5962027e-01
  1.3508089e-02
  9.3445657e-03
  4.0823188e-02
  8.8220380e-02
 -3.8698724e-01
  4.7899138e-02
 -1.4290778e-02
  7.4866600e-02
  5.8378293e-03
 -3.0830997e-01
  8.8001475e-02
 -1.2865070e-01
 -1.9513826e+00
 -5.5248243e-01
  1.0118910e-02
  1.6796766e-01
  5.3350560e-02
  9.9474333e-02
  6.0083285e-02
  3.2451129e-01
 -8.8636048e-02
  4.5977595e-01
 -8.5502215e-02
 -8.2511121e-01
 -2.0861277e-01
  3.7257165e-02
 -6.7961900e-03
 -1.4793293e-01
  1.4348309e-01
  4.4859018e-02
 -5.8227754e-01
 -1.0492639e-02
  1.2240528e-01
  3.2105230e-02
 -1.0493690e-01
  1.7413220e-01
  6.7668939e-03
  1.6000219e-01
 -1.3383840e-01
  3.8450858e-01
  2.7011171e-02
  9.6223466e-02
  8.4912121e-02
  1.0430048e-01
 -2.7406732e-02
  6.1853562e-02
  1.5305191e-02
 -8.7762855e-02
  1.9746700e-02
  2.2426452e-01
 -4.2695217e+00
  1.2850143e-02
  1.5834836e-02
  1.0331908e-01
 -1.9027540e-03
  3.7710872e-02
 -1.6503489e-01
  7.3193327e-02
  3.4018612e-01
  2.6053339e-02
  4.7559217e-02
  7.0566325e-03
 -3.8666704e-01
  7.2192711e-01
  1.0255874e-01
 -3.9147890e-01
 -7.2231382e-02
  1.4570367e+00
 -3.3274794e-01
 -6.7702615e-01
  3.0019608e+00
 -1.6335361e+00
  3.7085712e-01
  3.3740111e-02
  2.2508264e+00
  1.6218306e+00
  6.2724125e-01
  1.2987387e+00
  2.0408018e-02
  7.4296598e-03
 -6.9184311e-02
 -2.4056767e-01
  6.7514993e-02
 -2.0415616e-01
  1.9409034e-02
 -1.1441702e-01
 -2.4400929e-02
 -9.1588132e-02
  9.3779826e-01
 -1.9026537e-01
  4.2410757e-02
 -1.0472446e-01
  1.5369485e-02
 -4.8218630e-02
  1.5969992e-01
  3.6982913e-02
 -8.7685861e-02
 -3.0462492e-02
 -1.0574475e-01
 -5.4431241e-02
  7.5644828e-02
 -1.2939398e-01
 -4.1113097e-02
 -1.0394217e-02
 -1.0923347e-02
 -2.5484541e-01
  3.9351115e-01
  8.1349507e-02
  2.9437643e-01
 -1.8815142e-01
  1.5074585e-02
  5.1972196e-03
 -3.3390728e-01
  4.4421781e-02
 -2.5416517e-01
 -2.2583905e-01
  2.5244269e-01
 -4.9403023e-02
 -9.7951479e-02
  2.7926129e-04
 -1.3963436e-01
  1.1824585e-02
 -4.2376366e-02
  1.6860959e-01
  9.4780542e-02
  2.5748950e-01
 -1.7030319e-02
  9.1157871e-01
  8.8967472e-01
 -2.2935903e-02
 -1.2401960e+00
  2.8822005e-01
  7.7357298e-01
 -2.6376048e-02
 -7.4460797e-02
  4.4520956e-02
 -1.4459032e-01
  5.4688078e-01
 -3.9093830e-02
  1.9573076e-02
 -5.6056526e-02
  1.1828349e-01
  4.3998174e-03
  7.5523627e-01
  8.9405971e-03
  1.3458329e+00
  1.2729622e-01
  4.7569722e-03
 -2.2852806e-02
  5.4553537e+00
 -8.6386770e-02
 -1.3561472e-02
 -1.1024687e-02
 -1.0865861e-02
  1.9865432e-01
  7.2688276e-01
 -2.8746318e-02
  1.3879800e-01
  2.6008642e-01
 -4.5582955e-04
  1.2743427e-02
  3.2090643e-01
  8.9731924e-02
 -8.7622829e-02
  1.1396694e+00
  4.2407479e-02
  8.2443699e-02
  9.0083130e-02
  1.7050667e-01
 -5.2492269e-03
  4.7171316e-01
 -9.5539436e-02
  2.5993704e-03
  2.7254861e-02
 -3.0624824e+00
 -1.9460192e-02
 -4.0406626e-02
 -7.7678673e-02
  8.2476217e-01
 -1.6650699e-01
  9.0631634e-02
 -6.9517297e-01
  2.0142491e+00
  1.8036780e-01
 -1.2561358e-02
 -1.1812004e-01
 -1.4454196e-01
 -1.1753917e-01
 -4.8399745e-03
 -1.6205404e+00
  9.5877402e-02
  5.1523101e-01
 -7.4823700e-02
 -2.5926858e-01
  7.3118128e-02
  1.0338306e-01
  7.3478222e-03
  7.6358326e-02
  4.3610100e-02
  2.2073794e-02
  1.3660347e-01
 -4.0434566e-01
  2.6503786e-02
  4.0630907e-01
  2.5793621e-02
  7.0513211e-02
 -4.4666957e-02
  3.5991974e-02
  2.9535303e-02
 -1.5867908e-02
 -1.0755088e-01
 -1.0739081e+00
 -1.3062084e-01
  3.8775966e-02
 -1.9585155e-02
  1.2732691e-01
 -1.5554199e-01
  1.4239813e-01
 -1.4360992e-03
 -1.7225406e+00
  8.8570036e-02
 -1.1496343e-01
  2.1633098e-01
 -9.8081607e-01
  3.9113560e-03
  7.1310282e-02
  5.4187304e-01
  2.4164323e-02
  8.2982039e-01
 -2.2637051e-01
  7.0898265e-02
 -2.2284337e-03
  1.8704291e-01
  8.0911830e-02
  2.0442730e-01
  1.3903122e-01
  1.0520469e-01
 -3.4069113e-02
  1.6046152e-01
 -8.5995026e-02
 -1.8163429e-01
  1.4978251e-03
 -2.8102195e-02
 -5.5334099e-02
 -3.3000815e-01
  1.6430270e-02
 -1.5445495e-01
 -4.2328131e-01
 -5.4990817e-02
  9.6120656e-02
 -4.2418472e-02
 -1.0176888e-02
 -2.0333270e-02
  7.6141916e-03
 -1.3791778e-02
 -2.8380749e-01
  3.8148907e-03
 -2.8328085e-02
  5.6472844e-01
 -4.9693819e-02
  1.0027201e-01
 -9.2569403e-03
  8.1326649e-02
  1.3288340e-01
  1.1558699e-01
 -2.3789597e-01
  5.1034048e-02
 -1.4196651e-01
  4.0062377e-01
 -1.3228218e-01
 -5.9428769e-01
 -8.1796497e-03
 -2.5957806e-02
  2.7863024e-02
 -4.5807406e-02
  1.1500197e-01
  5.1015474e-02
  2.2395324e-02
  1.4729892e-01
 -1.1544835e-01
  9.5656849e-03
  7.7128276e-02
 -1.9174398e+00
 -5.1592227e-02
  1.5358622e-01
  9.2827342e-03
  1.0308463e-02
  6.0744505e-02
  2.6888182e-02
 -3.5642892e-02
 -2.1564880e-02
 -3.6880317e-01
  2.3260070e-02
 -4.7225223e+00
 -9.6438201e-03
 -1.1760674e-01
  2.7422461e-01
  5.5997416e-02
  3.8812464e-04
 -1.3239136e-01
  6.4078867e-02
 -1.4954080e-01
 -2.1329792e-01
  1.0230660e-01
 -1.4930220e-01
 -2.4270490e-02
 -4.0468384e-02
 -4.2180259e-02
  4.2960562e-02
  5.0419141e-02
  2.6218455e-02
  2.7715173e-01
  1.5203811e-03
 -1.7827362e-02
 -3.3193886e-02
 -1.2864561e-02
  8.2416106e-03
  4.9957544e-02
 -8.6085223e-02
  9.7814053e-03
 -3.3823330e-02
 -9.4376981e-01
  9.9819608e-02
  5.2988283e-02
  4.4844337e-02
  5.0335079e-02
  8.1321798e-02
 -4.7849786e-02
 -4.9758319e-02
  5.9954505e-02
  7.7663191e-02
 -8.5592203e-02
  7.2693964e-03
 -1.5185863e-01
 -1.1017499e+00
  7.2095633e-01
 -5.1221256e-03
  1.0685343e-01
 -5.4220673e-02
 -1.6682479e-01
  3.9506489e-01
 -1.5527490e-01
 -1.3604387e-02
  7.5881934e-01
 -1.6256985e-03
 -9.7275926e-03
 -5.0150520e-01
  2.5934750e-01
  2.3819650e-02
  4.4297853e-01
  4.9012560e-01
 -1.8196951e-01
  2.1060936e-02
  7.0155203e-02
  7.4036964e-03
 -8.7777032e-03
  3.4025581e+00
  4.8976190e-02
 -8.1302896e-02
  1.0108976e-03
 -1.8932067e-01
  1.0548807e-01
 -4.6094214e-03
 -4.7938398e-01
 -6.2946476e-02
  4.4424288e-02
  2.0013737e-02
  1.2112339e-02
 -1.3159433e-01
 -4.2465497e-02
 -3.2849303e-01
  1.6483233e+00
 -3.8781917e-01
  3.1164438e-03
  7.1859710e-02
  2.1199157e-02
  6.1759166e-03
  2.0867509e-01
 -1.0114641e-01
  8.4477365e-02
 -2.2242960e-02
 -1.4805360e-02
  9.4256096e-02
  2.5968504e-01
  3.7310380e-03
  2.5732911e-04
  1.2038837e-01
  5.0066777e-02
  1.0418090e-01
 -1.1691917e-03
 -3.9670858e-01
 -5.2427046e-02
 -2.4191782e-02
  2.4358724e-01
  2.7644951e-02
  1.7267030e-01
 -2.2116858e-01
 -1.6112566e-02
  2.0489767e-01
  7.7629447e-02
 -1.0674723e-02
 -1.2946527e-01
  1.1267801e-01
 -2.1736706e-02
 -7.6015085e-02
 -3.6103693e-01
 -1.0654532e+00
  1.0900272e+00
  4.4146150e-01
  3.7492266e-01
  7.6276004e-02
 -4.0069532e-02
  1.3879991e-01
  9.7296640e-02
  1.1041115e-01
 -7.9771489e-02
 -2.0633610e-03
 -2.8382584e-01
 -7.7619761e-02
 -4.1131273e-02
 -1.2095049e-01
 -1.6247293e-01
 -2.5258408e-04
  4.7702204e-02
  1.3385789e-01
 -1.4161550e-01
  1.8118584e-01
 -1.1117774e-01
  5.2552656e-03
 -2.5395602e-02
 -8.5184060e-02
  1.9036698e-01
 -5.3713888e-02
 -2.9493971e-02
 -1.4050336e-01
  8.9755923e-02
  4.0715523e-02
  8.2228193e-03
 -2.9750654e-01
 -1.2104330e-02
 -3.3102106e-02
  7.3322177e-02
 -3.9010745e-02
 -9.4200633e-02
  8.2272768e-02
  2.9083055e-01
 -1.0721941e-01
  3.8814891e-02
 -4.8605029e-02
  1.9634377e-02
  1.0002984e-01
  6.4075179e-02
  2.4129888e-01
 -6.3955775e-03
  2.2900300e-02
  4.1650407e-02
  3.7929494e-02
  4.6932243e-02
  9.6041411e-02
 -9.9595584e-02
 -1.0043137e-01
  1.0834643e-01
 -1.5189899e-02
  2.4591309e-01
 -6.2063366e-02
 -1.1353037e+00
  3.7967050e-01
  3.7250036e-01
 -7.6722048e-02
  1.1920951e-02
 -1.4330328e-02
 -5.6285687e-02
 -3.5109326e-01
  6.2305879e-02
  4.5977440e-02
  1.8656278e-01
  1.0618795e-01
 -1.2198193e-01
  2.0715600e-01
 -2.5308166e-02
  1.0360010e-01
 -3.6972126e-01
  2.7179807e-01
  1.3191254e-01
  2.4027785e-02
 -9.6378950e-03
 -1.1521911e-01
  5.4720689e-02
 -2.2340970e-02
  3.5155948e-02
  8.6168468e-02
 -3.2962975e-01
 -4.0411886e-02
 -5.2042183e-02
  9.0119757e-02
  2.5555035e-03
 -3.6369786e-02
 -8.3809592e-02
 -4.8644673e-02
  2.9485673e-02
 -2.8082561e-02
 -1.8214789e-01
  2.5165629e-02
 -1.0839515e-01
 -9.2489524e-03
 -1.3535346e-01
  1.1661380e-01
 -8.9568600e-02
  5.5955283e-02
  3.5216536e-02
  1.7868175e-01
 -4.3509334e-02
 -2.0817326e-02
  1.6387306e-01
  8.6222403e-02
  1.6200002e-02
 -8.2272567e-02
  1.1605530e+00
 -1.0146708e+00
  1.1632253e-01
 -2.3317287e-02
 -1.4371107e+00
  2.7179322e-01
 -2.7103657e-01
 -2.7446944e-02
  2.9055786e-01
 -9.7796638e-03
  3.0508363e+00
  6.2104665e-02
  8.2359970e-02
 -6.8207063e-02
 -1.1457023e-01
 -1.7528340e-01
 -1.6054530e-02
  1.2189997e-02
 -8.2915708e-02
 -4.2652849e-02
 -1.9559395e-01
  7.0356160e-02
  1.4022200e-01
  3.8980018e-02
  1.8082464e-01
  3.6072731e-02
 -3.9185651e-02
  1.1268731e-02
 -6.4496174e-02
 -2.7798641e-01
 -2.3812135e-03
 -7.4552253e-02
 -1.3347030e-01
 -4.7905803e-02
 -4.1047659e-02
 -1.3631220e-01
 -2.8285924e-02
 -2.6708889e-01
  2.9946811e+00
 -1.3411995e-02
  5.4426067e-02
 -9.9005617e-02
 -2.5777539e-02
  2.2581400e-01
 -2.1168785e-01
  1.7868813e-02
  2.0608623e-02
 -2.0886117e-01
  7.8031614e-02
 -3.6449766e-01
 -1.2455323e+00
 -3.2924950e-02
  4.4369627e-02
 -6.3438877e-02
  1.4619568e-02
  1.7448387e-01
  8.2777858e-02
  3.2502773e-01
 -6.8328357e-03
  4.6951950e-02
 -9.9801797e-01
  1.3325405e-03
 -8.6297229e-02
 -1.3674320e-01
 -1.0732550e-01
 -1.3703091e-02
 -1.7661020e-02
  1.1329222e-01
  3.0936949e-02
 -1.4088525e-01
  2.2455676e+00
  1.4724237e-02
  5.0181448e-01
  1.1340824e-01
  4.3162219e-02
  3.0728626e-01
  2.8956959e-02
  1.6427024e-01
  6.3014249e-03
 -1.7366180e-02
 -4.9238514e-02
 -7.9484567e-02
  1.3965751e-01
 -1.6962839e-02
  4.7322407e-02
  4.4926196e-02
  3.4453552e-02
  1.7441893e-02
 -5.7918340e-02
 -2.6854640e-02
 -4.7511041e-02
 -7.7909775e-02
 -2.2013198e-01
 -8.3899520e-02
 -1.3053046e-02
 -1.1920694e-01
  4.7414728e-02
  2.4943514e-02
 -8.8333134e-03
 -7.5703301e-02
 -8.9624316e-02
  1.2773184e-01
  3.5245519e-02
  2.4711962e-01
  1.2233991e-01
  6.2736936e-02
 -6.0079236e-02
  3.4046140e-03
  5.1191568e-01
 -2.1048501e-02
  2.7146176e-02
 -4.9409755e-02
  2.3447295e-01
 -2.0798227e-02
  9.1972262e-02
  8.0152713e-02
 -2.8337158e-02
  4.4658124e-03
  3.4399965e-01
 -5.5384763e-02
  7.0265673e-02
  4.8184738e-02
 -9.4845854e-03
 -1.8061183e-01
  3.9463084e-02
  3.1770658e-01
  2.5350083e-02
  1.1973805e-01
  6.3138783e-02
 -1.0655908e-01
 -1.3232429e-01
 -9.2465736e-02
  1.0636179e-01
 -6.6511922e-02
  1.9170402e-01
  5.8666291e-03
  9.4914017e-03
  1.2750879e-01
  2.1303445e-01
 -5.9373911e-02
  4.3079287e-02
 -4.6294648e-02
 -4.9119592e-02
 -3.8796954e-02
  1.2000640e-01
 -2.9860368e-02
  9.7553201e-02
  9.0930685e-02
  5.2160926e-02
 -3.4602132e-01
 -2.4358432e-01
  1.8746704e-01
  1.8283990e-01
  1.1086324e-02
  6.6359133e-02
  1.2527354e-03
  8.9958794e-02
  4.4316784e-02
 -9.7627334e-02
  1.0936871e-02
 -3.0744942e-02
  1.5203937e-02
  6.3614346e-02
 -4.5217578e-03
 -1.1315740e-01
  1.9834907e-01
 -1.3810213e+00
 -3.8682526e-01
  1.2302186e+00
 -3.1571207e+00
  7.7870473e-02
  2.8228958e+00
 -1.2448962e+00
 -8.3992131e-02
  6.9415390e-01
 -3.1046100e+00
 -1.8823612e-01
  3.1490595e+00
 -4.5671221e-03
 -1.0383380e-02
 -7.4548572e-02
  1.8008923e-02
 -2.9745709e-02
 -2.0828117e-01
  6.0421479e-01
 -6.7591645e-02
  1.6533598e+00
 -1.2478460e-01
 -1.3047500e-01
  1.7682587e-01
 -1.3998438e-01
 -1.4837339e-02
 -2.4926059e-01
  2.5951548e-02
 -7.8494512e-03
  6.8300939e-01
  5.2472647e-02
 -1.2924148e+00
  3.8258263e-01
 -1.6796926e+00
 -7.5302504e-02
 -1.5366161e+00
  1.0370930e-01
  5.8103960e-02
  1.5194736e+00
 -1.9740655e-01
  8.6839430e-02
  1.9348583e-01
 -1.7403182e-02
 -1.4074391e-01
 -1.0880403e-02
 -1.2334006e-01
 -2.9750794e-01
  2.0373015e-01
 -1.7099442e-02
  7.6178320e-02
  1.5682520e-01
 -1.5914179e-02
 -1.0805658e-01
 -2.2137777e-03
  1.2128082e-01
  1.2714993e-02
  2.0814827e-02
 -8.2153544e-02
 -1.5449862e-01
  1.3114773e-02
  2.5764364e-01
  6.5441161e-01
 -2.8109483e-02
 -1.1297754e-01
  2.6077695e-02
  1.9078717e-01
  2.1017183e-01
 -7.4350819e-02
  1.7434523e-02
 -2.6034705e-02
  2.1849754e-03
 -1.5859846e+00
 -1.4849234e-01
  6.9373824e-02
  1.5184050e-02
 -1.0294706e-01
  2.4195401e-01
  3.3516895e-02
  1.0081205e+00
  2.6935460e-02
  8.4823288e-02
  8.1500582e-02
  2.9373569e-02
 -3.1470996e-01
  4.3345492e-02
 -7.3734961e-02
 -1.6381936e-02
  7.4895799e-01
  2.5904867e-01
  7.0313420e-03
 -1.2518327e-01
  2.9619515e-01
  3.0037379e+00
  1.8855475e-02
  8.5380405e-02
  3.2921663e-01
 -1.5504851e+00
  1.4048158e-01
  1.5322234e-01
 -1.5937061e+00
 -2.1118102e+00
 -7.2327028e-03
 -1.8926626e-02
 -1.7814592e-01
  1.1186480e-01
  3.3105228e-02
 -2.9983725e-03
  7.7510297e-01
  5.5795304e-02
 -1.5971391e-01
 -4.7702335e-02
 -2.8084657e-01
  1.4891520e-01
  4.5719224e-01
  2.6433992e-01
 -1.3007724e-01
 -5.2911431e-02
 -7.6685152e-03
  9.9580812e-01
  2.5365290e-01
  8.4374264e-02
 -6.5695561e-02
  7.4322321e-02
 -1.3518766e-02
 -4.9792919e-03
 -1.4751670e-01
  1.2976907e-01
 -3.7062123e-02
  1.5100157e-01
 -9.6087687e-02
  3.4414693e-03
 -8.8326529e-02
  2.1838059e+00
  1.2588021e-01
  8.5667446e-02
 -1.0578793e+00
  2.4417961e-01
  2.1388373e-01
  1.4135167e-01
  4.0325136e-03
  1.9699426e-02
  2.1573043e-01
 -1.6961168e-02
  1.9259803e-02
 -3.1691557e-01
 -1.5789919e-01
  3.0214081e-03
 -1.0199334e-01
 -6.2044011e-03
 -1.3657121e-01
  4.4861510e-02
  8.7507768e-03
  1.7902555e-02
  3.8544707e-02
 -8.0682673e-02
  8.0428272e-02
  2.0879082e-01
 -1.4075741e-01
  9.5566340e-02
 -1.0588866e-01
  1.5717018e-02
  1.5078558e-01
 -9.0827197e-03
 -1.8700007e-01
 -8.2882747e-02
 -4.1701131e-02
 -9.5132850e-02
  3.4165757e-03
 -5.6770259e-01
 -6.2017626e-01
 -4.6137661e-02
  1.2478739e-02
 -1.6773991e-01
  6.2157601e-02
 -2.0834735e-01
  7.2790109e-02
 -1.6707362e+00
 -6.1207408e-01
 -1.1639291e-01
 -1.0327001e-01
 -7.4822754e-01
  2.7506894e-01
 -3.1159377e-01
 -6.4569438e-01
 -1.0526742e+00
 -1.2161925e-02
  1.1683077e+00
 -1.2477764e+00
 -3.4797393e-02
 -5.8498085e-02
 -1.3643323e-01
  4.4346297e-01
 -2.0098300e-01
  2.4789622e-01
 -1.2371416e-01
 -7.0356205e-02
 -8.2991540e-02
  4.7893026e-01
 -7.9121500e-02
 -9.2086792e-02
 -1.1719844e-01
 -5.2100736e-01
  5.4940432e-01
 -1.6154611e-02
  2.8412106e+00
 -1.2523349e-01
 -4.1095991e-02
 -1.2457062e-01
 -3.7854366e-02
 -6.6671468e-02
 -3.1436753e-01
 -7.9447910e-02
  4.5193344e-01
  8.9159533e-02
  4.8596036e-01
  2.9194458e+00
  4.0599871e-03
  2.9683161e-01
  1.1028211e+00
  2.2436485e-01
  1.7188554e-01
  3.0761840e-02
 -3.0368870e-01
  3.0995485e-01
  5.2925721e-02
  2.5028348e-01
  8.1575625e-02
 -2.0439237e-01
 -4.6939958e-02
 -2.4853308e-01
  3.7003419e-01
 -5.1819628e-01
 -3.5961008e-01
  3.5503417e-01
 -4.9741843e-01
  7.9184540e-02
 -1.1454460e-01
  3.8234696e-01
  1.3589461e+00
  1.0875845e-01
 -7.2516382e-02
  2.8953514e-06
 -9.9303015e-02
 -4.9337405e-01
 -6.0644984e-02
 -1.6256981e-02
  7.4975416e-02
  8.3180822e-02
  1.4128587e-01
 -1.9270839e-02
  1.4552590e-01
 -1.0240842e-01
 -3.9744340e-03
 -3.5407115e-02
 -1.3692741e-01
  1.4697172e-01
  2.2660917e-01
 -1.0548769e-02
 -1.0756817e-01
 -1.0583214e-01
 -4.3640387e-01
  4.5410007e-02
  5.5335265e-01
 -2.5098162e-02
  3.4554202e-02
  1.0328784e+00
  2.7820406e-02
  1.3533749e-01
 -3.0761236e-01
 -9.2779696e-02
 -8.9986205e-02
  9.8889448e-02
 -2.1460357e+00
  7.7924199e-02
  1.9954054e-03
 -3.9059151e-02
 -5.9007447e-02
  1.1406804e+00
  1.4745374e+00
 -2.4299720e-02
  3.8539261e-02
 -1.4591613e+00
  7.7052124e-02
 -5.2907757e-02
  3.9478958e-01
 -2.1133299e+00
 -6.0873114e-02
  1.0515364e-01
 -1.5306751e-01
 -4.2501670e-01
 -3.4066975e-02
 -4.5490843e-01
  6.4485036e-02
  1.8068415e-01
  3.5819910e-03
 -9.6286824e-03
 -9.1678935e-01
  5.2273422e-01
 -3.8722301e-01
  7.5191185e-02
 -6.0042626e-01
  2.9957399e-01
 -2.0348161e-01
 -4.2465732e-02
  2.8790692e-02
 -1.2366542e-02
  1.1920215e-01
 -9.9998899e-02
 -7.8698665e-02
 -2.8770322e-02
  2.1582699e-01
  4.9617200e-04
 -7.2018623e-01
 -5.8164507e-01
  2.5255503e-02
 -8.5932769e-02
 -1.0778998e-01
  3.4829237e-02
 -1.5493529e+00
  1.6172810e-01
  8.2273588e-02
 -3.8724720e-02
  1.0261679e-01
  1.5682851e+00
 -9.5990700e-01
  4.8371938e-01
  1.2253338e+00
  5.3991091e-01
  1.3822003e-01
 -1.0852981e+00
  1.2831493e-01
 -2.1907780e-01
 -6.7299390e-01
 -4.8996001e-01
  1.3223339e+00
  6.2937498e-01
  5.5819851e-01
 -3.6166024e-01
 -3.2021798e-02
  1.0732941e-01
  1.3232910e-02
  1.7557498e-02
 -2.8247061e-01
  1.8278257e+00
  1.1803721e-01
  2.7018777e-01
  3.0270433e-01
  1.3138243e+00
 -1.0096419e+00
  1.5826666e+00
  8.1470728e-01
  3.1449880e-02
  2.1196830e+00
 -6.5165478e-01
  4.1573281e+00
 -7.6392792e-02
  8.5591286e-01
  1.9980025e-01
 -6.2577385e-01
 -1.1795765e-01
  4.1598350e-01
  6.1901909e-01
 -1.1833110e+00
  4.9482507e-01
  6.5200776e-01
 -3.0364734e-03
  1.2851746e-01
 -5.0044262e-01
  8.7957144e-01
  9.0828347e-01
  1.3545405e+00
 -1.2116769e-01
  1.8742245e-01
  8.4719092e-02
  6.0257960e-02
 -2.5750728e-02
  1.5124946e+00
 -4.4846913e-01
  2.9475482e-02
 -1.3879018e-03
 -5.7668215e-01
 -4.9199771e-02
  1.3719054e-01
 -7.0204295e-02
 -2.0273760e-01
 -6.6350482e-02
 -1.2180216e-02
  8.2957201e-02
  7.2962269e-02
  2.1210118e-01
 -1.7700903e-01
 -5.2332628e-04
 -2.1119541e-01
  2.8713741e+00
  7.1421582e-03
  5.4573443e-02
 -2.5746824e-02
 -2.5627595e-01
  4.4728845e-02
 -1.0316251e-01
 -1.2171965e-01
 -5.8571702e-01
  1.2911374e-02
 -1.8409021e+00
 -4.0867907e-01
  6.3969529e-01
 -5.7127535e-02
  3.1564631e-02
 -1.0699305e-01
  3.0216677e-03
  6.8616313e-01
  1.0781684e-01
  9.7163528e-02
 -1.2737368e-01
  3.2756418e-01
  7.7735849e-02
  2.5160845e-02
 -1.6358953e-02
  2.4385513e-01
 -2.6499119e-02
  5.8520589e-02
  6.6165149e-02
 -1.1405507e-01
 -1.5281403e-01
  6.0695487e-01
 -7.0666558e-01
  6.1121367e-02
  1.1142161e-02
  1.9904617e-03
  8.6652473e-02
 -4.5212653e-02
 -4.6118114e-02
  4.5662459e-02
 -1.7220558e-01
  4.8735566e-02
  6.0089100e-02
 -5.0552130e-01
 -3.3822253e-02
  1.7420224e+00
  2.6659450e-01
 -1.2587292e+00
 -4.0914020e-01
 -1.0393965e+00
 -2.1303575e-01
  5.1666653e-01
 -4.6760941e-01
 -1.9145346e-01
 -1.1579558e-01
 -1.4535824e+00
 -4.2224008e-01
  8.6577135e-01
  1.5330361e+00
 -6.8327606e-01
 -1.1954398e-01
 -1.2835161e-01
  1.5270952e+00
 -1.2469897e-01
  1.3746009e+00
 -2.1187802e-01
 -4.2282104e-02
 -1.9686803e-02
 -5.3341913e-01
 -1.4013435e+00
 -9.8831490e-02
  3.5314694e-01
 -5.3265738e-01
 -2.4728575e-01
 -1.3701780e-01
 -1.2245117e+00
 -6.1520010e-01
  1.5029201e-01
  3.1138951e-01
  4.3869817e-01
  1.6413878e+00
  1.4708441e-01
  8.3725393e-01
 -3.3752897e-01
  5.3826380e-01
 -4.1472328e-01
 -1.6378452e+00
  7.4235517e-01
 -5.1384591e-02
  1.5329300e+00
  1.8321502e-01
  1.1939409e-01
 -5.7024889e-02
  1.1703156e+00
 -4.3898654e-01
 -2.6651296e-01
 -4.3258551e-01
  4.7772381e-02
  1.4386979e-01
  2.1897286e-01
  1.1934733e+00
 -1.0258001e+00
 -6.2497258e-01
 -1.6462315e+00
  2.9118696e-01
  3.9637959e-01
  3.3447180e-02
  6.6617185e-01
  1.8737920e-01
 -6.3831109e-01
 -1.4478379e-01
 -6.7295700e-01
 -2.0632288e+00
 -2.8437755e-01
 -2.9915041e-01
  5.1696914e-01
 -1.9106156e-01
 -2.1199219e-01
 -3.4925503e-01
  1.9621987e-02
 -5.5058401e-02
 -1.3380092e+00
  5.1663947e-01
 -1.6505615e+00
  2.1774413e-02
 -2.6995537e-01
 -3.3425361e-02
  3.3296391e-01
 -7.4813373e-02
  8.4305471e-01
  4.2505719e-02
 -3.1015638e-01
 -7.3948616e-01
 -1.1582745e-01
 -2.8492686e-01
 -2.3080656e-01
  5.7938956e-02
  3.7473750e-01
  9.4269767e-02
 -3.3872864e-01
  4.1086242e-02
 -8.5159414e-02
 -2.7434811e-01
  1.0698100e+00
  1.2777327e-01
  5.3648788e-01
  1.4236856e+00
 -7.3676474e-02
  1.4037931e-01
  4.0894911e-01
  1.6713250e-01
 -1.8467400e-02
  4.7429302e-01
 -5.0989389e-02
 -4.3507122e-02
 -9.5782745e-01
  5.8874923e-01
 -2.2908027e+00
  3.1965587e-01
 -6.0714847e-01
 -5.2089763e-01
  3.6669314e-01
 -9.3210578e-01
  1.1842133e+00
 -2.0931473e+00
  1.2493087e+00
 -2.1728511e-01
 -4.5081916e-01
 -7.7645934e-01
 -3.5440871e-01
 -1.8883078e-01
  3.3043617e-01
 -5.0934773e-02
  4.6989274e-01
  5.9405509e-02
  2.6129175e-02
  3.4550119e-02
  1.8490580e-01
  7.7431059e-01
  3.2699153e-02
 -6.8067968e-02
 -5.3324890e-01
 -1.8057291e-01
  1.6383062e-01
  3.5173136e-01
 -1.0469139e+00
 -9.9728830e-02
 -2.5596869e-01
  2.1268375e-01
  3.3425480e-01
  2.0313686e-01
  1.6270077e-01
 -4.4141632e-01
 -3.8556507e-01
 -7.5378913e-01
  1.8491082e-01
  1.0869356e+00
  5.3092450e-01
 -2.1168187e-02
 -3.9665255e-01
 -1.3576579e-01
 -1.6707535e-01
  1.8344006e-01
 -1.1696225e-03
  2.0019438e-02
  3.0409777e-01
 -4.5152064e-02
 -2.3940450e-02
  2.2723507e-02
  1.3713148e-01
  6.9804972e-01
  5.0756916e-02
  1.4478849e+00
  5.4224007e-02
 -3.4163404e-01
 -7.5267799e-02
  2.9136106e-02
 -5.9476268e-02
 -1.2831585e-02
  1.0549039e-01
 -1.9434700e+00
 -3.8859981e-01
 -7.2208345e-01
 -6.1309948e-03
  2.9461956e-01
 -8.5814327e-02
 -1.1966298e-01
  9.0609059e-02
  2.2727242e-01
 -2.4807552e-01
  3.2106835e-02
  3.6850590e-01
 -2.9745208e-02
 -1.7918421e-01
 -1.7775932e-02
 -4.6544921e-02
 -3.9469514e-02
  1.0820116e+00
  1.0328863e+00
 -7.7878102e-04
 -1.7963191e-03
  9.7825434e-03
  1.1661409e-01
 -2.1504268e-01
  8.8370228e-03
  5.5053432e-02
 -5.1434740e-02
  9.6773840e-02
  2.5394363e-02
  2.7628573e-02
 -9.5495313e-02
  1.3586929e+00
 -5.0240751e-02
 -7.4250549e-03
  7.4930079e-02
  1.8855274e-02
 -9.1376446e-02
  1.1571196e-01
  5.7027988e-02
  1.3975739e-02
 -1.1909406e-01
 -3.2245478e-01
 -1.8382587e-01
  1.4097357e-02
 -9.1334782e-04
  2.3830506e-01
  1.9306377e-02
 -2.2332713e-01
 -2.2069976e-02
 -7.9798311e-01
 -8.2064432e-01
 -1.4877344e+00
 -1.2050886e-01
  3.8925114e-01
 -1.2568897e-01
 -3.1034300e-01
  9.7587243e-02
 -7.2413154e-02
  2.1782455e-01
  7.6104872e-02
  1.0585818e-01
  4.0254690e-02
  8.1697591e-02
  1.2458649e-01
 -8.5886214e-03
  6.8542182e-01
  3.9609183e-02
 -6.0106903e-02
 -2.7478591e-01
 -4.7632086e-01
 -5.3173408e-02
 -8.3437059e-03
 -5.5002484e-02
 -1.2907219e-01
 -2.1210581e-02
 -2.2656448e-02
  1.0908186e-01
 -2.1353860e+00
 -2.2122256e-01
 -2.0936960e-02
  6.6736825e-03
  1.6027232e-01
  1.6150028e-01
  1.9056836e-01
  1.5410620e-01
  1.0730731e-02
  8.0377400e-02
  5.9394449e-02
  3.6197037e-02
  6.3809723e-01
  2.3758793e-02
 -1.7341338e-01
  1.8364666e-02
 -5.6442551e-02
  3.2276746e-02
  2.7410223e-03
  4.7390404e-01
  4.8162597e-01
 -1.7098109e+00
  3.1826783e-02
  2.6724133e-01
  5.9866179e-02
 -2.1814782e-02
 -2.3379776e-01
 -1.9333078e-01
  4.0603965e-03
  9.6208435e-03
  4.8119155e-01
 -1.1079791e-01
 -9.5690227e-01
  2.5457469e-01
  3.8265072e-02
 -6.0219634e-01
  1.1175048e-01
 -1.7451468e-01
  3.1741399e-02
  4.3879312e-01
 -1.4632829e-01
 -5.4875684e-01
 -1.7022938e-02
  7.4250907e-02
  5.1754113e-02
  3.2134205e-02
  1.2498590e-01
 -1.4030406e-01
  1.6771834e-01
 -4.8956665e-01
 -3.0123848e-01
  4.1535240e-01
  7.4594814e-01
  2.4094830e-01
 -1.4233252e+00
 -1.2493559e+00
 -1.8309111e-02
 -2.6899099e-01
  1.1763273e+00
 -2.1745488e-01
 -8.0206737e-02
 -3.5386553e-01
 -5.1973123e-02
  8.5729353e-02
  4.8833103e-03
 -7.2478458e-02
 -4.5939133e-02
 -1.7498642e-01
 -2.6317918e-01
 -4.8403686e-01
 -9.4329171e-02
 -1.2026971e-01
  1.4935172e-01
 -8.4436154e-03
  1.0336915e-01
 -1.8539319e-02
  1.1919746e-01
  7.8007951e-02
  7.3006883e-02
  7.2068185e-01
 -1.4245998e-02
 -2.5681648e-01
  2.6448762e-01
  6.5531141e-01
  6.4895414e-02
  1.6953632e-01
 -7.1315980e-01
  7.8571931e-02
  6.6027331e-01
 -1.0166069e+00
  4.6783510e-01
  2.5570214e-01
  2.3211448e-01
  3.2932678e-01
 -1.6201161e-02
  1.8676524e-01
  6.7443192e-01
  1.8702894e-02
 -3.1878553e-02
 -1.2483470e-01
 -5.0091304e-02
  7.8982407e-01
 -1.3610893e-01
 -1.9718058e-01
 -4.9347875e-01
  4.2901611e-01
 -3.5755870e-01
  8.2012767e-01
 -6.5106422e-02
 -2.3643402e-02
 -1.7379622e-01
 -8.7941736e-02
 -1.2374511e+00
 -5.7260299e-01
  1.1638578e-01
  1.6203868e-01
  9.8622853e-01
 -1.2820990e+00
 -2.8744003e-01
  2.2144131e-01
  3.9293818e-02
  6.9254473e-02
  2.8455523e-01
  8.0054194e-01
 -4.3706350e-02
 -3.1593776e-01
  3.0878291e-01
 -3.8468104e-02
  2.3426339e-02
  3.3940199e-01
  4.0221147e-02
 -2.9338766e-02
 -3.4200963e-02
  1.2397318e-01
 -1.0551225e+00
  7.9885638e-01
 -7.7360841e-03
  2.9690149e-01
  7.6090507e-02
 -1.5487799e-02
 -1.0685607e+00
 -1.5808657e-01
  4.0265799e-02
 -1.3280972e+00
  1.2742381e+00
  2.7343374e-01
 -3.6012523e-02
 -8.9091517e-02
 -6.7201041e-02
  1.4289078e-01
  3.2965767e-01
 -7.6026591e-03
  9.2527702e-02
 -5.2336130e-02
  3.5526551e-02
 -1.6406861e-01
  2.2560312e-01
  2.2168732e-01
  1.6697788e-01
 -4.9638063e-02
  6.4535804e-02
 -2.1922417e-01
 -6.9374934e-02
  6.7002803e-02
  9.2562012e-02
  4.5131630e-01
 -7.8857012e-02
  2.7443096e-01
  4.7063485e-01
 -9.4199523e-02
 -6.0342159e-02
 -7.7451251e-02
 -9.5574772e-03
 -1.6183941e-01
 -3.0814724e-02
 -1.6720321e-02
 -2.9071851e-02
  5.4524187e-02
 -1.6288642e+00
 -8.6309209e-02
  3.7818551e-01
  1.2263567e-01
  1.7165912e+00
  2.8416345e-01
 -1.7373651e-02
  1.2295204e-01
  3.5435422e-03
  1.8147063e-01
  4.7003772e-02
 -1.5495194e-01
  1.2821631e-01
 -1.7563889e+00
  2.4645208e-01
 -5.0413325e-02
 -5.5549324e-01
  1.3789298e-01
 -5.4570094e-02
 -1.0682254e+00
 -6.4098930e-01
  9.0592586e-02
 -1.6991463e-01
  8.6946213e-01
  2.4528807e-01
 -2.6795760e-02
  1.9305958e-01
 -3.4894520e-01
  7.8305739e-01
 -1.8732294e-01
 -9.9257372e-02
 -2.2318114e-01
  6.8043508e-02
  4.3003228e-01
 -4.6163198e-02
 -5.0803053e-01
  5.5261588e-01
  9.6015942e-01
 -2.5303638e-01
 -7.3448694e-01
 -1.0027444e-01
 -8.7359738e-01
  1.9786328e-01
  1.9941150e-01
  4.0923676e-01
 -3.3792928e-02
 -1.3057961e-01
 -2.0210089e-01
 -2.9571731e-02
  4.5903584e-01
 -2.0093387e-01
  1.8058232e+00
 -3.8287801e-01
  5.4630596e-02
 -1.3218594e-01
 -6.4299785e-02
 -4.5296978e-02
  1.8996151e-01
 -1.2458813e-01
  3.3063534e-01
  3.5502949e-01
  1.1546295e+00
  5.1872451e-02
 -1.0403208e+00
 -8.9178407e-01
  8.9584209e-02
  2.9168278e-01
 -4.4624522e-02
  2.2609955e-02
  1.7746991e-02
  5.6434309e-01
  2.0080109e-01
  3.4862161e-03
 -3.2906092e-03
  1.1992595e-01
 -1.0482530e-01
 -1.2579626e-01
 -6.8353288e-02
  1.0244499e-01
  1.6898025e-02
 -3.0209551e-02
 -6.4761959e-02
  3.7575725e-02
 -1.6520059e-01
 -1.2245394e-01
  1.6210386e-01
  1.1623893e-01
 -2.1076418e-01
  2.9085189e-01
  2.7825568e-02
  3.5546201e-01
  2.7625542e-02
 -1.3104434e-01
  3.4894928e-02
 -2.8736937e-01
 -1.7319692e-02
  2.2004591e-01
 -1.8343188e-02
 -1.2804104e-01
  5.1156085e-02
 -1.2715149e-01
  9.3940765e-02
 -1.2626763e-01
  2.6226997e-02
 -3.1067893e-01
  1.8594737e-01
  2.4426946e-02
  9.6543126e-02
  9.1225291e-03
 -7.0342142e-04
  8.6053461e-02
 -2.4271056e-03
  4.6125051e-02
  6.8321310e-02
 -2.1250495e-01
 -3.0963399e-02
 -4.1098702e-03
 -2.0204321e-01
  1.2565194e-01
  6.1501704e-02
  2.7313285e-02
 -6.7512088e-02
 -7.2098829e-02
  1.9223498e-02
  2.8862817e-02
 -1.4314148e-01
  3.5829883e-02
 -1.1256316e-01
 -1.6045275e+00
 -1.2901054e-01
  2.8221762e-01
 -3.1437287e-01
 -2.1263169e-01
  1.5805942e-01
 -1.8600984e-01
  2.8389248e-01
  1.2896499e-02
 -6.9732577e-01
 -4.2209603e-02
 -2.7312366e-02
 -1.2731255e-02
  1.0540765e-01
 -3.0077988e-01
  4.3587856e-02
  2.8986272e-01
  3.7684149e-01
 -4.8367850e-02
  2.8065172e-01
  5.5204058e-01
  8.7394692e-02
  2.0457067e-01
  3.7134105e-01
 -2.4015787e-01
  1.9033471e-02
 -1.2236246e-01
 -2.7491811e-01
 -3.2513282e-01
  9.1302827e-02
 -8.1791274e-02
 -2.1634129e-01
 -5.4583079e-01
 -1.9625185e-01
 -1.0329960e-02
 -3.0853929e-02
  2.3158178e+00
  4.3605173e-01
 -1.3851982e+00
  1.7197998e-01
  5.0570755e-03
 -4.1473773e-01
  2.4304237e-02
 -2.3214054e-01
 -2.6384981e+00
 -8.1430316e-01
 -3.6743274e-01
  2.9479943e-02
  1.0345247e+00
  3.3556120e-03
  1.1673284e-01
 -1.3427484e-01
 -1.3534813e-02
  2.6851509e-02
 -1.1306445e-02
 -2.5775339e-02
 -2.3916928e-01
  2.4284624e-01
 -1.0025337e-01
  3.2357056e-02
 -5.8216155e-03
  1.9813152e-02
  1.5136862e-01
 -2.5543731e-01
 -7.6840315e-03
 -5.2431232e-01
 -1.0574004e-01
 -3.1291700e-03
 -3.9855540e-02
  8.9061998e-02
  7.8854039e-02
  3.1370157e-01
 -4.8153121e-02
  1.0824219e-01
  4.3379623e-02
  2.0867431e-01
 -1.3530327e-02
  7.6177083e-02
  6.9869518e-02
 -7.5282648e-02
 -7.2724037e-02
 -1.0811021e-01
 -1.1441182e-01
  2.1733444e-02
 -6.0618926e-02
  6.5347264e-03
  2.6625996e+00
 -4.4492083e+00
 -1.4812827e-01
 -2.5091577e+00
 -2.0112510e-01
 -2.2976813e+00
 -4.9024988e-02
  1.7835982e-02
 -8.0150299e-02
  1.6567605e-02
 -9.2795126e-02
 -2.8219730e-01
  8.2530789e-02
  1.3663410e-02
 -1.1645333e-01
 -4.4310212e-02
  4.0558659e-02
  8.1722043e-02
 -1.8340532e-02
  2.1092503e-03
 -2.2410376e-02
 -4.1068763e-02
  2.9795447e-02
  3.7630759e-02
  2.6602464e-02
  1.3200615e-01
  9.7609085e-01
  6.7900285e-02
  1.9717778e-01
  1.8922040e-02
 -2.5481828e-03
  3.8652536e-02
  3.0377213e-02
 -1.8296294e-01
  1.2654341e-02
  1.6140050e-01
 -6.0861267e-02
  1.3857769e-02
 -8.0300182e-02
 -2.0662732e-02
  5.3769633e-02
 -3.0640006e-01
 -1.2680531e-01
 -1.4688889e-02
  8.9931697e-01
  3.7771948e-02
  3.6892254e-02
 -4.5877390e-02
 -3.5771573e-01
 -3.6387675e-02
 -4.1042683e-01
 -1.5066840e-01
  1.1812783e-02
  3.0132231e-01
 -2.4602629e-02
  1.3679177e-01
  1.7236426e-01
  1.5673056e-02
  4.1763227e-02
 -6.0772996e-02
 -3.5223514e-02
  2.0246852e-02
  2.6336868e-04
  8.1338301e-02
  1.7838092e-01
 -3.5042439e-02
  1.3621886e-01
 -5.8966190e-02
 -7.5665370e-02
  1.3466519e+00
 -1.2471938e-01
  7.3087670e-02
  2.6172583e+00
 -2.1510845e-01
  2.9592775e-02
  1.4193867e-02
  8.6687826e-02
 -8.6296853e-03
  6.6800281e-02
 -1.6050993e-01
  9.7516375e-03
  2.9718757e-02
 -1.6261123e-01
  3.8322452e-01
  3.6226337e+00
 -8.0136359e-01
  5.1822102e-01
 -1.8850775e+00
 -1.9797745e-01
  2.9167098e-01
 -9.2368078e-01
  6.4373434e-01
  1.1283615e+00
  1.3714163e+00
 -8.9507657e-01
  3.4388208e-01
  3.4117708e-01
  8.5062516e-01
  1.3688200e+00
  2.1511846e+00
  1.2116170e-01
  2.6897249e-01
 -2.3847506e+00
  6.4533693e-03
 -2.0275724e+00
 -1.1387589e+00
 -3.0455193e-01
  1.1031292e-01
 -6.7758210e-02
  2.0398296e-01
 -2.1883016e+00
 -4.8547950e-01
 -1.1720288e+00
  7.4009639e-03
  6.6095906e-01
 -1.1415087e+00
 -5.2312005e-01
  8.7040430e-01
 -2.2912171e-02
 -1.3183776e+00
 -1.1845835e+00
  6.3220131e-01
 -2.4546754e+00
  7.1348155e-01
 -1.9498806e-01
  6.3865978e-01
 -2.0926044e+00
 -2.5801593e-01
 -2.0478776e-01
 -1.8281657e-02
 -1.0513328e-01
  8.2236648e-01
 -1.5170362e+00
 -8.9719683e-02
  7.0627606e-01
 -2.7094724e-02
 -9.4937593e-02
 -1.2317298e-01
 -6.8534362e-01
  7.6902002e-01
  1.7290216e-02
 -4.0660721e-01
 -5.8065605e-01
  9.9572614e-02
  4.5144024e-01
 -1.5237310e+00
  1.0388963e+00
 -3.5501599e-01
  2.8748518e-02
  7.3789281e-01
 -2.9401584e+00
 -1.6320296e-01
  1.1624438e+00
 -2.2375277e-01
  9.7750479e-01
  1.1227611e+00
  4.3285233e-01
 -1.3509504e-02
  1.1520126e+00
 -1.6738036e-01
 -1.1694858e+00
  6.1372972e-01
  2.2885519e-01
  6.3214320e-01
  8.4321398e-01
 -3.3745018e-01
 -9.9517353e-02
  1.9524076e+00
  3.2996118e-02
 -4.3855542e-03
 -3.9978106e-02
 -5.0380510e-01
 -1.1612520e+00
 -2.0722283e-01
 -9.4710308e-01
  1.5197122e-01
  2.2342265e-01
  7.8209251e-01
  7.6446548e-02
 -3.3490765e-01
 -1.0076246e-01
 -2.3273183e-01
  6.0038811e-01
 -1.4314396e+00
  4.9014762e-02
  4.9874008e-01
  2.4910514e-01
 -8.4847248e-01
  9.7976886e-02
  2.2223045e-01
  1.9445935e-01
  7.9955727e-02
  3.5486005e-02
  7.5223142e-01
 -5.3292483e-01
 -9.1385335e-01
  4.5093903e-01
  1.2439358e-02
 -1.8925033e+00
 -1.8481973e+00
 -7.1582831e-02
  2.5662104e-02
 -1.1329493e-01
 -4.0179378e-01
  9.2916851e+00
  2.2820017e-01
  3.5064363e+00
 -1.0470999e+00
  9.6126038e-01
 -4.1149598e-01
  8.9876813e-01
  1.2135236e+00
  3.3709460e-01
  1.1456738e-01
  1.4589083e+00
 -1.2666428e-02
  3.6250886e-01
  8.2335591e-01
  9.5705874e-02
  3.0733725e-01
  1.0452238e-01
  1.3113895e-01
  1.2537439e-01
 -1.1461784e-01
 -2.4407756e-01
  1.5840930e-01
  2.1751871e+00
 -9.6640848e-02
  2.1574010e-01
  4.6478122e-01
  4.0761167e-01
 -6.0087018e-02
  2.4959579e+00
  1.3524061e-01
 -1.1909844e-01
  1.1992089e+00
  1.2538522e-01
  5.4571215e-02
  3.5814929e-01
  3.6005843e-01
 -6.4218737e-02
  1.1384235e-01
 -5.6941473e-01
  9.0511322e-01
  2.1644151e-01
  4.0320072e-02
  2.0209852e-01
 -1.9877683e-01
 -2.0335102e+00
  8.0638498e-02
  5.6380853e-02
  3.2917503e-02
 -1.5455317e-01
  1.3926665e+00
 -4.9705607e-01
  4.8899686e-01
 -1.5530136e-01
  5.9212554e-01
 -4.4503462e-01
  8.4003967e-01
 -6.1519980e-01
 -2.5614500e-01
 -2.6190364e-01
  3.8938496e-01
 -1.4093399e+00
 -3.2297644e-01
  2.5334027e-01
 -4.5505837e-01
  7.2104520e-01
 -2.9374421e-01
  1.5284269e-01
  8.3129776e-01
 -5.6436062e-02
 -8.7431985e-01
  3.3640829e-01
 -7.2540212e-01
 -4.6461904e-01
 -3.6336410e-01
 -6.5059739e-01
 -1.1978910e+00
 -2.2389001e-01
 -3.1500742e-01
  1.0827506e-01
  6.4399409e-01
 -2.4715969e-01
  1.9186220e-01
 -2.6130235e-01
  1.2038833e-02
 -6.3610661e-01
 -3.5878424e-02
  5.1616234e-01
  3.5394931e-01
  1.8198504e-01
  1.2083197e-01
 -1.7494952e-02
 -1.9936484e-01
 -6.4622134e-02
  8.6739999e-01
  2.6169336e-01
  2.2631410e-01
  1.9446686e-01
 -5.5941202e-02
 -6.1373737e-02
 -1.7637581e-01
 -1.6759714e-02
  1.0985121e+00
  4.2112356e-01
 -9.1285294e-01
  1.4177399e+00
  1.7947899e-01
 -8.9531325e-02
  1.6637380e+00
 -5.0196284e-01
  3.5707481e-02
 -1.0256513e+00
  4.3898940e-01
 -1.2983252e+00
  1.0951464e+00
  1.0288753e-02
  4.8054653e-01
  9.0705371e-01
 -8.3369888e-02
 -1.3250205e-01
 -6.1232727e-02
  8.3782125e-01
  9.3615562e-01
  3.0590582e-01
  6.2046564e-01
 -2.3492441e-02
  5.2362729e-02
 -1.4276731e+00
  6.9905263e-01
 -3.7381831e-01
 -7.8461772e-01
  5.0437685e-02
 -6.6211027e-01
  1.2126942e-01
 -8.4116250e-01
 -1.3860630e+00
 -1.2492894e+00
  1.3000119e+00
  1.9515498e+00
  6.0121018e-01
 -7.2917038e-01
 -2.7478847e-01
  1.7340890e+00
 -7.3221725e-01
 -9.4403213e-01
 -1.6525946e+00
  3.0288836e-01
 -1.4530399e-01
  6.6983588e-02
  2.6832679e-03
  2.5113374e-01
  8.3062369e-01
 -3.1532651e-01
  9.5532572e-01
 -2.8054783e-02
  2.3989996e-01
 -6.7162916e-02
 -1.0793255e-01
 -3.1876367e-01
 -1.5732638e+00
  2.5694124e-02
  8.2951799e-02
 -9.2067711e-02
 -9.2302996e-01
  3.7600894e-02
  6.1427541e-03
  1.2977266e-01
  4.9326703e-01
 -3.2656646e-01
 -7.1710385e-02
  3.5953581e-01
  1.2161458e-02
  1.9205719e-01
  3.2383746e-01
  1.7378075e-01
 -1.3603160e-01
  1.0714430e-01
  6.6306099e-02
 -1.9175577e-01
  3.0023159e-02
 -9.5041789e-02
 -3.2690969e-01
 -2.0095880e-01
 -2.7921645e-02
 -1.6658615e-01
  7.1588762e-02
  5.2835258e-05
 -2.7499050e-01
  2.7099320e-01
 -8.1317008e-01
  1.5700674e-02
  3.9642841e-01
  4.4135031e-01
  1.5596557e-01
  4.3540975e-01
  2.9424008e-02
 -1.4268059e-02
 -6.3277327e-02
  1.2766460e-01
  1.7275822e-01
  9.0716360e-03
  7.8130972e-01
  5.1163709e-01
  2.4297726e-01
  4.5968434e-01
  7.0595497e-01
 -4.3513417e-02
 -1.7557209e+00
 -2.9107051e-02
 -1.0448920e+00
  8.6622119e-02
  5.8702864e-03
  2.2473416e+00
 -2.1360589e-02
 -7.4090451e-02
  1.3052672e-01
 -1.1491594e-01
  4.9561813e-02
  1.2174877e-01
  1.7412993e-01
 -2.2570801e-01
  1.6446325e-01
 -3.6195188e+00
 -3.6028791e-02
 -8.0460355e-02
 -4.2712089e-02
 -7.9812817e-02
 -8.0182746e-02
  2.4217227e-02
 -6.2101090e-01
 -1.0715088e-01
  7.7406935e-02
  4.4648223e-02
 -7.4655354e-02
  2.9791636e-02
  5.0558522e-02
 -4.6896856e-02
 -8.5291751e-02
 -4.0082619e-01
 -4.0054753e-01
 -7.3193252e-02
  8.4948428e-02
 -8.2850134e-01
 -1.2554160e-02
  3.1506352e-02
  5.6522846e-01
  4.9663384e-02
 -1.2309770e-01
  6.2440343e-02
 -8.9163944e-02
 -2.7161360e-02
 -4.7691755e-02
  1.7089557e-02
  4.7828560e-03
 -8.3738007e-02
 -5.0707836e-02
  3.7734190e-01
 -7.3995560e-02
  1.7343409e+00
 -1.1212465e-01
  1.7012297e-01
  1.4592468e-02
  1.1696132e-02
  2.1583413e-01
  1.8080587e+00
  9.2346705e-02
 -1.9076448e-02
  3.8149282e-02
  1.5041162e-01
  1.8537296e-01
  3.2425900e-03
 -7.7000427e-01
 -3.0392915e-01
 -8.2437405e-03
 -6.5564674e-01
  9.3798286e-01
  3.4987918e-01
 -4.2326808e-01
  1.3259811e+00
  4.0769167e+00
  1.0066670e-02
 -4.4437014e-02
 -2.6190797e-02
 -1.2523621e+00
  3.7327674e-01
 -1.1329155e-01
 -4.4529282e-02
 -3.1077629e-03
 -2.0357615e-01
 -2.6403178e-02
  1.5048939e-01
  1.3809423e-02
 -1.2882908e-01
  5.1171590e-02
  2.0169494e-01
  5.1260859e-01
 -7.5477108e-02
  8.3636242e-01
  3.2532576e-01
  6.1343297e-02
 -2.6091531e-01
 -7.7782452e-02
  5.3807463e-02
 -3.9206362e-01
 -5.6841094e-03
 -3.9500754e-02
  3.7658904e-02
 -2.1538852e-02
 -1.2015497e-01
  3.5356460e-03
  3.0452745e-02
 -7.3939383e-01
 -6.4860709e-02
 -7.9883792e-02
  3.3881530e-02
 -6.2726361e-01
 -2.2484873e-01
 -5.9353657e-02
  1.3838190e-01
 -1.6800886e-02
  2.7671739e-01
  1.0881493e-01
  4.0884338e-02
 -3.7004422e-02
  2.5017375e-02
 -4.3956680e+00
  8.1262689e-05
 -7.6425385e-01
  6.4755545e-04
  1.7958917e-01
 -3.2561398e-01
 -4.1894454e-01
 -2.4612229e-02
 -4.8867920e-01
  7.2833844e-02
  3.2883741e-02
 -7.7728806e-03
 -1.8234490e-01
 -8.1672966e-02
 -7.3620975e-02
  1.4666310e-01
 -7.7657655e-02
 -4.1853972e-02
 -1.9361897e-01
 -8.6135727e-01
 -3.1324785e-02
 -9.9563442e-02
  4.0292080e-02
 -1.8324545e-01
  1.3393082e-01
  1.1902505e-01
 -1.8515897e-01
 -1.0417398e-01
 -1.8545494e+00
  5.5918112e-02
 -3.1097345e-02
  8.5432464e-03
 -3.0937437e-02
  2.9247504e-01
  3.2069512e-02
  1.6783727e-02
  4.2897135e-02
 -8.3456878e-03
  5.7117503e-02
 -1.3966938e-02
  1.4067160e-01
 -3.5591394e-01
  2.7779723e-03
  1.0136713e-01
 -1.6977514e-01
  4.6436291e-02
 -2.6473517e-02
 -2.2045987e-02
  1.4633025e-01
 -2.2907464e-02
  6.9650643e-02
  2.1258485e-02
  3.5646848e-02
  1.5401360e-01
 -4.2633399e-02
  3.1185513e-02
 -6.1205532e-02
 -5.7596974e-02
 -1.6446457e+00
  1.1306410e-02
  1.9383745e-02
  2.3168661e-01
  2.7861032e-01
  5.2492846e-02
  2.3151474e+00
  2.2789212e-01
  5.1319320e-02
 -9.5554441e-02
  1.5727678e-01
 -3.6160335e-02
  1.4729303e+00
  2.0555715e-01
  4.4016708e-02
  2.5071040e-01
 -3.0751997e-01
 -2.1963055e+00
  7.5673029e-02
 -1.6422816e-01
  3.8479732e-03
 -3.1408090e-03
 -1.0070538e-01
  2.0966159e-01
 -6.9068465e-03
 -1.6851103e-02
 -5.7963856e-02
 -2.1890333e-02
  6.2396504e-02
 -1.8296505e-03
  1.8647231e-02
  6.3770927e-02
 -3.9399698e-02
 -4.8449442e-01
  4.3723334e-02
 -4.8053086e-02
  7.1653657e-02
 -2.2780917e+00
  3.4306163e-01
 -1.0800212e-01
 -2.6754701e-01
 -1.6538127e-01
  1.3376932e-02
 -4.3972459e-01
 -7.9052255e-02
 -3.6389229e-03
  8.4190652e-02
  1.1254952e-01
 -5.3482479e-03
  1.5020645e-01
  5.6727912e-02
  1.7575512e-02
 -6.1471589e-02
 -9.0616845e-02
  2.3410073e-01
  1.3891543e-01
  1.8312781e-01
  9.3969323e-02
  7.4266985e-02
 -7.9811925e-01
  5.1181692e-01
 -7.7555698e-01
 -1.7744671e-01
  3.0873698e-01
  6.8906046e-02
  7.1477973e-01
  4.4065490e-01
  7.6213276e-01
  2.7976403e-02
  2.7776194e-01
  4.2530516e-01
  1.9735588e-01
 -1.0541038e-01
  3.1809977e-01
 -2.9673820e-02
  1.8083014e-01
 -6.5796852e-01
 -9.5083165e-01
  2.3815350e-01
  6.1740333e-01
 -6.8423906e-03
 -1.1334881e-01
 -1.0548797e-02
 -2.7495933e-01
  6.3025244e-03
 -2.8413418e-01
  7.1955934e-02
  1.0713860e-01
  3.5898160e-02
  4.9866974e-01
 -2.1681808e-01
 -4.3582458e-02
  6.5289289e-02
  2.3999613e-02
  1.1712179e-01
 -1.4395587e-01
 -2.0119154e+00
 -1.9568263e+00
  3.0076861e-02
 -2.5821298e-01
 -1.6431549e-01
 -7.2775357e-03
 -3.8088951e-02
  5.3606834e-02
 -1.4337903e-01
  5.0422315e-02
 -1.2510276e-01
 -4.3971819e-01
  2.3271276e-01
  4.7000505e-02
 -5.8181554e-02
 -5.9631532e-01
  8.7119043e-01
 -1.7978252e+00
  1.5504682e+00
  3.5953492e-01
  3.3506498e-01
 -4.7082183e-01
 -5.1356530e-01
  2.8024469e-02
 -1.3959246e+00
  2.6999631e+00
  2.3369503e+00
 -5.1656920e-01
  4.8703307e-01
 -1.8442652e-01
 -1.9139072e-02
  1.2689964e-01
  4.2357504e-02
 -1.7676784e-02
 -6.0692325e-02
  2.2324941e-01
 -2.1566984e-01
 -3.7904263e-01
  1.8723687e-02
 -4.5266488e-01
  6.2367427e-01
 -2.3316400e-01
  6.6706657e-02
 -8.2406408e-01
 -1.7591496e-01
  2.2154753e+00
 -2.8753302e-01
  1.1812274e+00
  2.7386346e+00
 -2.3443334e-02
 -1.5475385e-01
  5.6779020e-02
 -7.3556143e-01
 -2.6312938e-01
 -5.9625074e-02
 -5.6791097e-01
  1.0317951e-01
  3.4014292e-02
  1.2603285e+00
 -4.6844992e-01
  9.6442664e-01
 -2.7611959e-01
  6.2717497e-01
  2.6744297e-02
  4.1034380e-03
 -8.0794528e-02
 -2.1907759e-01
  4.0496927e-02
 -7.6567709e-02
  4.2483449e-02
  4.7347855e-02
  4.3097317e-02
 -1.2955801e+00
 -2.5350858e-02
  6.1496277e-03
  4.1743052e-01
 -4.0037003e-01
 -8.9250565e-02
 -7.0065159e-01
  1.0673435e-01
 -2.9632214e-02
  5.1898265e-01
 -1.6174677e-01
 -8.7270781e-02
 -2.4730913e-02
 -8.1342056e-02
 -1.9930917e-01
  3.3387713e-02
 -1.1389112e-01
  1.6283883e-01
  5.9966333e-02
 -1.8887036e-01
 -1.1105496e-01
 -2.3308678e-01
 -2.0356421e-01
  1.1358256e+00
 -3.2325935e-01
 -4.4270284e-02
 -6.0110204e-03
  8.5642046e-01
 -5.0401968e-01
 -5.8851745e-02
  1.1926107e-01
  1.4621038e-02
  1.5079399e+00
  4.7809929e-02
 -2.1194951e-01
 -1.5829745e-01
  2.2433491e-01
  2.5200328e-01
  8.3266145e-01
 -2.9568154e-01
  2.2195740e-01
  7.8546125e-01
  1.0332023e+00
  4.9424827e-02
 -3.6490701e-02
  9.4868124e-02
 -5.0556563e-02
 -1.2294765e-01
 -8.2490355e-02
 -1.5720557e-01
 -1.0105431e+00
  5.6119082e-03
 -4.1422369e-03
  1.6772988e-01
 -1.1367949e-01
 -4.1142732e-02
 -1.9136663e-01
  3.1976161e+00
 -1.3659006e-02
  5.5685008e-01
  2.6256463e-01
  2.6005614e-01
 -3.6606181e-03
 -3.4673412e-03
  1.5543257e-01
  3.1576633e-01
 -1.1169027e-01
  7.0794746e-02
 -4.2289556e-03
  9.2836253e-02
  9.5365745e-01
 -3.4158032e-02
  3.5519740e-01
  1.0607815e+00
  2.0454283e-01
  2.0198341e-02
  1.9075452e-01
 -1.2041573e-01
  3.2745916e-01
 -1.4658819e-02
  1.8871851e-01
 -3.9404494e-01
 -1.9416872e-02
  5.1958792e-02
 -1.0720440e-01
 -2.2505452e-01
 -3.0689724e-03
 -2.2824107e-01
 -3.4018684e-02
  2.6538345e-01
 -5.2729964e-02
 -1.4992962e-02
 -6.9375046e-02
 -1.2421887e-01
 -5.4411214e-02
  8.4193600e-03
 -8.1224740e-03
 -1.1703998e-02
 -5.1432878e-02
 -2.6094893e-01
  4.4679556e-02
 -3.8160749e-02
  3.4141168e-02
  4.0495291e-01
  2.7534230e-02
 -2.1489665e-02
  4.3129854e-02
  1.0363984e-02
  4.7760580e-02
  6.7280185e-01
  3.5000402e-02
  4.9692929e-02
 -2.5593898e-01
 -1.0635817e+00
 -9.1991180e-01
  1.1285431e-01
 -1.6815310e+00
  7.6874304e-01
 -4.0015000e-01
 -2.4343258e-01
  2.2237334e-02
  1.2979339e-01
  8.8205183e-01
 -5.3553838e-01
  7.6772511e-02
 -4.1585416e-01
  5.2653760e-01
 -2.2794105e-01
  1.6725774e+00
 -1.0422381e-01
 -8.6899716e-01
 -9.7758174e-02
 -2.8248224e-01
  1.4886919e-02
 -8.1678666e-04
  6.0507726e-02
 -7.0093222e-02
  2.5262526e-01
 -9.3253694e-02
  3.8147539e-01
 -7.6755278e-02
 -1.0385551e+00
  1.2006553e-01
  4.7773018e-01
  4.5793105e-02
  2.5378061e-02
  9.5623547e-01
  4.5198868e-03
 -7.7085036e-01
  2.2506459e-01
  1.0409611e-01
 -4.7153257e-02
  1.9258635e-01
 -1.5909031e-02
  9.2796797e-01
  7.3868193e-02
  1.2168927e+00
 -5.4774761e-01
 -6.0143769e-01
 -1.5353623e-01
 -1.3133560e-01
  1.6830770e-02
  6.2759981e-02
  3.0115088e-02
  1.1961645e+00
  2.8426147e-01
 -2.2234913e-02
  2.0818567e-01
  7.4007022e-01
  9.8787183e-03
 -4.9066949e-01
 -1.3182002e-01
  1.0029691e-01
  4.4228774e-01
  7.3445708e-02
 -7.0365310e-01
  5.1309234e-01
 -2.6665319e-02
 -4.0907258e-01
  2.1818806e-01
  2.0933655e-01
  1.7286185e+00
  9.9078387e-01
 -1.0258959e-03
 -2.7450804e-02
 -2.5627630e-02
  2.3093460e-02
  1.3983570e-01
 -1.0767584e+00
  7.5143613e-02
 -1.0755476e-01
 -1.8908088e-01
  7.3393375e-02
 -2.9998243e-02
  8.8816531e-02
 -3.2439843e-01
 -1.4608438e+00
 -8.2478923e-01
  2.4627370e-01
 -8.2091701e-01
  3.6642590e-01
 -6.6726409e-02
 -1.5558176e-01
  5.1514562e-02
  7.6866560e-02
  1.4826128e+00
 -4.1375676e-01
 -4.5776907e-01
 -1.2397192e+00
 -1.4617957e-01
  4.4553136e-03
 -5.5920225e-01
 -1.6546999e-01
  8.8680632e-02
  2.2391193e-01
  7.4466087e-02
 -4.1438404e-01
 -2.6663523e-02
 -5.0331050e-01
  4.1732812e-01
 -2.3401330e-01
 -8.5580096e-02
 -1.2289231e-01
  1.9772503e-01
  2.1061969e+00
 -2.6149786e-01
  1.8415064e-01
 -1.1889681e+00
  2.1217978e-01
  2.5928921e-01
 -8.7735760e-01
 -1.6673483e-01
 -5.0639622e-02
  6.9547349e-01
  5.5320263e-01
 -2.7053496e-01
 -5.3644538e-02
 -5.6593023e-02
 -5.6353867e-01
 -4.6772546e-01
 -1.1199059e+00
 -1.4517238e+00
  1.2444728e-01
  5.3969547e-02
 -1.8101391e-01
  5.8710235e-03
 -2.2334637e-02
 -1.0144158e-01
 -5.2851623e-01
  1.0956476e+00
 -8.9967626e-01
  5.0161058e-01
 -4.9911165e-03
 -7.9223585e-01
 -3.7790105e-01
 -8.2420844e-01
 -7.5420346e-03
  8.2060206e-01
 -8.7184189e-03
  1.3986863e-02
 -9.5599443e-02
  1.8850416e+00
  3.1655496e-01
 -7.2651243e-01
 -2.8778814e-02
  1.0536932e+00
 -8.7977439e-02
 -7.3730421e-01
  3.7547451e-01
  4.4289953e-01
  6.2658943e-02
 -2.1630665e-02
 -5.7671737e-02
  1.4200918e-01
  1.8247139e+00
  5.3373240e-02
 -4.2477500e-01
  1.5862288e-01
 -1.6459081e-02
 -1.6300800e-01
 -2.6677611e-01
  2.3266147e-01
 -1.5657867e-01
  8.1426752e-01
  1.8780712e-02
  1.0296144e-01
 -4.9338600e-01
  4.3341824e-01
 -1.1409138e-01
 -1.2443507e-01
  3.6562458e-01
 -3.3668116e-02
 -3.4521338e-02
  6.2461533e-02
  1.1806345e-03
 -5.8922279e-01
 -3.5135113e-02
 -1.4136317e-01
 -3.0433100e-01
  7.0461929e-01
 -5.2613832e-02
  1.7546734e-01
  4.9995646e-01
 -7.3513702e-02
  9.5085474e-03
 -3.1614140e-01
 -1.7511241e+00
 -7.0266646e-01
 -7.3733225e-02
  5.1691490e-01
 -1.5679902e+00
  2.4620651e-01
  7.4343789e-01
 -1.9228579e-01
 -1.8371089e-01
  4.8942585e-02
 -1.3098826e-01
 -1.0395899e-01
 -1.4842267e-02
 -5.0382223e-02
 -1.8390948e-01
 -1.5666360e-01
 -3.1351271e-01
 -1.6300808e-01
  2.8746647e-01
 -5.6213476e-02
  2.1112416e-02
  2.3839816e-01
  1.0291277e-02
 -8.5481651e-02
  8.3557295e-04
 -8.7820567e-02
 -8.7390617e-03
  9.5675759e-02
 -1.1246194e-02
  1.0503575e-01
  9.1091543e-02
 -2.2352407e+00
 -3.0831286e-01
 -7.9570460e-01
 -1.1283247e-01
  2.0813052e-01
  9.2124093e-01
  5.7128990e-01
 -4.7879867e-02
  3.2074174e-03
  1.3935137e-01
  1.3351065e-02
 -2.2502668e-01
  1.6945200e-01
  1.3929476e-01
  1.1891853e-01
  6.4756982e-02
  4.5213497e-01
 -1.2795714e-01
 -1.2195668e-01
 -7.0571458e-01
  3.8519420e-02
 -4.2705745e-02
  6.1740421e-02
 -1.1307272e+00
  6.4346060e-02
  3.9628614e-02
  1.2778345e-01
 -1.4097536e-01
 -1.6700677e-03
  7.6409437e-02
  3.3733188e-03
 -2.9876370e-03
 -4.5440504e-01
  3.9663211e-02
  1.4939468e+00
  1.3950765e+00
  2.9516706e-01
  1.4280343e-01
 -1.3087760e-01
 -7.5615053e-03
  1.6067212e-02
 -1.4856857e-01
  1.7791749e+00
  7.7855176e-01
  9.7862810e-02
 -1.2146436e-01
 -3.3013884e-02
  2.7220106e-02
 -2.6712224e-02
  3.0769574e-02
 -1.0380175e-02
 -2.6350898e-01
  7.2381832e-02
  1.4060624e-01
 -4.3890812e-02
 -2.8820300e-01
  6.3669336e-01
 -2.6260221e-01
 -1.3478512e+00
  3.9175925e-01
  9.2439555e-02
  1.0961736e+00
 -1.5725851e-01
  1.0154061e+00
 -1.2191736e+00
 -9.2396683e-01
 -6.9112474e-01
 -6.1109692e-02
 -1.7140026e-01
  1.1184613e-01
 -1.7866507e+00
 -4.7941664e-01
 -1.1538365e-02
  2.8214875e-01
 -2.5962096e-01
 -1.5349658e+00
 -9.4951874e-01
 -1.0735035e-01
 -1.2580401e-01
  1.2180288e-01
  2.8746885e-01
  2.6071602e-02
 -9.2975453e-02
 -4.1993892e-01
  1.0849149e-02
 -3.9938483e-01
 -7.6593213e-02
 -2.7417436e-01
  1.2021745e+00
  5.9342470e-02
  2.3403828e-01
  2.1646020e-01
 -1.8819366e+00
 -1.3242935e+00
 -3.2686330e-02
  1.3908600e-02
 -8.2614077e-03
  1.1627209e+00
 -8.7222554e-02
 -1.0837562e+00
  1.0893945e+00
 -2.5736112e-02
  9.2141097e-03
  3.4388912e-01
  1.1880902e+00
  2.4619305e-03
  7.8617290e-02
  6.7745382e-01
 -7.0994377e-01
  3.0794364e-01
 -7.2277173e-02
 -3.8569981e-01
 -1.9114520e-01
 -1.6871879e+00
 -2.4285460e-01
  4.8169766e-02
  1.4604142e-01
 -2.0382945e-01
 -6.4757936e-02
  5.6371547e-02
  3.7005596e-02
 -6.8811066e-02
  2.2748145e-01
 -2.4920063e-01
 -3.3592135e-02
 -1.0843352e-01
  3.4366699e-03
  2.7260822e-01
 -6.8675399e-02
  1.5700202e-01
 -1.6044267e-01
  6.7202017e-02
  7.1684018e-02
 -1.1218801e-01
 -9.3613423e-02
 -5.4928519e-02
  6.1190784e-01
  1.7405672e-02
 -9.1912702e-02
  1.4690749e-02
  2.2810044e-02
  4.1593056e-02
 -2.5817039e+00
  4.4672668e-02
 -3.5201814e-02
  2.3263855e-02
 -5.6349830e-04
  9.7314902e-02
  4.1602412e-03
 -3.6666974e-02
  5.3554014e-03
  6.6133365e-02
  2.9555717e-02
 -5.5500496e-02
 -4.7223693e-01
 -2.5047085e-03
 -7.6870710e-02
  1.7637204e-01
 -7.0109236e-01
 -4.6854213e-02
  1.6821904e-02
 -3.8885128e-01
 -5.7498023e-02
  2.1816652e-01
  2.7718881e-01
 -1.0201952e-01
  1.6160907e-01
 -6.4010936e-01
 -1.1102147e-01
 -9.7069097e-01
  1.0864311e+00
  9.8019254e-01
 -1.3970890e+00
 -6.5251857e-02
 -9.7925830e-01
 -7.1861655e-01
 -2.0662520e+00
  2.5167036e+00
 -7.4698007e-01
  1.8995606e+00
  2.7642553e+00
  1.8901142e+00
  4.0568334e-01
 -3.1567398e-02
 -2.6368693e-01
 -4.1990480e-01
  9.3225740e-02
 -1.1953871e+00
  1.1967827e+00
  1.4708081e+00
 -2.8354827e-01
 -1.1471372e+00
 -1.5811925e+00
 -5.5365306e-01
  1.6920543e+00
  7.6256156e-02
  1.1348114e+00
  3.4381345e-01
  5.1001579e-02
  1.2189765e-01
 -5.3277498e-01
 -1.1004152e+00
 -7.9935735e-01
  1.0445410e+00
 -3.0811575e-01
  2.5501734e-02
  2.2342503e-01
 -5.7334328e-01
 -3.6914831e-01
  2.0217154e-02
 -5.2203882e-01
 -5.0246334e-01
  5.4778230e-01
 -9.6568722e-01
 -3.4094128e-01
  5.0110650e-01
 -5.5276656e-01
  1.4082472e-01
 -1.0762341e+00
  4.1997012e-01
 -1.7009738e-04
  1.5807563e-01
 -6.7939693e-01
 -2.9205310e-03
 -8.4955513e-02
 -8.4797450e-04
  3.7621155e-01
  1.4942026e+00
 -4.4399294e-01
 -5.0996654e-02
  1.0406038e-03
 -1.0945058e-01
 -1.5979156e-02
  3.1439933e-01
  9.9280059e-01
  2.2902901e-03
  4.3750742e-01
  1.3898003e-02
 -8.0490714e-01
  2.5813351e+00
  2.1000840e-01
  1.0955933e-01
  3.2415528e-02
 -2.0830797e-01
  2.7858511e-02
  2.8780276e-01
  7.6873819e-03
  5.1318109e-02
 -2.8572042e-02
  4.2021897e-02
 -6.4606957e-02
 -3.7781525e-04
 -1.0916287e-01
 -4.6292832e-03
 -2.7641812e-01
 -2.9507521e-01
 -2.2748342e-02
 -1.3618645e-01
  5.1634473e-04
  6.4167365e-02
  1.9440943e-01
  7.9213157e-03
 -3.6315128e-02
  8.2958236e-02
  5.9014801e-02
 -2.1407010e-01
  4.0215779e-02
 -2.3101451e-02
  1.3597565e-02
 -4.1459417e-03
  6.6498205e-02
 -9.0907343e-02
 -4.9197700e-02
  9.7477585e-02
 -2.2885090e-01
  1.3355874e-01
  9.4334908e-02
 -7.0432037e-01
  2.1222772e-02
 -4.6309572e-02
 -4.7946595e-02
 -3.0839312e-01
  1.4352115e-02
 -6.2243383e-02
  1.1755794e-01
  1.2219327e-01
  5.6491587e-02
  2.3084234e-01
  2.0453975e-01
 -1.7880507e-01
  7.5616483e-03
  5.1957309e-02
  5.5996332e-02
  8.3455920e-02
 -2.0717207e-01
 -5.2287322e-02
 -5.5793864e-01
 -2.7941113e+00
  4.6110928e-02
  8.2922810e-01
  5.5351306e-02
 -5.4839928e-02
  1.5056500e-01
 -2.5757704e-02
 -9.8103434e-02
  9.1864121e-01
 -5.0799470e-02
 -3.1498253e-02
  2.4145679e-03
 -3.3494157e-01
  9.9975787e-02
 -3.3191666e-01
  1.2577094e+00
  1.4008112e-01
 -2.6791450e-01
  5.1148415e-02
 -8.7228075e-02
  3.6571294e-01
 -2.4069838e-01
  1.8485923e-01
  2.6306581e-01
 -2.9541421e-01
 -1.4332999e-02
 -8.4380083e-02
 -2.2777410e-01
 -2.1627299e-01
  1.0330865e-01
 -1.2507337e-01
  2.4088223e-01
 -1.4754711e-01
  6.3434668e-02
  7.4002676e-02
 -6.4971387e-02
 -6.8039820e-02
  2.2691894e-01
  6.0514247e-01
  2.1011887e-01
 -1.0217702e-01
  5.5503303e-01
  2.5620579e-03
  2.3946382e-02
 -5.9646286e-02
  7.3088877e-02
  4.1830626e-01
  7.3904373e-02
 -2.3702087e-02
 -1.2433759e-01
 -6.3221174e-01
 -6.8095040e-01
 -1.6051944e-01
 -2.4531679e-02
  1.4703347e-01
 -2.4682496e-01
  2.0728388e-01
 -1.9228831e-01
 -4.8895249e-01
 -6.2241560e-01
  1.1963648e-01
 -1.4973493e+00
  2.4157842e-01
 -3.2885626e-01
 -8.1226677e-02
  2.1625279e-01
  1.9692364e+00
 -8.6377442e-02
 -4.8010963e-01
 -7.3769093e-01
 -3.2006648e-01
 -3.4902543e-01
 -1.5712221e+00
  1.0290355e-01
  2.8187469e-01
  5.2565837e-01
  4.4570348e-01
 -1.5694834e-01
  6.6986310e-01
  5.3688818e-01
  1.8624811e-01
 -2.7962607e-01
 -5.5038456e-02
 -1.1162254e-01
  6.7233644e-02
  1.7268975e+00
 -5.3713333e-02
 -1.8934658e-01
 -1.9122760e-01
 -9.3697801e-02
  4.5459214e-01
 -6.6297087e-03
 -4.9705584e-02
  1.3240654e-02
  1.0717566e-01
  1.8497011e-02
 -1.2125850e-01
 -1.4773276e-01
  1.0297723e+00
  7.2398818e-01
  1.5703433e+00
 -4.0949691e-02
  4.7495700e-02
  5.5139166e-01
  8.2925379e-01
 -7.1683414e-02
  1.0662299e-01
 -7.9222610e-03
 -2.2766036e-01
 -5.7483995e-01
 -6.9135740e-02
 -1.4974154e-02
  4.7727143e-03
 -1.2868901e-02
 -6.1102163e-02
  4.1779423e-01
 -1.8655215e-01
  4.0337583e-01
  1.7572738e-01
  6.3165271e-01
  6.6323258e-02
 -6.5944366e-02
 -2.3843338e-01
  1.1986494e-01
 -3.7339860e-01
  9.8338509e-01
 -5.5950094e-02
  3.2122348e-02
  1.3002505e+00
  2.1206124e-01
  2.7523151e-02
 -1.0198881e-01
  5.9533316e-01
  7.5723015e-02
  3.1035623e-02
  2.1055289e-01
 -3.8193803e-02
 -1.8184680e-01
 -2.7364641e-01
  1.4360449e-01
  1.3320683e-01
 -5.7521932e-02
 -4.6122018e-03
  1.4212833e-01
 -2.4963032e-01
  7.0395336e-02
  2.0826498e-01
  9.2036180e-02
  1.9823748e-01
  9.1721267e-02
 -4.7816378e-01
  6.3271958e-01
  1.4673375e+00
 -1.4722060e-01
 -3.5699522e-01
 -3.7551311e-01
 -8.5894078e-01
 -3.2020891e-01
 -8.5363805e-02
  7.0059633e-01
 -1.0704684e-01
  8.2728676e-03
  1.2124218e-01
 -1.6742206e-01
  5.6591898e-01
  1.1617165e-02
 -2.2298506e-01
 -9.1323992e-03
  5.8368407e-03
 -1.4333917e-01
  2.4498172e-02
 -1.1710467e-01
  2.3196342e+00
  3.2566875e-01
  7.2245991e-01
  2.5690309e-04
  1.8121788e-01
  7.3312004e-03
  6.6265933e-02
 -1.1901139e-01
  2.7939877e-02
  1.0648213e-01
  3.8258910e-02
 -6.6112906e-01
 -4.2719916e-01
 -1.0996220e-03
 -2.1775983e-01
 -6.9280095e-02
  1.2796235e-01
  6.9461942e-02
  2.2016037e-01
 -2.6513603e-02
 -7.8396297e-01
 -4.3179601e-01
  1.0499711e-01
 -1.1248223e-01
  5.6381125e-02
  5.5054270e-02
 -1.4315497e+00
 -2.0847691e-02
  4.0295307e-02
 -2.0815790e-02
  1.4859967e-01
  8.2320988e-02
 -1.8072480e-02
 -1.4594106e-01
  1.9846551e-02
 -1.0529082e-01
  7.3029655e-01
 -1.4746544e-01
  4.2638481e-01
  2.0241508e-02
  1.6086742e+00
 -1.4856233e-01
  4.2625651e-01
 -2.4885414e-02
 -1.5993747e-01
 -3.2521594e-02
  5.4012346e-01
 -3.4936285e-01
 -1.1806240e+00
 -2.8455666e-01
  1.3460930e-01
 -1.8244928e-01
  1.7508976e-01
  2.8981522e-01
 -3.2894957e-01
  5.1884640e-02
  2.5342008e-01
 -1.3224280e+00
 -6.9736546e-01
  7.6866961e-01
 -1.1451502e-01
  1.6555861e-01
  1.1236412e-01
 -2.5095431e-02
 -7.2101608e-02
  2.4065079e-01
 -3.2959765e-01
 -3.8976341e-01
 -3.7498900e-01
 -1.1758767e+00
 -1.7282911e-01
 -1.9810313e-02
 -6.3192159e-02
 -4.4669574e-01
  1.2385664e+00
  3.7264018e+00
 -2.3376516e-01
 -1.2758767e-02
 -2.0107977e-01
 -3.3318189e-01
  1.7038947e-01
  7.4401200e-02
  4.9429402e-01
 -2.3680966e-01
 -1.8173932e-01
 -6.6360128e-01
 -7.4316412e-02
 -9.9598654e-02
 -1.1533651e-01
 -5.4559879e-02
  7.3859803e-02
 -1.2711492e-01
  2.6111898e-01
  2.3525360e+00
 -1.2605414e-01
 -1.4903279e-01
 -1.2212867e-01
  2.4043734e+00
  1.3812433e-02
 -1.5394010e-02
 -6.7407221e-02
  7.5014834e-03
  9.9537247e-01
  1.8151219e-01
  8.2650058e-02
  9.1243930e-02
 -1.6690071e-01
  1.1261413e-01
  7.1305111e-03
  3.9121073e-02
 -1.0442049e-01
 -7.9732001e-02
 -1.7377795e-01
  7.4961655e-02
  3.6167914e-01
  1.4509189e-01
  3.2272959e-01
 -2.8766773e-03
  1.6161876e-03
  4.3474752e-02
  1.0212123e-01
 -5.8621638e-02
  6.5820676e-01
  8.1422932e-02
 -2.6071694e-01
 -2.9293247e-03
  3.1205077e-02
  7.7444285e-02
 -2.1473274e+00
  1.9901974e-02
  5.3973183e-02
  1.0832607e-02
 -2.0878431e-01
  5.4364972e-02
 -1.7451578e-01
 -4.1756351e-02
  3.8429996e-01
  1.9216930e-03
 -2.5782883e-02
 -7.0428886e-02
  4.8355360e-02
 -1.6483536e-02
 -7.9940148e-02
 -2.6787642e-02
 -1.2658797e-01
  1.0214689e-02
 -6.9595283e-01
 -1.3357586e-01
 -2.3925433e-02
  2.5175464e-01
 -1.2542516e-01
  2.4434698e-01
  1.6357866e-01
  1.7445826e-03
 -1.7540061e-01
  2.8004634e-01
 -1.8382040e-01
  1.4432132e-01
  1.6276408e+00
 -1.4524650e-02
 -1.2233493e-01
 -3.4725595e-02
  7.1078241e-01
 -1.9166730e-02
 -1.0135680e-02
  2.1088175e-01
  2.8049725e-01
 -2.0231256e+00
  1.4538966e-02
  2.8215459e-01
  1.1614805e-01
  3.9359055e-02
 -3.8586799e-02
  4.7200575e-02
 -2.2069229e-02
  3.0951444e-02
  4.1893803e-02
  3.8147077e-02
  2.7883132e-03
 -1.5809568e-02
  4.6669930e-02
 -6.9770194e-03
  1.0014134e-01
 -3.1612482e-02
  1.5152860e-01
  2.5057490e-03
 -2.9614660e-01
 -6.5622024e-02
 -5.9983421e-02
 -9.1895208e-02
  7.8874916e-02
  1.1004220e-01
 -1.0263008e-02
 -2.8239915e-01
 -2.1626893e-02
 -2.2448793e-01
  6.5277994e-02
  7.6776922e-02
 -3.1374412e-04
  9.1464931e-01
  6.2108211e-02
  7.2495299e-03
  1.1263685e+00
 -3.6067102e-02
 -6.4008539e-03
 -1.0355110e-01
 -4.6503657e-01
  2.3408631e-02
 -8.0917947e-02
 -2.1971364e+00
 -1.0082375e-01
 -1.0774764e-01
  4.2002410e-01
 -5.6414381e-03
 -1.1453291e-01
  6.6674687e-02
  1.5069870e+00
  2.1546960e-02
  7.0422947e-02
  5.5388071e-02
  1.3650098e-02
  8.9297581e-01
 -1.4039850e+00
 -3.5331185e+00
  7.3204622e-02
  5.6000117e-02
 -1.0644993e-02
  1.7148215e-01
  1.9934508e+00
 -1.0115149e+00
 -1.6426624e+00
 -7.4506872e-03
 -1.7332110e-01
 -1.9284675e-01
 -1.5240004e+00
  2.0443812e-01
  3.6296868e-01
 -1.1928293e-01
 -5.8699910e-02
  2.8116769e-01
  3.1342399e-01
 -2.4537679e-02
 -9.0334779e-03
 -4.8154272e-02
 -4.1280977e-02
 -8.1491061e-02
  9.2082369e-01
 -1.9188066e-01
  4.4539202e-02
  9.3001224e-02
  1.3336045e-04
  1.9161049e-01
 -1.3543128e-02
  6.2905431e-02
 -1.3194306e-01
 -1.5537141e-01
  9.1451220e-02
 -8.8870332e-02
 -3.0166975e-01
 -1.3795304e-01
  5.2875715e-01
 -1.0946508e-01
  2.4762326e-01
  1.8610346e-01
  1.1245960e-01
 -4.1711010e-02
 -3.9321214e-01
 -7.3645610e-01
 -1.7316564e+00
 -6.2407362e-03
 -1.2197237e+00
  1.1178437e-01
 -6.0460413e-01
  6.9221288e-02
  6.2360644e-01
  2.2690307e-01
 -3.6183313e-02
 -1.0277631e-02
 -3.5821214e-02
  2.8917545e-01
 -1.0469827e-01
 -3.7718061e-01
 -5.9624696e-01
  1.0424886e+00
  1.5605570e-02
  3.3956416e-02
 -3.2994237e-02
 -3.7787277e-02
 -3.6569858e-01
 -7.2241753e-02
 -9.3025041e-01
  5.0461203e-02
  1.6960005e+00
 -1.9796956e-01
  1.2555599e-02
 -1.4047065e-01
  3.0556414e-01
 -2.9823791e-02
  1.0126258e-02
 -1.4043828e+00
 -4.0255416e-02
  5.4433179e-01
 -7.3700905e-02
 -2.1038011e-02
 -6.3540435e-01
  4.5736644e-02
 -3.2492734e-02
 -1.8026364e-01
 -6.9080466e-01
 -1.8663230e+00
  3.1845257e-01
 -1.5156010e-01
  3.1197060e-02
 -4.2809777e-02
 -4.0627799e+00
  2.3237800e-02
  5.8687449e-01
 -1.6247144e-01
 -1.6918893e-01
  5.5858344e-02
  1.8918637e-02
  1.4533828e-01
  7.5082660e-01
  4.7799058e-02
  5.5988938e-02
  1.3999925e-02
  5.7535630e-02
  3.7249032e-02
 -7.1965635e-02
 -2.6948971e-01
  5.0175551e-04
  1.7204615e+00
  7.6012827e-02
  2.9944636e-02
 -1.5028572e-02
  3.4609541e-01
  7.0311189e-02
 -3.2998105e-03
 -4.7611877e-02
  1.0342568e-01
 -1.0183183e-02
 -5.6222722e-02
 -3.8235456e-02
  3.1355180e-02
 -9.9345624e-01
 -6.4040893e-03
  1.0396703e-01
 -6.0335953e-02
  4.9874309e-02
 -1.9866232e-02
 -1.8242147e-02
  4.3142028e-02
  2.6300442e-01
 -1.4817008e-01
  9.7840477e-04
 -4.1248724e-02
 -3.2165459e-01
  1.7971255e-02
 -4.2899996e-02
 -1.1707188e-01
  1.4755622e-01
 -1.9804716e-02
 -1.1594450e-01
 -4.2502943e-02
  1.4510790e-02
  1.1334127e-01
 -1.3358773e-01
 -1.1637812e-01
  1.0468574e-01
 -9.9777654e-02
 -1.8305017e+00
  3.8134071e-01
  5.3859614e-02
  6.3539201e-01
 -1.7772748e-01
 -9.2687704e-02
  1.7654185e-01
 -9.4156706e-01
  8.1639931e-02
 -4.2281307e-02
 -2.4419995e-01
  1.4570788e-01
 -7.8827530e-01
  1.2242875e-02
  5.3865444e-02
  5.8197655e-02
 -1.0531819e-02
 -1.4960669e-01
  3.6132467e-01
  3.7219405e-01
  1.7222466e-01
  1.3403345e+00
  1.3810101e-01
 -4.8365939e-02
  2.9077634e-01
 -3.6499251e-02
 -1.3640654e-01
  1.9284488e-01
 -3.1825826e+00
  7.5014517e-02
 -4.7010043e-01
 -1.7350513e-02
  2.3581876e-01
 -1.2678830e-01
  7.7231847e-02
 -7.0126718e-01
 -9.1608144e-02
  1.5825398e-02
  4.7618616e-01
 -1.0614629e-01
 -7.8962870e-02
 -1.1360957e-01
  7.6687658e-01
 -3.0611645e-02
  6.9232780e-01
 -5.0360855e-02
 -2.7993564e-02
 -1.6853593e-01
 -5.2119199e-02
 -1.2811524e-01
  2.3053506e-02
 -9.2503779e-02
 -7.5881489e-02
  1.4159235e-01
 -3.1089498e-02
  1.0101809e-01
 -7.3622391e-02
  1.5595543e+00
 -1.2976482e+00
  1.6217098e-01
  2.3241219e-01
  4.2335746e-01
  3.3099864e-02
  7.4563861e-02
 -7.0175469e-02
  6.3570988e-01
  1.0404012e-01
 -1.7339338e-01
 -3.1226974e-02
 -2.2969086e+00
  3.4335092e-02
  2.0813927e-02
 -9.2998201e-01
  1.1396542e+00
  1.4279981e+00
  4.7590011e-01
  1.2442561e+00
 -3.9430085e-01
  5.6896724e-02
 -1.1460608e+00
  2.6262414e-02
  1.5316595e-01
  5.4785037e-01
 -4.2423141e-01
  1.1073638e-01
 -1.7436804e-01
  1.8104912e+00
  5.7654422e-02
 -1.5131138e-01
 -7.8205168e-01
  6.3754469e-02
 -2.8366749e+00
  1.5890726e-01
 -3.9330527e-02
 -1.4859068e-01
 -1.3241240e-01
 -1.0119630e-02
 -8.8660735e-01
 -8.6998872e-02
 -2.0776030e-01
  1.0576916e-02
  1.0836808e-01
  7.4636474e-02
 -3.7795071e-02
 -3.2274234e-01
 -2.9702517e-01
 -6.2652096e-02
  1.6421916e-01
 -7.0720427e-02
  2.0178041e-01
  5.2577549e-01
  5.7094479e-01
 -4.7757053e-03
 -2.4174703e-02
  4.5155394e-01
  1.4285694e+00
  7.4702087e-03
  1.4148984e+00
 -1.9115411e-02
  2.6078504e-01
  7.3503494e-02
 -8.5646510e-02
 -1.8957481e-01
 -6.5386242e-01
  2.9889449e-01
 -6.6516161e-01
 -5.4968089e-01
 -4.0062943e-01
  1.1314263e-02
  9.8108810e-01
 -1.1168535e-01
  7.0034540e-01
 -1.7983726e+00
 -1.0891339e+00
 -1.2137783e-01
 -3.8510767e-01
 -1.4627588e+00
  4.9208865e-01
 -9.1423184e-01
  3.8337968e-02
  2.6056044e-02
  9.3198490e-01
 -1.1467025e-01
  6.1461776e-01
  9.3055852e-03
 -4.0503532e-02
  3.6406666e-01
 -1.2445436e-01
 -1.0077661e-01
 -6.2431425e-01
  4.8306811e-01
  1.0229680e-01
 -3.3817399e-02
 -1.2161981e-01
  7.2561874e-04
  4.3361366e-01
 -1.3506142e+00
  1.7253494e+00
 -1.8143128e-01
  9.6469003e-01
 -1.3454130e+00
  1.0073423e+00
 -7.1031594e-01
 -1.2039984e+00
 -1.0460953e+00
 -3.7579840e-01
 -2.2107136e+00
 -2.2747317e-01
  2.3516495e+00
  2.0821355e-01
  4.6976277e-01
 -1.0700012e+00
  1.0617664e+00
 -1.2762020e+00
  6.3406482e-02
  7.2390642e-03
 -1.2046871e-01
 -8.8123262e-01
  2.0823464e-02
  6.1491007e-01
 -2.0776043e-02
  1.4421356e-02
  4.3011811e-02
  5.4353353e-02
  7.1254983e-03
 -4.1840795e-01
 -2.1278752e-01
  3.8380885e-01
  5.4092383e-01
 -1.2360073e+00
 -8.8661395e-02
  9.9179029e-01
  1.3180338e-01
  2.2370683e-02
  1.7287444e-02
 -1.2833949e+00
  3.8481775e-01
  7.1135186e-02
 -3.9068919e-02
  8.5605448e-01
  7.5820953e-01
 -4.1823351e-01
  3.7050515e-02
 -9.0578936e-02
  2.6954692e-02
 -9.2530131e-02
  1.0500461e-01
 -1.8135190e+00
  4.5534987e-02
 -1.2439741e-01
  2.5828946e-02
  2.2512376e-01
  6.7434531e-01
 -1.9667161e+00
 -1.9921880e+00
  4.8779038e-01
  5.4580253e-01
 -1.0220073e+00
  8.3289951e-01
 -6.3798511e-01
  1.4665102e+00
  1.7671752e+00
 -3.6784962e-01
 -1.0004126e-02
 -2.2238901e+00
  2.7824297e+00
 -3.3407035e+00
 -5.3423077e-01
 -1.1326662e+00
 -2.4125721e-01
  1.9486053e+00
 -6.2485617e-01
 -2.1548435e-01
 -7.5447154e-03
  7.3747677e-01
  3.2091608e+00
 -9.8029560e-01
 -2.0933768e-01
 -3.6106545e-02
  2.4871383e+00
 -2.0449631e-01
 -1.3676778e+00
  1.6285056e-01
  1.1699551e+00
 -1.3310394e-01
  1.4580393e+00
 -3.0081034e-01
 -2.5864115e+00
  3.2319203e-01
  5.3295469e-01
 -2.2079760e-01
 -1.5310019e+00
  2.7813399e-01
 -2.2132841e-01
  1.1356494e+00
 -8.8427359e-01
  2.4765624e-01
  9.4055110e-01
 -5.5234749e-03
 -6.2141363e-02
 -1.7067885e-02
 -1.0851371e-01
  8.4154822e-02
 -2.2366507e-01
  1.9020301e-01
  1.0640674e-01
 -2.1249820e-02
 -1.3460320e-01
 -9.7188149e-03
 -3.2837352e-01
  2.5870206e-02
 -7.6551005e-02
  2.0862462e-01
 -3.3926412e-02
 -9.2285746e-01
  4.4435415e-02
 -7.3694572e-02
  5.1237769e-02
  3.1447279e+00
  2.9221963e-02
 -1.5636399e-01
 -1.6743186e-01
  6.3751474e-02
 -2.9588621e+00
  1.6396017e-01
  3.1245930e-02
 -1.3756607e-01
 -3.7303712e-02
 -9.1809280e-02
  1.1108083e-01
  1.7669511e-01
  4.9111918e-02
 -5.4331720e-02
  5.0687253e-02
 -1.7146902e-01
 -5.0408721e-02
  1.1519603e-01
  8.3060160e-02
  4.6121225e-02
  1.2015416e-01
  8.6880960e-03
 -4.6324566e-02
 -1.6226885e-03
  1.9931369e-02
 -1.9031544e-01
 -4.5417383e-01
 -1.3669559e-02
 -7.1114682e-02
  1.3317739e-02
 -5.1631384e-02
  8.1234880e-02
  1.2996073e-01
  1.3788642e-01
  9.5806889e-02
 -1.4814433e-01
 -1.7093518e-01
  1.2616336e-01
  6.5609795e-01
 -4.4655614e-02
  5.3173471e-02
 -3.1681214e-02
  1.4066516e-01
 -2.7527210e-01
 -9.7802602e-02
  2.2260544e+00
  6.2687153e-01
 -3.0183504e+00
 -5.1468694e-01
  1.2287307e+00
 -2.7528496e+00
  1.4706033e+00
  6.8847559e-02
  5.5501102e-03
  1.2662637e+00
  9.4782913e-01
 -8.4079784e-01
  3.8647264e-02
 -7.6014882e-01
 -6.3060933e-01
  1.7025175e+00
  8.8135678e-01
  4.0899439e+00
 -4.6530077e-01
 -6.4924848e-01
  4.0103060e-01
 -4.6467600e+00
 -2.6109579e-01
  2.2154529e-02
 -1.0302241e+00
 -2.0380828e+00
 -7.9689634e-01
  7.7899480e-01
 -1.1623899e+00
  1.4645206e+00
  6.9347733e-01
  8.6556420e-02
  2.4186239e+00
 -8.9702159e-01
  9.5369118e-01
  1.3012456e+00
 -6.8599023e-02
 -4.4261718e-01
  1.2322295e-01
  4.1902789e-01
 -6.8048681e-03
  1.6819787e+00
 -1.5443501e+00
 -2.5979826e-01
  5.3689945e-01
  8.9412712e-02
  8.1423186e-02
 -6.9901809e-02
 -3.4511562e-02
 -3.6140183e-01
 -1.9788553e-01
  2.6709281e-02
  2.6357679e-03
 -5.3258383e-01
  4.4418916e-01
 -1.5440100e-01
  6.4761049e-01
 -4.6949124e-01
  1.6750571e+00
 -1.2716137e+00
  2.0609939e+00
  1.1445774e+00
 -1.2173054e+00
  1.0587546e-01
 -4.9634382e-01
  4.1269657e-01
 -3.7851017e-02
 -1.7203103e-01
 -6.8092626e-01
 -3.9893055e-01
 -2.4154003e-01
 -1.6144476e+00
  1.9064995e-02
 -5.5688483e-01
  2.2472024e-01
 -4.1393062e-01
 -3.0011126e-01
 -3.4538537e-01
 -1.4195944e+00
 -1.8203291e-01
  5.2413601e-01
 -3.0755757e-03
 -3.8552862e-01
 -5.3522611e-01
  1.3766252e-01
  2.6290646e-01
 -3.2756776e-02
 -1.6631175e+00
  1.5869206e-01
 -8.1510067e-01
 -2.9362964e-02
 -1.3382624e-01
 -3.2225302e-01
 -5.0559035e-03
 -4.2485427e-02
 -3.6165604e-01
 -6.1411089e-01
 -1.8555615e+00
  1.0683776e-01
  8.7553382e-02
  6.4071596e-01
 -2.6464185e-01
 -5.9334254e-03
 -7.2635047e-02
 -9.4731085e-02
 -1.9751972e-01
 -3.8844939e-02
  5.4855168e-02
  2.7246017e-02
 -1.0168053e-01
  1.2610145e-01
 -3.1987108e-02
 -1.2952951e+00
  1.1817234e+00
  1.2486467e-01
 -4.7076207e-01
  1.4785105e-01
 -3.0435389e-01
  8.5574841e-01
 -3.1733036e-01
 -1.7608236e+00
  2.9048268e-02
  2.4304660e-01
  1.6607764e+00
 -6.0755223e-01
  1.8554297e-01
  3.0548823e-01
  8.1895173e-01
  6.8811864e-01
 -8.2589346e-01
 -1.3052307e-01
  3.7122026e-02
 -2.2425328e-01
  1.9030602e-01
 -9.7768260e-03
  2.2857864e-01
  8.3861455e-02
  6.3624576e-02
 -2.5969498e-02
  7.4475557e-01
  7.4710101e-02
  7.1843285e-03
 -4.3677829e-02
  5.8381520e-02
  1.3484244e-01
  2.2692455e-01
  5.3153820e-02
 -1.8964441e-01
 -1.5015183e-01
 -2.0196235e-01
 -4.6817221e-02
  8.4137195e-01
 -1.1905737e+00
 -1.7147209e-01
 -2.2834934e-01
  2.6344672e-02
  1.0616562e+00
  4.9876255e-01
 -4.4925553e-01
  8.9596160e-02
 -2.4633245e-01
  1.4088802e-02
  1.9203059e-01
 -1.4919606e-01
 -7.2974302e-02
 -7.7203877e-02
  3.6945647e-01
 -1.2090526e-01
 -2.1264592e-01
  1.9252962e-01
 -3.4517398e-01
 -5.4169599e-02
 -8.4975612e-01
  5.9009391e-01
 -2.1256657e-01
  5.9835553e-01
  1.0093601e+00
 -9.5944989e-01
  1.0505837e+00
 -2.3226566e+00
 -3.0399835e+00
  1.9728794e+00
 -3.9879242e-01
 -2.1373382e+00
  1.7034191e+00
  2.4522264e+00
  3.4860816e+00
  1.5780475e+00
 -2.5415938e+00
 -9.5911509e-01
  1.9254781e+00
  1.7408271e+00
 -3.6876996e+00
 -1.5114444e-01
  6.7501318e-01
  3.3835828e+00
 -3.8654664e+00
 -5.0131989e-01
 -2.5185690e+00
 -1.3934419e+00
  3.2466459e+00
  1.0372697e+00
 -9.7177374e-01
  2.0399427e+00
  4.5644218e-01
  2.3331191e-01
  3.1264201e-01
  2.7214289e-01
 -5.6601691e-01
  3.5924704e+00
  3.2855496e+00
 -5.3330928e-01
 -7.9236299e-01
 -1.8873756e+00
  9.9790061e-01
  4.6540624e-03
  2.2710247e-02
 -1.6621252e+00
 -1.1288815e-01
 -1.6743974e-01
  1.0478691e-01
  2.6325331e+00
  3.3711207e-01
 -9.5637858e-02
  8.2874902e-02
  5.7706386e-02
  7.3655635e-02
  2.2469804e+00
  9.7317830e-02
 -1.6252637e-01
 -2.6731465e-02
  4.5746185e-02
  2.8620588e-02
 -1.1119711e-04
  1.8008947e-01
  2.1178611e-03
 -4.1329440e-02
  6.5490909e-02
 -2.3585768e+00
 -4.7918721e-03
 -5.6804601e-02
 -1.5943909e-02
  9.2509374e-02
  5.0034648e-01
 -1.8097174e-01
 -8.7430887e-02
 -1.3515809e-01
  2.8547674e-02
 -1.7877536e-01
  1.2533103e-01
  1.1768580e-02
  3.0440694e-01
  1.2010163e-01
  1.2481133e+00
  3.3216476e-02
 -1.2079991e-01
  5.2188557e-02
  8.5109808e-02
  9.4574578e-03
 -8.4841780e-02
 -5.7489169e-03
 -1.7633277e-01
 -1.1084130e-01
  4.1307971e-02
  2.1827111e-01
 -6.9411020e-03
  3.0720020e-02
 -8.8389544e-03
 -1.0567593e-02
  1.6922663e-01
 -3.3551145e-02
  3.1011787e-01
 -7.7848315e-02
 -2.1539764e-01
  1.4750226e-01
  1.9681779e-01
