nep4 4 Na In C N 
cutoff 9.5 6.5 158 57
n_max 10 8
basis_size 10 8
l_max 4 2 0
ANN 50 0
 -4.2444324e-01
 -2.5069889e-01
 -3.1709290e-01
  2.2506028e-01
 -1.0510207e-01
  1.5536597e-01
  7.8066893e-02
 -3.2624683e-01
 -3.1234920e-01
  2.5061011e-01
 -2.2818138e-01
  9.1930874e-02
  2.9235208e-01
 -9.5905602e-01
  7.7518249e-01
 -5.1736814e-01
  2.3168759e-01
  5.8213836e-01
 -4.1932371e-01
  7.0102505e-02
 -2.8458634e-01
 -4.3728215e-01
  2.7196424e-02
  1.5151165e-02
  2.3362000e-01
  4.5223477e-01
  1.5245774e-01
 -7.1004033e-01
  4.5655775e+00
  1.5454461e-01
 -9.7685948e-02
 -5.9033874e-02
  2.9721713e-01
 -6.0466625e-02
 -3.0870986e-01
 -1.2077868e-01
 -3.9517589e+00
 -7.2105035e-02
  5.7077777e-02
 -4.0283937e-02
 -3.4304509e+00
 -8.0928907e-02
 -6.4343536e-01
 -2.0110439e-01
  4.4978270e-01
  1.1921014e-02
  2.2012906e-02
  5.3036207e-01
 -1.8877785e-01
 -3.9400615e-02
 -1.1135338e-02
  1.6843420e-01
  7.1386941e-02
  3.5943171e-01
 -3.3726696e-02
  2.2324005e-01
  2.9246601e-01
  8.8588309e-01
  2.0713618e+00
  1.2388391e+00
  1.9413406e-01
  1.9277994e-01
 -1.5049019e-01
 -1.1542672e+00
 -7.2065884e-01
  3.8188651e-01
  6.6719651e-03
  1.9641031e-02
 -2.3006631e-01
  2.6745227e-01
  2.7620223e-01
  3.6838622e+00
  1.5321468e-01
  6.3991308e-01
 -4.6984568e-02
  8.7134607e-02
  6.2430602e-01
 -1.1550262e-01
  2.8847754e-01
  1.2946988e+00
  1.5845996e-01
 -2.2871178e-03
  1.4909382e-01
 -2.5561973e-02
  5.4387385e-01
 -6.5780751e-02
 -1.2685594e-01
  3.1673789e-02
  2.4483581e-01
  7.5334169e-02
  5.1212907e-01
 -1.5639026e-01
  2.9993954e-01
  2.3006478e-01
 -2.5810916e-03
  2.0069714e-01
  1.4327185e-01
  3.5883379e-01
 -4.4745860e-01
 -1.6846707e-02
 -2.3873501e-01
 -9.3005940e-02
 -3.8278308e-02
  1.6614218e-01
  5.2081399e-02
 -2.5981066e-01
  3.7517643e-01
  4.9781408e-02
 -1.9137491e-01
  8.7633327e-02
  3.0134441e-03
  6.9341071e-02
 -1.8889472e-01
 -3.0681509e-01
 -4.8322555e-01
 -1.6974095e+00
  1.2781823e+00
 -1.1778648e-01
 -1.2883986e+00
  1.0733721e+00
 -2.8799783e-02
 -9.4670618e-01
 -1.0676885e+00
 -2.1235532e-01
 -1.8932673e-01
  3.2108489e-01
  2.6521721e-01
 -4.6405386e-02
 -4.4999239e-01
 -8.2941756e-02
  1.4200560e+00
 -1.0176887e-01
 -4.7716968e-02
 -4.2941213e-01
  2.7567482e-01
  1.4392814e-01
  5.1265518e-04
 -1.3419139e+00
 -1.3941373e-01
  1.0202769e+00
 -1.2261304e-01
 -1.0101411e-01
 -1.0261273e+00
 -6.1374128e-01
 -2.4913432e-01
 -6.7852795e-01
  3.7101743e-01
  3.0134680e-02
 -8.1037283e-02
  5.8341060e-02
  5.8445591e-01
  1.2565053e-01
  1.9210410e-01
  9.9737382e-01
 -1.3512424e-01
  1.3168942e+00
  6.8068430e-02
 -2.1201870e-01
 -7.3585677e-01
  1.4499158e-01
  8.2201347e-02
  8.8043459e-02
 -3.6468878e-01
 -5.4195471e-02
 -1.3033615e-01
 -3.0999647e-02
 -3.2518741e-01
 -3.6831021e-02
 -6.0268726e-02
  1.6451137e-01
 -4.5458657e-01
 -1.5111980e-01
 -4.0825587e-02
 -1.1291739e-02
  1.7155647e+00
  4.1915372e-01
 -1.1764190e-01
  5.6658417e-01
  4.9297050e-01
 -1.6866346e-01
 -4.9938461e-01
 -2.6311724e-02
 -3.2773772e-01
  4.0896592e-01
 -1.2511027e+00
  1.6331400e+00
 -7.1716309e-02
  1.4477925e-01
  2.2745526e-01
  8.0594957e-02
 -1.3173583e+00
  6.8008387e-01
  1.3278532e-01
  3.1536308e-01
  1.6592899e-01
  5.7690155e-02
 -4.4107260e-03
 -4.1658457e-02
  1.1487440e+00
 -3.0304423e-01
 -4.6664214e-01
  1.9761318e-02
 -8.1351111e-03
 -7.4674302e-01
 -1.1948381e-01
  1.0607108e-01
 -6.1944318e-03
 -2.7201486e-01
 -6.0040206e-01
 -6.1190534e-01
  2.6538554e-01
 -4.2943668e-01
  3.7523305e-01
 -3.5117874e-01
  2.8416166e-01
  2.4088199e-01
  3.0677584e-01
 -6.2439716e-03
 -4.6238944e-01
 -7.0026851e-01
  2.0918894e-01
 -9.7684103e-01
  1.5248467e-01
 -1.3096032e-01
  2.9591573e-02
  8.5581803e-01
  1.6570546e-01
 -1.6081639e-01
  4.5452636e-01
 -1.8294735e-01
  2.6933253e-01
  1.8783333e-04
  2.5148886e-01
 -1.0581616e-02
  9.5401335e-01
 -9.8273776e-02
 -5.5364835e-01
 -1.9722116e-01
  1.2837713e+00
  5.2066326e-02
  7.2112024e-01
  3.2603316e-02
 -3.8669795e-01
 -4.2242435e-01
  1.0170993e+00
  1.5080565e-01
  1.2949936e+00
 -3.6310986e-02
  1.0829636e-01
 -9.9721119e-02
  4.9265167e-01
  3.0458879e-02
  3.9571765e-01
  1.4764282e+00
 -4.8772535e-01
  5.6798118e-01
  1.5053760e-01
 -1.3210042e-01
 -2.0136328e-02
 -1.1033651e-01
 -1.7663309e-01
  6.6265327e-01
 -3.3722207e-02
  5.9383231e-01
  5.2282214e-01
 -1.8725607e-01
 -1.1913357e-01
  3.3183627e-02
  2.4110913e-01
  1.5551360e-01
  3.2560202e-01
  1.1604311e-01
  1.7839427e-01
  5.9789789e-01
 -4.7896594e-01
 -6.3894618e-01
  6.5982139e-01
  1.6359676e-01
  1.8406397e-02
  4.7657573e-01
  8.7187701e-01
 -2.7843788e-02
  6.5888709e-01
  2.8597552e-01
 -5.3626400e-01
  1.7260964e+00
  3.9809388e-01
 -6.0544003e-02
  8.6002833e-01
  9.7317070e-01
 -6.5608203e-02
 -6.5210211e-01
 -1.5714890e-01
 -3.4087589e-01
  6.0231078e-01
 -4.7157744e-01
 -2.2184685e-01
  2.1095139e-01
 -4.8404333e-01
 -6.9287762e-02
  4.0774551e-01
 -5.7105833e-01
 -2.6765013e-01
 -2.2375293e-01
 -5.1495266e-01
  1.7654870e-02
 -2.6343769e-01
  5.2560657e-02
 -2.0443963e-01
  9.9106795e-01
  2.0292161e-01
  1.1918466e+00
 -6.5739638e-01
 -1.4034374e-01
  1.3635124e-01
 -7.0839071e-01
 -3.2241574e-01
  5.6346059e-01
  1.1944318e-01
  4.6792660e-02
 -2.7227262e-01
 -4.2728844e-01
 -2.8287566e-01
 -3.7619582e-01
 -3.4512064e-01
 -8.3956182e-01
  3.8028109e-01
 -1.1799560e-01
 -4.9218301e-02
 -1.5399699e-01
 -8.8015415e-02
 -5.8597229e-02
  3.8854122e-02
  4.5679462e-01
  1.7960684e-01
 -1.5373559e-01
 -1.7371228e-01
  2.6439065e-02
  5.0698549e-01
  1.9617096e-01
  2.4376824e+00
  6.0716194e-01
 -1.6067697e+00
 -4.6081448e-01
  2.3801716e-01
  2.8227473e-02
  2.9884976e-01
  2.6336646e-01
 -5.1625413e-01
 -8.3640724e-01
  2.7879970e+00
  2.8304952e-01
  3.7709631e-02
 -5.2922034e-01
 -2.1765180e-01
  2.3758711e-01
 -1.0918984e+00
 -2.7191186e+00
  1.1320444e+00
 -2.3005858e-01
  2.9786402e-02
 -9.6464558e-03
  8.8422475e-03
 -1.0363744e-02
  2.6896563e-01
 -1.9361507e-02
 -6.6946274e-01
 -1.7750587e-02
  6.8247549e-02
  2.0430950e-02
  2.7738619e-01
 -1.8473767e-01
 -2.7842624e-02
 -2.4715004e+00
 -3.4027666e-02
 -9.3758248e-02
  8.7070572e-01
 -1.9280514e+00
 -1.6810898e-01
 -3.2037860e-01
 -1.4378757e-03
  2.7020432e-02
 -4.5635834e-01
 -2.7639705e-01
  1.2791519e-01
  1.8946781e-03
  9.8766237e-02
 -1.8534321e-01
  2.1355407e-01
  4.1278910e-02
 -1.6011125e-01
 -2.0587707e-01
 -2.2435160e-01
 -2.8380570e-01
 -3.1547302e-01
  5.1299691e-01
  3.8583332e-01
  3.8006282e-01
 -4.1546151e-01
 -4.4400208e-03
 -7.2286190e-03
 -5.2805769e-01
  3.2684792e-02
  1.0710099e-01
 -1.6311036e-01
 -3.6633703e-01
 -6.2660359e-02
 -5.4395056e-01
  4.8068726e-01
  2.3868982e-01
 -2.0423289e-01
  9.9248350e-02
 -6.9835442e-01
 -6.3034914e-02
  4.0274632e-01
  9.4107099e-02
 -3.1208277e-01
 -1.0398560e-01
  6.6983610e-01
 -1.1025352e-02
 -1.2576674e-01
  1.6277030e-01
  3.3534657e-02
  5.8362283e-02
 -1.9805769e-03
 -1.2243341e-02
 -5.7482049e-02
  1.5633895e-01
  9.7746426e-01
  8.2756020e-02
 -1.5365718e-01
 -9.8904264e-01
  4.1200127e-02
 -4.9117824e-01
 -3.3492133e-01
 -4.2574976e-02
 -1.3351340e-02
 -5.7202257e-02
  2.6726452e-01
 -2.6285771e-01
  1.7996958e-01
 -1.1074542e-01
 -1.5664461e-01
  1.1508718e-01
  2.2325543e-01
 -1.8547660e-01
  2.0114478e-01
  1.7914224e-02
  1.4512343e+00
 -5.4912442e-01
 -8.2202554e-03
 -1.5659232e+00
  3.8300121e-01
 -9.7030479e-01
 -2.9939049e-01
  2.1219287e+00
 -1.5712463e+00
 -3.3639181e-01
  1.6683402e+00
 -2.4357591e+00
 -2.1424170e-01
 -7.3570585e-01
 -3.0243399e-02
 -2.7014127e-01
  1.3199320e-01
 -2.0751035e-01
 -8.3633810e-02
  4.5713693e-02
 -2.6575887e+00
  8.6728707e-02
 -1.5589452e-01
  7.6418453e-01
  1.9060063e+00
 -3.4613389e-01
 -7.6844633e-01
 -6.0859364e-02
 -8.0327608e-02
 -1.7999959e+00
 -1.1942676e+00
 -2.0756023e-01
 -1.9651365e-01
  2.1574686e+00
  3.3764981e-02
 -5.0233024e-01
  9.9049872e-01
 -1.4094314e-01
 -1.9849800e+00
  1.1001578e-01
  7.0393336e-01
 -1.9844057e-01
 -2.4916144e-01
  7.7556956e-01
  1.8364218e-01
  1.9504145e-01
  1.0377785e-01
 -8.9612044e-02
 -1.0634921e-02
  3.8753068e-01
 -1.0706330e-01
  1.0850159e-01
  5.3913480e-01
  3.4069726e-01
  5.7827890e-01
  2.1555805e-01
  2.7270260e-01
 -1.8870035e-01
  9.5499885e-01
  1.5874085e-01
  7.5036895e-01
  2.0688897e-02
  2.0585187e-01
 -2.5913298e-01
 -6.2944120e-01
 -2.5647619e-01
 -2.5304577e-01
 -1.0567727e+00
 -1.2580366e-01
  2.6580960e-01
  5.9054041e-01
  1.4587630e-01
 -1.7805849e-01
  1.8225008e-01
 -4.3896866e-01
 -4.4373631e-01
  1.4860895e-03
 -6.4446217e-01
  1.8740425e-02
 -9.5024765e-01
  5.4508198e-02
  1.3933669e-01
  1.1484100e-02
  9.5430329e-02
  1.7843035e-01
  2.1869643e-01
  1.2422318e+00
 -5.9654540e-01
  2.7522233e-01
  1.0565370e-01
 -5.2929157e-01
  7.7815466e-02
 -4.3794155e-01
 -1.4023866e-01
  1.6245993e+00
  2.6478681e-01
 -2.2807731e-01
 -9.3257770e-02
  4.3703729e-01
  7.5118938e-03
  1.9160694e-01
 -1.3360801e-01
 -1.4114944e-04
  2.0816114e+00
  6.1185533e-01
 -3.1073773e-01
  1.8421665e-02
 -8.9164656e-01
  1.9097155e-01
 -1.7788309e-01
  1.4486189e-01
  3.3986023e-01
  4.3453619e-01
  3.8027531e-01
  6.7531884e-01
  2.4182165e-02
  8.5508846e-02
 -6.8747085e-01
 -2.4677208e-01
 -8.4084492e+00
  8.5330918e-02
 -1.3174112e-01
  3.2499813e-02
 -3.7491690e-02
  6.2356132e-01
 -1.0858989e-01
  2.6363137e-01
  1.0425679e-01
  3.7527330e-02
 -4.6788821e-01
 -1.8624122e-01
 -1.0038872e-01
  4.7889492e-03
  5.9202200e-01
 -2.5946034e-02
  1.0488676e-01
 -2.4477948e-01
 -4.7476000e-01
 -6.0084879e-01
  2.6112232e-01
 -4.0142572e-01
 -3.0634105e-01
  7.3109451e-03
  1.3856939e+00
 -1.7123330e+00
 -4.3711081e-01
  5.2219935e-02
  3.6641246e-01
 -8.9163542e-02
 -5.1077984e-02
  6.9825970e-02
 -2.1354242e-01
 -3.2425874e-01
  6.8226647e-01
 -8.6987853e-01
  1.3289998e-01
 -2.7674159e-01
  2.3397715e-01
  1.3684744e-01
  1.0666430e+00
 -1.4916302e-02
 -3.6463067e-01
  1.8196665e+00
  1.0769264e-01
  3.7054947e-01
 -2.4609784e-02
  2.3593393e-01
  1.0377931e-01
 -2.3858252e-01
  2.6652417e-01
 -2.1039288e-02
  8.5383452e-02
 -2.3112172e-01
  1.1056459e-02
 -1.8359007e-02
 -3.6170149e-01
 -6.5640056e-01
 -2.7563760e-02
  1.2404081e+00
  2.0687824e-01
  5.3530611e-02
 -2.4374852e-01
  2.8526294e-01
 -4.6515360e-01
  5.3779341e-02
 -4.9651928e+00
 -1.3862924e-01
 -8.7190904e-03
 -4.4929010e-01
  1.9249204e+00
  1.0541283e-02
 -2.2153017e-01
 -7.6760881e-02
 -3.8076234e-01
 -1.4539297e-01
 -1.8327543e-01
 -3.4279305e-02
 -4.8767900e-01
 -1.1206003e-01
  3.6705095e-01
  1.7684275e-02
 -3.8828310e-01
  1.0893692e-01
  3.3120520e-02
 -4.5342174e-01
  2.2359471e-01
  4.2337504e-01
  1.5011765e-01
 -4.0029958e-01
 -1.4470330e-01
 -9.6272118e-02
  4.2363673e-01
 -5.2248776e-01
  1.0839575e-01
 -1.5222795e-02
  1.6330241e-01
  1.0855082e-01
 -4.1207233e-01
  5.0343424e-02
 -7.9682988e-01
 -4.0597476e-02
 -1.0655021e-01
  1.1530739e-01
 -2.8746203e-01
 -1.5706238e-01
  1.2383073e-01
 -1.7992450e-01
 -2.3379280e-01
  2.2552660e+00
  8.3301044e-01
 -1.5959312e-01
 -1.8154226e-02
  8.3486475e-02
  1.8537947e+00
 -2.7774436e+00
  9.6341511e-03
 -1.8126088e-01
  1.2322723e-01
 -2.2641711e-01
  1.0680749e+00
  8.6827908e-04
  3.3920705e-01
  1.6647536e-01
  7.6185185e-01
  3.9246354e+00
  1.1754549e-01
 -3.4884778e-01
  1.1552548e-01
 -9.0145570e-01
  3.2614878e-01
  4.0892139e-01
 -4.4600379e-02
  1.4981088e-01
 -1.1833183e-01
 -1.3622600e-01
  6.4172645e+00
 -1.8894401e-01
 -4.5593745e-01
  2.5055930e-01
  1.5003580e-01
  7.9126924e-02
 -1.4464505e-01
 -3.0586633e-01
  8.1760061e-01
  4.3464094e-01
  8.7330572e-02
 -7.0887333e-01
 -3.1511572e-01
 -1.2750691e-01
 -1.5779465e-02
 -3.9952945e-02
  3.4933087e-01
 -4.3929690e-03
  2.0229270e-01
 -3.6853060e-01
  1.3462132e-01
 -2.0919822e-01
 -3.7278053e-03
  3.5217085e+00
  7.2626477e-01
  7.0209467e-01
  1.3459311e-01
 -7.2366036e-02
  2.8668624e-01
 -2.8013977e-01
 -1.4325006e-01
 -4.7571075e-01
  1.2048712e-01
 -2.4687858e-02
 -2.1332324e+00
 -5.2028924e-01
 -3.6105877e-01
  2.9765397e-01
  1.7106265e-02
 -1.1256407e-01
  8.1861913e-02
 -7.7928609e-01
  1.5677887e-01
 -5.3653646e-01
 -1.3518538e-01
  4.6382401e-02
  7.2699797e-01
 -2.1725665e-03
  2.4057662e-02
 -4.5943642e-01
 -2.8419077e-01
  6.2278032e-02
  1.3630242e+00
  2.9289210e-01
 -1.9835953e-01
 -7.8577828e-01
 -4.4123828e-01
 -2.9695565e-01
  7.3053408e-01
 -9.5720254e-02
  3.3252284e-01
  1.2029126e-01
 -2.5138429e-01
 -1.7527819e-01
  6.0449440e-02
 -2.2986171e-01
  1.3224529e-01
 -2.6963937e-01
  6.1347503e-02
  1.4954545e-01
 -1.0521723e-01
 -1.9880090e-02
 -5.1513922e-01
  5.6287523e-02
 -3.9473519e-02
  9.3739140e-01
  6.4361262e-01
  6.1947072e-01
 -2.4463698e-01
  8.6048251e-01
  7.3020132e-03
  3.1881252e-01
 -8.5176384e-01
  7.6339263e-01
 -6.2967634e-01
 -5.5578029e-01
  7.8395528e-01
  7.0380084e-02
  2.5129557e-02
 -6.6882426e-01
  7.6495302e-01
 -1.1712829e+00
  1.9445094e-01
 -3.7499523e-01
  8.6255565e-02
  1.2445576e-01
  1.5460001e-01
  3.5665411e-01
 -8.2227540e-01
 -5.3108865e-01
  5.6700188e-01
  6.1402792e-01
  9.4610161e-01
  5.4265082e-02
  1.9129769e+00
 -6.6237324e-03
  1.6408786e-01
 -5.7726610e-01
 -3.0951205e-01
  1.9040160e-01
 -3.0442276e+00
 -3.5040963e-01
 -1.1397870e+00
 -5.1104522e-01
 -5.4406142e-01
  2.3287535e+00
  9.0493751e-01
 -3.5940164e-01
 -1.1208938e+00
  5.0873363e-01
 -1.7554520e-01
 -2.1853870e-01
 -7.8960758e-01
 -1.8720557e-01
  5.8026224e-02
 -6.7131922e-02
 -6.3780200e-01
 -5.7821508e-02
 -1.9828048e-02
  5.4507369e-01
  3.6857515e-03
 -1.3136564e-01
  9.2751861e-01
 -4.6056190e-01
 -9.4678029e-02
 -4.6152985e-01
  1.5005329e+00
  2.1040238e-01
  7.8072622e-02
 -4.0367928e-01
 -8.4944941e-02
  3.7210863e-02
 -8.4465645e-02
  3.0236942e-01
 -8.8539116e-02
  1.4394352e+00
  5.7258438e-02
  5.5380344e-01
  3.1329101e-01
 -1.7029946e-01
 -1.3341642e-03
  3.7310880e-01
  3.6555794e-01
  2.4600822e-01
  1.1037900e-01
 -1.1339821e-01
  1.5943819e-01
  2.2222330e-01
  1.8373421e-01
  4.1354233e-01
  5.2506175e-02
  1.7229156e-01
  5.8320874e-01
 -2.5073454e+00
 -4.0178695e-01
  5.3107210e-02
  3.8102624e-01
  6.7235363e-01
 -2.3464458e-02
 -2.1790317e-01
 -2.0230722e-02
 -2.1822356e-02
  3.6003360e-01
 -2.8219789e-01
  9.5413670e-02
 -6.2196743e-01
  4.9219930e-01
  9.6003264e-01
 -1.3119672e-01
 -6.2296677e-02
  3.0642831e-01
 -1.6090771e+00
 -2.6869605e+00
  5.0570991e-02
 -2.6814726e-01
  1.2189833e-01
  2.8531894e-01
 -3.2089242e-01
  3.1456417e-01
  1.7062452e+00
  1.2468050e-01
  1.3894559e-01
  1.4651549e-01
  6.9052410e-01
  4.0190712e-01
 -6.0207892e-02
 -1.8833007e-01
 -4.9730697e-01
 -3.7221688e-01
 -2.0063226e+00
  4.7554111e-01
 -2.9851520e-01
  1.3289209e-01
 -3.5265169e+00
 -2.0936406e+00
  1.9952813e-02
 -3.2332798e-03
 -7.0964426e-01
 -4.4242224e-01
 -7.3215095e-03
  3.3017108e-01
  8.5030213e-02
 -3.7517555e+00
  2.3718292e-01
  2.2173302e-01
 -2.1476595e+00
 -1.2653156e-01
 -5.7829246e-02
  3.8403216e-01
 -1.3713877e-01
 -1.5368484e+00
 -4.9574274e-01
  5.5381183e-02
 -3.8745609e-01
  5.1769400e-01
  6.6601314e-02
 -9.2861235e-01
  8.3574206e-02
  6.7183769e-01
  1.8726808e+00
 -2.2159298e-01
 -1.7488973e-01
  3.6935050e-02
  2.6737985e-01
  9.9143162e-03
 -4.5837715e-02
  9.0003677e-02
 -2.7871546e-01
  9.5243968e-02
 -9.8250604e-01
  1.3624132e-01
 -6.5685079e-02
  3.0273563e-01
  5.4366124e-01
 -7.7109498e-01
  2.5315773e-01
 -1.3717729e+00
 -1.4335134e-02
 -4.0532216e-01
  3.5514596e-01
  7.8112520e-02
 -2.0943809e-01
  2.9316327e-01
  1.6620913e-01
  2.7600273e-01
  6.8141997e-01
 -1.5459986e-01
  1.6726410e-01
 -2.4827492e-01
 -3.5200235e-01
 -1.5329747e-02
  5.9000734e-02
  4.3158885e-03
 -3.2342216e-01
 -9.5677722e-01
 -9.8405950e-02
 -6.4201705e-02
 -2.1049812e-01
 -6.2226838e-01
  8.2100075e-01
  6.3382906e-01
  5.4004680e-02
 -9.2665009e-02
  4.4054300e-01
 -1.2158511e-01
  1.1388942e-01
 -6.3365921e-02
 -8.4723547e-02
 -9.6235149e-02
  2.9739928e-01
 -9.2669159e-02
 -1.1308815e-02
  3.7119955e-02
  1.2388147e-01
 -8.4625408e-02
 -9.5815468e-01
  9.3957447e-02
  1.0627897e-01
  1.4982694e-01
  6.7999005e-02
  2.4791682e-02
  9.4596632e-02
  4.5485422e-03
  2.9274753e-01
 -2.0536652e-01
 -1.6825005e-01
  1.3895322e-01
 -4.7209358e-01
  2.0367205e-01
 -4.0156298e+00
  1.9900404e-01
  1.9381633e-03
 -5.2116239e-01
 -2.6498380e-01
 -4.5041743e-01
 -2.1518884e+00
  4.3075657e-01
  3.0806866e-01
 -1.5054213e-01
  1.5149273e+00
  2.5413489e-01
  1.3417087e-01
  1.1815478e-01
 -2.3717708e-03
 -1.4343809e+00
  5.3741282e-01
 -1.4894022e+00
  8.0361046e-02
 -4.8694590e-01
 -5.6827253e-01
 -3.0841336e-01
 -3.7284407e-01
 -2.1547444e-01
 -2.3000470e-01
  6.0161304e-01
  9.3238771e-02
 -3.6954731e-01
 -2.5711957e-01
 -2.0196755e+00
  8.7522680e-01
  1.5125375e+00
 -1.4017297e-01
  6.2787372e-01
 -6.1735850e-02
  3.9189911e-01
  2.8088179e-01
 -2.8049799e-03
  1.6245005e-01
  2.6895159e-01
  2.6299696e-02
  5.4181689e-01
 -4.3021500e-02
 -3.9513302e-01
  7.8499645e-02
 -2.0083606e-01
  2.2710081e-02
 -2.3561886e-01
 -9.9952929e-02
 -1.0977545e-01
 -9.5944174e-02
 -1.3064330e+00
 -3.5961609e-02
  7.2347820e-02
  2.6633039e-01
  4.1394141e-01
 -1.8032458e-01
  5.9146684e-02
  5.8553869e-01
 -2.9944006e-01
 -1.6061890e-01
 -7.3263231e-03
  1.0945814e-01
 -8.7608155e-03
  3.3224612e-01
 -1.8145200e-02
 -9.2345767e-02
 -4.8497891e-01
  3.1160182e-01
  2.0026613e-02
  2.5916189e-02
 -6.5773368e-01
 -4.9002759e-02
 -4.5280850e-01
  5.0993484e-01
  2.0114890e-01
 -8.4497668e-02
 -5.5013608e-02
  2.1598756e-01
  2.4662097e+00
 -7.2612114e-02
  8.4984004e-01
 -1.1085131e-01
 -2.5002405e-01
  2.8441161e-01
  1.1005293e-01
 -3.3992507e+00
 -6.7746246e-01
 -1.0688820e-01
 -8.5989960e-02
  7.9493850e-01
  5.7368632e-02
  4.6567317e-02
 -1.1491322e-01
 -1.3265713e-01
 -2.0134494e+00
  3.0478036e-01
 -2.0201881e-01
  3.1362176e-01
  5.2463114e-03
  2.2322187e-01
  3.5486317e-01
  2.7589199e-01
 -1.1694278e+00
 -2.4487323e-01
  2.0937316e+00
  4.5875445e-01
  2.4996322e-01
  1.0359400e-01
  1.8325224e+00
 -4.5674178e-01
 -7.0943944e-02
 -4.1090775e-02
  2.1261473e-01
 -3.1550983e-01
  6.0100250e-02
  5.1949318e-02
 -5.0858212e-01
 -3.3709168e-02
  1.6284283e+00
 -1.7555861e+00
  2.6781291e-01
 -1.6688138e-01
  2.7756065e-02
 -1.0298779e+00
 -2.2620034e-01
  1.8380159e+00
  4.3362945e-01
 -2.9866695e-02
 -2.4708134e-01
 -2.9926446e-01
  5.1965797e-01
 -2.3001440e-01
  5.9822619e-01
 -2.1147203e-02
  3.0969051e-01
  3.1444785e-01
  8.6343086e-01
 -1.5735496e+00
 -2.5967473e-02
  3.3817923e-01
 -5.9481516e-02
 -2.4376753e-01
  4.5343086e-02
  1.0885395e-01
  1.3739756e+00
 -1.0408232e-01
 -3.2592812e-01
  4.3723568e-01
 -1.2834905e-02
  2.8230631e-01
  1.1835752e-01
 -7.3402739e-01
  1.9934675e-02
 -3.0764034e+00
 -6.6486195e-02
  2.6610848e-01
  5.0700903e-02
  5.3211027e-01
  3.7923398e+00
  2.1392071e-01
 -2.8530842e-01
 -2.9426286e-01
  4.8103145e-01
  3.4159863e-01
  3.7463498e-01
 -4.1832107e-01
  2.2459969e-01
 -2.0723522e+00
  1.2828460e-01
  4.0642187e-01
  8.9629251e-01
 -6.9043982e-01
  2.6506314e-02
  1.9291633e-01
 -1.2115798e-02
 -2.2813523e+00
  8.1435442e-01
  4.2566743e-01
  2.5483757e-01
  9.2768478e-01
  6.4750798e-02
  1.2203767e+00
  2.0561692e-01
 -5.8022946e-02
 -1.3371369e-01
 -3.0320309e-02
  5.1897514e-01
 -2.9339442e-01
  4.5939531e-02
 -2.3364201e-01
 -3.1366682e-01
 -4.3434715e+00
  6.5733917e-02
  4.1034009e-02
  1.3598808e+00
  1.8059148e-02
 -8.1681542e-02
  1.5813590e+00
  3.2049213e-02
  1.9828202e-01
  6.0676473e-01
 -3.4921208e-01
 -2.3748040e+00
  5.6730592e-01
  1.8744071e-01
 -5.9077454e-01
  3.1607974e-02
  7.3156394e-02
  2.0925059e+00
 -4.5279570e+00
  2.1187501e-01
  3.9219335e-01
 -1.6869083e-01
  2.3898181e-01
  1.8168423e-01
  1.8949920e+00
  5.7783777e-01
  7.1946669e-01
 -3.4520632e-01
 -1.6890638e-01
  8.5154593e-01
  1.7089763e-01
 -4.4211781e-01
 -3.7750319e-02
  7.1799964e-01
  3.5707775e-01
  2.1607699e-01
  1.1766987e+00
 -2.2905019e-01
  2.6617891e-01
 -4.0046686e-01
 -7.9924661e-01
  6.4262581e-01
  5.7206482e-01
  3.6979258e-01
  4.6512598e-01
 -1.2991127e-01
 -1.8442141e-01
 -2.4270380e-02
  4.5439300e-01
  1.7088769e-02
  6.0233116e-01
  3.0012965e-01
 -2.6225206e-01
  8.1831530e-02
  6.2934935e-01
  1.3150577e-01
 -1.9973317e-01
 -5.6425238e-01
  1.8492517e-01
  7.5699650e-02
 -3.2158491e-01
 -1.2375177e-01
 -5.9984583e-02
  2.8668201e-01
  2.1620445e-02
  7.4211621e-01
  9.0723984e-02
  7.7792324e-02
  2.5818819e-01
  6.9355774e-01
 -3.0512735e-01
  4.3510261e-01
  4.2551893e-01
  2.5552118e-01
 -6.6051322e-01
  3.5816440e-01
 -1.7274616e+00
  9.1215208e-02
 -1.8236960e-01
 -3.3701003e-01
  1.7442955e-01
  5.6501162e-01
  1.0779906e-01
 -3.6983663e-01
 -2.5603929e-01
  2.8580796e-02
 -5.8011925e-01
 -7.1358937e-03
 -1.1278687e-01
 -7.7974886e-02
 -1.1177773e-01
  5.3919244e-01
  5.9006717e-02
 -3.1489521e-01
 -2.7963227e-01
 -1.7385149e-01
 -7.3709762e-01
 -2.5846914e-03
 -4.5334870e-01
  1.5913744e-01
  1.7953278e+00
 -1.4327401e-01
  9.4809033e-02
 -3.6851716e-01
 -1.7424206e+00
  2.8262365e-01
  2.4377452e-01
  2.7424023e-01
  2.7918830e-03
  7.9129708e-01
  1.5589130e-01
 -5.1413793e-02
 -2.0265038e-01
  3.1783813e-01
 -1.6952522e-01
 -8.2479292e-01
 -4.0827882e-01
 -2.4761885e-01
 -1.5744469e-01
 -6.4485490e-01
 -1.1588557e+00
 -1.7819366e-01
  2.9934616e+00
 -5.5359417e-01
 -1.3478121e-01
  7.2944209e-02
  1.9256641e-01
 -4.8833542e-02
  1.9617122e-01
  4.3378338e-01
 -3.4603468e-01
  4.8396295e-01
 -3.8904530e-01
  9.8856680e-02
  3.8398078e-01
  4.0855058e-02
  2.8224802e-01
  6.3298571e-01
  9.9043742e-02
  4.5479093e-02
  2.3750460e-01
 -3.4981444e-01
 -7.4707419e-02
 -3.7512791e-01
 -1.3815977e-01
  4.2278714e-02
  5.5326544e-02
  1.0262598e-02
 -1.5150271e-01
  2.2688749e-01
 -6.6365677e-01
  1.8844899e+00
 -1.0362531e+00
 -7.3842233e-01
 -5.1027101e-01
 -2.8219421e+00
  1.3557243e-01
  1.4818553e+00
 -1.5258794e+00
 -1.2308519e+00
  1.4851863e+00
  3.3866935e+00
 -2.9273158e-01
  1.0680239e+00
  6.8491554e-01
 -5.3102916e-01
  1.0735984e+00
  1.1246357e+00
  5.5861942e-02
 -1.2199797e-01
  2.8019788e+00
  5.1677495e-01
  1.4774050e+00
  1.3750149e+00
 -2.4717321e+00
 -4.9281189e-01
  1.4537851e+00
 -4.0243831e-02
  1.3853557e-01
  1.7598785e+00
 -5.4408226e-02
  2.5448740e-01
  2.2460487e+00
 -5.5538092e-02
 -3.9710540e-01
  6.4479387e-01
 -6.2751174e-01
 -1.0815477e+00
  1.4226639e-01
  4.0800315e-01
  1.6057627e-01
  1.2727933e-01
 -2.4715319e-01
  6.5450084e-01
  1.6798857e+00
  2.9498816e-01
 -1.2824972e-01
 -1.5305100e-01
  9.1025203e-02
 -3.7458695e-03
  1.2130532e-01
  1.0372422e-01
  7.3884600e-01
  1.8098727e-01
 -9.8069958e-02
 -4.4978295e-02
 -4.2379540e-01
  4.6260843e-01
 -3.3385298e-01
  1.3073280e+00
 -1.7095916e-01
 -1.5194571e+00
  6.7881376e-01
  7.8033811e-01
 -1.5314753e+00
  2.6975197e-01
 -7.8226879e-02
 -3.1326893e-01
  1.5578584e-01
  3.7882906e-01
  2.0802312e-01
  1.9018532e+00
 -6.9592871e-02
 -5.2287173e-01
 -6.1820823e-01
  1.4431724e-01
 -3.1243771e-01
  1.8107250e-01
 -2.1134457e-01
 -9.0360868e-01
 -2.2130381e-01
  1.8104252e-01
  7.0792782e-01
 -1.5518604e-01
  4.9055762e+00
 -1.2455959e+00
  8.5018761e-02
 -1.6213421e+00
 -6.5264314e-01
 -1.5813965e-01
 -2.3226026e-01
 -6.0942996e-01
  1.5460942e+00
 -8.7406659e-01
 -9.0875846e-01
 -1.7188166e+00
  4.7147363e-01
 -4.5436896e-02
 -4.8645222e-01
  5.5079572e-02
 -1.4136493e+00
  5.2755032e-02
  1.4227936e+00
  5.6451702e-01
  2.7771676e-01
  1.9679232e-01
  4.6025973e-02
 -6.4804715e-01
 -2.1491585e-02
  3.1161016e-01
 -4.0448613e-02
 -2.6817378e-01
  3.2848224e-01
 -4.8754361e-01
  1.7744115e-02
  1.1704110e-01
 -2.7972463e-01
  7.4146643e-02
  1.1651856e-01
 -3.3221471e-03
 -9.9147214e-03
  2.0406179e+00
 -1.5956186e-01
  5.2203655e-01
  2.1351776e-01
 -5.3369105e-01
  1.0795486e-01
  1.5236647e-01
  1.3656569e+00
 -5.1836137e-02
 -2.7538818e-01
 -7.0764440e-01
  1.0896987e-01
  1.1675202e+00
  1.1037934e+00
  3.5386939e+00
 -5.1594753e-02
 -1.7317879e-01
 -1.2861407e-01
 -3.8689297e-01
 -8.6268026e-01
 -1.6506049e-01
  1.1395221e+00
  3.4241576e-02
 -4.9261433e-01
  7.4011706e-02
 -1.5277221e+00
 -1.1825076e-01
  7.7628851e-02
  4.1454282e-01
  4.2097694e-01
 -2.4696505e-01
  9.0994902e-02
  2.2446418e-01
  2.3185560e-03
  2.5926968e-02
  1.5110487e-01
 -1.8361059e-01
  3.3724499e-01
 -1.9574539e-01
  5.3071111e-01
 -1.2985318e+00
 -6.0368770e-01
  8.9555830e-02
  1.2740771e+00
  1.8213274e-01
 -2.1492937e-01
 -4.1804588e-01
  7.9033673e-02
  5.0712589e-02
 -9.0170532e-02
  2.3286241e-01
  7.3800832e-02
  1.7964767e-01
  6.5852541e-01
 -2.2492313e-01
  6.6832906e-01
  4.5159346e-01
  5.0264782e-01
 -4.8798496e-01
 -5.3570531e-02
 -2.7814442e-01
 -4.3148261e-02
  4.0336493e-01
  2.6985484e-01
 -2.6872134e-02
 -7.0168108e-02
  8.1293054e-02
 -2.9684395e-01
  1.7219590e-01
 -3.4436688e-01
 -4.1393277e-01
 -1.5196480e+00
 -1.4125700e-01
 -1.3049476e-01
 -1.5528873e-01
  3.1880745e-01
  1.1665835e+00
  2.2005665e-01
  1.3522914e-01
 -2.5341883e+00
 -1.2384608e-01
  4.5396808e-01
  4.2392839e-02
  3.5044900e-01
  2.3956901e-01
  7.3674673e-01
 -2.3245767e-01
  1.5957494e-01
  5.5780816e-01
 -1.2074394e+00
 -3.2340261e-01
 -2.4064019e-01
 -3.1213668e-01
 -2.9533137e-02
 -2.3284003e-01
  3.4136912e-01
 -1.8541217e-01
 -4.8777375e-02
  1.6726631e-01
 -4.7447267e-01
  1.7463323e-01
  8.9079186e-02
  9.2149489e-02
  8.6771625e-01
  5.6035459e-01
  1.5015105e+00
 -5.4013181e-01
 -5.9762474e-02
 -3.6295003e-01
  7.3779154e-01
  1.9464898e+00
 -4.5816159e-01
 -3.4843177e-01
  1.1123090e+00
  5.1760238e-01
  7.0514902e-03
 -4.3980461e-01
 -1.3121644e+00
  1.5735183e+00
 -1.2784635e-01
 -3.3314422e-01
 -4.7018826e-01
 -6.3653088e-01
  2.1212240e-01
 -6.6405183e-01
 -2.0658432e-01
 -1.3041105e+00
 -2.6644191e-02
  4.5379184e-02
  2.6304406e-01
 -3.7282941e-01
 -1.1636358e+00
  1.9891821e+00
  8.7995327e-01
 -1.3465043e+00
  9.6449983e-01
  2.5829482e-01
  3.0703676e-01
  9.4070897e-02
  1.2411334e-01
 -8.5739756e-01
  2.4408799e-01
 -3.7763619e-01
 -6.2048453e-01
 -2.7272978e-01
  5.4005331e-01
  5.7475197e-01
  3.8375318e-01
 -2.4323963e-02
  2.0449686e-01
  6.6724944e-01
 -1.8151049e-01
  5.6730264e-01
  3.2283446e-01
  6.5618461e-01
 -2.4436599e-02
 -4.1162094e-01
 -1.0606410e-01
  8.7454432e-01
 -2.1460041e-01
  3.8701007e-01
  1.2382385e+00
  1.9684315e-01
 -1.6627239e+00
 -2.2475027e-01
  4.9185500e-02
  3.1940094e-01
 -1.2272318e-02
 -2.0071329e-01
 -2.7841145e-01
  4.2740089e-01
  2.0366058e-02
  3.4233966e-01
  2.0729968e-01
  1.5334304e-01
  3.8202086e-01
  4.7376332e-01
 -5.9392095e-02
  6.7191362e-01
  2.9864278e-01
  1.3557105e+00
  2.9875830e-02
 -4.5646852e-01
  7.1391195e-01
  3.7461656e-01
 -3.8277784e-01
 -6.1894368e-02
 -4.4144228e-01
  1.7418938e-02
  1.3228433e-01
  9.6589696e-01
 -5.6674480e-01
  2.3807991e-01
  9.5183897e-01
  5.7916754e-01
 -1.4182986e-01
 -2.2335114e-01
  2.0608254e-01
  1.7384219e-01
  1.0106548e-01
  6.0552186e-01
 -2.4761394e-01
 -2.7519679e-01
 -2.3170526e+00
  5.1878396e-02
  4.4223648e-02
 -5.0630480e-01
  1.1330933e-01
  7.1300811e-01
 -1.8635963e-01
 -1.3387676e-01
 -8.8746508e-04
 -1.3462520e-01
  6.7652225e-01
 -3.0530509e-01
 -4.0827891e-01
  1.5469052e+00
  6.0343947e-02
  1.7260143e-01
 -1.0805933e-01
  2.2552233e-02
  3.1759414e-01
  9.8717295e-02
 -2.7234092e-02
 -6.2793240e-02
 -1.6587512e-01
  4.6815541e-01
 -4.9466919e-02
  6.0628003e-01
  7.7114239e-02
  5.5678570e-01
  4.8805743e-02
 -2.0009890e-01
 -3.5806224e-01
  3.5574657e-01
 -9.8856986e-02
  1.0012297e-01
 -5.5585462e-01
  7.4458145e-02
 -3.6584970e-01
 -1.6244553e+00
 -7.9071924e-02
  1.4520368e-01
  1.0770872e-02
  1.6191257e+00
 -2.9338148e-01
 -5.2332938e-01
  2.1180078e-01
  9.4496119e-01
 -5.2790838e-01
 -3.0437693e-01
  3.2121860e-03
  7.9625702e-01
  1.5828960e-01
 -9.6708357e-02
 -6.3876182e-01
 -1.3985777e-01
 -1.1551952e+00
  2.1586901e-02
 -1.4000720e-01
  1.2080840e-01
  2.7592415e-01
  4.5648482e-01
 -8.9975595e-02
  3.3241212e-01
  3.7928671e-01
  9.7843647e-02
 -1.9677892e-02
 -3.0713165e-01
 -9.2274316e-02
  1.2207152e-01
  9.0171013e-04
  1.5997949e-01
  2.8870904e-01
 -4.0845400e-01
 -9.2408694e-02
 -1.0257139e+00
 -5.6193656e-01
 -3.3070445e-01
 -1.2797794e-01
  1.0932047e+00
 -2.9445454e-02
 -2.0010214e-01
  1.9969073e-01
 -1.7357566e+00
  1.4843369e-01
 -2.0785452e-01
 -9.7998612e-02
  9.1356784e-02
  8.7006032e-02
  1.5053854e+00
  1.7052977e-01
  1.9199482e-01
  8.4497660e-02
  5.2208722e-02
  5.3738350e-01
  6.4413093e-02
 -1.3150889e-01
 -8.7024575e-01
  4.6908546e-02
 -7.6028353e-01
 -5.0236362e-01
 -6.2052107e-01
  1.0151898e-01
 -1.8369216e-01
 -9.6458691e-01
  4.7755399e+00
  1.1068553e-01
  3.4751287e-01
 -3.1336918e-01
  1.0772637e-01
 -3.2698176e+00
  6.9022936e-01
  4.4022623e-01
 -1.0403129e-01
  1.6446002e-01
  2.4610165e-01
  1.3203950e+00
  1.8623194e-01
 -2.6017767e-01
 -3.9484558e-01
  4.5059702e-01
 -2.2404742e-01
  8.9178103e-01
 -3.5742944e-01
 -3.9510706e-01
  8.7208587e-01
 -1.4004002e+00
  6.9904059e-02
  6.8036638e-02
 -7.1151745e-01
 -1.6032606e-01
 -2.3683460e-01
  8.3638632e-01
  1.5328260e-01
  5.0931949e-02
  6.7250925e-01
  3.0595213e-01
  3.8614273e-02
  3.4499300e-01
  1.8526053e-01
  7.8866547e-03
  5.2263457e-01
 -1.2902005e-01
  1.4829391e-01
  3.5792553e-01
 -2.2003472e-01
  3.0160931e-01
 -6.6927820e-02
  1.8621180e+00
  1.0365648e+00
  5.1376820e-01
  3.4018669e-01
 -3.1839136e-02
 -1.4445807e-01
  4.5827252e-01
  7.5128269e-01
  1.9559787e-01
 -1.9534819e-01
 -8.3153868e-01
 -2.2380807e-01
 -6.0036105e-01
  1.7548639e+00
 -3.3562645e-02
  2.1388999e-01
  2.0154600e-01
 -1.7605481e-01
 -4.1498359e-02
  8.9223629e-01
  1.4992023e-01
 -2.1044047e-01
 -3.5069284e-01
 -5.9278780e-01
  7.6237423e-03
 -8.1686354e-01
 -1.9439052e-01
 -6.9554627e-02
 -4.4669110e-01
 -3.2238964e-02
 -1.4575359e-01
 -3.3640444e-01
 -8.0424064e-01
  1.3531959e+00
  1.0548528e-01
  1.2874489e-01
  3.5321894e-01
 -4.1535243e-01
  7.1687436e-01
  3.5246558e-02
 -3.7768570e-01
 -3.4866664e-01
  1.6628683e-02
  1.2454180e-01
 -5.2989315e-02
  5.6878304e-01
 -4.6228635e-01
  2.8607833e-01
  7.9927631e-03
 -4.2871180e-01
  4.0245723e-02
  5.1273209e-01
 -1.6662158e-02
  4.6564230e-01
  2.5076967e-02
  2.7072448e-01
  1.1477731e+00
  1.8584967e-01
  4.3529879e-02
  2.5843975e-01
  1.2824531e-01
 -1.8967502e-01
  6.4769328e-01
 -5.1491493e-01
 -2.2435404e-01
 -1.4119945e-01
  7.5634070e-02
 -9.3622983e-02
 -9.9589688e-01
 -2.6229855e-01
  9.3519300e-02
  2.0136940e-01
  5.9063792e-01
 -9.7691551e-02
  5.8439320e-01
  1.0515895e-01
 -8.6700916e-01
 -1.5789767e-01
 -2.2775336e-01
  1.3335626e-01
 -4.0421173e-01
 -6.5794057e-01
  7.5483685e-03
  1.2829977e-02
  1.8814449e-01
  2.9125911e-01
  1.1883850e-01
  2.5035086e-01
 -7.6000905e-01
 -6.0121769e-01
  2.5552752e+00
 -4.8991159e-01
  9.7893924e-01
  2.4602859e+00
  1.1217415e-01
 -8.9249052e-02
 -2.6128256e-01
 -5.9266514e-01
  8.0324632e-01
 -5.1913258e-02
 -7.4065097e-02
  3.2790650e-02
  8.4355973e-02
 -5.8466350e-03
 -2.7398632e+00
 -5.8580327e-01
 -4.0871066e-01
 -7.4224390e-02
 -1.1844043e+00
  1.9826952e-01
  6.5382756e-02
  1.0991196e-01
  5.3408563e-01
  5.5514711e-01
 -2.5059745e-01
  1.0842615e+00
  1.1123172e+00
  5.8977187e-01
  2.4017712e-01
 -1.3842571e-01
 -1.2938063e-01
 -6.2224531e-01
 -3.7937990e-01
  1.3758521e-01
 -3.1111917e-01
 -4.7467265e-02
  2.8667918e-01
 -3.6508685e-01
 -1.3854744e-01
  8.6381257e-01
  3.9665714e-02
  1.5509637e-01
  9.8057377e-01
  5.4697508e-01
  1.7830421e+00
  2.2368804e-01
  2.3655663e-01
  1.6692033e-01
  2.2319588e-01
 -2.7315915e-01
 -2.7900544e-01
  1.7728460e-01
 -3.9704677e-01
  4.6468794e-01
  2.0901780e-01
  1.5813766e-01
  2.3123220e-01
  2.7730742e-01
  6.3499659e-01
  6.8630584e-02
 -1.5895635e-01
 -7.6648034e-02
 -2.4079216e-01
 -2.6775535e-02
  5.1674552e+00
 -2.3112789e-02
 -1.4648239e-01
  1.8696539e-01
  1.2462741e-01
  3.5018019e-02
  5.1358032e-01
  4.4851530e-01
 -8.8203162e-02
  2.5244290e-01
 -2.9880190e-01
  1.8205187e+00
 -2.4721626e-02
 -3.7182622e-02
 -6.6808589e-02
 -3.6881027e-01
  9.9272197e-01
 -2.0133702e-01
  2.2901753e-02
 -2.1798888e-01
  5.3484452e-01
 -1.0027212e-01
 -5.7426877e+00
  4.2985943e-01
 -8.6196892e-02
  5.7178742e-01
  3.5614690e-01
 -6.6494711e-02
 -8.5783678e-01
 -1.3083096e+00
 -2.0397936e-01
  1.3491103e-01
 -7.7426985e-02
  3.8474422e-02
  3.8234046e-01
 -4.3384886e-01
  4.7461320e-02
 -6.6977638e-01
 -2.4775857e-01
 -4.0765729e-02
 -1.2793052e-01
  3.4329852e-01
  4.8629630e-02
  5.8443081e-01
  1.1151706e-01
 -1.7327823e-01
  5.1702410e-01
  9.7282887e-01
  1.0698278e-01
 -2.1927354e-03
  7.2437353e-02
 -7.1439952e-02
  3.1192952e-01
 -1.0071754e-01
  9.0541683e-02
 -2.0713922e-01
  4.4338250e-01
 -1.7297796e+00
  6.6417269e-02
 -7.1695292e-01
  1.9119377e-01
 -7.8127511e-02
 -7.7299908e-02
  3.2841235e-01
 -1.6104074e+00
 -5.9551630e-02
  3.3623061e-01
 -1.0183086e-01
 -4.3938726e-02
 -1.3277835e-01
  5.9213784e-02
 -2.4557111e-01
  1.7289762e+00
  1.1391978e-01
  2.3955663e-01
  2.1238926e-01
  1.2522955e-01
 -3.3563966e-01
  1.6281958e-01
 -2.4451910e-01
 -2.9858732e-01
  2.7540023e+00
  2.5100368e-01
 -5.7413864e-01
 -1.6007125e-01
  2.3566365e+00
  2.9808483e-01
 -3.9576411e-02
  2.4563499e-01
  1.1304878e-01
  3.6309832e-01
  7.2851771e-01
  5.7731700e-01
  2.8708479e-01
 -1.0661520e+00
 -1.1679412e+00
 -1.9225830e-01
  8.3237499e-02
 -4.9626499e-01
  2.8500146e-01
  2.0863310e-01
 -2.6822391e-01
  6.3918960e-01
 -8.8273156e-01
  1.9776736e-01
  7.3872343e-02
  6.8151340e-02
  6.6017456e-02
  5.1366305e-01
 -4.4992395e-02
  9.9028386e-02
  2.7747920e+00
  7.2997886e-01
 -1.1159420e+00
 -1.6440111e-01
  9.8861836e-02
  2.1001348e-01
  1.0653012e-01
 -5.6659684e-02
 -5.2811700e-01
  7.8235464e-03
 -8.6930776e-01
 -3.2920432e-01
 -2.2327709e-01
 -6.0369873e+00
  2.5718325e-01
 -6.1698616e-01
  5.5495650e-01
 -5.5438615e-02
 -2.3133568e-01
 -9.1238663e-02
 -1.3397464e-01
 -6.8186086e-01
  6.0334552e-02
  1.2837513e-01
 -1.0341961e-01
 -2.5989023e-01
  8.7071496e-01
  1.5130313e-01
  1.8687333e-01
  1.0272349e-01
 -1.3415509e-01
 -4.4993529e-01
  1.3262813e-01
  5.6070030e-01
 -4.1519579e-02
  1.1481801e-01
 -3.1147569e-01
  4.0368882e-01
  3.5779187e-03
  4.2696318e-01
  4.4445300e-01
  3.9978430e-02
  1.9876964e-01
 -3.1121323e-01
  3.7158778e-01
  3.0988121e-01
 -7.8237534e-02
 -1.1300493e-01
 -1.6462502e-01
  1.4834558e-02
  2.9587859e-01
  4.3275502e-01
  1.0282215e-01
  2.2487061e-01
  7.6555699e-02
 -1.4218066e+00
  4.4852436e-02
  7.1992911e-02
  4.1755345e-01
  1.5803394e+00
 -6.4443189e-01
  2.2459778e-01
  2.5895917e-01
 -1.3100730e-01
  4.1736672e-03
 -4.0069464e-01
 -3.0610749e-01
  3.4301063e-01
  1.7178066e-01
  1.4890310e-01
 -6.4113647e-01
  1.7062689e-01
 -9.5537379e-02
 -5.1615351e-01
 -7.9258168e-01
  1.8765494e-01
 -5.8852285e-01
 -1.8189982e-02
 -2.0100432e-03
 -3.6002002e+00
  3.3216304e-01
 -4.3632823e-01
 -4.2139703e-01
 -2.0610836e-01
  3.8094825e-01
  2.1607950e-01
  8.6650026e-01
  1.1985542e-01
  3.1681722e-01
 -1.8614411e-01
 -2.8980115e-01
 -5.5869025e-01
 -1.1848143e-02
 -2.3344119e-01
 -4.4547018e-01
 -9.9287935e-02
 -7.7358045e-02
  4.6953204e-01
  7.6454383e-01
  4.3123707e-01
  2.3947659e-01
  1.7782812e-01
 -5.0977695e-01
  2.4731450e-01
 -7.6174188e-01
 -3.7168840e-01
  8.4945077e-01
 -2.2228707e-01
 -3.0598253e-01
 -1.8404739e-01
 -5.9538120e-01
 -6.5579164e-01
 -1.0834303e+00
  1.6507247e-02
  3.0249517e-02
  5.0167646e-02
  4.5127106e-01
  3.7601667e-03
  1.1342747e+00
 -1.0248456e-01
  1.0955793e+00
  1.1645031e-01
  4.3612644e-02
  2.3938815e-01
 -3.2135618e-01
  3.1258813e-01
  1.5968103e-02
 -1.6500566e+00
 -1.7801827e+00
  1.2748098e-01
 -3.1001857e-01
 -2.8597540e-01
 -1.5474330e-01
 -3.3789957e-01
 -5.0299275e-01
 -6.1039466e-01
  5.9323926e-02
 -1.5562147e-01
  2.5936642e-01
 -1.5388065e-02
  5.1945049e-01
 -1.4412192e-01
 -2.4993195e-01
 -7.8635621e-01
 -2.3507790e-01
  1.4225608e-01
  1.5544692e+00
 -9.8452307e-02
  3.6437079e-01
 -7.8117204e-01
  2.9763839e-01
  1.4826752e-01
 -1.0256892e-01
 -1.4555296e-01
 -1.6937295e-01
  1.8994950e+00
 -6.0904779e-02
 -1.8555914e-01
  3.6981139e-02
 -2.2511563e-01
 -3.2950503e-01
  3.4284917e-01
  2.4428232e-01
 -4.8014715e-01
 -3.8537392e-01
 -2.0652184e-01
  5.3246760e-01
  1.9997282e-01
  2.9297844e-01
  7.5743395e-01
 -8.3999348e-01
 -5.9712041e-02
  1.1069777e-01
 -8.2982332e-03
  6.5355897e-01
  6.4378850e-02
 -1.6606022e-01
  1.8309826e-01
  3.3289170e-01
 -3.1365186e-01
 -2.5502157e-01
 -7.1791035e-01
  9.3240112e-01
  8.5829127e-01
  2.8421208e-01
 -1.5842631e-01
  5.3659391e-01
 -5.3300587e-03
  5.5257511e-01
  8.0517441e-02
 -2.0439959e-01
  7.5253747e-02
  1.9697051e+00
  2.9626974e-01
  6.4791238e-01
 -1.0411846e-01
 -1.1259582e-01
  1.5989670e-01
  5.2135909e-01
 -2.4316813e-01
  2.3144834e-01
  9.9825788e-01
 -2.1539670e-01
  2.4399097e-01
  2.8407631e+00
  2.9576901e-01
  1.2019245e-01
  1.6921790e-01
  4.8827171e-02
 -3.6967799e-01
 -1.1094649e-02
 -6.4462692e-02
 -2.6924539e+00
 -1.5983489e-01
  1.2771215e-01
 -2.5830405e-02
 -4.0078700e-02
 -2.8789837e+00
 -3.5152319e-01
  1.0187769e-01
 -1.3023368e-01
 -2.3644571e-01
 -5.5892384e-01
  6.3968569e-01
  2.3536751e-01
 -3.9375510e-02
  3.4463939e-01
 -1.6219105e-01
 -3.5897698e-02
  5.7158101e-01
  6.4093016e-02
  2.3618568e-02
  6.0378873e-01
  2.2496772e-01
 -2.1379334e-01
  2.7288404e-01
  9.5065784e-01
  9.5967636e-02
  3.4495392e-01
  5.0771195e-01
 -1.1991881e+00
  1.8029463e+00
  7.3032141e-02
  4.6074560e-01
  3.4419882e-01
 -6.6224360e-01
 -2.0015700e-01
 -2.2750175e-01
 -5.8210079e-02
 -5.7059300e-01
 -1.4907440e+00
 -1.3613263e+00
 -2.9396549e-01
 -9.6406698e-02
 -3.9933342e-02
  2.0199001e-01
 -7.3797959e-01
  9.8844022e-02
  2.1921815e-01
  4.1865948e-01
 -1.0532257e-01
  1.4091915e-01
  3.3388376e-01
  4.1548184e-01
 -1.1723350e-01
 -1.5673207e-01
  1.1435049e-01
 -3.2880349e+00
 -5.0684071e-01
  2.4249372e-01
  9.2406571e-02
  3.6646578e-02
 -1.3503142e-02
 -1.1358844e+00
  2.2048068e+00
  3.9881563e-01
  2.5903758e-01
  4.8827639e-01
 -1.7051414e-01
 -1.5187067e+00
  1.3343388e-01
  1.5800164e+00
 -1.4402963e+00
  1.6958171e+00
 -1.0009495e+00
 -1.0100475e-01
  6.8613619e-01
  3.8017726e-01
  3.2319424e-03
  2.0629747e-01
  2.8523428e+00
  5.4325444e-01
 -4.0679866e-01
 -9.5753509e-01
  5.2670711e-01
  3.6186021e-02
 -6.6218770e-01
  8.9310512e-02
 -3.3435494e-01
  3.1495506e-01
  1.2146027e-01
 -4.6154958e-01
 -3.9875653e-01
  1.3714857e-01
 -2.9484230e-01
 -6.5225983e-01
 -3.2700151e-02
 -1.7621246e-01
 -2.4289767e-01
 -9.6102633e-02
 -3.2817665e-01
  3.4214172e-01
  9.0329543e-02
  4.3739244e-01
 -1.5392798e+00
  3.2888860e-01
 -1.6948167e-02
  1.1257149e-01
 -2.5718212e+00
  2.8159538e-02
  4.7664449e-02
 -1.7122446e-02
  8.2416898e-01
 -2.2916555e-02
 -4.0325537e-01
 -3.3679730e-01
  7.2059971e-01
  9.5249034e-02
 -4.4968885e-01
 -1.9239576e+00
  4.0740296e-01
 -1.1773703e+00
  2.8066118e+00
  1.3461323e+00
  2.4149452e-01
  2.2660023e-01
 -2.5973208e+00
  7.1665907e-01
 -2.1185741e-01
 -1.9658427e+00
  4.5299402e-01
 -9.7314996e-01
  8.6448526e-01
  4.9863473e-01
 -2.9062670e-01
  7.5389838e-01
  4.2216367e-01
 -3.1354821e-01
  2.9226711e-01
 -2.3673221e-01
 -1.5970505e+00
  8.9552927e-01
 -1.0571425e+00
  7.4475683e-02
  8.8727377e-02
  4.5032677e-01
 -9.9066816e-02
  6.6086769e-01
 -2.0119052e+00
 -4.8108003e-01
  4.1770083e-01
 -1.3122247e+00
 -5.7449335e-01
 -7.6299757e-01
  1.5650192e+00
  3.5890019e-01
 -4.6194977e-01
 -2.9324697e-02
 -1.0007668e+00
  7.5022495e-01
 -1.3225242e+00
  3.4164366e-01
 -9.9987221e-01
  2.9398063e-01
 -2.6936668e-01
  3.0635878e-01
 -4.3360266e-01
 -1.9123226e+00
 -1.8021703e-01
  4.9449307e-01
 -5.3598791e-01
  1.9597507e-01
 -2.1873650e-03
  9.1968728e-03
  3.2834160e-01
 -1.7311480e+00
 -2.1937063e-02
  1.6278744e+00
  1.5969586e-01
 -1.7312399e-01
 -1.6567580e-02
  4.1153628e-02
 -2.3602728e-02
  7.1614280e-02
  6.9112599e-01
 -1.9340627e-01
  3.0075100e-01
 -7.9868779e-02
 -1.8291889e-02
 -1.0239127e-01
 -1.6596779e+00
 -1.7425790e-01
 -2.1135676e-01
  4.1777360e-01
  8.6836189e-02
 -2.3467911e-02
  4.3024775e-02
 -2.3216027e-01
  4.6060495e-02
 -1.1359060e+00
  2.6610062e+00
 -4.6330102e-02
 -1.5158094e-01
  1.3959899e-02
  2.1263225e-01
 -5.6452179e-01
 -8.9813721e-01
 -1.5135463e-01
 -1.0364025e-02
 -3.0753511e-01
 -4.6218494e-01
 -2.1856891e-02
 -3.5517588e-02
  1.7425868e-01
  1.8543199e-02
 -3.6171366e-02
  1.4175039e-02
  1.6459957e-03
 -2.8127745e-01
 -2.6450831e-01
 -1.4802931e-01
 -1.4995749e-01
  1.9637264e+00
 -8.6411011e-01
  2.1053687e-01
  1.4086591e-02
  1.2540689e-01
  5.0427582e-02
 -5.5901098e-01
  1.1770603e-02
  3.5340434e-01
 -3.1103399e-01
  2.7198175e-01
 -1.5227623e-01
 -4.9387038e-01
  4.6342605e-01
 -4.1347393e-01
  4.0707585e-01
  5.0930887e-01
 -8.0889666e-01
 -4.4679320e-01
  3.6370764e+00
 -3.2234598e-02
 -6.6103995e-01
 -1.1421321e-01
 -1.7740554e+00
 -1.1021946e-01
 -8.6036034e-02
 -2.9673612e-01
  6.2670022e-01
  3.3359361e-01
 -5.5026338e-02
 -1.0552997e-01
  5.5297339e-01
  1.5219976e+00
 -8.9258976e-02
  9.2945373e-01
 -5.7206684e-01
  4.7308996e-02
 -1.6865720e-01
  3.4349263e+00
  7.2388098e-02
 -3.5292694e-01
  3.7292019e-02
 -3.6827460e-02
 -1.7486410e-01
  8.1200093e-02
 -2.3070915e-01
 -2.2827581e-01
  6.5244728e-01
 -8.0420263e-02
  1.1454230e-02
 -8.6353078e-02
  1.8483222e-01
  1.6824558e-02
  9.6575707e-02
  5.4838157e-01
  5.3653330e-01
  1.1012602e+00
 -1.0235964e+00
  2.3715381e-01
  1.4305587e-01
  3.7383446e-01
  4.2904875e-01
 -2.4859596e-02
  4.7778964e-01
 -3.0371013e-01
  6.5814614e-02
 -3.4699303e-01
 -3.2963406e-02
  2.3015970e-01
  6.4639337e-02
 -1.4804190e-01
  2.4117790e-02
  3.6973694e-01
  6.6233832e-01
  3.4296194e-01
  9.4794828e-01
  1.1727303e-01
 -5.4756742e-02
  2.3879471e-01
  7.3544621e-01
 -4.3911090e-01
 -1.2017983e+00
  2.4803759e-01
  2.3709467e-01
  1.0548076e-01
  2.5990389e-02
 -1.5844548e+00
  2.0483948e-01
  4.9067676e-01
  4.0888065e-03
 -4.7520816e-01
  1.5673634e-01
  2.4406931e-03
 -1.5356900e-01
  2.7341066e-02
  2.8267899e-01
  3.9343927e-02
 -4.0992680e-01
  4.6577767e-01
 -2.9708683e-02
  8.1197280e-01
  2.0906268e-01
 -8.8249594e-03
 -1.5255174e-01
  2.7160395e-02
  2.5682083e-01
  5.0791759e-02
 -3.2154950e-01
  5.1676203e-02
  1.8136455e+00
 -5.4160994e-01
 -8.4462157e-03
 -2.0553228e-02
 -4.6287376e-02
  5.7360977e-01
 -2.3691252e-01
  7.7338779e-01
  3.9136626e-02
  4.1600905e-02
 -2.5751698e-01
 -4.6173640e-02
  4.2680761e-01
 -4.7551903e-01
  5.0635201e-01
  8.4477767e-02
  3.2327512e-01
 -5.0509852e-01
  1.2366614e-01
  6.6373247e-01
 -7.3210984e-02
 -1.1772017e+00
 -1.0582890e-01
 -9.8838970e-02
  4.2293704e-01
  5.6679153e-01
 -1.2303004e-01
  1.3429655e-01
 -1.8993008e-01
 -1.1505242e-02
  1.1329812e-01
 -8.7369338e-02
  5.8935636e-01
  4.1769391e-01
 -1.6951972e-01
 -3.9522851e-01
 -3.6705050e-01
  2.4010634e-02
 -1.2075947e-01
 -3.6494312e-01
  2.3716021e+00
 -9.5381492e-01
 -1.8582064e-01
  3.3931282e-01
  2.7409479e-01
 -7.6094145e-01
 -6.6807605e-02
  1.5473302e-01
  6.4854622e-02
  5.9455180e-01
  7.8519118e-01
 -3.0734856e-02
 -2.7867523e-01
  1.2127914e-02
 -2.0372188e-01
  2.8130466e-01
  1.9393362e-02
 -5.1756788e-02
  3.2602251e-01
 -3.3541867e-01
 -4.4929686e-01
 -2.6929632e-01
 -7.5936064e-02
  2.9270577e-01
  4.0485945e-01
  6.5039599e-01
  6.6082276e-02
  2.6992935e-01
 -4.7845757e-01
 -8.8358408e-01
  1.0164109e-01
  1.5049620e+00
  1.2700696e-01
  7.5787812e-01
  8.7400377e-01
 -1.1714212e+00
  6.7507809e-01
  7.2702557e-01
  4.6607841e-02
 -4.6350005e-01
  5.3455126e-01
 -5.2185124e-01
 -1.9355226e-02
  1.8016511e+00
 -2.0150092e+00
  5.5550700e-01
  8.9685422e-01
  3.4667611e-01
  2.5482392e-01
 -6.6472910e-02
 -1.5170026e-01
 -1.6104922e+00
  1.3209734e+00
 -2.6564884e-01
  1.9977518e+00
  1.9004996e+00
  4.5753044e-01
  2.1416235e+00
 -3.4780729e-01
  1.1560724e+00
 -1.5974538e+00
  7.1848124e-01
 -2.2749099e-01
  1.9560099e+00
  2.8274066e+00
 -4.7821559e-02
  1.8340626e+00
 -2.8930080e-01
  4.2468250e-01
 -1.4015900e-01
 -5.1637048e-01
 -2.2783259e-01
  9.2090404e-01
  1.1437579e+00
  1.8560590e-01
  2.2796279e-01
  3.2417423e-01
 -2.1877030e-01
  1.8719326e-01
  1.4147110e-01
 -2.9055509e-01
  2.6121813e-01
  4.5776498e-01
 -2.2515731e-01
 -4.4432852e-02
 -2.0427895e-01
  4.3158895e-01
 -2.6240104e-01
  4.3621957e-01
  4.3285385e-01
 -3.3711338e-01
 -3.6370790e-01
  1.1568851e+00
  2.9745096e-01
 -5.7989649e-02
 -6.8994141e-01
 -4.8923174e-01
  6.5942013e-01
 -6.6741729e-01
  1.4599586e-01
  1.4088576e-01
 -3.4103328e-01
 -1.3786508e-01
  8.5029908e-02
 -2.2191037e-01
 -5.7305615e-02
  2.2718835e-01
 -5.7381260e-01
  1.7680426e-01
  3.7356129e-01
 -3.0585587e-01
  1.4443626e-01
  1.4358732e-01
  4.1788477e-01
  9.8233698e-03
  1.1581217e-01
 -2.7917281e-01
 -2.8607470e-01
  1.0121281e-01
  4.4455510e-01
  3.0738643e-01
 -2.2883965e-01
 -3.1325955e-02
  8.4696189e-02
 -1.8953572e-01
  1.9128967e-02
  3.6184650e-02
 -1.9086382e-01
 -1.0957348e-01
  6.2311441e-01
 -1.3054180e-02
 -2.5730212e+00
  2.6456067e-01
  1.1850715e-01
  3.2191899e-01
 -3.2255173e-01
  1.4312656e+00
 -8.9727864e-02
  1.8460688e-01
  1.9256059e-02
  5.5495369e-01
 -3.3911097e-01
  1.4902782e-01
 -9.0872392e-02
 -3.9843279e-01
  4.8398547e-02
 -1.2044282e-01
 -1.2034749e-01
  6.9291040e-02
 -7.9740763e-02
 -2.6137683e-01
  3.1172073e-01
 -2.1578367e-01
 -4.3750301e-01
  6.1178023e-01
 -2.4769211e-01
 -6.3121563e-01
  1.0536213e-01
 -3.9681107e-01
  3.6305544e-01
  4.2679358e-02
  7.8181559e-01
  6.9551039e-01
 -1.3091207e-01
  2.1540136e+00
  1.5617054e-02
  1.5735525e-01
 -3.2722417e-01
  6.3537318e-01
 -2.4926624e-01
  7.2422564e-02
 -4.9553271e-02
 -5.3614515e-01
  3.9107788e-02
 -2.3252885e+00
 -6.0942112e-03
 -1.9660537e-01
  4.8578012e-01
 -1.8236098e-01
  9.4603187e-01
 -3.3514062e-01
  1.5924048e-02
  2.2628262e+00
  1.1058705e+00
  6.9281089e-01
 -1.0589819e-01
 -6.9847174e-02
 -2.0223951e-01
  9.8886395e-01
  2.5585669e-01
  9.9830749e-03
  2.9679766e-01
  2.8139907e-01
  7.6682791e-02
  1.3386047e-01
 -5.7545173e-01
  2.0109825e-01
  2.2804970e-02
 -3.3081469e-01
 -4.0857092e-01
  1.3115856e-01
 -4.1782772e-03
 -1.6232243e+00
 -5.6235578e-02
 -6.9112754e-01
  1.2559403e-03
 -4.6456361e-01
 -1.3797212e-01
  9.4769463e-02
 -3.3504706e-02
 -9.9626851e-01
 -1.5714256e-01
  1.2113301e-01
  3.7911478e-02
  3.3579105e-01
 -8.2164645e-02
 -2.6758921e-01
  4.8073065e-03
 -5.2343416e-01
  1.4062166e-01
  6.6672778e-03
  3.7654531e-01
  6.9518842e-02
 -1.6463611e-02
  5.7912953e-02
 -2.8367763e-02
 -7.1098894e-01
 -5.2308172e-02
  9.9857002e-02
  5.3017378e-02
 -1.3656142e+00
  4.8130594e-02
  7.8108019e-01
  5.6086648e-01
 -8.5415137e-01
  1.3046956e-01
  2.6817044e-02
  3.7672314e-01
  3.5922280e-01
  1.6173473e-02
 -4.3439168e-02
 -7.3196930e-01
 -1.9833744e+00
 -1.2445368e-01
  1.6383700e-01
 -1.1849596e-01
  7.5649273e-01
  5.3076468e-02
 -2.7472299e-01
  1.6116059e-01
  1.9144194e-01
 -1.8697961e-01
 -5.9725609e-02
  8.8455653e-01
 -1.0044988e-01
  9.5521502e-02
  4.0113610e-01
 -1.8109518e+00
 -7.0603210e-01
  7.2301072e-01
  2.9479021e-01
 -3.3546001e-01
 -3.4981153e+00
  2.5718945e-01
 -2.6724204e-01
 -9.4342017e-01
 -1.3760509e-01
 -3.9033630e-01
 -1.0706338e-02
 -9.0797585e-01
  4.5061925e-01
  4.4375098e-01
  1.0306350e+00
  7.4383795e-02
  2.3899343e-02
 -2.6802728e-01
  1.1816555e-01
  1.6357408e-01
 -3.3604011e-01
 -1.4213105e-01
  3.9697793e-01
  2.2636491e-01
 -1.5642259e-01
 -3.8145732e-02
 -3.6140838e-01
 -3.1989969e-02
  2.4423473e-01
 -1.7941935e-01
 -1.2239558e+00
 -2.6400092e-01
 -5.7528985e-01
 -7.6022297e-03
 -2.5221467e-01
  1.5618139e-03
 -2.2619505e+00
  1.6106920e-01
 -2.0909365e-01
  9.2174634e-02
  2.1613276e-01
 -7.6870763e-01
  2.6129901e-01
 -5.3844237e-01
  2.3609634e-01
  3.4760697e+00
 -8.9836431e-01
  6.8336493e-01
  1.0165865e+00
  1.9100633e-02
  2.1418719e-01
  1.8806756e-01
  1.9956264e-01
 -7.6676786e-01
 -4.0561670e-01
 -3.9621097e-01
  1.7315286e-01
 -3.4627879e-01
 -2.1239979e-02
  2.7749097e-01
 -1.0618304e-01
 -2.4919766e-01
  3.5322547e-01
  7.6683903e-01
  9.7779250e-01
 -2.9843956e-01
  1.7261375e+00
 -1.1198495e-01
 -6.0099632e-01
  1.3465397e-01
 -2.3828495e-01
 -5.3182352e-01
 -3.5954325e+00
 -3.8380753e-02
  3.1232312e-01
 -8.9733166e-01
  6.1365944e-01
  2.9698932e-01
  2.1468368e-01
 -7.4656630e-01
 -3.9261258e-01
  1.0643151e-01
  1.2085215e-02
 -1.0921132e-01
  3.5752612e-03
 -2.8206479e-02
  6.6410816e-01
 -2.7207136e+00
 -8.7816226e-01
  1.8481269e-01
 -8.0570334e-01
 -3.7076399e-01
 -3.4660384e-01
  2.8448281e-01
 -3.4039311e+00
  3.5188567e-02
  5.0154697e-02
  7.2464681e-01
 -4.8820958e-01
 -3.6600974e-01
  1.7811653e-01
 -7.1152055e-01
  1.9131142e-01
  2.0391677e-01
  4.9208558e-01
  2.3119615e-01
 -6.3828550e-02
  1.7454617e+00
  8.1581235e-02
 -3.3509797e-01
 -1.5606689e-01
 -1.3390820e-01
 -1.4181121e-01
  1.1338651e-01
 -5.4507378e-02
 -3.8019247e-02
  1.9809429e-01
  8.1170917e-02
  3.6080182e-01
 -1.2411327e+00
  1.4437194e-01
  1.5747629e-01
 -5.0565201e-01
 -1.3218911e-01
  9.0731156e-01
 -2.5718310e-01
  5.7408762e-01
  1.4726530e+00
  4.2023292e-01
  8.2593717e-02
  7.7355975e-01
 -5.9467787e-01
 -3.7184594e+00
 -3.2137841e-01
  1.6853364e-01
  1.7451700e+00
  4.1807714e+00
  4.9464975e-02
  1.1304637e+00
 -5.5880053e-03
  2.3760214e-02
  6.6910827e-01
  3.6449412e-01
 -3.0429095e-01
 -1.2660984e+00
  3.3988169e-01
 -2.2406067e-01
 -1.4828213e-02
  1.6035514e-01
 -2.2286361e-01
 -7.0000267e-01
  1.1797243e-01
  1.0542630e+00
  3.7658438e-02
 -5.6261468e-01
 -2.4578426e-02
  7.5262144e-02
 -1.3414348e-02
  1.1351643e+00
  1.2540391e-01
  2.0459774e-01
  3.3525610e-01
 -2.0954490e-02
 -3.2660437e-01
  9.6244179e-02
  2.0974730e-03
 -1.2338478e-02
 -1.7528113e+00
 -7.4962139e-02
 -4.6941024e-01
 -6.1985171e-01
 -5.7781941e-01
  8.7223731e-02
 -8.9729227e-02
 -4.3539888e-01
  1.3716458e-01
 -4.6758291e-01
 -2.1664418e-02
 -3.1449184e-01
  1.6877857e-01
 -2.5650716e-01
  2.2013138e-01
 -3.2465696e-01
 -8.1247510e-03
 -5.6100097e-02
 -3.6606795e-01
 -6.3994788e-02
  2.1699779e+00
  7.5081863e-02
 -5.1334105e-02
 -1.3652386e-01
  3.3848619e-01
 -3.6583260e-02
  1.0077463e-01
  3.7596777e-01
 -6.5877038e-01
  3.2143214e-01
 -1.8644303e-02
  6.3048714e-01
 -1.3982364e+00
 -2.0831093e-01
  1.0560847e-01
  7.3955232e-01
  8.3680019e-02
  1.2656465e+00
  4.3588158e-01
 -1.1609389e+00
  1.2929972e+00
 -7.4284768e-01
  6.8120122e-02
 -1.6981450e+00
  1.1101592e+00
  1.0510248e+00
  5.3741479e-01
 -6.5204501e-01
 -1.3573350e+00
 -1.0426884e+00
 -6.7155749e-01
 -7.9531163e-02
  2.7525816e+00
 -4.2060369e-01
  1.6583341e+00
  3.6642236e-01
  9.2017025e-01
  5.5954891e-01
  1.0335782e-01
  3.3536753e-01
 -1.4497187e+00
 -3.4666866e-01
 -2.4490771e+00
  4.6089653e-02
 -2.3667720e-01
  1.0523816e+00
 -3.3652768e-02
  3.2659508e-02
 -4.9627808e-01
 -2.4409308e+00
  1.6306043e-01
  3.1376547e-01
  9.6429747e-01
  1.5284252e+00
 -1.6489673e-01
  2.0101050e-01
  9.2412844e-02
  4.1763604e-01
  1.1342723e-01
 -1.6360512e+00
 -1.2669561e+00
 -4.2914593e-01
  5.8423203e-01
 -1.8375099e-01
  1.4772113e-01
 -9.9204063e-01
  3.9436080e-02
  6.4992595e-01
  1.7063608e+00
 -3.5821545e+00
  1.9352280e-01
 -5.3948557e-01
  1.1783642e-01
 -8.0626553e-01
  2.3343291e-03
 -3.9537936e-01
  5.6427157e-01
  6.3181686e-01
 -2.6730726e+00
 -2.3904654e-01
  1.8072654e-01
 -1.0181171e+00
  9.1555536e-01
 -1.0859303e-01
 -1.5284659e-01
  2.1564236e-01
 -9.4009030e-01
  2.1583235e-01
 -1.7234163e-01
 -3.2687148e-01
 -2.5583556e-01
 -2.8649029e-01
 -2.9298809e-01
 -3.8827258e-01
 -1.0176011e+00
 -3.2961622e-01
  1.6596271e-01
  4.9873662e-01
  4.3481967e-01
 -3.0494735e-01
 -4.0440705e-01
 -4.6881372e-01
 -3.4885243e-01
  1.8921819e-01
  3.1587739e-02
  2.6808205e-01
 -1.0664543e-01
  2.4913801e-02
  2.9719895e-01
  6.9303587e-02
 -4.8171576e-02
 -7.7145320e-01
 -1.0906396e-01
  3.4040919e-01
  5.7254690e-01
 -9.1460519e-02
 -4.6124655e-01
 -3.6024764e-01
  1.2959450e+00
  7.7795273e-01
  1.0040489e+00
  5.8391266e-02
  2.5626427e-02
  2.2882590e-01
  3.1618392e-01
  3.3067867e-02
  4.0654114e-01
  8.0085650e-02
 -2.9046783e-01
 -6.4010006e-01
  1.4748716e-01
 -3.8450841e-02
  6.4694184e-01
 -1.7266777e-01
  3.5793105e-01
  5.6674823e-02
 -8.2015234e-01
 -6.2188888e-01
  1.1894330e-01
  1.7929885e+00
 -2.9659671e-01
 -1.7861997e-01
  1.0257470e-02
  9.6323825e-02
 -3.4557633e-02
  4.4855750e-01
  8.8655818e-01
 -3.9469564e-01
 -2.4285455e-01
 -1.0898146e-01
 -3.0724841e-01
  4.8340068e+00
  1.5422921e+00
  2.6626343e-01
  4.9705574e-01
  3.3887359e-01
 -5.2043840e-02
 -1.4352785e+00
  4.8181310e+00
  3.4249148e-01
  1.2352060e-01
 -1.2237672e-01
  5.6852736e-02
 -3.9689460e-01
 -1.8996605e-01
  2.7422848e-01
 -2.1034008e-02
 -2.3614569e+00
  7.0869583e-01
  4.8581609e-01
  7.9351805e-02
 -3.2426438e-01
  8.6508133e-03
 -1.1674799e+00
 -7.0098108e-01
  4.1837100e-02
 -8.4810006e-03
 -8.5251164e-01
 -1.4872142e+00
  1.7317757e-01
  1.8715121e-01
 -9.2735946e-01
 -3.9793655e-01
 -2.9915693e-01
 -8.5025869e-02
 -2.0230125e-01
  5.7247478e-01
  1.6443739e+00
  1.2252138e+00
  2.4735819e-01
  1.2639151e+00
  3.6964200e+00
 -7.1328080e-01
  8.5436231e-01
 -1.4494263e+00
  1.8990570e-01
  3.5784864e-01
 -1.3430302e-01
  3.1960765e-01
 -6.1353538e-02
  2.9399970e-01
 -1.8705729e-01
 -2.8150165e-01
 -1.2239540e-01
  6.6054207e-01
 -9.3323477e-02
 -3.0756788e-02
  2.7854487e-01
  9.1306672e-02
  4.8216406e-02
 -2.4728200e-01
 -7.0870019e-02
 -2.5576809e-01
  2.8494599e-01
 -4.3760824e-01
  9.9928546e-01
 -1.7612839e-02
  2.8643704e-03
  5.0778449e-01
  2.6057398e-01
  2.8339216e-02
  1.0561141e-01
 -3.0496740e-01
 -6.5906763e-01
  1.6240682e-01
 -1.1559308e-01
 -3.1535741e-02
  1.6850463e-01
 -7.0660365e-01
  7.4995965e-02
  1.2740996e+00
  1.0562502e+00
  1.6155235e-02
  1.2274522e-01
 -1.9774097e-01
  5.5477027e-02
 -1.7547895e-01
 -1.7963004e-01
 -6.7842054e-01
 -1.5939273e-01
  1.0873442e+00
  2.1607177e-02
  6.5350813e-01
 -1.2715407e-01
 -6.3600458e-02
 -3.5065819e-02
  5.5155772e-01
 -1.9896029e-01
 -4.4024524e-01
  7.1439457e-01
 -1.5610808e-01
 -5.7107121e-01
  5.7170582e-01
 -1.5223803e-01
 -3.1449237e-01
  2.2551581e-01
 -8.8411814e-01
 -1.8654586e+00
  3.9846480e-01
  9.6287394e-01
 -4.7919604e-01
 -1.5034947e-01
  2.0780908e-01
  1.1807933e-01
  1.5301168e-03
 -3.9411953e-01
  1.8311685e-01
  1.9569243e-01
  7.9197176e-02
 -4.2549518e-01
  8.6423181e-02
 -7.0500845e-01
 -3.9399227e-01
 -1.4145163e-01
 -2.1359611e-01
 -1.4086026e-01
 -2.5967216e-01
 -6.6942853e-01
  2.1094081e+00
 -5.6828856e-01
 -2.5070664e-01
 -4.3108542e-02
  1.6848089e-01
 -8.0144298e-01
  2.7114298e-02
  3.3705454e-02
 -2.4876367e-01
 -3.1683575e-03
  4.7021484e-01
  1.4341643e-01
 -2.7322967e-02
 -2.5722485e+00
 -1.0643695e-01
  1.1360412e+00
  5.5018222e-01
 -2.2216358e-03
  3.8304046e-01
 -1.7401437e-01
  1.0940725e-01
 -2.7312502e-01
 -7.0499197e-02
  4.4232231e-01
 -4.6067521e-01
  7.6144338e-01
  1.1763578e-01
 -4.6199837e-01
  1.0889308e-01
 -7.3496890e-01
  3.2430943e-02
 -1.8518850e-02
 -2.6781499e-01
 -4.2585809e-02
 -7.1806625e-02
  4.9255624e-01
 -8.7093896e-01
  1.8109451e-01
 -6.0260348e-02
  4.6672991e-01
  3.6243748e-02
 -4.9225894e-01
  5.6243502e-02
  1.7075104e-01
  2.3850609e-01
  4.6323199e-02
  2.1579145e-01
 -4.6352983e-01
  3.1388756e-02
  7.9055935e-02
  1.0965003e-01
 -5.2746570e-01
  6.3362879e-01
  1.1555566e-01
 -4.6740466e-01
  2.3543002e-01
 -2.6187470e-02
 -2.0723778e-01
 -5.0730693e-01
  6.4073312e-01
  7.6215662e-02
 -4.0850464e-01
  2.1720584e-01
 -1.9313727e-01
 -3.7623444e-01
  1.4097491e-01
 -3.2853144e-01
 -6.5530330e-02
  2.2813137e-01
 -1.6764608e-01
  2.8846484e-01
 -8.7523466e-01
  2.5827965e-01
  3.8642865e-02
 -6.3480437e-01
  4.9181014e-01
 -4.4320336e-01
  8.7549619e-02
 -2.7848014e-01
  8.1055444e-01
 -6.6180527e-01
 -9.7229320e-01
  2.1888956e-01
  1.2379569e+00
 -6.1964852e-01
  3.0760539e-01
  1.5277143e+00
 -1.9043523e+00
  8.4473133e-02
  1.1785097e-01
 -1.0525468e-01
 -1.7066321e-01
 -2.4646142e-01
 -3.0391175e-01
 -1.1269926e+00
  1.9763789e-01
 -2.2543157e-02
 -4.4925016e-01
  1.4132075e-01
  5.5305225e-01
  1.7352308e+00
 -7.0189402e-02
  1.1287691e-01
  2.0901281e-01
 -3.0125701e+00
 -7.2008306e-01
  1.7405826e+00
 -1.0719607e-01
 -2.3584073e+00
 -9.5447558e-01
  2.7823853e-01
  5.2109885e-01
 -6.2479967e-01
 -1.7208198e-01
 -9.4803097e-04
  5.2090973e-01
 -4.2544931e-02
 -5.4582280e-01
  5.3249419e-02
 -1.1590530e+00
 -1.7280601e-01
  2.2495110e+00
 -3.8010803e-01
 -3.5736421e-01
 -2.2188501e-02
 -4.6187691e-02
  5.5009428e-02
  6.0247254e-01
  4.5578247e-01
  2.0169561e-01
  2.8641519e-01
  2.5065156e-02
 -1.7157800e-01
  1.6149263e-01
  1.9834892e-01
  1.8844683e+00
  7.9505992e-01
 -2.7187818e-01
 -3.8757837e-01
  1.1340684e-01
  8.8868469e-01
 -9.7620152e-02
  2.6112673e-01
  1.5882379e+00
 -9.2718154e-01
  7.2796486e-02
  2.6343552e-02
  1.4103158e-01
 -2.7325711e+00
 -9.1315985e-02
 -5.6701537e-02
 -3.0114559e-02
 -3.8541716e-01
 -2.5409037e-01
  1.5598921e-01
  3.9786485e-01
 -5.8576906e-01
  1.4160596e-01
 -7.3600543e-01
  3.8469754e-02
  5.0336945e-01
  7.7336289e-02
  3.3868784e-01
 -4.0868470e-01
  1.8249004e-01
  1.7945940e-02
  1.3006283e-01
  1.5137767e-02
 -4.8635709e-03
 -2.2570290e-01
 -9.5904166e-01
 -3.9104378e-01
 -2.9616314e-01
  5.3227061e-01
  3.0825052e-01
 -2.3762883e-01
  4.7394699e-01
 -1.2095834e-01
 -3.0052754e-01
  3.6150369e-01
 -1.7437743e-01
  9.3910944e-01
 -1.4960262e-01
  5.3741980e-01
 -5.5700306e-02
  1.4951549e-01
 -8.8683593e-01
 -3.3097109e-01
  1.1032426e-01
  9.5647830e-01
 -3.4587902e-01
  5.3402603e-01
  2.4842146e-01
  1.0387226e+00
  2.3114395e+00
  1.7685890e+00
  1.0482777e+00
  2.0828886e+00
 -4.5272842e-01
 -2.5258601e-01
 -2.6143268e-01
  2.0705588e-01
 -1.9615883e+00
 -1.9272608e-01
  6.7204952e-01
 -4.5423102e-01
 -5.2605599e-01
 -1.2766938e+00
  5.2218597e-02
  1.5065587e-01
  1.6205987e-03
 -7.2042215e-01
 -2.9362771e-01
  1.3670452e+00
  4.8547447e-01
 -1.3508968e+00
  3.4424794e-01
 -1.0961124e-01
 -5.8515108e-01
 -4.7025067e-01
  4.6354089e+00
  3.1844269e-02
  1.3039837e+00
 -4.7247583e-01
 -1.1233699e-01
 -1.0007225e+00
 -4.9028301e-01
  8.1244910e-01
  1.0058735e-02
  8.2253414e-01
 -1.3817294e-01
  1.7098701e+00
  3.3813715e-01
 -3.1186438e-01
 -1.1624818e-01
 -1.4237522e-01
  7.8713870e-01
 -1.5418267e-01
  9.6863553e-02
 -1.1398248e-01
 -2.1666498e-01
 -9.0526715e-02
 -2.4504951e-01
  1.1795251e-01
  1.7195320e-01
 -8.2761633e-01
  2.5957444e-01
 -6.4390719e-02
  1.4480573e+00
  1.1321660e-01
 -5.4664415e-01
 -2.5659919e-01
 -8.5795724e-01
  8.4533048e-01
  4.6736380e-01
  3.8949960e-01
 -3.4488633e+00
 -5.4185486e-01
 -4.2793316e-01
 -4.5142728e-01
 -1.6580155e-01
  8.4142402e-02
 -5.2370768e-02
  1.5936332e+00
  2.0169611e-01
 -7.4211407e-01
  2.5556055e-01
  2.1320527e-02
 -3.8579673e-01
  6.6222745e-01
 -2.5418466e-01
 -4.3620649e-01
  7.2584319e-01
  9.6646655e-01
  6.0980177e-01
 -6.2561411e-01
 -2.9257047e-01
 -2.8298968e-01
  1.2171964e-01
  2.0098734e-01
  1.5585379e-01
  5.5701250e-01
 -3.7159318e-01
  6.3016325e-01
 -2.3286791e-01
 -2.3827046e-01
  2.1186892e-02
 -2.1133354e-01
 -4.1517821e-01
 -1.2580240e-01
 -4.0609142e-01
 -7.8895055e-03
 -4.0696818e-02
 -4.7671389e-02
 -2.3397441e-01
 -2.2064210e-01
  4.4603284e-02
  2.0059197e-01
  9.8459283e-03
  6.3216084e-01
  3.9834831e-02
 -1.2392360e-01
 -5.9945554e-01
 -1.3455537e-01
 -4.3755960e-01
 -1.6357777e-01
  6.2897496e-02
  1.9853400e-01
 -5.2843189e-01
  2.9038242e-01
  5.7383873e-02
  1.8608718e-01
  3.4109190e-01
  1.5680352e+00
 -2.5891963e-01
 -6.3815910e-01
 -5.5137295e-02
 -1.0825564e+00
 -1.1149692e-01
 -1.1864585e-01
  1.6062481e-03
  3.1053603e-01
 -6.9102573e-01
  2.8910339e-01
  1.3141043e-01
 -3.4308469e-01
  3.3212805e-01
 -6.7501307e-01
 -1.8241300e-01
  1.0836449e-01
  1.7647566e-01
 -8.6305553e-01
  1.8706036e-01
 -1.7649187e-01
  1.8773182e-01
  2.7732280e-01
 -7.9479381e-02
  1.4201961e-01
  3.1218636e-01
  5.8308876e-01
  5.1878452e-01
 -1.5744594e-03
  3.2186444e+00
  9.4757307e-01
 -2.3263776e+00
  7.0581093e-02
  7.5704409e-03
 -1.4084451e-01
  5.3017831e-01
 -2.9544365e-01
 -4.5217645e-01
 -4.7475319e-02
 -4.8132288e-01
  1.4379326e-01
  3.2364810e-01
  1.6722739e-01
 -3.6584835e-02
  1.0005108e+00
 -3.0040032e-01
 -2.4558474e-01
 -7.0487738e-01
  1.0637344e+00
  3.1709567e-01
 -2.6451627e-02
 -8.0525231e-01
  2.2201705e-01
  2.2240262e-01
  2.4431169e-01
  8.6128306e-01
  1.0346229e-01
 -4.6745810e-01
  2.0998919e+00
 -3.6563262e-01
 -9.6858191e-01
  1.7701113e-01
 -2.6076343e-03
 -1.7242703e+00
 -2.9682177e-01
  3.2791322e-01
 -1.9664568e+00
  5.5983096e-01
  1.4081126e-01
  2.6808538e+00
  3.8296100e-01
 -3.0603790e-01
 -7.1618542e-02
 -5.4409188e-01
 -2.7290684e-01
 -1.4105461e-02
 -1.5219119e-01
  4.5207042e-01
 -7.5014085e-01
  1.7474763e-02
  3.1128852e-02
  3.4288626e-02
  4.5007819e-01
  3.8479213e-02
  2.7537295e-01
  3.5692015e-01
 -4.2636326e-01
 -5.8400887e-01
  5.2231079e-01
 -3.1399021e-01
 -5.8711374e-01
 -4.5166031e-01
 -4.5478415e-02
 -5.8302511e-02
 -1.4806792e-01
  3.1561762e-01
 -3.8222557e-01
  2.0131420e-01
  2.6763475e-01
  2.6140249e-01
  5.1336348e-01
  3.6098036e-01
 -1.8113465e+00
 -2.9101464e-01
 -6.5727541e-03
  1.6784723e+00
  4.8623392e-01
  1.6098087e-01
  1.7398477e-01
  4.4047070e-01
 -5.7895428e-01
 -7.7629924e-01
  6.2252380e-02
  2.0914896e-01
 -2.3852485e-01
 -4.5273662e-02
  1.1369961e-01
 -1.5009113e-01
  4.0207052e-01
  4.4014528e-01
 -4.7296342e-01
  1.1142131e-01
  9.1452971e-02
 -4.8879068e-03
  4.2497415e-02
  1.6747060e-01
  1.0574425e+00
 -6.2045455e-01
  2.1898836e-01
 -6.4312071e-01
  1.4538385e-01
  3.6159319e-01
 -9.0885419e-01
  3.0120635e-01
  1.1043962e+00
 -6.6204995e-01
  4.5808259e-02
  1.0927913e+00
  5.4793936e-01
 -7.0649728e-02
  5.9684664e-01
 -1.8249437e-03
  5.3751752e-02
  3.4190518e-01
  6.5239245e-01
  2.5565898e+00
 -3.2850993e-01
 -2.4036288e-01
 -1.3162100e-01
  6.6513085e-04
  2.8818803e+00
  3.1636807e-01
 -5.2368470e-02
  4.6191584e-02
  3.3221292e-01
 -1.7806649e-01
  3.7736031e-01
 -1.9822515e+00
 -2.2216268e+00
  1.4226071e+00
  1.9335792e+00
 -1.3832544e-01
 -6.0116833e-01
  4.7567010e-01
  3.2833912e+00
  9.6438706e-01
  8.6592102e-01
  8.3761349e-02
 -1.8984052e+00
 -2.7828321e-01
  6.3435420e-02
 -1.0836834e-01
 -2.3012914e-01
  1.7266594e+00
 -1.9422533e-01
 -3.5807087e+00
  7.8012013e-01
 -1.2554303e+00
 -2.3474646e+00
 -6.3333887e-01
 -1.9732109e+00
  7.3369540e-02
 -9.9760461e-01
  2.8851348e-01
 -2.4880099e+00
 -2.2167464e-01
 -5.6569725e-01
  2.3401814e-02
  1.3044627e-01
 -8.6659811e-02
 -6.5974700e-01
  3.9557489e-03
 -2.2185948e-02
 -3.5544376e+00
 -1.8295306e+00
 -3.1168607e-01
  3.6069223e-01
  4.9639067e-01
 -2.4803848e+00
 -2.2715640e-01
  5.4193383e-01
 -1.7662838e+00
 -3.6043174e+00
  1.0636820e+00
 -1.2975986e+00
  6.2339073e-01
  2.3603895e-01
 -2.5158307e-01
  1.7410673e-02
  1.5236018e+00
  3.5045552e-01
 -4.9993068e-01
  2.9226625e-01
 -7.0643492e-02
 -2.1547160e-01
  8.9212358e-01
  5.3044036e-03
 -5.4990911e+00
  2.7735037e-01
 -1.6600114e-01
 -3.3212876e-01
 -2.5031531e+00
  8.5273914e-02
  7.6681152e-02
 -3.4253202e-02
 -1.6944090e-02
  1.6161606e-01
  2.6856199e-01
  3.3695761e-02
 -2.6366234e-01
 -6.3082242e-01
 -2.7834620e-02
 -3.0105317e-03
 -2.2495146e-01
  2.2099167e-01
 -5.7714783e-02
  2.3696411e-02
  3.2507536e-01
 -8.3767891e-01
 -1.3436958e-01
  5.7025844e-01
  3.5879481e-01
 -2.3482633e-01
 -5.5035051e-02
 -7.2618484e-02
 -2.6381448e-01
  3.6077735e-03
 -6.9838248e-02
  3.0252999e-01
  4.7651941e-01
 -8.9191785e-03
 -3.3000508e-01
 -1.0431588e-01
  5.0020242e-01
  1.0539079e-01
 -5.7319630e-02
  1.2636469e-01
  2.9766464e-01
 -1.0883970e+00
 -3.7093934e-02
  2.2088395e-01
 -1.2517877e+00
  9.1248047e-01
 -1.4966829e-01
  1.3959670e-01
  1.8592636e-01
  5.3517669e-01
 -3.8863453e-01
  1.8141829e+00
 -3.1731054e-01
  2.8100669e-01
  1.2169247e+00
  1.7683827e+00
  1.7301936e+00
  7.0284319e-01
 -1.8810654e-01
  3.5529363e+00
 -4.0498605e-01
  1.1421082e+00
 -1.1791435e+00
 -5.0441559e-02
 -1.0795636e+00
  7.7570313e-01
 -9.0915561e-01
  8.2166779e-01
  4.2159745e-01
 -1.2897002e+00
  7.5286245e-01
 -9.2572421e-01
 -3.2010722e-01
 -8.3409375e-01
 -5.3703821e-01
  9.5412689e-01
  2.6676536e+00
  2.2350950e+00
 -1.4642519e+00
 -1.2839004e+00
 -2.9871407e-01
 -6.4423703e-02
  2.5020275e-01
  8.1206656e-01
  2.1899672e-01
  1.7078532e+00
  3.6034700e-01
 -1.1669524e+00
  1.4837213e-01
  1.1377360e+00
  5.2028894e-01
  9.3076551e-01
 -1.1514936e-01
  1.2346827e+00
  4.9216342e-01
 -1.3591596e+00
 -4.7894663e-01
 -3.4619222e+00
  2.5925836e-01
 -8.5669629e-02
  1.4177343e+00
 -7.6401794e-01
 -3.5278939e-02
 -3.2642034e-01
  4.2825650e-02
  5.9436882e-01
 -2.0247576e-01
 -4.7326166e-02
  1.5055235e-01
 -4.2783698e-01
 -1.7993498e+00
 -3.7108514e-02
 -2.4905385e-01
  3.3560395e-01
 -1.3905372e-02
  2.1668574e-01
 -1.1065747e+00
  2.9439702e+00
 -1.1804014e-01
  1.0143568e-01
 -7.2044469e-03
 -1.4507866e-02
 -3.0889863e-01
  8.3304718e-03
  4.8148358e-01
 -6.3569918e-02
  2.3667759e-01
  1.2552386e-02
 -3.5090435e-01
 -6.0651386e-01
 -5.0880663e-02
  1.3850820e-01
 -1.8193457e-01
  3.1440783e-01
 -2.4257842e-01
  2.4623162e-01
 -6.7333543e-01
  9.0046495e-05
  3.5463370e-02
 -1.8811392e+00
 -6.0635942e-01
 -1.2522289e+00
 -2.7930096e-01
  3.5388220e-02
  8.1013702e-02
 -6.1135745e-01
  2.4544758e-01
  1.1098682e-02
 -1.4060912e-01
  5.9429640e-01
  1.1150633e-01
  2.4073370e+00
 -2.2947572e-02
 -2.7537757e-01
 -1.3061948e-01
  3.6470821e-01
 -1.6094847e-01
 -5.9609238e-02
  1.5752961e-01
  1.4271432e-01
 -7.5350955e-02
 -1.0844608e-01
  6.4832449e-01
  4.9911730e-02
  2.0273902e-01
 -4.7194085e+00
 -9.2808992e-02
 -3.2744423e-01
  3.2238999e-01
 -4.8145554e-03
 -7.0210822e-02
 -2.4515684e-01
  3.7223172e-01
  1.1886944e-01
 -7.6365846e-01
 -4.2629787e-01
  6.4047486e-02
 -1.5041058e-01
  2.6177733e+00
 -4.0473506e-01
 -1.6082996e+00
  3.1109390e-01
  7.1280263e-02
  4.9520165e-01
 -1.1750944e-01
 -2.0496979e+00
  3.6997896e-01
 -2.7574387e-01
  9.7114831e-01
  3.0279920e-01
 -6.9177963e-02
  2.5293532e-01
 -1.0407145e+00
  9.6689634e-02
 -1.5843470e-01
  3.2599509e-01
 -8.4813930e-02
  1.4095260e-01
 -3.6213177e-01
  7.2460616e-01
  1.3587160e-01
  6.5939826e-01
  3.4033218e-01
  7.6460391e-01
 -1.0260231e-01
 -3.1837392e-01
 -5.9811395e-01
  2.1843232e-01
  4.1770729e-01
  1.8989414e-02
 -2.8256023e-01
  6.1948769e-02
 -4.6691555e-01
 -2.4192209e+00
 -3.7911546e-01
  4.8238850e-01
 -5.9183214e-02
 -8.5132811e-03
  1.8526453e-01
 -8.8909566e-03
 -2.4080259e-01
 -4.7086498e-01
 -4.0604705e-01
 -1.7439211e-02
  3.7317293e+00
  4.9539939e-01
 -6.7880355e-02
  5.4625642e-01
 -2.2803590e-01
  4.0406048e-01
 -7.3276065e-02
  1.1970704e-02
 -1.4132656e-01
 -5.7040501e-02
  2.9662395e-01
  3.9012671e-01
  2.0357347e-01
  2.2413382e-01
 -3.4310654e-01
  5.6874078e-02
 -2.7505012e-02
  2.7415873e-02
  1.4416339e-01
 -8.3411241e-01
 -8.0657102e-02
  3.3865232e+00
  1.9367744e-01
  2.1392967e-01
  1.0462956e-01
  3.2383454e-01
  2.2049405e-01
  5.3446960e-01
 -1.4246083e+00
 -7.1603239e-01
  6.9032393e-02
 -9.9227166e-01
 -3.2901880e-01
 -6.8890341e-02
 -3.6659527e-01
 -1.0138240e+00
 -3.4112491e-02
 -4.7424626e-01
 -1.6372754e-01
  1.8729782e-02
  9.0074062e-01
 -1.0221461e-01
  3.8774148e-01
 -4.6114048e-01
  3.1032637e-01
  3.2929403e-01
  3.5415320e+00
 -1.2092137e-01
  4.9304581e-01
 -2.9575601e-01
  7.1319886e-03
 -5.6677318e-01
 -9.6608120e-01
 -5.1675069e-01
  4.9784970e-01
 -6.4931542e-01
  1.2178089e-01
  5.4635417e-01
 -2.9983696e-01
  4.1082203e-01
 -5.6510079e-01
  1.7289971e-01
 -1.1303986e+00
  9.6028678e-02
 -1.7586391e-01
  1.4639155e+00
 -6.8585122e-01
  5.9864163e-01
 -1.2692635e-01
 -5.0219357e-01
 -6.3094217e-01
 -3.9991003e-01
 -3.8896251e-01
 -4.5619193e-01
 -1.4205033e+00
 -9.9692827e-01
  1.5466011e+00
  1.2209076e+00
 -3.9862061e-01
 -2.3578615e-01
  2.2917269e-01
 -3.7203717e-01
  3.3294290e-01
  1.4563029e+00
 -1.0709329e+00
 -1.1172933e-01
  4.5152437e-03
 -1.0647484e+00
 -1.2201875e-01
  2.6026854e-01
 -1.4250174e-01
 -1.8715465e+00
 -1.9691108e-02
  1.4420693e-02
 -1.4999915e+00
  2.9889771e-01
  5.4721870e-02
  1.4757086e-01
  7.5068182e-01
 -8.1419581e-01
 -1.2744302e-01
  1.7923811e-01
  5.8694400e-02
 -1.4928282e+00
 -4.7363648e-01
 -3.0526793e-01
  3.9197877e-01
  5.5830234e-01
  4.2779723e-01
 -3.4922030e+00
 -1.0551605e+00
 -5.7139702e-02
 -5.9825793e-02
  2.5981021e-01
 -4.3874454e-01
 -5.5388660e+00
  1.5253101e-02
  5.2992213e-01
 -1.0702215e+00
 -2.1595663e-01
 -6.4977485e-01
  1.0194092e-01
  1.0154606e-01
  6.4547843e-01
 -3.0272710e-01
 -8.0958761e-02
 -2.7936673e-01
 -1.1873559e-01
  3.0287841e-01
  4.1119784e-01
 -9.8265335e-02
 -9.2284843e-02
 -7.5048022e-02
  4.8284009e-01
 -9.0375227e-01
 -3.9943385e-01
 -4.3731384e-02
 -5.7113326e-01
  3.8972092e-01
 -1.3062407e-01
 -1.9045395e-01
 -1.3129687e-01
 -2.1655602e+00
 -2.1834562e+00
 -1.4392401e-01
 -1.8434608e-01
 -9.8798603e-02
  3.0980513e+00
  2.3589635e-01
  8.3984874e-02
 -2.1056171e-01
 -8.6995639e-02
  1.6533323e-02
 -3.1619829e-01
  8.5518591e-02
 -5.9080809e-01
  7.0380771e-01
 -2.0922428e-01
 -3.3654317e-01
 -2.0105085e+00
  2.8443804e+00
  1.0347394e+00
 -2.1318455e-01
  4.6285087e-01
 -4.5823747e-01
  6.6161251e-01
 -1.6541229e+00
 -1.5698950e-01
  1.7753578e+00
 -9.5349066e-02
  7.8247702e-01
 -2.8673938e-01
 -4.5215997e-01
  1.9229650e+00
 -4.0614302e-03
 -4.6487745e-02
 -3.9480716e-01
  2.2057346e-01
 -2.2139783e-01
  1.0218678e-01
 -5.2327864e-02
  4.4132167e-01
  8.5000210e-02
 -9.5174581e-02
 -2.8023323e-01
  4.1922447e-01
  3.3074638e-01
  7.5469509e-02
 -1.9964722e-01
  1.1291198e-01
 -6.2227044e-03
  9.2667073e-02
 -5.4985273e-01
  6.0265690e-01
  2.8515816e-01
 -2.9302051e-02
  7.5593002e-02
 -3.0439688e-02
 -4.0260136e-01
  3.9428756e-01
 -1.3132815e+00
 -5.7829148e-01
 -2.4785951e-01
 -1.0084429e-01
  6.3172913e-01
 -2.6334366e-01
 -2.2276512e-01
  7.0692003e-01
  4.0079266e-02
 -8.3062708e-01
  2.3623328e-01
 -2.7537361e-01
  1.7256464e-01
  1.3504526e-01
  2.7210429e-01
 -2.8039181e-01
 -2.5614667e-01
 -2.5742599e-01
 -2.7154604e-01
  3.0617658e-03
  6.3272285e-01
  6.7755863e-02
  1.8749489e+00
 -1.7177123e-01
 -1.1581678e+00
  3.2373431e-01
 -3.8533050e-01
  7.7986360e-01
  1.0495195e+00
 -5.7208361e-03
 -2.2959675e-01
 -2.5008738e-01
  5.9874851e-01
 -7.8080171e-01
  1.5900686e-01
 -8.7735340e-02
  1.9026053e-01
  6.1702985e-01
  4.7013703e-01
  1.4089426e+00
 -6.4953542e-01
  1.0888577e-01
  2.4330099e-01
  5.5154926e-01
  1.1466014e+00
 -2.7134505e-01
  2.3919556e+00
 -2.9930539e-02
 -3.2181332e-01
 -1.0557206e-01
  3.6746979e-01
  1.0937734e+00
 -5.7179493e-01
 -9.3034261e-01
 -1.8648765e+00
  3.2555431e-01
 -9.1348521e-02
 -4.3287921e-01
 -1.2346670e-01
 -5.6793731e-01
  1.7348583e-01
 -5.1210386e-01
 -2.1232660e-01
 -1.4671836e+00
 -1.5871127e-01
 -3.4355810e-03
  4.7505032e-02
 -8.1905320e-02
 -7.8199154e-01
 -4.4005758e-01
  2.6191255e-01
 -1.9548777e-01
  2.4827102e-01
  4.6110550e-01
 -2.2928001e-01
  2.3172784e-01
 -2.8604949e-01
 -4.2486873e-02
  1.4203899e-01
  1.9181658e-01
  5.8330040e-02
  7.1137023e-01
  7.6006480e-02
  1.0252403e-01
  6.9063497e-01
  1.9770496e-01
 -1.2427916e-01
  1.1262944e-01
  6.8903863e-02
  6.3777429e-01
 -1.4383800e+00
 -3.3875552e-01
  3.2780626e-01
  9.7793423e-02
 -3.6264938e-01
  3.4950680e-01
  7.3173321e-03
  1.3547859e-01
 -1.3536887e-02
 -2.4061699e-01
  6.2510467e-01
  1.1150640e-01
  1.6667953e-01
  6.9245183e-01
  3.2152501e-01
  8.3013259e-02
  4.2774573e-01
  1.6001323e-01
  7.4895740e-02
  3.6531840e-02
  1.4162178e+00
  2.6407763e-01
 -5.8318634e-02
  7.0413772e-04
 -3.7835084e-02
 -1.0167469e-01
  2.5358072e-01
 -2.3409913e-03
  5.8245189e-02
  1.1082518e+00
  5.5705953e-01
 -1.4428210e-01
 -1.2632829e-01
 -1.4373662e-01
  4.1206363e-01
 -1.7225733e-02
  1.2498886e-03
  1.8519288e+00
  2.5200671e-01
 -1.0019245e-02
  6.3409626e-01
 -1.6240931e+00
 -1.0199341e+00
  7.2270793e-01
  3.9759409e-01
  4.3269533e-01
 -2.4861716e-01
  8.0508906e-01
 -4.2819026e-01
  3.4861988e-01
 -5.9010208e-01
 -6.6945076e-02
  4.5901004e-02
  3.5075966e-01
  2.2402106e-01
 -5.7402992e-01
  1.3481473e+00
  8.0447507e-01
  4.2473055e-02
  3.1408474e-01
  2.5548607e-01
  4.9240351e-02
  1.3261343e+00
  1.1468023e-02
  3.0495291e+00
  3.4433033e+00
 -5.2020829e-02
  1.8235885e-01
 -9.3372822e-01
  2.5609356e-01
 -3.3379269e-01
  1.1202539e-01
 -3.8987350e-01
  2.4132362e-01
 -1.1133853e+00
  1.1329076e-01
  1.5843131e-01
 -3.0690050e-01
 -1.5102470e-01
 -3.7840164e-01
 -9.5049001e-02
  1.4693302e-01
  1.5938282e+00
 -4.2337018e-01
 -2.0931271e-01
 -1.0581383e-02
 -2.9488346e-01
 -5.8930677e-01
 -5.2837696e-02
 -3.6986428e-01
 -9.2367166e-01
 -3.5439587e-01
 -2.0857416e-01
 -1.0175580e-01
 -3.5309508e-01
 -2.3943357e-01
 -6.3450003e-01
 -1.8309508e-01
 -7.0867246e-01
 -1.5397096e-01
 -1.2333117e-01
  7.7992259e-03
 -9.8912865e-01
  9.1991089e-02
  8.2524613e-02
  6.0977578e-01
 -6.0791588e-01
 -1.3222904e+00
 -7.3714957e-02
  2.7158800e-01
  1.8319005e-01
 -7.0130575e-01
  4.1512030e-01
  1.7557797e-01
 -8.7036490e-01
 -2.6365735e-02
 -1.7378370e-01
  8.9068450e-02
 -3.7603623e-01
 -3.2866693e-01
 -1.4856009e+00
 -2.6926491e-03
 -2.5762616e-02
  4.3898574e-01
  8.3870256e-01
 -6.1092153e-02
 -4.4475880e-02
 -4.6502146e-01
  1.0047772e+00
 -3.2459232e-01
 -4.2901960e-01
  3.2272151e-01
 -3.5460651e-01
  8.9737490e-02
 -8.1602164e-02
 -1.9068388e-02
  2.1084945e+00
 -5.1145613e-02
  5.3470534e-01
  5.4559916e-01
  3.2262293e-01
  1.6977663e-01
 -1.7971244e-01
 -9.9735558e-02
 -6.9265239e-02
 -1.3166489e-01
 -1.8341704e-01
 -8.4443517e-02
 -2.5203850e+00
 -1.0786347e+00
 -2.9625866e-01
 -1.7632957e-01
  5.8962208e-01
  2.0969868e-01
  3.7836733e-01
 -5.9901476e-02
 -2.1191473e-01
 -5.6395853e-01
  8.7646163e-01
 -3.2424703e-01
 -8.4293318e-01
 -3.2382741e+00
  1.9169724e-01
  6.1106223e-01
  1.2363944e+00
  3.0899248e-01
  3.2890719e-01
  3.5108495e-01
  1.9182518e-01
  7.9916127e-02
  1.6724572e-01
 -1.0564632e-01
 -1.1045116e-01
  1.0391358e+00
  5.7818860e-01
  8.2622498e-01
 -3.6487964e-01
  5.9673142e-01
 -2.5150993e-01
  5.0805911e-02
  8.6752348e-02
  5.9530109e-01
 -1.3306999e-01
  6.3141562e-02
  3.1244081e-02
 -2.5476921e-01
 -2.3664816e-01
  6.0268050e-01
  6.4508870e-02
  7.2975618e-01
 -1.7445038e-01
 -1.2297743e-01
 -1.7725989e-01
 -3.2375777e-01
  2.1295188e-01
 -2.4389297e-01
 -2.4452069e-01
  1.4166471e-01
 -3.2159254e-01
  4.7661144e-02
 -3.8260975e-01
  5.9583306e-01
 -1.6516145e-01
 -3.7201519e+00
 -1.6350821e-01
  3.7362304e-01
  8.7575182e-02
 -4.2464681e-02
 -1.1646959e-01
 -1.6243181e-01
 -1.5502392e-01
  7.4288808e-02
 -3.1254938e-01
 -2.9486483e-01
 -5.5323017e-01
 -6.0117942e-01
 -5.9356147e-01
  2.5187477e-01
 -5.1023852e-02
  2.3219936e-01
  2.8797954e-01
  1.0262097e+00
 -2.6104826e-01
  8.1941044e-01
 -1.5351923e-01
  1.1096182e+00
  1.0986674e+00
 -2.0863825e-01
  9.5379549e-01
  3.5397515e-01
  3.7023130e-01
  1.8337235e-01
  1.2943169e+00
  4.6451557e-01
  4.3292731e-01
  8.9037299e-01
 -2.0486774e+00
 -3.5350206e-01
  5.9650642e-01
 -2.1050243e-01
  1.9612017e+00
 -3.1575018e-01
 -4.7491965e-01
 -4.4860381e-01
  4.8929255e-02
 -6.0326874e-02
 -1.1418457e-01
  1.0985816e-01
  3.5383695e-01
  8.3897136e-02
 -4.2697530e-02
 -1.0337522e+00
  2.4170630e-01
 -7.4653342e-02
 -3.1622651e-01
 -1.3372765e+00
  4.9319740e-02
 -9.3709953e-02
  8.4271707e-02
 -4.2832175e-01
 -1.1615676e-01
  4.3090209e-01
  4.7617826e-01
 -1.2408625e-01
 -1.5089355e+00
 -1.1299986e+00
 -1.5187772e-01
  6.7425567e-01
 -2.6184154e-01
 -2.7232155e-01
 -1.0076547e+00
 -4.4566471e-02
 -1.4993030e+00
 -3.0535367e-01
  3.5402939e-01
  9.2971906e-02
  7.6249458e-02
 -8.4772699e-02
  4.0206414e-02
 -3.2174033e-01
  1.3377641e-01
  1.3893484e-01
 -1.7456633e-01
  1.1510503e-01
  1.1640102e-01
 -1.6954459e-02
  1.3474022e-02
 -2.7317530e-01
  4.6164384e-01
 -2.0916944e-02
  7.0693880e-01
 -1.1531764e-01
  5.5063713e-02
  3.2731870e-01
  1.3373625e-01
 -9.8261215e-02
 -8.6704135e-01
 -8.3441037e-01
  1.5278335e-01
  1.6035383e+00
  1.1533980e-01
  2.4612452e-01
 -3.4317099e-02
  6.0054594e-01
 -2.9192346e-01
 -8.7818712e-01
 -4.2469677e-01
 -1.6713281e-01
  4.4515419e-01
  7.8600779e-02
 -3.7903652e-02
 -2.0846270e-01
 -2.3089533e+00
  5.1914567e-01
 -1.2420688e+00
  9.7868472e-01
 -2.1152444e-01
  2.2593851e-01
  2.8975946e-01
 -3.6480799e-01
 -3.7960732e-01
  1.3565762e+00
  4.6485022e-01
 -5.1298022e-01
  7.7688456e-01
  2.3692316e-01
  1.5750881e+00
  1.2481054e+00
  5.7990855e-01
  3.2777423e-01
 -5.7352668e-01
  3.3252290e-01
  1.2868397e-02
 -1.4220483e+00
  3.7533852e-01
  2.1948732e-01
  2.1079755e+00
  1.9555137e-01
 -1.9056367e+00
 -9.7263259e-01
 -6.3915849e-01
  1.3546855e+00
 -4.2321351e-01
 -2.7280447e-01
 -9.2764938e-01
 -5.6360620e-03
  7.3608744e-01
 -6.0618538e-01
 -2.0835905e+00
  7.1244872e-01
 -5.6903690e-01
 -2.5626546e-01
 -1.7301236e-01
 -3.9898527e-01
  1.6705468e+00
  1.5722829e+00
 -4.5830399e-01
 -7.1128803e-01
  1.8667579e+00
  7.3857313e-01
  4.4521403e-01
 -4.0741336e-01
 -2.8286391e-01
  5.6029791e-01
  3.8017711e-01
  4.7142178e-01
 -1.0160761e+00
  6.1594832e-01
 -2.3402719e+00
  7.6936144e-01
  4.0400004e-01
 -7.0421833e-01
  1.4277253e-01
  8.6780500e-01
  5.0469720e-01
  9.3553871e-01
  5.3417772e-01
  9.0043664e-01
  6.0976915e-02
 -1.0003579e-01
  1.8360311e-01
  6.0380614e-01
  1.0106504e+00
  1.6984057e+00
  1.5482289e-01
  5.0629729e-01
  8.3691776e-01
 -3.3633584e-01
 -1.0766687e-01
 -1.9797561e-01
  2.4338987e+00
  4.7456664e-01
 -1.0412401e+00
  1.2064323e-01
  7.0278007e-01
 -9.2595264e-02
 -1.4759187e-01
  1.0694222e+00
  1.0264598e+00
 -3.9290139e-01
  3.6284015e-01
 -1.2071414e-01
 -1.7934054e-02
 -9.4566211e-02
 -1.5539039e-02
 -2.1053606e-01
 -3.7174502e-03
  8.3761871e-01
 -1.5113972e+00
  3.9416432e-01
 -2.8516677e-01
 -3.7036043e-01
 -1.5869193e-01
 -1.2853010e-01
  5.6298327e-01
 -5.4165149e-01
  2.1015555e-01
 -4.0919057e-01
 -1.0938538e-02
 -1.0915771e+00
  7.3221698e-04
 -7.9087043e-01
 -3.8851136e-01
  3.0948409e-01
  3.3091134e-01
 -1.0285265e-01
 -7.3309118e-01
  2.6415360e-01
  1.4248382e-01
  8.8999309e-02
 -5.9633702e-01
 -1.5464881e-01
 -6.1811853e-02
  1.6117188e-01
  5.8089441e-01
  7.7217959e-02
  1.2393454e+00
 -6.4567044e-02
  4.6287441e-01
 -2.4493931e-01
  3.4486234e-01
 -4.7494453e-01
 -3.9232798e-02
 -1.7814773e-01
  3.0625018e-01
 -1.4508104e-01
  1.3553119e+00
  5.8870453e-01
  9.0786256e-02
  5.1902169e-01
  5.0513364e-02
  1.1459043e-01
 -2.8476429e-01
 -9.9569298e-02
 -3.9350238e-01
 -9.9290907e-01
  1.2956725e+00
 -3.0472222e-01
  5.2199042e-01
 -7.5569570e-02
  3.3835196e-01
  2.4966848e-01
  1.8326654e+00
  8.8607378e-02
  5.5499425e+00
  2.6141262e-01
  1.2505113e-01
  1.5788496e-02
 -2.6904631e-01
  3.3739647e-01
 -2.6783571e-01
  3.6736444e-02
 -4.2628986e-01
 -9.1892585e-02
 -1.8208943e-01
  1.8090274e-02
  4.2920437e-01
 -2.5966632e-01
 -3.0126473e-02
  1.1641744e-02
 -4.6601990e-01
  1.6536181e+00
  1.7811021e-01
  1.3647015e-01
  4.6458967e-02
 -1.5562035e-01
  8.4613495e-02
  2.1984890e+00
  1.2013655e-01
 -2.2574635e-01
 -2.5846663e-01
  4.0663752e-01
  4.3959519e-01
 -4.5376736e-01
 -8.1818871e-02
  2.1956298e-01
 -3.5013240e-02
 -2.4075474e-01
 -7.4833697e-01
  3.8586828e-01
 -2.0914119e-01
  4.1469908e-01
  6.5317208e-01
 -1.8878606e-01
  1.1866320e+00
 -5.6903434e-01
  1.9996923e-01
  1.6038294e-01
 -4.4654125e-01
 -7.5857408e-02
 -1.3144051e-01
  1.1486405e+00
 -2.6089564e-02
  7.5504042e-02
 -9.5195788e-01
  4.9012327e-01
  6.1800832e-01
  4.9763635e-02
  1.9896472e-01
  1.8578272e-01
 -3.0003622e-01
 -7.2536862e-01
 -1.9116080e-01
  3.9815411e-01
 -2.8054678e-01
 -1.5712814e-01
  6.3967690e-02
 -1.5792255e-01
  2.8564749e+00
  1.6374534e-01
  2.6401160e-02
 -1.6790335e-01
  6.3548082e-01
  1.1800767e-01
  1.4265546e-01
  1.7886122e-01
 -7.6967753e-03
  3.8812801e-03
 -2.2526513e-01
  8.7362513e-02
  5.8422983e-02
 -1.9294381e-02
 -3.8389474e-02
 -3.6213648e-02
 -1.7904772e-01
  2.5479811e-01
 -1.7680023e+00
 -6.2863761e-01
  3.5616440e-01
 -1.7062323e-02
  5.1924670e-01
 -8.4009528e-01
  1.8172655e-01
  1.2014299e-02
 -1.2337024e+00
  7.8379530e-01
  6.1443746e-01
  3.4863368e-02
  3.3637801e-01
  9.4807498e-02
  1.7390522e-01
  2.2483836e-01
  2.0607483e-01
  2.2841610e-02
  4.9215877e-01
  1.4478035e-01
 -3.9981291e-02
 -4.5119777e-01
  8.3991215e-02
  6.5622203e-02
  4.5011902e-01
  4.0540308e-01
 -9.0551607e-02
  4.0391907e-01
  2.8502848e+00
 -2.9602855e-02
  2.9208234e-01
 -2.2304446e-01
  2.0346783e-01
  4.8805308e-02
  1.7737411e-01
  2.0684137e+00
  6.7107894e-02
  2.3206976e-01
 -1.6651961e-01
  7.6358449e-01
 -1.6309071e-01
 -9.1051561e-01
 -2.1843684e+00
 -4.2174628e-01
 -9.2516847e-02
 -2.9163265e-01
 -2.5300488e-01
  2.6588404e-01
 -3.6167520e-01
  1.5576968e-01
 -1.5019642e+00
  9.8909777e-01
  2.1685027e-01
  1.4863719e-01
 -5.2148914e+00
 -7.0988381e-01
 -8.7076765e-01
  5.6550092e-01
  1.0448854e+00
  1.5069227e-01
 -1.3530076e+00
  1.7027189e-01
  6.9676596e-01
  7.8837085e-01
 -2.0551015e-01
  2.4128146e-02
  5.2236760e-01
  1.9954544e+00
  2.3500991e+00
 -8.1125833e-03
 -9.2422098e-02
  7.1892336e-02
 -3.8787842e-01
 -7.1183378e-01
 -3.4183465e-02
  3.3074714e-02
  1.0651518e+00
 -1.2339931e+00
  3.0777320e-01
  2.3910883e-01
 -4.7782335e-01
  1.2022223e-01
  5.5414367e-01
 -6.3679618e-01
  4.7810709e-01
 -2.7255392e-01
  3.8178621e-03
 -3.7316510e-01
 -2.8993681e-01
 -2.4842327e+00
  3.8480304e-02
  5.8935785e-01
  2.0289600e+00
  1.7046751e-01
  6.4818673e-02
  1.2362660e-01
 -2.7306286e-01
  7.2122347e-01
 -1.6391455e-01
  3.5917613e-01
 -1.2353990e-01
 -2.5610077e-01
  5.2809411e-01
  1.3549420e-01
 -1.8569911e-01
  2.2858161e-01
  1.0073633e+00
 -1.9085823e+00
 -3.7971017e-01
 -3.2024570e-02
 -4.3726304e-01
  2.4636027e-01
  1.2087969e-01
  1.7547061e-01
  9.4209844e-01
 -4.6439279e-02
  8.2436019e-01
  1.4274172e+00
  2.7680746e-03
  2.2236379e-02
  6.2132531e-01
 -6.5230763e-01
 -3.4962156e-01
 -4.9688514e-02
 -8.6080499e-02
  7.9563998e-02
  1.1005366e+00
  1.6923313e-01
  1.0753641e+00
  3.3709154e+00
  9.2873037e-02
  1.1210774e+00
  2.7029471e+00
 -2.8337357e+00
 -2.3148006e-01
 -1.4730543e-01
 -4.6039310e-01
 -8.5370943e-02
  2.5337073e-01
  2.1702008e-01
 -9.9352974e-01
 -7.4912626e-01
 -1.0415763e-01
  3.9742380e-01
 -9.8526038e-02
 -1.6827014e-01
 -6.1427590e-02
  1.5123421e-01
  8.4363513e-02
  3.8727501e-01
 -9.2219943e-01
 -1.7710039e-01
 -9.6328281e-02
 -2.0105639e-01
 -3.9007139e-01
 -7.7835802e-04
  3.2603979e-02
 -2.6783994e-01
  5.9932254e-02
 -6.1908257e-01
 -2.3042968e-01
 -4.3606409e-01
  2.0582767e-01
 -4.0406890e-02
  4.4865674e-01
 -2.0033939e+00
 -3.1715244e-02
  4.1880803e-03
  6.3138068e-02
  7.6355338e-02
 -1.4526101e+00
  4.5968100e-01
 -6.1013959e-02
 -9.2905104e-01
 -3.2218177e-02
  1.3271734e+00
  3.0351572e-02
  2.9566261e-01
 -2.5375432e-01
  2.9192477e-01
 -1.0870736e-01
 -4.2436740e-01
 -7.5212577e-03
 -7.5682119e-02
  3.7789142e-01
  3.4048829e+00
  4.7311461e-01
  1.2008799e-01
  1.5544212e-01
  5.6001436e-02
  1.5146525e-01
 -7.6544970e-02
  2.1465160e-02
  5.5456009e-02
 -8.0704391e-01
  1.2462727e+00
  2.4370801e-01
 -9.0022877e-02
 -8.2162328e-02
 -3.6130828e-01
  1.0055397e-02
  5.5966288e-01
  2.3144310e+00
 -2.9591820e-01
  4.1628072e-01
  2.1621238e-01
  3.9943275e-01
  5.0223291e-02
 -2.3149879e-01
 -1.2316654e-01
  3.8466173e-01
  3.6706036e-01
 -1.1902780e-01
  1.5374883e-01
 -1.7792360e-01
  5.7842106e-01
  1.1643602e+00
  3.8412049e-02
  1.9195789e-01
  9.6718326e-02
 -1.9167110e-03
 -2.7317804e-01
  7.6168798e-02
  8.4668510e-02
  1.5729458e+00
 -2.1545854e-01
  1.6093279e+00
  1.8415356e+00
 -1.6617314e+00
 -1.8404745e-01
  9.8423533e-02
  1.0060388e+00
  1.9113692e+00
 -2.9929340e-01
 -1.8435349e+00
 -3.9675966e-01
 -1.6741469e+00
 -6.0277724e-01
  1.1079497e-01
  3.1766992e-02
 -1.1709476e+00
 -6.1801738e-01
 -7.7962357e-01
 -1.3198028e+00
  4.9214087e-02
 -5.9803468e-01
  1.6226339e+00
  1.2923310e+00
  9.2166626e-01
  1.1016138e+00
 -2.1023099e-01
  9.2313969e-01
  2.0517685e+00
 -2.8951254e-01
 -8.6847258e-01
  1.7759053e-02
  7.4722588e-02
  1.7620237e+00
 -1.0927798e+00
 -1.9529288e+00
  2.4859226e-01
 -1.7478157e+00
  9.5942062e-01
  2.1365604e+00
 -1.7780015e-02
  1.5365102e+00
  8.3067161e-01
 -1.7828816e+00
  4.3344942e-01
  4.6392792e-01
  3.9186392e-02
  6.6979921e-01
  2.8323641e-01
 -1.6533087e+00
  2.4369681e-01
 -3.2290871e+00
  4.1246188e-01
 -4.8158464e-01
  1.6830368e-01
 -1.6304989e-01
  1.7070724e-02
 -2.7207746e-03
  2.5284968e-02
  9.8669779e-01
  2.7702045e-01
  2.0927697e-01
  4.7325286e-01
  3.4810036e-01
  2.4948664e-01
 -3.4777415e-01
  1.6048734e-01
  4.7965392e-01
 -9.3349375e-02
 -6.6227362e-02
  2.5717655e-01
 -7.9530455e-02
  2.1049233e-01
 -1.5175436e-01
  5.0541186e-01
 -8.4460223e-01
 -1.0212502e-01
 -4.3786939e-02
 -1.6791469e-01
 -4.6531510e+00
 -9.0908778e-01
  1.7105435e-01
  9.0819454e-01
 -6.5598184e-01
  3.9408317e-01
  1.9084430e+00
 -5.7065672e-01
  2.4944027e-01
 -3.9474559e-01
  1.9514236e+00
 -7.1190423e-01
 -1.3338955e-01
  2.3086699e-02
 -9.3508464e-01
 -3.8600379e-01
 -3.1033564e-02
 -2.2697525e-01
 -2.6508257e-01
  1.5697074e+00
  5.5080307e-01
  1.4910688e-01
 -9.4074881e-01
  1.9103943e-01
  1.4462221e+00
 -2.3796342e-02
 -4.3206128e-01
  5.0276417e-01
 -1.7532349e-01
 -4.5107818e-01
 -2.1102160e-01
  2.0468870e-01
 -1.6281221e+00
  2.8982226e-02
 -1.6361685e-01
 -1.2867147e+00
 -4.1786633e-02
 -7.2741956e-01
  2.5311932e-01
  2.3728210e-01
 -4.7593653e-01
 -2.6573873e-01
  1.2375237e-01
  2.3109450e+00
 -6.0380912e-01
 -2.3108749e-03
  1.6408040e-01
 -2.6519412e-01
 -2.1001918e-02
 -3.2411274e-02
 -4.9927165e-03
  1.4947625e-01
 -6.6605812e-01
 -2.8524607e-01
  6.1764777e-02
 -8.8768363e-01
  1.2069787e-01
  2.5345561e-01
 -4.7543719e-01
 -2.3488995e-02
  1.5938880e-01
  3.6419115e-03
  4.8479792e-02
  1.1772391e+00
  3.6621863e-01
  4.4979468e-01
 -6.2362533e-02
 -3.2307822e-01
 -2.0357883e-01
  9.2267528e-02
  1.8853815e-02
  6.1687291e-01
 -6.1967139e+00
  2.0307472e-02
  1.0932242e+00
 -9.1335818e-02
  2.4538295e-01
  1.2078423e-01
 -2.2968104e-01
 -2.4022923e-01
  6.6837724e-03
  5.4597682e-01
 -3.5003671e-01
  2.5956778e-02
  4.6506274e-01
  9.0916738e-02
 -3.8936719e-01
  1.0451638e-01
 -3.4569842e-01
  3.6995220e-01
  2.0899245e-01
 -2.6269382e-01
  1.7226742e-01
 -1.3967040e-01
 -1.4206487e-01
  1.7449878e-01
 -4.0876703e+00
 -4.8137166e-02
 -3.3432392e-03
  3.8774508e-01
  4.7490630e-01
  2.3405619e-02
 -4.6010404e+00
 -9.3249971e-01
 -1.3371934e+00
 -2.0051345e-01
 -3.4567443e-01
 -1.0214702e-01
  1.4005898e-01
  4.4475913e-01
  1.0655989e-01
 -3.6135218e-01
 -2.8293112e-01
 -1.8596139e+00
 -1.4841264e-02
 -1.3606106e+00
  4.0481165e-01
 -3.9901116e-01
  4.0022990e-01
  2.5547400e+00
 -3.9520329e-01
 -3.9130965e-01
 -1.0011384e+00
  1.1343008e-02
  3.6003876e-02
  4.4149764e-02
 -2.3462193e-02
  2.7720448e-01
 -3.1247012e-02
  1.9638585e-02
 -2.2530476e-02
  5.7902044e-01
 -2.2770476e+00
 -3.8195536e-01
 -3.3420804e-01
 -1.1184207e-01
 -2.9809842e-01
  5.7882894e-02
  1.0100927e-02
 -1.0435830e-03
  1.2525671e+00
 -7.5428092e-01
 -7.8140333e-02
  4.5232516e-02
  3.6187220e-01
  1.2210859e-01
  6.3941556e-01
  9.9572951e-01
 -2.0118608e-01
 -2.0952788e-01
  5.7021099e-01
  7.2227377e-01
 -3.4919581e-01
 -3.9597923e-01
 -7.7065438e-01
 -3.1367445e-01
 -3.5427621e-01
 -1.7548600e-01
 -4.5361832e-01
  4.9662024e-01
 -6.3051325e-01
 -3.1977415e-01
  1.4846162e-01
 -3.4918511e-01
  3.7356076e-01
 -1.0295630e-01
  2.9070294e-02
  4.7579059e-01
 -9.7042453e-03
  3.7273300e-01
  6.2943123e-02
 -7.1945139e-03
 -2.0024827e-01
  4.9240747e-01
  1.4757172e+00
 -2.6022887e-01
  3.4092507e-01
 -2.7714351e-01
 -4.5184681e-01
  6.3827425e-01
 -8.8221952e-02
 -2.4918415e-01
 -1.2837642e+00
 -2.2048368e-01
  1.4004591e-01
 -5.6870162e-01
 -1.0586047e+00
 -8.7435491e-02
  1.1730792e-01
 -1.3724890e-01
  1.9441849e-01
 -4.3262735e-02
 -7.9480416e-01
  3.6023951e-01
 -3.7266281e-02
 -1.5584059e-01
  1.2723576e-01
 -5.5197369e-02
 -6.1189264e-01
  6.7559344e-01
  1.1445032e+00
  1.5139137e-01
  3.0077124e-01
  7.9493158e-02
  1.6763635e+00
 -1.9276227e+00
 -4.2384532e-01
 -9.3203378e-01
 -1.8632302e-02
 -3.6521841e-02
 -1.8863313e-01
 -1.6822344e-01
 -7.5422458e-02
  2.2876421e-01
  1.4545693e-01
 -1.0967057e-02
  3.8248616e-01
  2.9792225e-01
  2.4264383e-01
  5.8649969e-01
  7.6009646e-02
 -1.9180268e-01
 -2.3253420e-01
 -2.2309427e-01
  8.3512902e-01
 -4.3633962e-01
 -1.2929806e-01
  6.5407437e-01
 -2.3412315e-02
  1.8075314e-01
 -2.7216423e-01
 -3.3913583e-02
 -4.9618289e-02
  6.7076844e-01
 -2.6142487e-01
  1.2430017e-01
 -3.4109941e-01
 -1.3351569e+00
 -2.4541172e-03
 -3.2894662e-01
  7.3753938e-02
  9.0412520e-02
 -3.2372472e-01
 -8.3701476e-02
  3.4749374e-01
  1.9473355e-01
  4.1743201e-01
  3.3478126e-01
 -4.0871698e-02
 -1.7928214e-01
 -3.5235775e-01
 -1.4115144e-01
 -3.0624372e-01
  3.3595887e-01
  6.6610396e-02
 -6.0536277e-02
  6.3006115e-01
  1.2265440e+00
  1.7601886e+00
  1.0136455e+00
  3.2271713e-01
  1.0203917e+00
  2.5487406e+00
 -8.0278599e-01
  1.5317069e-01
 -1.7646248e-02
  1.0291771e+00
 -2.0302672e+00
 -1.5765755e+00
  1.7858045e+00
  2.2203764e-01
 -5.6662804e-01
 -1.3438052e+00
  5.3810245e-01
 -8.2288069e-01
 -2.5726185e+00
 -1.9565119e+00
 -1.3718469e+00
  1.0433071e+00
  5.9013478e-02
  1.2997112e-01
 -1.0234395e+00
 -8.8127428e-01
 -2.2158992e+00
 -2.3426459e+00
 -2.1609492e+00
 -1.5014905e+00
  6.3612007e-02
 -1.2321986e+00
 -4.9922797e-01
 -1.7508675e-01
 -9.0896532e-02
 -3.3634776e-01
 -2.1502936e+00
 -1.3328859e+00
  5.9800437e-03
 -6.4545482e-01
 -1.1085719e+00
 -1.4628380e-02
  2.3920888e-01
  7.5654876e-01
 -7.2116143e-01
 -2.0677516e-02
 -2.4748667e-01
  4.3596289e-01
 -1.1091719e-01
  1.2717241e-01
  1.6343136e-01
  3.1073979e-01
 -2.1436274e-01
 -1.4055423e-01
  9.2406094e-02
 -2.8387293e-01
  2.6495855e+00
  2.5581482e-01
 -2.4616632e-01
  5.2385461e-01
 -5.9878039e-01
 -4.4432375e-01
 -8.9400721e-01
 -2.3021321e+00
  1.5860312e+00
  5.7388537e-02
 -1.0061611e-03
 -3.4354080e-02
  4.8142311e-01
  1.5229669e-01
 -6.6562213e-02
 -6.7456082e-02
  5.7738745e-01
 -3.7685055e-01
 -3.0662152e-01
  1.6043338e-01
 -2.1663910e-01
  1.7214543e+00
 -3.5801476e-01
 -2.0283206e+00
  1.1363371e-01
  3.9443806e-01
  5.0108778e-01
  4.0543956e-01
 -7.2357900e-02
 -3.1018290e-01
  2.8637981e-01
  3.0167383e-01
  3.2598722e-01
  9.1394022e-02
  8.5100335e-01
 -2.3409659e-01
 -8.9880371e-01
  5.0052547e-01
 -2.6948445e+00
  8.7053937e-01
  5.1059846e-02
  1.8131693e-01
 -2.3081091e-01
  4.7122408e-02
 -2.5859019e-01
  4.0606089e-02
 -6.4163285e-01
 -1.8388115e-02
 -2.9184842e-01
  1.4693157e-01
  2.8564313e-01
  1.6482790e+00
 -1.0056565e+00
 -9.8458654e-01
 -1.0919736e-01
  3.4786889e-01
 -3.1888884e-01
  2.0919070e-01
  3.9394051e-02
 -2.6301596e-01
  2.6261652e-01
  1.1203954e-01
  1.2378686e-01
 -6.0203475e-01
  7.9058044e-02
 -3.4011918e-01
 -3.2767969e-01
  2.7195147e-01
  5.7577968e-01
 -1.9731069e-01
  2.8091148e-01
 -2.4098257e-02
  1.0302997e-01
 -5.8082394e-02
 -4.7231063e-01
 -6.2251914e-02
 -3.4518453e-01
 -2.8570691e-01
 -4.5439348e-01
 -6.0322106e-01
 -2.7830193e+00
  1.3500192e+00
  6.2086272e-01
  9.6514724e-02
 -8.9723863e-02
  7.4823081e-01
 -9.1980010e-02
 -3.9946055e-01
  1.5940380e-01
 -2.3837976e-01
 -2.5498943e+00
  2.9851034e-02
  1.2244542e-02
 -8.9410168e-01
  8.6080754e-01
  1.0937879e+00
  1.1983898e+00
  7.1064001e-01
  3.4691903e-01
  2.3478382e+00
 -6.5312749e-01
  6.1213124e-01
 -8.4386992e-01
 -3.0945882e-01
  1.0299566e-01
 -9.7359605e-03
  2.3229266e-02
 -8.3744973e-02
  2.5783968e-01
 -4.8802558e-01
 -6.3136202e-01
 -5.9965259e-01
  8.5253799e-03
 -1.6846538e-01
  2.3861449e-02
 -9.2178595e-01
 -2.9590723e-01
 -1.3133390e+00
 -1.5134569e+00
 -4.2957202e-01
  1.6237826e+00
 -7.7520692e-01
 -3.1322703e-01
  1.7872711e+00
  3.7376597e+00
 -1.2843516e-02
  1.2117241e-01
 -2.6631000e+00
  3.3128685e-01
 -3.2527632e-01
  1.2986625e+00
  4.1723609e-01
  1.9050305e+00
  3.2893980e-01
 -8.8925946e-01
  2.3658828e-01
  2.1628306e+00
  6.2755235e-02
  1.2746689e-01
  3.1132114e+00
 -2.4523261e-01
 -9.5700294e-02
 -2.5168980e-02
 -1.7328829e+00
  2.7844205e-01
 -3.2382980e-01
 -2.2734611e-01
 -5.0065982e-01
 -4.1921165e-02
 -1.0631102e-01
  4.9989706e-01
 -8.8062936e-01
 -7.6177502e-01
  5.1067572e-02
  3.9773919e-02
  1.8451919e-01
 -4.8330590e-01
  2.7903071e-01
 -1.7440938e+00
 -2.3854089e+00
 -6.8435258e-01
  9.2102790e-01
 -1.1720056e-02
 -5.3733629e-01
  3.1711712e-02
  2.3247042e+00
  7.6186341e-01
 -1.1361541e-02
 -1.4725439e-02
  1.1069916e-01
  1.1947818e-02
  1.4660580e-01
  5.4062748e-01
 -1.7395791e-01
  1.7842758e-01
  8.0685420e-03
  9.0946607e-02
 -4.8303241e-01
 -4.9310794e-01
 -2.9513183e-01
 -3.3912060e-01
 -1.1571803e-01
 -1.6275229e-02
  7.6353472e-01
 -9.2605901e-01
  1.4366688e-01
  3.8164120e-02
  2.2104302e-01
 -1.6257592e-02
 -3.2271487e-01
 -1.1719146e-02
 -2.9206106e-01
 -4.5933050e-01
  9.0937041e-02
 -1.5028827e+00
 -2.6197499e-01
 -4.9628073e-01
  3.1276909e-01
  3.4271450e+00
 -1.4645626e-01
 -6.0152091e-02
  2.4531936e-02
 -1.3080478e+00
  5.9106462e-03
 -2.9889014e+00
 -9.3243849e-03
  3.9234614e-01
 -4.9562011e-02
 -1.0893097e+00
 -7.6998252e-01
  1.3106726e-01
  4.0133810e-01
  5.8864152e-01
  8.0339037e-02
 -7.0028961e-02
 -1.7984018e-01
 -5.7806242e-01
  5.1990825e-01
  3.1842854e+00
  8.8434599e-02
  3.3451014e+00
  9.2188907e-01
 -1.5810025e-01
  2.3120767e-01
  2.9528138e-01
  1.4441073e-01
  1.6675411e+00
 -3.6243845e-02
  4.6338138e-01
  5.1643008e-01
 -3.2830831e-01
 -1.1629921e+00
 -2.8155538e-01
 -1.0675169e+00
  7.5099331e-01
 -7.4356303e-02
 -2.8694680e-01
  5.1620126e-01
 -4.2714423e-01
 -2.6203260e-01
  2.2168185e-01
  6.8200164e-02
  1.5139928e-01
 -1.8589307e-01
 -5.4570729e-01
  1.0564711e+00
  2.6963711e-01
  1.0824114e+00
  5.2138990e-01
  1.2466470e+00
 -8.6320393e-02
  2.4610861e-01
 -8.6887814e-02
 -2.7776358e-01
 -1.0776625e-01
 -8.7084055e-02
  1.9273658e-01
  2.4402736e-01
  3.2308877e-01
  1.9772735e+00
  4.1073522e-01
  2.2455628e-01
 -3.2259963e-02
  2.9335016e-01
 -9.6626389e-01
  1.5998966e-01
  4.1922656e-01
  1.1221082e+00
 -9.2289239e-02
  7.3285110e-02
  5.3403884e-02
  1.7981079e-01
  4.2339140e-01
  3.4568498e-01
  1.1858611e+00
  3.9802315e-03
  6.9789386e-01
 -3.7672859e-01
  2.1477636e-02
  3.5378187e+00
 -1.2139791e-01
 -5.7648897e-02
 -5.3876239e-01
  4.2008594e-02
  1.3054897e+00
  3.5578877e-02
 -2.7232325e-01
  2.6986072e-02
  1.3013572e+00
  2.5082145e+00
 -7.5828344e-02
 -5.0180006e-01
  2.7669249e+00
 -9.2257804e-01
 -2.6262388e+00
 -1.0437824e+00
 -4.9837884e-02
 -1.0915755e-01
  3.8746175e-01
  8.1611454e-01
 -8.1507599e-01
 -7.0576239e-01
  1.4987379e-01
 -4.7365585e-01
  7.7206135e-01
  1.2164670e+00
 -1.0709467e-01
  2.2778364e-01
 -2.9321074e-01
 -4.4847241e-01
 -4.9488466e-02
  1.5915434e-01
  6.3604265e-01
 -3.2793036e-01
 -2.1896188e-01
 -1.4130490e-01
 -2.0306037e-01
  2.4721783e-02
 -2.8238397e+00
 -3.8901603e-01
 -4.0557864e-01
  7.7162719e-01
 -7.5823426e-01
 -1.9104447e-02
 -3.3098179e-01
 -1.3359748e-01
 -1.1705815e+00
  2.0175727e-01
  3.0524185e-01
  1.3757484e+00
 -1.4003639e+00
 -5.2212000e-01
  2.4508823e-01
  5.7521933e-01
  2.2976957e-01
  5.8996670e-02
  3.9317963e-01
 -6.0043788e-01
  1.7934178e-01
  1.3714142e-01
  3.5257253e-01
 -1.5233725e-01
  4.7584319e+00
  2.7902406e-01
  8.8136740e-02
 -1.5247904e+00
  6.9825113e-02
  3.1386828e-01
 -1.2937114e-02
  2.4207652e+00
  5.5257857e-01
  1.2934013e-01
  5.1816994e-01
  1.1671962e+00
 -1.9568594e-01
  2.3346239e-01
  4.1319448e-01
 -1.2554716e-01
 -2.1702201e+00
  6.3715406e-02
 -3.2382414e-01
 -5.1097035e-01
 -8.7529197e-02
 -4.7896050e-02
 -3.1227078e+00
  2.3043852e-03
  2.4346687e-01
  6.7316599e-02
 -4.0485239e-01
 -2.1498859e+00
  8.3993301e-02
 -5.5627376e-01
 -2.7484450e+00
  1.8599662e-01
  2.1536888e-01
 -2.3474578e-02
 -9.9584803e-02
 -7.3706144e-01
 -1.7001066e+00
  1.7213398e-01
 -1.8592870e+00
  2.0021586e+00
 -1.9003290e-01
  2.8061290e+00
  2.7054667e-01
 -7.4763045e-02
 -1.7929510e+00
 -1.4222768e-01
 -6.7336136e-01
  3.0968568e+00
  2.8545809e-01
  1.8395925e-02
 -1.9279100e+00
 -1.7967418e-02
  3.1124377e-01
 -6.6863114e-01
 -5.8860715e-02
  6.2147927e-01
  3.0191591e-01
  4.1385090e-01
  5.9020873e-02
 -4.5902702e-01
  2.0768484e-03
 -1.2946247e-01
  5.1816022e-01
 -8.0656901e-02
  3.0830145e-01
 -9.3572319e-01
  2.4997815e-01
 -1.2735139e-01
  1.3801476e-01
  1.6463935e-01
 -3.7373504e-01
 -9.4618879e-02
  4.5284370e-01
 -3.4430078e-01
 -9.6564427e-02
  2.5766218e-02
 -4.4325799e-01
 -5.1324014e-03
  5.8490880e-02
  3.0546758e-01
 -3.0039483e-01
 -1.8354791e+00
 -6.8543237e-01
  1.2304404e-01
 -2.6782605e-01
 -3.6583754e-01
  1.8247241e-01
  4.4443679e-01
 -1.5895523e-02
 -4.9454287e-02
 -8.2426620e-01
  6.7826383e-02
  1.9265227e-01
 -2.7413464e-01
 -1.5547103e+00
  4.8915844e-02
  2.5431794e-01
  6.0460716e-02
 -4.2451435e-01
  2.3968771e-01
  1.4881303e-03
 -6.1069930e-01
  7.4734336e-01
  3.5117018e-01
  1.4147891e-01
  7.7940531e-05
  2.3499182e-01
  1.7654997e-01
  1.7440206e+00
 -1.4516015e+00
 -2.7978727e-01
  4.9997601e-01
 -4.5224789e-01
  9.4296485e-02
  4.6164602e-01
 -4.9835017e-01
  3.3581269e-01
 -1.9047721e-01
  2.4206766e-01
 -1.5726034e-01
  2.7597237e-02
  1.3962859e-01
 -1.1586628e-01
  5.1035590e-02
 -4.3345132e-01
 -3.9116067e-01
  5.4394859e-01
 -6.7364812e-01
  4.4032227e-02
  2.7785838e-01
 -1.5988085e+00
 -2.5340635e-02
  1.6093777e+00
  2.7943513e-01
  2.0238200e-02
 -6.9778699e-01
  9.2465430e-01
 -4.0837830e-01
  1.1789898e-01
 -3.3467138e-01
 -2.0989199e-01
  4.1214192e-01
  9.9395867e-03
 -1.8258553e+00
  2.0478485e+00
 -5.2003879e-02
  1.6139705e-01
  3.2379303e-02
  3.0197242e-02
 -8.5580635e-01
 -2.1143425e-01
  4.1122269e-02
 -5.7897162e-01
  4.3812826e-01
 -2.8616941e-01
 -5.3156114e-01
 -2.5699341e-01
 -6.8835830e-03
  2.0386907e-01
  1.3355317e-02
 -2.1562544e-01
  1.9919768e-01
 -2.1267047e-02
  3.0736990e-02
 -2.7893484e-01
  2.0712657e-01
 -3.2948881e-01
 -1.6404802e-01
 -2.1643830e-02
  2.6978680e-01
  3.5140359e-01
  4.2282027e-01
  4.3912310e-02
  1.1266359e-01
  1.7641788e-02
 -4.3728945e-01
 -4.7570160e-01
  1.1820706e-01
 -8.1690562e-01
 -4.0352643e-01
 -2.4974206e-01
 -6.5335892e-02
 -1.6367050e-02
 -1.7079775e-01
 -1.0697933e+00
  3.3937362e-01
  2.8950959e-01
 -7.9935469e-02
 -5.7327300e-02
 -5.2806097e-01
  5.0570601e-01
  3.7298524e-01
 -1.1388153e+00
 -1.8246309e+00
 -5.1321730e-02
 -2.2981730e-01
  3.6559179e-01
 -7.7501662e-02
  4.6843294e-02
  6.9990945e-01
  3.2101381e-01
  2.0289488e-01
 -1.0064207e-01
 -8.0284739e-01
  1.1121491e-01
  2.2802669e-01
  3.0707443e-01
  5.6711632e-01
  5.7408982e-03
 -7.2146244e-02
  5.9788036e-01
  2.1813293e+00
 -6.7446679e-02
  8.7455624e-01
  1.4111233e-01
  1.9019480e-01
  2.4608786e-01
 -4.9216319e-02
 -2.8977988e+00
 -3.9470077e-02
  1.6343732e-01
 -3.4496728e-01
 -1.5012988e-01
 -2.5334382e-01
 -1.8181345e-01
 -2.2736177e+00
 -1.4730633e+00
 -2.2542633e-01
 -5.6322783e-02
  7.0048228e-02
  2.7874640e-01
  5.3110987e-01
  3.3583829e-01
 -8.5707463e-02
 -5.7444479e-02
  8.4522255e-02
  1.6879050e-01
  3.8782621e-03
 -2.5625521e-01
  5.1756126e-01
  1.5052918e-01
  1.0566787e-01
 -3.1140542e-01
  1.1018578e-02
  1.0528336e-01
  1.1735529e-01
  5.8959341e-01
 -3.4734413e-02
  1.2240537e-01
 -1.8578950e-02
  4.8085231e-01
  4.6442039e-02
  1.0670329e+00
 -5.4547983e-01
 -1.6131554e+00
  6.8323806e-02
 -1.5372157e-02
 -1.1534208e-02
  1.1833436e+00
 -1.4607001e-02
  1.1837627e-02
  7.7365890e-02
 -5.7552993e-01
 -1.2726043e+00
 -1.5107834e-02
 -1.4925801e+00
  1.3900933e+00
 -1.2689219e+00
 -3.4761637e-01
 -1.2607481e-01
  2.2749819e-01
  2.7043825e-01
 -7.4762657e-02
 -2.2455853e-01
  2.6645222e-01
  4.2325729e-01
  2.2199008e-01
  2.4851644e-01
 -3.7985638e-01
  3.7897757e-01
  2.4850431e-01
  2.3559904e-01
 -9.6981221e-01
  1.6150036e+00
 -3.9111674e-01
  3.0820767e-04
 -2.6140970e-01
 -3.4379536e-01
  5.9739101e-01
 -1.3398836e-02
  9.7962236e-01
 -1.1275100e+00
 -2.4476641e-01
  8.6675715e-01
  1.5173907e+00
 -1.1650039e-02
  2.7261695e-01
 -2.7226621e-01
  1.0991272e-01
 -4.1113490e-01
 -1.9215834e-01
 -6.6372889e-01
 -5.0084345e-02
  6.1051846e-01
 -6.3398039e-01
  2.5008309e-01
 -1.2060544e+00
  1.5011102e-01
 -7.7483438e-02
 -4.1706768e-01
  4.4678026e-01
  6.6093922e-02
 -3.4317559e-01
